784-16-16-10
0.059878143680492824,0.024965992768413117,0.02385209150439975,0.07254495420125565,-0.09153502381643802,-0.005883143646059491,0.02815643940685525,-0.05321888301502236,0.07684714472961424,-0.09533104465173273,-0.015413357736220018,-0.03474632084450946,0.025678106949842322,2.7994738620999715E-4,-0.05406445037409895,-0.022469736973728754
0.0545951295813297,0.04738163909775611,-0.05599418751206706,-0.08997888497920921,8.806718242965611E-4,0.09480571859047637,-0.06473388161109234,0.0756536577013476,0.002211766091705508,-0.06525650800823686,-0.011674564396618431,0.022082001038362248,0.09220637275796204,0.07908390043911415,0.07095664457255163,-0.010796181991873224
-5.14673356066031E-4,0.005710921645872807,-0.014399909373954967,0.05668752430875554,0.04435385985542997,0.03236729386564449,0.03416403201069823,-0.017343118092607274,-0.06059977735057216,-0.025247291051944995,0.05700135057591568,0.08032792523720059,0.09701696376006758,0.008368284377120741,-0.07535799588697867,-0.05482367815927447
0.030816507691611872,-0.059590644043041534,-0.030354301228152927,0.08501838890698019,-0.03868739289320455,-0.07647287902362357,0.016931697546008456,0.09232326544328703,0.0593076245847238,0.020824333559398583,-0.04151367877057497,0.0894787462886516,-0.010873696028493127,0.01998724553064231,-0.06966245714307982,0.04261535205369121
-0.07203781764623679,-0.08992102060517118,0.08575624974994989,0.017219538580356075,0.02569389759542101,0.01516478834323684,-0.07032410541761369,0.02621474290125536,0.07014064616946558,-0.01462070174880123,2.7987918835378767E-4,-0.08556005926592058,-0.020959508417000533,-0.07110127497557106,-0.0886622501788139,0.09447965209927775
-0.0766188861796672,-0.01290209246146394,-0.012160949735613769,-0.0911261896400893,0.09334339691842675,-0.0943207954346813,-0.017715911934089584,0.028834536723277904,0.009957949050115267,0.09709007777408149,0.08228227135610561,-0.05275687978721149,-0.013232007468943624,-0.006511681175749365,-0.003693197959969835,-0.005188083910242544
-0.053667492970096875,-0.07980172934994685,0.06707719268088738,0.08900528813720507,0.027609019160268117,0.0701329778088001,0.06859860941536158,0.01817666523316412,-0.09513895899460073,0.07286397285457344,0.05121571383251494,-0.07030043605327914,-0.09965022399244038,-0.04048667332770002,0.03482347693305515,0.08491164075290272
-0.01890236096214057,0.028057505025966767,0.0019087957686965834,-0.0037771902522033968,-0.038894621826654846,-0.05389260957319513,-0.05891216066973588,0.0452117309844387,0.08720548134554215,-0.08586264734461757,0.02339067159540212,-0.08024705158183365,-0.07857175220312074,0.01821853958813821,0.014650857423651242,0.08471395846881821
-0.010939459134648374,0.005455643226195489,-0.06478859796708766,-0.0447979782764417,0.07803682142134002,-0.0036262024760012473,-0.09664553704449728,-0.02084410032175958,0.08810704670534894,-0.03963973455855938,0.08681883010719596,0.07838019299123375,-0.04866265584994676,0.03971525563136441,-0.09458028519975459,-0.06274135195885436
0.06260669196311858,-0.0888503782258977,0.06601324507069489,-0.03537639455338855,0.057129421048488394,-0.002600803994469797,0.0910572150167411,0.0639072494925905,-0.0531963714448686,0.04896143583855725,-0.028786291219237703,0.08146220904879473,0.06272673008141111,0.013047404897964049,-0.050058665802765016,-0.00721867928661106
0.04277801919535559,0.08862312372736364,-0.03493487238323448,-0.05198915270169516,0.08112711237773915,0.046576277673217426,0.0775804781921185,0.0643648159282045,-0.06405567694328954,-0.09063846834135135,-0.09007197834843561,0.021160081676152825,0.08636702857677026,0.006383367270135332,-0.04175282507196343,-0.08741827305618427
-0.03961790845564868,-0.023362117046447417,0.08967288182883881,0.08916186736455975,0.06697072428191458,-0.09665125287284433,0.015711730274116806,-0.06746480441492289,-0.05980010963979565,-0.005102612385276942,0.0014794245987258536,0.015285345690182098,-0.036513992441504106,0.07046909439588542,-0.013038099767881658,-0.011100816016007542
-0.0037995000320898394,-0.05292713825911608,0.08069554800084631,-0.04224450063244613,0.09730584873365472,0.04357398761354994,-0.060549527344440725,0.09573250425477398,-0.004221719451835348,-0.001455472097300616,0.07748895793791308,-0.062473045604355223,0.0384184273320052,-0.02502485893425223,-0.05754058815340751,0.02088279918723669
-0.07381310053110213,-0.028651169153728024,0.045341633332153304,-0.04716267546318682,-0.03324323079305584,0.022976816475686397,-0.005263596331350915,0.03136464118213439,0.06472003097808329,-0.006350760744901339,0.07424983548681091,0.0049395315625249,0.07911046922216212,0.09793849558034046,0.09657443989972275,0.06982420143779264
-0.07242568061567997,0.08400420955384909,0.06447376451864767,-0.06669040523195023,0.017371184206613714,-0.01450267335173703,0.04752777015660013,-0.009267533548912708,-0.010488213427328563,-0.05424961310102689,-0.03697899557578061,-0.09868071495583165,0.02547609094546529,0.09042408194538343,0.03390531213947663,-0.09411030709910322
-0.07471754589197738,0.022524086639996204,0.03905391375637159,-0.08335181886067165,-0.034323220148807315,0.07442966228766663,4.440745345245008E-4,0.07745491274092872,-0.05803821479267317,-0.06309474321752133,0.07801164556659902,0.014475150614815822,0.025378773748604207,-0.0012807800679370633,-0.032795493946272354,0.03826680967365984
-0.027883437661389218,0.001795940143436911,0.036626761937398555,0.0483618504487828,0.07405041326538334,-0.0658061545206639,-0.07600451351651161,-0.042831470240571545,0.011141695990343939,0.036701275494785024,-0.09626827607816019,-0.0866421457666402,0.0443889517080604,-0.06287043476399695,0.013036908650934237,-0.04795524021994686
0.029242402141603396,-0.0892724066792604,-0.03848648017103682,-0.008709293346873606,0.019723392636837728,-0.08411999313789864,0.09531811624022157,-0.07307329483205344,0.01292506573038725,-0.005724793055626606,0.02318182252357119,-0.0636354891831081,-0.023720261189922473,0.06720863927311124,-0.08916249488338884,0.04755300462097278
-0.056485564366876934,0.034589895133099346,-0.044777055048281424,5.076063572248407E-4,0.05435531022497908,0.07888205544474666,-0.06899590660648836,0.05796912123283937,0.03050471667171234,-0.08422884069683895,0.023798961115677947,-0.032901174427316326,-0.02272431717211934,0.030634596580505186,0.09969035705898144,-0.02137583595643619
-0.09003944634978128,0.06970308607742712,-0.07417490275847816,0.04558803292194463,0.045976773670855564,-0.07726449396314304,-0.02193526022336098,-0.016700898929449065,-0.08305183350834458,0.059777570390545515,-0.06769631848618729,0.02197963382361652,-0.06055157285530497,0.06475263198405229,-0.0477541953732408,0.06787536565454064
-0.0014361172974527159,-0.09639980244795786,0.08877925678145748,-0.06461327658805455,-0.04071888725739266,0.05857923988227248,0.02211324886124036,-0.05629793091962448,-0.04882069233066191,-0.03613733393796788,0.08640364592551025,-0.001500646908058359,-0.028337678459909185,0.08631840214644007,-0.09088379160550325,0.01636349063789362
-0.052039112200991444,0.08710545952810225,0.03694439401483132,0.09554708050594071,0.0535257732610985,-0.05905800087298618,0.005217459849443037,-0.0413630337165988,-0.0015376452407291213,0.033291709351742665,-0.0638812376848584,-0.06599914472003807,0.09109507677872652,-0.07924710620934781,-0.033493722102432386,0.06763203347992428
-0.02290904477565378,0.019535934865907698,-0.025271962623389863,0.04214200068081014,-0.050476657989427354,0.09071739387818398,-0.07493868392991297,0.0933900793486489,-0.02073845855962035,-0.049140542803891796,-0.08277005528822826,0.008327471198616987,-0.08862442893038103,0.07660731805163498,0.021037716574917306,-0.09676892687795756
-0.07425172561396814,0.06115180874718279,0.08832164917586349,1.289643064147361E-4,0.04467427463645218,-0.05945406878312853,-0.09894177520412545,0.029825732445276226,-0.08705907431520275,-0.05240786065192043,-0.043552764382893065,0.05494693073653628,-0.06544409849295563,0.030958434202439378,-0.04277934621357198,0.03403398413492428
-0.056423181079505814,0.04674812511468723,-0.03380265142564069,0.09426306516639149,0.07433642967445397,-0.027189934999791207,0.06745161422399043,0.09502576201050947,-0.08882459118314628,0.02982601656308917,0.08986476652840908,-0.011225916570809763,0.07214730396797667,-0.009480805157097413,-0.02428773061168535,-0.025638757793310804
0.08365509095312337,-0.07210665965735417,-0.09596466896181358,0.08306485456646731,-0.028858439306348724,0.09946218646095217,0.07287081070012277,0.06188773464561942,-0.06745220656192294,-0.0491595286452909,-0.09168759475917852,-0.09906425531449013,0.09146496716556893,-0.023201165847925975,-0.04156507341493148,-0.09857960266382948
-0.004746761889949963,-0.05801928480033336,-0.07803209724716526,-0.03074060622555519,0.034365065383746896,0.03322836362425083,0.0819338833279592,-0.05432122537717439,0.05639810329399325,0.09908538964176836,-0.06408225835259823,0.03393782493189956,0.06701211286600325,0.09323496474572804,-0.045072475172482473,0.06766922803030201
0.03634664897845613,-0.08622039941832421,-0.033941467826616445,0.05870137110169538,0.059785072124681315,-0.03585016668996366,-0.05683478162695779,-0.04790999381341224,0.002391423224116146,-0.008661377224225636,0.050739558345443136,0.07337700045798645,0.09736505717687047,0.07837434583542996,0.05050169993813544,0.08898166136237196
-0.07287477406031084,-0.07683543916386955,0.0054743611936156344,-0.0860249446577352,-0.07916132679577269,0.013903640079431095,-0.04563829547934095,-0.04426353471034564,0.06473139782194104,0.039616915373593964,0.01635858253109279,-0.04638192394698462,0.01674821041646557,0.03938301496896471,0.06610107686055011,-0.07601892434048396
-0.025338125264794772,-0.05567665014242165,-0.07854534196539992,0.02761663502439307,0.009950108414179232,-0.01173590785956187,-0.05520784331865905,-0.04833917134561261,-0.08739047428744494,0.00789851679000482,-0.07303280237676468,-0.07702862249632275,-0.08146925192499224,0.05683290510000816,-0.06588494816966356,-0.009395657806923086
-0.05328061723608937,-0.027468181499703564,-0.08504980151736546,-0.04731844105124912,-0.0382556664577018,0.08181924942272065,0.023496582013470685,0.007830638343474902,0.02373108957276268,-0.05320173927626648,0.06273009050681022,0.04784303810836993,-0.08457295934344003,0.041857347382097954,-0.0010585368975333936,-0.038896862113896695
0.018827311571315078,0.0880784009873839,-0.03264423969342527,0.040213050933377126,0.005064072148317639,0.08766636708043704,0.08183452228475155,0.06894415528938821,-0.0405141022741929,0.004114423060651282,0.0324837470597705,0.05632685010692495,-0.020472253318952707,0.09345535518822748,0.09723060762045563,-0.030742916810831397
-0.021446791316846323,0.08805077748748205,0.03250220676377913,0.07953082751366546,0.09613187541601835,-0.02915056373132167,-0.024893886159743236,0.015690050623954746,-0.04789594377633485,-0.010699609331061496,-0.019806431027493108,0.09140800124931804,0.0352966109498816,0.05130898709759984,0.09851652977653959,-0.09079398322469495
0.04558424346984416,0.008863533777628692,0.06438252997099354,-0.08690183439044818,-0.018773381065039264,0.06932362818863945,-0.048293019698036205,0.09789591481850349,-0.025857929248618145,0.05591364598877413,0.0633195783304468,-0.03724635169637377,-0.07840542785896318,0.09146288233533605,0.04248755714873318,0.005172002263252872
0.01684034449594921,0.040206560222899486,-0.07809258683110556,-0.03083608275342269,0.09834190247929359,0.09412604127622326,-0.0919443686421665,-0.02046749267409152,0.03864438978521148,0.06678820172705795,-0.02536546619384738,4.986822927449768E-4,-0.09280453003424151,0.09199523058764433,-0.08437532736923936,0.006196236711876236
0.09764377458808257,0.06156560412486658,0.00416157466387926,0.0120100943974938,0.01887272825613774,0.09892699370007672,-0.07722696102243204,-0.06211756153038408,-0.10074422560995047,0.06365027787153119,-0.004888077686024208,-0.051000611944065403,0.0342643797841101,-0.044795825244149066,0.032991585443248754,-0.03333548706268895
-0.004768286371633842,-0.05629065810008938,-0.062208977610725615,-0.07258321937869082,-0.09830053650210757,0.07018720742808217,0.07193252118440449,-0.03195980619318663,-0.014570437825069988,-0.08231261309259451,0.09622397456448539,0.03992603220403946,0.018478353768344887,0.04705637604190292,-0.0752559786352351,0.046872033553978745
0.0339874500337021,-0.10850653023144623,0.07838843470270879,-0.08126121355046916,-0.001717882062246409,0.006570202203439512,-0.0670728344549501,0.06567065543810119,-0.00485027466597981,-0.07191217784086357,-0.09084066168771177,-0.0917459711904889,0.02376108247189858,0.03948196670306671,-0.04506859400939331,0.07407809297591521
0.09352290362157184,0.03899405247864128,-0.09144983272594391,0.08522027245794052,-0.07369440707668486,0.061046293700714814,-0.0919825748753325,-8.750492589351101E-5,0.09313534624599636,0.08355259920722644,5.2298856327881E-5,0.08939937953002047,0.03628297386205977,0.04221674441484576,-0.0727916604800085,0.09380515825730855
0.03343057732859007,0.07809281856566541,0.024990295716483125,-0.09157670320580386,-0.05206788911423968,-0.023939484747465982,0.0413392048834056,0.06405769480187885,0.10668653896847691,0.007383357728777728,0.0373047773448229,0.07455050799621869,-0.0533212018449982,-0.001400073462557106,-0.029062536926222526,0.04750529211618908
-0.0845207664312899,-0.03531491943896256,0.03181830590921336,0.00909076608464841,0.08637886459404635,-0.04562246239489544,-0.03144078358387007,0.08440350138755665,-0.013451018401708478,0.04180760088005447,-0.11054441637920992,-0.038525005185457144,0.07925442580342816,0.06414297666338148,0.054719597624486485,-0.08479883247955255
6.504957266948709E-5,-0.0808374205230913,-0.018907418394258253,0.026032162857621485,0.07441980739047441,0.04902353393552914,-0.032524750647067564,-0.05694079101485457,0.05755620004676314,-0.01736092587200333,-0.08243888425231595,-0.055489339634415,-1.0111701205876166E-4,-0.06881259818042837,0.07462252251949913,-0.08539580772138401
-0.0929297552806777,0.013626734754326606,0.05014255183311057,0.03597700487271103,-0.028240029666924498,0.07482429982965369,0.030808160226991288,0.01481675171124374,-0.031322101317934226,0.0487791382773053,-0.07303269387750887,0.003772057343246935,0.08022018388218134,0.057969849369537425,-0.04707516327031355,-0.025727663376664107
-0.09310080679946091,0.06388165764312356,-0.05323373815915226,0.0489409205364666,-0.04082349251659769,0.06102830276007788,-0.04762064179932866,-0.07629462047909603,0.03623932437195417,0.04715557169306718,-0.1085776683512167,0.14011969683561587,-0.048183025903229225,0.06520030758221972,0.04288570492381421,-0.014955207010192784
-0.04481650114689396,0.011628813817484821,0.041497202759802045,0.03378233104850344,0.07465559224602256,0.012841984151791826,-0.042020954109306174,-0.008990459340421045,-0.0485495212301778,0.10142750697612661,-0.15530188308862758,0.0361583807855732,0.09017627696245001,-0.0010610321559617135,-0.10085674585540501,-0.07308290150614605
0.06604835714856735,0.09001161340591343,0.024207392769376956,0.043937035505388446,0.033249304641556454,0.026671428237788914,-0.0026271235188144106,-0.056138485620386806,-0.003499790011223195,-0.024224994044493468,0.03383083156481243,-0.07342118083448317,-0.0554757418608872,-0.03757156782986855,-0.09135977555250108,0.07608512864130454
0.03085557532423664,-0.04168977996430518,-0.08363748092086645,0.07038216195283088,1.5031437362110695E-4,0.021603865195330453,0.005527454319788638,-0.08961421799385133,0.04982367121412502,-0.04676635961687675,-0.0922063573140938,-0.09247309291923274,-0.06027498619089789,0.058714036143586563,-0.08733402070164192,0.02488912647604732
-0.0095769074697265,0.08335622381846149,-0.10019150265892436,-0.006908148354707529,-0.06516246259960903,-0.08461032213222099,-0.05852336281720984,-0.0076458113582660156,-0.039426736319959625,-0.015944403175223824,-0.09643666788144319,-0.0728819054578925,0.03059213394800689,-0.08734683406166219,0.07961179642920493,0.021028059290357472
-0.04058334145287422,-0.012843753541610116,-0.06810580084968218,0.03994560610962287,0.05115349795759647,0.03528363680342879,-0.0010575240437076588,-0.030307697611561542,-0.09196578382630265,0.04979405711485042,-0.008411187321659451,0.06677615384481797,-0.09030832138933695,-0.031263676180943736,-0.07823440704591468,0.02524653474412518
-0.0346176924354249,0.027894648469116427,-0.07638543275165571,0.020194086028712924,0.05237304998505634,-0.07104533805008476,-0.08167817856782858,0.08311244018608692,-0.014105051585504284,-0.04097991797448018,0.08209670921199078,-0.04744997985237627,-0.033174793863032265,-0.08812448318534864,-0.05890492926436881,0.010658762949943466
-0.0321108759400431,0.07721007275169298,-0.020166514366781782,-0.023323648162645778,-0.09166924499986377,-0.0504694706149808,-0.08957607874779461,0.07803971285304835,-0.0408313097011012,0.028351261257963813,0.08298862679201983,0.08922313251377918,0.025025506275275253,0.004313908527314007,0.030145198335546675,0.02983198979174943
-0.06360442827785553,0.033082425602109174,0.03729699091197979,-0.050329973468103084,-0.09404516520823619,-0.0482055621593588,0.06289996390583551,0.01796714847452052,0.09628505255984657,0.024594439624161937,0.06760555800458504,-0.020947771604432307,-0.08722179254051173,0.06396941730201999,-0.024628631475733305,0.09432685914628122
0.08887503164985153,0.09112923495894293,-0.051081034734224096,0.05616076679781681,-0.0649880132906769,0.033873824785909584,-0.08076311968434308,-0.029350928072354607,0.09747748575779738,0.0665804871103883,-0.015094327927112558,0.09110810283203066,-0.024034473869243983,0.014490925732530302,0.0087211184418476,-0.04882941106110801
-0.053197206300254735,-0.056729682726147736,-0.009392844195494049,-0.04579883989212046,0.06431592436266878,0.08130696169461124,0.06153730914288355,-0.06239731474257448,-0.04041590763247982,0.07535300385968721,-0.05194679731797436,0.00901054806585247,0.03309409495322638,0.08078178451752058,-0.007667864825242884,0.016724184216543578
0.07165860931151899,0.062444941054255326,0.0074796090816899585,0.0690702460331471,-0.019087560602146753,0.01315395190858823,0.09115841444637357,0.09778421888250818,0.07006908171828594,-0.014244345940150518,-0.027903728043674247,0.0403726558855608,0.07928802299017892,0.03436840521553805,-0.025798527584015504,-0.020306386716678393
-0.042969624830499424,0.08931045210507774,-0.09611611272378594,0.07884998815444219,-0.03705304574740069,0.09658385624421525,-0.0028103012843497394,-0.028452303883757954,-0.025017622478198123,0.05747621772578068,-0.04815707389949147,0.035475479841016316,0.08855367111562701,-0.045884260329255855,0.08615015923172661,-0.034781668672452984
0.01687637462061406,-0.022978044172538348,-0.018047772813625282,-0.04094160565304941,0.01149596547515859,0.05152680608182522,0.05809121210465959,0.07463559390583474,0.041200024132080126,-0.018283984868572592,0.08161557212246323,0.08248790293727831,0.010616640810937564,0.08583309031320749,-0.06191913701085148,-0.07252992022661704
0.08317943360284236,-0.013465824578330454,0.04607480045911527,0.06606674345661367,0.09841392025890014,-0.020579015412660856,0.08898717420521382,-0.04410293413344753,0.035099297109631555,0.027020058270237096,0.023711191378709667,0.03238054807966714,-0.04450405052991076,-0.08645853168447931,0.01999839102731009,0.08861510734854641
-0.08369661339029466,-0.07417071883634406,-0.09740873891763972,-0.03157450845526488,-0.04953861868682787,0.09156990577306749,-0.06936427057712406,0.08826577925227504,0.07163308757604951,0.022163832346969305,0.0744630209338677,0.04797423527293717,-0.01788888900701748,-0.0273299189588794,0.021557852222875235,-0.09372857972193004
0.03520389801032747,0.07971375488722833,0.07926058487910467,0.06760462662819561,-0.08949049215644354,-0.09509068365076981,-0.05209093200137137,0.06651538400739804,-0.08005410164283928,-0.0442140792963121,-0.03466241490239758,-0.047193556026567794,-0.008660730559605928,-0.05065339692576302,-0.0654384234642675,0.04285096261744033
0.047282536108142335,-0.0650961497737623,0.04317302967920251,0.0033656329416633397,0.024111187153335056,0.06606971028965587,-0.06565228352080202,-0.03037194851866635,0.012994478033934225,-7.47975136214744E-4,-0.09430298941806912,0.06716535267154207,-0.03438630170776154,-0.09276224299111163,-0.061252605492016055,0.06926508181315967
0.027891251279889978,0.08632719910054525,0.0856899883402978,0.09943079926930798,-0.052232767816411785,0.026593449906410698,-0.0653959879188456,-0.07163932504996869,0.04854990802932558,-0.037753044565759473,-0.047431991415181236,-0.030208216497864135,-0.030219724455146528,-0.0951510417500319,-0.0016719696682697023,-0.0700073661910491
-0.07302819864804294,-0.011255764044674148,0.03201082277607542,0.005620423364071774,0.012719191463365693,-0.01869511695743456,0.08860779134451767,0.08532665361810114,0.023047075680033183,-0.08708462265506654,0.037160104752622776,0.04553500195434625,0.0031040777296562636,-0.00970285305986565,0.08382057253952675,-0.011597752316685243
0.02350740394264556,0.10993626536262825,0.058600076893597454,0.0884065700835419,-0.09066086331341941,0.06339896888854671,-0.051844398418988094,-0.02620909421229814,-0.03655016247643743,-0.08188099399942714,-0.10858053781837049,-0.019110064239297037,-0.06570650130334041,0.08033473335311103,-0.02974265769434109,-0.010495055881985035
0.07826322745668451,-0.08956379131141631,0.037798921751849124,0.04139199655967668,-0.11875061300612375,0.04794004853304993,-0.11570938064567338,-7.646319452898411E-4,-0.05957999753094811,-0.06360873998243086,-0.0287097108500749,-0.0032343114129071864,-0.06819726572926192,-0.10420044543692843,-0.0535022453291787,0.03016700697856903
-0.01772533713306348,-0.03397037953163411,-0.04870334483104182,0.07966745388271396,-0.01236010560212313,0.15775883081284922,-0.048754379111366264,0.0025471793458100044,0.01967647093441179,-0.028709597496187837,-0.1084799228112812,0.003546323925381737,-0.056288976135216655,-0.042779841968349164,-0.004856172025179365,-0.013083710753772461
0.10763596906881451,-0.012925012779789814,0.01799006192869137,0.02479779649297728,-0.15964304054955475,0.3116992348853818,-0.06592844308493578,-0.015228137823450455,-0.0324267218938151,-0.10061798340744271,0.010838716840681214,-0.0816110949356955,-0.07023431229162358,0.0032374815718948444,0.021587455109367378,0.02043256326153418
0.056900028415531094,0.0041199193791385275,7.449466547302702E-4,-0.030143243765890667,-0.032904151783310756,0.43451609418224285,-0.08623892530931601,-0.08363288415926601,-0.04222400192408304,-0.001443441677132136,-0.11894303979340323,0.04303808217547963,-0.06465062748126835,0.05609399543911719,-0.12084020529777707,-0.0787646273823055
0.05799774346907441,-0.03383413894072726,0.021222482767028348,0.026562054808109695,0.04530061052130298,0.33590897922759233,-0.03976564317783106,0.01598469251615366,0.06528721900638508,-0.14304224599112667,-0.05303957115186012,-0.09947716029951668,-0.17845831570427773,0.07681219298957435,0.03243763896656657,-0.04338344188744841
0.1278823094014503,-0.0961474820781049,0.04215215966180593,0.011745297317713873,0.07388327928153471,0.2745102375150036,0.031370820849857387,-0.005057512621093598,0.07019806646432121,0.02582714729979156,-0.24407521852737132,0.07170275693603026,-0.07051534006828564,-0.056159047996185825,0.022397044070583967,-0.050689857877211704
0.027357615305701417,0.0491898464385732,0.08632476376761732,-0.1378080479182987,-0.1191181309616484,0.3817382948745611,0.03521399364610939,-0.04715866881825812,-0.058199550681090555,-0.060346622890873884,-0.10071077494947944,0.026693745755307263,-0.06839787713369556,0.0929385431961422,-0.0921988649674698,-0.0028943678951836743
-0.04821474640523586,-0.006308640263917827,0.0015370176441432807,-0.2568857677684935,-0.21973253192144065,0.3830915510054331,0.02448482281507352,-0.12827750326875173,0.08054436921280982,-0.004599619920725325,-0.07109386070782302,0.12447214498314572,-0.18241644268918836,0.17116001712420745,-0.08873687632626036,-0.005202764644219519
0.012397500514627522,0.0884486498358895,-0.029063659285853333,-0.11616418935546553,-0.15249034545541562,0.3968319241567496,-0.09380979018892353,-0.12487076888548325,0.022409260060045372,-0.1279586773699758,-0.08353194364240006,0.11157359262100168,-0.17365563064239584,0.14220309120324337,-0.11275322273186682,-0.049033738415202796
0.020833828950273216,0.1895356585216994,0.050628773339051546,-0.012759149136142182,-0.05540171994565389,0.2842329182114497,-0.05860228400395007,-0.16628552385152245,0.09014174816803747,-0.06393685958951151,-0.14006744082116812,-0.01302629473400515,-0.0860557446775466,0.0561884977981892,-0.05918268305971463,0.04118441177353635
0.01896401932939713,-0.17864681324639844,0.059593333300708255,-0.10561313011615873,-0.17065349406038713,0.28370951631247,-0.011965750445651043,-0.05554753269801435,0.09252695834850415,-0.039424756411715486,0.11937057613625328,-0.0161417453714582,-0.03723801857165346,0.033522499875420005,-0.09999081765127096,-0.06004340285551272
0.10218385118190186,-0.1462047924486174,-0.05722596036232305,-0.062086055878921305,-0.1687329424390478,0.12596450355024452,0.027264309425595868,-0.11088999046525515,-0.0069126683888274245,-0.10809966805886878,0.08886356043949124,0.0022092643548344824,-0.010210262599575238,0.07338005948783559,-0.10640390871765167,-0.11143992356733165
0.020272560026665897,-0.2006186160773474,-0.03577726574908944,-0.09452129074178106,-0.0872282500050879,0.15531457156590048,0.001668218752496833,-0.031506795156276836,0.0015059239282297755,0.06184672294446305,0.05731820117050485,0.04599032896043381,0.03287607218230123,-0.024269713047448578,-0.024481778979359776,-0.05387620418412328
0.07480285772785591,-0.16833401685270924,-0.04005171046632727,-0.1292895457710265,-6.755315715675571E-4,0.15660060075929177,-0.01657934585268198,-0.027849721225391675,0.02298018462903811,0.07477511521372109,0.04767226274093713,0.07690826214415966,-0.08047318146898833,-0.07518185727792398,0.07590910487223301,-0.0562411041054969
-0.015571403848059237,-0.09220427645245283,-0.013907147782799735,0.06617879649698054,0.015215351044539702,-0.0038474715139904425,0.006333298783650717,-0.08274815462423339,0.04662533814237668,0.07716570186461305,0.15643028959746552,-0.11289606001289275,-0.05337911098149828,0.05746461234130744,0.053363524018424514,-0.07341178596548037
0.07245251843021354,0.04513418261236742,0.051917916650270825,-0.1048468294010751,-0.030101014931131112,0.09841244893620628,-0.09190628172315474,0.02469945552910462,0.05204739816260955,0.06124614747933754,0.037803330919641526,-0.09906580010546993,-0.016496586261339305,0.0022725804101237424,-0.07599536133057619,-0.10065628302926143
-0.04764171388960768,0.023623517352955637,-0.10495033304063962,-0.05278744448774517,0.09725200047099504,0.041162609546035275,0.004850478064162063,0.07768983798501405,-0.044455047937957314,0.011159597970307428,-0.058400092451756085,0.011068939959781608,-0.0837245641454606,-0.013915733358832805,-0.015671653770299106,-0.07406000686958548
-0.09156227556155622,0.06556227001900634,-0.0767661296415148,-0.0739956178875286,-0.028676327912739285,0.06093616895336048,0.07602798644562676,0.06168520123819316,-0.005623943347699028,0.07017927382939479,0.025525563411450316,-0.04888638652538125,0.028390267304551676,-0.03709671434706991,0.046489691377967185,-0.02113073817063259
0.04693817734185074,-0.04228784003903188,-0.08343858483288986,-0.07181889664148305,0.012538652102052114,-0.07703814423814714,-0.09885037470778875,0.05799253292824491,-0.07061467675558758,-0.011346848394529305,0.09223438079247731,0.09216924103294138,-0.009221639692328074,-0.012129688821894441,-0.05634618753152901,-0.08004630438293514
-0.09431457740486493,-0.0859741619142531,-0.07919733518535044,-0.06779048837377971,-0.021419297488828357,0.034266755688849515,-0.0735841192064029,-0.05021272109816453,0.05600914656069805,-0.06434052992775374,-0.012306023641779462,0.07858670104567153,0.020536055567816416,0.039450504804077774,0.08473409684160782,-0.002506643554478008
-0.037184666227175006,0.03986865480086629,0.07928416380107636,-0.011145478868536188,0.060449656160981274,0.06317272446520225,-0.06358185368228615,-0.039515075900351464,-0.07095108749655843,-0.031715306488739645,-0.09717656250630279,-0.060876900603242204,0.005503625906210938,-0.047365783022170094,-0.021403810762877867,-0.004312125866406433
-0.08131891646262474,-0.06866537590277594,-0.052313854402664096,0.060892637424017376,0.07580994915146397,-0.02426629138553038,-0.07305978687152369,-0.0057527343509971435,0.08628235796050104,-0.08518526234119786,-0.04083779308624844,0.0736803397731455,0.09008630796330949,0.03679431252242851,0.06282683170949036,0.002104282923093753
-0.0288690097945539,-0.08266554430978913,0.08225178109816839,0.045875874198647436,0.010774792575174944,-0.026118046318553263,-0.038893861532346745,-0.05556719597572476,-0.005222920170531347,0.09833325074131817,0.04059706943702572,0.10074449923704226,-0.07394786249685271,-0.060873294424469565,-0.09244253895507738,-0.009776995996526002
0.0420711687866832,-0.0995416459310854,-0.08301251398272877,-0.0022142715220902724,-0.02007574566723149,-0.048212784673684735,-0.010361939288047682,-0.09344989516181061,-0.018436625364100092,-0.03356391158172698,-0.05006281656586069,-0.029854951434354696,-0.004831497980484158,4.745578529610501E-5,0.03562636588811853,-0.062140128664817045
-0.02618827241349452,-0.02296536538765673,-0.030210887883697524,-0.04812388674411705,-0.004335208366124828,0.024273355681576323,-0.07525215922999422,-0.0785476527660051,-0.0325261097582273,0.02437355663255773,-0.0521755679237988,-0.07767227404657401,-0.10501362210300356,0.06051299693102484,0.08689241530040005,0.056106509272698245
-0.017026101602814432,0.020363534887587607,-0.028921223990076354,-0.09229599972596275,-0.033542993985838584,-0.02601920001917631,0.005548548837766603,0.016344261481883584,-0.050333519655750045,0.06785037672111935,-0.05055965649871293,0.04870938525881246,0.010089490754403728,-0.04761332723033404,-0.09704278992759234,-0.015856010011343152
-0.015034931475671871,0.06475801572116939,0.0037603616667866015,0.09653110982020562,0.0900202496767036,0.18720446063258378,-0.053521340099022666,0.08241745139344034,-0.005590477452649465,0.028791944731141154,0.0024379572667253906,0.06704664163764218,-0.028686228453271356,-0.09222114626936173,-0.058329560987499904,0.002618741782948849
0.015351850024369885,0.011448655080811485,0.0655011727118564,0.1006076013913079,0.10519760575148249,0.33346430819590034,-0.0754921523285198,0.008585318049272987,0.09300958245187124,-0.025957874648732313,-0.06018150905145473,0.009732361408107086,-0.1649506653576513,-0.032372414229862624,0.03031734140258956,0.08281219118345567
0.07687100264695958,-0.03311697901356581,0.050655015497586366,0.11156370841089047,0.060158818306737305,0.41144462711007135,-0.057054206884686216,0.05122577613690678,0.018190837597086756,-0.15535039930208558,0.06853012162269546,-0.10134183808939795,-0.10179240511577758,0.0032077198966854598,-0.05232773712344547,0.03960993573430545
-0.02906189166912619,-0.0691187658602165,0.005692471761120861,-0.036143152187121386,-0.018937950870017234,0.6340847882626927,-0.07531934757219631,0.12977109786942248,-0.03514526094512961,-0.14383131413363048,-0.09182716753246743,-0.043010569825354936,-0.09620822088277324,-0.1704890274693713,-0.1369615059740319,0.03271109353711131
0.01022663391970598,0.00826563337225622,-0.02005070290750389,-0.024817786982209423,0.024114305562641228,0.677992423858342,-0.07773522559902211,-0.02009625786560749,0.0030289427152668342,-0.21235368506087476,-0.07603015085284094,-0.20495665215997633,-0.15234927665852963,-0.254453698285365,-0.18216294163981392,-0.09122318036173224
0.13016099663131458,0.18502334930344527,-0.0959973012008035,0.09906966883654848,0.2259077667613791,0.5665233391115666,0.3371475928185783,0.04321320520762015,-0.09168841506874655,-0.21026457561162828,-0.3434155211252756,-0.10537226564608346,-0.16500933041387988,-0.22394812644732065,-0.09382280917685877,-0.11194358630744192
0.04881624998733415,0.2471070040732929,-0.1520308504004728,0.0843991533492182,0.26299568632132736,0.31013806635294616,0.4864561084882406,0.26363614977660543,-0.030279905399080126,-0.24046997166387388,-0.4248842067702105,-0.26744681800652365,-0.20930083027308674,-0.25163468123458094,-0.08763683879606055,-0.026102230671728375
0.19965959979045075,0.21136060965010733,-0.27475775977151234,-0.08977449816752846,0.3491577537682465,0.2409253384896971,0.47896497897590806,0.2821432712735636,-0.03946474562819938,-0.20631336949391813,-0.4614376174153678,-0.32761688735217803,-0.2049484518969662,-0.036244612299102946,-0.20480716349720074,-0.0012947837100038917
0.3546861842036016,-0.11367134281786856,-0.23028573212156575,-0.13538810437438395,0.06562801099477343,0.4947157431805226,0.6398120814901814,0.2791736826647269,0.06588604783597647,-0.19179705527048413,-0.4535514403541992,-0.4897646843556337,-0.3830256882080604,0.10696530487537886,-0.14412207574514932,0.13099137140900075
0.41001259849306043,-0.22852840265741411,-0.2913904365079785,-0.10371150336859804,-0.2076167180195155,0.3743771288187501,0.6162925629055902,0.2561553758015228,0.018463221711199,-0.12644183493436745,-0.4179706730839708,-0.3427076681969157,-0.2659636527928362,0.3066033280159869,-0.1794998899135976,0.057449970318921954
0.4742606394627865,-0.2731534826471039,-0.13554334236386412,-0.12495100510626425,-0.09832938756291239,0.37981355283355167,0.323191789633732,0.350048888068503,-0.0681131647830395,-0.07402096006035948,-0.24946703222973485,-0.17409039290618256,-0.19211715833512966,-0.013480514525975226,-0.11015178616694642,-0.04045190157778512
0.7192264443837408,-0.3348020446733781,-0.18451706465894602,-0.13606837326664734,-0.26701107589830797,0.49148033271012886,0.15783033362739676,0.11739632619326872,-0.025525438874671506,0.03544042935648069,-0.1342951675761676,-0.28968513425664577,-0.11256317770801645,-0.14917554825537913,-0.15588702920353886,-0.08850058348247812
0.6258206058699063,-0.8110648053550321,-0.06634719579569302,-0.16265486476033988,-0.23882065107358844,0.611766101096477,0.039070627757785734,-0.12828231960446645,0.0941703956359699,-0.03176768929516565,0.05022623811163858,-0.2551003033480169,-0.15642532923376432,-0.20630581014120697,-0.02677945144201205,-0.08551440423731697
0.4301605382343179,-1.0798975265145982,-0.11346269390525714,-0.1705448503015236,-0.22044651878162003,0.8061468077412918,0.08797807300804882,-0.3786580882302397,0.189794887972619,0.03533118751996074,0.1809525947007053,-0.1776566294169027,-0.18076612189384694,-0.06133337946061514,-0.026242147863729557,-0.07586540682673355
0.27069077398507785,-0.9998367838823412,-0.0962051744686182,-0.19496917940648306,-0.14390245992241107,0.7967327725986617,0.0033057657412933618,-0.22083473357441888,0.14369847334691963,-0.03361720167850254,0.3135909185936207,-0.05000308147761806,-0.046530446670548266,0.11094229541219137,0.0362317708907322,-0.0833580460541904
0.28294830652726205,-0.6585376577637623,0.025224589901581267,-0.26172767082508275,-0.07873177529379245,0.674519355054504,-0.0772889206946701,-0.050724947222963744,0.32009781592393294,0.005100257217201406,0.20411694892142143,-0.11878032536217253,-0.1185014134069088,-0.06979245568540503,-0.045507065942510194,-0.0997464798711438
0.08887455631057262,-0.5705959685545213,-0.06321689030118578,-0.17645513262444515,-0.0955742765154239,0.600221117611083,-0.001190367504733809,-0.19010582663680206,0.15103656410782076,0.04922459796876023,0.2107288202782681,0.03088575315226586,0.0801313336443485,-0.04073760616677554,0.0618315670539604,-0.08083157357445611
0.07042299112234686,-0.3706096061973865,-0.02836232872921072,-0.1155751751874546,-0.04103261100226861,0.5109580758204064,0.00879386645750418,-0.006159191055994893,0.1760574801672596,0.0011121900336425923,0.08352967179704203,-0.08891114204929645,0.05192684337104145,-0.005138311572866743,0.035905961943440874,-0.022516472587367834
0.09214348659881642,-0.2538037386376658,0.07980461111791783,-0.006649718789505115,-0.03860881191425606,0.22798533556132536,0.005064574145581874,-0.030392417284709428,0.07884751190702144,-0.05907247434518263,0.02867650729694452,-0.046680849708602284,0.06545928731191511,-0.08450357355480327,-0.032412749393985335,-0.021452282833356956
-0.09239430421652917,-0.10347656878104684,-0.04417170359612975,-6.36637154658275E-4,0.016708201383525915,-0.044914589291209034,-0.0764631120709893,-0.04029238034875093,0.0393304107605061,-0.029788139214932743,-0.05125736888113749,-0.01147651514594871,-0.076088569348531,0.09991209230310233,0.013280908026838723,-0.061293882502383094
0.03595316961424634,0.08552667859871756,0.08981609988826182,0.004687510890535065,-0.07578969891446355,0.08598671903224983,-0.00867079053255243,-0.09952205154919191,-0.04834443372586829,0.06273934778143685,0.047588623112812846,0.08202966012349773,-0.05170509820519372,-0.01791692002782681,0.05820683265278331,-0.02421118866921756
0.04739153264989121,0.03198627639810775,0.07152641125449619,0.010717005958550338,0.0066266824156925724,0.06130740718438607,-0.07174529943198667,-0.0611978074327439,-0.09401715656175391,-0.05301225125800316,-0.02032522952044491,-0.0830849839578659,-0.024350894789703717,0.05731279263398545,-0.03767659318748631,-0.058873978991995694
0.00868930039345954,-0.026999267816013542,-0.03562927473381054,-0.04418699627442009,-0.09924820067003289,0.047488524418324185,-0.014054838085028942,0.003264082015645764,0.016041426718688065,-0.06898220763492145,0.0314873269658105,-0.029983738316186087,-0.09847877020691381,-0.09946377354620493,-0.06707798537001189,0.08332155728290488
0.004086270401398954,0.048243398380028654,0.01697027074213973,-0.038541855069082386,0.0364433943275016,0.06206931693786153,-0.01657877103179122,0.05421562028783185,0.07538947067743487,-0.07464523687092581,0.08081583331202384,-0.02838770295340053,-0.02041759034494896,0.01796272420053957,-0.01302358028458744,-0.04335282910004574
0.013524685662721098,0.007458418161991212,-0.07297681694295276,-0.07744500337445857,0.08422904668095796,-0.010984013285095974,0.0010191345545921143,-0.06258919206687273,-0.03192872369202797,0.09176849517809568,-0.024347460026776898,-0.05630840880865464,-0.06007799440190303,0.1000587747588608,0.09248657988117523,0.0907990109991701
0.0685086264458396,-0.04143568457549312,0.09550549137064754,-0.030163923621608794,0.004078777147670146,0.013011178652502408,-0.012111376789182109,0.08310256897779959,0.02311684424487376,0.07715288165478182,0.04162370013571927,0.05583164586257553,-0.03622008083584934,0.056856129146337725,-0.01953961302133835,-0.060562321144516554
-0.005136298537944089,6.8999461281728E-4,-0.06208947974127449,0.014845873592578112,-0.05408204499559027,0.04303303470761834,-0.05550817826647571,-0.031097839087117878,-0.011337922366856452,0.09136913530741944,-0.03123882621255237,-0.0992927057263645,0.04041102690329644,0.07279331581927671,-0.025722401750773245,0.09358722821090862
0.022437861683240155,0.14111531299106486,-0.10396896910068368,0.011038593402921668,0.08096403535075021,0.05050265160227876,0.09158519909987449,0.07199952455281196,-0.024203198214655497,0.0018130444789122098,-0.02390312909772794,-0.09880741432727355,-0.07086797260107099,-0.029489943754959416,-0.06248903023196583,0.022066942126322295
-0.07664200876464361,0.01814825386786208,-0.09239364820046324,-0.005942327965517423,0.2714897854238967,0.1472410774863771,0.07455157197706924,0.05140969522327468,0.042503272634362196,-0.15310992327781,-0.034365936230668304,0.01133157491015318,-0.04472248278373345,-0.09580362617688704,0.057906902582911784,0.07971526779434036
-0.061680091595551885,0.10548612795822203,-6.74775371243006E-4,0.1327630133460645,0.3055400854344458,0.32904783402771415,0.3011954617282273,-0.0325982609098887,-0.06872796492777875,-0.11941759143915925,-0.02433343163132522,-0.11986042660111859,-0.1705376121185938,-0.1366031327732876,-0.1067438650465389,-0.03303427687661311
-0.029000749195800094,0.2284489661257119,-0.15827072413932222,-0.08705398132859335,0.5452559279156617,0.2945744832635241,0.3177316467517041,-0.02567089020562576,0.008743282653563831,-0.23386163415586136,-0.08079113174966623,-0.16946520245831467,-0.2804118372852755,-0.330830485263744,-0.0830663955063731,0.00578996390796919
0.07277376461694897,0.2780978505333408,-0.10240631619739474,0.10093391029251551,0.5310613115108739,0.29673314328086137,0.32765433723536075,0.2253840785555949,-0.054392649109095505,-0.2085347718405781,-0.18326852350093237,-0.23709260042669042,-0.2444170459675814,-0.49175078225205443,-0.14305778048476828,0.032886188085513086
-0.09906032989377031,0.34011214884260194,-0.21107290661240752,0.1252223224105155,1.035421745928989,0.3349512608212443,0.3873363036025693,0.0752088965154887,-0.18079999294116741,-0.2742403297596113,-0.30935782380959026,-0.39773730208842667,-0.3333147297790632,-0.2936767743805038,-0.3111752044964757,0.05123644842595787
-0.23856445736855414,0.48839771597069964,-0.3429427606002985,0.09378230412313235,1.2461576872922404,0.12655453511529036,0.5289584747209782,0.11828403020960096,-0.23677302425677582,-0.2183395823950679,-0.4611981527481961,-0.5505719945342564,-0.14776120186244973,-0.17432542060638265,-0.2943279815684174,0.031921737700604025
-0.24776356040150477,0.37148169559717725,-0.3968077724159855,0.17496666359334154,1.4315685399486606,0.27257483290526846,0.8213926404679595,0.0977511533654969,-0.034168590226847526,-0.24011420811285,-0.7727299309115219,-0.44749249434434385,-0.04537820390582026,-0.13563766094500804,-0.3854795216620692,-0.08473815566840003
-0.3382068277061672,0.3450883130868748,-0.28993487333448215,0.0866179949525408,1.619360444438837,0.579509501579665,0.6753215535910096,-0.11318378279775677,-0.10670668840582494,-0.20019641851387213,-0.8275583775730725,-0.32840316037215667,-0.09675710900078882,0.23327524222383253,-0.3280460309276899,-0.08888348915850146
-0.2554676234661511,0.2025609279391798,-0.21083162579788203,-0.14539602848579505,1.3434772315504753,0.43564130403854534,0.28508885580116367,-0.2233542631553726,-0.12309105757523975,-0.20184863181760554,-0.7363540082328105,-0.16241461901392779,0.059598218466870335,0.3861323331266026,-0.5698314796882588,-0.2000647280564982
-0.08553725137947692,-5.512087018440535E-5,-0.3441511410094957,-0.08517037524690428,0.8743617578498301,-0.022549172086378858,0.33561424364197184,0.11298456686652798,-0.24153017223891998,-0.13577194486680233,-0.524991652595522,-0.08474658183266028,-0.10599423122398766,0.3690166755661188,-0.41870078277821426,-0.19495995788232934
0.014293882667766593,-0.05441231795440162,-0.1566827093430436,0.01909748780909048,0.32392173503836774,-0.21871297344356536,0.31170914038207365,0.16906235067508923,-0.4410867635984317,-0.305352966567305,-0.34446102075977614,-0.06506178682949683,-0.1691469068419737,0.12791549284376566,-0.41660104590833597,-0.10760170275769863
0.19729167006458775,-0.20262433304131042,0.03386172186392518,-0.12124059099971199,-0.028719449273986092,0.18023324668950735,0.24259556925407588,0.1919175140019264,-0.3441094147534315,-0.0022997431169782248,-0.291577670643234,0.055072839408274316,0.023923922410436477,-0.027740013868916932,-0.3514980911649889,-0.09050676542917756
0.12673406431928236,-0.330680356853555,-0.03961350503761653,0.020360253025600933,-0.23475492193547046,0.955615330085191,0.22990776219476056,0.3647313184526181,-0.1548043672135229,0.09411375238416024,-0.20954588383138367,-0.0779051631736222,-0.02960945359580308,-0.12459914636968089,-0.27380069447084415,-0.029980227851918388
-0.1673111762708554,-0.9330540308075843,0.13340367482826276,-0.3346475350574699,-0.38352216992148563,1.0081894435025929,0.19183032619461934,-0.06711488022327777,-0.0025004650940264415,-0.19242609074745634,0.11784538200536146,0.1797107166171824,0.01512184833766129,0.0611280750673481,-0.29676990525765956,-0.12020233149442236
-0.17213435166331392,-0.7865446226743174,0.34924496173945835,-0.31028742679806026,-0.13727330132645205,0.8676655970701583,-0.05397889612580946,-0.0388720670741785,0.32878437428509216,-0.18300002993010864,0.20923320567118928,0.35130575576550005,0.026609841777064415,0.28652271951553365,-0.16308169932053437,-0.12273107670338543
-0.11574563051596147,-0.7670889228238319,0.2827670760863859,-0.3804917672533829,-0.25519815537500157,0.7175112337506795,-0.4140985236467133,-0.11401069496522638,0.32510815082684863,-0.15164438692853105,0.2239019434368152,0.2161153349216956,0.06945249296383887,0.13014268808080068,-0.08854011370051285,-0.191712906606982
0.01891112342017403,-0.5514370530408491,0.07611088604365765,-0.2065156467265881,-0.3698469285674013,0.7256131625483163,-0.3934725426305551,-0.04576353596853937,0.2865862849607252,-0.06437005540848446,0.3420492421020367,0.08614923432929061,0.03578552348473879,-0.0356307069242028,0.008193266069526658,-0.16939228862226738
-0.02585148344551596,-0.5231354645459508,0.08859936120511916,-0.03319917078631337,-0.18483477228455814,0.4489119109828625,-0.35323911037524874,-0.002773988881378525,0.35290399862260385,-0.03720615987672486,0.20321935997007914,-0.013761211760426936,-0.049697517638815095,0.04697646564022079,-0.048590643377146206,-0.15640959831645473
0.08971756787666221,-0.3812692917533844,-0.05753196188797316,0.0721139725611886,-0.03878419688730344,0.262432233138381,0.0026741964513214652,0.03294752624166643,0.10073832238060293,-0.011469094234349933,0.08244432996573973,-0.04559414618366884,-0.1130404311436779,-0.0011652144802336303,0.03920577251753306,-0.07625990837280157
-0.037571141767949706,-0.04499358556152018,-0.019883853870345143,0.02303649128410719,0.012327996379068383,-0.02641330138892999,-0.10722631885867641,-0.01445957706582268,0.12415507102918318,-0.03979376744057927,-0.048349636219059515,-0.032887540588289806,-0.04842272299146145,0.00815655058177902,-0.04180552527090855,-0.007992570539305811
-0.09099068815891448,-0.014744514558464466,0.0873245039110923,0.101704661794881,0.05300553468629441,-0.016367445551889764,0.09431591323898889,0.12145478299400349,-0.07449536048424281,-0.047806963741444226,0.027243750763043875,0.07028423967440466,-0.06874872676475896,-0.0246044459907616,-0.004733407999099975,0.05325256497161082
-0.03312629235454886,0.0392909058165308,0.0831219945769055,0.07193573874872565,0.08559360686705256,9.860337796118374E-4,0.005585673247641338,0.0807275820291629,0.021140979843132197,0.07683779127047259,-0.028325521486903135,0.045600494382117066,0.0807220109392952,0.05974011739906678,-0.0814451871832595,-0.02469713443459132
0.004923350747705474,0.09512549890064259,-0.010304556495854461,-0.0457367672407685,0.0842706093371687,0.016955279843334628,-0.006143664314593053,0.04356826013969564,0.03795760762158765,-0.03394956457374887,-0.022933819961006185,-0.09869242078218213,0.04701703404189733,-0.06835023520662045,0.04454017696340434,0.05828313395906423
-0.026688662863414134,-5.25961974642275E-4,-0.010763025928971118,0.031674405801906336,0.07214194755488507,-0.09989351025774147,0.004511730605942524,-0.09760298444192186,-0.016791756090412432,-0.026003530787603604,-0.008159567138084231,0.0896200876651013,0.08294003760128507,-0.06164611959534552,-0.010072783655081019,-0.09307874597487782
0.06259625638879869,-0.023864804104465755,0.021073164248936422,0.08523202857126043,0.02570933030525446,-0.059682130801845916,0.0475722840794003,-0.08213471438917808,0.08949555638841063,0.031025229050252467,-0.09116798291849036,0.026670302207687277,0.0015260406448324166,0.0788413433915448,-0.04292048970516332,0.05710409596848774
-0.1033250115137144,0.035532620368846114,0.04734141722336678,0.08272682994328204,0.06247577447197823,-0.06255555081139406,-0.01259506670595456,0.027414431807900517,-0.09431303938371766,-0.05055236362336259,-0.0549785598924038,0.03714939102272993,-0.007437793541148893,-0.03256605228702349,0.004880586566723946,0.0029028029634442613
-0.03563469138050709,0.02400449120450472,0.003253229629586744,0.0757358704614804,0.028176497725661956,0.05085314813207545,0.06746043372529929,-0.029757922229659558,0.07135785094507947,-0.04283538497344739,-0.07606720743054576,-0.04236433670779024,0.003754625795591254,0.06340214838076345,-0.1273007288002891,-0.07536850593763841
-0.045712793055731886,0.21343371273189218,0.015062682578453949,0.030792665951201045,0.1200758096974187,-0.14842206704322636,0.3842693812354386,0.06695762167499196,-0.05746091383827716,-0.1188536221545408,-0.08372665007066146,0.014797381737132137,-0.04581153466049409,-0.14147364247467012,-0.14856896705202552,0.056741735824081777
-0.15080979615076762,0.1707551831689657,-0.08726395150853859,0.142822427958082,0.46665560059241223,0.12275879675762363,0.4114102331289666,0.08339604611310242,-0.04868853622897239,-0.03520146128300263,0.0809701501702409,-0.06831049364672034,-0.13003415144267322,-0.13776531928255065,0.047468786659451104,0.02302999955297116
0.03468769772909363,0.40937052121953127,-0.014419476419076434,0.033322430564140484,0.4715099711958104,0.2925497772769754,0.3039834830977618,0.14284412539650948,-0.17269755747297452,-0.18763954449507103,0.09020946483666095,-0.25618750810160673,0.0019222469273094496,-0.14289033645814095,-0.0051902359896380925,-0.05237769989460338
6.687354588005017E-4,0.30154179363338574,-0.297666234441351,-0.11205690281391502,0.5766655663506259,0.5155199982890107,0.4734109931212317,-0.018373095602285845,-0.18622524362268147,-0.3446851402691945,-0.004599048006441201,-0.3483792633070146,-0.0665212575777572,-0.5191598623430282,-0.056970309485548404,-0.1968550548567693
9.618065278604601E-4,0.5450638963087502,-0.2532169072499171,0.192925567167375,0.6142531123363785,0.3237461605913684,0.34075134588143086,0.1808092550182735,-0.34992076383895493,-0.43863623223903253,0.0864929764584256,-0.45500601717785943,-0.3146162892873036,-0.634679798622558,-0.23947930878972623,-0.2798640998758176
-0.12579579628426305,0.6912356827936833,-0.26308709055701884,0.1825783630805289,0.85638915811462,0.23677147354995348,0.318048532779283,0.48316017181118587,-0.27385265739388565,-0.3354837631734488,-0.2848768649108273,-0.5264282241606367,-0.27265860459473096,-0.5441636505970562,-0.42859052533940206,-0.20181651602596007
-0.353661370573743,0.5533591587058094,-0.3174452893375875,0.203814181476126,1.0290821766408902,0.20466309332546312,0.3468949505765018,0.5647481829785406,-0.06446163029961828,-0.3935005950817937,-0.5265829933238758,-0.5020870296451129,-0.18907406827141404,-0.08866591009664652,-0.7974967905619806,-0.462238218075943
-0.43803148461574776,0.6167610009848771,-0.3105590402784697,-0.15491983806195206,1.1715615679605245,0.1728431815223532,0.18041960148667535,0.24235066582152065,0.23393264427501811,-0.13872248395682463,-0.6358180811044752,-0.4479415800078369,-0.13633334594166427,0.3560915379081649,-0.8089757992936044,-0.6765805420177884
-0.40066966069596055,0.9404887406921999,-0.41205317497763755,-0.27854842340466957,1.6049470267710408,0.3396271069669249,0.06044297357170016,0.20873534521093387,-0.25585149626186154,0.1473342701845142,-0.9566123081495225,-0.0953806698668326,0.2791951744705132,0.3761244589336134,-0.9641159228593489,-0.8160188067136797
-0.6757265393730163,0.6077493331251633,-0.25069831129406794,-0.5870703660026698,1.5877163707498265,0.26079119496781655,0.14994605051138024,-0.1088865289821194,-0.3405002516389116,0.29974240253257534,-0.8924642499459293,0.2891663288719332,0.3092304696543601,0.6077286679308844,-1.187511422622291,-0.9118080561861217
-0.6437516001552166,0.9290257415412516,-0.3422215452147174,-0.36179984592433984,1.2692841311137575,0.46529216499236153,0.1445898600801544,-0.1852813701545439,-0.5388809978518285,0.3740004636515273,-0.5447787236264158,0.19218477171127116,0.5029722825906594,0.43429303915256845,-1.4822761014231254,-0.7167127927071627
-0.5002836699567322,1.0560635847102546,-0.04514301214653389,-0.03886665078798151,0.5160357427899419,0.17632911774450769,-0.14834384462921366,0.19976491606306704,-0.5753851785985525,0.27117169866527635,0.023144450638000393,0.033911736420970506,0.5184809749490267,0.13853715819389498,-1.601244719286214,-0.5427221239080003
2.7769930593767055E-4,0.758647594412874,0.12583032144323106,-0.21702565712817246,0.12404611298176034,0.16305951682823036,-0.4740095931144169,0.476215648026717,-0.44232685019977197,0.2581736782969134,0.05598989720178598,-0.18996841605745596,0.43741835593257783,-0.1196595023306358,-1.2415222170390134,-0.6180392687350321
-0.14293872118378523,0.3594017145364908,0.28269861087321313,-0.4106983001487018,-0.08232881387540918,0.2806842524604359,-0.3318426160969777,0.4764512648409031,-0.4481213106548288,0.15426791245669136,0.07842454095022786,-0.01936710844242577,0.32736347607957755,-0.08590909869058354,-0.926038353009333,-0.5356064167782271
-0.42496343209919585,-0.002911369560982772,0.47675059341586196,-0.6086951911876208,-0.1517135774749244,0.46268596988075167,-0.2820041723461467,0.3752286645909164,0.10343056149001147,-0.06424881032971638,0.17166350975034536,0.1978009155347639,0.10566313841010906,0.0894661227331028,-0.6582216228352006,-0.5252738469935154
-0.29648085223861526,-0.099168253300168,0.3498595119578474,-0.5232890831158632,-0.40841151951013277,0.19721480304311753,-0.4286143068003323,0.3349179821099885,0.30305991969581625,-0.20674971712540968,0.20709891031716776,0.3597787163302315,0.10042731051221059,-0.041695647722522024,-0.4250624941166904,-0.656384355068058
-0.19386974037941457,-0.3508061319865179,0.5473131687009014,-0.4662040425447141,-0.7019716102564406,0.10181339891192746,-0.648773986277764,0.22003942242346727,0.39724204694484255,-0.24932251044565504,0.4067688580879422,0.4812193293830561,9.90218162360427E-4,0.11950474209624246,-0.37424155816372695,-0.45079964910499876
-0.14839526747461226,-0.2604136117624949,0.31390441811081415,-0.17828187333792067,-0.7471952368656175,0.11094149714445284,-0.6755217614314184,0.3270834086889862,0.4518147896133938,-0.22410883287627492,0.3148326219430352,0.4504794367792536,0.011760143935096461,0.06120524952517814,-0.37170628217300816,-0.5359975454461449
0.1449702686909141,-0.528352291712432,0.24232326661515616,-0.01189795091331858,-0.5706682523292179,-0.17900805096979253,-0.6831145629520594,0.28498310416752676,0.4468034764225743,-0.19711777490270635,0.2984148233975235,0.07114603133468302,-0.29231442587662443,-0.02359324805933338,-0.3385502290995712,-0.2235703229055764
0.008001487945909996,-0.21251803265738758,0.10562684190146866,0.03221419612486328,-0.18834622720794633,-0.12284690098435755,-0.28810017450519537,0.16743597233992147,0.2790393001069425,-0.05958119305548495,0.03148168038242877,-0.02057271916379669,-0.13785519138068553,0.02410428857822018,-0.061509873275259225,-0.07312028989416991
0.020674676311179637,-0.06814109192136758,-0.027111247206498292,0.25032385005145624,-0.07636291777492793,-0.06883789643140882,0.026346188140480068,0.1443412743916947,0.08802984523648957,-0.07853597109811354,-0.016281950671137413,0.034890409203808335,-0.12718530888089852,0.054216399321191704,-0.020849581262138376,-0.07097434204454318
-0.01835061042674403,-0.006114490030097784,-0.04267473603821386,-0.030488647553512535,0.03297767342896997,0.034890537737918184,0.08295566924580636,0.08199301685250085,-0.06851786871508003,-0.07969482145326444,8.736025945329129E-4,-0.087673653947444,0.07267809285423399,0.03803351893665474,0.008325869076597065,-0.08638633769869361
-0.02281027358576596,-0.09436138875043028,-0.10010258343045463,-0.08694462488911302,-0.028271241891183727,0.04718860076073682,-0.04149955692020838,0.039650954724179434,-0.02942517717609636,-0.03736113389025104,-0.03334384879118625,-0.09951852437322808,-0.09692451167288546,-0.012594175063164348,-0.04507382948217161,0.0025097169794988054
-0.014502571605610234,0.034687693277812875,0.08282542633793463,-0.012262821712306554,0.049223635435297564,-0.061737387853949846,0.09552550381201039,-0.025743588841459483,0.025563296638265787,-0.08277177738029143,-0.07628076801442535,0.06915528289710038,0.0401507908629469,0.05570956788077172,0.03321020250451118,-0.017004547034692646
0.010243070367115725,0.026728323057589928,0.0726590261020005,-0.07779495781548358,0.01733200755466751,0.08552973875982833,0.03570537793728121,-0.042593427387774975,-8.114979347727781E-4,-0.028151513841893752,-0.011478833964713178,0.0042027018285667635,0.0813778675535159,-0.08283866400595406,0.044779533134169575,-0.06704343108748921
0.08360339162071387,-0.019355188793402107,0.011015528354800888,0.03062086274455966,-0.057198021455227996,-0.004343725272520141,-0.03336018445403061,-0.09433508335288543,0.01926466863117341,-0.08681381480412123,-0.06407948958401,-0.08572145064236854,0.04091631768455684,-0.06423559711535465,0.09574859201528033,-0.0032410617179654618
-0.005186462560096707,0.01441973176591424,0.0943954129975398,-0.07152121865531788,-0.022032079092306273,-0.04403874948594891,0.21995542299334842,0.02563913128042273,0.04425671320994103,0.0789906290809952,0.07021977927726411,0.10459614056090617,0.09310744300290436,-0.07990366583660148,0.040079149487715904,0.0876683287990263
-0.06876327713996742,0.04910231926485197,-0.024132426368013743,0.060356579783709015,0.09742387206076335,-0.19972514386608656,0.3214047834195459,0.031359664922977676,-0.052614193734519046,-0.12347279548130256,-0.02296748875288585,-0.08640338316492978,0.03825845263591597,-0.025490600692152643,-0.0816399325457792,0.04151521886302695
-0.0907112765984666,0.04686526615828814,0.024559642280610076,-0.008577466802292011,0.17709917269953615,-0.29435086861489096,0.5973651687610764,0.19191897967066254,-0.11983998015476119,-0.07603492684704259,0.07130816008002697,0.024865182578264217,-0.06063243093461005,-0.06940600048676125,-0.0904699588446103,0.2967241455960265
-0.1105194319510178,0.22842896928218834,0.010008312337872001,0.01782882308959404,0.5414556821053627,0.05387711920161589,0.6594770718157832,-0.020559440330583843,-0.14604167966433207,-0.1758546000673704,0.21425661422466288,-0.12208589231865465,-0.0693526304987716,-0.18703135005883045,-0.015308800245276387,0.29889342938999647
-0.1390508366169181,0.18852787953225866,-0.14424922104954763,-0.08919552248369289,0.3744577420455857,0.3602973562007833,0.27716710012747914,-0.05150488611830078,-0.23438450448895537,-0.3298387909514849,0.39376566594559453,-0.23530370526852298,-0.059069036756665895,-0.41748763238978537,-0.20776384329914696,-0.044327547461188534
0.0013446743793525397,0.3714938337867642,-0.3182155541495017,-0.06360702655924248,0.05990447900265763,0.35217426765072996,0.22220903228066954,0.18329622368203502,-0.13413564010115944,-0.35614238228280953,0.50955566607861,-0.5141987611637945,-0.0945087926386849,-0.4927618758303615,-0.10478494718149398,0.1914063567055225
0.039575147815169846,0.5222834387180008,-0.2965185475629365,0.047706310389515436,0.2150082470401708,-0.09016691230422255,0.10903147080203279,0.18442961995140766,-0.1946789624568201,-0.33143032857711874,0.38188420974974185,-0.6847432219748247,-0.31875523860904154,-0.8030382191194689,-0.11329245276466547,0.21419329218748137
-0.24017537085537388,0.6615283415553884,-0.49646894971442984,0.357282551942166,0.4761831634895069,-0.18747456957927452,0.3502382619385873,0.43675826201750767,-0.2198154000236936,-0.2148387604389986,0.059966063310930656,-0.7432216134366543,-0.34901960221403616,-0.5538773048478515,-0.31914257086585274,0.20252371965701482
-0.6112021709520541,0.5021868012535166,-0.43110720161875915,0.11835878849014243,0.47455537142043996,-0.09031250547177638,0.45594035113342085,0.4849087522650212,0.1454220564671182,-0.13259438476852,-0.1190838013003935,-0.6984793190274542,-0.23469221501721216,0.06896538837547983,-0.19527362127824563,-0.06479682238324347
-0.49706944452607027,0.3294408589353266,-0.43453277671692886,0.11180655874678559,0.898760506754458,0.09804386749935211,0.47575512157062916,0.6670401824277145,0.14198359048800116,0.1453092458586571,-0.5205854204630718,-0.5912528243978479,-0.07797597144534753,0.12757621124352048,-0.23968480645042828,-0.30760023276163195
-0.7445086285886027,0.28422891981413545,-0.3871479079442809,0.19033166624295283,1.2715106214402245,-0.1298406828951322,0.6366174349573478,0.6329626825913274,-0.034245180292367436,0.4425746263448437,-0.9362394488553861,-0.30285871238970274,0.05233243863884366,0.17052097007617392,-0.1593485999818015,-0.606135760402307
-0.4971084957405124,0.048213357719725174,-0.4271814373223733,0.020299466628919318,1.7081698496520898,-0.42850575868465396,0.49824760270744584,0.261828213690289,-0.1331546261360413,0.3938994822498941,-1.1690449547499757,0.004935841876184285,0.2447730876252563,0.3357163796594652,0.37288358945789873,-0.7870757846368098
-0.13709969367707375,0.43978453260749406,-0.6378346098933774,-0.11725472614642163,2.211688405779557,-0.272800351396511,0.1116626080358551,0.1526980150332513,-0.07899341182287933,0.33079413931509943,-0.8601733180505915,-0.3547945149406074,0.2957515138715656,-0.09118801981545825,0.5950396768479695,-0.17152894403338367
-0.13008618755588994,0.7871747798084267,-0.3173395688390313,0.1375661176071083,1.568239155113765,-0.3949687892084029,0.2944095861641711,0.4363609154649025,0.1667919300736985,0.36453541748206675,-0.28758064781766146,-0.3036527188239239,0.28272102061015136,-0.11508700638455814,0.6992283644933412,0.24783929874055252
-0.0390663778845853,0.22039887348914222,-0.02816054897939342,0.36183858197542357,0.8435128976129718,-0.2117773001332236,-0.2517150645555704,0.5322260650198899,-0.26477200669008877,0.34743638502761065,0.01695020910356485,-0.36754993123832913,0.5165266516353072,-0.2900963828625572,0.44214385728751615,0.4788841072443807
-0.17304204537522047,0.6150338694228882,0.029062263177388147,0.3272328696240577,0.42093942985754784,-0.427383827787337,-0.5001667327131679,0.6224782813876556,-0.18329560687506966,0.2421347624520224,-0.04054817300105665,-0.005868696629332309,0.47329084370989266,-0.1245352784102152,0.422943714414136,-0.020040329576045617
-0.32208453111191243,0.8816602504461623,0.24387655435106853,0.1648702341838573,-0.24548017825824514,-0.8443531491811528,-0.6930001040675716,0.586947273363752,-0.12804632646124747,0.13065616349767004,0.28395779483263006,0.11334039058203707,0.2047447350097775,-0.19440338421825223,0.02629374278657539,-0.22613536112084742
-0.26055055103606284,0.9252864919856844,0.3414685279812174,0.04663002800652225,-0.2633129393312278,-0.7166934283311445,-0.46439534644731073,0.49550381865754234,0.19122795695095945,0.011995819037315393,-0.02398788603876665,0.11490066563809885,0.05026452521628182,-0.11913044491163895,-0.06549926004759053,-0.2806181358512903
0.010214666517738204,0.5156518505184774,0.2736017240415292,0.08546547261437396,-0.7082794904823259,-0.8694397770338417,-0.4316265409066666,0.5400557302555857,0.1374715287618173,-0.02662751116592014,0.10782968850303792,0.21231935207452138,0.24032033011302842,-0.08237918663069262,-0.35592519801845574,-0.1615580428794298
0.23300471700222986,0.0819940605600768,0.3783407751582277,0.03322451757543861,-1.2198044575407656,-1.159865329174141,-0.6868055861852475,0.552088454831038,0.1887267422325742,0.019342835636337197,0.3865790531077171,0.11850456437196666,0.22428859911766827,-0.03561319453217733,-0.7559001964409552,-0.38402704909552227
0.2970502957029182,0.13059937449071482,0.11368996151147058,0.024601873922045766,-0.8689000373181396,-0.9502865649907776,-0.734802165319467,0.3956433134183937,0.5052469960303226,-0.17040328014797018,0.21345590399104333,0.03251924439557785,-0.4137942798085412,-0.14106942599087052,-0.5805948738839075,-0.28850076144207
0.14752137868469384,0.19391579669187123,-0.03593414628444361,0.17210475878276824,-0.36319277937297745,-0.39934863208088794,-0.35250607968993874,0.2641610421245756,0.4748845920659551,-0.2845195886427099,-0.08608744496549862,-0.24094639148116676,-0.47997626735210663,-0.16913650416535514,-0.2939005302106344,-0.23801303723678816
0.06770376322409678,0.28729976856825273,0.0012732836024086864,0.37034179284628777,-0.15760482078571184,-0.15014666659651432,-0.09852660725246246,0.20515111382557916,0.11703519720283434,-0.05846656492654761,-0.09360379612527475,0.010076426540943817,-0.37895392616722406,-0.036266332475085275,-0.1106315856775629,-0.016189619333926944
-0.07083134484213538,0.12731538214878557,0.07399713159123213,0.18225135418140073,-0.06273411199404522,0.006617674691208398,-0.05257505891635599,0.12589385464943095,0.07922369678181229,-0.05366482273183795,0.05299581575367563,0.021314992056882746,-0.13447815415275574,0.08539143952533046,-0.06144395536614887,0.040064051068505684
-0.07057367884918327,-0.08155025126853775,-0.08237029119145912,-0.016869135049368697,0.09413972859942343,-0.09910420336301778,0.06705790262871882,-0.0416957022629761,0.009800083476281389,0.027675594645827337,0.03126346770471988,0.05477320603539045,-0.0689514993979936,0.027560619312054908,-0.09287090301598852,0.08388464435908653
0.01070409039827039,0.09122948947099506,0.005788288929789191,-0.08524089618853484,0.002938333153544194,0.0617364921402981,0.08157979623033862,0.08001766073875091,-0.03710338848367726,0.05773359683602533,0.02920288830761901,0.030212846924053762,0.026955186779945975,0.09006685342089514,-0.0713203797891193,-0.03657929257764757
-0.03696524289012209,-0.03108598172939614,-0.06801964971619878,0.0010115180746655583,-0.0599875860960103,0.09251884595436727,-0.03027448370047798,-0.06420590553923199,-0.001843534050885647,-0.06589356972055314,-0.027005329344450872,0.010560451758660631,0.057498443405240254,-0.018456852526629253,-0.08149897042959443,-0.041595751755840744
-0.07965739502981765,-0.09464798596009741,-0.09201592556720516,0.048367119500520965,0.027998988760480594,0.012587021322197097,-0.01280754662797522,0.09235880080650441,0.038467400044473306,0.05548569955014961,0.07820364721543493,-0.03061570605713021,-0.060000371290090546,0.03656086253431507,0.013925923889666781,0.05011041868324756
0.07989020258178411,0.032337326354093254,9.910792341173435E-4,0.04535548353259489,-0.012919262094391554,-0.029154470936879003,0.17304642538911358,0.03156567535392163,-0.04968888497790649,-0.05207367014685797,-0.014988199861873773,0.05764043192408918,-0.005325780756187208,0.0785946752775349,0.0435608388089997,0.15455914484314637
-0.15587153485348737,-0.004617536921284125,-0.016756911458262382,-0.030554351069306616,0.10067093980136359,-0.29547885404009094,0.4854275263717896,-0.07491849132572617,-0.21771598715025883,-0.06062069691179477,0.038133822238927806,-0.05169048918238707,-0.008449782530504686,0.011163741160060784,-0.29143634975161276,0.16990863708506782
-0.07355218334721506,0.11130434727208492,-0.09465216937054512,0.007724256624964329,0.15522227768089722,-0.3431030862146196,0.8140112662312308,0.19958019995303095,-0.2595220309340097,-0.16142311230097173,0.1398945903777953,-0.04513100146364143,-0.05203075189838613,-0.08643754072068925,-0.17686859655575268,0.5243369469679714
-0.14964764448289525,0.2525478396814589,-0.09432601079155294,-0.26656865730197277,0.37702206987120346,0.18342876821070955,0.5754281379348944,0.0662365724294474,-0.2778693442893311,-0.27037547477870044,0.2175549247522659,-0.08626853027496277,-0.17273913441842106,-0.3809530374889146,0.0353319059086983,0.5746941016571552
0.02867852780756247,-0.001639060130839279,-0.2159306351508519,-0.4091684466926908,-0.4239562420973242,0.31239359632089475,0.3663785097719723,-0.21664045349411146,-0.23144898911397335,-0.4886376453874838,0.6114448248967398,-0.21468705503768107,-0.2514682479652875,-0.44611406141447896,-0.1237811562508502,0.5010134047020162
-0.10676537693964461,0.0919504887242422,-0.29159667102228853,-0.25936762881983294,-0.37467562836006374,0.08521635591570338,0.3846769323074082,-0.056029221310693905,-0.1795465205543136,-0.5627538168957543,0.5180078072812779,-0.4847417923430286,-0.3063970961482856,-0.7088029151013671,-0.3132443810125182,0.7157219391266698
-0.05422733341614275,0.17162512047152667,-0.2853561071767818,-0.09377673356200504,-0.17086677388431665,-0.25196287352397784,0.21252278427521548,0.022171235530894964,-0.2808623584729266,-0.10295191681376027,0.4122056614174817,-0.6866985987265085,-0.23343722475814374,-0.6486372401224877,-0.012404097453582006,0.9489974601183487
-0.2680413879522791,-0.03889439123196658,-0.44652380250569074,-0.050256518200466296,0.21662335496583177,-0.4917826501983374,0.3622640778575154,0.3778499510486476,-0.1964168498115052,0.01220057817793267,0.04765339853176613,-0.7410435161985676,-0.07603959891255227,-0.5119619344541992,0.4992698615332971,1.05215058027159
-0.358625031844282,-0.17018050386630937,-0.4980089329085771,0.09955159066607605,-0.10311872996592254,-0.14654235370483085,0.21400758655717922,0.6268538355862969,-0.0772745470866629,0.002466135833082169,-0.20948259297049174,-0.7737736888872156,-0.0467009551084189,-0.04187645585947237,1.041916528479482,0.8848241215729279
-0.7044748606328248,-0.02971556374906431,-0.5522347868762946,0.33915586669892384,0.48650326015694145,-0.4089084480672374,0.6824573736224405,0.6711144964266273,0.05823716702620918,0.18584020439160986,-1.0249821343011019,-0.5614290008421047,-0.04606713315538933,0.3922993562626868,1.3941354089931057,0.48735588281490494
-0.5859518657587891,0.22791364544777243,-0.5954148881103815,0.5258376867441656,1.3430249081123218,-0.39564860275606467,0.6107447991989968,0.45269283198909993,0.01607799504321945,0.46207812272683063,-1.3488496602984088,-0.4391086444464561,0.3069553779377841,-0.02887825550709914,1.4725373090644722,-0.6057089269547982
-0.3505380489487015,0.09818607609575959,-0.7005706770563653,0.64979110898842,2.2031532159387455,-0.38575860027008746,0.5904483086240011,0.7297134907473177,0.3143265437193985,0.44870503170427856,-1.3496342650610305,-0.28347226147162813,0.19642708965761974,-0.05227458663780773,1.8075408991398367,-1.3938209524573086
0.3071851077015666,0.14124974645794472,-0.550124837406066,0.4591643899316362,2.655898681484927,0.10668173194447496,0.4044927909495513,0.8073836657344071,0.47055318729339474,0.33521824910804704,-1.0705419440287935,-0.5514823446349774,0.3030544084512365,0.02448701422288336,1.9941073244397982,-0.9932035586508922
0.4582226943974844,-0.13326009096264638,-0.0943968193867014,0.6291115751979739,1.8668551879530582,-0.13239885426002207,0.37037780547682986,0.9115100005639333,0.28789883876137295,0.3846050040820375,-0.643164554429684,-0.4425025583354201,0.3355864336296002,-0.23300054519349345,2.184814408588066,0.13579574189962512
0.41427134803895505,-0.08359181028954973,0.1107193210963256,0.9188411265722684,0.886982442930831,-0.35155515833255735,-0.10625957574077498,1.0999730691451801,0.26133806316825775,0.29567757173415693,-0.3614274458817349,-0.12712204405774277,0.5875642099777824,-0.2500565338429895,1.6182682669714752,0.739890384625934
0.1477330575023324,0.6406967380842743,-0.06350537431423321,1.051653120721678,0.22151354154355854,-0.8113945639929647,-0.3252343491881027,0.7291393301425723,-0.10157917049303485,0.5607509146700665,-0.13197229494506305,-0.021362734042728815,0.41423266900596645,-0.49939952663415393,0.9205003671085416,0.4635525668330434
-0.1573570369039201,1.021909364768319,0.32896971035671135,0.5526226730930404,0.03737611152773655,-1.0634187025345123,0.047088386163423306,0.3309173596670464,-0.4149449443673018,0.2858448750655735,0.24989089366843803,0.09095997705719931,0.11113053121751516,-0.41320976902944095,0.9441722257314608,0.24966112939085444
-0.11038049906714092,1.081562602664928,0.23476694474592313,0.20175007630763594,0.3550498286139827,-1.3943785924273477,0.32095228837132744,0.19126322748237856,-0.2219626318415092,-0.09447655953920336,0.12196808273569414,-0.13791736744793187,-0.22847976449724272,-0.36884005448284446,0.5861180932830131,0.7492244249118115
0.08165114756923811,0.7638842945966839,0.16801284385736634,0.3394743250220117,-0.2558661178822638,-1.2382124054517494,0.05550525765465609,0.26650183550070916,-0.07712598683219529,-0.15061842203198722,-0.037102699798840316,-0.1134901944904238,-0.13850130384380321,-0.21696565562827252,0.1104198035358242,0.6228791901144286
0.2711525499559842,0.6154449070416166,0.08261281536144573,0.1385093854387585,-0.8608223915670157,-1.0055893350999636,-0.3689936403513908,0.266216303075895,-0.17836648434713612,-0.0770295567176436,0.007758645904827887,-0.10282721511711465,-0.10689685540317419,-0.20823265057822168,-0.6519790585088177,0.13059410805115115
0.36431719767004617,0.4650025560365833,-0.04162123164209528,0.21363882231813594,-1.1263900083592793,-1.1295571796533392,-0.896623918105904,0.2837294480508895,0.5105815070068801,-0.3561063327765378,-0.08234387303051464,-0.13564807128629627,-0.384840822924969,-0.07092106217199672,-0.7371170460320423,-0.28832086294833814
0.41001479350879194,0.6637481224523912,-0.281528155866275,0.6387275209095576,-0.6994972874979236,-0.3998445001643405,-0.5776206117388303,0.33687993414883693,0.6000177373000039,-0.3241444708931426,-0.2674210273196368,-0.3520775323341313,-0.49852105755047105,-0.18775320962359238,-0.5516185540410459,-0.24575065034735555
0.17546971372022202,0.4353981082751204,-0.16848368481439827,0.6850939640702466,-0.21344242395503346,-0.07536311468118025,-0.18845687751564535,0.29162124204144235,0.2112556654518712,-0.2356813483112047,-0.24732002596874852,-0.11450831068028394,-0.42761666985915625,-0.11225382764543636,-0.2512836408798786,-0.022272532836554802
0.05390816591433829,0.14985098080206846,-0.09232619787509953,0.150191410374822,0.00927513305626495,0.046662223352045035,0.06438370794646245,-0.01755600354035804,0.07088435810656285,-0.1639739400898427,-0.09204922813224965,0.051447334431448596,-0.10746602819718276,0.08500132415307039,-0.06417178911442138,0.02502641374197017
-0.021313761630503875,0.019755152675413324,0.00879808228186145,0.05651707009297261,0.010115709950526372,-0.002851954304804665,0.05851223922774166,-0.06665372028170301,-0.056369626777076166,-0.004051512772845845,-0.06143854280309639,-0.030761560076488986,0.03567810425239487,-0.09998327048382502,-0.006296756151066348,-0.016131920490146442
0.07597844867860931,0.08536440793888876,-0.03295048983480522,-0.01622927153816065,-0.09649078988903854,-0.08503064237415325,-0.07427105530344351,0.02545670815091596,0.07098013651587687,-0.06684532054398162,0.053215177097886826,0.034607797557462135,-0.039247186916182585,-0.043718360906306895,0.04594432008893858,0.09110099430927437
0.04777575457361712,0.005464070698472084,0.05250662628600776,-0.0040625713662437455,0.0799294903517041,0.024099260700331176,-0.04099245378697951,0.023449311683889366,-0.09752238739101547,-0.07689896702563281,-0.04398434858629275,0.0630243192023155,0.06392859071778571,-0.010598497205645787,-0.012880960959509894,8.000900597500143E-4
-0.021153877014060338,-0.13100042490144265,0.09085475048322546,-0.0814496471761519,-0.07063994130550805,0.10003974231198424,-0.060793718672596524,0.06907053152108947,-0.12392587156671668,-0.04382364026574768,-0.018888856896845455,0.06332767176030227,-0.07667125374037399,-0.0859194060250072,0.13763812865127592,0.055365145389911545
0.06210360258705436,-0.12928980433740933,0.045789262310845624,-0.1322965141466095,-0.037430366682454,-0.003711625969849577,0.18151152886303784,-0.0656849417931777,-0.1562421153240749,-0.07323544941784009,0.057211536758168494,0.010918101704528824,0.00895750910007018,-0.05810559364765371,0.008984780569366432,0.2893920561009421
0.02637257246977881,-0.15969423222546128,-0.04526220065676424,-0.04204319116696983,0.19564895905602167,-0.053162400189042655,0.530979077328934,-0.16314486518800161,-0.15664515492326983,-0.17757801209422094,0.013825336574299204,-0.04168460081001129,-0.03500780265864823,-0.05749232236496333,-0.12872989476626032,0.33535687102045003
-0.16497788489888623,0.08077998999793894,0.03846617923187796,-0.10100337818192243,0.12160364622230573,0.027163447316277425,0.8156740356899587,-0.03542438258862021,-0.24102368031731453,-0.09624181020200148,0.1608305744632683,-0.13385691093684257,-0.2728841150896827,-0.12080004582942594,-0.14184129253560332,0.692599481283528
-0.10551303430785443,0.3990352699982232,-0.127887472673564,-0.4576634404686519,0.19694834327933408,0.10536336533345766,0.5153317366617943,-0.14965800578055935,-0.3579009217877571,-0.29564169173532223,0.18092859434813305,-0.1775397587478662,-0.2959834111186636,-0.15294402619042632,-0.04430679426660932,0.659424759580402
-0.24626133332457986,0.36196938176417404,-0.13703047570159915,-0.5465646779211899,-0.6246236875848992,0.43091915096650335,0.4359001104234237,-0.22451461427250666,-0.1074271884534908,-0.4350298830543097,0.37655325977984205,-0.2183751901738011,-0.2856173165101077,-0.4149911547259029,-0.40936445516233233,0.9643818944680693
-0.1348070841539094,0.42551297071074456,-0.28274498806780834,-0.3316503389375346,-0.4787720822867184,0.2703532557038986,0.20660388901616383,0.09217030113689824,-0.0313955601308994,-0.1834861902497276,0.2568130043013682,-0.32433283322325995,-0.4903274099858025,-0.5012403644506609,-0.40440335640346803,0.9846169485064571
-0.1550972980803723,0.45952793389583496,-0.4212486948518974,-0.021120219624152746,0.19140584666366264,-0.049205388194214945,0.05810419944888609,0.1429443809913617,-0.03236103136503158,-0.07448404100676893,0.0965638493415675,-0.503014458680534,-0.08857375382103795,-0.6603989803621229,-0.22633947050653455,0.9975870788600948
-0.3147681761448009,0.249387123769872,-0.5104439088876512,0.14902507278239896,-0.14513988964758281,-0.29777533668402834,0.04198909799686196,0.41859157507178385,-0.0943326688413808,0.1607222677343926,-0.0731980157967704,-0.7510846851750398,-0.004641528175087404,-0.40670584374712665,0.1788630990662225,1.3700263920835212
-0.35870095769161026,0.23664453998362536,-0.639450346239098,0.1374685517292765,0.0029933479040067995,0.05776674281546298,0.10087923113967075,0.4862166760429702,-0.10174586194081324,-0.05374387311725055,-0.7512732839596751,-0.8315110172833627,-0.2379743943156593,-0.05459182693900725,0.6018628641800065,1.0923745970974723
-0.270560797867729,0.6015072049454444,-0.6577372032168576,0.29950661807658385,0.47253493428796617,-0.0112636499427246,-0.16546885217290097,0.5725678948400048,0.0610232546184998,0.1630305320776376,-1.2013691620553837,-0.8451923804399791,-0.3182035703267714,0.2750574202862218,0.5106774327890748,0.7445050773005764
-0.6415292001687413,0.5326864283930965,-0.8125940963893523,0.16717151645104425,0.8829684529927042,0.05446836152579356,0.22403555238705897,0.49113180428044,0.3722799526458815,0.24925738085977764,-1.2638347749064518,-0.4512361540198304,-0.06214248866313199,0.2734518453152467,0.9550545365672941,0.3011259601477865
-0.42236091429634504,0.6873099782143351,-0.7437136089375316,0.39452049576247955,2.3206833986358832,0.2033281430777057,0.7191279473349267,0.6196640008993043,0.04092475456929293,0.3795951034974206,-1.4776430476590585,-0.17654929512189765,0.35214781362364594,0.47821202878281455,1.4153671184907575,0.002902151125956769
0.40107761658470653,0.6286764172844409,-0.08125707373628875,0.39464419587662664,2.450272665317832,0.1839881865378692,0.2167578009869322,0.6933681679581505,-0.25857440117816805,0.37697230963735473,-1.1828076358914215,0.30852147511943095,0.5842976485748396,0.5858701295861531,1.4484019712232346,0.28764540240467323
0.6298711978705419,0.3146694439383264,0.32338766526950413,0.5339247857890546,1.4391683931353552,-0.10063458529979774,0.06633542591379048,0.5941883479350686,-0.5568700149377035,0.5750705405587662,-0.45727438702192896,0.09437444886121654,0.9480684243171241,-0.1520335574244364,1.02490514102711,0.5908233347566862
0.3604594351052371,0.1972844111478014,0.45109679581015316,0.405659115894255,1.3911850345291006,-0.42901965367431855,0.06174517978801127,0.5267199968934695,-0.6104730553257128,0.2632838216559756,-0.1899355859388123,0.3747168000040559,0.6422276279483754,-0.35508395322746406,0.793761779447291,1.0540556794843674
0.10563779765115129,0.7589278675564757,0.15742345011045802,0.6884494241095156,0.9460471864560875,-1.2932502839529278,0.49152209491081483,0.25521870499495247,-0.5532764438819632,0.11474437674007598,-0.1439911961861098,-0.06987200945379154,0.32997375920680294,-0.6818645257787738,0.36855894072945866,0.9743214254568519
0.07779712341753255,0.7980284247063205,0.2405272765439679,0.6062264553974623,0.8806180587692175,-1.1589033514955167,0.2592188774451835,0.006200211338036977,-0.3705821399060953,0.1892167222512686,0.01658850664353347,-0.29024396254867935,-8.25798839859222E-4,-0.6870225069990288,0.047710997310146136,0.5186419393885269
0.08984188088153436,0.808738261493783,0.023599751319127758,0.4353737682912463,0.2554626793701043,-1.0756847706926909,0.2664045073910608,-0.007452761583164793,-0.06978349722059843,0.15188172511562534,0.13930114063084298,-0.2864311520359914,-0.19886676537437478,-0.40603384431241557,-0.07740682097619751,0.5508551403435747
0.23679673119716585,0.5596738683529149,-0.07910955268262505,0.24334522013357662,0.5293646303148296,-1.0948973793709098,-0.003465773553290732,-0.29148243049713857,-0.008237494188886606,-0.209738145456525,-0.21991873829246986,-0.3236008858233221,-0.4864256021785802,-0.2717412080505461,-0.011080355787822663,0.5228461144660037
0.37270939434948486,1.1755017146792464,-0.16669489523909714,0.08932644568591712,-0.02994771748557382,-0.8697229625066308,-0.4201542509947931,-0.12908821187784955,-0.010381698654949768,-0.19696528335931046,-0.47938940490231136,-0.35140806497755506,0.02354810018443499,-0.21404981455479297,-0.19371630003060497,0.2329098608069266
0.7332675205672449,0.8743344354533291,-0.3206203695575663,0.4621984019616285,-1.171463696451367,-0.954425944187083,-1.0155122391289546,0.24864072201363588,0.5520795538118235,-0.1327469947398215,-0.36373642038336546,-0.3464552269649509,-0.018942991669615144,-0.2574005073202189,-0.5901230603237726,-0.10356953589827428
0.4129512174958065,0.991098601406521,-0.41923264795156784,0.9562621257066936,-0.8789379248235825,-0.6117660499593595,-0.5854390920733813,0.3535436718224801,0.8140730764137903,-0.3204111318682948,-0.5769618796328411,-0.3964916970666973,-0.48880776583834645,-0.2136611793223873,-0.6280622464293341,-0.25363583967190356
0.25450862639144717,0.6866428553524725,-0.18507484637067897,0.8101139289875222,-0.3053496393756241,-0.13114486726911098,-0.05424298589866689,0.17242159928121623,0.46576144722524776,-0.18504528730519512,-0.522554346210035,-0.09067059806174098,-0.3793977552657404,-0.1329197166136341,-0.4670358161683631,-0.3338409194060896
0.01179154520776258,0.2053849502494837,0.03959288080441897,0.30175220498335464,-0.06875712441153076,0.014115145457818631,0.0047145565212802255,-0.002063220912228554,0.049022527335679245,-0.07667280150394044,-0.15774302811424795,0.05956007962069687,-0.13610394674958898,0.08097662247467612,-0.1522364288306068,-0.07657510095727801
0.06447175261414143,-0.01949605839381328,0.04149174217824747,0.09798195679898754,0.07706458065322387,0.054485872050460016,-0.06997920071832509,-0.06855004819484976,-0.0354676700871404,-0.0505499497296318,-0.07498137731103982,0.023964094417731684,0.0884050227595692,0.08780183822970217,0.04557304979318201,-0.05653718853681433
-0.05089850942051342,0.015986206151167554,-0.05221888012473191,-0.017016239996254946,-0.10000829758035587,0.040670966084945866,0.05823996241901997,-0.09809298001050587,0.08785028421091373,-0.00920565813697156,0.031081358281027427,0.07673931330340729,0.07067542962900533,0.0783107181659433,-0.06187551738209238,0.07037286801302339
0.06722233617983765,-0.07270705199406916,-0.054769131320372345,0.06479922933136095,0.028674319865891643,-0.10475942750095045,-0.019213948820141883,-0.01517466321285021,0.028081096578292174,-0.046838452843173214,0.061906857616435475,0.08478732391141165,-0.03164680960953507,-0.07487431600130119,0.09441749565841623,0.00332543808163652
0.07826436059501031,-0.050459504274813806,0.0977851400802873,-0.0037095747371284197,-0.054930057399787006,6.095596382056005E-4,0.004891457434094134,-0.0011669696039000408,-0.04770102867806134,-0.09038257081485629,0.005818842854628535,0.04886863658448577,-0.09255528627040734,-0.0497528954244777,0.20014058260244572,0.1185237658403227
0.00785454320604042,-0.15335823656158304,-0.0751070190474136,-0.06711847913674693,-0.07260787685209391,0.004448841907588156,0.07249984086642793,-0.12358225701591614,-0.21181577213118025,0.009817952375060682,0.030350061546895644,-0.02607134280026888,0.022759273811172254,0.009254967866939776,0.05119682404765504,0.42427475936743553
-0.1039399315657933,-0.24209219871456364,-0.031017331685283252,-0.1888284914268969,0.05926941369252711,0.0787172576779636,0.26867303410020754,-0.1366790466983699,-0.15754593510135662,-0.020184480525997476,0.11127965157581259,0.056912785828672506,-0.20121382553382178,-0.1140375195781736,0.07947365210768106,0.504855891185321
-0.24351423036274664,-0.05502688312782821,0.023229813430006054,-0.4112601962879981,0.024001962446956824,-0.043467157635466276,0.2434197700324656,-0.03917112593191405,-0.39918596484948393,-0.10547088105836318,0.21527929107365323,-0.09598141384836865,-0.23284868302632344,-0.003276881725893278,0.04586426272674698,0.8840018613324404
-0.27039613929036316,0.4251985748353748,-0.021402099117700146,-0.6344887634849823,-0.23070070687565591,-0.2559753332029197,0.16621960659967175,0.002684227662324191,-0.1259064908334908,-0.08579567043049746,-0.03662219235402575,-0.17374028294603552,-0.22355582816267977,-0.11672202058246697,-0.20337254556723297,0.8612171974651001
-0.24730956776634996,0.7037599368693808,-0.032186522420568416,-0.6476168689170103,-0.6794992934259466,-0.3140831766416506,-0.03958224560185361,0.12697722181522522,0.13890467680232954,-0.04557879805434917,-0.023594453521083022,-0.1913092715423416,-0.3623285848628362,-0.28195458589295597,-0.23301752760205124,0.7693125027510763
-0.11799225534763594,0.5848188647048431,-0.18336794549357208,-0.3102588217407409,-0.512516016102466,-0.23805544595729605,-0.6721046277730389,-0.07050599009160813,0.3680408747241229,-0.022998372628524777,-0.25939446395621973,-0.2860305623276764,-0.11579721810773214,-0.30582017520476884,-0.03650649628626844,0.6220775192259544
-0.05382378871316588,0.27358203499369754,-0.2509917499533332,-0.2895612910300023,-0.46443404791215076,-0.43329426282849653,-0.9930749679209018,0.1800334044573189,0.21047026707995226,0.15135455483679097,0.1225516809632212,-0.4545862518036667,0.11682397404931218,-0.44705900731573694,0.18247384168162065,0.6830272881504929
-0.07635940488433536,0.07594153817286409,-0.3039173386856427,-0.5521048781343778,-0.40355801278163944,-0.06357494615872952,-1.5463271222763508,0.014911672213618816,0.31382541641198297,0.11805255773079386,-0.19125728210269174,-0.4946954237882252,-0.033047252585722726,-0.36654176553594414,0.19362147530840768,0.4999348615511276
0.17642195932439866,0.06068414056206288,-0.4734865764696758,-0.4168271573951872,-0.7222114190618605,-0.25207504481428145,-2.0521345149210566,0.3308987505876781,0.3506156890019118,0.002508278139034196,-0.6293860566554903,-0.7205498449220245,-0.3539151008779616,-0.13450710509878802,0.34409680518242114,0.6527827699641394
-0.05403831862898681,-0.08288119135203087,-0.7827013790922467,-0.44239541924503734,-0.9371588408203342,-0.29716995071506397,-1.9261256248690581,0.4537748413700543,0.17249668495972237,0.20256634283693997,-0.7734084813127728,-0.8860118370161728,-0.12239924267982613,0.15926882260562808,0.3718145454226056,0.826549980387116
-0.498750724619795,-0.5389924299592669,-0.9211906767210284,-0.2919400748665999,-0.19041607779858638,-0.4864949805233412,-0.5089899682742822,0.7331766089851713,0.33825356611726515,0.42647000698552767,-1.0014158880235016,-0.3337230741140641,0.38990391085652676,0.9675024668979443,0.769090067491267,1.43106975718974
-0.8208323487742741,-0.5853641404087584,-0.4134142620970123,0.07530004037443803,1.260914303299908,0.4845850063523656,0.9289054087946297,0.3702670090052624,-0.12188108133511605,0.30797106055233814,-1.5847343987109033,0.5083357810050015,0.6304147148300908,1.4894418993810221,1.858688005915468,1.8516869182877986
-0.017016752903292312,-0.07269076444000616,0.5976157417129428,0.4188991886041778,1.472126140436649,0.07761090466870908,1.247388923232236,0.17018538899760116,-1.1681089161535212,0.43696614191148614,-0.9908582395790305,1.073910975504462,0.7624744862150796,0.9631562403485827,1.7007273651260222,2.0445232016905353
0.3444247268398384,0.4389063987330269,1.0857122225447993,0.46174188038875946,0.9605987932463672,-1.0466042989162234,0.8256698338585247,-0.2331665066695806,-1.8996776896029943,0.5236299802156966,0.2096022197423381,1.0675370040903218,0.7905413066638848,0.05407666204077855,0.5073381557190226,1.9115797054248809
0.22242361763069407,0.6302304521059748,0.49609013919684175,0.1661383972337111,1.7616675610182537,-1.2920312107360652,0.604405938947414,-0.3716069552856666,-1.7352730165112829,0.3555379429652135,0.2922919903990358,0.4486422743552625,0.5918128890606438,-0.5757024758966255,0.3112149252992495,1.4760717166587236
0.06959116376991946,0.5649128127964226,0.362806132050963,0.32733506322728173,1.482590135023583,-1.7744697844581783,0.2826880647950212,-0.12877911935461503,-1.0713912289407435,0.4207947377366084,0.190187716977263,-0.06040694223175469,0.3620938950563262,-0.6772453157817699,-0.10227296429985466,0.8180129224649036
0.13080559424534455,0.48608470567050965,-0.10174660377549592,0.606533790275328,1.0000170730248499,-1.2327735155552833,-0.049271449696993055,-0.2599805309601483,-0.5867630433856492,0.39402247910152877,0.3114990268654677,-0.5482556500781465,0.2391761233228566,-0.7096361841489552,-0.013837262620942554,0.5527913142578372
0.18183722710989228,0.694503881395359,-0.09899540978104145,0.7918920859683869,0.953740884435041,-1.0091649925629371,0.5343415869368139,-0.3280454196645449,-0.3203782237857212,0.2997454162532256,0.0632177656414736,-0.3926835394306048,-0.1607116608064602,-0.5383694407617559,-0.17599940229890687,0.22546575097513033
0.46271567787510287,1.0660235551757122,-0.1900415169945273,0.6172013707786534,0.8611458875308364,-0.8523949695574639,0.06741939580663368,-0.379529440553901,-0.37932363135423397,0.05703052372826652,-0.313082592811664,-0.4858625083276558,-0.3280881382819402,-0.34316831003576576,-0.022220334364923915,0.5513634793840899
0.6561548076564995,1.5776811032522502,-0.40143368838058746,0.5318378392891527,0.3276770789186736,-0.9165625829776479,-0.2548204956600806,-0.2098348080277014,-0.16844360230646044,0.1372593622520146,-0.652693798361798,-0.4572839476724126,0.10047592039188949,-0.2800318920765272,-0.04027923426047687,0.3049358905862565
0.707941442421697,1.3707281766551167,-0.27639399177756435,0.8753073366977269,-0.8136350924330269,-1.051768604707193,-0.8225089663799453,-0.0996289602733624,0.30700055714116653,0.1359583961935568,-0.5843446535296638,-0.3744963072600679,0.0966157944806692,-0.13862227172410085,-0.5905411534971715,0.035803545009139195
0.40820933688611455,1.3944953624260161,-0.1347848841759199,1.2633766729959337,-0.8033502756411028,-0.8838171458937534,-0.2531954024819933,0.2474325326667159,0.4103218927466513,0.030768032143443813,-0.7640942760311178,-0.19161811197059497,-0.3915413575396363,-0.10684667771146658,-0.3652655847006725,-0.3130346850789591
0.11311484254145131,0.8226723302781004,-0.13539948330995782,0.9050622188401168,-0.4377138446563758,-0.29915720664200407,-0.009591678833133789,0.22757123210385405,0.19958183056945533,-0.17887013716032782,-0.3910409991736222,-0.16187353086841016,-0.43890829102399886,0.021309976812708502,-0.18607155251285898,-0.12701081852249216
-0.045603061426515455,0.22441860745274994,-0.029693242438495738,0.2833525313641274,-0.11388037018405625,-0.14717584802580044,-0.08300772637971811,-0.0661460593487612,0.05100817315052721,-0.07706861588665107,-0.1428217600726988,0.0744005043905615,-0.09091714544721693,0.08524053326470651,-0.043313273212732366,-0.025407741665319807
-0.0697205962495036,0.10257413461806988,0.06458413367249018,0.09163880044130443,0.06749236615264353,-0.08625560593226318,0.01329203921138677,-0.07085247706702617,-0.02725595688056056,-0.03391308520037779,0.020862975283799958,0.004095591770956673,-0.02199945875496502,-0.054408645402449655,-0.08614470983604666,-0.00876578893802951
-0.06101815465100681,-0.09856646705405857,-0.08739304363547107,-0.02534739661245362,-0.019839635254100475,-0.09012112861363895,-0.08813582831009673,-0.05466545815007299,0.014304336703731258,-0.008036119254037818,0.09904425767903381,-0.08972086897823925,0.07000662078867219,-0.06624316637632403,0.00976035883643623,0.04093373815257758
-0.08812770038545992,0.015348471050754563,-0.002724665275723636,0.06755576340910673,0.020296751253686015,-0.00505447660563247,-0.0314394200531409,-0.006204672094505544,0.004313863798087412,0.0975204008969714,0.039593967023822674,-0.03664262890327903,0.08337583582403463,4.080179064217506E-4,0.07283279594256946,-0.062187951212470755
0.11802045523484364,-0.058896109466374566,0.009606779389591725,-0.041358950201515476,0.04308472053166593,0.07646766366703125,0.1181315910542955,0.017283371312020217,-0.044370155100647145,-0.01692244294038315,0.07801605137076363,0.06837294179690764,-0.04497050267525906,-0.040280956385738684,0.15749847567175435,0.252462185265312
0.04610257337294967,-0.06367079894798519,-0.025461747128321426,0.03191861573068994,-0.06018697302995721,0.04142811472470208,0.14589490211870743,-0.022350006207838155,-0.2783468909214296,-0.06860596710305106,0.09069354846761497,-0.08581089828058196,0.03729865446314436,-0.02431785389897651,0.16730219144938874,0.4267825386143748
0.0038621123488936167,0.11166569877411103,-0.06092832124030349,-0.19164394666476012,-0.09805432912052446,-0.16595018781136786,0.06812426030521998,-0.04074234570954306,-0.3050954419497733,-0.025926552201187805,-0.018119197800266953,0.05008154359138937,-0.19627361540958194,-0.10258301019983394,0.025255729627445156,0.4128299846231324
-0.18604179928071538,0.13110003993891936,0.007297922115368195,-0.4988145449798155,-0.250021739169236,-0.004850840312149673,-0.2791576065672138,0.036334114066453455,-0.25049223402958076,-0.04144375060406028,0.03054893199291827,-0.09657561830393846,-0.14848114769575133,0.005773371264548146,0.1334862927647919,0.5988445124645344
-0.2467520629924136,0.39052029346961287,-0.010810672916287081,-0.6049875615670605,-0.5429587060182085,-0.5709825624169635,-0.4672709585111911,0.21643593416195972,0.05445236056784261,0.04145810833356868,-0.26265500560190286,-0.16358452421461195,-0.13765607651255266,-0.2739533806850213,0.09733150452508313,0.18511649017786344
-0.1955259480229157,0.6716733239414359,-0.1592900695056277,-0.6068450583013263,-0.6107661436656833,-0.5775133334657804,-0.8246811163372108,0.23851928372191242,0.26337135045391835,0.15874666865360101,-0.25827210780607956,-0.11038617317234466,-0.2789042879660661,-0.2631188168484979,0.009691594876680372,0.09232650117577124
0.14990378251717065,0.37748838666264484,-0.1737948643564461,-0.555135790927461,-0.5454008744600852,-0.5104342306187485,-1.7231774655743102,0.012849117687023232,0.46434506508028606,-0.015976002913275826,-0.19887209154582577,-0.2721313337950488,-0.1292879282372501,-0.20747111930807124,0.39627235419865053,-0.33701780497710965
0.4155336110116557,0.10443938026740769,-0.290338378390348,-0.6154435767680733,-1.0844321676979747,-0.7771055093914412,-2.4571062618722785,-0.1510317460920042,0.45188178878505697,0.2179067346217037,0.2047552567596829,-0.357950748822545,-0.05947538883982195,-0.18802410496050548,0.2596537480698318,0.1857293334446462
0.48079303806953017,-0.14801825246422728,-0.3833964264000064,-0.5825636805554073,-1.1773762652379243,-0.34682504610545595,-2.903104913182463,-0.1781299398003762,0.6687437080858222,0.08417050613816784,0.04629759762083885,-0.39535424356511945,-0.432114108209399,-0.07958308408396429,0.3891954743712284,0.0916970619868249
0.5591915887346759,0.0414724044448865,-0.5650300195027337,-0.506599271829748,-1.1918343967734837,-0.6029952773818595,-2.696597678114254,0.2536357027315285,0.434447501137269,0.23662810420990596,-0.22221295257783638,-0.6090769793205424,-0.27837874467147233,-0.11707540300610983,0.8734233111804579,0.02770089066081313
0.4861919051004982,-0.9775655996292745,-0.8306448628322547,-0.4168088952516625,-2.2572308276889785,-0.8376823569407302,-1.843704042720456,0.30820376119661225,0.6819051814465211,0.14562522901532343,-0.1402611004333865,-0.7398430892306405,0.08436749953089287,0.494879489205058,0.8768413389939761,0.2847126238898441
-0.4432538665861046,-1.4276495130517093,-0.8317937398401654,-0.12546741048258062,-2.479439207780362,-0.8620585895012955,0.0038217291433844686,0.3416142356761878,0.268125101607943,-0.07224995362778358,-0.3391237227728812,-0.1915621619595806,0.29184140706493195,1.2445551508981136,1.4681326113943223,1.8109098950779108
-1.400312276468294,-1.1571130012644346,0.22870428333040527,0.5090119369810516,-0.8925791949321121,-0.34958889240723146,1.6552265450457826,-0.1211486449634297,-0.496931009340496,-0.21295217346990794,-1.4023700607350216,1.3201143666552864,0.21668262380883505,2.1008403776856235,2.096621806933451,2.5574351438156895
-0.8287589684974895,0.004833287761954014,1.5268760128518988,0.523398812579187,-0.03974062107026917,-0.8777194264470581,1.8213033919980757,-0.6845208908914359,-1.3032693870904277,-0.3417890136873278,-0.6064332746702502,2.203030093066185,0.1586055598431663,1.1722485587318068,1.748067244214456,2.8960122197409195
-0.08579762974514259,0.2601723180054804,1.4475478515166744,0.3822017455127004,0.642495284210566,-0.8411735030535324,1.337272958153265,-0.9527768981443199,-2.411921736789045,-0.3786670098213051,1.029831906405498,1.257278389872326,-0.024987609182112697,-0.3057230401709411,1.3875970188569913,2.987326699089943
-0.20380040286559487,-0.2601796212934672,0.611864785781827,0.21406433939482056,1.2636906567160298,-0.8349755381568148,0.9922275815616024,-0.846039552507922,-2.4694004149816777,-0.10181455698139669,0.9876743499241223,0.34026856935711985,0.19357384887227555,-0.7512434343437316,0.975047193250638,2.033482354399689
-0.25447844301684464,-0.45943493631997046,0.3504050200235342,0.340749121284463,1.4601417910667616,-1.0766204101812569,0.6230113897487431,-0.47986467612871825,-1.4331342917993253,0.5110811604956046,0.2663908955208236,-0.08447040418653126,0.5879052702038513,-0.7234580694051428,0.6689771545692786,1.074635421887752
-0.10580994136097369,-0.13792646371128797,-0.0576900220173372,0.4901612371835236,1.1216370790303491,-0.5666005568344581,0.6097920545836313,-0.5639721719415214,-0.778745949770877,0.9226610909022145,0.2716079651595939,-0.26408972454378016,0.5124244736456193,-0.5601598751393746,0.44115538158207185,0.7508027743486538
0.19916331972766532,0.16477186018232148,-0.3139990838310173,0.5662823760705767,1.6071177795677423,-0.5028715374700328,1.016409303247576,-0.5326747421355896,-0.8939021472873887,0.6577317480930652,-0.15914235848818728,-0.4435784342593121,0.3600872656363061,-0.4999522975110296,0.533213368584688,0.3671414337776219
0.4866184683698954,0.5861640577528643,-0.3871172209113958,0.05303644479791556,1.2817659276851983,-0.46936941050645575,0.44037105641797614,-0.6294555740418051,-0.7135240479179309,0.389925544275622,-0.3284679244547016,-0.35587977110476254,-0.025908544499248162,-0.3304206045059681,0.48823084583094556,0.5291310880313924
0.7718822638029601,1.0616745950586677,-0.39548414231320395,0.14948841314657463,0.7026499982507061,-0.7095047869958168,-0.020516701410376228,-0.6017947239160614,-0.4414242068041294,0.4045126909338367,-0.4963645669249169,-0.2651964625641082,0.3216613916999225,-0.11918822177000875,0.4836834175988087,0.5389856458641727
0.46657525619156276,1.0537461324846173,-0.21523784079319244,0.6281808250011154,-0.3421420324372818,-0.6539274451369929,-0.16271796723571216,-0.06965649826763616,-0.219406875058358,0.5041194750042306,-0.5302084425711319,-0.2635117950824257,0.47264038019385385,-0.09847528458342361,-0.19255211520779647,0.005846355937141053
0.19172008693218173,0.9227634135905316,-0.10345067543284542,0.7570687427532482,-0.5937102915051378,-0.47143023573590975,-0.18184548571096606,0.15812178889187717,-0.13562356257908495,0.12266749150937126,-0.4992529300607004,-0.11240353593495096,-0.15695668430048904,-0.06129369611819215,-0.2094801675171794,-0.275276889450326
0.011006944839173421,0.710789194746201,0.003174514490640961,0.5624683591233197,-0.22843638675438374,-0.2377754863996379,0.09428163010946225,0.12423081030659995,-0.028249598174546812,-0.2058661487972268,-0.2776239435427703,0.07136500549663059,-0.3127035914900064,-0.0819808831249221,-0.20411731897553057,-0.10473893317692866
