784 16 10
-0.015231849893158136,-0.07696962850575804,0.0987338971657947,0.07041383548123553,-0.08937059832500577,0.0018452239180783286,0.029013245465649012,0.09837401237663163,0.02612354433557218,0.020074855315572182,0.05269794709902351,0.06730389685588489,-0.029093235343904275,-0.04104503046697934,-0.08424474517515129,-0.08965385318906494
-0.08618413539341059,-0.06497901692322297,-0.0037133215711491474,0.051499543119535585,0.04306180963369499,0.09387561988275936,0.07837358136874087,0.05995354825461707,0.06325458367884071,0.07176480425960027,-0.04906905569095615,-0.032612657966859346,-0.01941094751266828,-0.0761615281781237,-0.09466441520801475,-0.045801580747552674
0.07686461803677688,0.008042859409247233,-0.025514800525721373,0.00844150250250661,0.051916235013240775,-0.0038045315635875376,0.059645638263786493,0.08665273971257514,0.04521934169154676,0.01399023584529302,-0.09980342629324837,-0.0683881519475785,-0.005971689471489364,-0.052076446607919484,0.08584926811379864,-0.09401975237242366
-0.0697919455959587,0.06982470085225898,0.029618620462539352,-0.06799793425834351,0.03859135753310336,-0.019825757393649848,0.09585517224625587,-0.022572146195132856,-0.07438443576085596,0.06251204625350917,-0.05596603084876095,0.06248504347182163,0.028921691331781796,-0.0757045694831467,-0.05922040472291046,0.019150716956445366
-0.04098402535455856,0.07437222165228685,0.07844595413843472,0.05116933065536686,0.09442090648741933,0.0039851292410888195,0.05495136258403591,-0.08225191330720823,0.08744595739385175,0.01224633215245119,-0.00816708428480703,-0.07051402511592489,0.09978752049023179,0.035897583846194625,0.09170333252568585,0.010505551965375684
-0.08630611743909683,0.051911849009675715,0.00940427734008635,-0.08164478774719129,0.020276415864061856,-0.09903469980972389,0.002306753475606979,-0.01222333080825018,0.03081643520096969,0.06997780756193483,0.08866979559476493,-0.02431767412567458,0.007335373388502986,0.024964223308113945,0.052788483580020834,0.013987723065119084
-0.08268757852600789,0.05001721134824222,-0.029082781347116837,0.0534832579667745,-0.08866448024827128,-0.09040538395354246,-0.0012391676562095444,-0.0012964551262713009,-0.05018772262797671,0.0032142930618464793,0.042053706992031814,-0.004485991808356557,-0.06969638194981767,-0.02149056896687611,-0.07583969367810156,-0.05545224713442609
0.027472690728520266,0.036779095426934694,0.04488899450864686,-0.04842872195882644,0.02828770855411139,0.006547914726720075,0.06182710665820673,0.04162506137272376,0.06833757092745454,-0.07521675225410183,-0.08272589891253893,0.0031869766374988256,-0.07096360256624477,-0.09302091334102397,-0.016575099010122024,0.06237837204636382
-0.03932621392714586,-0.054825155035881194,0.06258762503068355,-0.04726708741983161,0.0307891799943478,-0.025072475714470563,0.08054050670315169,-0.028725187944424677,-0.08728075847795352,-0.01945595835300977,-0.03323355422631827,-0.04790792513572644,0.005234520995875985,-0.055607508132524734,0.042459664276668446,5.84369504528337E-4
-0.04017255143992265,0.0682758726854181,0.04229102939121457,-0.07698502624097492,0.013462746928723665,-0.06915577794996547,0.06986924466900524,-0.0513644849123623,-0.06656836734263541,-0.016239808352506796,0.08572450770105686,-0.07577097336721168,-0.06440295141086179,-0.08482430487146249,-0.014765731137213495,-0.08810207737316443
0.0691557161566812,-0.030643746429980676,-0.03806922340487356,0.06633237566026648,-0.053143853012239006,-0.056597309497792715,0.022437825080179746,-0.03769489731013731,-0.021013734189374314,-0.04923494683871939,0.02182138103399016,0.0736996119294436,0.08112440844759636,-0.0024450572382727492,0.0025422132033818406,0.072860890651954
0.03934961242953533,0.08233256040811801,0.009855431798344208,-0.0848836442965568,-0.09798083984380396,0.09264684857727687,-0.005411947435010944,-0.026944651101203795,0.006498535868775884,0.06342541305578692,0.024976225213143355,-0.016631761659009328,0.06800126648108792,-0.031926065018530014,0.03264073714452259,-0.0058455637143415284
-0.026851840363971063,-0.020506395436929975,0.0961822793096277,-0.021206346479725594,-0.08425054025260428,0.06951608729699651,-0.09603327984744825,-0.06126643414429056,0.04178259382380145,-0.01118512626521291,0.07944430310511563,-0.028475970917404503,0.011310133187972832,0.06721655453126871,-0.03068865007747283,-0.07187731386659069
0.018716216161467486,-0.007214899874315589,-0.021451019087406653,0.06037158958350358,-0.09745002684350026,0.047880518286524065,0.0995638452845477,-0.06190662141439174,0.04705958717985942,0.011274793548729109,0.09512369808013921,0.025492141246146155,0.05013636084525727,-0.025813918678743816,0.057431319579089785,-0.04958104924591314
0.046300390003546965,-0.06563137758594118,-0.028595735922618132,0.05846809702646852,0.014017708433430573,-0.02189421487234637,-0.002367336247454152,-0.08296771548116184,-0.052604159493284855,0.02117724129614529,-0.029391092471257624,0.06567415022573628,0.056263762403866796,-0.09522017248849138,-0.04906747275547683,0.06188138958014572
-0.056580508769855875,-0.015679774594454216,-0.0038803953030938504,0.09598128113731025,-0.09683002571331192,-0.05923784331314444,0.06090486653184013,-0.07116929388647408,-0.044992062342312324,0.019050344709168374,-0.058598443303882954,0.057644419534023356,0.04258842972930449,-0.08261781001581037,0.09716013982767699,-0.05438774282772488
-0.01591045008588836,0.07173735188886102,0.021046245979034456,-0.012158210118141527,3.8065933928577156E-6,0.05645868726185255,-0.009297620726412714,-0.0457089620667964,-0.09807156500449643,0.07643996740834591,-0.08118958942516866,-0.09818049636136461,0.015690414808716496,0.03716722367127387,-0.08234736405201933,0.051568611958246025
-0.025703658017076886,0.005519643480889888,-0.07929955974400844,0.0820262272025796,0.06823172995899396,0.006488244326263909,-0.06559368174917427,0.08132833778423962,-0.08119237312191918,0.028945893271768636,0.05218163730086969,-0.010211312965490535,0.039096901649706306,-0.0665568422875415,0.05695853304623008,-0.0020403375846663463
-0.004017487422903421,-0.09734688988006256,0.06521868146239071,0.07125284981128555,0.06981732401640992,-0.056813513657323435,0.07960894504696808,-0.01100526326305476,0.08642117542457042,0.06470120900224399,-0.001861886699500756,-0.06860325096672723,-0.0010767197266021988,-0.07677826009106281,-0.08212787030876745,0.045827926016865
0.0010889816657288637,-0.0626576661696759,-0.04785262208764032,-0.0912425290779829,0.061814412185665135,0.06373642075838015,-0.08791600777405557,0.0051455784798431214,0.0380353269550576,-0.07594849338708523,-0.025116571784177574,0.01656344229675781,-0.026079289818527612,0.08692628920988771,0.07969939316192162,-0.09158666426565182
9.185981025019996E-5,0.005821170913035106,0.08231374901344979,-0.09801415080389467,-0.005578761809580682,-0.05553138074632629,-0.08542044129850218,-0.07554033522982631,0.050974344767981544,0.03794461124488993,0.05441926030582242,-0.03289376966474737,-0.061018442944462285,-0.024489528976246816,0.0874094991270511,-0.007921274750867124
0.05955904795835745,-0.09547573929631875,0.08526317825987911,0.027061199351765097,-0.04836034028230947,-0.0708919141845972,-0.035454542575119416,0.08876737228924816,-0.05986606208769934,-0.0060596353202216485,-0.05213502944094017,-0.007501788993522676,0.013981223412147942,-0.0073170124738493325,0.06988377924934105,0.08742840534426069
-0.059864315599790066,0.09550304273462826,-0.05290797176125266,-0.08533105663023699,-0.03279778851412239,0.06277288027885586,0.008497410087010368,-0.0856515274106166,-0.08741591676485663,0.040131065872546834,0.0314757779568125,-0.06358429885527501,8.671727973005583E-4,0.060196466226510176,0.01203439296909578,-0.09393193968009322
0.08406798639729049,0.04093921094070457,0.042146861978679284,-0.03926980692321685,-0.05825628970111845,0.0222388268787852,0.05702127785345332,-0.03402455518653953,-0.07645806417059536,0.09700609361516577,0.05907462732410437,-0.006184394023478729,0.08436063372481359,0.04893339346917397,0.08011731502997105,-0.07228994102923575
-0.08680075400106463,0.09846497113329802,-0.06938078926805598,0.0028756616388811718,-0.08344104139198949,0.09898577811985329,-0.07027042507077932,-0.03467524178732277,-0.039000416052723086,0.0430000803968221,-0.06133004861296161,-0.06398915111509446,0.01907566459093553,-0.031069334915064875,-0.08695196728389139,-0.04647104940154592
-0.09456735513439965,0.07071305948787646,-0.014517574350487436,-0.03156845495551197,-0.0971422274505527,0.054642783043148374,0.07879054855652043,0.021674522434335167,-0.014514615671316108,0.09334362242777919,-0.06801425168091997,-0.02499983031007577,0.043847335733329273,-0.055511869887461845,-0.07748499843289212,0.01726223967209861
0.08838849274434807,0.05110385215301455,-0.05089104208319142,0.06307298728960833,-0.0054264644114074,-0.0394922456374778,0.022551981943055147,-0.06356856693279583,0.016135793090344602,-0.012319229602857695,-0.08099141749944955,0.007149218334747617,0.08189692060214429,0.059023278980679744,0.09350312583942375,-0.03747789011015368
-0.037029391724542185,0.042503863974756445,0.06454839478607033,-0.022101200603744472,-0.09957878496649673,-0.03405948373992136,0.015542725438913066,0.03778712767249892,-0.04469071342583784,-0.04144491510013995,-0.08450129810786565,0.0018261859672550756,-0.07543823625039581,0.01517142690043008,-0.06592295172026524,0.07172582746999648
0.07237966766515205,-0.07458248267939067,-0.014092882359399345,-0.09578229197853437,-0.05791041427136756,-0.03862170150536013,0.04512877907594426,-0.07544463633159636,-0.05913540967855049,-0.01648139382755505,0.06711634179925513,-0.022089506780820112,0.005402440248611889,0.07615913397098861,-0.025199352518630105,0.0656999611063834
0.0928410750569523,0.05658554602565399,0.0450917739827002,0.022726458069492292,0.06830380682430776,-0.08716890859270472,-0.07984750380245287,-0.05833309229911552,0.026773065736150237,0.05574802758124167,-0.09229238829143911,0.029842178542235448,0.07578541926093463,0.04336366922446375,-0.08320416962839106,0.08643724796309338
-0.09325944807494464,-0.009463252601193045,-0.081262614426436,-0.04624138179939046,-0.00895317065326695,0.07406261483516349,-0.022771936141894503,0.05959582355035134,-0.07140419267085876,0.016831956746530485,0.04305209418458386,0.032494527416932206,-0.011374003740076202,0.003918802874942701,0.04486686714806218,-0.01977571905442832
-0.09158677018294054,-0.090207985619799,0.05911150706515217,0.02828523020095225,-0.03602501437058969,-0.0234026695000826,0.06939890820575448,0.025855175994426605,-0.0033856447236059184,-0.04381591127499207,-0.012430063581071016,0.09744663191053221,-0.022326413573256973,0.04290228177603084,0.09000141736238759,-0.07573542638362277
0.009231828301408826,0.08713397749630836,0.04548434867798162,-0.0264026844913081,0.09053390489199184,0.0605532858737278,-0.015249344540141957,-0.008877261995253113,-0.02626075697203477,-7.661911010260064E-4,-0.02279618859328411,0.04273996560309973,-0.0841419211464045,0.08277654240860058,-0.08030208202882022,0.09594834055075152
-0.08338375846468796,-0.050597773676094485,0.04990386137435779,0.014524083214338665,-0.041925620718311074,0.01938432152515357,-0.0933838451092953,-0.08298484088790646,0.031627045384711866,0.06679609188546634,0.020379666797846335,-0.0992846911205289,0.09170264235055112,0.006599985771807426,-0.07379462108984364,0.04435720731507978
3.436974247755381E-4,-0.0017303468996087978,-0.09678273289634709,-0.07262807289696271,0.06958739600390726,-0.03626140735823746,-0.0900594218589329,0.08841931588195351,-0.03297003521143303,-0.05467878349887332,0.09921174706693434,0.07456193895138227,0.07869122929430325,0.08538831868553029,-0.054761086167200705,0.084619565350262
0.0402599271133017,0.0683072161653768,0.08098735669211013,-0.05999504376695546,0.035973907189361776,0.03275098367325513,-0.08870095322449108,0.09248585368418169,-0.007498607430728416,-0.01895498547476593,0.06969453397448327,0.09180036189413004,0.06926180366013654,0.0677670474276891,0.09353545304655966,0.055515760090040306
0.05755278079599921,-0.0026615961151450485,1.2866289136714837E-4,-0.023485268954064747,-0.08143782242372682,0.06100762180091468,-0.04831050258161214,-0.04199794047850336,0.06818401955157646,-0.0570649080337454,0.09052050299133804,0.09204798831390823,0.05871215122775095,-2.940168118387987E-4,-0.034018934818332625,-0.08165554369504735
-0.0880550363777032,-0.05939451893924446,0.09917255753200047,-0.04619047859993,-0.07590818820427225,-0.007906949803314078,-0.02835344946602912,-0.08651038141535639,0.04728901170111838,0.09349205086218668,0.055305044370720924,-0.017911446579777612,-0.0666584202472448,-0.014453994726145197,0.01609573616406597,-0.07371001006338809
-0.07770198675032625,0.02126242577446044,0.07755471965267308,0.0217592303875426,-0.05771283413851896,-0.07599463261456395,-0.09796875030105985,-0.08055764044308822,-0.07175778813539586,0.006512348138262,-0.01329027137463086,0.006621378390167076,0.008241500141084573,0.09455942906601272,0.07993796529751065,-0.05205032164588533
-0.08525028317294758,-0.045160864723213484,-0.09898829227928474,-0.048919313367967045,-0.08790265136581471,0.07289951316922888,-0.09283190902927872,0.03956954521289152,0.0629960535429833,0.04829610098576684,-0.01107615256026069,0.0755710093008106,-0.030184784827714917,0.07539591490278597,0.048822150532862874,0.09627860477731379
-0.0565137914868507,-0.05506280163514665,0.0878911256376669,-0.08024252155308619,-0.0716398963266725,-0.09720926361858356,0.019039982960856155,-0.02874612290320773,0.0832723929624597,0.09923523418067376,0.025234200162137232,-0.04048982036648166,0.057957161608875374,-0.05668994131539809,0.006002335380318385,-0.015615049468055142
0.091080959870219,-0.06252637162138548,0.04667104781282591,-0.09729590673773812,-0.0021397258764189048,-0.017826552646406396,-0.006709885196074558,-0.010039978725373697,-0.04164378795913542,0.0569698490654196,-0.051106633274285045,0.08300781054364775,0.07701084975000114,0.07367444027487774,0.0017038855162833516,0.04526075644479258
0.06695151026065568,0.08886331225202301,-0.07317869761648255,0.09462527605689516,0.032237805028963396,-0.045613455783000134,-0.04814026529050328,-0.0030415537067552123,-0.013098466121874305,0.09743606864205231,0.01864016057677216,0.057364314653713305,0.014011552489381435,-0.03482423104145982,-0.041953257992058623,-0.07943690382206725
0.035351885609693545,-0.062036095082640214,0.04621351156283632,0.07096325956200547,-0.05728928920909829,-0.03848567999990345,-0.03528713840592859,-0.08777611672348695,0.07902245352698067,0.004816470163333225,0.008873463835641984,0.08840284065489606,-0.00570960733269868,0.006788677813742747,0.035700403902612754,0.07197124597004931
0.07211360383667606,-0.06114012084071605,0.05002031132475582,0.058087856020578615,-0.08736497824836004,0.04804697060933541,0.04029048961748172,-0.0663128156437835,0.036679502126668845,0.07969395056116976,0.027515507872932388,0.09919524072725969,0.08333591350832506,0.07519514453563272,-0.008973477692264795,-0.020535844585529844
-0.0772511594185748,-0.09106371538452217,0.03559634035547507,-0.03906662174809142,0.0022839299247710276,0.0997528428950378,-0.02263170653615028,-0.08934327242784997,0.08347415441852254,0.03450411986494556,-0.02123806012293676,-0.056615199296662304,-0.03216155581544336,-0.08290788014197058,-0.07352134253802584,-0.0030266585099285315
-0.07861970209395593,-0.03988101017337953,-0.017466576034157383,-0.013256656531054678,0.022666841283185635,0.0651499592585364,0.09415896835044615,-0.09487524214503396,0.006138352046484358,-0.07710795855052695,-0.09186195794560126,0.02721406642637647,-0.02715899631370995,7.100228708604439E-4,-0.012847059903574307,-0.010898097649503183
-0.08421441686724185,0.08838502377719956,-0.0689600350294931,0.08230482802997188,0.05432228879324669,0.02218890466970562,0.017229615769129403,-0.0528682849008667,0.08866900120462667,-0.06577227942570696,0.0037135117079247076,0.0855816291179867,-9.790917866739496E-4,-0.09514594442343938,-0.011565023430662125,-0.06523782639184791
-0.0991160082936681,-0.0328575102045382,0.03980997921511009,0.028469740572064695,0.0638160623650251,-0.08498636109573801,-0.07604739505938554,-0.06215266240084816,-0.022337997113415137,-0.02694774747044147,-0.06254529441350207,0.06272085993000406,-0.0879088109163248,0.057852061487718015,0.04223607602038065,0.05950404283513522
0.07831707094635071,0.009890110352272649,-0.0202064404297585,-0.08656872868637391,-0.04799634088587297,-0.01196560933624538,0.0032505878492637696,0.019490667350655785,-0.018277294102461622,-0.05283166552326273,0.0552574991832486,-0.05854117080722479,-0.03611878704829578,0.05189371964773548,0.04784459051147569,0.010003111714167373
0.02879251054751969,-0.043365821619748536,0.01056938343586955,0.06773252848635303,-0.0655478825257863,0.09646332265230906,0.010418956099353643,0.04552740541439057,0.09791057869405814,0.022947240650868325,0.021813692556848688,-0.0199967657965896,0.07699576068334854,0.01893212010677585,0.002264411778884992,-0.06565837035639571
0.01475606166947456,-0.05623007576759953,-0.0037827358846357073,0.09953798614692494,0.05835081571484757,0.08243945731431923,-0.035669146023561665,0.06168180961841649,-0.03807013505909709,0.01575753302767864,0.05399645990847832,-0.09865224449958086,0.025622495182247906,-0.00124403127580279,-0.04689596661665214,-0.03942585822244574
-0.008903570440182043,-0.03866810609065366,0.09037838209967669,-0.0031785483660780323,0.07407856168553509,0.07783554430755565,0.07143657989904714,0.09172441371142318,0.02392885448620044,0.030954269931860706,0.059517339584684054,-0.02717012136435737,0.041221863510270296,0.03957961392582837,6.73602139172183E-4,0.07674510111970279
-0.03626720539160953,0.02931502464334529,0.09068930242215062,0.004728738091453397,0.08599384408238792,0.08663336033206231,0.048492596206797106,0.07704859163808422,0.07358047052460898,-0.09561181019431411,0.09646995320487911,-0.06904716195106085,-0.07296634014972858,-0.07742455963796668,0.06234015885381192,-0.05678809082054544
0.05281157491172925,-0.032667496266173254,0.016908245444790193,-0.03421496464128193,-0.003430513948953745,-0.058544985456097653,-0.09772547789247998,0.02668832333796564,0.01578175938161752,0.05309581657198914,-0.006065594874922836,0.07436234474751102,0.05488104880691147,0.003180790915098042,-0.09898504948803868,0.013243435768439032
0.07476056577772588,0.08892527381469004,-0.029465445833633114,0.0013965653995235694,0.050370812189930586,-0.05679769988607695,-0.024128286380336594,-0.06308142021163629,0.0148560030387348,-0.023587277581053723,0.08052977667078043,0.02240197922389693,-0.024182329763771063,-0.026499457216653408,0.02885638509519456,-0.005766225195574237
-0.07873862933649332,-0.031788059448937075,0.021738511262932025,0.06611670311472026,-0.039053687480649996,0.03387691188618361,-0.0997530901896089,0.06401408020837829,0.06497014736596651,-0.049628174549220284,-0.0749284175353504,-0.014585590690409475,0.009959955848791086,0.002529907962225783,0.02121526224083474,0.09287556081067624
0.048211186280124496,0.09620955207749293,0.018608724424745995,-0.05404816584772065,0.003937761618024949,-0.05364870888271796,0.07444754033437218,-0.00844300979884094,-0.0021907082774408337,0.016978327046572622,-0.029096940794918563,0.012461800159167064,0.02893507916294394,0.035359049388663605,0.05587638064552586,-0.08198454381437953
-0.01636455027423292,0.06238294547281309,0.07745282690347222,0.07537542393129534,0.03268511133207316,-0.06532193594506186,-0.0799246747364275,0.04072566057632479,0.001428362292202487,0.047907839031552796,0.0568281617621004,-0.011966911373757563,0.013860719699980123,-0.059843722350917776,0.053156464350433724,-0.035435342723049004
-0.08250734693744032,-0.030099056312463443,-0.037599601395354926,-0.08908735079081116,0.005117875852143294,-0.0705921307117386,0.03868724562239956,-0.04672224922832875,-0.06646238503160543,-0.05880252855268875,0.08672655604304397,0.08625706236423877,-0.03323928402616834,0.07589374465048035,0.04576994563929185,6.451894260154356E-4
-0.06407438435669058,0.09093872164727676,-0.07286041228844689,-0.013563217470248731,0.0010373479576456235,0.037080602724118644,0.07877805287591641,0.0611978018864979,-0.04080947406208853,-0.07278519654951054,-0.0067221969731970505,-0.017643525730765816,-0.025575248533440884,-0.09760890020497213,-0.0714185151363177,-0.07168487675296045
-0.07752714481326256,0.00390540657374569,-0.0047719020254808064,-0.08227339082880153,-0.04497340476023997,-0.0414171803789259,-0.03613543917298956,0.011392555386044487,-0.04265753830607502,0.09621888324397354,-0.06981867816946762,-0.06822644907305082,0.07941706519427313,0.05550815720495181,-0.06925542211438925,0.04878892028380494
0.04136513601029637,-0.048999236069757646,-0.042341059026674024,-0.09643262589260469,-0.0035783509169556166,-0.09536754316323902,-0.016955790141413532,0.03861511686431024,0.0363025058233874,-0.06285584835553522,-0.09347829581388796,0.006814644928359509,0.02127277927062557,-0.031875984956063586,0.004858744698646958,-0.011716772300821604
0.08088321544575336,-0.08590181426249979,-0.05783737468141375,0.049602905468765224,-0.024328538049359152,0.01172586294968618,0.05462102665323726,0.03829650137393675,0.014679601661013592,-0.0488352529460143,-0.021140153082261165,-0.06171394405873518,-0.035909189658229354,0.05298588333570525,-0.04129984220289023,-0.03960371353992764
-0.015491371149075908,-0.01804967591078499,-0.06379129795066135,0.03916775390704344,-0.07668416625827745,-0.062253082684221694,-0.012513534747727276,-0.09469548615873183,0.055191617434005774,-0.06684778983343682,0.07137602072571073,-0.0658239517861436,0.05635337676120819,0.02871391757495939,0.002768150573528458,-0.017483320777106973
-0.027083004439665007,-0.08818438286372075,0.06355363389872018,-0.06708894233469617,-0.024572017498210516,-0.0017301871559382703,0.027276253510934906,-0.04383524917444073,0.07669317552855778,0.06370751948258352,-0.08789278638763323,-0.04539192235113463,-0.02958417602013666,0.03153563075764568,0.03103199580368693,-0.05180126254294102
-0.09618363442291163,0.0740130357583921,0.09020902088390426,0.06612836006808917,-0.07856423538942547,-0.07492129739389473,0.09435063757131432,0.0810353253646025,0.0416521435868237,-0.06693125672345196,0.049264852567842576,-0.08044794464401116,-0.024065727387475394,0.07886768702601873,-0.020239597480111976,-0.09209949603838091
0.07213529796174739,-0.039971861946447355,-0.014218099026247821,0.061073509229342876,0.08559815699876247,-0.03842974757785083,0.008188780540681659,-0.023383178229500867,0.0733999264125891,-0.002898625393234683,-0.07410792857771326,-0.05052586280387761,0.0437594063846618,0.013899869532840309,-0.024952648019368112,0.06576137248987807
0.0640307366953804,-0.038692204582940315,0.0362111095359513,0.023833829683943097,0.07104299219073323,-0.02272173364654677,0.04464351526298166,-0.03201665295170218,-0.017287364022266632,0.018817229672241947,0.07192760767674078,-0.02325477510471756,0.07302702404056269,0.0808717515438335,0.030487658662207873,0.059401214259176216
0.09998402197150294,-0.029041770070285147,-0.00875374782303251,-0.0455274398242272,-0.05644028203359222,-0.030734354084581028,-0.023882865986472088,0.0396947497874901,0.09608151251739108,0.005416849474731894,0.010354054166781076,-0.04142164115275979,0.00980343189222177,-0.018176751682517783,-0.09680378022939351,-0.011151764986589499
0.0605149781391052,0.06046491927845343,-0.07194492172714262,0.07411738630761391,0.05513844560533407,8.973718033727096E-4,0.08883153788115239,0.03733977272047975,-0.09332609241318662,0.013245710475930927,-0.05735352625814521,0.09430718585453068,-0.05650745500775825,0.05152298871294339,0.09545342581352342,-0.07595967897123575
0.01718288255552411,0.06723270628257247,-0.07558176571434727,-0.08125552511226125,0.03536516877454293,-0.09348877361772863,-0.012587891981810179,0.09306819891518328,0.09889526673637522,-0.002305542515207898,0.07543078228824676,0.03752672701443377,-0.06807387867357342,0.038797894451401804,0.08746845014096599,0.018635464657651313
0.051684628889247214,-0.040310102041580455,0.09041850290379241,-0.023936033835946918,-0.014559488983897279,-0.007619114724994616,-0.0015834875870681941,0.04237416789237877,0.06318381565585815,-0.017615400697901573,-0.09007170035315247,0.09581802275546339,0.005789908585391607,0.026784858245259835,-0.008442446780752427,-0.045583635221058176
-0.07641034564066458,0.06164543074688292,0.05164779717404008,-0.023287155438941415,0.025839042429613573,0.08772890489580021,0.060964538024370046,0.06184075607008163,-0.02771115088378362,0.08184001323801104,0.09319494462549793,0.022719295449793855,0.06659120678303956,-0.0925859430410684,0.07593124782186841,0.045942131920256146
0.012800514830387508,2.2102321920072776E-4,0.03838339042905564,0.07633026994290204,0.09764565994591443,0.0973346139653394,0.05077381802742595,0.07292798006210435,-0.011327405421615894,-0.05588900521712248,0.05700292710626784,0.04384463412522083,-0.09672155381005465,0.02457433031753195,0.01630761692282226,-0.04662737487360431
0.0673576990209645,0.0051408897721289815,-0.0676476159098553,0.002903709201053914,0.059188133375103535,0.07215088777401243,-0.026667641112396542,0.08986594251746582,-0.08721793823806903,0.015243146004367075,0.0873044568178096,0.09137624649215198,-0.06041848642688588,-0.09698882776089857,0.0842589900226968,0.025263583495342717
0.027507617548259478,-0.04006814190106487,-0.026983515147343096,0.008485181170791958,-0.02493200194008538,-0.07213396301326468,0.05074307298567857,-0.06349268640811441,0.004829845267691951,-0.03945711148558409,0.00735440600617468,0.0946940462572789,-0.05977259761950751,0.04645513505169124,0.08206793985226296,-0.09223811383610268
-0.024440387085313514,-0.09883423221396728,0.006657196294028084,-0.02871921215569491,0.047210057590926474,0.03950887750924109,-0.03406330410473524,-0.008429326553453492,-0.06136454426407794,-0.03708594599261135,-0.0398255345779897,-0.05256067636182993,0.09811488386927356,0.07353613335619932,-0.0849582819879074,0.06336422990401808
-0.09078460492547683,-0.02861321554558663,0.08187602584550385,-0.04011914641600259,0.08165046541154958,-0.06418129246486515,0.06590165622464764,-0.022739690767946533,0.0461784864605308,-0.07018652738017693,-2.6921506302164666E-4,-0.03110635832268209,-0.09667061910740288,-0.0034927846091422216,0.060738642850832275,-0.06393611099352206
0.09827301081348197,-0.0312982323960533,-0.08067299919864362,0.04228434532730618,0.010109274263488371,0.010297086617698528,0.023806159688311124,0.02288488457680167,-0.05489221826177544,-0.018323971632782945,0.043163513847174345,0.04375117309492477,0.09731560388904029,0.010154698807920942,-0.023373326443908146,0.07169230339544674
0.06629984272258962,0.05203146731258723,0.06007599381981368,-0.003584213848815021,-0.09135314820754968,0.011669835794867356,-0.017218127475205167,-0.038551594992484374,0.014488235310959469,0.008309705317592425,0.08596507370753378,-0.010846425188300701,-0.08798257304974968,0.09254280704392484,0.028292148773754022,-0.050189728804668814
0.04845254755302092,-0.036245922073776596,-0.0787035605710748,0.02690325255805387,-0.0650328384152496,0.0522615771314128,0.021906395077910548,-0.013151749569865465,0.021767558136596185,0.07898490151713042,-0.03998544861978053,0.08585378943640215,-0.07882705453058264,-0.03596746241090765,-0.07226749854827921,0.09886857048984152
0.08177848004643742,-0.06974548996803559,-0.026374398101281574,0.089134386370331,-0.03543730837952257,0.08252518677999524,0.0012046172815319,-0.023424494524881226,0.08201447340531284,-0.046598430546998575,0.06911140176827407,0.019037951660217517,-0.09895894779797135,0.09549670362559778,0.05772877404327517,-0.027824107423351396
-0.06601283023075225,0.029139801757691486,0.06464621713863486,0.07277247208774831,0.03516276630862722,-0.07193624974495927,-0.02625979022355783,-0.03611217138686966,0.07541864912118806,-0.04587740797220603,-0.040555586680846384,0.05916204012074319,-0.09623804304981598,0.05440738685270127,-0.027412341466026932,-0.05165776957230424
0.029209621072715047,-0.044560047848148515,0.059131842177406996,-0.07938568707284277,0.0983912512742566,-0.0974886198229694,0.05831886216418822,0.07632431239736692,-0.03480766617428095,-0.09442705048001712,0.056317316873483375,0.0023449324575078173,0.06285791827271331,-0.02292393748714014,-0.08957405928860306,0.06983446473779426
-0.09583241636314488,0.018334900005504126,-0.08762332611031509,0.020122463839126886,0.0649062286593213,0.05155769527141685,-0.08823374789845284,-0.03990935599155057,0.02215858734310798,-0.05156359705298515,0.09133894548217189,0.057082806457816326,0.018959445782712275,0.031165638006980773,0.07463008840048685,0.06326310896692255
0.07742650661509154,0.0809093193827061,0.012245991069748552,-0.07649881289136058,0.0893490266093506,0.011342547978590661,-0.05636821191606927,-0.03819118677183506,0.09844090200149494,0.05969531245763299,-0.0694861977522961,-0.05922539225552684,-0.09009259800329689,-0.008524367083598466,-0.021615290776747204,-0.03618353452117776
0.0481264851809291,0.07711957177089052,0.0478218784934496,-0.05685969531660032,-0.026331635639678372,0.09606599781133637,0.07135994110521329,-0.029426345648741206,-0.05370850914049685,-0.03059339119518993,0.09087394074065697,0.06458482413008898,0.0031469310551256457,0.033571857825557105,-0.03682230911795108,-0.06772945795042101
0.017738076983489864,-0.05573620498699066,-0.09979342259852131,0.08169456920656346,0.0487222029134004,-0.0027816733814599315,0.008015142451754234,-0.03503078070477465,0.0427222068772701,-0.0070043515124232625,-0.007991879034918978,0.09529208197645264,0.09251058373200297,-0.06629821957192175,0.09674965916840123,0.08976528247248211
-0.057522093480418014,0.059247845678477185,-0.038018076090973435,0.01293944315227688,-0.011900535463676906,-0.09368910796628821,-0.009940777866311978,-0.08739864384958776,0.05244590774192709,0.009438262747970258,0.041452993354800294,-0.04084409669298122,0.006312365980581977,-0.04116802816973562,-0.09486052345851484,0.05794946806198645
-0.01843943264350463,-0.05978356037384141,-0.019599092842609994,0.03654944592432102,0.05786525620199534,-0.004567265816617899,0.06691364532299426,-0.09713225022590675,-0.06610388790292132,0.06422855957932594,0.09592126125789077,0.04860719355670953,0.014426595088570165,0.05027212133692008,0.04029603811361951,0.017055442798996998
-0.03952193015297965,-0.0010635590252673077,-0.031530307083091486,-0.03150770194879356,0.00609324982914064,-0.06841185740568856,0.006387187491597529,0.07991137539833323,-0.03069832961950554,-0.04879663807124739,-0.037012270391746066,0.051724084859423675,-0.010836900589560994,-0.03345432550760241,0.05982775810481364,-0.03359023635239676
0.05206953175566617,-0.04785730812362621,0.07343756724314227,7.193452194765582E-4,0.009100730451741645,0.016435940816757116,0.005065746965518231,0.08481613013790859,0.08914338153857027,0.027655970163256133,0.051503328190633385,-0.07545335014750142,-0.024511531057889974,-0.0968680340397091,-0.06325675654808693,-0.026999238390006536
0.07417622106409724,0.03621956813338262,0.08402905482534659,0.014282457361690246,-0.07342353406622455,0.0776422786239854,-0.044404505155087676,0.0080182331923572,-0.08261117040435412,0.0229661870217001,0.05106858932201461,-0.0767451634805956,0.09203372138496982,-0.0931983947910924,0.09481548078180743,0.0746408046049985
-0.030267190106783803,-0.04363939336381633,-0.08713195800368095,-0.0222843807643541,-0.011913648930307219,0.05401870498485892,-0.059781492476474886,0.01763346771777914,0.08034216993436649,-0.09927951681924317,0.058103896224188545,-0.09395505124909653,-0.02543231870320016,0.06475929813710621,0.03316853066721076,0.05369939440763055
0.050668083720113194,0.09051901739142743,-0.02017140311040093,-0.04290337590787135,-0.05696945804782323,0.0315214319802844,-0.057578225200406674,0.01357177663924966,0.013441037727036836,0.052456064834944444,-0.02473898322503862,0.024586952597766484,0.004663502106367429,0.02267549219464393,0.005920261734233184,-0.041691113703046616
-0.06521875984217607,0.001553622449761649,0.017951781232118796,-0.03023421414118664,0.011185276448743897,-0.027918972782799895,0.09570515028387616,-0.030945143432740088,1.7362887607234867E-4,0.04578594796609253,0.024109290870368436,-0.041111494955046624,0.08372967880402152,-0.042763372251469936,0.08372060610494311,0.017462002101223464
-0.03355301694706529,-0.06320457858478623,0.07927493126553883,-0.08980456423525983,-0.05276170202271868,-0.06694698666187382,-0.07019822523269269,-0.08848616094203704,0.05560999158322191,-0.0030595741378711266,-0.07082912309459051,-0.019458354751641108,0.09884614409422807,-0.08567804565262536,-0.006762298207654421,-0.028598228425785063
-0.022438416547294435,0.07672055031631272,-0.07158994560965193,0.09942762783118153,0.08767364601089145,-0.07261755990173642,-0.08386818343624054,-0.019988890533007078,-0.041692102936699185,0.026027607323233004,0.08693705309142305,0.007518424341045549,-0.04175806690215178,0.05153264991537371,-0.07663667009898772,0.07468817512702347
0.026645040757597604,-0.08713333698690302,0.07827428986526044,0.025655616380147322,0.010109536522818874,0.025985250625707612,0.003340252413169001,0.05561048450749162,-0.04950146303439467,0.055108665129806944,0.06799879880280704,-0.08284997193233733,-0.017022410808613136,6.369896860739938E-4,-0.07371091530064687,-0.04435994574398288
0.074860093857395,-0.06637962944826459,0.07655556424520699,0.0956386805878214,0.04192272255023993,0.06608345220946382,0.05616109026732305,0.0631457160334887,0.07492396249685082,-0.054438803775442815,0.022683049669033423,0.016793199285017504,0.05905127341164715,0.09311478458233399,0.0750554102004681,-0.09974005021655018
0.050191529539017704,-0.01851216873030466,0.05550732010634499,0.05613085987038921,0.09942969152896988,0.08882490777705132,0.03127518621739109,-0.011807200854989583,-0.02391314395593598,0.070487721255243,0.051543342771430495,-0.033337763579730395,-0.0347002795770429,0.09601961859692668,-0.057566025410646086,-0.09495419626741174
0.005078055215910898,0.02243009786350729,0.0712914243488541,0.05296637773070481,-0.051064591163223066,-0.06826177983435544,-0.003467265629367361,0.015713185232748228,-0.05052933899386252,0.09031058602117426,0.05104862134780008,0.031024252603565866,0.08144978502610553,0.041040324390408056,-0.06714839035941761,0.09531850607320067
0.05788121872586002,0.08351537572569687,-0.019375862347465758,-0.09633960332298766,0.0568541234722697,0.0736706596229312,-0.06611805164247112,-0.0052222616115440434,0.09885971115580322,-0.09206183791465886,-0.022769741543009453,-0.026483292443456194,0.04488141596729381,-0.010707342916921658,-0.006685595389385249,-0.07618151062131967
0.06796246487166635,0.028453287083568563,0.02529043154104521,0.06351065691697888,0.007905878718699882,-0.03537252962058546,0.009682119059087863,0.051678347748380676,-0.07055989149274602,0.06538269733622987,0.03519262524806396,-0.09628516899053319,0.013136186100689631,0.09074184862885251,0.09777459118525092,0.09697801419012736
0.06315872230438915,0.007127899152092082,-0.051044365862542,-0.06284679984463726,0.06365839578962651,-0.04132575037623534,0.05595053111019804,-0.03543946938251792,-0.06762799953042811,-0.003925027958027225,0.0027678389525548353,-0.013571069109025391,-0.08063947716411608,-0.0030307798811170794,0.009571483136495099,-0.054025531173333065
-0.0012754208750251211,0.07600788330024508,0.007232355329103796,0.04737149215739203,-0.09396731803408571,-0.03469700348635829,-0.013514118428706728,0.07298089620745157,-0.054396187613000094,0.06111251521748082,-0.07685165493731493,-0.04181949785992496,-0.08509272386952456,0.028410882091730344,0.04720432724361312,-0.07117750539995525
-0.06100432547257184,-0.08975035645242202,0.08986456107536836,0.06991768058128875,0.029774415392201492,0.06534048133624382,0.08721516681821737,-0.04032321491455662,-0.0017247112012324928,0.005881930597703741,-0.07411408084633574,0.0019134261138655378,0.029894498515867368,-0.06965031396387894,0.03621524178454974,-0.07536051999495119
-0.054358501772813456,-0.042885689524842265,-0.06132989225714887,0.028597784791589115,-0.09040388136646318,0.09522993684189807,0.019308259062836397,-0.019796777630530407,0.02780891984457662,-0.006237569088261868,-0.05775406094329088,-0.031618744514628414,0.05747481684060851,0.05868987943781914,-0.03218685110291222,-0.029088772766210025
-0.09974221607202771,0.08510155190187094,-0.04269504426432398,0.09825828240883483,-0.0985695164350366,-0.0625170817735358,-0.06783048234836797,0.0993510141962943,0.030592460420157203,0.001644196811105586,-0.09493366508414092,-0.04205617095157717,0.04108439869671529,0.07091205862108377,-0.07619603289625919,-0.04836639122613682
0.09995540242851148,-0.05192946418163733,-0.09726533631866155,-0.06515214603857786,0.06891083754806285,-0.08330992442205692,-0.008439601230522592,0.024409156238764412,0.04468492055346593,0.029299067943693857,-0.048809966231003844,0.026037703809323548,-0.06452106147247816,-0.008314409255063285,0.02794822224580268,-0.088749753837417
-0.04582106076125008,-0.06631556493921514,-0.08387375625651004,-0.05519920067852022,-0.030475551633767348,0.002530110138043898,0.01732528243122225,-0.08371011700265192,-0.09310610740761299,-0.06706119758432957,-0.044409190795277276,0.03152858126744279,-0.07098922817306166,-0.06476629181927462,-0.03478583828761719,-0.06154166773821506
-0.03920286787008714,-0.031667413919718654,-0.07272568142644052,0.013303494985802453,0.04680103853112952,0.08608565017933803,0.04190691499991553,0.0761270038341865,-0.047911545768568556,0.07032129053667743,0.060976082124632014,-0.004911545506113918,-0.055575734906542974,0.07804593301630677,-0.06237923312191534,-0.057784509937675636
-0.04759321650297976,0.07223309388411878,0.08992665380564308,-0.0972522565356928,0.0314203837269621,-0.05787108318991505,-0.034845101191579284,0.08169728852252908,-0.053787076615940226,-0.002755702553572381,0.08262521303021039,-0.009420589084281894,-0.09743582170449656,0.04731405217971646,-0.07306713995837077,0.07772327855419989
0.05240573921411065,0.01372365087367533,-0.06306978113847386,-0.044674304216731,-0.019024845925537284,0.0019249636641383433,-0.0493497171585624,-0.017773959965152297,0.0775578794852653,-0.03996245050453509,-0.06184057973559476,0.04727078503753254,0.08794646091166852,0.02325130113939436,0.06790638288674905,0.08792764951421056
0.03132896723055384,0.07972518209359683,0.07704194208765544,-0.06498862712645556,0.009004444644710063,-0.0905850273639679,0.020070871207675672,0.03173557097872287,-0.015674919594399678,-0.04511040818644756,0.03496017161317794,-0.036910992295378,0.039621490489614775,0.09183071874959012,0.09151994511195147,-0.005885250693690031
-0.0040147641273614865,0.06417548423499994,-0.09119810970841276,0.039618571093654825,0.06591081835794085,0.007742205581314138,0.03552552182849017,-0.09664115220385028,-0.002570458816145149,0.0582629733886747,0.07187813405812535,-0.014710070886233079,-0.03217808655638865,-0.04022056429022689,0.014735318952832838,-0.07119756573283915
0.02962222835371381,0.03408416020562302,-0.013126669107305727,-0.0450907922377237,0.08527717080715688,-0.04883859027792745,-0.08415295881822826,-0.025988469764575875,-0.05135304746298881,-0.0699101113312894,0.09912255724756547,0.05134640999801973,3.27618716525091E-4,-0.03574801050226038,0.09022664547277673,0.04183133364103986
-0.0024308079746071937,-0.03101902655428046,0.03482788004798956,-0.0031578483237137273,0.08951741524611545,-0.0861850957230145,0.0792698613629513,0.00987732816132783,-0.010099908408999575,-0.03650149595134433,0.018919896069176365,0.010363414893737793,0.04610940471783412,-0.07808657892120092,-0.040233388875537096,-0.07173009036342133
-0.008334769253900393,0.08882174132121065,0.09180169663491408,0.0700649311182969,-0.0031924402156089104,-0.052813829039804985,-0.06185736383593674,-6.242410175150148E-4,0.06286036323311214,-0.08316117811051099,-0.0017644672526334337,-0.09782574754351928,-0.034802281369731444,-0.0685520460594787,4.173466249202118E-5,-0.043279647149088586
-0.004258184007173302,-0.08303366892416,-0.046056834447532946,-0.015090762730321727,-0.043245019654498965,0.09891303202779883,0.0951314098686202,0.08202582618594889,-0.02311554319717546,3.774386874441371E-4,-0.06482297821523848,0.034323941796788465,0.004397588673406783,-0.04773782492839773,-0.04626076702266833,0.016858705403090576
-0.07388056734645608,-0.08521520998514183,0.023673557714521065,0.08497815884598206,0.009102106829584969,0.07013627295640529,-0.08375702646957173,0.09317734951224735,-0.0734298175980946,-0.05903945248837932,0.09802499358179481,-0.02304874927165798,0.06951259248161276,-0.04847816763849364,0.00606109351588538,0.028648135277408143
0.053601135673705114,0.06328860083957535,-0.0435593286158138,-0.048035969641566895,-0.04123923138455021,-0.041336759714231765,-0.05083745174050685,-0.002062603159161694,0.02057623701201075,0.06714694153386158,-0.09510919617200389,0.043972292055484696,-0.016946998147945952,-0.09029056789777928,0.0138373144081049,-0.009391564871442742
-0.08506250893865629,0.04773773440175294,-0.006033471989003794,-0.04003313886012059,-0.005663164687664285,0.08661396966223986,0.03489597884753898,0.06235674553110551,-0.02235302674712983,0.04445303679901208,0.027702170026358053,0.08181907154703022,0.04948703847729144,0.022232652729156907,-0.01703782658005129,0.059342010531317685
0.05265089648509655,0.043005370679064514,0.04087125522276089,-0.09270442146465173,-0.02585663472719217,0.0669707902578126,0.0467399407438272,-0.08442577321613264,-0.08661590026484223,0.030921319835906014,-0.09010335904407232,0.03632600040546691,0.04649897748687373,-0.033870006567831276,0.031353676735042024,-0.04681231519862124
0.03653039920247442,-0.09959568721385632,0.031137371111237322,-0.036857835298587105,-0.008079154386789703,0.05975831882300542,0.025448624330145664,-0.05343257190285897,0.010776532758952156,0.07773048434755422,0.002383732571058908,0.06111311811672923,-0.09240077919785566,0.013808241431026214,-0.007155403808893748,0.08041232473233137
-0.07326288596546329,-0.07809545892731487,-0.058218742126699044,-0.08652058555397968,0.022288118769911103,0.09381336548034255,-0.022121169046272038,0.07882690742201798,0.06432396957606543,-0.0889745334971486,0.027450195222371437,-0.010388082847765934,-0.06400087065035595,0.09550303288249412,0.0819836998580086,0.06343805368038641
-0.08347410597424153,0.05678390879684522,-0.019548889804669442,0.02079120358386266,-0.05470263555230553,-0.06355415836523826,-0.07044435127938353,-0.07058436148470282,0.02567461816831068,-0.06216921367975819,-0.03720295815007402,0.07264736051001078,-0.07415812650349636,0.0029333985154286896,0.004398725233858841,-0.005478502282679029
-0.05024883018920863,-0.05531541891988798,0.04577903101720843,0.08076440699962481,-0.007653236223417403,0.045290679317921134,0.010273500794904522,-0.043316069071596845,0.010286421033197282,0.04710946773968214,0.01236280906490117,0.0041246483998511885,0.0017217072818190432,-0.018167725756409486,-0.005189731779876111,-0.050229876514053196
0.017579270752480156,-0.02913792144938887,-0.09758569209192358,-0.07141660548683404,-0.03761786196265504,0.0037739891792375746,-0.06255931048532651,-0.081006796264874,0.06737324771826156,0.011802256750220952,-0.03872887130725003,0.045562728408595765,0.0445293276459961,0.06700264198594005,-0.016727279714088786,-0.03460458189076328
-0.0557981268423436,-0.038258017526138555,0.08924445807164935,0.014162894687120911,0.08500705458674146,0.01672922888218467,0.04805183505960789,0.04208945069858111,0.08028144040865837,-0.016380986275371517,0.051787088782694474,0.08676114159153711,0.05048696401373748,0.018260860289608716,0.03351981820637634,-0.0030171953981731336
-0.09501792479385432,-0.07750967176637028,0.024628669766621106,0.08533276936554979,-0.019133841206373473,-0.02720061759455028,-0.08120211063318139,-0.03206405108244363,-0.02273999768868787,0.022146131418096446,0.09981728655099192,-0.04250617737734861,-0.061805523072127944,0.022564324674822944,-0.07218565069962685,-0.013809981228644158
0.033992313486178205,-0.07292451499817368,0.07747505497793461,0.035841534306052275,0.04326840320930375,-0.06712611201626524,-0.07457483333519116,0.06444587511007832,-0.016130371158006,0.005188775610402846,-0.01623855492702446,0.06928853137385554,-0.01721442068098393,0.0812016047786854,-0.009243709868167055,0.004756938716050069
-0.030773056778607796,0.08579464204749435,0.09520801643294183,0.03951241674176173,2.4506301821976273E-4,0.07826945559114748,-0.007566576120079466,-0.005733137142750505,-0.08917273577691914,0.09721523780538,0.0753310929021547,-0.02812630125160194,-0.05106272564964601,-0.01498944761047774,0.07494633386449842,0.05301047852591417
0.028896677736825332,-0.08246277095695297,0.004529992878314196,0.09056624106588579,-0.0597558196317429,0.0687936901082711,0.09312192404297853,0.08530028850838609,-0.03353569184412748,0.0029109052486532005,-0.007563024948446032,-0.08908813128223668,-0.04027158702514704,0.02473248709203482,0.03220844355401742,-0.04342031468084815
-0.00201866948446823,-0.08326632661516348,-0.03617259390581644,0.07247217235588563,-0.06421896660206322,0.09205306264012217,-0.020934193299739362,0.02090307114536749,-0.05517101117125536,0.07735485898083161,-0.09943534648915407,-0.07778111841001295,-0.09876931976292783,0.003888521397450398,0.06235891212905026,0.030593706757586575
0.048656324978873594,-0.07843789379576012,-0.07240456483069913,0.06544930948689456,0.0036522323436158077,0.045926352116639896,0.06636828440720993,-0.06142945983020871,-0.0076850187668452835,0.018456289597255177,-0.060257446391070536,-0.08525748427741164,-0.035734286962443074,0.036638976152730374,0.018000573967545244,0.08667526980408233
0.06460278533550698,2.096603295362598E-4,-0.014911911014226314,0.07758925971179481,0.09191850759822781,0.00129626400077891,0.039979783185010664,0.0763510544462174,0.01746651616869406,-0.03111964063146773,0.08319760328658798,-0.08743315022456295,0.06409202212095502,-0.018758489354643637,0.039265670210967274,-0.09150308255608885
-0.08318713934564614,-3.002632020040058E-4,-0.012286609531285159,-6.777091821147663E-4,-0.04754230993657889,0.09123256531933246,-0.050923084693568654,-0.004075542534517584,0.038473233822815006,0.08606443240303169,0.0892926085111273,0.012766860961648321,-0.019025304916597638,-0.024779569135265023,0.0981722623538438,-0.0733220735550759
0.08606581496134935,0.07998538241479883,-0.023433711425651538,0.023339107068569828,-0.06787031865950502,-0.014525007734736639,-0.02143536106929292,-0.00830637178593012,-0.029326620357482444,0.060427508835841665,0.05080736674289557,0.03905499481296493,-0.03984304886586243,0.032227171113029834,-0.07049788927961782,-0.014873648358519204
-0.04821905244854785,-0.08921964274113857,-0.015077214893641513,0.059183877187822864,0.04299906828453584,0.09093954295086226,-0.0335734816989917,0.0820861567425101,0.0024094043119106956,-0.07430764752772695,0.047343556828113725,-0.06520622790076139,0.026262210476264203,0.005671357379946215,-0.028185878661106584,0.0014621618752349158
0.026835689753460734,-0.06395507242670968,0.07642964605731697,0.008535780356603656,-0.03560680183282415,0.007246151865722444,-0.036542619741731036,0.06526014925655854,-0.08901111414519003,-0.06227825461727552,-0.012239846257222992,-0.004012067250393464,-0.07201660513542996,-0.044291356484472494,-0.026944432759712547,-0.08285648322952043
0.01854146330210113,0.04996686956661292,-0.0049840234177121745,0.032237871867941664,0.04807017971571631,0.04670425069255427,0.06476344038581369,0.017658676126167033,-0.011252891891771727,0.02487248137795854,-0.04245510858766713,-0.09260358830349574,0.03348245607721892,0.06400314937337706,-0.027070157174188134,0.00991321786324939
0.09496105066124325,-0.07726762849211387,-0.07333987043595239,-0.03238791976192937,-0.008228728276203329,0.04900535003908982,0.0292476976388783,0.02904959763403997,0.005952133720392785,-0.09596955159016435,-0.09650166117794219,-0.09474273810120351,0.06403198473140861,-0.07367892007178592,0.0782982097666583,-0.04471708425094272
-0.027781415680531163,-0.039006161306726295,0.0047021102086934885,-0.0642240239320872,-0.07944808049346129,0.07142418007100573,0.05522532214759804,-0.030332868462225646,0.0849713901828526,-0.032940673973444204,0.06938947643978599,0.028833949571694356,-0.06266868027708901,0.09062017132551808,-0.08114237835165881,-0.01676044416127606
0.04753361888326951,0.0787043145233707,-0.04665178301295186,0.018106888217454348,0.09578764731585238,-0.013906075941328089,-0.05442804863504467,-0.04694193476484165,-0.06826157440789618,0.06904675376104566,0.054626035504366316,-0.057071657884567056,-0.08706910524517474,0.06816491331822891,0.0871343371448551,0.018796454887238426
-0.08742602255929871,0.060320605932362076,0.09067602524218221,0.08356547342193602,-0.04562779948266933,-0.0450275544379855,0.06834062543960531,0.054341856017594725,-0.024343061887333636,0.06912321244189304,0.05420212758872606,-0.04370170516739911,0.03530944755683976,-0.022530838206935605,-0.04034523004904043,-0.03366249781672363
-0.057581182285873014,-0.06064979700139257,0.06760432965395921,0.06813183934488268,-0.0729572353755867,0.040946759814372624,-0.024395015109620027,0.054735585560918204,-0.05752600412040121,0.03818630033868958,0.07979774076132434,-0.01611178189768396,0.028925403841668,0.050785007728620046,-0.038997204340265657,0.04835726770255719
0.08884833242553994,0.08908412829826678,0.024131383391907568,-0.017456263587817628,-0.05456517215334156,0.01086782730347817,0.005122608931690073,0.09674468776108389,0.0767749184011774,0.06615979320507057,0.018040413956498802,0.08103226228248425,-0.09674934721969129,-0.01932093468978284,-0.036204438667689215,0.07129628181631198
0.0646393657031776,0.057489378267224805,0.07523662037959042,-0.08152451809540738,-0.037486567568188287,0.04691135019114659,0.09415299593743237,0.09794069443608,0.01664242930578723,0.05754822562254286,0.03416589348936758,-0.08557331029631239,-0.09653608162188483,-0.0065712323825679875,-0.05026117367001055,-0.011069572740676187
0.07565270987985348,-0.09097032475595652,0.034540572250684354,0.08722738399880778,0.07890683999108417,0.09083391481835337,0.08083006191736297,-0.07246110310750763,-0.04936337353847156,-0.004799045600692775,0.05499911665675125,-0.051118092018330466,0.039733656644761556,0.07269137976566212,0.006002952836170583,-0.04821891042206268
0.08541710698222238,0.09204388522043744,-0.013236509010263006,0.02288225172375366,-0.01648227131870912,-0.019805442663948708,-0.07087952236236193,-0.08893627600917875,0.010498633131425447,0.0074685655043047056,0.01391138047221177,-0.020167648354082884,-0.050712491947193405,0.0010442785270951271,-0.01073475158563511,0.023704797590194657
0.035559800791467255,0.0773903914578847,0.012248380267500233,-0.09833834319271745,-0.03500280093214228,-0.001908167177631051,0.037356417724289326,-0.06248482090286511,-0.010822171239475972,-0.07388419008318357,-0.045396174704055305,0.06503928751543672,0.014128708435538415,-0.09759179001835233,-0.034383966992937484,-0.0843405870327251
-0.039020973998169506,-0.08725114607245164,0.05016613233516998,0.07810685466680767,0.038723282089697664,0.043000042209130784,-0.07966630991576094,-0.06712037355247083,-0.09658673611281775,-0.08034748008591182,0.06671392617350758,0.07092821110327771,-0.022757169253760007,0.08528400174623266,0.014305922378670413,-0.034613038384580394
0.057454807731417534,-0.023304197365770676,0.02463299723939208,-0.03645902364906421,0.0696153225500937,0.03631332945598592,-0.04566279410175891,0.021203447642195034,0.02968388575944686,-0.03500072457620254,0.014917423760909584,0.09756862007086936,0.03506889553320358,0.08105213875222192,0.011701870735941686,0.048566687791562785
0.07137448439976832,-0.06527099885308932,0.013132711363902039,-0.028471552440380937,0.006954847464075001,-0.06880332656814643,0.045325806723117285,0.05000055830404457,-0.03800496108639038,-0.06415281050486898,0.008559885654747301,-0.06021402394881044,-0.0037753009606727728,-0.06052069979333657,-0.01754048478003864,-0.09497802666863493
-0.001107350132564383,0.03767594549752348,-0.09607801253479989,-0.02320371807528751,0.07619064709021503,0.06969839983045151,-0.06718507282581357,0.03887912002458521,-0.004578558981132935,0.08227977021496402,0.07633976985260102,0.0982859961485684,0.05361639317539868,-0.0964854072340756,-0.0427671923264136,0.002125844814109601
-0.029560649677387474,-0.07930049529789418,-0.06771015090801069,-0.0340332869040203,-0.024945997086141272,-3.449452321976354E-4,0.08671924799957076,0.067058156238024,0.07759356130838602,0.05120721859762509,-0.011901709709584513,-0.02079463171924975,0.062092766760147355,-0.09018779062200044,0.07540081164082893,-0.04799691181031343
0.04510891226360372,0.09682701557496742,0.08592554923393683,-0.017957073443120183,0.09074442457709539,-0.0649843702228304,-0.018050052116430515,-0.011174590469207699,0.05113758961006318,-0.003440086084407004,0.07808420860495624,0.05541697994373315,-0.06916010227653724,0.0068375142387885335,0.09293663697965462,0.08875543960264695
-0.038736810638271835,-0.03907986036764391,-0.0655310116726964,-0.07324867438084103,-0.08187975148533624,0.09394068153479859,0.02434909985554086,0.004587268945263956,-0.026279746312230623,0.004530755780687443,0.03132432157881243,0.0607907364024394,0.0020536075833174072,-0.07748814329366932,0.01462993946337543,0.0248948099496991
-0.024592922269293063,-0.057346365813300326,0.06513339429233664,-0.01119040896237089,0.0899628744591808,-0.02323063813010791,-0.05616637454699931,0.02418900452080744,0.044531350828538874,0.0939592010832295,0.025318647938303934,0.06087032935514011,-0.008863643866251353,-0.071567417448198,0.0318266965703039,0.05157198580959774
-0.06714644870364439,0.06975939374037451,8.651154824904916E-4,0.056963984202545864,-0.04039001184393212,0.025297264129443747,0.07010643224813687,0.029515980477406945,0.0900711819329727,0.08477470882225879,-0.09205857786014036,0.09126621179208508,-0.05946901886498784,0.023805853987152653,0.09291638265266217,0.015131507067065605
0.003201780300291057,-0.02236686369011867,-0.0016183005097176323,0.0901348733954111,0.020911823490381537,0.0355025093543416,0.0688671154700414,-0.027970052205815124,0.04725033819191557,-0.025764782771559067,0.01443942489197296,0.09520986550496294,-0.0730674558211867,-0.07261323086774654,0.05105008541744924,-0.08757019467094557
-9.109593493455276E-4,0.09975035959169268,-0.04824603772830108,0.0725325956036916,-0.05693206536935558,-0.0775446057614482,0.05294743028986196,-0.06211401012605769,-0.03983397438754142,-0.06748295036995652,0.05980292116402225,-0.027323518769487826,0.08047324852174659,-0.09045122043762553,0.05939440125216461,0.0019176002756433885
-0.05450415530734041,0.026220620893359053,-0.07713061116570114,-0.04410769928780145,0.04570420057480637,-0.09246025166545527,-0.0689922317301768,-6.712048487919342E-4,0.0758870920435519,-0.09878283726574895,0.08784341982653301,-0.06729396147224181,-0.09534239033685886,0.07379327573861946,0.044222756327243984,0.02728380094005553
0.08112310528624486,0.008916927956594378,-0.06196009937781375,0.04959145414427482,-0.04205628424484314,-0.006136404431344861,0.09699781646703526,0.04187417457504078,-0.09016642033982983,-0.050167407565181545,0.037503491349812845,0.05238465273761006,0.0702810721827476,-0.08031467978761925,0.005713156905201133,-0.052623814814004494
-0.07535315826654868,-0.005950832895164071,0.0393339751277601,-0.028478391435719605,-0.04729078198878496,0.013248127964167675,-0.011576243135806671,-0.08892565365639182,0.0032960636477338545,0.01724332659736269,-0.009062007045605405,-0.0851462515145485,0.057984081818875904,0.01497098789922538,0.05456897996535856,-0.07676306724826808
-0.06527613436543125,0.07535069735194597,-0.007228350769532321,0.0669674644599863,-0.07880961627242189,0.04270642809032196,-0.0837837820691238,0.06972232275332918,-0.02550344098110706,0.03269697687568923,-0.08224523433710756,-0.04722316775511411,-0.07126797730765524,0.08275480573737926,-0.03402400607118161,-0.04706738721090773
0.012861127039305378,-0.07817763717568182,0.03628697694551858,0.04440829496220999,0.062429934640230056,0.09158791361854557,0.0976126959406623,-0.08879777495344605,-0.08116658917488395,0.013814321710867522,-0.09019592550397107,0.08499484651601921,-0.04305102411712883,-0.07238075825091879,-4.849491892195551E-4,-0.009080354213729463
-0.06795701037000154,-0.048800985689343414,-0.09707486820691734,0.022498161500799335,-0.07632106150866325,-0.033178174797420065,0.023711828967004273,0.09249039108797638,-0.09254033821128418,0.01874451840692759,-0.05187863961482955,-0.02097484721214808,-0.038577606868776586,-0.0939721047395023,-0.018703443605433273,-0.08273534062123772
-0.04914550765557018,0.02706842102165455,0.08457671903403613,0.05715636253661838,-0.08362301045277964,-0.09517438305796191,0.060725763410764105,-0.025785772837458462,0.09204276181100532,0.013016303637791826,0.048441873870206764,-0.06075510173170134,0.03884287771201034,0.03695463671837296,0.0927921156777029,-8.963967724986005E-4
-0.05474566069485103,-0.03934638526896644,0.02497850201945806,-0.010112093697176444,0.07354557145971771,0.01933339056175251,0.0805964165202166,0.019115365997029052,-0.05995065522077519,0.09654205231992172,0.050869756022292906,0.05266782507835713,0.007047932653025127,0.05252069486469396,0.013497138531789993,-0.04241992935455541
0.03118797642901286,0.01505039579808061,0.02509996051067881,-0.03691316686324471,0.07474925284975692,-0.005613841349599372,-0.013954086226378198,0.008434422813021952,0.033905915993900526,0.04724730934600868,-0.09773527655652664,-0.052346526384793805,0.0654869703294001,0.0734075398088394,0.030366700001863645,-0.03487404884958582
-0.07052098491018391,0.05041446643521752,-0.06290787026177108,-0.060366753075047665,0.051319073647663804,-0.01037200487163914,-0.035430530255051496,0.03771064039007743,-0.07105547784868514,0.002299729373461526,-0.005870585677071508,-0.05567894692049502,-0.02171793301802176,0.003291422967439811,-0.06763175622924641,0.033661923158971624
-0.04799068586092903,-0.017273669464892033,-0.0010626073801460745,0.05300716687201942,-0.020241913381360097,-0.09100202669346953,0.0016357273849055831,0.05232262599876336,0.029552164406227266,0.050716281212663195,-0.06834762189933041,-0.07450242085833476,-0.020170561378959492,-0.04259522966859977,0.09076078624278017,0.0764336084371886
-0.02845423261224196,-0.08327711701287742,-0.09282226771286198,-0.08717936599348682,-0.08986366570727836,0.09902018136068622,0.025991599503091573,-0.020322178059247367,0.005058834586174468,0.09887542306787031,0.06411400622453184,-0.05522128291962691,-0.021862004489912573,-0.012711844704260941,-0.02680389701391539,-0.06214973264855686
-0.003115791827069586,-0.07114686566693101,0.03452687833105442,-0.037311927209446025,-0.0858190020273779,-0.04355697795166791,0.09044313268745782,-0.0861373346890505,-0.0019462501944831623,-0.01478713624751378,0.00436352958824035,-0.05885927278005405,-0.07517481142943794,-0.09737657046821724,0.006126786243361354,-0.00984704782847412
-0.012416652857026866,0.07685693683890796,-0.06953485510433904,-0.08343790214984177,0.09849714577460666,-0.03975523745078107,-0.059888663810247024,-0.06014187469683541,-0.009234823938104236,0.06728059826561919,-0.04355081537596848,-0.009180481532446619,0.040234544040713305,0.033690061617149325,0.023724736181604603,0.039249242732510015
0.0721133442029501,0.08360006592430813,0.028279927495059226,0.016929427368247124,0.03177049099607998,-0.06417486234123657,0.046162638070111894,0.006211319260264053,-0.023654492004281685,0.037498545670624384,-0.09976378824808932,-0.07324902203227564,0.010296198117819427,-0.04480625802157683,0.09796101617141798,0.0014683811938933367
0.06263584104247544,-7.503196288587144E-5,-0.037155400099756306,-0.09577481357293825,0.006309849487626834,0.06684117257027297,-0.04160949759483845,0.014062030745325305,0.060546589734921274,0.038888102039440875,-0.06770976411864177,-0.06950416698950507,-0.0625710894339222,0.09664086302782174,-0.07346187804195191,-0.04819907201384315
0.0385156792182208,0.06507445332193848,0.00993081471359003,-0.0031079039076301607,0.043830061865166636,-0.021514031518087423,0.06836922761875627,0.04828309678029394,0.09337406711800139,0.0780790590536154,-0.022033141160916342,0.04469451494580501,-0.010363424576450647,-0.0986418687198649,-0.022050937507429147,0.08427071951388013
-0.042881091553681056,-0.004279565426303394,0.05633978887308208,0.00605738031643592,-0.08665087616006045,-0.09474970180928677,-0.03094154264691673,-0.07283370831845691,-0.026955796870017507,0.08989211469289266,0.09949522839582506,-0.004581123518346122,0.0323714453880308,0.022733157033910698,-0.04893767293465039,-0.08526903104828006
0.09990708796635367,-0.06446215375746489,0.07079634594291534,-0.0540909583244765,-0.014874624338138506,0.013140276665758413,0.07010784070927878,-0.08095331261185662,0.04241124856427164,0.08530335466220282,-0.06784937026045004,0.09146997301193077,-0.03768434961798024,-0.07456727123538037,0.051354809967670806,0.01083549158459389
0.024578721468257972,0.015581204502690071,-0.050442272973248305,-0.07321911881963516,-0.04807178713214999,-0.0298506192819058,0.06920138131780113,0.05586524953012387,-0.00828145107049412,-0.0294358265374991,0.08438389986406705,-0.045788583402923355,-0.09532665352557053,0.09282542983901512,0.09674594189710337,-0.038080516637281826
0.005130418807361564,-0.06392791738819295,0.05013432946492205,-0.0243429797624006,0.08609117748721948,-0.07010693856363936,-0.03744247567296781,0.0244065418560145,0.014064450561042954,0.062038292680277024,0.011468767467469582,0.09307313671636075,0.020577808125244595,0.07488348208021495,0.01581323911850281,0.08159943332291944
0.022680044549149847,0.04845635716460159,-0.047119901832464,0.07051975309514089,0.08093269127327105,0.09842325706153096,-0.07103516714966157,0.08196559295865496,-0.05873360769073513,0.028210107524062084,-0.07002869221441362,-0.053821672042447546,0.09118193919503725,-0.07677774336508732,-0.029121360772851948,-0.06347249841797115
0.09076359123860064,0.025040106396574557,-0.030804445834179697,-0.031025827609664908,-0.09426263033071039,-0.049147879628408477,0.055866211499363855,-0.055044885897188124,0.0664659483864469,-0.01262959309552611,0.054468410181392674,0.08502736011982673,0.09357979842424996,0.026183482904066302,-0.059682162935133225,0.04742686523460138
-0.013362296108653388,-0.0015549453416200398,0.07441406380677362,0.0898066692684516,-0.008514703760487394,0.0011302338002426027,0.029554598215795425,-0.06864325011846169,-0.08140418399541659,-0.03338032825926514,0.05318130770087104,0.027683966718916098,0.06914570063689124,-0.09128356071925321,-0.011178521834335736,0.037071734734180156
0.07052792720103249,-0.07005096811686223,0.0337399970949149,0.030581767978741625,-0.004383248036205559,-0.05642895063693687,0.031886876304787065,-0.03638104078553597,0.00409321694948632,0.07851421395278957,0.06498754385892391,0.07347687001084471,0.026421426181614305,-0.06401096838567288,-0.007518777870199361,-0.017177507279363707
-0.06845652583832432,0.05485872473381412,0.009785473280127716,0.020227341486361045,-0.06450251205501664,0.07147462675964561,0.03911219476605299,-0.04796195675621047,0.05713234122079491,-0.09479568077021372,-0.012171454496999037,-0.01787089897725362,0.011265918852801746,-4.971859422033126E-4,-0.0953060497033112,0.093386642677975
0.08709713746886383,-0.014442065530851783,0.027738749709406152,0.02971077937410002,0.09236084472232384,-0.008273447268585657,0.08027315672224067,0.06890893741910564,0.0317574884763715,-0.013356497423243921,0.07679917382688828,-0.0895777721190743,0.006523666347115431,-0.0030242412909708694,-0.015099595662350598,0.03294391489035925
0.09443358026275939,0.0572195413042772,0.07178746857702398,0.020503320006919235,0.09436629666933646,0.0825111194104082,-0.085047968062216,-0.030481946619679512,-0.015802871016993694,0.028508898890782897,0.035311364689165875,0.0982089841573793,-0.01505026421961142,-0.0583889973099921,0.036940437102284895,0.005006112062860682
-0.032973492772908425,0.05254962646473865,0.06555632184209118,-0.07712858140907322,0.027663826982700923,-0.05729823343647747,0.035216113333236376,0.02710387944427517,-0.0037208259868771465,-0.06405868114543592,-0.02885441819701927,0.09299811333457533,-0.05960254146331365,0.07685224753676953,-0.07183572767638756,0.06289800032614332
-0.03951133830794933,-0.04448896022611999,0.08370073580407422,-0.05617276862562457,-0.013697097188815774,-0.028672391269212713,0.053624074665950705,-0.03518332334239786,-0.008461017073129226,-0.04748916880510415,-0.034562019074073594,-0.08593791958544945,-0.07552153965141767,-0.07114021289144679,-0.04111219437600991,0.09638025992598362
0.02533166474757617,0.022608686995546634,-0.07927370244919714,0.09678750073613715,0.08970312074669984,0.012182004132182706,0.05057213583495199,-0.0907210788815137,-0.0789010831390079,-0.03462287996508176,-0.09959164681032143,-0.06486171835999704,-0.02574363166125096,0.05664860293609139,0.05666662555257654,-0.02873833650289906
0.0891627215269398,-0.004950411647141301,-0.07419229597591577,0.002277933693877715,0.0622575002861504,0.0705371323220004,-0.0656930136891063,0.04680715822676876,0.06863743458850499,-0.09318792100366989,-0.03251022200315341,0.010637374504393102,-0.004740798671343388,-0.07529110408714104,0.044956318091160546,-0.054645238423200265
0.006024122795702858,-0.036788388124019814,0.047868470533147994,-0.03971567979544808,-0.05826730178761326,-0.07226619110423689,0.058428716917528795,-0.004251683553660859,0.07096379536282824,0.04351401609249411,0.046763287178935575,0.08649742413595907,-0.05604551090825785,0.013869312323753949,0.03654938497199359,0.03089322090644489
0.014898214041348584,0.025296611775951217,-0.06749716526294242,-0.08106306528257301,-0.033033706950149025,0.08122318379065341,-0.032895290675552524,0.01548021458911808,-0.020529507316742857,-0.07974336899339335,0.020327198509866723,0.049968200353840836,-0.017986009471952585,0.04055925986328682,-0.010513951659838192,0.08295888080362393
-0.07328554006026777,-0.09074487675381104,0.09209363444514743,0.07100997360294387,0.0780735085731491,0.0539305641408899,0.023024243045257825,0.059210183644235664,-0.07312382087290357,-0.026460948156313835,0.00966989232214191,-0.06225800664406059,-0.016768357527915237,-0.047249649782456805,0.04884466122938505,0.037705042855713855
0.014050937569802774,-0.018913987097317758,-0.02051216738980166,0.0920671516153817,-0.009787950181945865,0.04817730591744834,0.027369988196491057,-0.089905549136432,-0.06762857202168898,-0.06623186380385689,0.0011471889044836203,0.05751241946911073,-0.013600478432585522,0.04811043807253898,0.015207181111537432,-0.04530401445279626
-0.009463890067561764,0.0397594082128529,-0.08822919600502938,-0.08285731455044859,-0.06908744653979802,-0.023089514518770324,0.09354361544684384,-0.016791981765005334,0.09422493000273066,-0.07765953805526558,-0.03231310135851244,-0.09298567466938082,0.09779406685239175,-0.05311333843271533,-0.03565598416464848,-0.0010442427582598446
-0.04763822123895478,-0.07610399351156459,-0.09684439478682708,-0.02674805147013444,0.09785540715132782,0.018607526687257098,0.03388952233406267,-0.07987501878747097,-0.042083164471116645,0.0647355654625936,0.0015805436540105716,-0.02465722365329852,-0.035875483114350626,-0.06391019568839434,-0.0023756208141648416,-0.08639016962213567
-0.0030886453071361786,-0.03448557821425953,-0.08320533397251964,0.09298928799706915,-0.037687889738890014,-0.0021097307056595627,0.08781969163828254,0.09731217392368646,-0.00538958245090744,-0.02951118181652497,0.06537314604388408,0.0758732046809599,-0.027540520373135577,0.039687309172724616,-0.028179340308407394,-0.06940675895773546
0.0957980906979152,0.019997333558333177,0.030987084380203617,0.009709970643128438,0.01160374839220879,-0.055610277385426836,0.08704620005614153,0.0932610588931661,-0.08579466579424094,0.030197595869186133,-0.02301345462530062,0.08126180256911855,0.03601012102358067,0.02516182424338989,0.07064534750818904,0.052565266278866346
0.05247110468901156,0.038123769673319735,-0.028806431581889697,0.03847861456109364,0.09536629575173963,-0.03230548025446689,-0.009957452055201849,0.08023324925881131,-0.015201454845822512,0.061665024220098424,0.05259907507604025,-0.02528410509571828,0.05953629333403676,0.04681671043765187,0.05602401683281652,-0.09071428118071115
-0.015566618198872423,-0.03391697261440496,0.03835206235880312,-0.07818268422265001,-0.07961343200593958,-0.03550817699656504,-0.06447001712081238,-0.058370735914115415,0.037628470539746106,0.010876906336324474,-0.012541459790806037,0.0914276624837164,-0.03621687439855718,0.018778440238177513,-0.051424481691761996,-0.05767963885400867
0.023655454959512892,0.07585885347638935,0.062390242715296834,-0.08774969232563233,0.0678587565284132,-0.011175753657135037,-0.008470300668760533,-0.030199495238834806,-0.008233229226965497,-0.052329565606237916,-0.08177391191241477,-0.07747443345503231,0.0034048363921090202,-0.08335093742613786,0.09770432261549256,0.00644021113077424
-0.06775645228750984,-0.05124223915744189,0.04004260405169763,0.015585107931345599,-0.023372000808715016,0.07592857804464712,-0.0035323414740093817,-0.02819111840935032,0.0952027242607617,-0.07110764137536658,0.02408329774685665,0.07214475437725368,-0.013345725874597675,-0.09715431207546017,0.030999636111877754,-0.08152227899399773
-0.01466687842248382,0.09152919732734954,0.05677319436755521,-0.05976842367488899,0.06891943683171317,0.09264865923176818,-0.042838526657561896,-0.08682022647044739,0.014369771558161618,1.5447914818156327E-4,0.0780634074896634,0.049223054667596106,-0.031271119052433655,-0.04665020304040582,0.048594444367376255,0.09298369413402394
-0.04642073009823185,-0.036425790213227185,-0.09558355432431771,-0.023511135267744704,0.03921627256524715,0.07177405905536854,-0.03902472501209391,-0.071358551301722,0.014472243703577095,-0.08898009790601025,-0.022686089317690783,-0.03189889097281921,-0.035822778285347176,-0.011229408139451419,0.05434259746675951,0.05688111467145901
0.08152617387727384,-0.09702627252667638,0.01202114349266828,0.017525636955482884,-0.00961354072886142,0.08983454932759169,-0.006318641079076065,-0.05434375478253237,-0.07721367477156911,0.024977445699325612,0.028961528576053552,-0.03665988043623557,0.0019524610795700337,0.07076231165422148,0.09373955662952621,-0.0057794958206301705
0.09762874450462816,0.01476426498010068,-0.09690957607685857,0.043700176860125756,0.05414646234082757,0.04417079793967474,0.07675652153608814,-0.03497681383836067,0.0185728896648841,0.014460999563414692,-0.03427489312862678,0.04689494284406753,-0.06842217931410816,-0.04339605925581061,0.05570913912950168,-0.09467925338121648
0.012829458115023118,-0.06791164266330155,0.0640763527414242,0.07564329914795545,-0.05085773785363399,0.09369670585342299,0.0470560597449422,-0.004262443701600921,-0.06565684946091041,-0.038895547722003036,-0.0238230545881047,-0.005556682942442354,-0.09418922926453871,0.09216136618433579,-0.041040762127786935,-0.058331260257960475
-0.05161345779456026,-0.010462217933385712,-0.0644240041502982,0.05276996317540544,0.015615364877338639,-0.0468464621625746,-0.06520867069814881,-0.0418343738861791,-0.07047609027806356,-0.08900264795828117,-0.05828572646385788,0.07748215427698646,-0.028739158311676047,-0.07013706843851053,0.06126888844927561,0.010355315097060308
0.009731448553036731,0.08445013084706382,0.05245594441261198,-0.039041980053713315,-0.03911668154661048,0.008560814969900757,-0.01155109004561447,0.018518284826036457,-0.011782960733610556,-0.005137536621491662,0.05332385753845323,-0.03349346167851401,-0.04211207471104222,0.0018759777265315858,-0.09279462694362811,-0.04225497750652583
0.04024266163349116,-0.050489779047239974,0.09607668660120741,0.031171837441968414,0.052494378926334434,0.08089183547492926,-0.07324676186113664,0.0773031242420825,-0.054475743334585006,0.04701796580491466,0.07995426736187758,-0.04783664207123171,-0.037510337677813026,0.07013271956958328,0.014719690609490854,0.0678383717894937
-0.0855555018437282,0.025940232245419803,0.05149605742130797,-0.04469377966928994,0.06277420897928698,-0.07945836958381469,0.021538947464169803,-0.012110786552656544,-0.04942186197738736,0.04163984208092286,0.044998010596877636,-0.022392771274506534,-0.01799924835886338,0.01333475908878723,-0.08056787002863519,-0.004916758302617813
0.060099571944345204,-0.0289392106513615,-0.08785743173982481,0.062056209964810816,0.007059075622333363,0.09141609108216656,-0.07244100147090649,0.07205276361884488,-0.009843708130503767,-0.011450536586680077,-0.05167621376696355,0.04539631151510773,0.08458298750951265,-0.010285359557443544,-0.06594380467726318,0.07214862978933365
0.08988838658279463,0.0636122091099425,0.035135553898100774,0.041762192481037436,-0.027846068359713955,-0.0654996475238061,0.027919938424519175,0.04315179882309156,-0.08714943870464045,-0.043648086886359155,9.197197178681393E-5,-0.020527704206104017,-0.053026787741678884,0.03455397059426002,0.03389204199491741,-0.08476560923697654
0.06714398606298794,-0.07322169939464328,-0.06857138262096682,-0.07650523889702501,-0.09683273777622076,0.048756894545829765,0.06651370493125339,-0.08123746400402364,-0.09118755882431409,-0.03598003626334623,0.0585816785984363,0.0898540665165482,0.03247929072005354,-0.04403264500759907,-0.08735916941190638,-0.09972270395551563
0.061189217102042615,0.08588031053838488,-0.08077256009719501,0.07423137521627352,0.0884845754256531,0.04533418668359551,-0.08607929567455282,-0.08474269578641876,-0.045738701110195956,0.050157807019853035,0.07203054871968256,0.01865321239462285,0.002853619674689334,0.09314964004153839,-0.062353697297099164,0.03527106596210433
-0.0021527927828032256,0.020149547474855242,-0.07837925691735566,-0.031035755737987808,-0.010245238873798426,0.09993212471316223,0.02180122783112777,0.0100360588453898,0.006325213320379164,0.013851139511991795,-0.07306704882401911,0.003268283341791106,0.005295814731207368,-0.03709049509662797,-0.0739737342698767,-0.06313548033869568
-0.022051509031050465,0.04866660366392789,-0.05716773400654878,-0.05681330034261898,0.005552525396075786,-0.011824057341781297,0.003713331271735537,-0.0021586455929850645,0.05942683150468547,0.09027357105239209,0.04336481022897948,-0.04350346771198641,-0.05565055081996977,-0.0747840490744468,0.022074478524899674,-0.05215247975313073
-0.04512941911783557,-0.06414304131692011,-0.036622826248645546,-0.04266997649028564,0.0030545175162621785,-0.07470657786290616,-0.08524428537813754,0.013305381452351203,-0.007742510182582235,-0.06912600661928954,-0.020930286647373175,-0.015021792882618332,-0.09531046087517302,-0.06460530719564125,-0.00693558410689403,-0.09252996019451565
-0.017604368903325687,-2.3952343500292794E-4,-0.09049821094855373,-0.007232533863864465,-0.08885053309566023,0.006469275041287914,-0.005115493445253277,-0.06114749145019454,0.07232444906852101,0.026837817405986175,0.023223233116709485,-0.05585876066025955,0.08884095458078631,0.08007642150871358,0.06955948835873135,-0.08426111048486509
0.0030896487148522195,0.016116211466507505,0.06609173828128836,0.006182969066072186,0.004974515539364607,-0.077561934059567,-2.4414550186213635E-4,-0.0175403069482237,-0.05172414337177616,0.05580409414927531,0.0680983335970059,0.013129418783691338,0.04334757094334751,0.08631827153031463,-0.004889343583096964,-0.05003844642677329
-0.05426825589756204,-0.09267321583690179,0.04236647374188554,-0.09012884369593717,-0.009751170854822092,0.028242110692100475,0.08635312833224298,0.0963124421531796,0.08195309773198356,0.014480991140989843,0.09898142686331002,0.07393902937295924,-0.08471897909420634,0.020557966345765982,0.0913702298443266,-0.02992962460950291
-0.08738939694108983,0.04763262524356929,-0.06661210876872478,-0.09286896775463777,0.09766461673330915,-0.02545776973029168,0.08464173792083951,0.080899274679713,-0.04129890950729001,0.031001520014315054,-0.009764186390993787,-0.02466624083467142,-0.08335132082215767,0.0798454509969524,-0.04117060321596,-0.03335771015100446
-0.05926026169734762,0.06971424275727606,0.019106957106737155,0.026710526925016936,0.023871232741633455,0.013664056731811064,0.018445280206867462,-0.06201921840126334,0.06278177440054641,-0.0193100970731412,0.025790599340426767,0.02724717742265939,0.08904320816918179,-0.0063458520694684994,0.08213587514197737,0.0678863167424438
-0.03417871155181469,0.021298353778857387,0.03669166589931666,0.04699106884755863,-0.09609139869380075,0.033177727812291835,-0.09959067348882496,-0.047374116161981505,0.0460614977395683,0.051297860030461634,0.06332856141670415,0.03625218849318396,0.09259217959550178,-0.05761799488751758,0.09963294455458069,0.09002764400151667
0.0017289635668288617,-0.01026342557970028,-0.03344134152806835,-0.0014636198749570645,-0.09484207522745117,0.062239286712327285,-0.04702942101971857,0.019596750686530634,0.0649002615829807,0.04437016298736304,0.024190822876677537,0.0766974841305823,0.09961508142567993,-0.002745813736516972,-0.09382220479668686,-0.03356708088779613
0.061913221189590056,0.08810878979685499,0.027523284969609596,-0.048334409965792725,0.05309176992367998,0.013225800271490076,-0.0881321971330146,0.05769578804287573,0.03292531006047,0.06910185232853916,-0.04130119957816874,-0.04024119371672244,-0.08307234821040464,0.03452601602618938,0.07249611273042392,0.009664911160290598
-0.06179622295035534,-0.023621544545054052,0.08079034714532238,-0.005750781336888625,0.031975618980965875,-0.029715644476963995,-0.010543384926346253,0.005631144784683406,0.09982512678544739,-0.0011956448061684333,0.054202262374852955,0.020469404714710662,-0.02991667400404141,-0.01934141720891773,0.023651678066267,-0.0054060221621211185
0.014458886270834026,0.006965036629578411,-0.025817286380168142,0.05283359069828847,0.029402881150491444,-0.07742187175612876,-0.08326234773000336,-0.047770222656912886,-0.06819296788421444,-5.435525344422709E-4,-0.06897834313040757,-0.015274846131426309,0.06846313754608077,-0.08256942619712591,0.0790568604728496,0.06868344742027135
0.008295274732367283,-0.08586225321998123,0.09922319030348167,0.013098883471646311,0.044573623591463274,-0.04935171821496216,0.006565872413337365,-0.025306907895490213,0.0684234077608348,0.03932482857856953,-0.0344929626573955,-0.017409380829330523,0.05289698802643136,-0.03344928329765358,0.05907144201894529,0.033635178304334795
0.06702117543246541,0.02797886184901416,0.08073971339835878,0.039622368078926495,0.09190162814742606,0.05500540382743194,-0.036371746106642094,0.09720783303621158,0.05742240576930466,0.09813325066369372,0.05959381637065392,-0.0421893942316415,-0.077434097759429,0.07042328169783343,0.04995641124068517,-0.0014832374960445927
0.08791328365138204,0.06843213544114216,0.041288893019813366,-0.03386374105369004,-0.06688873995226571,-0.024088316099987767,0.040316295864614854,0.08624672929792607,0.09075806965836905,0.07976126898833899,0.09695564736310189,-0.06937382575413367,0.036760862947268574,0.01702419471243674,-0.049436546070175114,0.04201652037849565
0.042564213232426734,0.053192322299381506,-0.014728199599992414,0.030848362319079448,-0.08697105119921777,-0.04995395633781581,-0.03921712458885876,0.0525949114483949,0.09705953049165736,0.030099057272810398,0.040560402391162514,0.09973911631840737,0.039078554189959036,-0.09647805377217865,0.06794109803455223,0.0771670938091201
0.05162053738764366,0.08829861198994157,0.013434006882609012,-0.05631482795119394,0.09330008916165214,0.004725487450042087,0.021150859304294972,-0.035402895501423726,-0.0518532232616844,0.05861269838583477,-0.017339578735775157,0.06792147765314957,0.05496038252443311,0.0200219769756073,0.0801107819305047,-0.08788445051842392
0.08280004728893817,-0.006407912801138144,-0.04556197407608185,-0.008929000035735532,-0.07706038415843597,0.047333631590963765,0.011306487055004213,-0.07525162096998111,0.08022791558105599,0.05021511477203261,0.04540397871795229,0.06909388541051154,-0.04589946646975012,-0.07867407569769214,-0.0955645852614243,-0.06404379978627057
0.05372278958451818,0.031053440457990772,-0.015186785003591191,-0.07366064298624052,0.04243341698779754,-0.06995993917480632,-0.0017766908250213403,-0.04859081812868371,-0.025516532766180267,0.004651712733282798,0.02099019011161296,-0.06533311645817755,-0.08579057335818728,-0.07218590167967723,-0.018385001327446873,0.09336004153377517
-0.03148790338630712,-0.022248485181445482,0.04218727718424897,0.07462162783688694,-0.03715745720218447,0.026626239837426596,-0.02169531660919917,0.026131712609847785,-0.05774742021353943,0.010786692040375703,0.024428148333639335,0.058831513082743064,0.0528500132371513,0.0978068022615036,-0.0973305991005567,0.02112021482988588
0.08424511585486133,-0.007262369285714845,0.012261411985669185,-0.0038873381063239815,-0.0941764678316182,0.08639636339283416,-0.06951679655885411,-0.08811875718941187,0.03404908091686826,-0.04939528679648857,0.004842894702511938,0.013101050709493148,-0.07670486945959226,-0.06739508516503831,-0.09045582999885021,-0.06772492217197387
-0.07956404052465685,0.041625744397119246,0.09535052974081362,-0.0835278729730902,0.047846692238104005,0.087768431780822,0.010356799859406185,-0.04373656187331701,-0.07005938814511728,-0.016113343445457076,0.06518758942689157,-0.08477134621752876,0.01670887533109247,0.09817027795467212,-0.018616800043675857,0.01963853084209885
0.03689916928230147,0.007583399725279799,0.045647880363154425,-0.05150517329234097,0.09692359100961742,-0.07239586327946686,-0.007307255419722214,0.07640101783338335,0.049614102223131784,0.029091949884246404,-0.09032116682490357,0.07632013552925723,0.02945645846029188,-0.05591405422041121,-0.08999221443321824,-0.046495034428170316
0.06741940968582286,0.08948926339446134,-0.06975618629131708,0.08203671353942629,0.004733062436448249,0.09346433657641282,0.076467290269646,-0.011306790241493697,-0.06851697588473955,-0.05361722999155889,0.051633822901473087,-0.0672475635897198,-0.047544307929819875,-0.0010463194573162998,-0.01405214356713927,0.043303305576068485
0.03252241927066185,-0.059439433725127416,0.03448990932017476,0.017559241616900118,0.08798400901250278,0.026179273106200773,0.07290566407984692,-0.07103320195185288,-0.05172458274917844,-0.04421937253348971,-0.08365049628547844,-0.04003284186133349,0.023270024268716716,-0.044947755263808654,-0.026905398373623157,-0.0583158636352763
0.018396152596579146,-0.07229847068345932,-0.08048268642753811,-0.05037842407575071,-0.02726090182882633,-0.06948091667015498,-0.09374238513748917,-0.06518428933702039,0.003591666140690175,-0.05070934324393157,0.0435865546030047,0.060897907563158965,-0.04478058369610412,0.07685780002987785,0.05834978738884211,0.08493147212515909
0.09466183637701558,-0.05407910978988711,0.015839655079056977,0.052453817570530914,0.08165260147559072,-0.015119092846158602,-0.041184247574412726,0.01283490489401469,-0.09003856835068849,0.04779767675046312,0.09334280911849335,-0.0832940488882824,0.07643672498534246,-0.09687500314902214,0.0060950172651245554,0.045560276294994206
-0.023988022520052124,-0.06303439321931037,-0.033449887407433626,0.044090211482038066,0.04192160497968639,-0.09203746417615176,0.025660011035022412,0.010146158736850389,0.026549007961333304,0.08311374537751554,0.09203426508271423,-0.07307266096483714,-0.03442631169161495,0.027077020456753503,-0.07820293939662043,-0.015979727267304122
0.09385965674088628,-0.038328116340645105,0.06722854455908545,-0.017615889262395504,-0.06881351200505491,0.027218461939508443,0.0029717897147115424,-0.042210326511411725,-0.033917605231137446,0.04626821575851042,-0.0966480731037396,-0.06600511661764966,0.021792224519979336,-0.011481869033476394,0.009575377045124303,0.07219847593808745
0.018416690129753582,0.08512270695942081,0.005026163887813934,-0.031080312591087345,-0.03460959981836269,-0.06135583011174757,0.051632059331083474,0.020480063153695965,0.08167362101016315,0.07944588463136965,-0.03233589771067846,0.038675547357369194,0.002930552427658023,0.08642071034100854,-0.022676005746936803,-0.0017001491790713946
-0.01873437882937326,0.07716398579208855,0.01591568031104791,4.8792114330956093E-4,0.026255193849758274,-0.0666341976408058,-0.08207940432210424,0.039994776852317365,-0.04484569579053306,-0.06503907973224987,-0.07634672884394032,-0.028004182436920447,-0.04040468879147885,0.08447959577061001,-0.0781165772694318,-0.0650882887493612
-0.07523737681125833,-0.060580469259280824,-0.08700688818442648,-0.023314546420041632,0.06552677444735608,-0.007386207722040863,0.018834440134425326,-1.2673835751150775E-4,-0.0013745959312928546,-0.02371928279130779,-0.042553674406278975,0.09493063353666703,0.051707088889160174,0.047561296631356414,-0.028625921208740954,0.04252818623246141
0.0885193911102442,0.027358867376773482,0.06642775637098025,0.027022308735882405,0.06296742994727705,-0.016979103775660545,-0.023428410242539013,0.008277631414552886,0.06942067006249442,0.09381866600059371,-0.04870421660570408,-0.04948363087889429,0.005165714826494278,-0.09137864448367677,-0.008523493757709846,-0.05799096823350361
-0.09386641899769994,0.03258387302922419,-0.06012043089443047,0.0596766604668445,0.09676961842426879,0.07144561766770796,-0.09649591725229877,0.018769354248553943,0.08597448008501382,-0.011610294176792754,-0.0013850740728736238,-0.06274778110208631,0.09946456228586334,0.013297825373951563,0.08749025306105995,-0.09414730747074294
0.0794440737713625,-0.033139029171205106,0.015056567506968307,-0.018042656048445946,-0.010457259716113138,0.028512988406342088,-0.0066293359870918805,0.09736981086024538,-0.03550151689376106,5.937708905376232E-4,-0.08946401504499873,0.03630080817162987,-0.09272778338408545,-0.09592948467951785,0.02765290973669618,3.156189513134483E-4
-0.07087136594104544,-0.030319071024420288,0.03234509528566726,0.03229977970948264,-0.014950634219943554,-0.07751818057840726,0.07673771196202173,0.08370496150417198,-0.04764344207459843,0.04128027635809625,0.08223738981735043,-0.05142957733500939,0.08982283146860573,0.02735509508214712,-0.057331567770404115,-0.006251606782825367
-0.07323140333700287,0.03610676653858963,-0.08494607491878575,0.03383670094471519,0.053524520988848384,0.08800891226296909,0.04258219898847873,-0.02704126184345472,0.05052534727510746,-0.04839156127327613,0.09307034298258707,-0.08393622790391436,0.02784526714485061,-0.02444452504388006,0.03421703051595629,-0.03180947064626009
0.0012984221107298355,0.07210974345071869,0.06459637221472289,-0.09485000614211532,-0.07167797094432574,0.009912540305438908,-0.03454481765873334,-0.06666010124659566,0.054831562423591995,-0.05243349286242343,0.0256634105222677,0.09251663333322824,-0.08651103944960714,-0.0789313361734398,0.05453428740698116,0.026005885557005948
0.03843839132037316,0.061056461847089044,0.059927841084078615,0.06786169335447378,0.07278433533423409,-0.07063767941729104,0.09357927661385454,-0.0639102605164193,-0.08859286098142949,0.03813488380824753,-0.007021343247287842,-0.07915588019273048,0.00344315810116827,-0.030900565552487866,-0.05231827403481187,-0.07837441679369093
-0.08352261828443362,-0.07181435329356317,-0.09762473740310891,-0.03598692603103744,-0.05449417491620186,0.08969913084713158,-0.07445668115574394,-0.09881553368697825,-0.022259144234791944,0.03438193663149833,-0.07162831756515808,0.09027325047987414,-0.0012217704727725404,-0.02987211161763252,-0.07754186997188038,0.022885372687435485
0.0932624613402214,-0.07911712048906244,0.007298227157355841,0.09905982112658013,0.0033495790805624787,0.0863111133588455,-0.004083974034398752,0.031741310490142866,-0.09060377683429194,0.061929820764468235,-0.07596130535340664,-0.022503868102231622,0.009201471009287698,-0.01714934514312369,-0.0838441399622179,-0.007307642651013774
-0.05793711498747931,0.02400384276704455,0.015601710410184905,-0.04224699058822128,-0.07668065602102109,0.00150051846177357,0.07156835013549087,0.06999734339902058,0.07326488039595896,0.008074157688366793,0.08228493765583489,-0.04778768319073874,0.0542336117850277,-0.09207966449208085,0.07965647912441143,0.07683590443406882
0.005869013774489076,-0.0299693254063067,-0.06622301756568183,-0.030890765169163933,0.06337496395755346,0.030010316458870895,0.010225518823179167,-0.08862095807656725,-0.040200257104124185,0.0031398090542169577,-0.0784890298394117,0.019580834133775454,-0.019381997468566364,-0.03392227658234474,0.08570843202487324,0.063659903932194
-0.036838986359371315,0.026258612856914887,-0.011167286161678211,0.03386113311795999,0.010323158320377598,-0.08359811953749333,-0.0336512210020086,0.09077106744914173,-0.08270394450096259,-0.009005555446891106,-0.03788409546293419,0.007451071726105152,-0.06378826211360028,-0.03818604569062929,-0.02082074736538006,0.006371715544764414
-0.029715253482593518,-0.0314311002460608,-0.08185560205427818,-0.04191911892334954,0.0022697952501780083,0.07480204715599317,-0.06923839024333961,-0.04371456541643235,0.052230109957745796,-0.014942016622604276,0.03426462427847071,0.06056080347481882,0.09256160650576603,-0.08304558225480524,-0.0014574843543518207,0.014494114889686285
-2.6448607364296106E-4,-0.07888051619760957,-1.9144239974566712E-4,-0.025378370899401634,-0.08808489884358946,0.099211510209436,-0.03643338769007623,0.05479415850608732,-0.09881552060251471,-0.03387569906743852,0.06314995191500405,-4.556015493726584E-4,0.028849420576111756,0.0662619512053991,-0.060028177968808265,0.0361847216716005
-0.007566318905342845,-0.07153150165556416,0.077026346769798,-0.07290829357399556,0.069282691363963,-0.08592208109567745,-0.08762059391263824,0.05852578089801497,-0.06909495006629683,0.08400393693432243,0.07874269855651536,-0.05264570344365305,-0.0500334584154698,-0.041559665444705775,0.014878358583575307,-0.017957931011644362
-0.053037453488034236,0.059648260385724766,-0.003951845433262574,0.05613181478745782,-0.0847392476859644,0.04727664808114926,-0.030716560738694915,-0.031513280531575136,-0.023947691974036428,0.026246869925777905,0.08712338054254154,-0.05186467777472062,-0.06274114791023988,-0.08312995010806222,0.023224955822866072,-0.0734111678343554
0.0401973704626038,0.014029363438787287,0.05353528811730282,0.08556922603846945,-0.00721734391382782,0.06635856867024134,0.008218008608682298,-0.048588179984341506,0.04236257952040284,0.055797009045146145,-0.06770946169507241,-0.06015146320359724,0.056923715488983895,-0.06595605005633234,-0.027719306998485002,-0.007761637157036816
0.07229956402392249,0.08080790531532148,0.018761182728100567,-0.004003714883561951,0.003649930340489521,-0.05762062425200958,-0.02736783113234853,0.032215483875882356,-0.08918105034905983,-0.08686063399314528,-0.03423302497018536,-0.035545474924671264,0.030466537027147994,0.08016479066963975,0.061556021703828345,0.0836089632229978
-0.06235270501119086,0.02273906728672677,0.02640721156696793,-0.016370101005745902,0.06020389857519656,-0.07518687354209992,0.09481820128281229,0.02032085476794887,0.034751662878610035,0.0737294458764916,0.03186112899093993,-0.028476016702451146,0.04638891113732557,0.047104100753401296,0.055108264518792804,0.0900393756408748
0.028216012436767746,0.03438182306263099,-0.06994311340193676,0.0284367765384807,-0.08580590591342988,4.2719450539463466E-5,0.037175396227354274,-0.036266914559366745,-0.0741327674392791,0.015159169255483815,0.06181565470826117,-0.049504972792462666,-0.08824056368976536,-0.08371542862617072,0.019200155581707762,0.09420763240010754
0.08343377130635318,-0.012601941116934426,0.02887809634559632,-0.028516694495971384,0.003808463752498728,-0.02225893087363602,0.05288592255083438,-0.010869697931012778,0.07441004589220665,0.0937100659116141,0.09600984487268799,0.07008002432669361,0.01661393178276567,-0.08681468205701502,0.07241940151365842,-0.0912480026565123
-0.014655453354979794,-0.04359776362299348,-0.0637308585553755,0.0850804699903448,-0.07056793811880145,-0.08340241445501269,0.05473485197780262,0.09500881666711788,0.09500838391883704,0.08102748103388183,0.06401926755545961,-0.0839803772122634,0.001969641591384824,0.06687696376945904,-0.021466537555120707,0.027138492362540317
-0.09237161187089471,-0.06462039008068284,-0.024404057946760302,-0.018584142626179218,-0.09743520298487343,-0.06798402239758788,-0.019111160233546018,0.008408718998117237,0.0912107666349583,-0.023861648301171295,-0.025253113090156806,0.06913141633176892,0.0060414390132817325,-0.018793138930825945,0.016927093438834737,0.07146008747800472
-0.0942559358928029,0.05722489291322666,-0.0838871182932603,0.02264747371830511,-0.05641930827342548,0.0551403943698584,-0.09175302991886275,0.04283390577727961,-0.01475879741582202,-0.06920010024728339,-0.08497292067247904,0.011427669901746193,0.05337667203435795,-0.04165557265918832,-0.08725998828043069,0.07067812376037796
-0.034334687773758255,0.0530024724076108,0.08108550465242609,0.08336378779187284,-0.03627319539746787,-0.042502488132148054,0.04706758931457128,0.09573328749369067,-0.03861696905561827,0.028498547960045473,-0.02343721467111229,0.0029818158635614295,0.07775271403676803,0.009121845601697445,0.02086341614575711,0.05669744624312939
-0.0024119181337684675,-0.04720025735207378,0.05523561487956552,-0.015231513497788313,-0.035058045721504616,0.06179355281491411,0.07098129776066103,-0.09445274800730429,-0.024811144138227978,0.0855177265422018,-0.08432269058239109,-0.04679860867931991,-0.0027385109852049033,-0.07203426760319467,-0.01457162211756155,-0.06252351296283165
0.005045331185202631,0.03713002635954282,0.07434922217803705,-0.07153146887992055,0.09168873410592598,0.03678203318373102,0.07939437754968445,-0.0025389656301493535,-8.036583637816425E-4,-0.040819205351756406,-0.04962949681153919,-0.08638194859568836,0.07703037639188035,0.011235111354305286,0.020300502033995846,-0.06810460490923997
0.030747304876777543,0.04593939909413769,-0.050603092047352166,0.06884274566271056,-0.07069897019170107,0.03449775004320216,0.006556175222948296,-0.04522754435606929,0.05683000984858069,0.07507091669241422,0.030278843903472075,-0.0288508357887666,0.015734407480657908,-0.07774338331538147,0.07901739114687978,-0.02669231293346057
-0.060873571620254176,0.0027241951941602005,0.03343705335085903,-0.030470486703842073,0.030261851649407256,0.06819213886142825,0.08537711504707113,0.059453847416085975,-0.01365835822335107,0.04220500815558151,0.010835991660398392,0.014758117255630629,0.01150033617673192,-0.014627724284213633,-0.03444386553585553,0.017818057721073283
-0.024169072232750888,0.006292774070378621,-0.04280759292884642,0.07516141082228708,0.017081882829600353,-0.028420576656585192,-0.09618541318272372,-0.03350416284734174,-9.256595392463512E-4,0.03838577628660217,0.05301036161637154,-0.04890775061617778,0.09658516678263016,0.0037980315181422447,0.08902003479008141,0.03960465126186649
0.021771537233974916,-0.07213069498301575,-0.048141124972672006,-0.09152449765855508,0.06872635894654375,0.020399036519129665,-0.04559026778066049,-0.08932349546958647,-1.9055456696952244E-4,-0.011526063767210618,0.03615680409710448,-0.0936048247951443,0.09317148537527176,0.042415420758443845,0.019972611971383072,-0.09873267180775375
0.08968663166645938,-0.03779244276109955,-0.020176469858992324,0.06219130792542679,-0.04281436391634699,0.09243876312828256,-0.01344076446852216,0.017501501030418504,0.02549877456688024,0.057333851410539954,-0.07901539402140799,-0.05440024256934417,0.028199876582106376,-0.009203695240507972,0.07733325197997962,0.08525436710096351
0.09392729630106186,-0.043703691599758,0.07823829549111316,0.001701393178800803,0.07997126963206755,0.005746532821731723,0.06625475834459066,0.030741050681214632,-0.010664015944164398,-0.0017172919180222096,0.03140655330767103,0.03109944711297516,-0.08768127425922523,0.02476469948959817,0.09890103651932344,-0.009892555661781668
0.03785526409919965,-0.09922970849891005,-0.06176271579504078,-0.06512242062277847,0.01524491816848099,5.446609201981423E-4,-0.028925709618101925,-0.032865878548616764,-0.08953654380301353,0.02795516363981579,0.06438437057098712,-0.023771347170691917,-0.03468966177885151,-0.08899041220135272,-0.03928889221962513,-0.0371652408122827
0.09251783178441544,-0.020737323192731735,0.09730699763272563,0.09809567305740677,-0.054831325530480673,0.062855526726138,-0.04965924396203969,0.08248672935602874,0.06276156432276161,-0.08334907692747547,0.010853940742119456,-0.044385549581831586,-0.017567090094843404,0.09770873634231123,-0.0015875305497833059,-0.0889554042994059
-0.07875362461432012,0.0694113310932486,-0.060600370892461064,0.04510419553867684,0.08263402877807477,-0.006062571762347854,0.03675747440422772,0.032281327280214406,0.08191082379245632,0.06401739644337748,0.09197949848679518,0.039510032287852714,0.02180697624912438,-0.005952838893174411,-0.0465033448231115,0.03601322209761995
0.06318510274389372,-0.005390816179594499,0.04737830993390685,0.09462832535795612,-0.05689306445257336,-0.07608038134797701,-0.03177981520746985,-0.05341233382271091,0.025993452484875695,-0.07596638958403777,-0.05660813833354934,0.006997861409109379,0.01887675313116491,0.0548502633935011,-0.02252269907553725,-0.04915675313424348
0.005359423739172892,0.0402441301695044,-0.009593080742444665,0.06477462472978798,-0.05809513314461732,0.005023430473001425,0.0252428420532268,0.025013962406298773,-0.02424005512179625,0.04982692022937457,0.04036022490095156,-0.07623406108497732,0.08325541642151588,-0.0052495396720049214,0.06083453230468838,0.05437648766109002
0.02079025332467062,-0.022921306581545675,-0.08308933638858645,0.07940055296216084,0.019916948377865354,-0.07709964784358413,-0.006088961658852532,-0.09540975815952324,-0.05087736010137969,0.009049057682391726,-0.05554846441737696,0.04886525405738343,-0.08686798467929165,0.009093246764503446,0.03686921365863122,-0.09396583789391036
0.041269970979249476,-0.07597993916305788,0.04456729885142657,-0.030776806744884658,0.012672669088464233,-0.09206996373081267,-0.06332674955274915,-0.07117540478243303,-0.045175746680710165,0.0969221751417971,-0.09680632121717991,0.09921838905888333,-0.04496434868421104,-0.032118654266746094,-0.07303599500342017,0.021696764833474158
-0.018828469439440235,-0.06493663253297718,0.016262639943117052,0.06291342113975662,0.045940140883987624,-0.02514819170054665,-2.4892612371371636E-4,-0.07317033445341924,-0.017394372533725402,0.03250795564776174,0.06583167152810768,-0.077039980037437,0.04153962462906155,0.03462148035829418,-0.0473639105532125,0.07176201335615592
-0.07256240629226118,-0.07796851814307174,-0.08443792157233354,-0.01928997798063073,0.09162001847500154,-0.0833808316093067,0.02637993533549099,-0.06550805372676496,-0.041205363971998366,-0.039158798361128504,0.07541205069261389,-0.09609863146696469,0.08551104669507031,0.001053541877429634,-0.048595011652501734,-0.057339384678776556
0.027208539932236098,-0.070934636074592,-0.00843415358914841,-0.014679976577358672,0.08581529585799577,-0.036225529593737635,0.0279957667337756,0.08065098863288511,-0.028855629322753346,0.013381967373993484,-0.09804469947515167,-0.0697843085111324,-0.03971697878986054,0.0010306128495904537,-0.07329722232211025,0.05083565244306454
0.016686789225831847,-0.0678233548664216,0.061168222657870724,0.07537651300802634,-0.06121351007864542,-0.04218795962180022,-0.018673141126249876,0.09108784727545921,-0.021563955843769467,-0.08889971839639273,-0.07710385289670244,-0.008131584852717727,-0.07581429348132424,0.02735754158723494,-0.025878918812110227,-0.08399182478197538
-0.016618733313005202,-0.09575858951055359,0.012679333131042705,-0.03166767470130856,0.045041151764625253,-0.0832612665068263,-0.0656912232891423,0.021483306082142592,-0.042533613375865566,-0.06866221921143423,-0.06033111398283151,-0.04356237806436927,-0.07743307877463251,-0.0758007843349266,0.040491747861888666,0.09089050141378327
-0.06731441679120667,0.055450332906132466,-0.011585919965029917,0.061606382363195517,0.03308805160835773,-0.05594737932513343,-0.08035996410071025,0.06258444312931791,0.048590263913962206,0.06289802175293621,0.025779316844797673,0.007851771029695184,-0.05731719454999378,0.050170163636675064,0.03862995052747473,-0.0465714922633697
