784-10-10-10
0.23703575496014273,-0.37030360985711364,0.13937658510398065,-0.25646657490178215,-0.09293935565022804,0.15938293676038529,0.1920039272117996,-0.28608395793753616,-0.4943988227702537,-0.454064664738174
-0.4182155058196242,0.425247278749985,0.025021960779270658,0.08442886184168563,0.33978230338995896,0.37040681127933417,0.23859691881912948,-0.01461158991038003,-0.005166921324341378,-0.032888345590871726
0.06761000955353114,-0.0024605497566537737,0.45169144874983413,0.13223823181917227,0.24074463154547832,-0.43225923282244616,0.1219793718455453,0.389352841043497,0.14340219637481177,0.1236758163692031
0.28938020021353517,-0.0926705631418423,0.4997180980521917,-0.48819912699959145,0.17855234831567113,0.3980071889053961,-0.3082226039295253,0.4692333069008463,0.3122756165674737,0.11750311825018311
-0.25702229861815185,0.27429448563029213,-0.12586487975115324,-0.4085368662677519,-0.21736625455635128,0.18591813634154097,-0.4293323854939318,-0.09083245361696046,0.278926222109234,-0.4753719457425598
0.0702447167819581,-0.4360592198352481,0.08009808027675136,0.2067158275367904,0.33349263843789045,-0.3914661751712024,0.32965197114725775,-0.4038988222333951,0.07737834182151171,0.28074790192961485
0.15410585193700432,0.44433743408515336,-0.30103619152883454,0.010204903889809214,0.024002729674408974,-0.4861606478956437,0.4221848788812096,0.47740811089009005,0.1669369640520384,0.4496046923126662
-0.039552960350550004,0.022883299586961336,-0.09134312410917089,0.16390864493907087,-0.4659264299314483,0.3153543746790036,-0.13536083204714155,0.3242042679774799,0.29811687284462374,-0.05784802066627548
0.3254305151886371,0.20855925676450393,-0.3012569611603043,-0.2937110770892474,-0.3273494637421386,0.04981614827755898,0.1523107909696294,-0.2089181603580521,0.18273762014178951,-0.21004931204778154
-0.1399211888534838,0.03366945640106811,0.390858206497685,-0.3128712960328942,0.43907779026613114,0.41594479961945874,-0.29612249164694115,0.3052080473990023,0.00250929768085717,0.07131985495057169
0.3653590971939552,-0.27851199506057966,-0.177648521100515,0.05500351937792325,0.03480464485187196,0.4684989647091299,0.24648204591065304,0.38648286157320977,0.0026487618757892184,-0.48114683229526345
0.45633832316280565,0.2778152063267657,-0.08157717982406054,0.23300922603353835,0.12161006176484201,0.46491794586962243,-0.30900296985427467,0.11602912897005979,0.1811077416017447,0.236602355429531
-0.16253037321356503,0.4539074861447826,-0.3784030896138596,-0.27252576134712286,0.25642337698864126,0.48447071528519503,-0.48348452558755173,-0.2547129164205606,-0.5302162743464327,-0.1975446248414919
-0.4116108355558632,0.39579955652179016,-0.16935552268073112,0.3245793659940851,-0.23393924149107892,0.4417664641891506,-0.1472196991907657,0.06451090086584463,0.2909552618202049,-0.41389895179048874
0.4452129350012439,-0.11212577829066923,-0.43173411022326014,0.1281063931173947,0.39663438425202935,-0.38365181175867197,-0.10741816163221914,-0.035606770376485346,-0.1911969094480797,-0.02220150369678238
0.16242790170909124,-0.2726857245102971,0.09490817319637365,0.48514684141888564,0.008768576949678081,-0.050156749969104464,-0.3359679688424511,0.06513315305629727,0.4481213298897281,-0.09970565408159308
-0.08373991574101536,0.17446024493797918,0.46850845866376356,0.41493523350187445,-0.3131415721859413,-0.2571881893003992,0.46125560150397615,-0.07075474591950293,-0.4062295431315275,-0.41047308212568256
-0.09395374186602767,-0.005418957104308619,0.3225541567480892,0.17314535072683834,-0.22965342914551,-0.48103322349381183,0.005585709560212648,0.21642506460853883,0.2744975644595776,-0.34292985117534003
-0.3849318222218918,-0.3926313604115026,-0.43891346638010553,-0.2339705265997235,-0.29190479045182205,0.04175344897542632,0.3353585248641141,0.1485241389379489,0.2426903079053514,0.36668595756839895
0.06694048183392332,0.20504679343554333,-0.10334251827348595,-0.07960323883688736,-0.3083796556133367,-0.39264802949304334,-0.4405859012314839,-0.4920416951820541,-0.09714225042284363,-0.026791507322662778
-0.018514424819239594,-0.4113853843716557,-0.016580515936800877,0.09213082321871446,-0.3797669378332411,-0.4596930153451354,0.08032697719392268,-0.12858727514438484,-0.10023841367659692,-0.12969901024929364
0.267286328809511,-0.3850441130048473,-0.49526838552212527,0.20072858667992144,-0.3637261987996857,-0.14631485167419322,0.09551866395161401,-0.2234445689450688,-0.3598326468906945,-0.12436030953010258
-0.49396642304901406,0.3932127569412074,0.10760032541414721,0.45143439903314664,0.14171566551574355,-0.048350250879546475,-0.25907645886303354,0.15583758299645,0.09964718384192128,0.05732424855830531
0.48301518278316946,0.4739390767006878,-0.3481892477362344,-0.0327627482752213,-0.314445363777626,-0.387124822284326,-0.35082974168419145,-0.22282954378323316,0.42541154475110576,0.39180542940044316
-0.3162711339744564,-0.46685149214968513,0.24253688787831496,0.11328755458143747,-0.33907046107270866,-0.2839652306913659,-0.4384753199840581,-0.3296461223815612,-0.37677673571453607,0.24230101484193456
0.08373035672348506,0.01563708719574719,-0.19354364904324384,0.22804330319394361,0.26046372259124684,0.19450272624832932,0.24826236403552593,0.47117609412884753,-0.33019436033166627,-0.35878310897614396
-0.34941450984975875,-0.49005153008164637,0.41243814181418015,0.22629715669635975,0.2532345627325553,-0.4595498133518846,-0.3669690309675615,-0.32590162624984964,-0.061041294667059987,0.021929470263039152
0.1519918787348311,-0.4035183978084702,0.10692713081262806,-0.19680572058896095,0.06007093851620071,0.4867079808590511,-0.09698640709589945,-0.19021951715975227,0.2852859489956199,-0.19406111952934446
0.22220596079895927,0.4178239266393776,-0.20860280468080483,0.3092734494390198,-0.302763996539099,-0.1729146023242305,-0.055947159403754165,0.3176872034661612,0.31598025667801455,-0.24725200742365594
0.3784826325293914,-0.043367750106758085,-0.17734831822898534,0.22320851002026498,-0.23194459379845878,-0.45849554037128504,0.233143459105003,-0.31319555492546947,0.09143818738938447,-0.23934914654809403
0.3577616806794274,0.4025039672750158,-0.276171627192087,-0.07391633802093567,0.09190149228820621,-0.4745837637190634,0.1919771664146367,-0.36304440249673176,-0.3220818143140085,0.21646577570860948
0.004062856068747789,0.20263855246945917,-0.09696587993099959,-0.29722655675532905,0.470889369998041,-0.11491368131909097,0.3606658118509647,0.3511770176223672,-0.10863671336505187,0.4967988767467113
-0.4342810735798866,-0.2496584550805988,-0.2472959094066233,0.24602586212954872,-0.06391945124870896,-0.23354225825750546,-0.16724307374427316,0.49396125352560477,0.012423432758632256,0.3052637241080146
-0.16560146119221275,-0.029438161939435693,0.10079162365933572,-0.3674324489564485,0.2147831297253164,-0.024780616105095653,0.481527153978595,-0.31997941687271964,-0.10485045589895853,0.028759043687942805
-0.3345676068972417,-0.0523404545650796,-0.1014264156604193,0.11155716417327213,-0.24757866618406668,0.35536126051399286,-0.23315605579256038,0.2621869790429304,-0.30052946299702266,-0.3001956797387165
0.2156873046480483,0.39285034005268293,-0.3305838214473297,-0.14953261944983082,-0.09342688603387916,0.05338554038951921,-0.07101149102620136,-0.08650288265744968,-0.5301109835951195,-0.3821023615036649
0.038626999235280575,-0.47500338458947305,0.17799437593342546,0.3494217630536904,0.33125721092712446,-0.3006718809581812,0.4184437243293904,0.24943764388811812,-0.37632824602141285,-0.17238467833475368
0.4014050704991158,-0.17120314626045338,-0.4937582955469562,0.4781548811952441,-0.5100046136258483,0.05929744615390261,0.23102316382422586,0.4264167113065813,0.37815351199127184,-0.08987709819445397
0.5728347384208661,-0.1882035916134546,-0.069926111760204,-0.20322558371963956,0.3625923765604976,0.4297894776344996,-0.19264858757340816,-0.4722919175766899,-0.36392181853072253,0.40435012040798357
-0.3727088335402075,-0.2222935677257971,0.011459627806723032,0.30780707819538056,-0.30071438650263166,-0.01808267897787992,0.37347876506639033,-0.18997939091849764,-0.462908572394235,0.26736272300670133
-0.006595370672053443,-0.26546019342271787,0.4143637479311771,-0.10401512356973115,-0.455836324478454,-0.14564548822751847,-0.25822150944501115,0.43364691605804934,-0.25105976975049865,0.09536924456691352
0.5538138285631503,-0.2031394053837616,-0.2653022226872645,0.482230074127564,0.13029926504803382,-0.3253508431789038,0.23220832954924434,-0.21371077327264626,-0.4989148982036132,0.42365482319743253
-0.04702336757194226,0.489806267936675,0.5152701707115374,0.1427688789885844,-0.005964953843573195,0.3787218857347966,0.014233265980706894,0.3475226391134117,-0.2778045921411635,0.1955220328515429
-0.3243536159439967,0.4522330273077445,0.32872773673202804,0.2220890731010025,-0.32734474246408796,-0.006407733647762878,-0.03526319850278514,0.15641936578915916,-0.08105981701109889,-0.4708947399347858
-0.30216244132707576,0.3739144682239454,-0.2347407476622792,-0.06328818617224338,0.3732647572473917,-0.08589336849485238,0.09301555510797045,0.45840430082662864,-0.5307531949837441,0.16384283791135115
0.8572695051520699,0.2660529944960721,-0.2396132425260245,0.4822790411306846,-0.20079873940708995,-0.4440506791039212,0.49334889678088706,0.3915613944319317,-0.3639889727222242,0.2237532685357341
0.10669236578738414,-0.16165319685996504,0.27183771341419893,-0.3249584093873213,0.4582958464328898,0.5155965980291681,-0.4978498485192689,0.40763128892013917,-0.0015885377896258956,0.37510309064831243
0.30518075165517156,-0.14451827535671743,0.20845796337227013,-0.3352862102078268,-0.09565061600397674,0.34739802032424427,-0.4008049782239619,0.4454869576645328,0.21576728138134157,-0.25072966136960656
-0.10070029672259277,-0.19076953564525287,0.2341364690764689,-0.2630075362532002,0.3390613085876665,-0.24136527209659137,0.07322608513561653,0.27933280846132974,-0.28158971589239523,-0.41537637895358015
-0.009911424965844321,-0.12293368590427492,0.37784256160151825,-0.31792931033903965,0.3444208789028248,-0.2541364918638271,0.2610293549231155,-0.24334511813984155,-0.17638878732360233,-0.3489792821697868
-0.307436971093793,0.017490829953827346,0.3389231984121749,0.43454285945543947,-0.41783563310106836,0.3372742978099212,-0.2528205445279905,-0.11788242759964132,-0.4343802492619646,0.3954055497871462
-0.07239062775592801,-0.2626361393153028,0.32156921772494157,0.31533258962529254,-0.03217136129425373,-0.38615974343393417,-0.3667320460110955,0.49450448097138017,0.437329206521563,0.4592020274809193
0.14034005361494672,-0.0882250843073703,0.2291742928131596,0.4273514227228997,-0.3256580063081954,0.23299391678172787,-0.1195915246025856,-0.12109509361645066,0.2153182633380244,-0.39210044748570216
0.3611950730783625,-0.09708158891768803,-0.351404242990235,0.2763457533401784,-0.20387300768792294,-0.13140247876682443,-0.22998385129053645,0.402892463556511,-0.42000323054937194,-0.41809808138072
0.27930251029138053,0.27734650293084095,-0.30467665344849293,-0.12717333330382907,0.23829629404820696,0.12641793004165403,-0.3279886848578417,-0.010781594726209653,0.42846120983969904,0.05610796884202873
-0.2426931952684821,-0.04467029584911131,-0.17216803624836086,-0.4203597164091396,-0.04363179654660987,-0.16750776895507014,0.3383407655161186,-0.03926809982917656,0.11938245839104111,-0.2217608644702348
0.048158825207008316,0.21410512663165493,0.2685557154086091,-0.48762068322910856,-0.45140554908298647,-0.26676111197144703,0.2829819187856397,-0.3426549304545209,-0.18717896047433347,-0.2084542425678405
-0.4640739299378339,-0.43106665804167654,0.2023422362032089,0.3654239441362097,-0.26778370989661127,0.142701601334133,-0.36853757351189764,0.14577673671388902,0.2962202194460518,-0.3632559355234606
-0.3662249558108166,0.15234466876097114,0.2789692879878583,-0.4463912222101064,0.19418579413078835,-0.144213913092161,0.40456693048864845,0.057741058603499755,-0.03816462396402994,-0.25801953789911913
0.3771085865721192,-0.00853026224694402,0.18108755777919686,0.19479906109329462,0.41515649462703874,0.05130671050726003,0.337587712786759,-0.4520219171585676,0.4482763376836479,-0.28713798160862686
-0.3606097703781271,-0.07179839411271409,0.2746439198510816,0.022119262275137015,-0.0016448803408143117,0.2601452253152223,0.06844037117027586,0.47154317746427465,0.021681343671631596,0.14891287947929613
-0.1838036779599637,-0.4537784180446969,0.05899647639427588,0.41369416937440934,0.141776392601625,0.10478446370587509,0.1824809859870585,0.26643439250713397,-0.04680491865727245,0.1557113287200639
-0.32422443124187417,0.39204463645433707,-0.043447043405883554,-0.14342354910425545,-0.4088812123450638,0.46476837163410883,0.49515834495650496,-0.03927975946370215,0.1240178391375434,0.44618227990564147
-0.1197126153679605,0.3355682071142399,-0.5210208841281733,0.4333155158862864,0.2575201721396964,-0.4143288847738774,0.4603539698378686,0.4106326204243307,-0.6524138254945172,-0.13227296855693735
-0.04360963807115208,0.10973767317921646,-0.43416760150243805,0.27790682160433766,-0.28976708360051906,0.6088085041866159,-0.29497599992674894,0.2722616897066047,0.11752563160776695,-0.27510213183962445
0.18721993229169645,0.18664100477810172,0.23913710807242175,0.1470490557569768,0.054971911100186545,-0.02446878180446884,0.2625249075720668,0.09792912236847445,0.10220887238805279,0.7134536548771485
0.8578076753528864,0.1280571025162432,0.1562916449981509,-0.2066655471500235,-0.20641742043475128,0.7710627268767629,-0.2535526678272294,0.4389449649365263,-0.415484557896018,0.794469345874351
0.8732977072367964,-0.44102441978432827,0.15800588110975183,0.3391878781553518,-0.4247202375420813,0.5663963178370363,0.4802039919718106,-0.431702669984685,-0.7136120728329876,-0.1202865902260688
0.6516001491997352,-0.050034164749498386,0.2718849025067401,0.535332667905634,-1.2623882214636324,0.1641141183215736,0.030724258514723723,-0.019491525397827336,-0.2663004895525958,0.0641605195924451
1.0166767404150976,-0.05912189859124137,-0.0045561558730332075,0.43503412797837926,-0.5226231780949234,0.13781461609575388,-0.21130244500227363,-0.4651408025361251,-0.14238746176897857,-0.03680039104745962
0.09691618438992299,-0.2884599195629825,0.2985904477299754,0.08791563237748795,-1.1475912086390465,-0.4420163824950176,-0.35242120529353504,-0.0810676951595903,-1.1130770395610392,0.19831182122296317
0.06533787236103507,0.3680412206688061,0.40463194213853243,-0.09197345014136912,-0.7372008309752633,-0.48131787097998446,0.011267154926513421,-0.43812142850574504,-0.40758392921507564,0.07539542782783319
0.7502091918469205,0.10693304480808996,0.26670069561139187,-0.4998191448797281,-0.8929620196559602,-0.1774194686199167,0.40624219962349256,0.210623428491084,-0.8624059242349597,0.21182910734507898
0.13806864815905173,-0.34922907678761733,-0.061233415549005715,0.21406667102402377,-0.9164108825740197,-0.10071994452692604,0.16015699121956997,-0.21757587292133074,-0.9416844827342178,0.13283479177382712
0.46517062560142486,0.1385625184580608,0.2245981373965645,-0.21079036902327813,-0.3973651515548038,-0.4658973247529834,-0.23508685546562966,-0.2636290522343932,-0.2104130217059811,0.42172511880121283
0.41277788696476037,-0.5449546798705348,-0.4787075557422112,0.02659673740371113,-0.7647754300841078,1.2308040314382194,0.4981506700145191,0.4424237371298203,-0.10698365493875193,0.2805866426136227
0.4961401667480966,-0.34050523861600357,-0.29175628507096046,-0.15437915828408416,-1.096595609825268,1.289610922843483,-0.02894845954975226,-0.03677387322104545,-0.23676652382937782,0.1296170374301912
0.3944688964666355,0.2151379567450166,-0.22946566636167273,0.08435405855501156,-0.44782070210740754,0.8691934005675875,0.19181781092552727,0.1217268099455429,0.13037049853011456,0.05217416191642479
0.009079959852261442,-0.3451459569661149,0.29483021844416035,0.013902492111333655,-0.08150485745408191,0.36598396077820866,0.09385795238400504,0.048053763475718714,-0.4069953165654357,-0.27424671266671
0.23182522473647127,0.15047492948722596,0.44880396060150257,0.2702233654046974,-0.24746134918720145,0.08524763914530227,-0.2312884710254246,0.13728114907423133,-0.4261850916845448,-0.3014471906396697
-0.23789489763889196,-0.4039608403176601,0.06005958793774664,-0.07868469742325533,0.41172254433057187,0.3387049429855875,0.011502450097545124,0.21466017824890746,-0.060383381253434426,-0.17748032865840688
-0.19769568437811783,-0.013977290370877495,-0.4553699005575575,0.2565336038647459,-0.40386351373750556,-0.44234686776235443,-0.20185233743833422,-0.15816290833775676,0.2686912172306846,-0.30923463089181674
-0.46147047968995825,-0.14011111825207057,-0.3823704693354377,-0.15276921596471127,0.125535658706319,0.3040683523044896,0.056925169319304914,-0.28465594279863715,0.045031894289408236,0.009557944003582897
-0.24936150860056894,0.4945303866810804,-0.1802467962550559,0.20667577035453955,0.32861770578459903,-0.3253198247609601,0.42548442319292745,-0.2518713144334652,-0.23855515570478814,0.005599534265188111
-0.24994400113571136,0.042959575698347185,-0.16926530755723246,0.018209634005120212,0.1208299919266016,0.3489640117973607,-0.15864226613508936,-0.23441945045779955,0.48003729211571333,0.3340631876075483
-0.02101949428795924,-0.4525916606328966,-0.23315256092264214,0.25573810370863936,0.021544879092481928,0.0981073318433957,0.2654941223197017,0.41431446125970306,-0.3993886985380921,-0.2693200042092634
-0.3932665634109291,-0.45043245595681536,0.04993403150256991,0.16202584046029553,0.15831286402828829,-0.16199561041948368,-0.31967456005173395,0.4046825180126647,0.008055130246314515,0.04994004027914001
-0.48692120533613814,-0.12877577704669096,-0.44134238250424296,-0.25829100001770533,-0.19789333631322617,-0.4184131998714715,0.418913060637112,0.09439865112135774,0.3409420085628438,-0.04097461713977475
0.3993669916672144,0.1201874295705899,0.20101417188738485,0.18942566444284806,0.17317275065860158,0.3190679336479808,0.25518470687335004,-0.1890808115512872,-0.2587169127442734,-0.30078414097341194
-0.2755728365305991,-0.37637242216832023,-0.34081468538695114,0.4292453741839596,0.28156157085988653,0.2975326250286359,-0.18776234931828373,0.4359633014055563,-0.206144347991465,-0.09722563181506569
0.3946341943479654,-0.5023739159574124,0.35459925984103474,0.019470453139327756,0.003597758793314824,0.044526251088212905,0.26269077973845967,-0.13933508774959097,-0.27737950782943505,0.20974999737603794
0.22813445670745194,0.2666166768659545,-0.029287192559205883,-0.29549479877880147,-0.34117950823904014,0.01650098335899653,-0.3903520473425732,-0.48372032523246083,-0.2771715565461324,0.39676603823742046
0.21237136247303703,0.2584918829667867,-0.20084872946451474,0.47488598765331114,-0.8063892000729006,0.2632140410990356,0.3340729683561289,-0.03868472625269294,-0.0355104299868281,0.3743359099788254
0.31557981462235357,-0.41473645669550674,-0.34492949975379245,0.850585727007102,-0.36351010991353777,0.18898600951832556,-0.06901962729580298,0.10180196418468693,-0.5994374507626692,0.15152657000776007
1.0158307913751976,0.20808161530006314,-0.4326646166451899,0.9036739212149987,-0.9972061994359861,-0.8434305811944471,-0.16864899556480129,-0.3384867801967917,-1.616071198190556,0.2971956140217513
0.7028354136991647,-0.35392404101745795,-1.0287068968740911,0.5704433011423967,-1.6126879945342767,-0.40382147220910697,-0.11887681196457658,0.16014802632418834,-1.2508910077312,0.41318390353784823
1.3740114459788035,0.30924606573912644,-1.570206163050413,0.2308521662325674,-1.5314263757507416,-0.9051498999342479,0.4837793224831628,0.10335902714605885,-2.21840732270469,-0.3104526933176748
1.3979283285776176,0.7394347964500584,-1.0808514988779534,0.7205095201600908,-1.8810841890142433,-1.1445776827800533,0.028260432620747268,-0.5851591588951145,-1.8334690573096109,0.2861387178043036
0.9624208157737576,0.42479789314143157,-1.7562986232407258,0.24679978561365434,-2.2233231632794306,0.7046255719046799,-0.21820348273795648,-0.06091688282255854,-2.5892349511639656,-0.1907654265226139
1.0942271318518402,0.36582830062286037,-0.43826486597473735,-0.3144632265716062,-2.671468052853005,2.2008633356173446,-0.05877311987136489,-0.4096919545139503,-2.4899278807897827,0.08057802977550484
0.9026930913364685,0.2824473660237045,-0.3857691148108154,0.5775513445914011,-2.1069948051280107,2.703653624108164,-0.18639580830190733,-0.24661978499244758,-1.9468931283290647,0.04842717681215924
0.5081466409049009,0.4528565600204895,-0.712499966738087,-0.21858994875087573,-2.4585969925410036,2.0615813809763943,-0.4971459453950584,-0.2412823042210102,-1.761443840098515,0.5610650603531335
0.4621653449339187,0.8255707742878181,-0.50376461796299,0.45332620193604095,-3.058396876730058,1.1854328176864148,0.23982440561920684,0.05392364905184039,-0.9766281383780969,0.9284523910394799
0.5143680266766667,0.5397533131565618,-0.6264030694988026,0.43420465750609216,-3.4037331490441507,2.9998567591440173,0.3155439873863888,0.5806967757075785,-0.8404159857864212,1.283696807469429
0.6511741434300035,0.307503739369027,-0.8935343487795333,-0.4377740763426544,-2.5598195577598863,4.2276139360787335,-0.12051325829454365,0.03154592233953489,-0.7440533960938046,1.678719193622918
0.2546512011590528,-0.713926782425598,-0.1949074155808963,-0.752109907597779,-2.153862737906564,3.85963794802775,0.07020854046317752,-0.36800813865539195,-1.003079810087827,0.5525589708679501
0.06331501784454407,-0.08231757273922378,-0.5467852934503405,-1.3146002585987362,-1.441343674018849,1.827000913451173,0.15833798818629455,0.19462054887306496,-0.7844557525665922,0.3715029073428246
0.25043742568801974,-0.5531125274777383,-0.3763455924959294,-0.42335917956960445,-0.9297230307981812,0.9405274260437518,0.2452278959962825,-0.4870595875438292,-0.11567662075685663,0.22238625999605452
0.06974210221793772,0.3445811788397304,-0.3914730938381807,-0.015903929984086712,-0.20598827292889585,0.2394432618039435,-0.3749374315674228,-0.07607503186381642,-0.37275580156079163,-0.32648702470685415
0.2235974372276818,-0.41895105844546515,0.45859323863746804,-0.39585146093291623,0.07724264311031452,0.4198270987170331,-0.35052121706412503,-0.1544410722871162,-0.05362452273680104,0.4363644378224179
0.11867310672076309,-0.3528543518078235,0.0750436529609022,0.4156590017419165,0.41171378027199196,-0.4132043033544568,-0.3812686005068094,0.34861265188762736,0.2705521697635262,-0.4065032861421543
0.017263140156305368,-0.18977746086714165,-0.09497345156823489,-0.3694650979249986,-0.23787525452481972,-0.014041241340366772,-0.29857305940646806,0.025956089676943295,-0.1359482687013075,-0.4559553762070283
0.41528096387883384,0.43564752229803894,0.35238161503871457,-0.26505234092775354,-0.3733934525427254,0.2855137685908832,0.2429915903746238,0.27793837593032866,0.07609757175101861,-0.1326716574625071
-0.44706937126924495,-0.3279134772255351,0.003491281319114283,0.24089975114721227,0.2961168163877889,0.3390340013784408,-0.3974726528010285,-0.4220901604855934,0.459006041416097,0.22566527221104635
-0.4755764141644518,0.357342712409962,0.3828126356147346,0.1400338880472777,0.1554465640734011,-0.3428809009703559,0.18529699542333342,-0.2683613535583578,-0.4002118823359257,-0.18820348205427048
-0.02336939282472786,-0.4814292258904367,-0.3181546163207954,0.29493213857631556,-0.20486725289037389,0.16571711666659686,0.0995442542836986,-0.44895151682663814,-0.012993781897690614,0.06470086188971434
-0.19754747853310822,-0.023864862305756386,0.272455650248391,0.009224505138095713,0.29505034170699573,-0.28424016295076343,0.16122840529267213,0.3753599462143158,0.5080887139607775,-0.5204715559166639
-0.36757737169618565,0.636613836167846,0.027799887186503617,-0.5170330924836886,-0.8151238537560278,-0.439983822000933,0.22808558944903434,-0.03577961867284857,-0.11849644291430673,0.203754485818859
0.3731905534755289,-0.09128823895612256,-0.2307082895955562,-0.1287101377900428,-1.1257160093476672,0.31345341964777645,-0.1590334184049883,-0.24262468609639593,-0.5028316478092842,0.550716688669735
-0.11438706967230987,0.03567683560284231,-0.24271451712487144,-0.07634364045782496,-0.6590113113921513,-0.4779029429041168,-0.21838584749550363,0.23803118647118487,-0.36410879461149875,-0.15010440180181825
-0.1386745674308899,0.6472964071098377,0.023748124760393424,1.4076994491490142,-0.8596890784049224,0.359413680825845,-0.10050830273349108,-0.406733100336572,-0.4589806051074219,0.12166556106063028
0.15693168926253426,0.49143577404525185,-0.9667299077626745,2.3240693166918494,-0.7826029345322625,-0.11605566295241813,0.08898996986548793,0.2657416245437538,-0.49516428793619105,-0.01687791482285523
1.154622600227161,0.8831057817642619,-0.41576437086873946,1.6386299234592072,-0.9961056931879173,-0.6522587718155551,-0.30229559843377474,-0.25552406976531916,-1.3076152107113859,0.07504142089018423
1.0710865504682217,0.8162471019396766,0.03088522376529946,0.9262895043581022,-1.1456636471213797,-0.37167170618524403,0.43882699600567343,-0.2544561714110669,-1.2145418209650254,-0.31029183297636287
1.0570291773013563,1.0201106201772108,-0.9266440703597385,1.304287414999842,-1.5737428117992673,-0.536228018464962,-0.36511201006643956,-0.2493501167802098,-2.203461730504271,0.8437578455696808
1.5079387983168897,1.1912893176495487,-0.8577970551477458,1.2058011765770669,-1.5840827506196409,-0.5241593408270607,-0.3734704368650753,-0.09040976396006804,-1.3266785891080182,0.7681148500000772
1.2142595654461201,1.5902011412572892,-0.6331639649057965,0.21033619403045914,-2.2853453799472407,-0.377402264966366,0.09098500477301576,-0.42450386755178454,-1.1307485357594471,0.40926641609579906
0.42432401463288455,1.5350661934885712,-0.52450255426982,-0.09876996948143592,-0.3087292492686671,-0.034441279016077714,0.027612803178207575,-0.2447265602708281,-1.112310707365191,-0.8507390057305587
0.4690993264832685,0.7313384667556706,-0.4197719723298818,0.8655301030274672,0.332451817410853,-0.10214726514553289,-0.3328282590056882,0.25594606011746773,-1.4141615932292004,-0.04996550613766292
0.3578942576650083,0.5314866588247807,-0.8875930015512841,0.12229246363714542,0.2391190878014486,0.6098979229248955,0.34384254564683175,0.28750868625108256,-1.4099325156430447,0.6938218630907511
1.2341693737368369,1.4711325890322215,-0.47718818779134436,-0.3645041547686902,-0.042944822917313275,0.7309676580460729,0.10703039019044311,0.4460928478124583,-1.7344327811992672,0.43265389211925237
0.3922436183111794,0.458761241449766,0.1317579520283819,0.45434018281586636,-0.439289640912048,1.9863427885920364,0.29382251028842066,-0.08145731006520535,-1.13375589715586,-0.22104280339226756
0.6820905008996099,0.22735024967867226,0.8075903570755257,-0.511970551635392,-0.3331871907375232,3.350954532094283,-0.4353032962579015,0.3113553002484624,-1.1616921789765702,0.5661068893068821
0.6275853671369229,-1.115383893591733,0.5471810345784114,0.3116635157959659,-0.2039908431541431,2.557703856148121,-0.3005953345513936,-0.31092630643856,-1.1289674687576774,0.2947453099295544
-0.4519666594147886,-1.3309772538690765,0.4861040711039122,-1.6171892242648778,-0.023014330600120637,1.4723420119097799,-0.08453757079159853,0.44244768111999744,-0.3477698192155046,0.17254654991262475
0.012152699215330432,-0.4375866693105432,-0.10041635642371226,-1.3663015382991706,0.6012581938508965,0.22126576637346868,-0.3931153527231152,0.21506898035917996,0.21401208149559803,0.21056320184230862
0.2871699720790688,-0.013045664977510717,-0.487205428128871,-0.6640766279579751,0.060783880120902356,-0.0894650967821469,-0.4328355271030483,0.46357360095592176,0.09369889468457553,-0.22630184572699352
-0.288282960429298,0.22004110822037096,-0.2940396247299142,-0.11005950553172285,-0.28827285376924283,0.05784749637462316,-0.33808275411632127,0.3738613354239883,0.3012794158198472,-0.45444495842803456
0.4414908881246963,0.20255826788889755,-0.2571413032034114,0.3505317647916913,-0.2310805889888045,-0.42866771661151715,0.10534443972165468,-0.10813784108611173,-0.05172895209434818,-0.13607650254810644
-0.4280333977955823,-0.3893930887162656,0.41238893952559497,-0.06470131420921114,-0.18492092451809933,-0.1445426840310589,0.1176328156052376,0.19472311144628418,-0.225107032963047,-0.02249076915272861
0.17313470488167337,-0.14286364493082193,0.013155503784096467,-0.017048652674013787,0.03916846145966235,0.2875618699081167,0.47623691097251,0.01899340255563553,0.15946041386219745,0.40157494095267265
0.18181643253057345,-0.17643484002895715,-0.13485125592144032,0.22594204927170236,-0.2875379966441082,0.015609988569743383,-0.2424093967615153,-0.3894454611671242,0.48393444875398106,-0.25798881744618696
-0.4041242317696065,0.1387640529900114,-0.28592747769488475,-0.1288643918540692,-0.19702261406253643,0.32282261026030784,-0.3248008256650174,0.4499225982989648,0.11625405217545418,-0.1686835353405264
0.2774866705388246,-0.042404028662193574,-0.09449663604043161,0.01516809721168729,-0.3838936000854579,0.38140707501000276,-0.2414135667608906,-0.14381024930107036,0.370637499071873,-0.35177986370461845
-0.2880193497778633,0.7889917358311471,-0.20582622250569116,-0.03466696514559716,0.0797282719287589,-0.6188791318038726,-0.4086978906429852,-0.5650690461888445,0.32695476579362953,-0.5065265632247641
0.28720896623690306,0.8351396792176232,0.1612910713206889,-0.2627381936491613,-0.6990907907543463,-0.32362014306998566,-0.29005636144641544,0.1105205778423669,0.19701175011860197,-0.0024481071968880134
-0.6630845928462051,1.3036420908081066,-0.2616027608927932,-0.27883340573705107,-1.060060351769675,-0.36122547396014215,0.40541748507494646,0.15382015691416573,-0.13992220366467956,-0.6969746851479572
-0.273536675991974,1.023604250815462,-0.7687051614430094,0.6780660231136162,-0.9576622034246743,-0.634319258464582,-0.009950708993229546,-0.7364244175792781,-0.4400485900470085,-0.1495087012221555
0.026652553789178378,-0.10557286948175611,-1.2617767087451561,1.113336053639414,-1.1834996652369076,-0.7144667179047385,0.255236368678124,-0.2413483191479675,-0.9499022313211186,0.5905334224161779
-0.929323433329683,0.8341871788503,-1.8750964324880142,0.7700875815263759,0.027812096952802446,-0.3153476313790782,-0.4605063967868766,-0.7912532283908099,-0.9542317165995915,0.2290024825688444
0.29942198906972645,0.11953497323633012,-1.011077683785491,0.4531441226808351,1.4036504493930808,-0.08570748885963327,-0.18518250887167134,-0.35850716189495635,-1.4105630895535515,-0.24272459407239527
0.35946416580450846,0.6968226967844583,-0.17990199638172757,-0.0427298538464499,0.26993748827221664,-0.18867210762527423,0.07827226231013538,-0.2541148536256289,0.12005991940024244,-0.2838511062841084
0.42098744114348347,0.4996815004472556,0.5395683675250195,-0.24772596069783306,-0.9564161822555998,0.4293846780473533,-0.21690256256605647,-0.40187514957208564,-1.1575418839746265,0.3024689248769768
0.5690590610339861,-0.3312159933650166,0.444334479446623,0.25423551873089706,-0.7799027660585283,-0.9761173270075112,0.23116440639696414,-0.7892613697261522,-1.27341121675509,-0.0581299398629503
-0.932863174160649,0.9447684383889451,0.535570423053852,0.923368029332988,-0.7369885375908094,-1.8498351956446073,-0.23520256011524882,0.2911519938204134,-1.307210471538456,1.15024027905498
0.13159528397800557,1.6440867410901727,-0.18264090349122503,-0.11798423910414658,1.0913381199749883,-3.2922807230504096,-0.3319282850947319,-0.5761300609517324,-1.6171136041475083,0.7938962989829693
-0.7773925949603517,1.5474518975225398,-0.11889862192384387,0.9565162641683165,1.9323769963302304,-2.5087357258551206,0.32154389505204506,-0.14668774920766928,-0.8061431680380721,2.6639614276922337
-1.1344120350373985,0.16650798664621014,-1.8151579139804999,1.4394833049367495,3.2195968133581876,-1.175581399075985,0.030721437447923626,-0.14952944752428507,-0.8338660617644646,1.7225200310406739
-1.0999927566076377,-0.0707507373193175,-0.655425734125462,-0.4784385230778495,1.4727478832822964,-0.8855765666440035,-0.06563894422894405,-0.38772842893832876,-0.34922543793297245,0.17159012763438106
-0.3390086270662946,-0.5628268163136647,0.8214556277395633,0.34804067334986394,0.0731929905317151,0.1689015453551364,-0.0868056706413668,0.328158244526624,0.17008887457770114,-0.6321121117998023
0.6969963014204964,-0.35422423187317426,0.2443302336869179,-0.7378872675653867,1.6362361967199992,0.5264178266815144,-0.1714305198610351,-0.2583654587233878,0.3002378896070476,-0.05291018591080471
-0.2776782249784021,-1.1852767712971939,1.5090809870669217,0.5016444226802687,1.550046378388078,0.36297329061721023,-0.2810860119177655,0.32810130274073485,0.25311758880311164,-0.6690850754932182
-0.43378438178257567,-1.9034332253854387,1.0685598115893582,-1.2144287211984501,1.2770657307882098,-0.45421794717420455,0.3041423205251159,-0.4459294376525388,0.6817195569813396,-0.06190751462303142
-0.8655882560196502,-0.8879380566383184,0.5399078922609122,-1.5503555884329863,1.6852217791220336,0.5562990338799366,0.3634764441186498,0.45182496849533244,0.9126033030469508,-0.026594622972458584
-0.5152207745288984,-0.12097026916981006,-0.17659268735576777,-1.60793160716135,0.3332523493964898,0.6325352926344765,-0.3310594476278775,0.0985146938574107,-0.2958631011091693,-0.20505884522867182
0.3207334465023408,-0.4317148824347019,-0.6198936151820681,-1.084932360162937,0.9367175219690876,-0.29944343685826746,0.40567225139975316,0.48221928396898467,0.36967627702201056,0.25554346116760507
-0.26728882021150774,-0.0740586878288607,-0.5974907171639986,-0.7446170046747421,0.18928900098042598,-0.337678787079009,-0.3555778442352732,-0.46440534418590523,0.4856935015083502,-0.012929460754252496
-0.41435207683569486,0.35929324007657315,0.38294834987174414,-0.4374383901991304,0.018315082633019703,-0.2050071244228079,-0.21700914789078712,0.3406570298420283,0.06157446458663036,-0.37555312511210004
-0.1809901222869854,0.05789454724688581,0.4255962893553804,0.17341657115330267,-0.10003379117475353,-0.41440828084298,-0.23812391582557435,-0.34930479734099174,0.49428483953331814,0.41192996192879194
0.2847702716907789,0.4483639779487718,-0.060639048955107744,-0.4347865863317793,-0.36890119563683466,0.2655684484553662,0.3911106424358284,-0.4915571202327951,0.389570683379279,0.3055601356659505
0.30271578946724464,-0.5210754881132418,-0.0810250574467167,-0.2414576225388493,0.4012210743976839,-0.008203002522766624,-0.11876150602709182,0.10324836620540424,-0.41124888380705343,-0.46890009769346797
-0.14121032064179803,-0.09958005012117899,0.34479176974005943,-0.35407778477464874,-0.3414253693318905,-0.18321585100697738,-0.04630081422801737,-0.20603502463807796,-0.17681178812564532,-0.35554452807633713
-0.43235224742590117,0.7528218798333401,0.15093412133639802,0.08815024013619265,-0.5000167259439473,0.06850137270880244,-0.13703413562985908,0.37598326358857026,-0.576044317946896,-0.015408641559259235
-0.4620725396000917,-0.03006466353388028,-0.7419126789013529,-0.6094133073160649,-1.7021403656633662,-0.17942429771002708,-0.1576442797959576,-0.25294415785515395,0.4765370264709063,-0.05928279726114415
-0.6568570179623691,-0.5470532235653566,-1.0720119468871736,-0.38924246460892997,-0.7656930501993535,-0.3901332437801183,0.38912469267862704,0.05342583147063438,-0.13292870237272675,-0.17327516848212704
-1.1522274092341789,0.5104267616583343,-1.2213513718450206,0.3579750564467034,-1.594505101520873,-0.1459677819121736,0.09216724818937674,0.40497593003954413,-1.155392647479031,0.02258167270712199
-0.057159465318915324,0.11073080822574198,-1.7633518005252007,-0.5753776279855773,-1.1703196360391577,-0.1901486085509149,0.22370520870333702,0.0751663207500247,-0.9954030249483257,-0.663403469824906
-0.042176047492979894,0.363021292081353,-2.685384426745024,0.31094204676189224,0.912821798493491,-0.30813918399144946,-0.06137319553111983,-0.3234945882966318,0.17751536237821045,-0.05844892727083141
0.2737465654105554,0.03744441870685616,-1.7172106531829479,-0.8379996791290288,1.6948203871014347,-1.6618520607804335,-0.18141388063067931,0.34124793040127976,-0.3120712507242174,-0.679030694832896
1.1220260868510474,0.20183077089175938,0.6611935387885585,-1.108253917171952,0.8134168082855173,-0.44275228685966356,0.4319760721657003,0.3107034065501933,-0.898071663478877,-1.2471178361658564
1.434146426693178,1.7707666473999921,-0.4300711446181201,-0.31932636004976944,1.9078152637876469,-1.606661883413197,-0.38938570701479464,0.3520823181962959,-0.9279004960147152,-0.6824618929644494
2.703341792516291,1.51369470773042,-1.1961954306741138,-1.5047241943850824,1.2488195604517376,-0.7631895882096495,0.3119944876932586,-0.15449540804912107,-1.5337529136511991,-1.6487704170953954
1.9902984238572647,0.8378447819926564,0.5158982243533211,-0.4026284197446167,1.5393589979741091,-1.7603089409904635,-0.1778079847360641,-0.6858334490668104,-0.6009745692575653,-0.20016876814721749
1.753253348941259,-0.49897331500695363,-1.7771077190444715,-0.15554492771691092,0.44287383479204917,-1.4902416936036218,-0.1078292649108717,-0.43175982826822157,0.1428440808560362,0.6042353441032025
2.251559559961914,0.19887196784292385,-1.6426171271284704,0.48255491626265673,1.2289464016921328,-0.03133108804072979,0.1871634466288321,-0.9239083320649226,-0.5592148099787331,-1.1864782937360163
1.7564011419672543,1.1922146921203691,-2.413102197278018,-0.20271817935174663,0.5166505035029566,-1.0631508731060448,0.004767621418605865,-0.8592489529176065,-0.11103693005399692,-0.8962446021125187
1.1315321926559194,0.5108571816289531,-0.6646239064864868,0.8919443540092191,0.8440444317264562,0.3123085464797291,-0.05496523776650724,-1.4350690292720973,0.5337589063079812,-2.0096147393333017
-0.19587677435131318,-1.4772878164036267,-0.03692632379832898,0.7276790552246789,1.123116882064818,-1.2398154837605164,-0.3901192815291067,-0.37863328615869407,0.7420586454765766,-1.3291233079946032
0.16619863346836047,-0.7841167195789054,0.540623799030376,-0.45185087515738237,0.607968563909827,-1.6406107111750463,0.1563048951287697,0.04554915304705574,1.6885374902359382,-1.5561874043807877
0.059879479873330664,-0.618059932900432,0.5171982945836637,0.04095861678062808,0.5919660837802599,-1.6118746646383493,0.3909942585789622,0.1952160404474952,0.914364310427385,-0.6525148085046755
-1.7152422706456,-1.2782693455048206,0.9049394169721066,0.20615603798659754,2.0933452725063675,-1.0493911278653967,-0.3469691205064825,-0.03192969428871334,0.8755338419760034,-0.4613971442130163
-2.2573922324442863,-1.9547538476041546,0.06876684244392649,-1.3829850185734398,2.3098928279991178,-1.194091001555443,-0.15635936909635095,0.004936324589951023,1.993353722570732,0.2529141737108244
-0.3208550344540935,-0.5537485781460211,0.1859785832006343,-2.1841298515058227,1.9222461799298733,-1.0628464871564838,-0.29872863910314185,0.6557303800825888,1.6170704722417117,-0.4086357773057075
-0.4655336876015602,-0.19841786683994944,-0.40383070893724554,-1.3560616809240502,1.1390709567716468,0.13029347564841046,-0.10036609595967921,-0.06700504064067449,0.8444163852428245,0.19350333589039725
-0.2362352934925754,0.16590048917596256,-0.0743139001565297,-0.033334458487996085,0.05042388514368295,0.3509218612397829,0.15551599405175975,-0.26790161274118074,0.1281345314301022,0.4205862553217887
0.43134954670155745,-0.47365784470826433,-0.10222285997105673,0.18981890920275907,0.26475578661834903,-0.21618463493714166,-0.2414240737472984,0.3108295391984475,-0.2514299715930134,0.15079882073829762
0.13189281920683027,-0.0034629155517799555,-0.47236788632707,-0.49229771931611066,0.01849666542304325,-0.25016477240667095,0.394106338056714,0.344584102798672,-0.33348467537389126,0.4609014340514909
0.012500502931718487,-0.24535047320053896,-0.13410248545353867,0.1829469170757398,0.43444618045757516,-0.45700718778186894,-0.4994819171074601,-0.35363587363781007,0.43724712185304765,-0.1513348806708447
0.4288524733969313,0.020707483553760966,0.20616735467677366,-0.33364000932711074,-0.2175055288779938,0.58501435012661,-0.2898774445401401,0.5253389483399025,-0.17266352377696695,0.25672120357980116
-0.1407231900277264,0.18662683383168138,0.3297893077755587,0.31300839889179977,-0.3091965877412198,0.4009126120420134,0.2930552275294159,-0.1632921579586208,0.3124379322602839,9.980985020412434E-4
-0.6226191196208687,0.37896191088788744,-0.03314066474801443,-0.9633309130914818,-1.4818122012427952,-0.42048084177873474,0.2715496375501259,0.47659660696755773,-0.02574538936925401,0.13993386939706684
-0.8268359031140634,1.1764112519657204,-0.3679581762989466,-0.867445153836378,-0.8076178067861232,-0.006888998205817956,0.1671224821149442,0.12842861100996034,-0.4797893954120864,-0.2900046273172083
-1.4004735638744983,-0.6044548030762391,-0.8293525423325009,0.04061914579620485,-1.1188097075474843,-0.566253746684465,0.22679155854997451,0.019010382153495597,-1.081469417187344,0.18218730277769268
-0.21275730001036214,-0.10318375510775842,-0.9580602008848877,0.7326400401198271,-0.4645331695628317,0.39117637771571806,0.17543421531406525,0.7136039286652375,-0.3393243447549416,-0.26332177445174143
0.491646393237691,-0.6508369558414429,-2.1395844897598626,0.6195585701437912,0.17361838641089727,-0.4703256990452561,0.2790911108718533,0.014782426941912744,0.2707268485098406,0.23775094694021076
0.6488737700702627,0.3275208576473308,-2.4199131913586833,-0.22368411208846986,1.5486420216651422,-0.8381666277155322,0.3502272167284407,0.8814938409122711,0.16894240405663544,-0.3527838072300131
0.9497373110486856,0.09838918825712807,-2.081626792495944,0.5610641063849907,1.522603320794075,-0.7794151913005846,0.296416837486377,0.5401153330249421,-0.8260195501269378,0.3112274267121758
1.9870086695207707,0.2961408110392916,-0.7834135838007419,0.24258557805821807,1.987355084561391,-1.3515186734662654,-0.49304930369665434,1.0544097260974714,-1.553293351557995,-0.2100701279972186
3.3621724445226797,-0.20107000028671942,0.03409550390637016,-0.06287047653705974,3.03782129037666,0.12233131854729677,0.06632261291189077,0.4913301654291157,-1.3250592795264164,-1.822886358385966
2.081769603477052,-0.5634421424719067,-0.8707239057304841,0.4564557360807687,0.8597398158272775,0.23294608973058112,-0.4841812079730781,0.0906290748427663,0.16933377057431503,-1.6680226192120202
3.4867822126487718,-0.06344601213247528,-1.7601928922001173,-0.7255060582744858,-0.10039441983173225,0.537156960566948,0.09664858811708014,-0.4623599525087228,1.471598939006944,-1.307138649213903
5.736659184584992,-0.42970090063914107,-2.0885645050118766,-0.44156301817303406,-1.2998671471696397,1.5731568576965693,0.16317667861620713,-0.7480916247151833,1.3437814139939996,-2.418645833524195
5.141028028337105,0.816229129903795,-1.9181795226452103,0.5942479052224496,0.8681276848015848,1.0879914375604192,0.019221314439901143,-1.2940339568017047,0.7324047157571001,-1.69164246359857
2.543562120085818,1.0504784207154776,-2.1145389560250196,-0.26203316923292186,1.8225561314842,0.9179021299190784,0.41514845931555766,-1.301820814865677,0.7771243600060086,-1.996911647172703
2.1565228204195837,-0.13244038396216334,-1.4997066844198481,0.37740400210705616,1.3631280337978868,-0.39484570364356525,-0.3299000170838416,-0.8013457169258367,1.681117740656937,-2.175165398754781
1.5142244281474597,0.1840031961493717,0.697900814391509,1.7728999677890591,0.6207427128086528,-1.3194078786542387,0.3899801940840262,0.5232497516286155,0.019151545467005954,-2.0815921345751462
1.2013710976642376,0.5883593599846239,0.16566363448423393,-0.274347765113251,0.9831613543123967,-2.323321309674311,-0.2979004954759588,0.583275601046744,1.5198807480044167,-2.1078302011159797
-0.12859064478820853,0.12225533839034992,-0.4694413050291669,-0.03091972380753339,0.14878564697484745,-1.9411802139955807,0.2411779729346737,0.19538818638881197,2.020175672804781,-0.651291739659459
-1.4809066870310728,-1.3529815721765044,-0.6588773598207829,2.566046191111096,0.6342678557951853,-2.4817614069273346,-0.2992771741158529,0.6079206253309963,0.17175110761547105,-0.5806322348816566
-2.0398987586653705,-1.528250190920279,0.1607922783523393,-0.14765313787430265,2.3859416323862783,-1.6177786579112867,0.4332806096956959,0.9715330404380064,1.4155021825233653,0.3235206290413605
-0.255527148381524,-0.6855753900947958,-1.1241278607172636,-2.454873964190207,3.06938843787489,-1.5265537196995265,-0.2488268919491968,0.496854816864845,1.1178730299974655,0.35097992400694267
-0.2520145241895185,-0.3096687691567248,-0.5804655891621733,-1.6753059897649711,1.8064127816198767,-1.3655399613055714,-0.10761094840549833,-0.08825636105777947,1.0253957946438501,-0.08668966672827393
-0.11337135412861425,-0.11637242022342044,0.44861828320383235,-0.5001191998929407,0.895154050147404,-0.2787947792696161,0.38280988394613996,-0.40921159606680607,0.2244580718454701,0.06033922463567055
0.24446099216564282,-0.14225333600077933,-0.10779907430784356,0.4514964993671002,-0.12278198947366202,0.3292040476163314,0.2296791064877208,-0.33599672442250184,0.2605195949592676,0.11645927816201991
-0.07179003946845025,0.31718387966977213,0.24222989474998202,0.05801898033344946,-0.09325463874267861,-0.26164370965587513,-0.4575116714581992,0.2320360578589452,-0.3721478720621311,0.07144725482870638
0.1942587481798292,-0.13289679353092254,-0.11748332680037878,0.17892788419024536,0.1535061707521283,0.3991006580993611,0.4586252383206927,-0.05731916462300158,-0.07163798239741823,-0.28234617561109926
0.23202850346324533,-0.28045641660179876,-0.1610516559053685,0.36042028687785466,-0.5049261443228571,0.36787005071060214,-0.04356435117451608,0.5334816162627877,-0.23868449876300019,-0.1379425289735693
0.10275436989384786,-0.04397635621699834,-0.31680155815900385,0.4618318207277874,-0.30607905142993025,0.34633146800428966,0.09819724923218306,0.0640827258296771,-0.6538137842991303,-0.16633132231101108
-0.007651990579745183,0.8677125022676603,0.047802307657290696,-0.23926143195310742,-1.4272266955476511,-0.003919654615611842,0.2835980625705317,0.4974087268966747,-0.6274128567640538,-0.5808439705776723
-0.10604614721006568,1.0199186315440727,0.17062975704123653,-0.018616284655378186,-1.228899731917262,-0.3380298563830365,-0.17689156815810902,0.968309815075542,-0.10917910398903061,-0.2481658014674941
-0.36051939151981593,0.47569485664915984,-0.9736007342396293,0.35710024161242376,-0.988809088320364,-1.3375216640526977,-0.4527396834818866,0.1617555662120789,-0.5109218728462847,0.10848278746488595
-0.6326219063113977,0.7542071491285367,-1.054871839955669,0.5106170099222515,-0.20507872382493003,-1.3312297132560356,0.04710203180822565,0.35382097659667455,-0.6529668293396274,-0.48591219828271753
0.06936553154120836,0.6797653588319895,-1.4282452237449317,-0.10730188074031319,-0.002278595904623729,-0.5643867917171911,0.0052557592445195865,0.48722743250133776,-0.736447664643124,-0.22425838014322536
-0.16252923604905414,1.3096830313053338,-2.1355923771291407,1.2358992107634987,-0.44686165409900325,-0.7769106879557581,0.07441549686847296,0.11034197288138864,0.4023916398863377,0.1404260782825229
1.0264214133494083,0.5378713165309676,-2.2443363616458663,0.4011549581907224,0.17536463596270643,-0.2724194621264848,0.2506767590502062,0.9093625127847773,-0.722639741484398,-0.640873966956676
2.0388487448309003,-0.927823729341725,-1.1331347807524448,0.625103955864498,1.288797004433232,-1.0633155566849706,0.05201613654261858,0.48937297353504283,0.3254683123478814,-0.04811213208842672
2.1473984872546237,-1.6367537418105633,-1.4666211459218454,0.5540955348229863,0.40459772432501256,-1.4752871230168234,-0.22849782570886415,0.02510042105708488,-0.22072008941068277,-1.1316348345455058
2.7006825923795565,-0.2792923947139431,-0.13328614349589463,-1.3686332139067106,-1.9031256421764138,-1.740170536988874,-0.4023394895556515,0.0740012296525928,1.0355600356445676,-0.6321859349443919
5.340678764446688,1.471969774851568,0.3677118726880962,-0.17735223157793947,-1.5114706736275776,-1.0021252131428846,0.12607473381528853,-0.43722679929754116,-1.1348721920316638,-1.4536603298822977
5.85289486657013,1.007451806026457,0.007945073090495806,0.5701037954491578,-0.8928332103917049,-1.7343967823308841,-0.31570511956300995,-0.2359516845237751,0.2126244437142938,-0.241819139065799
3.9570857248602493,0.8341305345053355,-1.1888197194941312,-0.41295551333571745,2.614126322219354,-1.2684127430601377,-0.06501907270613236,0.30062136877784346,1.2323307503450533,-1.5479109413153236
1.827721586194424,0.2284744137010623,0.41730839252713403,-0.16536366539553687,1.3122789813761633,-0.5152058344430519,0.25291254943084884,0.5341894775215092,-0.6080237529941901,-0.9243349376498796
1.5267963457775806,0.9386722090411538,-0.4897403849586412,-0.39890386878519896,0.7371728757707683,-2.2742496946078465,-0.20461405678541736,0.20646077004053756,0.18552449973000076,-1.9622504646573502
-0.324092993324519,0.6461155052263554,0.08774233291541654,0.9058377822688295,1.1759348921471793,-2.6758883131011397,0.2821514531987948,1.2527709608620412,-0.8872122847954241,-1.3640014555348314
0.23921390727333028,0.8281402460988357,-1.642491048368355,-0.8356077505123685,2.3654207673909124,-1.1173311288412122,-0.021935368497980633,0.4624010852867859,-1.2497309950640847,-0.6714911006781477
0.5381308539343426,0.1882609540179757,-0.6404930692708037,-0.9738756924271359,0.1332857989492658,-0.8263506363477593,-0.1401889893981879,1.0800554558187883,0.04176336351002539,-0.6904238580952718
-0.5542450099582036,-0.5142831481724862,-1.916101397829829,0.49297956928683706,0.8832712255226657,-2.1493175572565852,0.34686409580805644,0.5305014087969413,0.37948829720607324,-0.8196595842433592
-1.0952134927229626,-2.983598810419475,-1.5320652495660272,0.10041257129386925,3.7769422763307587,-1.7568814935304469,-0.06505687395089849,1.0063606727882104,0.42499550441014267,-0.34835616029047867
-0.940102575884303,-1.8176795884744152,-1.756191830511132,-2.431417293453938,4.828762052036327,-1.6748796763038438,0.18117608017170347,0.6579783647965638,1.3732228146192265,0.4556635669094945
-0.5290294129847152,-0.21689089348857,-1.0378451024224211,-2.5391711479365746,3.116090468232906,-1.902183957133599,0.21484545568428687,0.6325177329862263,0.4489208872415949,0.18262066064726637
0.25559885206356364,0.2141447261335781,0.020183069315017493,-0.3635106765247454,0.9511267534347124,-0.7196288884486849,0.03901105679683008,-0.20652777215910703,-0.23417448125815557,-0.4539678016204485
-0.3292499795017616,-0.30746744204247106,0.05966847293976621,-0.3969673508356241,0.42194274301197193,0.2481740942838388,0.22511980884959878,0.1022321048803689,0.36044410169205376,0.13426064702780177
-0.16807731728134495,-0.0396562513095749,-0.039952043477919856,-0.3694416935973045,0.4627922533947868,0.382106064423043,-0.13153960648783722,-0.27309023105972635,0.362321259529247,0.30510887827373445
0.16652207803986735,-0.38478445809666895,-0.22981722450725117,0.23862087785475067,0.3799094126330469,-0.3938004834513117,-0.4493184088456253,-0.14254877234628144,0.3149592058586256,0.05951878363135956
0.10187749121491653,0.10286108953682832,0.47200375654737203,0.14772257256463928,-0.5045128388942353,0.528740818185025,-0.25518191806149565,-0.26481064441126295,-0.6526954533334566,0.048905897782782586
-0.1737368860095851,0.7287724522152094,-0.2730199552522009,0.8723914525437858,-0.18966650676903937,1.0941867440760078,-0.10611924194888243,0.26158535452865755,-0.3263202785554426,-0.16399206140683104
-0.2792873286265056,0.18775231903187567,0.10646588390446327,0.3000768771375027,-1.4975076434265668,0.022390437997200724,0.06676138388459363,0.1562203036441783,-1.0939282498180247,-0.39650299128999894
-0.5229376456506708,0.177228171424519,-0.14826150065543703,0.4825347213186133,-0.5175184296796652,-0.5905621279704474,0.39665290684072546,-0.15499524712583498,-0.08150899717309665,-0.5199085355511812
0.23218731899883663,0.45394420124063656,-0.29167679554256887,0.007995922723254625,-1.0690880017002875,-0.8137077247026929,-0.21907325196164606,0.2841246352653345,0.3270531743021405,-0.6330010099439853
0.7189103813048964,0.6554577658260567,-0.590766102361154,-0.16695427380133823,-1.457790508884902,-0.2811835838335705,0.20004723073600678,0.2689643503086047,-0.8472604865763037,-0.2869808584842059
-0.11254558630973815,0.10341460417986591,-1.2786004609365564,-0.034946722576293575,-0.24599699781454465,0.3984616346968572,-0.07953848465339158,-0.2030307316787971,0.16353176533123695,-0.5873809466329507
-0.20660447006068533,-2.443720398840756,-1.4164308286764808,0.8685161723153382,-0.8564530208297151,0.54361961172329,-0.10345326491379994,0.4851155650524305,-0.06712453660285331,-0.3375142441205189
1.8650983865650343,-2.692649132871116,-1.2545553879481313,-1.5257041717491249,-0.9656411368952059,1.1817481962524943,-0.3496897571873265,0.2001206483766485,-0.5018933997547581,0.5645875103729271
1.009156883648514,-4.141285972144339,-0.5531783547396564,0.11901423636165033,2.2621539169150187,-0.4284710036366307,0.14897462645467247,-0.3554824693767229,0.634529272797921,0.22206690721720634
0.9294280689718062,-3.8256877795082374,-0.8108942668219867,1.1194718503105838,0.12249066337778501,0.06824337689824124,0.21596424817438714,0.6423020644149809,-0.6188445773247385,-0.1735597613640236
2.0454881693154903,-2.450925220054516,0.05334489875884586,-0.6993767577029126,-0.25818617762569407,-1.4348742680261164,0.31699439627376963,0.4090033490935831,-1.4765856689763404,-0.6408092014447132
6.445112326151212,2.233477984204449,2.029778738379179,1.4169140505000435,-1.3905572025886723,-1.0488782094045124,-0.10659900559032152,0.137165399660368,-3.0272421868504593,-2.205860260186363
4.130759897797242,2.3009785115043364,1.995442423531193,3.6355889461950928,-0.5813894627208911,-1.0029138862635494,0.016162339110112098,-0.5188617596972083,-2.380994376361182,-2.5244576404773142
0.24835234550635701,0.6564358200779504,0.6951152137366821,3.5866186510695224,0.7886800530353643,0.2847276520531772,-0.030247904617509827,1.5002760852081787,-0.2253533338718427,-3.1275919978195157
-0.0970606972949407,0.8861033932859245,1.1137263591209323,2.7379190435402903,0.4778535766252424,-1.4515669414243413,-0.49836554977929975,2.088434281665963,0.6416911025183868,-0.4606964912210663
0.4894154492024251,0.38848566628465325,0.5187005687807111,2.752136122699545,1.0943551542695833,-2.101431592847607,-0.21349311074021277,1.0832693500155859,-0.9998855971547077,-2.001927113987042
-1.5432675848359554,0.2013136447364562,-1.539537050323905,2.3313147534202026,1.4880171730616347,-0.6630085657321281,-0.3086342623173684,1.4768015589457104,-0.46276385196004455,-0.9609728142921127
-0.3391818373507172,1.1671030700589713,-2.042282064547215,0.9433218870567319,0.8415446319213693,-0.9758048057185794,0.05844679335336735,0.9633519950231467,-1.564250618290681,-0.4786490097488129
-0.40062362271426283,0.4161765180639446,-1.6342285281383608,-0.633573325608133,0.7380137122050084,-0.40929880953549386,0.10105519927829164,0.37916888957900335,-0.9597733902355375,0.05404376050203429
-0.4957044384364203,-1.4154646316741384,-2.0083269496582323,-0.6542635112619907,0.5596068958649334,-1.0773915712821671,-0.4019594697798562,1.1647984574875747,0.12741628186210502,0.42172241886904516
-1.3022906536528185,-1.5814337750182317,-2.1083920980759583,-0.3901270942452216,3.003822954906483,-2.069281522719756,-0.3147790047077789,1.0835743987119681,-0.20259679214782458,0.684277990348901
-0.820014177382986,-0.2516357162738824,-1.6095512662723452,-1.88531560997728,4.054636532442417,-1.9934865403405504,-0.19654047473788505,1.3078993216456076,0.7696523832344626,0.7770596654923814
-0.2769492722292333,0.34278267428184606,-0.07187888245041274,-2.584845910744679,2.3931476065740447,-0.8634425724145106,0.20840848384667465,1.0404605729241416,0.7699918698562417,0.37459367552222095
-0.18083232103609442,-0.4945154645172603,-0.17948630839704316,-0.04402148230181673,0.4240489326896182,-0.46554650058514463,-0.006200006219973722,0.5140314669254885,-0.23510027867107502,0.4080118597782971
0.1999971422115107,-0.2912669456593874,0.1740822843272192,0.2115235316026365,0.3285739780496057,0.313680558096948,-0.06536138395927929,0.13115745442702567,0.030367002523364304,0.3428082853595735
-0.3967100272692204,0.010759325272467358,0.16788554084763985,-0.25672994527228343,0.2514751863470446,0.29289002139106257,0.38117718784457266,0.47400703894491264,-0.22135032372382615,0.16802575272876552
0.43357554388600295,-0.03973939679505591,-0.2910021050569413,0.29177166584076497,-0.3441972584350686,0.17376580079541676,-0.1460934964141772,-0.2862946488909934,0.1936702962642842,-0.3663357764942019
0.20829376151272389,-0.21363906522011689,0.15504424109530912,0.15174131532030588,-0.4108590587342857,0.46518139214794313,-0.45040413353720676,-0.05222804854339211,-0.3685916474844198,-0.09378121156275888
-0.07143143228623193,0.21064465437617036,-0.07382367330383392,0.613632558218364,-0.1343162752679678,0.30955695029402086,0.4878360904240104,0.6137614105508741,-1.3522074667165318,-0.27303215271578946
0.10650092623316475,0.06598981208835013,-0.33814602309005454,0.5477901719968121,-0.406360925492417,-0.20805214918144152,-0.4057798894544634,0.08086739662335192,-0.5089555811246108,-0.1600534642338692
-0.3847647339308823,-0.19137549040212937,-0.19075146578225305,0.8854538398363939,-0.7325977331662559,-0.4284401875568079,0.12912413179696997,0.18677215704135383,0.36994995698395894,-0.6148319302327164
1.0229348405982863,-0.2747518575816165,-0.8589807214414676,-0.07668426415632791,-0.9718356841348701,0.14195959503555772,0.4054736767120762,-0.2945176403423461,1.121654971122974,-0.7545402353584273
0.4086195962534914,-1.696716693111112,-0.33323755738784405,-1.2201738215114775,-1.1998279596854875,0.7049263514021056,-0.4527991684520446,0.13994963941313526,0.2954157808312473,0.4497443223766131
-1.288128016505041,-3.190282528331057,-0.9557613609065477,-0.5790978482255593,0.9290731487528264,0.8761369763538378,-0.1319112291237975,-0.24623775112293547,1.3840823310434365,-1.4602634643043484
-0.104395433042552,-5.96924445476667,-0.9689918415333647,0.8199333254622585,-0.23611973340704392,1.9216447957040812,-0.12712090513429888,-0.22780918380202103,1.5497802596567025,0.34397350535254495
1.3512980778228023,-4.449423898430315,-0.5543228213697999,-0.41476718827106673,1.3354782368527058,1.0295290763923861,-0.2756477188151438,0.08391258668862077,1.6145871459181504,0.7424033512842029
-0.848038899595287,-3.0259033572955127,-0.6552735762134789,1.2524911860547623,4.120628077435504,1.2929790346476826,-0.22614890961263653,0.1329352234605131,0.6381889208489877,-0.3018673451070096
0.2210918469268844,-2.2347015077752066,-0.7682659680821105,-0.03406939071440878,3.012076096232706,1.848369886483831,-0.2513479964205173,1.6432303053281678,-0.31350804632372287,-0.797665663193071
3.436239632250236,0.8945258108415801,0.8850305490958228,-0.4200048021167012,1.725710578962157,2.5861381832512778,-0.20737503879934985,1.5184228228953367,-3.122379129401474,-0.9920778698695302
3.5913662980010277,3.0853037706160915,5.976272957403834,-0.027631528192805156,-0.08292653707708152,0.1438264709457866,0.41646509209187244,0.48330114981569766,-5.783475683084115,-3.6971981830006873
-2.6598993765284247,1.4263242558657971,4.496844446068958,3.4210118799418563,-2.0889402285457206,-0.9258483723034885,-0.08946736358713014,-0.14067863185939322,-3.47901556218774,-3.7448107827826957
-3.942955521436589,2.210915225312663,2.4095379796787246,3.803073043716332,-2.664468101487166,-1.8577306682905248,-0.48320120505585845,1.5122849774231337,-0.1456291322171097,-2.0584584985416092
-0.5922763087757087,2.541868302748836,1.0160280956038983,2.6489932885744785,-2.9027375577290013,-0.6723952861892977,-0.4434852418404342,0.7732953323078081,0.6629217163002158,0.03424090540671181
0.09458834005682548,1.8489230378736776,-0.49095754628158406,3.5273321968096543,-2.001551654643106,-0.13624948405346607,0.17512752832960096,0.6324320607264691,-1.3702380417319997,-1.0454559535008983
-0.5634118705563854,1.902252107137126,-0.4748792958858604,2.6446413726683864,-0.8258410522863452,-0.14580526928658838,0.4753316109805215,0.7050040657115898,0.6386514738290769,-1.0735799399372699
-0.5139789334880385,1.941409761902682,-1.706628747585212,1.9029086499245453,-1.078069226108592,-1.3444269300700589,-0.008091158193707173,0.4654728744656485,-0.9462983363492701,-1.0789940010572587
0.16550495920197142,0.15059900726278952,-0.9176490231480061,1.758639941232097,-1.542155899138661,0.046327188539083394,-0.19857812848174988,0.0994951437278052,-1.6975195050857677,-0.4104234493677847
0.017301151689025716,-0.08918086501289185,-0.8863105546714624,-0.1715582045020541,-1.9842573090805316,-0.0867776022625025,-0.3246815860836432,1.4334531787157823,0.21089056696537328,0.34926150639577297
-0.31547108532551404,-0.5718996721091173,-1.2694121336058992,-0.18402188677437822,0.4113683232790106,-1.6138163224528428,-0.14632543031533568,0.2528899311608444,0.32724776875390116,-0.09364966272411077
-0.5982782706805257,-0.2351464826821423,-0.6325414826509137,-0.8260746416783737,1.3751744138353965,-1.96788207616548,-0.16082219168806838,0.5728334677685898,0.8155608060144389,0.7931449806897612
-0.5531931932941154,-0.15112279396843775,-0.0590650333888747,-1.3252957271489234,1.2782830931236613,-1.3830472269617702,0.34921514388762953,0.009962959465905028,0.23795782538304439,-0.3547938239321696
-0.35857278963287853,0.03201984714799119,-0.13807692561099838,-0.5781575126615635,-0.2520556464671686,-0.5890236907690054,-0.46567616922611316,-0.4209555770180138,0.11481180288691638,0.3421869764282617
0.2962228350159091,0.26271431245088467,0.4594024734710196,-0.23706187439216567,-0.32878029303794737,0.18731948995210243,0.09973972525291604,-0.18821537239490957,0.28226408129236996,-0.11697609744704891
0.3731768979676097,-0.13797628135559792,-0.4909344382423742,0.44881485550542644,0.17844869189782017,0.3790011070321289,-0.10053039010245222,-0.2453474099434921,-0.478327666673692,0.4292788482316789
0.2554179119341022,-0.2814048797728239,0.13635187993768455,-0.22504075354838907,-0.17174080368247224,0.2812995742703338,0.10886769923246249,-0.33614318000953775,-0.416767165938983,0.05415197220178884
-0.1769539562115769,0.20681088485460367,-0.003777014331943992,0.4400740306722531,-0.23284820720152152,-0.03024887399843007,0.09543131413047262,0.16149767584459826,-0.6639531354929324,-0.06640712105089429
-0.48977620833807683,0.09067245393312053,-0.4684024313712526,0.9819680412924422,-0.4278872996634378,0.39760415332818894,0.4887656107342616,0.44934077698510244,-1.084025904710557,0.17440881920582074
-0.1877407559468785,-0.5158446574595718,0.023390814879276994,1.548794098985849,-0.44194595926815466,1.1126346964427403,0.4641042441033023,-0.1507560102222631,-0.6945107558602689,-0.18018239923216667
0.9131123180338563,-1.69781926720343,0.16815393540095552,0.8550935299239549,-0.3248026481832952,0.6418717006169666,-0.401205235813583,-0.24932753048683723,1.0473378725196116,-0.41150090707386044
0.5026000851479372,-2.0446366347372793,-0.1697235829203596,-0.4582418427782272,0.2561410466359547,0.7729653721696743,0.32320927122012577,0.632436997039367,2.4512088447852562,-0.372381833546966
-0.9064080498827709,-2.9281669262644137,-0.6052098308072275,-1.9246778730806313,1.279062488296146,1.4003487042075276,0.17265862446070088,-0.3491237724455653,2.1942634866152004,-0.7349589082454967
-0.7512904420361786,-4.4421661804945805,-0.4156693232662211,-0.8320978752615764,0.6892985915366111,1.6750077038594744,0.28365711693441537,-0.39021223216848205,2.035895997827475,-1.239681631597623
0.7218258773705947,-2.269011199342823,-0.6061458651586692,-0.3723449211399262,1.4152423283759155,1.468765744544608,0.18893822266904467,-0.3511086891165965,2.137811811801807,-0.3215762689891461
-0.7118507842924883,0.23594205208041552,-0.825908116362846,-0.7662921958817693,3.08889083102702,1.130318702235865,0.45983300188900506,0.6131618538779923,3.918097171901703,1.0346293999125575
-2.2756473053753066,1.1823974611899324,-1.0327266249746743,-0.3132211561620677,4.800475171231203,0.37606590195681416,-0.4231863937893551,0.7609374547174228,2.691361046526143,-0.4325173754932703
-0.9779917474313591,1.3091138107014089,-2.0261472771315425,-2.4242940555026906,4.672824387429025,2.5323792896161246,-0.03821547498133896,2.667328897336859,0.8585758845342412,0.45039158566587667
0.46699864026553695,2.0826807176684627,0.8712153980623893,-5.295839001778506,2.4650847137250143,2.1693892067575224,-0.14596135693217696,3.119133842225148,-1.1911520608159811,0.0048838432783032465
0.3387511302439711,1.6462294482731796,7.130845873151233,-4.62278580223664,-2.9520793161354195,-0.8306550285191446,-0.09457971053593373,1.0756030800259566,-4.24786362570227,-0.9821070051925127
-4.012031339505098,0.1909693607907201,5.1308034404411735,-2.8522409205664787,-5.062775244515111,-1.8236801187999203,0.4296962262041637,0.29098492035075,-2.1458474816668147,-1.0248692334049365
-2.227458719292592,0.09515066061450272,2.5316912952407233,-0.12294578438660524,-3.6937094073495054,1.287313791288207,-0.3114248125665922,0.4448338501967018,-1.6227136803207693,-0.25804999324404
0.33843518517105586,2.0548330260547942,-1.0705666277769177,-0.11429555330894269,-2.9121318623729016,1.5693688014240885,-0.3710704096249806,0.4336192017499748,-0.6530255024777143,-2.1460486447982925
0.4157802325376243,1.7826028884731702,0.5109587096447241,0.9195726476978947,-3.38737896202849,1.3369155330653146,-0.33721852219066856,0.34106207020410206,-0.2909997461388536,-1.3084510093675366
0.7225934341695025,2.2816932906302645,-1.639119191595986,1.6518063699268937,-3.690464319768654,0.4557621406130964,-0.4881116123824435,0.21933084248218168,0.7231220336875102,-0.30649001797927766
1.0459380921806367,1.2600258471306929,-0.7588447775800347,1.5015268319935717,-3.461281986457612,0.21332237693795383,-0.27297953420958077,0.06607601306977683,0.4161875853701279,-0.7361200294997639
1.7379222892906876,-0.6208338533237505,-0.47171875215091336,1.7457414653815346,-2.5171763041292228,1.6251615731373525,-0.005479534552910465,0.2198341675383645,-1.2678133088009207,-0.2080488763807276
1.0127482973090933,-0.8928252168674036,-0.6482137440072988,2.0271275609969885,-2.1111158561850525,1.8027107399812399,-0.28525362823914835,0.35295276743089354,0.7589505958922111,0.32163253599215735
0.3184853277522488,-0.796877883702468,-0.7022742035982017,1.7001884220326677,-0.7121900760955882,0.3871214770877341,-0.11166611767578566,-0.07112921635936047,-0.04164849127321151,-0.9973783201935569
0.6700565447444338,-0.24678776506982464,-0.4761089248662438,0.28017626229838943,-0.33077495212313934,-1.134326419680537,-0.4020113797484511,-0.05629316037298751,-0.23198304120538354,-0.015050901840353305
-0.23958910816927176,-0.19505190009332496,0.2775395859371174,-1.0430238715470692,0.2776335095540202,-0.77682361817114,-0.3121288157940322,0.5710569371303658,0.4619943030306553,-0.02267845706471651
0.21244989734543557,0.1401209094508039,0.18806631601875734,-0.5822770738100859,0.11867595002774682,-0.02581292321562265,0.47726889709131454,-0.09869231262800175,-0.2386713282940589,0.2995558667752619
0.4138977449059429,0.07555002859216048,-0.38356081579727064,0.3563938256375221,0.042418339687314656,0.45110776624257415,-0.21547684238793657,-0.22224766806227886,-0.24073521556122718,0.3172646455393097
0.4866656937155057,0.46481941239181607,0.3068672730878283,0.1484124855853914,0.01158522138038928,0.24543064331676262,-0.42241230963667936,0.33421453983317817,0.2570737493685405,-0.05596558336908597
-0.41055739882051584,0.03535624282179472,-0.21096225448492045,-0.2458643925881612,-0.012861294276837198,-0.3839623377236434,-0.12200164020430797,-0.33356475819612647,-0.2172084503024592,0.04352177587869834
0.09290507946394173,-0.047146735805487394,0.16137165378989252,0.651201023334748,0.1018510302230984,0.3903355257009548,-0.057955395478952,0.1543672386459935,-0.23978963380034052,-0.1094119454869788
-0.5716020890483144,0.26538681930361474,0.07843503614988882,0.468394394630373,0.18154124273009398,0.49998994079339487,-0.20503472505768638,-0.22930857200725369,-1.0399492714343817,0.17383972333468953
0.6500229766529946,-0.24288904794730773,-0.4892372810581884,1.7315213726296608,-0.024051227950120307,1.5214282292628825,-0.37884580390675193,0.39035128064998936,0.36816485785873215,-0.20796133973273734
0.14940614291162893,-1.2317978116851813,0.22721688021483544,1.0453320443165683,1.0139431171973896,1.00719273895303,-0.30825064195927865,0.4525594918175629,2.152157885179003,-0.7279326027901791
0.7130057813453812,-1.1839449553186607,0.3137889518701475,-0.23426169734012242,1.5740752869449501,1.4441049420095124,-0.43584231186910233,-0.20414849459978315,1.6040763936516207,-0.5716363188516428
-1.3244138914479446,-1.960975562424998,0.20553893464524262,-2.6092476174698085,2.9619464279626047,1.220671037584094,0.09794599240160184,-0.07306387198086123,1.8937287029800682,-0.7510950912019445
0.4593232614493789,-1.2784441409239873,-0.9150252896496555,-1.8178121299782406,1.9828309415628975,0.9201288576768116,0.369662144880649,-0.2911176279698286,1.2118880938191139,-0.7484879281617692
-0.05307158472234353,0.4180168393595716,-0.7427784623418549,-0.6915660832111875,0.2610766348134956,1.6630572184269876,0.1640704370857801,-0.35267777108599774,3.058839075972708,-0.4530227292159382
-2.743263110544387,1.4528490450082128,-1.555150479037685,-1.000224063796084,3.783043211315956,0.8189102703945943,0.4906554943317288,-0.9981432977310386,4.287339374587164,-0.38535354201151284
-4.20567569460354,0.7249312009238479,-1.671207770750167,-1.9242692392036265,5.4646282552938095,1.8045092800864306,-0.4401714217536914,-0.2214333826142693,3.4697851309444077,-0.010055332131342203
-4.406575360201096,0.6776465774112286,-0.2709398545557527,-4.7020036667704135,5.201903715780306,1.3508658415460324,-0.155283911044103,1.1605551415716768,3.8510452322548363,1.4977719965424199
0.002202718999330375,1.0116088352370658,2.9506962413935645,-5.821860670055517,1.1948608386117099,-0.5225178769270981,0.09070810277964902,1.1693698600299933,3.0696164361847305,1.4475279294775392
1.0210358153721004,1.7435362893726094,7.98998770213427,-5.0087933157203075,-4.809676298023226,-2.144977132012153,-0.23285029699708945,-0.2555651609564647,0.3916140524806331,0.6078171763088406
-0.16076297477707988,0.42556561908266355,5.176875680609478,-2.5587428678296367,-4.821017977024261,1.550546641516821,0.241475265270486,-0.505963793238503,-1.6229195444343965,0.24221881370061835
-0.08618804748438999,-0.570712257228159,-0.033278870115570645,-1.8535620669439543,-2.9481861656316686,3.356173331088128,-0.06349938669055288,0.10863684248357101,-0.35865762943575025,-0.15479815241319053
0.9948114242378657,0.6703094129443736,-0.7826418343486975,-1.7286461188702542,-0.24555865665841445,1.7516680970606113,-0.19864049394461075,-0.6484589257498177,1.1413800981210798,-0.43688381064947646
1.3272321546246788,1.17031339532431,0.08754245663168393,-1.4753788543764887,-0.6857971168571789,1.8146625311733722,-0.1680890836310695,0.25459411535640203,0.7559573516800084,-0.9815119327777683
2.127550439768428,-1.0908744730973252,-1.4196125483523407,-1.410368052577511,-2.7798255139807897,1.5324174901653413,0.05178651479932492,-0.24253205219298996,0.7981143357969669,1.1119446633985164
1.0896771033933408,-0.5252361007756928,-0.4444649122986442,-0.11589502601516587,-2.2306028813730587,0.11508065574195751,-0.2936299319052162,-0.559020367947829,1.3126113356641012,1.3570793413090927
1.3223518464195039,-0.5008781600557951,-0.2998471491839004,0.157695920507583,-1.5123011342938606,0.608054991460536,-0.42277333274816065,0.2687731451968976,0.4548209854480638,1.818618545743378
0.5785555325637379,-1.0325462115348527,-0.4835407655033098,1.4945605937272612,-1.030564804919145,1.8656194905529973,0.0897572722551642,-0.43299368285977574,-0.31490068447545305,-0.0026795828695400617
0.8283294213649566,-0.2673266066887105,-0.10587604031429938,1.9036874978396219,0.242237741736527,0.9108115424095031,-0.27219010838735713,-0.06066776665918051,0.24954372162104674,-0.0411625960481078
0.3557649363228027,-0.3984191163046603,0.31206896512325705,1.1327647452015102,-0.04180121267988627,0.3066705874046616,-0.05991781238970466,-0.050604724858065143,-0.034066599507067,-0.15891107775231078
-0.3773416878387512,-0.08020277887140913,-0.1423849933809316,0.20863428946987378,-0.05476868861509046,-0.5964133651386547,0.27468095303395434,-0.17907924003648767,-0.5904374144474458,-0.499311414703574
0.13582369661166188,0.28812843240676844,-0.4461999347260714,-0.11759868725017628,-0.4184817035345857,0.06621468597267582,0.39392700550470927,0.20972311413893507,-0.27877115875139646,0.20446028368813648
0.08234876308728462,-0.09478947884339532,0.09988354831118564,0.2136945002017553,-0.4415635123138861,-0.03033632412103514,-0.45287848630812266,-0.15721182821697882,0.48991215400343147,0.001993981630000911
-0.43583108171182267,0.33011474594183676,0.48108834964136016,-0.31791566295687834,0.22237872266379266,-0.453229260975446,0.186332350523606,0.22891137945829845,0.1606675837428898,-0.14464343112141326
0.4303674504444266,0.4071561126444837,0.18877059870436624,0.19194868191370965,0.20593903888509277,0.1623157257771557,0.10231655286256891,-0.15634036121390352,0.26254821864879285,-0.16672028611252077
0.1389548350484323,0.31198579967606277,0.4566676315630807,0.5063086686664894,-0.2008685699767432,-0.24024647170513136,0.03630652087027125,-0.41679337878110845,-0.6384570456530234,0.20405278085362039
0.35560083460085756,-0.13005121158983432,-0.1396641959842796,0.7680156576686055,0.25492506983149615,0.5529780183785874,0.2978967003699058,-0.2549957147867945,-1.421944659298922,0.282997775779464
0.03647708624704326,-0.9392655389047622,-0.02208210914341473,0.7373100263180239,0.060889502244640334,0.8538768059838595,-0.3008344433621497,-0.3616843697088974,1.0650991712239142,-1.0338751564620556
-0.704584650701783,-1.3281316455910992,0.3489068015520322,0.7843401383252505,2.734561124895412,2.1095445078243262,0.10997046003022679,0.14931334069377403,1.5045941050132705,-1.2422737882049422
-0.21389901403692663,-0.7119555973502313,-0.15823672305067382,0.6313863809771377,2.710423994333298,1.9918633278796651,0.2909543377388449,-0.19678530488130605,1.0252667108446076,-0.7712299702627353
-0.6347679307522986,-0.06480172686765716,-0.2304326493985633,-0.978214122068553,2.575255307449053,1.728964492654197,-0.3761648658057101,0.2715295949155103,0.8921028218908807,-0.3010525119056411
-0.623532890506484,1.1384978018307632,-0.45715987557464843,-2.422557253149646,1.7698495191716044,1.6691666854305465,-0.36421806006547885,0.05916955290887427,1.9382222402183311,-1.2336019583132807
-1.3642016404277746,1.4330546602968366,-0.3783479703368852,-1.3079292430343175,1.4088790469929577,1.071587461750257,-0.22589148514232468,-0.8912081575862055,1.5237104236631673,-1.1956940697247418
-2.9407869414862886,-0.9235904442727088,-2.20955183458934,-0.8256583688898005,2.897066376739175,1.0937759545605024,0.30982229864251226,-0.7437349518323506,2.0476996118985835,-0.5579036940109436
-5.968428070949306,-0.6619082740380847,-1.2688678100743935,-3.8500939771300278,2.5056680673433815,0.6769885470510362,-0.4206675593450889,-1.651140571595373,2.664893913945433,-0.7002027703439717
-2.800353784207875,0.2784951198394812,0.20323282556321562,-3.6420830327302003,3.6832611690041417,-0.08723893699996653,-0.11105046204339994,-0.675473123252209,3.106129341664711,2.0506573724773713
2.2259940371166755,1.9391988722029723,2.595771463294945,-2.323258471442114,-0.9819785311025024,0.5147035890669432,-0.31667078430283424,-0.939216980635925,2.505878395345424,0.9382313126342435
3.0105698436106065,2.9098796696557843,8.87686796417933,-3.1127620018898203,-3.207465442456746,0.421392456489516,0.08185475448989235,-0.1565824890912518,0.3661403610327206,-0.3432964047341162
0.8378026048823409,2.119265259815956,4.632544195853034,-2.5119459290329327,-2.271942858839919,1.8018952512910305,-0.4079179016034872,0.8915129309272787,0.5645100541793958,-0.5920206639712255
-1.5863067098925476,2.239839110529454,0.5414159522781308,-1.6903882506580055,-1.8510448386116074,0.4183177972446528,-0.16755133137313832,1.0416347285586403,0.931836987880766,1.0826225162954919
-2.003389175238395,1.641806445963894,1.0635229357164457,-1.9138020791455352,-1.6445679663806445,1.3639943905969252,0.43029109425966255,-0.32374542638476095,1.8170182584833772,-0.27166110017998946
-0.23853940274571866,-0.667879213992383,0.3283686679479301,-1.1903501536114902,-1.1309510528847555,1.16950231198375,-0.007775251239788348,0.7318371238007776,-0.21303294680086102,-0.2024658670977562
0.11916309964604144,-1.7219807332498493,-1.1316258935952719,-1.7051811340184717,-1.7714000298493335,1.9246244309356977,-0.027027037556033702,-0.3452187974335266,-0.24828357776315652,0.17338795502169305
0.6551635522394347,-1.6972937941249584,-0.41965335711439966,-1.1897919892499556,-1.314274508169049,1.5389355169817867,0.2079084541622136,-0.680757563530942,0.7685359624969768,0.5413020147929429
0.033137567419304216,-0.32385725225033124,0.05087928305432119,-0.4782419287589339,-0.7399036017958602,1.6491108059975896,-0.10473747893941746,0.0919558932037223,0.7053695759134152,0.26195698383603916
0.7999804978256312,-0.4534004363744364,-0.4352495427162739,0.8625208716702149,0.4244756497616945,1.762792744725148,0.4566059683194252,-0.19988794256696807,-0.7478206320475385,-0.4979416262463942
0.25684126421100323,-0.48550268458886553,0.11198268835346868,1.9664245151567632,0.9340760994892203,1.0312721694045324,0.2379574849273955,0.30476014584478683,-1.2716047265327917,0.3198581833457398
-0.054568961754833674,0.3279636506018063,-0.39454694609760005,1.7623381586065332,0.11292259907056523,0.035211168129827164,0.2615334071674398,-0.18028098982555074,-1.1999433498546428,-0.03788975588844217
0.3514048164082548,-0.27640079989615657,0.037198141481721896,-0.11192698609358542,-0.4711916799047676,-0.003323130967025684,-0.448648984257435,0.13254916246399678,-0.3492447744661272,0.24389406916898104
0.05300505623551558,-0.18616113358058123,-0.31208725312620095,0.1426590670221551,-0.2951193861790071,-0.3912110157752061,0.499518063979163,-0.1822799689379987,-0.15981604444144773,0.41355681487503587
-0.4034517280409945,0.09650119317889341,0.1741096881166936,-0.2661214185272402,0.36593391019405636,0.11894206287895834,-0.34506890172386245,0.36699397865964584,-0.34318413966603784,0.204938448377942
0.4516007039308126,0.03634982938782356,0.08683903688543662,-0.14737976279573495,-0.45512206249948023,-0.24032695660620151,-0.4224287150806155,0.48437601358375026,0.07910060807908903,0.1900358964119896
0.15078911910633055,-0.0896329671900437,-0.44532200686605433,0.39309740352812644,-0.44225310596886847,-0.08273317380786242,0.24058415878934383,-0.2657859215888361,-0.2658157592048394,0.41220733590942404
-0.41006991093607764,-0.08935082097634338,0.18567524498000398,0.1600013825575113,-0.15926317018282377,0.47967839471404194,0.07084705078041383,0.01655223905909356,0.13662916494139415,-0.1732838094148368
0.006913041187073815,-0.1104023377146409,0.42016174481283836,0.08516641806687429,0.28544525859297226,-0.015590769041194224,-0.2429501879914172,0.4280456984230663,-0.9218767130782628,-0.13107708386025374
-1.0775179075287378,-0.1241827977171986,0.13124481118420842,0.2494031525069772,0.9651918691712892,0.3116225244703689,0.11256453605553854,0.318765349068437,0.976918660459621,-0.38180211809645925
-1.0622581368948127,0.01851814446200838,-0.5288524293983956,1.7074341166163696,2.4419822977582903,1.5908284714182295,0.375050449055745,-0.06796118171195874,1.3893770061620727,-0.6589612622672703
-1.3029786535303176,-1.1456782852196519,-0.1894577992802338,1.8872862581659724,2.661270798131869,2.6973872138361745,-0.17373876315268577,-0.14288184998535075,2.676315111503594,-0.07142167435847135
-1.2640880079455994,-1.1816647059995784,-0.3635667459647128,1.6800789701900607,1.9163376581895566,2.0364083118457943,0.13692960178914743,-0.5797128204353138,2.0772660968284753,-0.5774449535705827
-1.8446315769880037,0.34022285495697246,-0.4168758069038358,-0.6348214167670471,0.7413977726078418,1.2393284370605246,-0.24657203103383957,-0.4486767010898563,2.1422904040794153,-1.4281149765863796
-2.125680730570788,-0.5576212001830073,-0.5943595719648749,-1.9343852629376754,1.6934592047462784,0.01992121476571126,0.3111026347466116,-0.9531576447498108,1.4022413322395442,-0.548432028526214
-2.393548757049375,-2.7602887413833472,-2.052617773421122,-2.903341808365504,3.1669978047100087,0.2702940165986859,0.09245092772667556,-1.4273483110883145,-0.4964283974896856,-0.09727786835247225
-3.6557467575469915,-1.67441894196587,-1.0529500922440165,-4.049998791405493,0.13281998881827525,1.3496523037552126,-0.11293402539444543,-1.5927645993113053,0.7462169852322232,1.4439915392275995
-2.0313930551252293,0.2474877049855503,0.3782902292773947,-2.538897468856783,1.904421473666179,2.1405299943722187,0.22738066506868435,-0.5975004483395633,3.1652045471579435,2.6263237492520792
1.243827260178039,0.4656542875946073,4.160922947255426,-2.606044741709241,-0.4665098273193344,-1.117081767601687,-0.18770986605461082,-0.8358014756224722,3.4102845232469368,2.6494000401003803
0.5118098200748201,0.2847579299456795,10.433447664194128,-2.503031811628529,-1.341020108435581,1.0832123083613607,-0.007029200625937202,0.4317887704117852,2.144437562634587,0.9871183655002558
-1.2678780252645452,-0.09188384900715214,3.503224708306037,-1.8830240292700655,-1.4065739363145207,1.1411089011055608,-0.1032572117519007,0.664246035986345,0.39032503218440834,1.313806510392948
-3.699459913075381,0.1421882868216109,1.8844435586042536,-0.9452208949159863,-3.0224857698112273,0.8485165767218572,0.18557562929138824,1.077127467913272,0.7670482969048745,1.8931564485636727
-3.7336982101836353,1.9356254421015735,0.13698542258199542,-1.7567981516987874,-3.4061242763294155,0.7890286038648322,0.3243694817220307,0.3334383888203754,1.8943759487264902,-1.0201724981060936
-1.8391722139004423,0.1970120338653587,-1.4013923983790593,-0.7498611174775153,-3.028343686017049,-0.004853846894885714,0.2236595848464229,-0.12553951410689546,0.02457817263045253,-0.8221394106271686
-2.107168839011289,-0.695555704922892,-1.547512354372016,0.7389649422871416,-1.6508217283829612,1.0902088060115451,-0.24419436797171276,0.32938191326841687,-0.09198392793010583,-1.0611169613055196
-1.2344267617247193,-0.7979610961215549,-0.5478088829879311,0.4533729962097552,-0.6433316079141767,2.0588994346858684,0.39610358324598965,0.4651645161596061,-0.285623214263705,-0.8787607629547758
-0.3602086624179567,0.6231128979897281,-0.42148297701538323,1.4084045988286806,-0.1698136865200758,1.1977825897613472,-0.3718140112948093,-0.10009813682687356,-0.10356161021784022,-1.5385463543928264
-0.29605854916968904,-0.33341813231274203,-0.21538205424585935,0.5456725077713604,0.7724694338703275,1.2130055096550216,0.31415557690213136,0.04137571061557572,-1.1342530396655488,-0.08130325236552682
0.5304946415263455,-0.8858692463266902,0.17693206994166394,1.400211277939811,1.9079269757301658,1.7972127086406895,-0.1625461393311692,0.09089536353314887,-0.9860928823469428,-0.4514847237925056
-0.20399416451605915,-0.48908989978923734,-0.04724486802960762,0.43100868712074764,1.2438253407934332,0.6015840377349081,-0.02482002717252503,-0.2217903366399781,-0.9887492673875139,-0.17926370911649944
0.33038469664596487,-0.3036280657058087,0.13897927401545093,-0.40526299561700485,-0.05746778054024498,0.16168496575429434,-0.35214735147340953,-0.4531745754845925,-0.3057070518639937,0.3334483889684362
0.2920952140206868,-0.10057072180416152,0.014584732239971252,0.13278403020942253,-0.19711087518540368,-0.4161569700184384,-0.2133486492762372,0.44927796747588855,0.1730111287230711,-0.19153499185371267
0.06955633596076388,-0.2175925883173395,0.39352190779518553,0.18992197515723871,-0.4711080008613628,-0.46996957477474793,0.05953906945853091,0.22908367482758904,-0.0851782419714283,0.4524916618844304
-0.07244240736379103,0.1284312950141121,0.14114971358586864,-0.3839141408097347,-0.1962162082344768,-0.28791822299441455,0.3098530031533637,-0.13809871215173583,0.379141348753284,-0.0744495237365213
0.4793999321843585,0.29879276894320617,0.3935746188140489,-0.11222583773060579,-0.30472165543451324,0.3001983114531975,-0.09852997565453875,0.44068498187505384,-0.36278482676845525,-0.15181225099385068
0.3874818253813712,0.11277925547211448,0.4855696044012446,0.4782385543646839,0.21037478431214462,-0.44215031661289655,0.37453733072908274,0.10987300472134966,-0.196090763298343,0.30431668258664957
0.28583496252797336,-0.13838233820377585,0.13525842429422613,0.4531034153132457,-0.14763676758755048,0.07216707375547274,0.010223360658094514,0.023093703866636003,-0.39002553559415337,0.2578923091642441
-1.1747408676258597,-0.005192452406659818,-0.12118698224699068,1.074798081203037,-0.05075867046909203,0.2470214077038811,0.0858623749887689,-0.3627067509265023,0.605564713914689,-0.5702422198979067
-1.0624451930004253,-0.6588153825666938,0.15048806070742862,1.9208029872201655,1.6980003601027318,0.3985983014000733,0.27391555213565333,-0.4783237922048632,1.1555758504174047,-0.23303954399924423
-1.2651849712223908,-0.14366974330161972,-0.3618803366418842,3.1164679820881975,0.9065682272312978,1.9646372685154523,0.33347826508879896,-0.0689549127978552,0.19320185985577346,-0.06621810277218097
-1.4794653378123663,-0.9782056078037487,-0.20920895620163557,4.602150969127911,0.6527966580074914,1.3591726644300748,-0.4259661839978483,-0.8543902802857597,0.43752669907337227,0.28671046658609184
-2.4342999622839314,-1.0701463908791937,-0.3451628989166025,3.439042015809368,1.6537983799495282,-1.0911280803768832,0.16966448551506869,-0.22733762965285936,1.7956354250963171,-0.016710784782026325
-2.2036236840752115,-0.8192509260630203,-0.5508780674390299,-0.3323377579986641,0.9646036780131395,-0.8170999620764389,0.49252753630674917,-0.4099690963968974,0.012143439376802697,0.643484848044558
-1.7972860033307227,-1.838247733305531,-1.6222306300293168,-2.3994329554211538,1.8853988587638506,2.023405324601639,-0.22164801340155968,-0.17273842429437164,0.8682602208351264,0.6486504122996226
-2.7185133211322023,0.6336080123607079,-0.11639136903173587,-3.782581785423155,-1.1973146432471544,3.363817852855547,0.13357832970022995,0.727352776676522,2.185349571352869,1.4949897660968792
-2.4645660051801213,0.6210380954909205,1.441951832548614,-3.9053115388270703,-0.5688131355496386,-0.43844218285768527,-0.38799025196461984,0.6365966206272065,2.776014692152765,3.205566477674408
-1.8414017620828818,1.8980510798320174,5.615759430579521,-4.270839850593009,-0.45675215734519736,-3.647331915081581,-0.44449137064666,-0.8656577015968036,2.1929144227361617,3.0418648467611344
-2.056231521647754,2.104528398675684,9.101499087409554,-2.2551963077074517,-2.6076030254936304,0.21426087305123398,0.37956189919248623,0.09174933833776926,0.4519438602534655,1.7014716192272252
-3.0711992190868145,1.0624080284236828,2.2597753795688815,-1.2383035195886654,-3.88352782734766,2.2337383036164296,-0.11145703710852255,0.5843835034649568,0.6682327100170314,0.7594992221368919
-5.353935906273482,-0.6772860692443728,1.9636581491594267,-2.0132451539336307,-3.7264726205412493,1.3086326722137567,0.23689840859421066,0.7352290385361694,1.9126868713840592,1.2313522006867084
-3.7528778077149467,-0.3954228059453567,-0.9972569286629394,-0.9203865162182047,-3.3028532427298285,3.07470621171938,0.09115774068282938,0.531773634681824,1.39848153165497,-1.2765286529741156
-1.6581201930943594,1.3379954254785886,-1.6242912613819664,1.3525798392020738,-1.7703533360085608,0.11022102008574294,-0.35662825320007063,0.22804208128546458,0.49773693733373936,-1.2611587484909328
-2.728386281669092,0.29672390961798767,-1.3359845391920728,1.5013879484466734,0.7103523147430809,-0.1786948732660398,-0.48623439652474626,0.05029321379953001,0.013479615477629674,-1.6408444738081285
-0.6560916092583224,0.9587240459647892,-0.62641528659965,1.432519532620625,0.5594955766094573,0.7664593195666296,0.2959308025040513,-0.4743948350766758,-1.3427061577498582,-1.5495890446475016
0.0410158151530828,1.2239868311902011,0.07816867918625066,1.6877420098047495,0.5023007217990072,1.156296627487928,-0.0854633906575061,-0.22895081886088456,-2.0218943673243652,-0.692662720964532
-0.3752906380882891,0.7606950216963728,-0.31779517951093317,0.8156009339504475,0.8726142366568544,-0.020276155458888473,0.3936708332780041,-0.8683471000592344,-1.7275030727573222,-0.5648303003220431
-0.9855781974357777,-0.0686183413858665,-0.36374330807715693,-0.22131157099555987,1.5418311855834548,0.07557452157060275,-0.21064216057091706,-0.11954979777896797,-0.1481948148753855,-0.09548314864856457
-0.09464971418316173,-0.17745035843259782,-0.04091114124909158,-0.08962513283313178,1.2266927326590291,-0.14982166137224823,0.22239314946918723,0.0683490390778947,-0.710213386164413,0.19507210457020072
-0.21451923165079437,-0.3336325228911489,-0.5112910148873309,0.7576113806248465,-0.08764909527517867,-0.7069334245094774,-0.128254865549962,-0.28778116343986565,-0.6541541240429712,-0.21604703284142032
0.06950315454973234,0.1101127067505882,-0.16927064552567636,0.41714603810929757,0.11276619609090485,-0.930986272454693,-0.06365530008585464,-0.10363240570017919,-0.07428502302945739,-0.3159479204535033
0.4382733867119403,-0.17436994857831736,0.20894919882156496,-0.32145390267396484,0.28789249642967785,-0.19153065630126728,-0.3745131861629485,-0.054175428969041775,-0.41814150991951154,-0.4794956450855112
0.22993051862876981,0.17502312294987776,0.15319797689254863,-0.33426699070072236,-0.01114495460576091,0.3883262759579399,0.2852032510830616,0.40392881058932395,0.1987897215571683,-0.41694856054752616
0.2320078722549413,0.42997345665702713,0.18042687811334968,-0.43088810765038177,0.4816238920342644,-0.010715096843794516,-0.22639794102944338,-0.4588201209837894,-0.4232776185528073,-0.4634000341037926
0.5359518956312568,0.6050680057083302,-0.10848630814302791,-0.21524249824396935,0.21870862017169315,-0.12771685438421962,0.26824051064789534,0.16529726233112993,0.4696331827317733,-0.3236644128861575
0.2412330597385215,0.11044947465715482,-0.037339081749942854,0.07269680387975544,0.33377484567834187,0.07817583413221267,-0.08259235325622231,-0.2701152030860694,-0.15592326729484193,-0.6180003405278166
-0.5520041281470223,0.12573394518449393,0.42851796966892824,-0.1047780382829514,-0.17579572868613116,0.05037092324944045,0.3433181258195857,-0.7737822617359508,-1.4524284882641605,-0.6136442077541157
-0.47756347811594496,0.09564638697568426,-0.3527178461855803,1.055542109896001,-0.1579969964197709,-1.0493786604160955,-0.36745112938928987,-1.0666319691932076,-0.42025490935238835,-0.5651691710440522
-1.5334818307183882,-0.006626720554005002,-0.6773237443880177,1.9057189573731685,-0.5096544087667324,0.8837891306402502,0.29399479851007393,-1.0984539593408518,-0.6781766409165739,-0.1799157603320785
-1.3104747218806718,-1.0535273137759493,-0.2643168102744387,4.9205457676882824,-0.9675873381211861,1.55300927673001,-0.0673028608664565,-0.5120305378926403,0.966117592290066,-0.6252008205227256
-2.901336445628172,-1.955141383991746,-0.4638780854518701,4.748672311811992,-1.3020560980253937,-1.2280806276898193,0.24597172859187902,-0.39023488457147937,1.5437920348401477,1.059606695601933
0.2842707751657307,-1.3605088009291053,-0.9715926266245608,4.490464560813592,-1.681078528319683,0.48157123161217585,-0.13821861397487975,0.15024982583238577,-0.006628210370839169,1.9893385005249804
0.903677320528672,-0.7874951107233338,0.46774889123910135,2.1286621586532988,-0.3288185462102171,1.3859084044109102,0.4674377323264221,-0.2784111180942371,0.7907539746035722,0.6977128487545268
0.9273458838627587,0.30200129327514,0.19204217554973563,-1.368600884228238,-1.8105891304717527,1.3709077018879325,-0.45312458570929703,0.36690782639500186,3.159994263317162,0.9495627608242709
-0.2933932380545948,0.751924393793985,0.8645351504815773,-3.1399458454719684,-1.5190897542434005,-1.7840340424071182,-0.30365693717886383,-0.2490293099656588,3.9073110082250864,2.4849318189466314
-0.6036642934290757,1.7402914845532775,5.120269014010907,-1.68238097176282,-2.5215314102765207,-2.7589020746412984,0.08137869077695159,-0.8762123687853213,2.07444094884334,2.750917445226183
-3.4770673569632717,1.410111076812388,6.480525522059385,0.23619393895243673,-2.3826775648043435,1.8757725041151476,0.17849943975915478,0.4939644635502363,0.1738421173746228,1.8608228608310142
-5.590218982767385,0.23923491658941573,0.29702995494128936,-0.012425473176740148,-3.66932182167093,2.9125523694657662,-0.12778199050807917,1.2381844430859337,1.5498978495098592,2.132834626895907
-4.4309091386525745,-0.381499929632156,1.529714584052798,-1.011423184205957,-3.3206560743179785,1.1497022256560046,-0.12615426921037778,0.12279300903271177,2.9195811934122218,0.9182122973879169
-3.0493994521039824,0.2658716451881193,-1.9131612414335113,-0.2784811651501875,-0.8350436320590308,1.6528586642189775,0.05001625846511708,0.5970364799351363,1.79757902295715,-0.22382205532440544
-2.4894071407599707,0.400277747293804,-1.7270239261280795,1.3096463444735256,0.8282501225915908,1.779240597067033,-0.1237150922634745,9.030426758028E-4,0.8128231526752422,-1.3050026369817613
-2.1863220488018245,0.5122990426861755,-0.7427317937747975,1.165861218705207,1.7903786516783726,-0.2066810176988222,-0.47955349933719527,-0.19707167207318887,-0.6305203662625005,-1.247208063515399
-1.940926630061463,1.1063208009475787,-0.19687694507075848,0.5379866742936443,1.62268953570775,0.6955999914217703,0.13312595058623394,0.12789353897644504,-1.4403710412622992,-0.7607144897118405
-2.107903719442638,1.9505238718207318,0.23388417780673698,0.354184388413345,1.517425344981424,0.31666364373129735,-0.41640837178383916,-0.4035304305073533,-0.2236498279957723,-0.5499273704523128
-1.0048709988578342,1.0116361168455472,-0.7417796624191102,0.4953570774481719,1.4510706930971702,-1.4112186519606742,0.09216265088848297,-0.6775957565394803,0.1381547550431201,-0.6317790313766001
-0.9058161769570973,-0.27263018313850834,-0.3711093277528864,-0.3145001749884172,0.5207585332230416,-0.7256490934370338,0.13575962275028416,-0.7313448247746203,-0.06163686691013125,0.5833134806082434
-0.24056124909513138,-0.1867929649949722,0.009533651723018857,0.3562735159630942,1.4971246871091537,-0.8942511474258108,-0.3638207843878748,-0.6019081641647677,-0.11749233329749242,0.18991375609659808
0.38108647688169933,0.19358217972443553,-0.2682411578636945,1.33677650903645,-0.31374334417303973,-1.0991582180838075,-9.76745360379364E-4,0.010427866334223058,-0.555531923242272,0.28040206857743505
0.49241209050468104,-0.04194649267010175,0.27208701251561374,0.7089244681682513,0.04877600646952151,-0.5278395897991179,0.08854066617389361,0.05137285342756631,-0.6371605607390756,0.4372651000858062
-0.1571344750914525,0.3553068169458352,-0.11009344999899731,-0.3199783282921556,-0.4933403171376557,0.2918059159690886,-0.17135522540413517,0.03756975279896229,0.04328955776109448,-0.3424006864115429
0.10511249524527944,0.4772841434542425,-0.10903848986823528,0.2127652607392687,-0.2044547852664248,0.2537888332581433,0.36071827759810127,-0.3276334048230536,0.2592583682417955,-0.08131817516417184
0.15010325547716954,-0.1200287337252518,-0.202082487850911,-0.004394341740335029,-0.06488920611819436,-0.05095157244768533,-0.3162464760131684,-0.27428952990863203,-0.4325345200141935,-0.39036789237939207
0.4582253474564036,0.6138500373705221,-0.3563888632857032,0.4447911710574939,0.42623626291022165,-0.3231462675455073,0.02089887519007985,0.3079695742256753,0.1889653946123616,0.12236739073644441
-0.07851901112514571,1.2018176245612096,0.37956342659126296,-0.8497158023535937,0.1317258516180159,-0.9326488145648782,0.23724019935828708,-0.2972812544171722,-0.6226753560184081,-0.06668149686180015
0.33158203697239924,0.06048028605940214,-0.18484481571741448,-0.30298689671379136,-0.664441039249425,-1.4002003240312895,0.24644729477609345,-0.07635541871984637,-1.5933157404738938,-0.2821621443853781
-0.7429885902963769,-0.20219750725666824,-0.4609460282142065,0.5370141035474576,-0.5784074876487261,-1.805006561760085,-0.3482377897840417,-1.1672209715415138,-1.4526754906594543,-0.5904269025623398
-0.870716671795785,-0.11735996193121492,-1.538747124328759,-0.06975639994341304,0.7033383607490102,-0.23210563155665917,-0.27283151282486484,0.10223969826036698,-0.6246428867531131,-0.6152446539940228
-0.680367394531764,-0.4394027915444933,-1.1730828564615483,1.7949358400445592,-0.7602263482897331,2.5100938657025345,0.011856237547330095,0.12402943087350664,1.9130981120737791,-1.074080192455791
-1.6206617679355524,-1.538487221971033,-0.5585368519578854,3.326676250118146,-2.8241388187530396,1.3307106079920588,0.3474477409651269,0.37982371620530664,3.6249807963095884,0.5058563083951935
-1.908142521858289,-2.917526066921672,-1.0064612943700504,4.719590386165527,-2.9910982946320375,0.13309122657334319,0.44989987308131424,0.6911881103401143,2.3869400169804607,2.1939993932139945
0.08652750800333925,-4.2654822549935405,-0.17513584439975846,4.7224839080208,-2.555798636498557,1.0108906419941956,0.21278981108022021,0.6273047875181953,2.1017038978287084,1.1896443109952666
2.252549650586721,-5.067900560363964,-0.6166936627801628,1.5094544286537679,-2.644098766552658,1.9003831322502451,-0.10201764923930624,0.6831153720406012,3.1451560124999056,0.6467847741427812
1.430438757840336,-3.538847026576031,1.7608990933333684,-0.28824313774021587,-3.862636136400403,1.0593728033241776,-0.14089008212815868,0.03914841447395705,5.224942738429308,2.9768703426164294
-1.3108732320021208,-3.031767211153714,4.17463633717097,1.857659463352357,-4.529192324598777,1.4480879768998445,0.07904525863223134,0.4874785147978716,2.8133122588909525,2.014282455936883
-4.699285338409525,-1.8722358015184344,4.361897218593084,1.2591898334902596,-3.9389411666390783,2.924168357056271,-0.22991789586248731,0.23830194608306554,1.348092567591338,1.3327008793323827
-3.9299317583249933,-0.8023469538393355,0.14767611466555997,1.5999861415609193,-2.095816860125721,2.233459366361702,0.2902142274601845,0.1270754332855675,-0.2234112713994293,1.376759499216695
-2.4073553897539552,0.5028713985922086,-1.111132828221525,0.24077669247260078,-0.5628370288139832,-0.16661891973872714,0.4974873931802734,-0.7302715751647841,1.3197554078179483,0.03725285682818112
-2.7113879375278476,0.6008412318823072,-2.4137267797972974,0.006064360433319684,3.5408354998592104,-1.4692536162834189,-0.12985221165144983,-0.3234879819108025,-0.13412959032134908,-1.2916546708021246
-2.4411071033792755,-0.9841621857014673,-1.7229701058432392,0.9930850616767155,2.213519135000881,-0.04484263810413304,-0.03459298740647559,0.2183337984821569,-0.4222021717649773,-0.2868620757319583
-0.2764224386929122,0.8224870759954818,-1.1361166985423996,0.20478339613632726,1.2789703440902709,-1.5709845056137544,0.05391994615578376,-0.8561382516935269,-1.4794594772391327,-0.06112060776607165
-0.9396890546952902,0.23936044601360093,-0.5751073841845593,-0.4603246468805824,0.7694407025061266,-1.1432676389523293,0.4915436639081341,0.15976553669565874,-1.771762788330612,-0.16581288819526296
-0.6415180096230519,1.1382442529829029,-0.7344862403245656,-1.5224733777476704,0.9133695925672769,-0.24140405729969833,0.4967632318277507,-0.9508313884698274,-0.6730462443687683,-0.48592467070346795
0.04683990163660783,1.038479720718921,-0.19052791768039198,-0.16852720618384695,0.9419079862227868,-0.38814032201299065,0.3744101745009947,-0.8580722066490114,-0.5236571509906126,-0.2971067986532778
0.23181508467445402,-0.37901401884746977,-1.0098423008429251,-0.5077344634693269,0.4511737992442261,-0.17785013805853708,0.49211124881693447,-0.7502502120280176,-0.775193754133978,0.5407095745792978
0.31672086339442873,-1.3221989425774627,-0.8828856124080098,0.7404184207381858,0.5915022995074253,-0.030658988179926606,-0.3578549686398714,-0.7624614374778811,-1.6306354849777358,0.8387570499587502
-0.09468145581313628,-0.9745919012034935,-0.4466427119006701,0.7926757001948513,-0.900032981967111,-0.5784055193746619,0.4925398717420715,-0.13797559500732404,-1.5083119374591973,0.8646857822107943
-0.02353309487656097,0.06627348333700063,-0.2689989229882045,0.7183350467181348,-0.23935689382908049,-0.3598429654655966,-0.31185889947074896,0.30892383107667903,-0.4047863333132785,0.7294883561705238
-0.0332125869148981,0.21059259921402976,0.4213445060302071,0.24185034780184966,-0.3413973845732246,-0.24673272297827034,0.014682797588374288,-0.4458649121033334,0.12731494897505946,0.1831449198859982
