784-4-10
0.024206934869937066,0.016092134303605857,0.011643371749856482,0.02446442101967576
0.003934423001304151,-0.01845619804583001,-0.01796165284806676,0.005727566177372197
-0.029288305324567877,-0.003693877064478171,0.010990416578544437,0.013960670090294447
-6.946783007972177E-4,-0.030598336355032108,-0.01880153555437597,-0.025647579768943954
-0.009378705052154133,-0.004250492542352172,-0.00905282120170545,-0.03095759448406883
-0.003930168702639292,-0.02112087629757606,-0.0035020601796120765,0.013926737443607513
-0.009111411466201376,0.0277859752853879,-0.006076604922390063,-0.01847751391652894
0.013445830139007194,0.006479375995969559,-0.032103640309387164,-0.007318072603496595
0.006655087675763283,0.022037282361342073,-0.01466250394518194,-0.011612757122528777
-0.013231231704938902,-0.01620611620016383,-0.0296838346631034,-0.030359595787967462
-0.00562395054385843,-0.005923058511715602,-0.009974435430901898,0.025742420711290265
-0.018471550606172536,0.011052952077655907,-0.03122646611890468,-0.015563717174344745
0.0036783959229953725,-0.005129569746157524,-0.029260995894530725,0.0268229993742929
0.0015404521065557652,-0.019755513350161756,-0.005997750247033695,-0.0023124923949077326
-0.015706101007274244,0.018474841043004574,0.02164906107309383,-0.024629672226224118
-0.0025230799737140804,-0.029722000060774124,0.008468397940786628,0.0027246182893171035
-0.005656691651349639,-0.018928141180092124,-0.0069329005924646525,0.023799153961743216
0.02420841575956318,-0.029591302771091753,-0.019354719354990755,-0.032955808809531896
-0.026450501466135215,-0.03128668999801442,0.017987227436045042,-0.008836604473480805
-0.011775735406069854,0.022719452677192782,0.027817810666094955,-0.03134959316389259
7.512029658658173E-4,0.004558935615677148,0.01671273480775394,0.028784366681658013
0.01391161197004926,0.02076253537658778,0.01217944630509847,0.010872369945185006
0.027381587719028766,0.007983611051434934,0.02602314319924654,-0.00815306243473786
-0.03389206399745762,-0.0323991724099178,-0.030020402774825403,0.0017838420113654996
-0.011042117895358732,-0.01182165111788809,-0.029776413617468234,0.001089085001165592
-9.387463256397416E-5,0.005142241172313725,-0.0334311602570608,-0.0314035320074176
-0.013491652042750435,0.026645151817299727,-0.011026814251726951,-0.03218190425571173
-0.0014226267082570396,-0.0056822602045647486,0.010801685578210714,-0.010575617194403832
0.0204087968538919,-0.013745144458999173,-0.028642552284932246,-0.030244607542500933
-0.019765826672592173,0.01801281148955683,-0.0016317252913232924,0.0083522205156316
0.030126714531462373,-0.023472581373539667,0.028127185040628,-0.01658563174669728
-0.016020498239569983,-0.014697025477468751,-0.027832253517741806,0.00471975478264193
0.025752321417204738,-0.020614182524761892,-0.03221971569998826,-0.030169521444533186
-0.01544240317715968,-0.008129450094599863,-0.020242182226696187,0.034431864421126765
0.017911552849987925,-0.021236861071901408,0.0026475844336630206,0.013896938698609274
-0.006095236082621291,-0.02602390621642558,0.007289602887593275,-0.03027666787485778
0.016760223767968617,-0.01799102952490183,0.03515009641338847,-2.874030840605919E-4
-0.033588306614820804,-0.020192095772232268,0.017938641192436534,-0.020649022803723147
-0.011669295762013776,-0.01152116847705823,0.013590964386311617,0.03529041132197855
0.029295240855665584,0.015649315136781493,0.022142085556858915,5.047347154595161E-4
-0.035004776057317805,0.020148486026633865,0.028575035439995313,-0.011659979658057824
0.004429294196727502,0.019598183188757615,0.006553394358361285,0.023695427172578998
0.01639987536187128,-0.023476328003488936,-0.028745303502411973,-0.00750876285494083
-0.026849044115086772,0.0037786113330916223,0.03291007252356155,-0.016567932123997917
0.0013561034964881008,-0.01640705394757974,0.02086496558312485,-0.009537397295120941
0.009489985538192516,-0.009113065999837758,0.02800949119314088,0.034461703020477595
-0.01506195244664918,0.00799378784018737,-0.029939996609650313,0.015422913853152797
-0.029619804165494854,-0.035036924482927716,-0.0013271786058022123,-0.03071198314047601
-0.0177246462662564,0.004548427039805989,0.00859035610923847,-8.2795755206647E-5
-0.012252635694373442,-0.001489161202756624,0.030911799297639004,-0.01773408218523875
0.0032900301131202027,-0.01656396120415994,0.00739420331365095,0.009122124192317895
0.016181402030094764,0.006643153767381404,-0.020374877194175516,-0.02507785752581567
-0.0029734069488652273,-0.028594894982614114,-0.02698164082088319,-0.003628796888354227
-0.014801071738420369,0.022881237584337036,0.02192124592613439,-0.013293064188853732
-2.6065591627710827E-5,-0.0019145067467908478,-0.008310563461184486,-0.030900370879794126
0.009218981480977065,-0.004492649582942439,0.020097686295165326,0.01090298995173998
0.02863944395319988,-0.018308120220472915,-0.004447622361242055,-0.008295183966098001
-0.023871432641131878,-0.03153638801918156,-0.0117045200040553,0.025904616719564892
0.0013313295678436688,0.017733495271279997,0.015499356316660122,0.006613852056243079
-0.007514546598829937,-0.020062782740678114,-0.016311102384760835,0.010276523087271509
-0.02559736034507846,-0.0028705079368215093,0.00833755361850808,-0.025281852084967197
0.01696184327565868,-0.029988275060483904,-0.015135865705733621,0.0024806670998374805
-0.02139226858326209,0.011122613860462097,0.022473218769231536,-0.03199801801646409
-0.006975242401463856,0.012285815147631336,-0.01899424377853393,-0.023777910584660326
-0.004863402344723213,-0.004045747096502827,0.013572184575300248,6.263783330738074E-4
0.01647367558518573,-0.03149832286723635,0.029400051775172572,-0.002627480656883679
0.011789996680727156,0.035046814816522824,-0.0302586505064526,-0.02684904644164696
-0.010719519855886539,0.01237356884758176,0.03235791721943572,-0.004517828713483077
0.008095090596582788,-0.022828845953630356,-0.014351601823165132,0.01824893153536733
-0.01635358418010676,0.04037361098770345,0.0257551188247967,0.01168781913960711
0.003810854917917478,-0.004101237126121452,-0.01964922393849385,0.024266235038879654
-0.014950960141880134,-0.011015288802797922,-0.023268481055499925,-0.032785267925852235
-0.00413998734170052,-0.022420742809598822,-0.001158404925439651,-0.005857754105732405
0.03867887057442298,-0.0010690508122196836,-0.013390394692469885,-9.184561911818E-4
0.011907073392036381,-0.024027702894956197,-0.02357891859294762,-0.02242091831842218
0.0065024659888318105,0.02251685869139998,-0.031107835075020865,-0.008444791627132558
-0.0016881627671251494,-0.0018691954133223056,0.016181351468340523,-0.034880851279451015
-3.757237897717893E-4,-0.00515870664477011,0.023838758352806143,0.033540312474649635
0.00967157506315734,-0.0051256311837965295,0.03121588278303719,0.007791860795562651
-0.01418155246188436,0.022143960198643186,0.002152847987960535,0.016153361527586996
-0.016635121059248376,0.008042934276891364,-0.004770479935353888,-0.014266389209088848
0.01519907608725423,-0.015490363351352697,-0.022179115402552244,0.027476087743977345
0.016273826115646664,0.007196230294518359,-0.021703830586115795,0.005273179498194044
0.0029129956405901866,0.025138862912112564,0.019644598950083955,-0.0041572976456634506
-0.03372305163939389,-0.013271071939746526,-0.0071360837064928795,0.031463197952139296
0.015784007315862145,-0.01752567676838154,-0.03376726964849497,-0.02964186484502014
0.030363660467128857,0.005860236042810914,0.034489986514405394,-0.009955317441918824
-0.004123771787204144,0.005202190530421272,0.015497372154672822,-0.008189151301291964
-0.0168103965980194,0.016684029787746767,-0.011561866168890135,0.013183620997126408
-0.021487641009164976,0.035520238346552845,0.02355979354492031,8.748005319278276E-4
0.005202675093807678,-0.003092880995298765,-0.03208194774995621,-0.013043456536953995
0.015191413404223968,-0.008782954473802269,0.015825002163083284,-0.01903501559328648
0.02794757474433626,-0.012483079586456504,-0.010879942686200784,-0.008787698515803929
-0.013472711262102062,0.03786443917992447,-0.010632869270537276,-0.033723051659831756
0.019445024532252747,-0.02944864719153413,-0.004003953100427642,-0.007416024018527325
0.009025019439145746,0.005113241177978138,0.007395261814296797,0.026020220139488213
-0.018830170457408688,0.008642181678945673,0.06736250178329412,-0.031653075496362745
-0.01065988845384984,0.03901864481177105,0.054882106427279455,-0.012721949246332727
0.0036424191620349363,-0.004269247724219417,0.0064749225236801254,0.027812859222078972
-0.010325798909901597,7.798730393450194E-4,0.004771589559860979,0.0043444090125950244
-0.004607184070931067,0.029020020276477862,0.018675999919307573,0.015761742161059807
-0.005968673115081105,0.04402604823920511,0.010014888639828419,-0.009707018043255074
0.03590682731296399,0.05106005644107303,-0.0013601559898906816,-0.03880997132299336
-0.03330850347524828,0.05291218847630864,-0.022351821431192763,-0.027745787916518334
-0.022752899421666695,0.027115728535639382,0.017943486605608232,-0.014147144131863375
0.011305339264223366,-0.018940181840056428,-0.030344565032396954,0.005485683835701011
0.020242359315526693,-3.0204130615681747E-4,-0.027684756762809667,-0.02856312346966457
0.026629267559399334,5.081781404006409E-5,0.011189709206437467,-0.017264715168048773
0.02990588996672429,-0.016542409741215826,-0.02983800086258377,0.02667739395510195
0.026770463969703062,0.01627669893776455,-0.026728178280930104,0.015631176793536542
-0.03314348667577313,0.031257288799936056,-0.021606385966430313,-0.02551644769835637
0.009164926570282901,0.017267979950154964,-0.03423465913085577,-0.02311131803974415
-0.004000657671629729,0.035154516368442065,0.01065895289336885,-0.014191380056726273
-0.03529037341381133,0.00802889487055434,-0.0031157733034942,0.012095401371629753
0.03181648560099546,-0.03413087004461221,0.018702251584783492,-0.023953349724073193
-0.03431273067522756,0.006915070237494391,0.0017440664477940526,0.02953628353936213
0.02906776820045928,0.01537934728524991,0.004422760877195089,0.025213972045870253
0.025015155199123833,-0.008198208950949857,-0.028044629270598576,0.016676994427206798
-0.016387841886938627,-0.033968516654492985,-0.020883911376249075,0.013630659992986537
-2.693281295611711E-4,0.0010777556358023657,0.01649311935461971,0.021239888738270166
0.02431089924970123,-0.024039541098969892,-0.0179727873235948,0.023422380933533587
-0.006680589915082943,0.007124902945222819,0.009309167856596806,-0.010161139618494344
0.022547523106450494,0.02537161857647181,0.06073986946685716,0.04908541362196496
0.052516761159605824,-0.002848268358960203,0.03533900761427076,0.0474727743286177
0.08864644259360203,-0.005669921944926473,0.049281920618732405,0.026106132093629553
0.0667097842252069,0.013921198892945491,0.08069269599068415,0.04616718750001784
0.06368390044193559,-0.0037168363518584303,0.03447136464200575,-0.003350675980574169
0.038949134319578006,0.03547658368899611,0.031083793158002044,0.0021379008613290154
0.06675045380432838,0.0455642212121147,0.028051305879242285,0.008880321664479591
0.016357546320899346,0.0365173801329318,-0.007686898625375345,-0.003992388490704096
0.0054589497020793125,0.01455888302674422,-0.02540347492864161,0.0017771267677233438
0.021004299738565064,0.05521490296060272,0.011298071959370822,0.011993052085189559
0.034993886522788474,0.04297428971914531,-0.014306326341324378,-0.021399434212940032
0.005568431346900492,-0.004748547932579884,-0.01081735827714231,-0.006749737802363547
0.001228025890802955,-0.009714155108056998,-0.04291200507646887,0.008172399994810014
-0.027568448349225116,0.03925699013957,-0.03851439172489474,0.001259526774866941
0.019512527988500613,-0.01825414522686979,0.028755064765344576,0.01551904228797589
-0.03051963542970985,-0.015190625637349886,-0.030716803343960927,0.01480630851833822
0.001246893007648117,0.025714540530984608,-0.0025901530350211062,-0.003916200979673744
-0.03148828789461704,0.02056029981546772,0.030075211583989715,0.0335957992601218
0.001310169818406863,-0.0019408630746519662,0.0017608878008391407,-9.576098341229633E-5
-0.006985276391069266,-0.012592581239859093,-7.82890008129665E-4,0.024128083025543617
0.013178004067096887,0.017416118733756623,0.01862399551295051,0.01121700160264495
0.0281248839820457,0.028457092473641324,-0.0010627446258070247,-0.03392863199463767
0.03711299661630204,0.004543778411978383,-0.028599304414015102,0.02774812193004713
-0.0014580286732704321,-0.03700759788003784,0.02583506128574538,8.95949819220783E-4
-0.009860958723768095,-0.015206479402629602,0.015688896043767043,0.04216775325603713
0.014015044959782667,0.017796429952569,0.016891737789393173,0.009441202158642196
0.05305945446002852,0.033827700254447965,0.022119234487705725,0.020652322096111835
0.04463881758713451,-0.018320291868228884,0.05843479789547217,0.005196812840975333
0.03750373913691397,0.03221284677342334,0.05209485204569407,0.04585266343952356
0.11734659054201753,0.009752126693552417,0.07135837495645586,0.01204682083233174
0.1487412403125639,0.004136221067684966,0.11390815017165781,0.054032566675979374
0.12249884100083379,-0.008641315068307754,0.09160882763851144,0.004600033245712525
0.15136548632548433,0.0036765165794125105,0.08432873004797908,0.05406766268917636
0.14522638723944983,0.019343940318914822,0.10176313445902387,0.017001607571652217
0.15884232769960924,0.04286081510944403,0.10225622611483033,0.035308202078158435
0.07488697475886874,0.0270796364345676,0.03215875855861518,0.002142052668915498
0.04414994961857509,0.012858301377082416,0.0571227491969646,-0.0028650773016107986
0.04076193533793558,0.022213950560642147,0.02573166258733513,0.007676191788481882
0.020169652134534134,0.010756311789711523,0.01197338652132401,0.046189478953104955
0.06294739135338416,0.026722833209771424,0.006775513343199883,0.04898640533872482
-1.7979244611210078E-4,0.02281713390811078,0.002102513741041668,0.02646871866300436
-0.03546552329180045,0.003278538032062182,-0.04899903245260818,-0.010341128802594433
-0.03842872230699252,-0.01981464809796365,-0.018127130895597608,-0.023533254907567552
-0.019152703840596957,0.009597150293767363,0.017032502224722263,0.0074450549240726365
0.018368681291310553,0.029622342512549596,0.02781362138642995,0.01637074240517826
0.0033629465759507475,-8.649565335722661E-4,0.007709905827854033,0.03035009019525556
-0.007373868873919276,-0.030258548880357495,-0.034676226783641705,0.010854794499232961
0.035460030781995146,-0.02475975817939292,-0.03560653507719876,0.028254799642513106
-0.0028022696205129336,0.01298852832412689,-0.022785868203329927,-0.03359155755958053
0.023475594187693082,0.021209749008536873,-0.017431260656170677,-0.02928587929647185
0.028400760570864735,-0.016946173837016375,0.024685461218287904,-0.008272083761041334
0.021453955748684108,0.019412366859769423,0.047074216559060016,0.013391668204279979
0.05630420083248621,-0.0163308097896486,0.011412217431791093,0.033931352081886385
0.06969630027095355,0.0042619225864170265,0.040380017671453244,0.011229403625501925
0.0435954002097062,0.0022644095716042472,0.0624246939576799,0.04899140683475718
0.06397162882742981,-0.004521463153207892,0.058977092354761014,0.04572557309973141
0.07665059958201736,-0.022397165176179585,0.04797917881384927,0.07038455475094504
0.04664419571041249,0.02068610380029926,0.07388257587631819,0.06464169978852907
0.12592485211083104,0.030638616733371746,0.07022537408606089,0.028890199750335827
0.12371280111826381,0.01465282528606351,0.1276279971559055,0.04935778275543328
0.1343623745802472,-9.816039270155545E-4,0.13235945306055524,0.06032854751629626
0.10909741020796478,0.013372827693330046,0.10007348045047032,0.06930406535089899
0.11736480376312775,0.0622376689535569,0.08044311481885268,0.05414645895496577
0.07158242510335494,0.02867701736992564,0.09011854509802653,0.07392165212637135
0.04617945644606268,0.06327905683253962,0.049210422409267804,-0.0012393955849121104
0.07284007524009554,0.03880173534924171,0.03167157859546747,0.03569663870656804
-0.009637857362043204,0.021716983348374342,0.011523125954982925,0.03591539405175296
0.02614929200919196,0.001750861542854162,0.03553237692886437,0.006998222143815024
0.027347712826677906,0.044035054611793224,0.04393114121278749,0.03570762734715442
-0.045714788647963224,0.0020563071531861537,-0.001162389050404939,0.020760976727593704
-0.03326928188392264,0.026345270209855803,-0.005290429733766897,-0.010218815682934293
-0.014764521059956777,-0.03234506383912362,0.0142429051227467,-0.010585396294153426
-0.02888802831810471,0.031869612659726064,0.024457684469699377,-0.02241108583354047
-0.022622053740900788,0.010495199242336734,0.0217146536781785,0.001622832143612472
0.03142813557824098,0.0024496504982356496,-0.031645266392328515,0.0336911115333808
0.035303593477743124,0.001127610824894373,0.01821321002962712,-0.0011589578222172732
0.013752069024914078,0.010793318360309053,0.03416009802039881,-0.013733325506546152
0.012851265798416707,-0.009905583881303486,-0.03266305385412821,-0.027841956856709364
0.02597077480303497,-0.01826701800094421,-0.02466914017873795,0.01458088045068511
0.035487913705600505,-0.016525571597649686,-0.030554329558932985,0.009739932793683107
0.002788669805969202,-0.0013252266365970623,-0.006663996788153267,-0.022877950917903917
0.021643970157253993,0.004776956774829438,0.015426417573109296,0.03427656236063951
0.03102959048623053,0.008859467282759863,0.028556202515205308,0.013719403622660224
-0.010254840688050944,-0.008806070324730356,0.005766547166833866,-0.009805995086170543
0.007322526915676925,-0.015426906154107318,0.011106327217302595,0.032010267579915444
-0.015310511027887977,-0.007568613943259071,0.04355114170136392,0.026069719620663293
-4.760611456805796E-4,-0.01497395362233562,0.04569386908629118,0.04958190410638119
0.036043900163130166,-0.021343092740787627,0.028420679396553582,0.037479252493069846
0.05194169453695385,-0.004092451615099002,0.0517064197640113,0.021540571353144525
0.0455781685113228,0.024813070013271328,0.06824669110454719,0.06090575961761168
0.05497929480610284,0.04449647250516677,0.06795110926424619,0.060022925874211965
0.05368773189968923,0.01759244742694163,0.043840079880291025,0.04782454283063926
0.035928732837409,0.016516398529507495,0.04289780306876691,0.0535661285982807
0.03356043943324616,-0.025818784963019183,0.014838545626373514,0.02406784872877895
-6.315750460879197E-5,-0.009999359001740833,-0.01296805033369873,0.046383917256147385
-0.02758613730737168,-0.04294304402594049,1.3876684796964748E-4,-0.007048927588285125
-0.036190291275655935,-0.03002196567216046,-0.00704345224151768,-1.390562326284397E-4
-0.004590879577364377,0.01282519183992084,0.011246090126978095,0.00760449947410829
-0.004461113894120257,-0.03742220017178498,-0.011441344149375744,-7.318081846420628E-4
-0.004659778216524878,0.015666319142305582,0.0076308960831789905,0.02425886529569357
0.009821173495998708,-0.009782935377470575,0.024755481504067103,-0.01426783347768
0.03378922046713338,-0.014839805169257422,0.026774709047218678,0.016458361623604284
-0.012194479744182628,0.019313379995504202,0.013947324867883784,0.006364841345214782
0.02753665876881825,-0.008896427572934743,-0.0048038725869840315,0.023553770688348324
-0.024906049547656243,-0.0010298284836386005,-0.00635820724280577,0.002308064140005408
-0.02243603612039538,-0.019079984348788763,0.002775083174356089,0.02815697258931886
0.006147211178348316,-0.02097686109523301,0.028831322388829447,-0.01536403307669334
0.017231651090924935,-0.02670989505776285,0.013438927619547694,0.004584873151667034
0.02315069718936381,0.0011043197210907475,-0.021156534797385218,-0.020836142654117703
-0.019657827178928316,-0.032209075809308464,-0.03485561530908976,0.0027018199662945832
-0.050262574454140015,-0.01659955970144008,-0.04932240433093035,-0.03284269194117683
-0.06031638204927093,-0.02524691447282388,-0.013259376376190872,0.008371564952251428
-0.0831515961446317,-0.037795296623836044,-0.02183510085833923,-0.008943523164944546
-0.09045141843215873,-0.02592426384733357,-0.060345252550358615,0.02775896153701526
-0.04251215030787308,-0.051207727581939685,-0.03265036326299484,-0.011322991583584347
-0.046850517215460116,-0.01525331187623676,0.01466845038330587,0.03334496787158423
-0.02041842151441658,-0.019360816620878928,0.007038167264500933,0.013810761307809933
-0.03366015162604497,0.026834987603685863,0.016895267350625864,0.032997571613046194
0.021248072351803347,-0.02063474215025159,0.038022234401409456,0.039464696069749734
0.04037416638227131,-0.02692127981000528,0.05596281578301602,0.06195704581757397
0.06145735682204597,0.0015595952826402604,0.020006881677471198,0.027381874279531773
0.010925292301827655,-0.03894267217226314,0.0017564902417506617,0.021565746793085386
0.01050149483712687,-0.03111752992532135,0.020371362002706832,-0.007406293348128043
-0.007549893944967324,-0.022102794990509024,-0.03591114185908678,-0.01244242299008862
-0.06353862409061975,-0.03841506666808161,-0.008894432859741187,-0.004651629087815765
-0.0773834764718365,-0.025488544888726657,-0.020500748379061743,-0.011884698705157402
0.008230534080362548,0.028831352537448278,0.004080494582925317,-0.004546941985558464
-0.001965107871083747,-0.011386638191691511,0.035859246791549025,0.030520511194518467
0.009536801178633755,0.026506818747099193,0.002826550086845067,-0.009984061120284205
9.518215584040451E-4,0.03391208670646159,0.03482807945447138,0.03227202824323199
0.028797807292668676,-0.027323792181895516,-0.005855906800099814,-0.0012503466477012733
0.01307330704001374,-0.017562855454363063,0.01425489893189431,0.003706955453376117
-0.011151220865863124,-0.014575717839113473,-0.01605954508409403,0.035102191099243465
-0.0037811869857438483,0.005016586675971595,-0.03966640703330691,0.03463912551640943
-0.01533499613463648,0.002190296920228285,0.021075145360556245,0.0045212014108164215
0.0018451911684328785,0.006591690221334142,-0.02611241137320724,0.004729475545400643
-0.027638261532560913,-0.04625197380836286,-0.03841591715984432,-0.0071926725133779615
-0.06833269400248303,-0.035740738779746144,-0.006099164698897169,-0.025967807317412106
-0.08438937524554178,0.022245979189104592,-0.038878593297633025,-0.06727856790393855
-0.08286701937634862,-0.012473824694460869,-0.10045384765316583,-0.041752257780338656
-0.12039319835254712,-0.02991692629218366,-0.060951990810873984,-0.050403766128318296
-0.11406165545077676,-0.04763556483380823,-0.0747558965687034,-0.039309809306575676
-0.141592695936267,-0.01733781179851322,-0.018290371233946043,-0.007715455068394993
-0.10135367822144219,-0.027485228790041172,-0.04667252200495714,-0.010086358709160258
-0.04423044600806522,-0.03640244838319023,0.0021996849162597377,0.02232241357689046
0.018291418893482025,-0.05422688425560314,0.04401487297058936,0.04518121638554307
0.033565901028766075,-0.021425080469797946,0.026133658806212108,0.036643777467862786
0.08190603864361609,-0.02992365218214163,0.06342139583739086,0.07301299173119943
0.06904410688887083,-0.00485607426593134,0.0376177184376994,0.04377621416998113
-0.006926576206477873,-0.04397282958894472,0.06071645926313719,-0.005005887688839391
-0.06284290667596137,-0.05531964365442894,-0.016593388394651392,0.026378856740878885
-0.057154407550590355,-0.0466997289529384,-0.026329980154021233,-0.011882520803803646
-0.07898676301781885,-0.023087957991087857,-0.004202467964288379,-0.026075895739420138
-0.06117130153038507,-0.04278634364384318,0.02891000306291266,0.006933441495117006
-0.05062066394386254,-0.021365302347638393,0.004785651981658362,0.026347755974947713
-0.03720100948419278,0.015524423710642969,-0.02059822706699075,-0.0156440500323149
0.026599733302235102,-0.03836656686454474,-0.017264597465764434,0.0017099189607231332
0.007912105785698446,0.006154152188455775,-0.030183544574590524,-0.033728433983680355
0.021547058133694362,0.03192294844873864,-0.001152668231596125,-0.012012776387592582
-0.029916717713712248,-0.028378992312666752,0.03226434418877528,0.010932935512070136
0.025107718001071064,-0.01661022600385254,0.01753573421905506,-0.005484804891466561
0.016126998390907425,-0.017516737363840098,0.0015403687595396147,-0.008670401636374496
-0.003904755749439881,0.00508932542221624,-0.029362208653539362,-0.01495832952195095
-0.010024418707354836,-0.013922755055203536,-0.031029722850636196,0.02379185029179804
-0.026403719602296687,-0.010692464468562975,-0.051056221789606816,-0.0424345677521299
-0.06920762354749561,0.01314362323114384,-0.03621236089986435,-0.00857768265547311
-0.10890109078064752,-0.00437708643480172,-0.10268111926007624,-0.04325497004536556
-0.12246829254861843,0.0030682140497477694,-0.09952187857471632,-0.08356632623929881
-0.1403025218121058,-0.015336886568562401,-0.11921164059837228,-0.05609326196010274
-0.20580967226360994,-0.001829748826601127,-0.09579183434728926,-0.031032733506159267
-0.12539797131603586,0.04246591628023856,-0.08619207858906905,-0.0321499432421822
-0.031455549573079666,-0.0019113220338603297,-0.033207221031046445,-0.013609173561659225
0.018440811258598092,-0.024472150142855753,0.004320295917938628,-3.21491280028735E-4
0.09155482660792823,-0.015999459658089056,0.029375055956316013,0.05943329684889711
0.040892681352111375,-0.06752837055314792,0.05602319754118632,0.07916816737423044
0.05634458966343336,-0.01763013444196352,0.040761349619670935,0.04916766539654554
0.07411757670104603,-0.01137183546620943,0.043339376842715015,0.06342964718406534
0.017063100938447536,-0.05820918226997702,-3.558779477384619E-4,0.010165379803099466
-0.06200224304464113,-0.050804862532880836,0.030232633773038437,-0.030298200026343886
-0.07832481460469003,-0.03630292783375649,-0.0450429332467877,-0.01585803408152902
-0.049861670110906885,-0.0494238162154182,-0.06573280453443947,-0.04457581456455888
-0.07676480265911739,-0.026539767193460403,0.015157131708790126,-0.01939932200553056
9.055698443811216E-4,0.001197058701727781,0.027530119886046235,0.023775528388980727
-0.011557421768431117,9.754872585328425E-5,0.032572045695165704,0.004766352485708462
0.023203888854235882,0.026668527717049424,-0.0032742897314803356,0.029434532216704883
0.02119746521964458,0.034054485697249566,0.005335217449177723,9.224369659906685E-4
0.026624964835768625,-0.019237492678017533,-0.011714536052160735,-0.013774906079725304
0.034948260439346596,-0.030546786503058504,0.005689563416703838,-0.029423621874207884
-0.03343797289286126,0.004291786817300102,0.009937637063505582,0.02110429449854428
-0.011280100187998634,0.004866839486685593,-0.020032024479420596,9.669927387066394E-4
-0.02116412967004401,0.010107787021769407,0.018476685777999775,-0.007897675241323255
-0.010259889293945673,-0.04127456098998427,-0.020729336876827202,-0.019251262677878283
-0.07449708087005871,-0.02815625056427847,-0.02380591322201025,-0.031684056056317224
-0.11206943668023515,0.03268532245302072,-0.04253239814775918,-0.0023617100601735757
-0.15892598432017876,-0.001986138347218052,-0.09985098733874904,-0.042938964101743846
-0.18097867284164387,0.019883852435134398,-0.10519421633994418,-0.06164724639258409
-0.20254947278150015,-7.17909196059419E-4,-0.05303731963249203,-0.005081969421337976
-0.20148098860924657,0.025418114789233726,-0.05238742676279433,-0.031134577834228728
-0.13293341991642757,0.0620908329926044,-0.006478535727977355,-0.030649354011703635
-0.009379824043307715,0.045882128310981374,-0.005841984439585922,0.04350565640253594
0.11807802356647568,-0.008758136202868076,0.028653197653489035,0.09265702301596268
0.11185939350515868,-0.003268752471257087,0.0362766730635803,0.12486136086887671
0.09763316136642855,0.03470875596527757,0.04742050485813285,0.06638780325755261
0.08989768191503296,-0.008888162681803514,0.0729245998485922,0.09740977345187818
0.08016822215646648,0.025816440163604792,0.052117766988705364,0.057235033316492656
0.020144670392184053,-0.017735002948471086,0.02095518888037453,0.02298719667185472
-0.07764433895072105,-0.07043695816207998,-0.04523003345704503,-0.039753060780168215
-0.07221168067479054,-0.046786835959839006,-0.05491738312032363,-0.03506152939713796
-0.07118667483915601,-0.02752659272971544,-0.0498675299618388,-0.005670166834698354
-0.04009773392768554,-0.025371742253601,-0.040505692523743086,-0.00797701239592849
0.0067552232501820585,-0.003588290727693129,0.017278078442752448,0.008579952327126165
0.022634331370902983,-0.016821265479850602,0.014195713543633533,-0.013660098791988838
0.026778668559253798,0.025722159372107065,0.03562636472900486,-0.032902323086698715
-0.024710723561813672,0.03077611156178663,0.014365430263009257,-0.033796105995641014
1.8376745017923516E-4,-2.205413258472227E-4,0.01225590428984855,0.032913549450701435
-0.0014320022646836848,-0.018382239288546855,-0.011594262583266044,0.019065334983908215
0.025740421461168433,0.004908490656650825,0.012395448885055992,-0.015706707818312876
-0.018767492956257167,0.021690669551700213,-0.0034867322807505966,0.016663198992491496
-0.011062380075765684,-0.03266356382451463,-0.029462765403245734,0.02561212923112721
-0.0437820448326338,0.014762869685551908,-0.005459048950265442,-0.0036188803529193614
-0.08007341979799387,-5.77222192044112E-4,-0.07911707214373602,0.04444919567087945
-0.15030539680393668,0.04426824397148529,-0.044960985701846576,-0.029852359405005604
-0.10819203445622262,0.025163474298697978,-0.055831677067446,-0.03170712735048809
-0.13041658248481328,4.191539379728148E-4,-0.0462892467308009,-0.036040307813707824
-0.10979283900565745,0.027242937743279717,-0.04257565444518193,-0.009415920172470883
-0.12528509687484982,0.02668053245881728,0.026164527210157523,-0.012791360150883911
0.017047016260844868,0.006098282235946856,0.045268191119729025,0.021068182613216177
0.05363532485959413,0.020668189294986254,0.03511696150706238,0.057189284626942755
0.16583416119820937,0.03320020514856557,0.02967848753585084,0.07936891065090576
0.12079756843104782,0.026280253246802318,0.049989901475755855,0.1113794009232877
0.05809818909282899,0.03242663734264674,0.022952610659144116,0.08150420180311788
0.04933060821820837,0.035898879602611226,-0.00130493518327445,0.09511388949548925
0.04204258174305588,0.00652720983560587,-0.016637094772573968,0.0046017864083154674
0.007680053229990754,0.0036997301601131836,-0.0276147517353713,-0.015380553344754527
-0.07953150028949099,-0.04064727288765108,-0.054953746729801356,-0.0385679458171881
-0.05663586309359796,0.005378514959122714,-0.04244838768368989,-0.059727359919758145
-0.07185823981208496,0.031000019413432035,-0.033098578361741265,-0.06269910464713999
-0.07670124569435409,-0.02265207366837908,-0.0532886506185271,-0.030874787565017076
-0.011676919934102479,-0.002572282306154878,0.03027993012679145,0.01794057020988799
-0.008533443892458982,-6.628041028747905E-4,0.007170469395075456,-0.023685847131608633
-0.0021797995741444204,0.012304589990293787,-0.029600951188937578,0.011170567595787129
-0.033469256614070166,-0.0266743793775338,-0.03376209452478551,-0.02197191218157997
0.018277083259376718,0.010883887697221985,0.01947722843132042,-0.031610641922883556
-0.015227003234342042,-0.029701210616101023,0.024073077295373696,-0.028728993993358647
-0.009756113120230862,-0.01495353047365285,0.028546424728298887,-0.03141625580916326
0.016053873064514498,-0.016025928727208514,0.015282168326182273,-0.011117486831842285
0.02292106682622132,-0.014756195284056129,0.0044814593961694455,-0.004342351500647929
-0.030407503922991446,-0.025530091339646788,-0.016008492462126305,-0.00628796126939386
-0.11074258503104015,0.04064506728969962,-0.008168442462739565,0.0029438972387144462
-0.09990174955888714,0.0027079675461456915,-0.05138026312504943,0.0157457931785602
-0.0931431848755139,-0.0011277587950414257,-0.011860333846780305,-0.0013758193820286888
-0.08196985456593782,-0.01328962168582006,-0.03872092664904244,-0.03108564647800206
-0.06595305581639264,0.052522072966712616,0.02659623525855115,0.013857776945992646
-0.0032283015123716194,0.07687208265796731,0.05845979079603933,-0.02397842229799596
0.078015962403958,0.017807288204345167,0.10722563399585407,0.0354213152080485
0.09453883563763468,0.03831110075168969,0.046045529815912,0.04375205474361517
0.16439282477486455,0.027459524051898377,-6.934154617518705E-4,0.06172192371204947
0.08928302155483636,0.08806316639691603,0.027333065121377793,0.057563731991013715
0.08728704311700623,0.07921315358257407,0.019553829648685427,0.0934526136112298
0.06182236273436245,0.05449152388365943,0.05037392097945743,0.053510796254849564
0.08744563063757674,0.02029188803823442,0.01342629085347224,0.06387461992367023
-0.03291562927121723,-0.025074825850521447,-0.016166164182924846,-0.005194511995366933
-0.07166017154116743,-0.05517357248163424,-0.07520440104134367,-0.02380436724510875
-0.11763449393632314,-0.03498069918519699,-0.0602439402940501,-0.05105275763505356
-0.07906167752827586,-0.02258283148814272,-0.09560876357121613,-0.011969447338129303
-0.056784372824496034,-0.01901146836505139,-0.03400427857006165,-0.036488807510708904
-0.010846586435262047,-0.02884452722422978,0.006019408962639562,0.0036414531722029466
-0.005671380734191522,-0.013619152705829876,0.016102682417201634,0.014292483406362562
0.015177328644407843,-0.01209833164992089,-0.009466567168924783,-0.02149128534218243
0.023347119889361088,-0.009442685924286043,-0.0270720991781438,3.909907621243049E-4
-0.021649127959959612,-0.006513661211230352,-0.024881757278641902,-0.027012276984682983
0.0022824442667068,-0.0044019179857284615,-0.033629900364329855,-0.004463007687522359
-0.013902710385360215,0.0311317260221783,-0.02417857359621675,-0.00645993005601312
-0.034622627791904365,0.020212660110397337,-0.032428211038969396,0.0020514935297619944
0.012459650902681101,0.004989130227851858,-0.0427771035955967,-0.010559854868508552
-0.055844846763570426,-0.002104030535020596,0.004391434682148543,-0.020145854781357806
-0.040184434718399775,-0.002247825413739398,-0.047073016702052925,-0.016183024916786838
-0.06254002656063526,0.03798948052042544,-0.024265745600876687,-0.028172103137826355
-0.04117361207767991,-0.006878470133175561,-0.034783966928550326,-0.0038343488532372808
0.014265243687161628,0.0270456433401471,-0.00695621755771605,-0.0014966121030629922
0.006696234634741157,0.042472102168806966,0.04195918153027122,0.0014929506839588284
0.020820269382220598,0.08416516322787408,0.06785791762615133,0.0067029298565843606
0.09019505711000446,0.03352005182291058,0.046324655202402684,-0.025231115153810317
0.09097707500939173,0.0632831017242234,0.005448804842186134,0.04308612835280219
0.18327190113037328,0.07729190896966223,-0.00995228745507022,0.034740720850955614
0.07546458748410534,0.0550985803626229,-0.003072691122219318,0.06339020679701801
0.07213187904002144,0.018740112168897614,0.05050688771518989,0.07386702400096128
0.039871536513795464,0.02851769394828136,0.03306417405001863,0.11229472770655662
0.09086719048081762,0.00829970791412472,0.05069151196300578,0.07936195218728502
-0.009232832551246841,-0.012548474783564975,0.010238697574217635,0.011909628251846573
-0.038505733460779845,0.007978658829390223,-0.0651089047897715,-0.00832262492144322
-0.06498164591552588,-0.01187265764486758,-0.06056585234666305,-0.010983286323466892
-0.07314125006015011,-0.00568338913522991,-0.03996873386704321,-0.052190351435410946
-0.028055459429444995,-0.025644972881119176,-0.05957336420201726,-0.04187147742427209
-0.0021455662980232612,-0.031166597096999087,-0.013884924515422042,0.01164831437240572
0.00723627436433731,0.013189105873414438,-0.0025816164946536784,-0.004545052121693004
0.027592042246070887,-0.03573789340297914,-0.03295393367288507,0.007796233220919058
-0.0071481191054387026,-0.010819823467927387,0.033794778688812595,0.02786407786362962
0.028755683495687207,-0.02737703941614881,0.010727188846218507,0.008933841602912673
-0.03607724169422022,0.014758226617657105,-0.014214181197795533,0.015313082443478392
0.008190220380466068,0.005924874530964777,0.03493626888091441,-0.02289248720423248
0.03679556077039324,0.02563451512838058,0.030064708427273237,0.02290224040322305
-1.5817193663637556E-4,0.016316685316153073,0.025099606910236886,-0.02827129915126455
0.0101807700873153,0.013297637213003874,-0.003867534120886386,-0.016095438862373374
-0.04965376352694653,-0.02012167277002117,-0.0020795778381248005,-0.03745751665748058
-0.022982351993943526,-0.033638507020273954,-0.04978840464428089,-0.03832538233934195
-0.026851085319120074,0.03197344254592698,-0.01806393013655082,-0.019835946679765737
-0.006336669772032932,0.021117893335553178,0.03370665950687496,-0.009057512861698053
-9.315843849037409E-4,0.056828031812317215,0.03654504610767067,-0.0076557666312806446
0.06439476507653676,0.06340631810018937,0.028291203188753142,-0.03439297070567644
0.04977124460153883,0.019329292296245408,-0.032294649658745726,0.02917319776412653
0.12348566438192397,0.024940795047631532,-0.03193270693190742,0.01359297529215387
0.15597428626418375,0.023451481758803377,-0.028201024321613772,0.04212512947313598
0.030123491247700602,0.04821264412657414,-0.016557924118306797,0.03831602266298365
0.03923770528557009,0.010130254730108059,0.01728355318593184,0.03960659203376764
0.0615264532546308,0.03946304067081206,0.0481525485085496,0.09090850699016993
0.0865194978035194,0.04838787813577507,0.09303160909147244,0.06822535757983011
0.02721376698502925,-0.0011213472205096684,0.01517615553405128,0.019500517427249633
-0.03195886481920809,-0.017227968116707182,-0.0046024466900375,0.008523566608306034
-0.05263485737405913,-0.03765942174944544,-0.054849038918519395,0.0074980445491147985
-0.05289211221963688,-0.0018664803013136138,-0.03175759007022443,-0.038201517023941416
-0.03987775904306713,-0.021345851334138487,-0.025457295378955393,0.019938525829585992
-0.0029482372463361366,-0.01113814922240032,0.009025735354358237,-0.033961184889696516
-0.012579762377685894,0.03478368896012907,-0.030096625907187542,0.01264141618880246
-0.026679586179363862,-0.018860540613470016,-0.020038026668580424,0.008742794119833572
0.024625735824439277,-0.009811341149365814,0.015264314992333498,0.018820929909089876
-0.020614600475255398,0.010819316788652049,0.01780141245973772,-0.0035912235456145363
0.026914162692505628,-0.021251170614907586,0.02044997690805807,0.016200034501381428
0.007758084359159028,-0.004010484669899435,-0.023720881064581548,-0.03395228046535244
0.025119769302412758,-0.0021696551339435086,0.003400632934647742,-0.026082192007300692
-2.4961701846206553E-4,0.020128041945695476,0.005788292663611342,-0.022143381564622644
-0.01749539635446651,-0.03607911845804,0.02820043675989426,0.00964056107961759
-0.03587183012891307,-0.023364346210079035,-0.03837994895803428,-0.033857633662884946
-0.02738409751220524,-0.011541269846441573,-0.027703141815542898,-0.005411127672347179
-0.049606113689336186,7.161058521720223E-4,-0.03458112639881472,-0.025362630667481043
-0.0241891892658591,0.05816711022625684,0.013516708793010885,-0.02029895349357211
0.022379704041507395,0.09230770068053251,0.027763924982901637,-0.03594257595396038
0.02494040776880228,0.041290257384193986,-0.04247924254314505,-0.014142746656094865
0.009760220709783399,0.038311008323100366,-0.04415346735230591,0.0065055580915361995
0.0526141155785166,0.020972500018736136,-0.052175240456680226,-0.01340401426041681
0.08606924575198119,0.03833235971937927,-0.060740822097283154,0.008843924979029485
0.03732202688959457,0.02031748481670136,-0.05181072155297802,0.01136107819327414
0.08736682046620152,0.004406047281016706,0.015132578674417497,0.017098860645730546
0.07223675860139937,0.04525407371328766,0.055548263708432105,0.09217676956287182
0.0476742218156356,0.03541867047021739,0.09644852389286214,0.09415752715165578
0.03201828837111486,5.688160272175663E-4,0.04940292470788089,0.056123890076914935
0.015037419250110831,-0.004066526118440629,0.008976425224477141,-0.0072700220699502965
-0.024780243291145983,-0.015125500592908203,-0.036622395821464586,-0.012919889052155846
7.361524739899266E-4,-0.04192230449081546,-0.02441276312212194,0.021557773132359147
-0.050490940462554264,-0.020163905669305322,-0.018498588957942888,-0.03817045884405936
0.026691093993117542,0.001748781742330125,-0.022215786798028794,-0.03063926478878601
-8.41681266476321E-6,-0.02988690333786942,0.025363002394700095,0.02726256132844668
-0.0016829287460926156,0.013991298414947666,-0.030606994486723292,0.010232800972716224
-0.01368752863389144,0.029783099647460416,-0.03406791544129797,-0.0033754805897969037
-0.022726342558129053,0.029712917945243694,0.017535124451652936,-0.03450387795206158
-0.004566750053203113,-0.02061244628136175,0.01581736286792597,-0.024871350558633862
0.010188126335198857,0.02540396054600014,-0.012993564104077563,0.013830805711326824
-0.007889352409468165,-0.01362416571187887,0.010191846328323251,-0.00258009328302872
-0.025384500871116156,0.002141817854625841,0.01600599232725374,-0.02224351358207121
-0.014641002623348375,-0.010258841595608439,0.019709748256800826,-0.0012863432290554215
-0.0066990177589153505,-0.006157419872727304,0.01600799686696937,-0.07436796575839336
-0.014158528144207119,0.008566403890276172,-0.0015131326258437227,-0.06700220122667495
-0.02105194171524228,-0.017667084522723673,-0.017465681548310803,-0.04856288303544863
-0.01337401963501496,-0.0025261844080403275,-0.023573698910713106,-0.05550969064332495
-0.025365677928509116,0.04917787036533418,-0.02045239131070906,-0.06728886224790177
-0.05764864921736562,0.03322844557370851,-0.039362739293793636,-0.06602950337862801
-0.0255549159987798,-0.0051074922043467365,-0.06249326548238582,-0.056860164943095086
0.02568959869868391,-0.034209500649005346,-0.07575808860081579,-0.0425089597951637
0.029906434615496528,0.024156629012295188,-0.084941462832068,-0.031766414708728784
0.01949865194509702,0.003269746284265487,-0.03263393875080236,-0.0014048581285863234
0.028599250642654547,-0.013138324811571855,0.015562142424285738,0.01878949883579126
0.038793756954869855,0.029429990458983587,0.0468488773272266,0.019041729497344426
0.02968396305382476,0.0069879788697988655,0.05456685379613902,0.004337946372398637
0.015086561979677065,-0.0091435451035186,0.01587710840234269,-0.010028334994869935
0.0036590082131296798,-0.031705552961096936,-0.01927542529376662,-0.006716682750012295
-0.005273239159243969,-0.025632673162086013,-0.03772911685355161,-0.021415074667885274
-0.019912556709552595,0.002031580437515034,-0.01753817906241453,-0.02524735267119572
0.01235868354362915,0.004868488304121979,0.010234901284884124,0.004912334439755251
-0.03276350318451306,0.01959470500083033,-0.008456876797311129,0.016223107927288503
0.03529638567566911,0.026654285038564318,0.03641179295347696,0.012259549551832996
-0.004499502411858306,0.028314025171541586,0.02445279710409751,0.005657074514042024
0.030300122275794216,-0.02048398436232447,-0.022251139035705386,-0.01846257113513876
0.03387336584979275,-0.020733855448956638,0.01450606502704816,0.009952172812024788
0.02222396145661999,-0.009202106289796497,-0.029392700452245915,-0.00441704096907187
0.03620898173545261,0.013496420310466327,-0.030284782960271994,0.010222808803265006
-0.0018670327809030749,-0.03769109057418736,0.0050409498440604555,0.008841031089317528
0.03751409422078307,-0.04007380930828747,0.03123211602070581,-0.001670981644865346
-0.0024710319646567736,-0.03666935186841819,0.031731427151684775,0.03956576344722621
-0.002151514448045974,-0.027019914392894907,-0.004457840619977863,-0.033174387538454614
-0.06823219980827179,0.014980800087082453,0.001375452305939357,-0.06576390213566247
-0.015955660170700273,-0.026812219118665673,0.007284520418031117,-0.08472453876301166
-0.05351252773493258,0.034311190345006785,-0.02969352334564122,-0.09884102634354047
-0.0669836953341238,0.03532071637346108,-0.042848592050462236,-0.09139919801611775
-0.04532121775030032,0.06267658311913327,-0.0673505952481731,-0.0677295582274663
8.547105369758795E-4,-0.006349611753352179,-0.06485017199151748,-0.08674383746894285
0.0014314320872929882,0.018197911310126467,-0.0644131802713073,-0.06011896264833247
0.03720093209888997,-0.016584220545175988,-0.035013974983062426,-0.041867168821527315
-0.01318764447167006,0.007055458005234407,-0.029149509807990776,-0.03689381811856836
0.04278168818349585,-0.009930431428484833,0.03097381768791436,0.009255966458397026
0.006709385120798336,0.022010342603577586,0.055562143208977906,-0.02122948173959353
0.0566197991956564,0.0026692075309460816,0.023390240483380252,0.025584420245298643
0.01590272290642634,0.019673948532654095,0.030111597006911482,-0.03633497616136461
-0.00742144521290345,-0.016527410343722227,0.009487988630817176,0.008048971529168475
-0.009367296137499141,-0.035453014863454715,-0.0034896799965847282,-0.050592672768853375
-0.019059627916177838,-0.025289121533859527,0.007042207981533598,-6.816756279265966E-4
-0.025801664654963752,-0.01857459073765431,-0.019200113204140893,-0.0016819397114063179
-0.007140453006738024,0.0039449058096810005,0.0324653084333745,-0.02071113330458365
7.618835163491442E-4,0.030859389787743708,-0.02717408502023094,-0.03852783072214025
0.01512280151493646,0.023258056056924235,-0.01552270275485388,-0.03341038961352549
0.03226097837883729,-0.013299863600829393,-0.028195094057564707,-0.022774019300053194
-0.02005242777452575,-0.03325750971159856,-0.005551924374754648,0.01347776683755567
0.015505937260955406,0.014624642030185153,0.02546024818585645,0.029842264016233827
0.038926174427174734,-0.02652290664211342,-0.019167108646786005,0.023231134996265085
-0.010586630823688499,-0.013539239246175944,0.0077931854841089354,-0.009965170951474978
0.044320765764405065,-0.007320646835559196,0.04527951845787388,0.01829074905687363
0.028580124841463796,-0.016722544077026454,0.005485902582826525,-0.008773602486368574
0.02214463733265941,0.010266914656763245,0.013533656744317337,0.011628790821966939
-0.007224751394188022,6.365514974136235E-4,0.018495576630807687,-0.026932964588117655
-0.04020237285805686,-0.014625648615547061,0.022696904910009006,-0.06186239306067599
-0.04023918999524403,0.012488640601331839,-0.006368865189124456,-0.09370273532810622
-0.015630760885984262,0.05221953313517526,0.015432453865497773,-0.10278679632101793
-0.017676842800581776,0.023814219843767408,-0.004699212943207722,-0.07927108906904079
-0.011438801441989749,0.03758877931410349,-0.02674195964067496,-0.05084993728606582
0.0021549035098751904,0.009565438127581106,-0.030913337410047002,-0.03320950201840536
-0.005067528624759963,0.008944800735882911,-0.024477792293450398,-0.03446664604892864
0.011411794471850022,0.03637288724517866,-0.01972017980096689,-0.03365771979100689
0.03801729529533482,0.0350022600617147,0.06346396586617516,-0.011541417266072081
0.04374748164258843,0.04447580314803667,0.037049700702964476,0.0015314241495061438
0.03971647400419552,0.02026196403819813,0.03319163185862174,-0.015184089717848135
0.03989786256649673,-0.007773929662211544,-0.0065097775522103135,0.004577185201826719
0.04026673915105811,-0.01081168528359214,0.02590618199542309,0.003217315925319983
0.02876448781586856,0.01594703954648581,0.028142278021569864,-0.01876765507611907
0.02350458502478376,0.003837737378700317,0.03120844991619066,-0.04373941159463625
-0.014980686096395293,-0.0038897944093434296,-0.004125725438602287,-0.05925737252989789
0.030580942531989785,0.013428901657710735,0.018799894701542245,-0.043454842507429356
-0.02327425198886466,0.005562100421800365,0.0019799366571686327,-0.03803738585598609
0.0027467467457936968,-0.021725019234140122,-0.019075314006048,-0.030086682877362395
0.0010999384705835166,-0.0201632281128378,0.035338262239756835,0.03199247983572541
-0.029613406791877833,-0.008297095714575924,-0.016475090827388874,-0.0202580390689374
0.0020430077760425214,-0.011162374324372512,0.022389055479068016,-0.03178343340437656
-0.02071359796705252,0.003523136519955181,3.3590266176505726E-4,0.03749518508565207
0.009350640453955051,-0.046566595857885106,0.012731212379712201,0.00141584342293383
0.007530885978506118,-0.04466605592695798,0.007623627635769911,0.03140604537548576
0.04938514435078583,-0.022137479749727795,0.044344613250704316,0.027774734545656665
0.06011677168063769,0.015268304206719202,0.05783975006306621,-0.010560540647775618
-0.0037147991593488063,-0.007473896511833488,0.03599148571478215,0.021849968150845805
0.05243608226562794,0.011149481587397564,0.06487480496724286,-1.8224662328687665E-4
0.03259384401298115,0.0033110444819559495,0.04824652261097409,-0.00837739597642619
0.05184929732064102,0.026508215697349003,0.024366522085397028,-0.05483806080410451
0.013890023264429632,0.03577697504504106,0.01023593144077468,-0.0719573502419748
-0.0181107858427584,0.02813896239475554,-0.022083797998269258,-0.04655624252845931
-0.03879942545754182,0.02383275849206854,-0.04727800677131698,-0.025884925869460108
0.021766634810040104,0.02134557527704092,-0.03378075186157744,-0.04107052712724387
0.016055581218831508,0.06319830658352729,0.05047593534612688,-0.013980594308962794
0.06607610749931087,0.015111322182952512,0.002736336633019202,-0.021988214823092177
0.007832615608142168,0.017134732176790568,0.04216323902963526,-0.010064607323556934
0.0545987384889173,0.04281071002583639,0.013899753342029374,0.011119970625471213
0.04247259897718057,0.03248793846530717,0.05024402790719214,-0.009773395857182822
0.01698528860367827,0.012137148397227234,0.0434031005519207,-0.012908756581928913
0.02205351311104624,0.012116536981775308,0.018915547515585003,-0.040570667206308024
-0.005503073050479965,-0.006184074903944563,0.042889889001588154,-0.026629803022339173
0.01013739235020334,0.018085191988507967,0.012832827443754255,-0.004041962093076996
0.0020524527418025896,-0.00945829823275989,0.02541731556551725,-0.018456098441291063
0.020635945419222347,-0.013347601882630193,0.021898679984963317,-0.03593822195140709
0.02267596826165815,0.03144235923039485,0.01688007857767014,-0.00929386380980075
-5.475534240818775E-4,-5.112067247012628E-4,0.02922023325246835,5.848394209174199E-4
-0.01049714075224222,0.03145316399430292,0.018860903219018517,0.032489153655370154
-0.027295389643688057,0.022020229456255886,7.77362848772735E-4,-0.02782857210025306
0.03395871702919544,-0.012162005953268365,-0.004637687318146901,0.009705422392706296
0.014153128057216913,-0.03683340644473999,-0.021367873760370474,0.005801401337744821
0.03678060763729924,1.296121171962631E-4,0.007603524746217959,-0.004109681884156581
0.06833923114380319,-0.0274454376826718,0.06614543754351536,0.02800541593373897
0.05292519832620031,0.014829641504050752,0.058609249051643816,0.056487254393489096
0.09223195920996083,0.024648318627678682,0.04846922841073402,0.0035748089733006424
0.0910881006173695,0.011282464152619682,0.04311066405368165,0.06747778019330389
0.07366544861786252,0.012612656923703199,0.058482921247810314,0.02833673429398347
0.08992400015693953,0.002444894361267144,0.07529874633976938,0.02618767200540184
0.06756954118544414,0.04323574325262796,0.028652471516490145,0.013618274931946884
0.014708738427142064,0.049684373494999164,0.007342123127754619,-0.016843987547305695
0.018616632827495087,0.055342609005568796,0.010046009262622047,0.004819928049690241
0.043807951531611475,0.03668339760968207,0.04948564043057828,-0.01607883230750447
0.05463093133843842,0.028307659792233455,0.005513860408486444,-0.008940826762787709
0.07477986975790187,0.023503638464938328,0.04726886608056822,0.029407300280908977
0.10740082942689161,0.05332112545519365,0.0634225350932218,-0.007678957226890645
0.043120946424131314,0.01919948046092564,0.04796728132781894,-0.01632861466741895
0.022428891163605403,-0.0028035567172736936,-0.005672434397035154,-0.018237060776861973
0.058275781782917695,0.022393618346926877,0.04581965531476089,-0.0578837605983721
0.034461372730251155,0.015239598760503492,0.005449070362336299,-0.023456249662030304
0.01134508384243066,0.009802015659630214,0.010910998399819788,-0.022484118541527875
-0.004520693771845598,0.027169581098774282,-0.002495226142742712,-0.0559684666121054
-0.013767834832604126,-0.020928291425464162,-0.02609818050494817,-0.02744539693182647
-0.0033666955674295927,-0.03129160412209318,0.02926896107475749,-0.024715305550774922
-0.020904358273525867,-0.010446724425851813,0.0023805012294707563,-0.03562016808747283
0.03001546600751992,0.01819622152830607,-0.011127545673066733,-0.01587273932613037
-0.015188695833635933,0.003843780651894269,-0.00905538276038882,0.03062062870922099
0.005275690605128026,-0.02629437771210843,-0.005601116445548033,0.025315399653579148
-0.03442206830631819,0.012501732257632467,-0.01766116144560221,0.03583221706906419
0.03591514391620198,0.011783807501901328,0.02487081203431837,-0.011544974468411198
0.04371552495335135,-0.03066886006824401,0.01356967899667113,-0.010319338681926417
0.03260820225148765,0.013084409601616004,0.033335692535242996,0.0011181017955929154
0.06719424903427802,0.005490124041080407,0.07976952391939823,0.02381483624817498
0.09358230815932506,0.0368866592231525,0.056167433817820925,-0.007936026233069177
0.08870069528500386,0.03249558906550287,0.05883709615103576,0.020874134817195356
0.1455711213031722,-4.6610239429506896E-4,0.09852992257574328,0.032313805424908706
0.13767087454637844,0.035194724524872,0.10856094867475426,0.05848679830970053
0.08759602873390104,0.012014148967045024,0.1052287078698199,0.1064831750431677
0.09091910062424657,0.02927159636696322,0.10221272627184322,0.02201085056641471
0.0481351854987231,0.04135514151078908,0.08979554294900702,0.06844907591952847
0.03394755522373946,0.050763702471558834,0.04873160391709075,0.041026490844597634
0.07429310550026975,0.026653244520356105,0.03665309356627459,0.04330351087304502
0.07765642916077024,0.017552908092430104,0.01862328473390961,0.03859049042981339
0.05617236201678752,0.0036738940518412574,0.053480872789642656,-0.017328453022481875
0.029036474631100716,0.033709188559110016,0.03443722042061907,-0.013502758130429861
0.006722499744888705,-0.028338649911131497,0.009960805219577828,-0.043607338101509324
0.0382901971130649,8.490210747350528E-4,0.032311132848985555,-0.016041052423046515
0.017359209176191482,0.027490710803185,-0.0030173140884777448,-0.01562898916947581
0.006167527283126224,0.033638158662064384,0.020836437124774444,-0.025639816526536963
0.016441755232230102,0.018779262150998056,-0.02761491712070701,-0.030095818880848235
0.024210954085784962,0.012156283334372745,0.01221974860147171,-0.002842145109448072
0.008316032309561306,-0.03435955805387121,0.008658323240859477,-0.029962077560521674
0.03059091541158549,0.014533803780778955,-0.02315324944974129,-0.016024077471423117
-0.028902324206123303,-0.018495709903766495,-0.02582114001829466,0.028931911696690436
-0.015918467402607533,0.023095828441602947,0.021082258235638883,0.013297402573781036
0.022370562046983893,-0.013791256486873665,-0.02631571615278517,0.01241184177484591
0.007095045984410875,-0.0347037686251135,0.03320100428930807,-0.001901862218038604
0.028044389424865965,-0.03657886324715491,-0.006850590815181894,-0.017072099472275833
0.024315348701146395,-0.028486833368019264,-0.005533235128596797,-0.001863177643831345
0.05614470375283804,0.009972655037887043,0.0034178394483825388,0.03258157031460353
0.1012901478038993,-0.01986717326525741,0.02579842464099445,-0.0050249847135995385
0.08225696906139451,0.020481251141470758,0.051949740361976214,0.028197725401817864
0.0868358118399285,0.02697266748134266,0.07903274779589768,0.03423091263999377
0.09629943824365254,0.034399910598160076,0.08099779473052703,0.03384467864199869
0.06094626331663761,0.012515748636803022,0.0482704611275508,0.0758236392844518
0.03393661830866341,8.755240339377849E-4,0.07913563231402447,0.04251637248598992
0.060204012361334394,-0.02674479478233513,0.06735185157439291,0.07479625051127826
0.037820857956131486,-0.01665524754931975,0.0384782006274608,0.054373823120694706
0.0013494781703694328,-0.02431469127452941,0.04484530067107005,0.021455086432837413
0.031584255256764684,0.035406574130512014,0.024112234519582762,0.010365292052609876
0.02983436027381171,0.02777552325809219,0.004272911212530341,0.030503415899536056
0.05088837245357193,-0.01196126338455351,-0.015350433403978448,0.04123800144814556
0.025026223228634976,-0.007196756632721653,-0.030529552526618063,0.02144086781249032
-0.015135853891598569,0.034873605704305595,-0.004146189339026392,-0.047437569480294185
0.019280146358219157,0.02888711416378794,-0.040068975204348406,-0.01693242965481631
0.012287318883182146,0.02443912373658366,-4.666727138302585E-5,0.004083168092668177
-0.020030516088318105,-0.013607096675292533,0.01403468734507887,-0.03476496726606832
0.03871227838291319,-0.013702517031698957,0.022839278203894434,0.016593982231891107
-0.010827860561802086,6.935010130706183E-4,-0.011924495115142656,0.018256784664706153
-0.016313481527303754,0.021954296021069433,0.02382456379235075,0.003944934675875016
-0.010787232468349606,-0.008679203615740679,-0.019721252012110183,-0.021857380263401838
0.007390324087313473,0.03154825147075098,0.015231513557470447,-0.034705668454534946
0.017721041704073563,0.02345532908047416,-0.03287682546431651,0.008364259839326087
0.011155329887119023,-0.02584757966273383,-0.010366024605531647,-0.022312337474746147
-0.02965823913882767,0.0020687219429190154,0.03009454441476835,0.020304710615546336
0.025827048648963874,-0.02715551374468029,0.010747003914261529,0.02876057495960752
0.02346349232522727,0.008578488583796538,0.011158755467124927,-0.022181710406637876
0.0459811197945396,-0.025329274283312383,-0.005146111987504847,0.03658262372958983
0.008676970713987127,-0.017123531083319796,0.021759605667360328,0.021566438233675562
-0.002553834908075424,-0.0300945287752481,0.006655312823111871,0.019627866493953105
0.020639921283659417,-0.023707778774925095,0.049553290624587604,0.026982323970086323
-0.024086560334142956,0.01841168332786693,7.789019773967703E-4,0.023359263550848344
-0.004571107219163799,-0.006066260202138294,0.002064591430019297,0.01143655296146927
-0.015281629489838853,-0.028640188098285165,0.02428212287435501,-0.021778910353361762
-0.034788652557704414,-0.009171740816904365,0.004849066284144071,0.016656123233198605
-0.003633688306432187,-0.009632830323567067,0.003742697465378605,-0.01931067264142044
0.009451324222447271,0.018270334826824757,0.01699613245078484,0.017583657476725495
-0.035217044370087665,-0.005028006921265961,0.013452781034014632,-0.024641896308560455
-0.052265767754063566,0.005609576735257706,0.012205424896790102,0.013557573445876808
-0.030208272410763043,0.03673302594758739,-0.02536452521740959,-0.012029920158946716
-0.0243646509095527,0.01651561637454207,0.0038282174703018813,-0.0033114919518249784
-0.02470282303936833,0.020048254348050833,-0.0038299865597374995,0.031975569320359144
0.016882138826301067,-0.012678229698910484,-0.009374528291538172,-0.004209245566602802
-0.007464835405033926,0.03484921149459959,-0.021133507803499943,5.365971684506348E-4
0.013789650880539359,0.01802138134077254,-0.027299099284624588,-0.004162662628256715
-0.007264480240520626,-0.0026777364575915775,-0.018895429057590746,-0.03456940917016298
0.008712389527749824,0.03517183548722152,0.016408911570170246,0.01759848132303155
0.026687932441154714,-0.010980208289355326,0.024649238117435253,-0.033827154462492785
0.006132901064605972,-0.0013624724266137118,0.025740929234772728,0.030836589231526646
0.01684165059234405,0.012157472746329938,-0.005032269869864197,-0.026470190593351046
0.007697863320805666,0.015210471572237823,-0.011085832736199522,3.476600622723952E-5
-0.01873364804374711,0.0036899339008728757,-0.0075443413708246344,0.005140976211088742
-0.012352651147270275,-0.02184511641843175,-0.01909436087854328,9.301798099070909E-4
0.02521519039243551,0.03332116154097851,-0.030247411237971342,0.003518636101683081
-0.015077080219645433,-0.03003924023357338,-0.0017824365988777298,0.007214258294593133
-0.018702777271285234,-0.016726052319744774,0.0015833708503293228,0.009603245760839655
0.0187855625080453,-0.0024239024041695706,-0.03313108095493317,0.0349856492641204
-0.008059929619607342,0.005640835381292463,-0.025324594749148492,0.012687590167129085
-0.04839355756129756,-0.023682617074597963,0.0035306416955510752,-0.0016865340355214805
-0.03866027880060177,0.021916861498132042,-0.029948562431869045,0.022556162573422123
-0.033381833537383596,-0.009430099493686124,-0.0026218265762013734,0.02011501440911683
-0.04481053899636786,0.018420814599087936,-0.03581877250660085,0.006416186201435823
-0.03595126744172223,0.024192681369844888,-0.01152375011557491,-0.004278772659384233
-0.03548185776680215,-0.015803280135122118,0.01801192502324396,0.016637536549413173
-0.023947726826340426,0.009998449887174481,0.005677320694782917,0.011049799574341762
-0.032185210820627426,0.04637409351388631,0.00806896210173692,0.05455447851370433
-0.016290563872856604,0.013488974612828563,-0.040489933735635614,0.04924947479637688
-0.007083452926223229,0.013195036003333103,-0.011353877305039608,0.016931655209245777
-0.017320050013774055,-0.011453663872628889,-0.05012317819211808,0.007892933589040111
-0.008708503544124675,0.026186418137726056,-0.02065430957928569,-0.011345326816629772
-0.017452909908673243,-0.02954295214264523,-0.04459300094047513,0.02517636846395065
0.0315439124270666,-0.028283098140290956,-0.013420841275849573,0.013974235458089462
0.0031205962590094474,0.031513589126821506,-0.026138185262838304,-0.016118927056565927
0.005115754534901503,-0.023541744671869484,-0.005628931398590381,0.027712138360768444
0.0022470506640497336,-0.021497615064016998,-0.031364045808641154,-0.010599584987389374
-0.027054563988235865,-0.004976939246818062,0.002980136357054169,-0.007993196894880992
-0.013173806897578503,-0.014915138338304997,-0.01724934125123427,-0.020356070948378786
-0.03386829365486244,-0.028393086525212004,-0.03500264990257586,-0.018183031798516602
0.010295608179488151,0.023537115693778428,-0.029928119488488936,0.032173557358836355
-0.019964969541006246,-0.012374720630925238,0.015967112805503406,-0.006372262014389181
-0.034007334808397544,-0.031652647037323844,0.025873193287920884,-0.01630194425410187
0.016641285338126664,0.021431052482150117,0.008368205501422296,-0.026832183508508273
0.004890522108467409,-0.010607394866177395,0.031105342132122512,0.01016698639589248
0.013354755160983167,0.006573809847784812,0.010409267719184387,-0.003751446867134363
0.012673456024616201,-0.022403411012837902,0.018688640523270003,0.0024076849415286985
-0.01191573202932238,-0.017562374260220368,0.0040385838270134,0.024985570220721332
0.027747859286825136,-0.027780065670268143,0.028913505848327914,0.0095439743883546
0.02647164012685036,0.02238310084266885,-0.0128231678133632,0.018311416245338535
-0.03902615507673013,-0.005622435932212668,-0.032704733469688746,0.0028754331355051502
0.00760686644886846,-0.012103092801700346,-0.055063505647572134,-0.02143841798374025
-0.011995436303491112,0.02396703272302908,-0.022810416107393556,0.03523787177044672
-0.02308243708174999,0.016241557024808933,-0.03281448348818442,0.021845012806461398
-0.005507066759713286,-0.02438994016808333,-0.05459659209184271,0.021535933502068026
0.024244150341143297,-0.008224541782583254,-0.029697475404462603,1.724292733285711E-5
0.034474831265261366,0.006242080663240254,-0.0022284333819665254,-0.005021732468019951
-0.02601626405807854,0.037293937380094545,-0.020491163160369506,0.014332321366933914
-0.0073384048842147186,-0.03402105558485208,0.013417590386546384,-0.004240834503783022
-2.2082323507369603E-4,-0.004745475014671317,0.004903864289558997,-0.01639857250242028
0.0043471043517571755,-0.034249056773542244,0.009761971407611158,0.011546020377612895
-0.01737389495658849,0.026785721810797605,0.01616761905532656,0.006401586969859966
-0.017363906710137787,-0.0333872557804741,-0.01696598773830699,-9.25266959502436E-4
-0.008070648491743085,0.016974775861166684,0.014624193025546307,0.016187016747930938
-0.006209004709927896,0.010897391605017459,-0.009131230340777053,0.02350646197317381
-0.03034863624607627,0.035177596135406324,-0.010545364710649555,0.005648426032141094
0.017860772145313904,-0.011247654823354096,-0.028828214467354188,0.015623864102832237
-0.009623759823756975,-0.030423904552731265,0.017214049300420337,-0.023574770443132324
0.020530657858888683,0.021467368277354903,-0.007221766192615338,-0.024140364153111493
-6.51891989799494E-4,0.033502500871179994,0.01117278070786782,-0.030128618552868112
0.012643309332053605,-0.03291923744607256,-0.007515788700742321,0.0026390546489186567
0.029088668263810208,0.026981752011217372,-0.023843042529354937,-0.01365193814187408
-0.023826605946951396,0.02223317128245306,-0.004019834854566464,0.009261819331664568
-0.006404797875029694,-0.029019564145794235,0.034537220904258814,-0.030815990718570798
-0.03367675469159488,0.0354538276557245,-0.02269917299297397,0.021566951510999854
-0.03373765875871212,0.029611928755613318,-0.01712600099271063,-0.01661608904362338
-0.027350643108905025,-0.025653044235792757,0.0209175098810383,8.386370886121263E-4
-0.02869202749156365,-0.03546540858699099,0.014139622028335824,0.012869429764009713
0.03329062421849515,-0.0061604534277891814,0.032801723513539646,-0.020354592429417204
0.0016715497344899802,0.019511071699201868,-0.023640025910475825,0.005638829112875809
0.002449292360411921,0.02222156743815082,-0.022619575325636215,-0.012899297234145023
-0.03369089200653251,-0.016760312042988383,-0.03154962902643325,-0.021357764326354174
-0.018529456501102808,-0.026836909995411204,-0.03311663894641523,0.03332349036205515
-0.02981205601267104,-0.03208466053818211,-0.027728503315734763,0.013045432413606381
0.009488205851610188,0.01907070664181765,-0.007356535482944594,0.005471922781464001
-0.0012986996511168396,0.02176284213249461,0.021381717025025858,0.012080531438335061
0.007784220565797957,0.0019206538072436745,0.010993514156822337,0.006645569400535173
-0.0053302048756822,-0.02958084411104273,-0.013170907545484022,0.033910553183848426
-0.0029503450714931097,-0.0329096155685,0.025563950166084336,0.004231010490899308
0.0010455386482024996,-0.03312321912787313,-0.02146177668481458,-0.021627598918867383
0.025431412145161616,0.02146772304171994,-0.031294894737619344,0.026955602757169007
7.213916635479983E-4,-0.006912856000800282,-0.02888850479988886,0.019986080503979205
-0.006617131928674167,-0.031099531482315763,-0.021068938896230942,0.003722056043818589
0.012969004687263051,0.001165075698106352,-2.1868923443556232E-4,-0.030480776425105216
-6.41549775657245E-4,0.008397681509597535,0.03294778913987717,0.01944146884563841
0.02431798353037757,0.017823153294981083,0.027981812327181638,0.001597146047968026
-0.4810485662669097,0.8375304446089806,0.38566232224161295,0.11026099196392895,-0.057340262822730484,-0.1435224867722355,-0.04759211075485005,-0.0770685580136678,-0.40669986214558584,-0.12773748047979946
-0.24482651712960152,-0.5722218888396092,-0.29180601125614974,-0.5472820642872616,0.24807362992740176,0.06630105648270306,0.5536042886629856,-0.8479255139133829,-0.07612270070080751,0.13742248870670778
0.875481533988633,-1.2004643590355164,0.09619655468179983,0.1482984631834379,-0.28545738425626305,0.14566014502433805,-0.21268254773368123,-0.5506957824805586,-0.2998851603608594,-0.1650834611130935
-0.3928800929557446,0.012350565946477762,-0.7575630783245161,0.14024183560692824,0.12203792490109489,0.05268974117496892,-0.6898110949127799,1.008027250919191,0.014538978488678807,0.28788613571654365