784-4-10
0.029043141940633413,-0.009744873448488074,-0.02508436896558807,0.011792473939906234
0.01542275382893002,0.026813866052720667,0.009872454631074126,0.008770436307913
0.02019977374901022,-0.011319612323806065,-0.032792717475080196,0.008817961367282877
-0.010135729816269978,0.012034607148641699,7.130174355896093E-4,-0.026118431547372256
-0.016158319430141597,-0.024261489904860416,0.02187413684505575,0.004269343966833601
0.022318418809282356,-0.032999774508692965,-0.020737096563719946,0.03331641788584205
0.02881429283554543,-0.011850347165548034,-0.012268148210078815,-0.024889571602833248
-0.026624288615462142,-0.02666229141885442,0.024931358117298748,-0.0032047783509281044
0.012963946740116299,-0.010222832416273468,0.027855261528693248,-0.014167930457217124
-0.03319397778274332,0.021042500908405745,-0.01615765088197009,0.01064484229024449
0.023381770209439497,-0.030295093312432693,-0.028140608674773082,-0.006470587971302746
0.00927761734413756,-0.034966781598240314,0.02277284938132907,-0.028838157907579327
0.01781630796012527,-0.002694969888247341,-0.004626517365254514,-0.01894958458358871
0.012661013029535598,0.035115602994544894,-0.006571830575815792,0.013354961738169385
-0.003713458427592607,0.03152090327696596,0.026786292062776162,0.021781794629039647
-0.008731043522124582,0.0032651486697627538,0.03311222047532343,-0.021621223589553942
0.0041535651606029525,0.006403145303317148,0.027372248112394193,-0.03392635854926782
0.026430269935079374,-0.01352637193490262,0.033662696742855644,0.029858553148071884
0.011367817689811377,0.027460774319660125,0.01907150923523558,-0.009617968023689041
-0.024226457338221374,-0.028185025673629537,-0.010998084259243535,-0.03272637536585859
-0.025585529329263418,-0.02103257510163357,0.017281500131447865,-0.007757076379195607
-0.03489056319636509,0.013212900702381139,0.022265429072777614,-0.019090938903536508
0.008499782843944426,-0.015711589007068188,-0.017119539875272267,0.018588930536438626
-0.0025620514150861556,0.008314910737417358,-0.0016945787254092834,-0.03104011782278968
0.022511811291680894,0.010945322867379308,-0.0314465345416554,0.011260635271795702
0.02640957365599271,-0.02685386740915542,0.030155879668901764,0.010360718602784862
-0.022341673403261493,0.009093406727369802,0.03398547073391314,0.02992857176751193
-0.03199499318892956,-0.016477374913804393,-0.013642675039761163,-0.006081676354191403
-0.01544381444319486,0.021770303738727965,0.023664382503630628,-0.010807947410803844
-0.025176040621579503,2.8021873023460764E-4,0.0319098361216376,-0.010812593758899099
0.0014223866422755638,-0.0020575470661176806,0.03538384094946903,0.008032248512112213
0.02082643075313611,0.004306364638918647,-0.013385623122398611,0.021420348150242005
-0.0306572018381585,-0.004360347467671874,0.001696553200689746,-0.010122495640187777
0.02839024761385863,0.032122489958806164,-0.014592773411803102,0.030922663917260063
0.03377208183168347,0.006698480945844043,0.007892325168710492,-0.023084202423013803
0.013802462425891676,0.024423508718442448,-0.025215668410546333,-0.032612545323911404
0.03243630789480864,-0.0313388243776364,-0.003792718900049842,0.003673250742017034
0.013162181036657526,0.004374930156968004,-0.015500935940422157,0.03397856678487065
0.007265590785156173,0.0071719586592403125,0.03184313991850606,0.033740117349282735
-0.015393794726451427,-0.002913629958608596,0.03402512831929465,0.0018104936835441514
-0.004641611110915662,0.02632472009322347,-0.02989602598418568,0.01763813957961608
0.017923217071679803,-0.016919610809417576,-0.03257693756120204,-0.020993365685356886
-0.004542803707757677,0.02040975182674832,0.008464218267786348,0.016319841806061795
0.026232431686648034,0.013960043191057658,-0.007084423026546004,-0.007957934021703044
0.0010062693921222,-0.02307883750208544,-0.031279608838766126,0.033558859520338005
-0.026724415295544365,-0.017436958882700825,-0.004039686589278863,0.02217550411116237
-0.023663094974021897,0.026311135574439086,-0.012518712763382574,-0.026520559077709
-0.0023455401809865124,0.034043975283056846,0.021018740822415574,0.007400731263549638
0.016050446524775552,0.026993967310592237,0.02681834841728299,-0.0031411912979822016
-0.005687080135343462,0.03433657272605776,0.024128155909583476,-0.027699804911026374
0.018827242822677084,-0.019345623810956922,-0.01148972050144147,0.027776463721869083
-0.010270765047959108,-0.02742796472661434,0.004963206272281525,0.020576127367166762
-0.034796395593030945,0.011690467816288713,0.014861918226803293,-0.01220064383409283
0.012877529773461911,0.007810062929056408,0.015967254995788188,0.019156422440782542
-0.026162717430401522,-0.035689678603215265,0.03223350936226514,0.013616857438389258
0.016830236473895026,0.02302160659739101,0.012408703686500093,-0.014530814246556705
0.003388350255426713,-0.016728245045131405,-0.015923030767508742,-0.006142832586112153
-0.02596304945224485,-0.006499124822502318,0.01805279520896981,-0.0135148684848906
-0.026458437772081303,0.029785991814653384,-0.01673622918315766,0.007591125084768072
-0.03442720534778651,0.004605745385070075,-0.021681314251549906,0.013587674941725476
0.03471758637845375,0.010036391205900101,0.009191842812384637,0.017500346079578587
0.007419677523127023,-0.01594250827341017,-0.01303664598177413,0.01866989661048578
-0.03217952686302235,-0.006768254506599617,-0.01970110465367198,-0.03074658310482153
0.005003336371554366,-0.0023426302545333194,0.013210974172617448,0.031495861019426086
-0.03298099739209797,-0.034441507188353995,2.4609020786254084E-4,-0.01758988959400951
0.012672134011233741,0.02132670530080068,-0.01418765577018147,-0.01409854913081873
-0.033693822353742096,9.280805709111188E-4,-0.02333499349799837,0.01654413004721925
-0.0330670755969907,-0.00862831096523524,-0.031113223051870493,-0.009488888901242961
0.012407229275825386,0.0017468511588713436,1.873220982126641E-4,-0.022555752030684384
-0.005958696556883316,0.010615767354478967,0.010339555519793906,0.03132727987603191
0.004514289731596904,-0.024143375681539313,0.027574352120389414,-0.023240681009689887
0.01353526386864323,0.020857443822606302,-0.0054673069590068235,8.532250450256822E-4
-0.025135423756583494,-0.01399963786531934,0.027528355606165147,-0.007847315977424567
0.022714685873911972,-0.02281462665427229,0.016100885034182177,0.007455168721728242
-0.0020677784325678797,-0.010943154729546451,0.03486091327245091,-0.016753723119658535
-0.0036067665589378482,4.101090116350774E-4,0.033502384475173036,0.030288701870198508
0.0038087630589830035,-0.01528377946280936,0.02277377415648858,-0.01704047967370139
-0.029208733358339973,-0.0016716130685257217,-0.012681207811313188,-0.025029403757701043
0.031755330831564926,0.03227404274760708,0.014431913165104036,0.01625256100204799
0.013033182744486189,-0.012890149610255005,-0.002733550715500733,0.034520853803660816
-0.014365367043794984,-0.013742096813367997,-0.012306505429939642,-0.029755621642176152
-0.0353858018992757,-0.027167365100411654,0.01829767611697255,-0.03049448317655551
0.0029336514270517852,-0.017888219457573382,-0.03082702300082062,9.117449749367276E-4
0.029141470214803927,-0.007884815221824912,-0.021641608215963497,0.004275778722663014
0.034015208824988846,0.002602418237086776,-0.015184109323687339,0.02748191363748033
0.028412393597065946,-0.026943570519408582,-0.007908049840697491,0.02446415926238176
0.01856349193607032,0.02088263312710243,-0.03342264151280652,0.024569523749701033
0.004296182597528491,0.018169314758127796,0.03395057739188538,-0.007426054107075183
-0.026885538869987922,0.00870863144727755,-0.012540920247731407,-0.00863676270604788
-0.009303893676443303,-0.028967588679539576,0.005477289086101918,0.017976897233611264
0.020449835766390284,-0.032580307561984344,0.016043594637672926,-0.015657636450895282
-9.583033042725843E-4,-0.028271440141863658,-0.003045558100044734,-0.004027060681960033
0.023965849481082758,0.027254675770253027,-0.031468145843818546,-0.0036455000739719317
0.017056968772265375,0.005559790675211083,0.02161356038613775,0.018766710097356854
0.03777673604908062,0.014843074537039076,0.0244335237727584,-0.009850147052125292
-0.017557610968922024,-0.040613647371892006,-0.008056870731294805,-0.03695243963642871
0.031137530550408816,0.013734060095176324,-0.001989409305927822,-0.04870242898441107
-0.04517019952621556,0.014013188906566694,-0.03465321712056613,0.009169865783464798
-0.04916379058904029,-0.04374539078086384,-0.028354070120093354,-0.004296221661939433
-0.05864034037343194,0.006540844198414321,-0.012268773772108117,9.839937231845297E-4
-0.034342731079590585,0.02925077156106012,0.028005333407027322,-0.02020401471181813
-0.07889317015661682,-0.00341735009308499,0.0026284895353467217,-0.041414295848784886
-0.05301285548666587,-0.013608896621139586,0.01610260329817091,9.574207261276665E-4
-0.015980955686234463,0.006573235593189341,-0.03059319426992741,-0.009810474903232308
-0.022321503194814237,-0.01595007615827977,0.031477260723043105,-0.03549281044661779
0.02437347930730008,0.005557701437256597,0.023045429070032732,0.012856539037496999
-0.03818506006642749,0.004226371244631268,0.015148561650944446,0.014801743341305166
0.014824285907594758,0.013362583758330913,0.03063550098852285,0.013270555997523734
0.030636398844530417,0.01705205402161484,0.007735653020248015,-0.00515267665042733
0.030144558451297772,0.011385765370691121,-0.02798583589627561,0.015549184020667172
-0.027876703655696226,0.012656001537807642,-0.018150915411471742,-0.012983024030687691
-0.015049464555335408,-0.03324440456989187,0.03405220808384571,0.01527205194964229
0.013237973032889871,-0.004473780581737419,-0.0027205755899942577,0.009386018477195585
0.03227113149740422,0.0011719292480342315,0.02990728189975246,-0.013581540056408986
-0.023942388922780087,-0.0251174779692176,0.0211844624428036,-0.014641845290134443
-0.014461265977658724,-0.00700144695960817,-0.010941576415622266,0.016036002141944825
0.01830393052685783,-0.005676423339088765,0.02261195584074837,0.01889054508486512
0.018736835736963862,0.005656548705941297,0.029930882390135832,0.026091114054035712
-0.013329195528605634,-0.02666666461282034,0.010922697159661725,0.017922272214657125
0.016140721322733274,-0.008761887959688663,-0.029264398589191897,-0.015301865991207813
-0.017570384052979813,-0.014442597897170234,0.010716880256428135,0.015474208950505369
-0.008980537257197144,8.661203361479202E-4,-0.03180794756539757,0.01782994813228813
0.045343236866556724,-0.01211115099896652,-0.024886215336399092,0.0065607258742756995
-0.02305840028161615,-0.01957348751807244,-0.02192265141839728,0.010245033034066474
-0.023513425174906295,0.0173107543259543,-0.05569028538772529,0.02382465711491702
0.0073983532103887575,-0.014302450863259148,-0.03051284893254424,0.02855021107710283
-0.033592332748496656,0.021829377523897905,0.004847490937888446,0.007142289148441087
-0.04769074685032881,0.034519727654453394,-0.016487950495077414,0.005115180738249331
-0.03937506870315419,-0.024046302069150947,-0.05181566939077018,4.049856634182785E-4
-0.005110611182433261,-0.006337149836663069,-0.019170060754501277,0.0057915457192447735
-0.05643196077451031,0.00841305699094748,0.0023972848024953306,0.02789469665612469
-0.07523549469049236,-0.03709661516576697,-0.04614033839236607,-0.01956826357819244
-0.039780871470367754,0.0028508053489478364,-0.027367423822526184,0.006979885720966261
-0.017669202122305532,-0.01006528135607957,-0.012034170287640705,0.02634623674372372
-0.01226119022416504,-0.029559397647659205,0.035392939878179104,0.004148343441067365
-0.026793657341815845,0.013272232903170303,-0.03477226945976585,-0.04019996373649271
0.002026591199493604,0.0060251738876646675,-0.035214024703432975,-0.02503222021255662
-0.017790443673389347,-0.021283881743087534,-0.01490175739048947,0.032974799811361685
0.01912298794389171,0.014826771759326365,-0.009557899407563977,-0.0276549953899471
0.025656687541582474,0.009996176168887335,-0.0021661319336269275,0.03221312456314443
-0.01954906794978762,6.058206467067298E-4,-0.00508392211769974,-0.004402013491711695
-0.028289013135531605,0.03215551078079543,0.026270211356203027,-0.007601008149749296
-0.026494139285172538,-0.00759948578414199,-0.01096949016060807,0.01620119599738294
0.005222862595525238,0.01576396667343706,0.015694605619227222,-0.010512344451864131
0.01407033442972926,0.029604653513944,-0.0043375967741260835,0.022732274037104146
-0.013561725252244652,-0.013177374769234414,0.006668662813291645,0.013505747638533181
-0.026139677795609394,0.028179521036017112,-0.00713811958933887,0.002546048798079588
-0.033418140361450334,-0.0018792366477239863,0.014547639757273747,-0.01228847498039138
0.008861870307084857,-0.01035201688019944,0.014542234874957243,-0.020782590721840872
-0.0038176329964837246,0.022315796829172223,-0.03696615055860399,0.020283045605551626
-0.028615262108609353,-0.001576262598273294,-0.017031726975189634,0.019442266730354398
-0.01922199492099534,-0.0053055503974771285,-0.03758109475583377,0.006257789185480371
-0.03184115448628722,-0.003967513043384837,-0.05357784572319144,-0.002206220888730926
-0.016646516475590314,0.06502766724502212,-0.07009167881649463,0.029823556558347508
0.01754422595907322,0.037664900249389045,-0.06856845730985715,0.035896362891464334
0.03155090969416193,0.02541629121643666,-0.06164095723955179,0.010349529016006605
0.023399902522046656,0.044608228771293,-0.0651667952676155,-9.827857214056972E-4
0.026803225134497934,0.0362262238918234,-0.07324853696781723,0.01752383552823114
0.04099283710684938,0.05810492523058283,-0.04659124894272935,-0.01098952800815452
0.010153121697925045,0.012747302529037106,-0.08929297789992471,0.00446916313897148
0.0034661491392098637,0.01281134577724671,-0.03526844265956661,0.019699647113785655
-0.00859505480335211,-0.011598089547389608,-0.02371787247034586,-0.017670782739959374
-0.024974998394858054,0.03820696002662315,-0.034105325442834046,0.019552937206046467
0.013826302463473102,-0.026655985990990106,-0.022317252677618662,-0.04282275648334952
-0.009188514246356383,-0.024878586266413583,-0.02562878522279159,-0.02980164477177534
-0.020728024016880203,-0.0038053211509311603,-0.01846158598585027,0.033582128629069535
0.032574865350430894,-0.005338198569739521,-0.019824468715159266,-0.015308641063942596
-0.008482304404523753,-0.0355582266114139,-0.028004101564071286,0.002934700767393949
-0.032902621919525775,0.025646910207104953,-0.02691417483710195,-0.03356627990499335
-0.017926806303712964,-0.006698147641048181,-0.0029308185033600775,0.009749323594838342
-0.02270986894071909,-0.015990928897111976,-0.003281822340179492,0.008790127472231384
-0.0018249901218352002,-0.01965619969976167,0.014727219662319258,0.01531332197592086
-0.004713852377957617,-0.02178715969490273,0.033520739668549,0.02934895752108195
0.018831988801586593,0.01389497779661156,-0.006032358475079584,0.006546394064417208
0.005134071945055611,0.013298871840132257,-0.010771726636238233,-0.01271710575014375
-0.019657177452302325,-0.01567125470673902,-0.013784587048172038,0.05230230123635169
-0.04081910970636422,-0.013036176124684332,0.032100657475056006,-0.02431868456784403
-0.0040641359915936275,0.032594301058199784,0.0014068052252128734,-0.03595490617403453
-0.05616607339959235,0.006999459768256808,-0.008741308083619094,0.04004985802197627
0.0037267727024126113,0.03189399658698172,0.0011148182223756128,0.026485701709140528
-0.02035550535288186,0.06400277702418011,0.008730019078107639,0.0795911047274721
0.0029525259495439644,0.0879437519996793,-0.036796312001800516,0.0580132506056621
0.040062182920672006,0.10758092479317138,0.03962894814007653,0.05370435649668746
0.02504521665667954,0.07149320220138788,0.029953217470153847,0.042482333039230075
0.007873631235874198,0.04775137793702117,0.05607606357266327,0.02084860457298411
0.017825863067622457,0.06287443643137915,0.02732397784532393,0.007418716668163693
0.034722855332718246,0.04914768100398654,0.017736660305766316,0.0070657687190843615
0.07709289500535844,0.009880955840574782,0.019769282094002843,0.023264834715754707
-0.012153121501474478,0.03587719854338351,-0.049248833170892646,-0.0011753156816111951
-0.027420784679309227,0.01329258209574693,-0.012397189362058886,-0.005406738197428631
-0.013504177319189747,0.024874011689545734,-0.016935496958082174,-0.036113909688710887
0.013672290932068985,0.005119818569455322,-0.021711208134091244,-0.04271357699053066
0.01280613466139458,1.8394465058244104E-4,-0.0054003845841506595,0.018656715538314772
0.008406682156093862,0.04129084965635041,0.004507728446934482,-0.027049561038411985
0.005465278870161778,-0.01350868525217354,1.1714045376831189E-4,-0.013653909656057582
-0.01407186939900619,-0.003490751392898021,0.005283234127226373,-0.012011911762245414
-0.014559180313622522,-0.03252910399052893,-0.007562503712959245,-0.01590711084188715
0.03462889042489291,0.003503491882155595,-0.007131343457080159,-0.011976120048390838
-6.56039698388276E-4,0.018348121242630893,0.014042432877644609,-0.025153508230101675
0.03202856285254913,0.03134180962184888,0.017165940695851225,0.03353628617631331
-0.026727589391476684,0.022906876588726758,0.02537326018002079,-0.011626278416483846
-0.0335379480509464,-0.03615060054700341,-0.0022016310622582727,0.007641626548999469
-0.06805880386247135,-0.007695767558112852,0.03167141194681601,0.0015736479751096064
-0.04345204489309274,-0.018343926794892326,0.015030995884064447,-0.019063177157398786
-0.07048600835082813,-0.005116388584955495,-0.034636369182795904,-0.00327699604780954
-0.02638390680450672,-0.030011028800851484,-0.031107870718979812,-0.023266344078934187
-0.030800934365390192,0.001882954740478476,-0.032415425378892575,0.011784706411299284
-0.025717342346282618,0.01905308429590191,-0.011618729750291884,0.0018158637668625425
-0.025581149245640776,0.02135313478389564,-0.006877041209442284,0.022091072100499168
0.022828363648770666,0.010061118817894468,0.03530073766131145,-0.005057626280140087
0.007168938752535997,0.0721189261961343,0.024346313472520455,-0.011114177335308492
0.029149195563270596,0.04905173600057516,0.03864128261298822,-0.003480763000425464
0.02837022908358403,0.07904544819117974,0.07339758141565224,0.030491202898299208
0.029278174773066476,0.08387643639461109,0.029656417471208982,0.03470432419354093
0.027656703253903084,0.0519940585162311,0.008009080234255747,-0.007168599833943388
0.036720465945002716,0.05842913300300275,0.00994210869101838,0.0154471791660402
0.03283302420683676,0.03606525859931977,-0.006274637345762729,0.019059751829288506
0.017274079073591818,0.01190693326506246,-0.03206591019427871,0.014194339179632582
-0.017054756539190488,0.026865106206409237,-0.04235765622741104,-0.008560949619146465
-0.007034900818325194,0.036513014959419214,0.009994042963169284,-0.04583402045570165
-0.019355127416105868,0.04766888311111336,-0.041941522920470244,-0.049479522715780266
-0.007816337079215887,0.023054651626879114,0.010596608525012307,0.0013493344245509656
-0.012220734853243811,-0.003938266967825078,-0.01291374109666194,0.027544212887776684
-0.008483140171545845,0.008906385026150147,0.018536956637383528,0.017627721488869284
-0.0029833997795879843,-0.01248645201575775,0.009524321788562431,0.022124903663034018
-0.01667692558594955,0.026491876087169228,-0.028304334710645182,0.02947525745846358
-0.023314373291235913,-0.01555294275638191,0.02496252717914774,-0.005378656557988728
-0.019206617062748926,-0.005907059092564008,-0.025312510995762285,-0.025633129183852205
-0.016902515417056528,-0.009716951112624059,0.0010591043094647138,-0.02083476127946192
-0.00845910399144002,-0.04595528017798522,-0.017433603296552212,-0.01638294605815385
-0.04528530988938415,-0.020601379496860188,-0.021743759665990205,-0.018289698819064556
-0.04604805524719956,-0.053364804009678246,-0.020641189179423664,-0.03747347421393468
-0.03941563133081348,-0.03485368992843379,-0.05159331255723438,-0.010446441013810297
-0.025998317032760086,-0.05142617250727147,-0.02893905324277188,-0.038816054462091416
0.002730603951808362,0.006985394736370552,-0.0012968884443343332,-0.01312137518111868
-0.007091918979329589,0.030413502781683942,0.02585594850717588,-0.02359701211214457
-0.04587867646229804,0.021824521306550677,0.004904460924879439,-0.014420130916829657
-0.026414156722191735,0.012242596553478709,0.0191733088667978,-0.041986225859517126
-0.03557998696946747,-0.017441811262752828,0.03337845431182737,-0.02084974113381743
-0.05210314918768412,0.04025939629302012,0.04088345277401327,-0.031964342049091245
-0.04234560611208503,0.04483845125908304,0.057947409870762065,-0.02700538077239398
-0.035519463330500656,0.01551691667165927,0.05022443920894381,0.04437040148048671
0.009750157528914238,0.03666798648872586,0.04561821056147576,0.03444977647782134
0.02452610125301036,0.033893206695390934,0.006136074006522214,0.021639466833087165
0.012816769467910457,0.018926653262917627,0.020867976116662006,0.016445422394281137
0.04113513581387151,0.04387505461513349,0.02018322395288725,0.0350293974707161
-0.007116401561317984,0.0011054114291111832,-0.024043535229696884,-0.03062269100386464
0.011714301309009129,0.022132928029217434,-0.035514950221439086,-0.036005714863513054
0.02763049596903155,0.020357505890822383,-0.025286464873533476,0.009887399104230941
0.026654567148931548,0.02142333946856487,0.009272929772434713,-0.019529920346760262
0.03952608665835726,0.027484852100912376,-0.0315949341987517,-0.029116778679963158
0.0309935452863474,0.012188282769557496,-0.01754227666424043,0.013526389201285809
-0.0030414108741235197,-0.008829834631725165,0.010005738442312494,-6.622812515895637E-4
-0.02905530448479592,-0.0035695210705096875,0.022344280220446357,0.033200242494671066
0.002837210977664646,-0.013983083731406755,-0.03019148479500203,-0.030034574482823546
-0.017890629826414338,0.0027341947125143597,0.016607235073340585,0.015663615999949584
-2.778760592573579E-4,-0.027683790470366752,0.02440745890337619,-0.016189749658648625
-0.01494337937695319,-0.04394097129530798,-0.0048228651815308814,-0.008301711749074646
-0.041376798319824534,-0.0276036745102503,-0.020546077380304183,0.0013488126910539307
-0.07465579952002749,0.006214617784481267,-0.01853271622298502,-3.660447135391609E-4
0.005671579913155296,-0.007570921533263556,-0.016137992763185775,-0.03325300117763048
-0.011629708693798823,-0.0039042830052226315,0.006741715951421838,-0.06740512344504151
0.03676284765321114,-0.026459937984835386,0.018999420677771894,-0.10696917557554701
-0.005479213892816974,0.007956834320722658,0.02471804811755997,-0.09894187891942208
-0.03814529946782016,0.05083718159820006,0.01904402311393891,-0.06812870508417178
-0.020167579482739312,-0.030643580903895958,0.03953602773476483,-0.04924245211481486
-0.07299466226275578,-0.023095184428403512,-0.0037456315442334263,-0.01848321584634706
-0.06597400847924753,-0.046245729447633534,0.022781744360459655,-0.016364237890939347
-0.06365306856877057,0.026447925605539123,0.07138224168447757,0.020312895467607405
-0.019562249646282656,0.021396589788376462,0.039733354824713685,0.017713835557935348
0.012092273887259381,0.021490045036287025,-0.017931394416614534,0.02468055854511285
0.01024160887932871,0.06419194117641361,-0.01735593402531403,0.02141142379326109
0.004103280343490661,0.05188849572809085,0.007399305984700774,0.019242462050967767
-0.012365560752284748,-0.02130487777949146,3.4092126060212424E-5,-0.01174168014228672
0.016828137240454667,0.01988374136983606,0.020239017970026696,-0.00845715168908277
-0.03232129435692972,0.03552508653265851,-0.007087295989368891,-0.06678435031524284
-0.03692373298052518,0.039492413434907316,0.016278438512027347,0.005768011401564511
0.012005563912990434,-0.009372895347970457,-0.022899540601027238,-0.005116838488354658
0.035268070718777314,0.0293351146839391,-0.021496028336812537,0.026169944597819583
0.002019718212432859,0.0033975549622596185,0.02786934128605441,-4.937328535803785E-4
0.012457202581839646,-0.01072727863627969,-0.02696847045196141,0.021449299274110947
0.0020812205939293874,0.011915763953627003,-0.02540728078805757,0.02619306920093615
0.014038774615466154,0.023534258216311405,0.02149236066308199,-0.01284541888117103
0.02170601551045339,-0.0016500971132752645,0.014281839824445018,-0.023902008148189685
-0.05122675681696698,-0.00547439273928289,0.03494368540800587,-0.0027964359418453225
-0.05532195523072925,-0.0324545861195025,-0.007844060146261734,0.033825872650362895
-0.017722264097446542,0.00519670097251312,-0.021481108107937925,0.006882675680781355
-0.016308815348686206,-0.0171558943654759,-0.017836402796744907,-0.06414970561712528
-0.027945585535667,-0.024610361580662737,-0.021376384365650557,-0.07320644055241977
0.0014515040976547258,-0.018261763105710364,-0.005087694576561525,-0.12509908123218405
0.041877127583725346,-0.00242356061468001,-0.007145976240364106,-0.13224088929877087
0.045728436706829544,0.012545237791962911,0.019930336604190378,-0.12540508185134494
0.05582159884235665,0.016924681709034804,0.06404807265665592,-0.09427310206984947
-0.048781324092329145,-0.058483997804746966,0.02377770166491869,-0.047808412551585945
-0.08585785291318752,-0.062113228357812265,0.017961281602915415,0.01558242767866392
-0.06479482883683384,-0.07531478799418168,0.027411397983349694,0.032504217399265165
-0.032266357714455254,-0.026568111382854427,0.02611722693368877,0.03969331903921847
-0.013701030029728611,0.009083281592714425,0.06748242360714306,0.013000476195020805
0.05390609012801801,0.02903659112673671,0.039426201638360116,0.04891142056185747
0.020769988350082726,0.035846847718112335,9.493185893523345E-4,0.05958387002391524
0.01960528650258023,0.046073089526236906,-0.007499704506601137,0.026889639217178046
0.01015725440843281,0.043156472041479016,-0.0023498004995181417,-0.015261401382079957
0.011905692718344907,0.027074652418166815,-0.020946602047199007,-0.038246121603736395
-0.007332359251841126,-0.011798310724427,-0.019174278931182228,0.0022021242908978242
-0.04301694885471476,0.0015874915732277377,-0.023706001686243417,0.012524257611177692
-0.025705304078595014,-0.017575236044801913,-0.012934086188791296,-0.008138185966742437
-0.007931197842631256,-0.02994312177811998,0.010531428906852103,-0.03193922176130254
0.019785483049957735,0.015102777781017167,-0.0018828690079275934,0.014238182456223901
0.029773957089771624,-0.019084207010410865,0.03348810866641099,0.03135519474685193
0.013968476250905198,-0.03136836048600826,0.013643489701287032,0.03231969022473755
0.027730309074925654,0.011078068954823774,0.0011335777258181428,-8.155648412833721E-4
0.0035219381106579967,3.150941398233322E-4,0.030138767626018543,0.03293390131554884
-0.03480193283471539,-0.022447926948384572,0.02967859030238784,-0.0012299719347771928
-0.016600139774197768,-0.003039435810203172,-0.02395087617440303,-0.03489423267047383
0.006363169226745239,-0.016542404108007124,0.03603915844043144,-0.02778018699126331
0.0036014525391403437,-0.040183196903118244,-0.028331768204474816,-0.04156848463727406
-0.00911197197658978,-0.03925232598720583,0.031270121975903654,-0.08085386778378577
0.023746687775213635,-0.03728462295605665,0.032983571347886084,-0.10191277648620226
0.06961919635430516,0.04942577760859577,0.009107334519623488,-0.12603352005186078
0.0525796555818818,0.04219047057460069,0.018503054863099954,-0.07936054532207132
0.01958633799855603,0.06406523273278075,0.015192311696704406,-0.038517208289097396
-0.004495062449297767,0.013062823684202765,0.00261447828389602,0.03633183818577858
0.002210760973958471,-0.017920132779632423,-0.0017457261319491644,0.0904465147202062
-0.003462726179824561,-0.07042771966427741,0.03955671225981171,0.11240774330867623
0.05697412070991377,-0.015724738497754968,0.038228027539898464,0.03584079448337352
0.024930142376822326,-0.03697461836782988,0.023760153282751342,0.04197691392758501
0.025776126542541047,0.0016458544732365567,0.033004478584264106,0.015349276343696103
0.014172933053642226,-0.012339918037642573,0.04264732608427377,0.03034982091202538
-0.008340331039689937,-0.007741981527898791,-0.003999984524860444,-0.01074297314957061
-0.03174322450597976,-0.027812990246625237,-0.03395775873432458,-0.018375972030275023
-0.04699432740970633,-0.03166880227938266,-0.025735997962939454,-0.05576370627275527
0.021270980841845387,-0.0016650832688408549,-0.021420355839850153,-0.01739765641833621
-0.038453808661933486,0.04974055237804628,-0.022666420950563346,0.008537720372219115
0.020273728139730017,0.02489491551634893,-0.015570310609838942,-0.008428807618004738
-0.015377853081718658,0.0057153001356305255,0.023463458677313847,-0.012239927805589417
-0.010358672636831334,-0.02917645648428998,0.013991473166343908,0.033275630777219595
0.005031076547509533,0.007873429052742508,-0.028591717320090325,-0.018488004275827124
-0.00797235942184329,-0.021810054099911987,-0.02934914406592686,0.022068999151973433
-0.028233833865908397,-0.019444235185782165,0.039074521585281734,-0.012613592386445122
0.020905939838011672,-0.006811539537616136,0.004537840755945377,-0.0029077545277828576
0.018330673151817627,0.022520823860328953,-0.01671911945078771,-0.03245601913398503
-0.006437103968725418,0.007565252032710985,-0.010087636096904109,0.014426645351964576
0.009492107827804191,-6.548213864648783E-4,-0.013756515929784545,0.009129808643148295
-0.02316148373201852,-0.01438177359742878,0.006610856250568337,-0.021291097915741748
-0.0030018805519986453,0.009418457289264656,0.018704778540741353,-0.06362347412748659
0.07410321409147853,0.0011769068623457483,0.06078057310019368,-0.07869942058450369
0.05939821977189986,0.019082686482871127,0.006568879897013979,-0.04084944568105759
0.056027936072459206,0.05936197575068892,-0.002008797896052777,-0.029398452236443405
0.06367163616470724,0.10834490865395337,-0.054583353372897235,0.05688743735760166
0.053531223577355555,0.0626530773038581,-0.02835689050795313,0.06738812347627048
0.05405114811461466,-0.03657167943832532,-0.00934911012402267,0.13232541981144574
0.03766620360500007,-0.020878192614325164,0.047239058151676665,0.10676667452876555
0.08219112499630597,-0.031477205535048625,0.08306868443352379,0.051361238572583304
0.033999770219554984,-0.05141755934771646,0.054988600185496395,0.05005995401414914
0.04106796003480127,-0.07214089391571209,0.01204240902595041,0.009724368017558398
-0.041775169620692054,-0.04480705573456758,-0.02041701886167058,0.017768732840686936
-0.009792291239959212,-0.01645692404173864,0.008421853903148485,-0.04062460358738361
0.00960690653768724,-0.007830622155984386,-0.0029599185793244115,-0.03684349879524907
-0.0016953136441806185,0.017977612285348086,-0.03311915430422802,-0.030378908053253943
-0.03556956980835374,0.02763100452293484,-0.005728150329408029,0.004964358213076175
-7.916112754305409E-4,0.0014760986934130398,-0.022492679001024897,0.019222931082975146
-0.018494950220668122,-0.014733612919851981,0.025950125546234885,-0.004179618848504844
0.018968879379398014,-0.024292468286002854,0.03515433842189069,0.011325547122563749
-0.01902708710098553,0.03360647787618312,-0.03128769298465312,-0.02784782243634194
0.02896076072831903,-0.03172300625716722,0.02455983878795362,-0.01075094419733858
-0.013137318620085603,-0.0037064954984955575,0.021768650579463658,0.03272969517188934
-0.024468459527698914,0.012486251773834833,0.03758286840439259,-0.008103953118567554
-0.03293531091446215,0.006322813872467701,-0.02318011020521726,-0.03447988987429668
0.007540950675588255,-0.0030544056834445475,0.01751850396609769,0.02878248478655566
0.003511433592243711,0.02268892067534234,0.027214643221887238,0.014545157425441857
-0.004994688790286102,0.03741042020799808,0.02759549033366434,-0.05205787251590262
0.011060155136519008,0.0122389712489626,-0.015947649611391043,-0.014999250814340451
0.052671756578395575,9.068368894770564E-4,-0.013360538836883465,-0.008475039464679703
0.08149764504716887,-0.008647971297715119,0.04882649945787049,-0.04881480897780154
3.3246176797484066E-4,0.04623363946311823,-0.02481110897890626,-0.04370119347399384
0.007758090490673455,0.050606110881753846,-0.033276709392758286,-0.011570796019844044
0.052509207896922656,0.11414695346871075,-0.06224264674436315,0.09668332665543036
0.09975834237943783,0.07409649837090365,-0.047574143224434394,0.11832580817003145
0.11028286068147465,0.008763575095586609,0.013321458144276389,0.13398605244191167
0.08741141509539234,-0.04095385159923385,0.04924424136625172,0.04621359427806655
0.07881366101520189,-0.04739238842792861,0.05954611008137231,0.02266992130796028
0.05219536260113461,-0.043576872062676665,0.021645579093425245,-0.03464465298271868
0.00979386291858642,-0.04207356817384833,0.014873109056889152,-0.01579835038410187
-0.0052065632074518135,-0.07196058830757249,0.0031500682960289355,0.0026782389614837506
-0.05242319735158888,-0.02507076544698349,-0.013199206090692365,-0.06735646838390369
-0.019828477889735775,-0.0164946594630845,0.005985324879658019,-0.01041054515738385
-0.020607543810182743,0.03517567969428938,0.010559381419456414,-0.02180523067629382
-0.03577210773190948,0.018872444701172927,-0.00666715772559607,-0.0333571078403346
-0.006143204758195229,0.03361475501526994,-0.010377946943584753,-0.0363522993597506
-0.0028326256865406517,-0.019061162674574694,0.017103471935333958,0.03222180444347981
-0.022420876956996075,0.03240098501335356,0.029400903098568864,0.02706705425482803
-0.005368711158788136,-0.009845408499900446,-0.003769090147003093,-0.018409721361531534
-0.024887070985220864,0.012766334038748403,0.021722109175402925,0.030841879851210147
-0.030364522434261996,-0.013272121441849753,-0.03464543656363473,0.002659158998801369
0.018430121722541645,-0.02023764539589962,-0.003918075381067568,-0.0031854210373647566
0.026178402441950317,0.007842881560277851,0.030514166076125233,0.01201957302082648
0.00821073926178731,-0.00398386647469217,0.02743596397490036,0.012260895417513917
-0.022974645582036365,0.05395148890158878,-0.04034974358355879,-1.7534530679291874E-4
-0.0216597382093198,0.03077677561112124,-0.03003983266089692,-0.05527733089395935
0.008505390396845353,-0.0029659855486644745,0.01086801931700249,-0.033755182351295765
0.014086665915330233,-0.024703100111811177,0.013161596073289665,-0.029686770335251484
-0.0018236281862897092,-0.037910850428754,-0.029273530571803992,-0.007157361569852153
0.006367429064911941,0.032384482846717286,3.756914289372124E-4,-8.980269656139212E-4
0.038851758179963974,0.0847033150546275,-0.021144847829539695,-0.025053348781005194
0.0906546286124426,0.07919016702193227,-0.039409933014554935,0.05938668299768307
0.1376243144535518,0.023412672371284,0.009697625984515125,0.06673347024978751
0.12769921019608615,0.012562594450597729,0.013854188769284112,0.11071120019734292
0.023125342250523845,0.009552405629930469,0.05217143490671973,0.037090098503244386
-0.00804613032873346,-0.04531985046240121,0.017941473243984027,-0.01997510131615279
0.035790365705863206,-0.02907016824682427,0.04580842655157209,0.013289783765004677
-0.018826528877948796,-0.04396501994943631,0.01339994901722964,-0.0139971586005238
-8.02226723582968E-4,-0.08006985008207033,0.02698928897532157,-0.013405549186271995
-0.03504981909975238,-0.054935639947281525,0.003924136510550952,-0.03662960292947333
-0.05250476312811892,-0.012434549320830407,-0.0052044436562017835,-0.025006839154854573
-0.0795220422690135,-0.01557749209252274,0.02869807438235501,-0.029943759362066665
-0.01568288030199423,0.03445007947028847,-0.043804142473848555,-0.04398389866546649
-0.029682928860722758,0.010703087800634042,-0.022982816927815602,-0.0010970390428926987
-0.026173213763525584,-0.024785202310018878,-0.0020709847635508338,-0.03482391518761024
0.026983473439864982,-0.012989922359972398,0.03080888784011354,-0.02069419658527732
-0.03394034909817289,0.017669014528160453,-0.01295211731368109,-9.104880250670421E-4
-0.0021065039456308,0.010794619071682394,0.011436618126838164,-0.019814916178810805
-0.0314654914479845,-0.013180340618478517,0.029348066509877216,0.016153089780468265
-0.016933188950915657,0.016488887997002533,0.03563520149469378,0.028998937369175058
0.02901933235639679,-0.004521158904312851,0.02586763664465273,0.026945151098262093
0.005070054512622574,0.02143612744350494,0.01424413336493816,-0.014578407711210065
0.018436544171764557,0.020711402514835126,-3.0524397318185733E-4,-0.00157872096891018
0.010862811380963604,0.020678631992806583,-0.01457743730177685,-0.005443117315531904
-0.010052916598289623,0.004559089253536626,-0.014749187711135642,-0.049868724682483594
-0.025502021821616035,-0.003237953810926201,-0.002456876295243253,-0.03276210888846143
-0.0050370913364182045,-0.035226700214538054,-0.02911787248945331,-0.06249228313253729
-0.01666603689692705,-0.05272483787643175,0.00903025609587987,-0.025984734113214124
0.017277087462017143,-0.0030701997381462217,-0.013019527661509784,-0.03451037505693649
0.07981753180608489,0.002052804877584843,-0.007257231136477579,-0.0335212728142421
0.11553434461690902,-0.07759335885160888,0.019356103969160796,0.05984597140844813
0.0689468540156026,-0.07440346281784614,0.016665214483034485,0.10223068811536018
0.06111424523791722,-0.028181711542488688,0.009877017343512474,-0.026423138763838425
0.06886110186266298,-0.045016500419656214,0.052430054757161025,-0.04557708583680057
0.007508715893303679,0.002319853567462492,0.03490029519410071,0.014994537148217956
0.01920312950562594,-0.010103295038332098,-9.372448874299388E-5,0.04043128007288779
-0.00958428757650544,-0.0372741955299241,-0.003417027122904437,-0.008230774811510409
-0.04298898216524376,-0.016373589361652275,0.004825644429506339,0.005662391041775183
-0.0683129635855224,-0.029856098331194705,-0.022694325716114287,-0.048072673101184876
-0.03901971870272101,-0.006559996513853893,-0.040500748014230245,3.360235041062452E-4
-0.02323255295388333,0.004340954734423015,-0.008770749592769812,0.001856968291541362
-0.03882849992465642,0.01589896140365463,0.011006960284505325,-0.017375846412546594
0.02284426154967436,-0.01170139913343455,0.016118321282973126,0.026106103323158252
0.021668098726400926,-0.009289887648461514,-0.033057170386106186,-0.018865132547457846
-0.0266987976759962,0.03330103859818647,-0.020926904876650176,0.018294373326651053
0.0018469760286891485,-0.03250874316810901,0.03332940091233393,-0.03081858535315277
0.034480931781574777,-0.01069563169481737,-0.0026268685326998474,0.012170849947582368
-0.03399658918271455,-0.005504954741533063,0.01585151911176371,0.012371324847052723
-1.75856851869469E-4,0.0017276472500576756,0.012848015988396341,2.283890085998897E-4
-0.020303032673688225,0.014728624041210307,-0.009222738284056939,-0.003351385874336469
0.022163137262626673,0.008224732723142522,-0.020078923969205825,-0.006653824159016464
0.007141964660595211,-0.009584076009675995,-0.006010649173532508,-0.038833516017120984
-0.008860669931041551,-0.04526904209977543,-0.059825690014716354,-0.08063906033766165
-0.0036165004632635767,-0.042374515309301704,-0.05450030340895218,-0.03628600669226038
0.019094480791365904,-0.036180710886281275,-0.017752766329448076,-0.067529778182082
0.0024409438600525193,-0.03502868598424498,-0.025387786134901266,-0.06518696071676311
0.058742837938991696,-0.05222794121564216,-0.040453890438298126,-0.027269310284198288
0.06885009679216719,-0.059996292301364065,0.014320444160385993,-0.07007768529993606
0.0468484574105174,-0.10018761629745435,-0.033915267672427175,0.005071774602712167
0.07697647881707602,-0.07403825203762689,-0.008763847379312718,-8.392138966976767E-4
0.08179507665294172,-0.05279057480337661,-0.01090083843635103,-0.029914176376274696
0.06733058314165932,-0.019918826013643736,0.05541851006622665,0.007609609666905441
0.06827994851214281,0.05063311156061174,0.048313275493879475,0.008767955758952131
-0.003453877882362108,0.055199325791893156,-0.01504634935675797,0.028724537756685327
-0.07255197348496038,0.014259564526048265,-0.01123758148158982,0.005468387191077071
-0.06012187922973694,-0.02316958893142782,-0.005028794128466112,-0.03636843945038616
-0.03787059636818425,-0.003644528242776022,-0.023152242354570585,0.018855971798201334
-0.04885524165793218,0.007137296939540417,-0.02791846588980976,0.021628585230358335
-0.015164541443278525,0.03068311536382511,-0.0052588178756795105,0.004593933578053946
-0.028373917394967283,0.04548327385144641,-0.03683106342984459,-0.032418921366395216
0.03125505006207789,0.01197895151930659,0.014808423314796,0.001189491791174916
-0.025885902104437333,5.415746581352641E-4,0.01514512684899055,0.010420540440339458
-0.01358328022211117,0.019131649985384185,-0.005947827208133404,0.015113662507964264
-0.028284333754976344,0.015206064841536915,0.012384842895193177,-0.020297714239589558
0.012594863194509401,0.030101158874202533,0.01902044182023092,-0.006689382451245484
-0.03159034986450551,-0.022707966141817144,0.01575787831672692,0.03329337619220251
-0.036573514367534005,-0.00864935522851233,-0.005745394252420618,-0.011428729281578499
0.016770024144295636,0.021036232555325243,-0.037897458371076415,-0.008460903818925732
0.021853809823872982,0.0018840213132069255,-0.022297844570443242,-0.012936218901837939
-0.03729750821075587,-0.0027256916458396033,-0.00535700880084395,-0.05988281931671968
-0.023112538344180325,-0.008816606726146186,-0.07046926747415035,-0.04155653020229869
-0.017184052906683484,-0.0487801909662426,-0.01735173519735685,-0.07835594790665373
0.007462940075469806,-0.04756026682676974,-0.03354457286427135,-0.11637175327779586
0.015958171246272423,-0.04764082436936028,-0.023572961828070865,-0.12295964798463113
0.01395828208951093,-0.05062363924645823,-0.03175061632286926,-0.07932637699817618
0.040912971910810114,-0.07801540331251262,-0.03680540924428844,-0.07574435652090222
0.01571284936230476,-0.10048761664833365,0.027876904700990454,-0.055625703343268655
0.004593299022054887,-0.053852289838369136,-0.014979547012049288,-0.049325705640658385
0.03321496556212842,-0.012784193017784707,0.039184693537583186,-0.050842994705819725
0.039460216579466294,0.0014340846400856086,0.021902156843769123,-0.010377624892141172
0.027511115175345158,0.04881664445024338,0.024416885596423323,0.05860064108573171
-0.04504952413316162,0.010665458610056014,-0.007811343913094343,0.004952335407943011
-0.06658789036352998,-0.0055597102297210614,-0.03489050733061887,-0.020358281578784033
-0.08891142356327864,-0.016513420235330766,-0.05284250843585443,-0.017453931786024127
-0.04327321690680286,-0.015140707726957992,-0.042205015522587146,-0.014407344876000731
-0.056116757774680025,0.007799767155062958,-0.039179802721667274,-0.002361348030167708
-0.026104331815630055,-0.011983764469274436,0.010803289362582773,-0.010319667540390801
-0.018207112165539618,0.01605105272070397,-0.051862291784569,-0.04784606315935452
-0.015157439571514804,0.0027868722294548585,-0.009223279898695163,-0.028305672573398374
-0.006711394447809167,0.00491950409412844,0.019933100656418023,0.03018570451783993
-0.002004459407237747,-0.0020513569040896554,-0.030529246260303393,-0.01315061227488508
-0.005264875046939115,0.002437293553358702,0.016974147578449696,-0.005578426371814254
0.03441361075813972,-0.03181908839202848,0.02688828069624985,-0.013365314515181671
0.024294135655802847,-0.03270238122887086,-0.005027561755168574,-0.003159352704855846
-0.004885591650296421,7.564119483651464E-4,-0.013605768166375766,-0.010604340950178422
-0.031736524052200295,0.04337894244220451,0.0037114660085634833,0.013417628217592388
-0.001123690025609247,0.00941319354692596,-0.05478694881254133,-0.038494059502457614
-0.05248226319538625,0.00403716879014296,-0.04391238467678322,0.002320068130878768
0.003529172323916378,-0.028189699723570646,-0.023302670731701926,-0.09304118443388851
-0.04529602913689753,-0.04172414650067476,-0.04399588826076397,-0.10014293684061222
-0.048136313060118945,0.014554816830566421,-0.0401411195875851,-0.07290116842109179
0.01809308489821196,-0.0016251885999152913,-0.03463710895153992,-0.08907214765980183
0.024110769528434366,-0.019288421096151597,-0.03348468849134792,-0.10311564910656168
-0.009454173394917796,-0.053658706016055394,0.006060766321334713,-0.046427101600832604
-0.0010561643056535613,-0.12776179681433622,0.021703988985659943,-0.055846392522713964
0.02562014544868315,-0.04561439659133536,-0.0024907744219054228,-0.038510375925124324
0.03454943972562851,-0.006272559843689624,0.009463370603836996,-0.048029827007348855
-0.013979415002570264,0.07776225450765314,0.035191209089613554,-0.009582664713544704
-0.007431131985546826,0.044738398359436556,-0.03043759784651469,0.048398384113558575
-0.04831779124846388,0.017897455201862172,0.0016335603698140028,-9.097392457417966E-4
-0.05972363979456965,-0.009903938733044678,-0.053898000314930486,-0.016486264570327182
-0.07197877834786193,-0.04392888534002813,-0.04173685836481175,-0.03462079669800857
-0.03418133850204529,-0.05642845894400565,-0.0233882919218932,0.011527450706318873
-0.007347542762940109,0.0037242126890584676,-0.006277760262970498,0.009387465641958984
-0.031873239868536844,-0.021986265128718988,-0.05130516810024085,-0.030541778121235656
0.04040621808510636,0.025170158778309172,-0.005799628289334536,-0.03788498819033561
0.010902265526734857,-0.03878975785269648,-0.03124577896436599,0.022292181194084097
-0.03156873348441544,0.00338233141060851,0.014391469510840464,-0.004579206255533541
0.004124033733058392,0.01879436838460372,0.00938067691209837,0.010376549938382988
-0.0047967651727220065,0.01714645235414191,-0.0201858570390524,-0.004772873427743263
-0.011518055757549614,0.03543385273309765,0.01936542964781594,0.012295303814229283
-0.031633192507010945,-0.02496441178542775,0.023692796537008603,0.029025743975389737
0.012252668080312636,-0.022111296652038405,-0.03226831423541607,0.04364992018329875
0.004813913784255851,0.00530523793365225,-0.002492465096034797,0.03552021511554243
-0.04142808783134907,0.036125847319228105,-0.010613922921839455,0.004427406324267534
-0.03558931936366416,-0.03758969797885392,-0.06814731281797055,-0.01931401028764034
-0.030946087664448976,0.018593932402701303,-0.06507505954951986,-0.024346956396242625
-0.04782969785186713,0.018816564040863376,-0.08302025303679418,-0.01950801918193253
0.001776048641534503,0.020419804473388453,-0.051184039215976265,-0.07188650896137982
-0.01893095833594851,0.028331138208203707,-0.0722119166895877,-0.08126378445292909
-0.006961299569130182,-0.018538308161913358,-0.039424562123304044,-0.09971772453352247
-0.06349488956794896,-0.06416529469306557,-0.01016701987558733,-0.056388687774500915
-0.055605461790220634,-0.07215145453005412,-0.014728620677441205,-0.08768114748627721
-0.03744587914202832,-0.06675499483659456,0.0168359882843338,-0.04547946071309155
-0.027771303326641125,0.015252709065176371,-0.00400624133348011,-0.010876230561393151
-0.02441001331528285,0.07766068828276895,0.008496399216631688,0.011360958233876608
-0.039986402335127125,0.013923162484396477,-0.020023675348261747,0.0290210095908427
-0.038907925576082095,-0.02311443746563839,-0.05411946806786943,0.001510992653245002
-0.049583384766078,-0.060600930063419406,-0.056864539133246655,-0.01623858602238466
-0.04748869056568112,0.00466602938764772,-0.025437248240773334,-0.028524725601108792
0.013031708954880669,-0.008531545599352246,-0.027337409732625453,0.021220021927875872
0.0036897338528518193,0.013762552918879695,-0.034618789515248265,-0.011037838845724485
-0.015564355072000663,-0.010646766808636706,-0.051620542581991925,-0.056476816449955135
0.010005826046109872,-0.03388468379089539,0.0018350340222125041,-0.008459965065480066
0.03357402487126104,-0.034680654416238604,-0.008633354669965334,0.023551980952060177
8.154528876755754E-4,0.012523928225581588,-0.013726836792826488,-0.013693962268114725
0.007725627480866724,0.03061889128365864,6.138380043265283E-4,-0.03330531166004242
-0.00901529330181533,-0.010160415337192068,0.0070570658412649895,0.019904830597963302
-0.016081801533714808,0.017199204964185158,0.020523272845807752,-0.017389410428247286
-0.026096903851354603,0.04019970490816266,0.0037024813444648205,0.03374351955760489
0.012690100785360826,-0.007126489725461497,0.018822427841751276,-0.010522031331308704
-0.022022825834490403,0.00490465931091205,5.989265197666177E-4,0.042707410067920074
-0.008477186373394797,0.020382082174274226,-0.03682268759913946,0.001723079640291082
-0.0538511439427254,0.002084821120107481,-0.002143427595057151,-0.0019474242978971836
0.012850512676980138,-0.004770668800653602,-0.06112970919931587,-0.007773541672215764
-0.003298829119212949,-5.585460201963741E-4,-0.024377262091864915,0.02530103764427373
-0.013093405195364708,0.046311906657893344,-0.07856728013662419,0.03138217343148353
-0.011710116308945138,0.029351759942719772,-0.06626224692940472,-0.01262287116048933
-0.07126867596265916,0.01650920355547327,-0.015597315624475883,-0.03230269669187811
-0.11036606561601894,0.031069953717100803,0.0028854992649861104,-0.047054307096073604
-0.09589123337056757,-0.022896873491165957,-0.01587507810074603,-0.03719100073912162
-0.07001591362589464,-0.03831642516323751,0.01234489583397429,-0.014876765642199778
-0.07785773032848456,0.008855854592491679,4.5611502761304634E-4,-0.031096152099033325
-0.01760930943214972,-0.007753827030665439,-0.04060482731627649,-0.03413815523808616
-0.005811828795312341,-0.02029312368041941,-0.04251528395842739,-0.004157637792169065
-0.0450837747959556,-0.044598998498814886,-0.04578537585185354,-0.05825652494519067
-0.06207494610399933,-0.0515407914067812,-0.050736533992127714,-0.05126288981692183
0.004227904306093795,-0.022102297124686088,-0.04602415683664998,-0.004569765169852657
-0.006961350211796594,7.522519341385935E-4,-0.05435093342533021,-0.024127558233502586
0.03281345151597643,0.00304359706739072,-0.005005735705203535,-0.047929263243900413
0.044223802954389366,-0.0456541178923391,-0.012790938141744358,-0.01810121308219746
0.013814876595386313,-0.010569070070968592,0.018186652844891477,-0.009180303140538876
-0.0038832995327236766,0.005854438346307872,-0.006320865921050578,0.006489563373365712
-0.001220280622417044,0.008097772279333792,0.020871723563055895,-0.02128092873824534
0.017448019441576906,0.015185956150734016,0.012183838442823959,0.013209822655616791
-0.01943181919236329,0.022461283721889838,-0.016906202662486502,-0.0012860942008171357
0.02244608867011646,-0.02562822832256226,0.019592779146132912,-0.018968174658192522
0.015826840975855596,-0.005545015894582725,0.00935189371684716,0.005305208471346836
0.007764644166035668,-0.02791716357468029,0.022091371164184012,-4.144129523213538E-4
-0.03543609127845959,0.03957234285369057,0.018093079920890435,-0.007013407247749929
-0.042532302926763334,-0.0018377495481977204,-0.03708644756982103,0.04928580276641661
-0.013019811171750467,0.008728894368881095,-0.012842275821340735,0.03405212253755057
0.0068666491628766564,0.027237659865246573,-0.052693495404450126,0.010974513315618491
-0.03494071415176728,0.023461990676236187,-0.07248622881808418,7.1029128672965E-4
-0.02811340363320891,0.032736696516188095,-0.03647731865520039,0.02024086788289447
0.01280445287709717,0.0682366444783442,-0.06562062372933684,0.01936701988307416
-0.03098082957271598,0.06342508772290055,-0.030685346878984766,-0.015089792937805678
-0.06988390035827373,0.00214368109868199,-0.0077971482863924265,-0.009164294446361227
-0.06857693520425731,0.026238473278712444,-0.03655511029102396,-0.029555457068451016
-0.022515059134455465,0.02101542985925822,-0.0453686757527707,0.01446787345688394
-0.012744665536349653,0.019825078724904435,-0.03705631185422868,-0.007741116911900754
0.008135019659972447,-0.006759728556595568,-0.005273728279370357,-0.011515239203985901
-0.020026814022842895,-0.003832060577677477,-0.03139783925844772,0.01505080215369994
-0.05166303822111853,-0.002756574091231882,-0.046541059628964605,-0.0068605650144229514
-0.0038561949575884736,-0.043095051921047414,-0.04762290820890434,-0.05743989374631282
-0.009708191005587567,-0.011087846408487978,-0.043300582651364,-0.02606854919780743
0.034903927368424646,-0.0286693401852307,-0.06659089404669016,-0.035017959821603675
0.013817659906419165,0.010127131128058471,-0.040474331589234205,-0.013440026836557078
0.010834610517028758,0.007840444638994463,-0.04437712837418038,-0.029130948663619146
0.013770276644120658,0.020576043470873332,-0.026452600548025056,-0.025163133295445658
0.014459045520522108,-0.014758876470050154,0.011032578613214423,0.020406621728051192
-0.0036990201305636154,0.01767395431120702,-0.030235031407151395,-0.00333721868830106
0.030826624653667284,-0.021336850132663905,0.03237070218010178,0.015671850968020012
-0.012917600783873901,5.197390632897259E-4,-0.013854008304452612,0.02319748007270911
0.031319392563006185,0.007911685903807468,-0.01873762356511529,0.01797225293127334
-0.007985594003684472,0.031876688456281214,0.014429281731272543,0.018498557847252108
0.036935374718408236,-0.0030365790426836172,-0.030021378521637027,-0.015337889526921855
-0.029948515412756598,0.017441977084946752,0.0031915867167315324,0.04129125109957645
0.007865674299550216,-0.009983861059460471,-0.033838532552148054,-0.014350637308672726
-0.002337510554940505,-0.006809740461627538,-0.06284574027657096,0.018866833602867724
-0.04643953181911656,0.021147842752858477,-0.06371988145687896,0.02801305739654234
-0.01449358121155966,0.024583970216833714,-0.01161978765957309,0.04065752824066586
0.003763128637015392,0.07856677381086807,-0.019014952024575107,0.0671305102403297
0.0044386928712760974,0.06991222006608766,-0.015107849080807983,0.07201362566196601
0.010097929827250824,0.08388801602134416,-0.03597643518505843,0.03740408433807241
0.002623129211305407,0.10182501515107598,-0.0491580022950207,0.011819769195902396
-5.321872788587483E-4,0.07822213568645962,-0.0020762854860579038,-0.011963517152679456
0.02817663295664987,0.06120194741434384,-0.021612584495526773,0.02659775136090568
0.029632930255529148,0.046441200643146295,-0.00785216152412937,0.04138704456133893
0.02172681008978479,0.05928722280449616,-0.009992599872151568,0.05547128132061006
-0.007557784499202204,0.016839487630316747,-0.05724303155121386,0.0018585465616978813
-0.028373853895250087,0.021988132960277677,-0.02738055895145392,-0.01223496318400988
0.024639211509239166,0.012944318628279139,-0.030113227904263504,-0.010507275859871166
-0.013607845496804806,-0.04266910244664311,-0.04737673853078617,-0.038633578010679265
0.0170892777958333,-0.04436771544331305,-0.0026218090627975203,-0.00968182580757981
0.006752891246149648,-0.039840508731292947,-0.019352597846898734,-0.03672667999762835
0.03618996408679002,-0.03998248113362911,-0.0014771269016037526,-0.01247347837141607
-0.017005853849572705,-0.010869582696203927,-0.021505208139783127,-0.0323985413582518
-0.007921923036758975,-0.014845441153276701,-0.005577782978471162,0.005263918636800728
-0.03278339167226235,-0.030856979099547693,0.030855947419998538,-0.01695936419227646
0.014091702671693518,-0.018259856605262997,0.02424569676004125,0.014436461814577584
0.0017780461182852411,0.022068883759306886,0.0064117792115315,-0.008295467467566296
-0.012442137971045666,0.004653632672028354,0.016567178175354608,-0.007644318649256496
0.008522328827426227,-0.0336781703975899,-0.010215330600395424,-0.03392515172111023
6.431583834042448E-4,0.011196846173031324,-0.030714924763111665,0.021246497173333614
-0.030266579235355556,0.00774320989683497,-0.00843276722001691,-0.011654923208991896
0.002712721997186151,0.039779593279026165,-0.010500395172775605,0.02726899517969797
-0.056659122288360037,0.01299359933014315,-0.009506926687023284,0.04425014642147614
-0.04625175245021099,0.022125262232433097,0.009093695186005687,0.010793157153940112
-0.06396971863314162,0.014847166305800366,-0.0367082430137535,0.046011979520617176
-0.013301862128502099,0.02263469006906774,-0.0015986343839608783,0.023986771105491952
0.035598509620788935,0.07893195912732986,-0.028860178224549837,0.039336877634745866
0.050044920877887235,0.09076664197946524,-0.003684093774469544,0.04008898576978804
0.04727298732241242,0.12629008142690537,-0.037509440535608236,0.0413247829976841
0.0788037737231129,0.11770513468858539,-0.026171235537571697,0.08581004239914998
0.07206133813346079,0.12285357077203146,-0.015336018664659381,0.06434487325743624
0.06076694746419975,0.04359239979460308,0.012384468226818905,0.0632895316263334
0.07781976418866882,0.05211004300815031,-0.03708727276932401,0.030715897522951004
0.023649228639651656,0.02169238711438257,-0.006372858996676466,0.03637501271981524
0.015382216893188243,0.014162988444853546,0.008110604979038144,0.0239831300589012
0.002473897029012289,0.015073560149828167,0.0075159148853555305,-0.02636139585579392
0.0020282730175694955,0.00459976681500807,0.016859385075057787,-0.029636069560535435
0.013818463501813706,-0.002986137120587601,-0.03724109398278293,0.002744705741316595
-0.023629462841508617,-0.012577788317133652,0.02801537423477481,0.02017485517138555
0.011405803958287788,-0.021787088824271505,0.01016526371211014,-0.019732719639146072
-0.03327504334271549,0.02262842345576323,0.023729498554297127,0.01980101643402569
-0.013163740788199372,0.0030524487877777403,-0.005835695300704144,0.028425032206937418
0.03243958292190721,-0.027102373862166025,0.014860184370501473,-0.01808369828754002
0.03239428335101434,0.01986969231571597,-0.008481048988740272,0.014264514074543419
-0.014304830478821227,-0.005461236299992147,0.025381069149690648,-0.03404642961244131
0.006967993579348811,-0.02822170768250143,-0.012682550243063632,-0.025510495033769225
-0.013848833797118373,0.016597128354242936,0.03121505177508597,-0.014076095269907017
-0.017336486476900986,-0.0361295183766187,0.022835028352534696,0.0024076520108697688
-0.012465963313915028,0.008462621038288319,0.02339582159934972,0.008709763697070988
-0.04058155547224308,3.878719247811432E-4,0.007218412593623043,0.03904187554098601
-0.003818288008769464,0.047208402496310635,-0.02220066591730324,0.04792984161014971
-0.028994608812954282,-0.003153854312029281,0.02927412999413543,0.053713137802310656
-0.0068546510216751805,0.04048271666170872,0.03667946315104937,0.021462322547220036
-0.036513103632750725,-0.01557874418560849,0.02648217696763207,0.025407047446652193
0.021788948182748836,0.05734417707347111,-0.021206812707858395,-0.0012441858030674336
0.030709807373144177,0.05078274042256696,-0.007406971984325603,0.009451161168361736
0.0022349503321050733,0.027824325137946915,0.039425234367394105,0.03690278711748488
0.014351605907960164,0.03781838356513657,0.034060301109058756,0.002986752242092623
-0.0054371030199977894,0.036079391070071944,0.02563988329349009,0.002837733940253503
0.04785156656658151,0.05139589436227444,0.019833647487502264,-0.01809724218808382
0.0040728817314101984,-0.0180028513342043,-4.0908314650422507E-4,-0.01642380652087384
0.04826732835134937,0.005749346040552304,0.06276902172945155,0.018914225773788432
-0.009426518489053936,-0.016615465008623855,0.037928997198413555,-1.8411870151247405E-4
0.04143494735049713,-0.01035866252191084,0.012314527065690391,-0.00854488943310953
0.03064963810981518,0.00775693745916967,0.018790325526411723,-0.0328119246451501
0.02774059524608109,0.021700960192403914,0.0030971132322373065,-0.02364122999661341
-0.015297424817771152,-0.012390441533294941,0.004984075348519449,0.02981636112167891
0.037094083846325385,0.009800834781528099,-0.03464626887665208,-0.028018972503703495
0.003536914950106583,-0.0112112193223373,0.008409287004795712,0.016057227939235114
0.01940818569667205,-0.022008885736509,0.016799860747797758,0.009805386613211377
0.01689422957051757,-0.004332650403697711,0.024198598483471306,-0.02478856962353553
0.017964062185294394,0.021160277656442517,2.1319693187834415E-4,-0.01560220363464979
-0.02620412348626993,-0.020188867483907063,-0.005326495923284238,0.005846707640883263
-0.020075873292392726,0.017263484743771776,0.019702983362384907,0.01715233968532874
-0.01376400834130669,-0.035225307960695326,-0.011996793421952043,0.002609231858538301
-0.018023298666525706,0.024758483365448447,0.030144787830702527,-0.01861704253697355
-0.0010631619359923901,-0.03708027081583794,-0.01827178978274524,-0.018377493207030613
-0.025964902639849675,-0.008072651056143567,-0.0034543995849800418,0.009579979470100725
0.03283157670665539,-0.030782616792682745,-0.015909231987137833,-0.014265420429268965
-0.028448225661119944,-0.030931617073044003,0.04629173486602645,-0.020994142676890017
-0.0058527507517145945,0.014007844584839245,0.04146746752550082,0.0094558193481575
-0.03577535619911674,0.01954438987799039,0.01677116972797922,0.015004310794592702
-0.039421940129300365,0.007942895288230755,0.03123335135044032,-0.013109966798423193
-0.0024717178873121656,-0.02639973060373544,0.05319088987650801,-0.04433974632168589
-0.009311566685436784,0.0013762290530050937,0.018807064185770037,-0.0010301031714814001
-0.011527434888075578,-0.015349817509404003,0.02981907508304258,-0.013469592887453124
0.020531422262772814,-0.01220345817417859,0.03490751082104032,-0.022173367337689494
-0.00851758025673823,0.014728576270066863,0.016204818600206734,-0.021990221891656624
0.02708705149990586,-0.03945371291594908,0.06814486741272228,0.003763600693811372
0.041899615758823075,-0.0031490120104459333,0.024424037056689808,-0.004652272815136928
0.027572607531039187,-0.014513509610541589,0.015090182645580668,-0.009126213272282113
0.022875611386546025,-0.020452327183461676,-0.00359098306567898,0.02984585686374972
-0.018383498862531267,0.024209378960365333,0.025200256916864467,-0.014663892737590747
0.005016697083223951,-0.03129567923587456,-0.0140131284783987,0.019892350707819136
-0.021283855513502342,-0.0277668912892928,6.825594867619232E-5,0.03137319234455761
-0.003157248969604818,-0.023566548164401107,-0.002484803074461541,-0.028986807132606766
0.01410761797179983,0.017624926986769138,-0.025096452356202732,-0.01333738324347233
-0.0016708946249755587,0.007300945095460664,-0.011349765583743746,-0.030287903113860457
-0.01447043022354999,0.01675043681863666,-0.026100586042210643,0.009022943655901582
0.033432326848097105,-0.03174939664126864,0.03367213289588841,-0.01757787138191561
-0.03385612523874157,0.015772957441031313,-0.018295803947602274,-0.0015682848011401782
-3.8805278313171904E-4,0.02384922754345148,0.008941468290155095,0.013234212924016713
-0.020880214224288603,-0.005820181533874251,0.0019381202641970824,0.030832507434562714
-7.100629799366293E-5,0.01433551093814762,0.029616549486570845,0.002840297932806523
-0.03354851997172264,0.0322969276122871,0.017904368668050636,-0.02404721018924606
-0.026816913750050977,-2.307606999624707E-4,-0.017516905938821232,-0.01798890418316935
-0.034340610948299835,-0.030159246636828795,-0.008208346543508084,-0.022103669220489477
-0.01987288105453807,-0.0034430904337818366,0.009747335329905535,-2.6718782903107773E-4
-6.529327486556967E-4,0.009446604665559114,-0.023835383471513396,-0.033631395910725254
-0.027749087805438073,-0.006859330299611497,0.011517844257177657,0.03066372645972021
-0.018901567918747846,-0.011082157669453677,-0.03540696886122562,-0.026364167070080786
-0.004905853913349467,0.00348011811487823,-0.004939283988712626,-0.021169484827785925
0.001254329866524793,-0.03654986609699794,0.0064071704092613264,0.019969366098808828
-0.049643645054450104,-0.0069815692853483,-0.02017467107463729,-0.002753581810095371
-0.025190200195868644,0.02523026483456053,-0.01816347759654299,0.009579622435771122
-0.007881184905390432,0.016724328480576624,0.01787036626230593,-0.02772079286056365
0.044924964467152786,-0.02193504322958456,0.03393441612769242,-0.0037818406906856344
-0.00355359460840577,0.013316464979539484,0.025973395676776794,-0.008084496681693571
0.008472034359732993,0.0029504293282853105,-0.010207780844268407,-0.010433951782646979
0.010913062713578737,0.02665451323541999,-0.019284948276517146,0.012053054407675541
0.015311867240314967,-0.0344523004510941,-0.02187970002097587,0.032535403916489916
-0.008423976651968836,-0.0230390273770893,-0.03303765430936237,-0.006619348823347862
0.01604368772627245,-0.02430329990296838,0.008572281206789751,0.018669400317678424
-0.001304675597823311,-0.025355543588740717,-0.015071638607435546,-0.0052823784345432945
-0.02807134635790091,0.008999762565767927,0.016723245771592208,8.328255296743275E-5
0.0031685652404721473,0.005305055728608489,0.02149212348760858,0.01862880248072503
-0.005569481486745256,0.029166621989077088,-0.001815902842359371,0.031976096501206655
0.0030309997285168297,-0.03501962945147862,0.005396975803441895,0.03359862387962233
-0.026627145959310733,-0.034162246874926507,-0.024064017957081168,0.03098581509622328
-0.020405934509155097,0.006326862328013917,-0.01493512758465836,-0.03228632759619996
0.005225559628208851,0.006025974972874867,9.522508748219596E-4,-0.02143634115528909
-0.03269208076164438,-0.025215552338795216,-0.029917708850896712,-0.02299721742431539
0.018250331823566328,-0.012024028038517636,0.00550320131227564,-0.03298077923042367
-0.032042692772109645,0.03068408454304395,0.03171361913411601,-0.017592142127374227
-0.010063502643926771,-0.0024189376448405797,0.014481561282950845,-0.010363709866584048
-0.03565918189034745,0.029897506374975256,-0.011896352280517572,-0.00260990411904545
-0.004590839886137265,0.012217955525873783,0.008447973999492006,-0.021346419159480587
-0.020815494339166282,-0.02441798516925093,0.023077866502882363,0.010792606925262533
-0.0050216620956378315,0.012128077600896433,-0.013378513661449824,0.007621244670524527
0.022481115390091226,0.017713739605665697,-0.017816635635621893,-0.015438560458893216
0.02966741963816528,-0.016161395895378444,-0.011008423096654384,-0.00371739791388887
-0.014879042583841255,-0.021201519072240636,-0.0031247139037712812,-0.003224925767101169
-0.004407364947418234,0.009515256177248774,0.015508536696323624,-0.003969656470851422
-0.015810756617634165,-0.023206715104952088,-0.010717319920210302,0.003488915109660158
-0.027604669543585356,0.002155442199813495,-0.01863187660101599,-3.0621735951529954E-4
-0.01442868597853016,0.026401006103805066,0.04051446802305834,0.008159114376779008
0.026396239777163686,0.002028890391289273,-0.002144635657510939,-0.016795632579866333
0.03582292248061624,0.016534653996393336,0.011913790803689817,-0.02728265894166971
-0.01649020230819057,-0.024121896165880664,-0.014275086868143907,0.033634955186413976
-0.004643385424633646,0.030666571661491036,-0.027241858668765877,-0.01794932007305875
0.014518846920856268,0.013108885486058822,-0.02166147531511287,0.02417230815737783
0.025765710418335395,-0.004483603541713849,-0.016806345724004364,-0.019944086967398442
-0.0031270544926345623,0.003193609364488502,0.0045164424297508,0.007997065834614618
-0.0319062165938147,0.02194548342673587,-0.03138705775513012,0.01855921034296621
-0.022228734446146196,-0.018696139897508846,0.019941597440645886,0.030488363158925003
-0.006343519902898751,-0.026887013265724242,-0.019005928717211285,-0.004043891896790268
-1.1478581490021165,0.1055963143815596,0.23771997226256683,-0.32627803405486966,0.5753261219843655,-0.05136475162254816,-0.47117677773313354,-1.0021491692379074,0.33653487810555194,0.1400204470805035
0.468003394985983,-1.8462982763061677,-0.685840981687892,0.0077038225567062964,-0.8205071106138562,0.18497229751732736,0.018371678112841745,0.004074979958944926,0.06893762617573866,-0.04245087129489343
-0.5318512424962093,-0.258216167785243,-1.03816311076127,-0.2807173592550998,-0.3841232153558017,-0.10379888540622541,-0.06962776450718593,1.121209861359096,-0.7635167314178788,0.3599785857616231
-1.2200455500787883,1.3117984627677521,-0.5375553641730336,0.5785162731804329,-0.6959725816556348,-0.17294864970950322,-0.1312076829625806,-0.15253826912365373,-0.2731304087193884,-0.2985718887968278
0.0,0.0,0.0,0.0
0.0,0.0,0.0,0.0
0.0,0.0,0.0,0.0
0.0,0.0,0.0,0.0
0.0,0.0,0.0,0.0
0.0,0.0,0.0,0.0
0.0,0.0,0.0,0.0
0.0,0.0,0.0,0.0
0.0,0.0,0.0,0.0
0.0,0.0,0.0,0.0
0.0,0.0,0.0,0.0
0.0,0.0,0.0,0.0
0.0,0.0,0.0,0.0
0.0,0.0,0.0,0.0
0.0,0.0,0.0,0.0
0.0,0.0,0.0,0.0
0.0,0.0,0.0,0.0
0.0,0.0,0.0,0.0
0.0,0.0,0.0,0.0
0.0,0.0,0.0,0.0
0.0,0.0,0.0,0.0
0.0,0.0,0.0,0.0
0.0,0.0,0.0,0.0
0.0,0.0,0.0,0.0
0.0,0.0,0.0,0.0
0.0,0.0,0.0,0.0
0.0,0.0,0.0,0.0
0.0,0.0,0.0,0.0
0.0,0.0,0.0,0.0
0.0,0.0,0.0,0.0
0.0,0.0,0.0,0.0
0.0,0.0,0.0,0.0
0.0,0.0,0.0,0.0
0.0,0.0,0.0,0.0
0.0,0.0,0.0,0.0
0.0,0.0,0.0,0.0
0.0,0.0,0.0,0.0
0.0,0.0,0.0,0.0
0.0,0.0,0.0,0.0
0.0,0.0,0.0,0.0
0.0,0.0,0.0,0.0
0.0,0.0,0.0,0.0
0.0,0.0,0.0,0.0
0.0,0.0,0.0,0.0
0.0,0.0,0.0,0.0
0.0,0.0,0.0,0.0
0.0,0.0,0.0,0.0
0.0,0.0,0.0,0.0
0.0,0.0,0.0,0.0
0.0,0.0,0.0,0.0
0.0,0.0,0.0,0.0
0.0,0.0,0.0,0.0
0.0,0.0,0.0,0.0
0.0,0.0,0.0,0.0
0.0,0.0,0.0,0.0
0.0,0.0,0.0,0.0
0.0,0.0,0.0,0.0
0.0,0.0,0.0,0.0
0.0,0.0,0.0,0.0
0.0,0.0,0.0,0.0
0.0,0.0,0.0,0.0
0.0,0.0,0.0,0.0
0.0,0.0,0.0,0.0
0.0,0.0,0.0,0.0
0.0,0.0,0.0,0.0
0.0,0.0,0.0,0.0
0.0,0.0,0.0,0.0
0.0,0.0,0.0,0.0
0.0,0.0,0.0,0.0
0.0,0.0,0.0,0.0
0.0,0.0,0.0,0.0
0.0,0.0,0.0,0.0
0.0,0.0,0.0,0.0
0.0,0.0,0.0,0.0
0.0,0.0,0.0,0.0
0.0,0.0,0.0,0.0
0.0,0.0,0.0,0.0
0.0,0.0,0.0,0.0
0.0,0.0,0.0,0.0
0.0,0.0,0.0,0.0
0.0,0.0,0.0,0.0
0.0,0.0,0.0,0.0
0.0,0.0,0.0,0.0
0.0,0.0,0.0,0.0
0.0,0.0,0.0,0.0
0.0,0.0,0.0,0.0
0.0,0.0,0.0,0.0
0.0,0.0,0.0,0.0
0.0,0.0,0.0,0.0
0.0,0.0,0.0,0.0
0.0,0.0,0.0,0.0
0.0,0.0,0.0,0.0
0.0,0.0,0.0,0.0
0.0,0.0,0.0,0.0
0.0,0.0,0.0,0.0
0.0,0.0,0.0,0.0
0.0,0.0,0.0,0.0
0.0,0.0,0.0,0.0
0.0,0.0,0.0,0.0
0.0,0.0,0.0,0.0
0.0,0.0,0.0,0.0
0.0,0.0,0.0,0.0
0.0,0.0,0.0,0.0
0.0,0.0,0.0,0.0
0.0,0.0,0.0,0.0
0.0,0.0,0.0,0.0
0.0,0.0,0.0,0.0
0.0,0.0,0.0,0.0
0.0,0.0,0.0,0.0
0.0,0.0,0.0,0.0
0.0,0.0,0.0,0.0
0.0,0.0,0.0,0.0
0.0,0.0,0.0,0.0
0.0,0.0,0.0,0.0
0.0,0.0,0.0,0.0
0.0,0.0,0.0,0.0
0.0,0.0,0.0,0.0
0.0,0.0,0.0,0.0
0.0,0.0,0.0,0.0
0.0,0.0,0.0,0.0
0.0,0.0,0.0,0.0
0.0,0.0,0.0,0.0
0.0,0.0,0.0,0.0
0.0,0.0,0.0,0.0
0.0,0.0,0.0,0.0
0.0,0.0,0.0,0.0
0.0,0.0,0.0,0.0
0.0,0.0,0.0,0.0
0.0,0.0,0.0,0.0
0.0,0.0,0.0,0.0
0.0,0.0,0.0,0.0
0.0,0.0,0.0,0.0
0.0,0.0,0.0,0.0
0.0,0.0,0.0,0.0
0.0,0.0,0.0,0.0
0.0,0.0,0.0,0.0
0.0,0.0,0.0,0.0
0.0,0.0,0.0,0.0
0.0,0.0,0.0,0.0
0.0,0.0,0.0,0.0
0.0,0.0,0.0,0.0
0.0,0.0,0.0,0.0
0.0,0.0,0.0,0.0
0.0,0.0,0.0,0.0
0.0,0.0,0.0,0.0
0.0,0.0,0.0,0.0
0.0,0.0,0.0,0.0
0.0,0.0,0.0,0.0
0.0,0.0,0.0,0.0
0.0,0.0,0.0,0.0
0.0,0.0,0.0,0.0
0.0,0.0,0.0,0.0
0.0,0.0,0.0,0.0
0.0,0.0,0.0,0.0
0.0,0.0,0.0,0.0
0.0,0.0,0.0,0.0
0.0,0.0,0.0,0.0
0.0,0.0,0.0,0.0
0.0,0.0,0.0,0.0
0.0,0.0,0.0,0.0
0.0,0.0,0.0,0.0
0.0,0.0,0.0,0.0
0.0,0.0,0.0,0.0
0.0,0.0,0.0,0.0
0.0,0.0,0.0,0.0
0.0,0.0,0.0,0.0
0.0,0.0,0.0,0.0
0.0,0.0,0.0,0.0
0.0,0.0,0.0,0.0
0.0,0.0,0.0,0.0
0.0,0.0,0.0,0.0
0.0,0.0,0.0,0.0
0.0,0.0,0.0,0.0
0.0,0.0,0.0,0.0
0.0,0.0,0.0,0.0
0.0,0.0,0.0,0.0
0.0,0.0,0.0,0.0
0.0,0.0,0.0,0.0
0.0,0.0,0.0,0.0
0.0,0.0,0.0,0.0
0.0,0.0,0.0,0.0
0.0,0.0,0.0,0.0
0.0,0.0,0.0,0.0
0.0,0.0,0.0,0.0
0.0,0.0,0.0,0.0
0.0,0.0,0.0,0.0
0.0,0.0,0.0,0.0
0.0,0.0,0.0,0.0
0.0,0.0,0.0,0.0
0.0,0.0,0.0,0.0
0.0,0.0,0.0,0.0
0.0,0.0,0.0,0.0
0.0,0.0,0.0,0.0
0.0,0.0,0.0,0.0
0.0,0.0,0.0,0.0
0.0,0.0,0.0,0.0
0.0,0.0,0.0,0.0
0.0,0.0,0.0,0.0
0.0,0.0,0.0,0.0
0.0,0.0,0.0,0.0
0.0,0.0,0.0,0.0
0.0,0.0,0.0,0.0
0.0,0.0,0.0,0.0
0.0,0.0,0.0,0.0
0.0,0.0,0.0,0.0
0.0,0.0,0.0,0.0
0.0,0.0,0.0,0.0
0.0,0.0,0.0,0.0
0.0,0.0,0.0,0.0
0.0,0.0,0.0,0.0
0.0,0.0,0.0,0.0
0.0,0.0,0.0,0.0
0.0,0.0,0.0,0.0
0.0,0.0,0.0,0.0
0.0,0.0,0.0,0.0
0.0,0.0,0.0,0.0
0.0,0.0,0.0,0.0
0.0,0.0,0.0,0.0
0.0,0.0,0.0,0.0
0.0,0.0,0.0,0.0
0.0,0.0,0.0,0.0
0.0,0.0,0.0,0.0
0.0,0.0,0.0,0.0
0.0,0.0,0.0,0.0
0.0,0.0,0.0,0.0
0.0,0.0,0.0,0.0
0.0,0.0,0.0,0.0
0.0,0.0,0.0,0.0
0.0,0.0,0.0,0.0
0.0,0.0,0.0,0.0
0.0,0.0,0.0,0.0
0.0,0.0,0.0,0.0
0.0,0.0,0.0,0.0
0.0,0.0,0.0,0.0
0.0,0.0,0.0,0.0
0.0,0.0,0.0,0.0
0.0,0.0,0.0,0.0
0.0,0.0,0.0,0.0
0.0,0.0,0.0,0.0
0.0,0.0,0.0,0.0
0.0,0.0,0.0,0.0
0.0,0.0,0.0,0.0
0.0,0.0,0.0,0.0
0.0,0.0,0.0,0.0
0.0,0.0,0.0,0.0
0.0,0.0,0.0,0.0
0.0,0.0,0.0,0.0
0.0,0.0,0.0,0.0
0.0,0.0,0.0,0.0
0.0,0.0,0.0,0.0
0.0,0.0,0.0,0.0
0.0,0.0,0.0,0.0
0.0,0.0,0.0,0.0
0.0,0.0,0.0,0.0
0.0,0.0,0.0,0.0
0.0,0.0,0.0,0.0
0.0,0.0,0.0,0.0
0.0,0.0,0.0,0.0
0.0,0.0,0.0,0.0
0.0,0.0,0.0,0.0
0.0,0.0,0.0,0.0
0.0,0.0,0.0,0.0
0.0,0.0,0.0,0.0
0.0,0.0,0.0,0.0
0.0,0.0,0.0,0.0
0.0,0.0,0.0,0.0
0.0,0.0,0.0,0.0
0.0,0.0,0.0,0.0
0.0,0.0,0.0,0.0
0.0,0.0,0.0,0.0
0.0,0.0,0.0,0.0
0.0,0.0,0.0,0.0
0.0,0.0,0.0,0.0
0.0,0.0,0.0,0.0
0.0,0.0,0.0,0.0
0.0,0.0,0.0,0.0
0.0,0.0,0.0,0.0
0.0,0.0,0.0,0.0
0.0,0.0,0.0,0.0
0.0,0.0,0.0,0.0
0.0,0.0,0.0,0.0
0.0,0.0,0.0,0.0
0.0,0.0,0.0,0.0
0.0,0.0,0.0,0.0
0.0,0.0,0.0,0.0
0.0,0.0,0.0,0.0
0.0,0.0,0.0,0.0
0.0,0.0,0.0,0.0
0.0,0.0,0.0,0.0
0.0,0.0,0.0,0.0
0.0,0.0,0.0,0.0
0.0,0.0,0.0,0.0
0.0,0.0,0.0,0.0
0.0,0.0,0.0,0.0
0.0,0.0,0.0,0.0
0.0,0.0,0.0,0.0
0.0,0.0,0.0,0.0
0.0,0.0,0.0,0.0
0.0,0.0,0.0,0.0
0.0,0.0,0.0,0.0
0.0,0.0,0.0,0.0
0.0,0.0,0.0,0.0
0.0,0.0,0.0,0.0
0.0,0.0,0.0,0.0
0.0,0.0,0.0,0.0
0.0,0.0,0.0,0.0
0.0,0.0,0.0,0.0
0.0,0.0,0.0,0.0
0.0,0.0,0.0,0.0
0.0,0.0,0.0,0.0
0.0,0.0,0.0,0.0
0.0,0.0,0.0,0.0
0.0,0.0,0.0,0.0
0.0,0.0,0.0,0.0
0.0,0.0,0.0,0.0
0.0,0.0,0.0,0.0
0.0,0.0,0.0,0.0
0.0,0.0,0.0,0.0
0.0,0.0,0.0,0.0
0.0,0.0,0.0,0.0
0.0,0.0,0.0,0.0
0.0,0.0,0.0,0.0
0.0,0.0,0.0,0.0
0.0,0.0,0.0,0.0
0.0,0.0,0.0,0.0
0.0,0.0,0.0,0.0
0.0,0.0,0.0,0.0
0.0,0.0,0.0,0.0
0.0,0.0,0.0,0.0
0.0,0.0,0.0,0.0
0.0,0.0,0.0,0.0
0.0,0.0,0.0,0.0
0.0,0.0,0.0,0.0
0.0,0.0,0.0,0.0
0.0,0.0,0.0,0.0
0.0,0.0,0.0,0.0
0.0,0.0,0.0,0.0
0.0,0.0,0.0,0.0
0.0,0.0,0.0,0.0
0.0,0.0,0.0,0.0
0.0,0.0,0.0,0.0
0.0,0.0,0.0,0.0
0.0,0.0,0.0,0.0
0.0,0.0,0.0,0.0
0.0,0.0,0.0,0.0
0.0,0.0,0.0,0.0
0.0,0.0,0.0,0.0
0.0,0.0,0.0,0.0
0.0,0.0,0.0,0.0
0.0,0.0,0.0,0.0
0.0,0.0,0.0,0.0
0.0,0.0,0.0,0.0
0.0,0.0,0.0,0.0
0.0,0.0,0.0,0.0
0.0,0.0,0.0,0.0
0.0,0.0,0.0,0.0
0.0,0.0,0.0,0.0
0.0,0.0,0.0,0.0
0.0,0.0,0.0,0.0
0.0,0.0,0.0,0.0
0.0,0.0,0.0,0.0
0.0,0.0,0.0,0.0
0.0,0.0,0.0,0.0
0.0,0.0,0.0,0.0
0.0,0.0,0.0,0.0
0.0,0.0,0.0,0.0
0.0,0.0,0.0,0.0
0.0,0.0,0.0,0.0
0.0,0.0,0.0,0.0
0.0,0.0,0.0,0.0
0.0,0.0,0.0,0.0
0.0,0.0,0.0,0.0
0.0,0.0,0.0,0.0
0.0,0.0,0.0,0.0
0.0,0.0,0.0,0.0
0.0,0.0,0.0,0.0
0.0,0.0,0.0,0.0
0.0,0.0,0.0,0.0
0.0,0.0,0.0,0.0
0.0,0.0,0.0,0.0
0.0,0.0,0.0,0.0
0.0,0.0,0.0,0.0
0.0,0.0,0.0,0.0
0.0,0.0,0.0,0.0
0.0,0.0,0.0,0.0
0.0,0.0,0.0,0.0
0.0,0.0,0.0,0.0
0.0,0.0,0.0,0.0
0.0,0.0,0.0,0.0
0.0,0.0,0.0,0.0
0.0,0.0,0.0,0.0
0.0,0.0,0.0,0.0
0.0,0.0,0.0,0.0
0.0,0.0,0.0,0.0
0.0,0.0,0.0,0.0
0.0,0.0,0.0,0.0
0.0,0.0,0.0,0.0
0.0,0.0,0.0,0.0
0.0,0.0,0.0,0.0
0.0,0.0,0.0,0.0
0.0,0.0,0.0,0.0
0.0,0.0,0.0,0.0
0.0,0.0,0.0,0.0
0.0,0.0,0.0,0.0
0.0,0.0,0.0,0.0
0.0,0.0,0.0,0.0
0.0,0.0,0.0,0.0
0.0,0.0,0.0,0.0
0.0,0.0,0.0,0.0
0.0,0.0,0.0,0.0
0.0,0.0,0.0,0.0
0.0,0.0,0.0,0.0
0.0,0.0,0.0,0.0
0.0,0.0,0.0,0.0
0.0,0.0,0.0,0.0
0.0,0.0,0.0,0.0
0.0,0.0,0.0,0.0
0.0,0.0,0.0,0.0
0.0,0.0,0.0,0.0
0.0,0.0,0.0,0.0
0.0,0.0,0.0,0.0
0.0,0.0,0.0,0.0
0.0,0.0,0.0,0.0
0.0,0.0,0.0,0.0
0.0,0.0,0.0,0.0
0.0,0.0,0.0,0.0
0.0,0.0,0.0,0.0
0.0,0.0,0.0,0.0
0.0,0.0,0.0,0.0
0.0,0.0,0.0,0.0
0.0,0.0,0.0,0.0
0.0,0.0,0.0,0.0
0.0,0.0,0.0,0.0
0.0,0.0,0.0,0.0
0.0,0.0,0.0,0.0
0.0,0.0,0.0,0.0
0.0,0.0,0.0,0.0
0.0,0.0,0.0,0.0
0.0,0.0,0.0,0.0
0.0,0.0,0.0,0.0
0.0,0.0,0.0,0.0
0.0,0.0,0.0,0.0
0.0,0.0,0.0,0.0
0.0,0.0,0.0,0.0
0.0,0.0,0.0,0.0
0.0,0.0,0.0,0.0
0.0,0.0,0.0,0.0
0.0,0.0,0.0,0.0
0.0,0.0,0.0,0.0
0.0,0.0,0.0,0.0
0.0,0.0,0.0,0.0
0.0,0.0,0.0,0.0
0.0,0.0,0.0,0.0
0.0,0.0,0.0,0.0
0.0,0.0,0.0,0.0
0.0,0.0,0.0,0.0
0.0,0.0,0.0,0.0
0.0,0.0,0.0,0.0
0.0,0.0,0.0,0.0
0.0,0.0,0.0,0.0
0.0,0.0,0.0,0.0
0.0,0.0,0.0,0.0
0.0,0.0,0.0,0.0
0.0,0.0,0.0,0.0
0.0,0.0,0.0,0.0
0.0,0.0,0.0,0.0
0.0,0.0,0.0,0.0
0.0,0.0,0.0,0.0
0.0,0.0,0.0,0.0
0.0,0.0,0.0,0.0
0.0,0.0,0.0,0.0
0.0,0.0,0.0,0.0
0.0,0.0,0.0,0.0
0.0,0.0,0.0,0.0
0.0,0.0,0.0,0.0
0.0,0.0,0.0,0.0
0.0,0.0,0.0,0.0
0.0,0.0,0.0,0.0
0.0,0.0,0.0,0.0
0.0,0.0,0.0,0.0
0.0,0.0,0.0,0.0
0.0,0.0,0.0,0.0
0.0,0.0,0.0,0.0
0.0,0.0,0.0,0.0
0.0,0.0,0.0,0.0
0.0,0.0,0.0,0.0
0.0,0.0,0.0,0.0
0.0,0.0,0.0,0.0
0.0,0.0,0.0,0.0
0.0,0.0,0.0,0.0
0.0,0.0,0.0,0.0
0.0,0.0,0.0,0.0
0.0,0.0,0.0,0.0
0.0,0.0,0.0,0.0
0.0,0.0,0.0,0.0
0.0,0.0,0.0,0.0
0.0,0.0,0.0,0.0
0.0,0.0,0.0,0.0
0.0,0.0,0.0,0.0
0.0,0.0,0.0,0.0
0.0,0.0,0.0,0.0
0.0,0.0,0.0,0.0
0.0,0.0,0.0,0.0
0.0,0.0,0.0,0.0
0.0,0.0,0.0,0.0
0.0,0.0,0.0,0.0
0.0,0.0,0.0,0.0
0.0,0.0,0.0,0.0
0.0,0.0,0.0,0.0
0.0,0.0,0.0,0.0
0.0,0.0,0.0,0.0
0.0,0.0,0.0,0.0
0.0,0.0,0.0,0.0
0.0,0.0,0.0,0.0
0.0,0.0,0.0,0.0
0.0,0.0,0.0,0.0
0.0,0.0,0.0,0.0
0.0,0.0,0.0,0.0
0.0,0.0,0.0,0.0
0.0,0.0,0.0,0.0
0.0,0.0,0.0,0.0
0.0,0.0,0.0,0.0
0.0,0.0,0.0,0.0
0.0,0.0,0.0,0.0
0.0,0.0,0.0,0.0
0.0,0.0,0.0,0.0
0.0,0.0,0.0,0.0
0.0,0.0,0.0,0.0
0.0,0.0,0.0,0.0
0.0,0.0,0.0,0.0
0.0,0.0,0.0,0.0
0.0,0.0,0.0,0.0
0.0,0.0,0.0,0.0
0.0,0.0,0.0,0.0
0.0,0.0,0.0,0.0
0.0,0.0,0.0,0.0
0.0,0.0,0.0,0.0
0.0,0.0,0.0,0.0
0.0,0.0,0.0,0.0
0.0,0.0,0.0,0.0
0.0,0.0,0.0,0.0
0.0,0.0,0.0,0.0
0.0,0.0,0.0,0.0
0.0,0.0,0.0,0.0
0.0,0.0,0.0,0.0
0.0,0.0,0.0,0.0
0.0,0.0,0.0,0.0
0.0,0.0,0.0,0.0
0.0,0.0,0.0,0.0
0.0,0.0,0.0,0.0
0.0,0.0,0.0,0.0
0.0,0.0,0.0,0.0
0.0,0.0,0.0,0.0
0.0,0.0,0.0,0.0
0.0,0.0,0.0,0.0
0.0,0.0,0.0,0.0
0.0,0.0,0.0,0.0
0.0,0.0,0.0,0.0
0.0,0.0,0.0,0.0
0.0,0.0,0.0,0.0
0.0,0.0,0.0,0.0
0.0,0.0,0.0,0.0
0.0,0.0,0.0,0.0
0.0,0.0,0.0,0.0
0.0,0.0,0.0,0.0
0.0,0.0,0.0,0.0
0.0,0.0,0.0,0.0
0.0,0.0,0.0,0.0
0.0,0.0,0.0,0.0
0.0,0.0,0.0,0.0
0.0,0.0,0.0,0.0
0.0,0.0,0.0,0.0
0.0,0.0,0.0,0.0
0.0,0.0,0.0,0.0
0.0,0.0,0.0,0.0
0.0,0.0,0.0,0.0
0.0,0.0,0.0,0.0
0.0,0.0,0.0,0.0
0.0,0.0,0.0,0.0
0.0,0.0,0.0,0.0
0.0,0.0,0.0,0.0
0.0,0.0,0.0,0.0
0.0,0.0,0.0,0.0
0.0,0.0,0.0,0.0
0.0,0.0,0.0,0.0
0.0,0.0,0.0,0.0
0.0,0.0,0.0,0.0
0.0,0.0,0.0,0.0
0.0,0.0,0.0,0.0
0.0,0.0,0.0,0.0
0.0,0.0,0.0,0.0
0.0,0.0,0.0,0.0
0.0,0.0,0.0,0.0
0.0,0.0,0.0,0.0
0.0,0.0,0.0,0.0
0.0,0.0,0.0,0.0
0.0,0.0,0.0,0.0
0.0,0.0,0.0,0.0
0.0,0.0,0.0,0.0
0.0,0.0,0.0,0.0
0.0,0.0,0.0,0.0
0.0,0.0,0.0,0.0
0.0,0.0,0.0,0.0
0.0,0.0,0.0,0.0
0.0,0.0,0.0,0.0
0.0,0.0,0.0,0.0
0.0,0.0,0.0,0.0
0.0,0.0,0.0,0.0
0.0,0.0,0.0,0.0
0.0,0.0,0.0,0.0
0.0,0.0,0.0,0.0
0.0,0.0,0.0,0.0
0.0,0.0,0.0,0.0
0.0,0.0,0.0,0.0
0.0,0.0,0.0,0.0
0.0,0.0,0.0,0.0
0.0,0.0,0.0,0.0
0.0,0.0,0.0,0.0
0.0,0.0,0.0,0.0
0.0,0.0,0.0,0.0
0.0,0.0,0.0,0.0
0.0,0.0,0.0,0.0
0.0,0.0,0.0,0.0
0.0,0.0,0.0,0.0
0.0,0.0,0.0,0.0
0.0,0.0,0.0,0.0
0.0,0.0,0.0,0.0
0.0,0.0,0.0,0.0
0.0,0.0,0.0,0.0
0.0,0.0,0.0,0.0
0.0,0.0,0.0,0.0
0.0,0.0,0.0,0.0
0.0,0.0,0.0,0.0
0.0,0.0,0.0,0.0
0.0,0.0,0.0,0.0
0.0,0.0,0.0,0.0
0.0,0.0,0.0,0.0
0.0,0.0,0.0,0.0
0.0,0.0,0.0,0.0
0.0,0.0,0.0,0.0
0.0,0.0,0.0,0.0
0.0,0.0,0.0,0.0
0.0,0.0,0.0,0.0
0.0,0.0,0.0,0.0
0.0,0.0,0.0,0.0
0.0,0.0,0.0,0.0
0.0,0.0,0.0,0.0
0.0,0.0,0.0,0.0
0.0,0.0,0.0,0.0
0.0,0.0,0.0,0.0
0.0,0.0,0.0,0.0
0.0,0.0,0.0,0.0
0.0,0.0,0.0,0.0
0.0,0.0,0.0,0.0
0.0,0.0,0.0,0.0
0.0,0.0,0.0,0.0
0.0,0.0,0.0,0.0
0.0,0.0,0.0,0.0
0.0,0.0,0.0,0.0
0.0,0.0,0.0,0.0
0.0,0.0,0.0,0.0
0.0,0.0,0.0,0.0
0.0,0.0,0.0,0.0
0.0,0.0,0.0,0.0
0.0,0.0,0.0,0.0
0.0,0.0,0.0,0.0
0.0,0.0,0.0,0.0
0.0,0.0,0.0,0.0
0.0,0.0,0.0,0.0
0.0,0.0,0.0,0.0
0.0,0.0,0.0,0.0
0.0,0.0,0.0,0.0
0.0,0.0,0.0,0.0
0.0,0.0,0.0,0.0
0.0,0.0,0.0,0.0
0.0,0.0,0.0,0.0
0.0,0.0,0.0,0.0
0.0,0.0,0.0,0.0
0.0,0.0,0.0,0.0
0.0,0.0,0.0,0.0
0.0,0.0,0.0,0.0
0.0,0.0,0.0,0.0
0.0,0.0,0.0,0.0
0.0,0.0,0.0,0.0
0.0,0.0,0.0,0.0
0.0,0.0,0.0,0.0
0.0,0.0,0.0,0.0
0.0,0.0,0.0,0.0
0.0,0.0,0.0,0.0
0.0,0.0,0.0,0.0
0.0,0.0,0.0,0.0
0.0,0.0,0.0,0.0
0.0,0.0,0.0,0.0
0.0,0.0,0.0,0.0
0.0,0.0,0.0,0.0
0.0,0.0,0.0,0.0
0.0,0.0,0.0,0.0
0.0,0.0,0.0,0.0
0.0,0.0,0.0,0.0
0.0,0.0,0.0,0.0
0.0,0.0,0.0,0.0
0.0,0.0,0.0,0.0
0.0,0.0,0.0,0.0
0.0,0.0,0.0,0.0
0.0,0.0,0.0,0.0
0.0,0.0,0.0,0.0
0.0,0.0,0.0,0.0
0.0,0.0,0.0,0.0
0.0,0.0,0.0,0.0
0.0,0.0,0.0,0.0
0.0,0.0,0.0,0.0
0.0,0.0,0.0,0.0
0.0,0.0,0.0,0.0
0.0,0.0,0.0,0.0
0.0,0.0,0.0,0.0
0.0,0.0,0.0,0.0
0.0,0.0,0.0,0.0
0.0,0.0,0.0,0.0
0.0,0.0,0.0,0.0
0.0,0.0,0.0,0.0
0.0,0.0,0.0,0.0
0.0,0.0,0.0,0.0
0.0,0.0,0.0,0.0
0.0,0.0,0.0,0.0
0.0,0.0,0.0,0.0
0.0,0.0,0.0,0.0
0.0,0.0,0.0,0.0
0.0,0.0,0.0,0.0
0.0,0.0,0.0,0.0
0.0,0.0,0.0,0.0
0.0,0.0,0.0,0.0
0.0,0.0,0.0,0.0
0.0,0.0,0.0,0.0
0.0,0.0,0.0,0.0
0.0,0.0,0.0,0.0
0.0,0.0,0.0,0.0
0.0,0.0,0.0,0.0
0.0,0.0,0.0,0.0
0.0,0.0,0.0,0.0
0.0,0.0,0.0,0.0
0.0,0.0,0.0,0.0
0.0,0.0,0.0,0.0
0.0,0.0,0.0,0.0
0.0,0.0,0.0,0.0
0.0,0.0,0.0,0.0
0.0,0.0,0.0,0.0
0.0,0.0,0.0,0.0
0.0,0.0,0.0,0.0
0.0,0.0,0.0,0.0
0.0,0.0,0.0,0.0
0.0,0.0,0.0,0.0
0.0,0.0,0.0,0.0
0.0,0.0,0.0,0.0
0.0,0.0,0.0,0.0
0.0,0.0,0.0,0.0
0.0,0.0,0.0,0.0
0.0,0.0,0.0,0.0
0.0,0.0,0.0,0.0
0.0,0.0,0.0,0.0
0.0,0.0,0.0,0.0
0.0,0.0,0.0,0.0
0.0,0.0,0.0,0.0
0.0,0.0,0.0,0.0
0.0,0.0,0.0,0.0
0.0,0.0,0.0,0.0
0.0,0.0,0.0,0.0
0.0,0.0,0.0,0.0
0.0,0.0,0.0,0.0
0.0,0.0,0.0,0.0
0.0,0.0,0.0,0.0
0.0,0.0,0.0,0.0
0.0,0.0,0.0,0.0
0.0,0.0,0.0,0.0
0.0,0.0,0.0,0.0
0.0,0.0,0.0,0.0
0.0,0.0,0.0,0.0
0.0,0.0,0.0,0.0
0.0,0.0,0.0,0.0
0.0,0.0,0.0,0.0
0.0,0.0,0.0,0.0
0.0,0.0,0.0,0.0
0.0,0.0,0.0,0.0
0.0,0.0,0.0,0.0
0.0,0.0,0.0,0.0
0.0,0.0,0.0,0.0,0.0,0.0,0.0,0.0,0.0,0.0
0.0,0.0,0.0,0.0,0.0,0.0,0.0,0.0,0.0,0.0
0.0,0.0,0.0,0.0,0.0,0.0,0.0,0.0,0.0,0.0
0.0,0.0,0.0,0.0,0.0,0.0,0.0,0.0,0.0,0.0