784-4-10
-0.005154922417647097,0.0085331383427205,0.022486015095993878,-0.010102571569674732
0.016146983923963132,-0.030131529176694885,0.00965362082104855,-0.020914398726055716
0.03471261903694366,0.017971274475283856,-0.011936094768977414,-0.03139840721498989
-0.01823804386065448,-0.01686359897859764,-0.02564976868965803,-0.025461530961512775
-0.023131700595636982,0.015553068759747622,-0.028749299136497007,0.027028960314363512
0.0013997136386235537,-0.023846223772152206,-0.019976248903852245,0.034573416105089405
0.0024834378781199984,0.02889632756190008,-0.012782890651848271,0.02955638998340654
0.015354868952532762,-0.015493811189701747,0.019559961862459785,0.029926486247560807
0.011398077643829566,0.006410683750821579,0.010041171797343582,-0.0048857191248907195
0.0015184985423154565,0.0046517462915194735,-0.010111794172958488,0.0127418732148157
0.02256342862124923,-0.00788947175635546,-0.02520193761076564,0.001992299579010988
0.010626850139480289,-0.01821675838483147,-0.03053207483567557,-0.02821418251585952
0.032110801806284534,-0.009388947330032364,-0.033741181901590006,-0.01457758220743939
-0.009038154236101284,-0.0031574352393775595,0.032139765742565274,-0.029771722297016166
-0.01876324852824729,0.02955124049694889,-0.031193381480531877,-0.0065381310004317995
-0.027258649634732193,-0.017079703300711582,-0.01916518100867146,-0.032049472516465644
0.0016694047764854864,-0.006478215729440604,-0.022637275771988943,0.03423660536393194
-0.023567530336175944,-0.009507254680621927,8.013103807577721E-4,-0.013003299662667247
0.005445489926733181,-0.009226721550208896,0.010736801223208081,-0.03547111432802214
-0.0014528888271784363,0.031035531958910845,-0.007866025144591709,-0.029106058226963976
-0.006149673284207704,-0.008904200792963873,-0.023866613706341806,0.023168805451633523
0.03108465603048005,-0.006831032660752807,0.010075945214529154,0.025684630604581267
-0.023380806527990974,-0.023359422281739633,0.007948158085586111,-0.01713904155449145
-0.023493815713989112,0.027824427980298647,-0.020945712237350214,0.011578958905843921
-0.009537560115706691,0.009693932947778233,-0.0031660580975294214,-0.02981596196130567
-0.02922381093520497,0.002456916403430834,-0.022667876997679033,0.018324359353722702
0.023125290579462714,0.019098744107596974,-0.006751464694722889,-0.03385152232856442
-0.010077652914870918,0.026723132754504116,0.026650076380122907,-0.032837994343121533
-0.0279804152103164,0.03467846664875293,-0.030747070123454734,0.03459041101857467
0.0039740681042401485,-0.029012828277312035,-0.004687802972491377,-0.026718363629611615
0.03068896737013481,-0.016743298529610467,0.015760044262945846,0.03383329173355526
-0.002833590638821673,-0.02840141932469787,-0.022697793500660056,0.006828243500315148
0.020169932465236226,-0.009110846957694079,0.02430597486046384,-0.022606122728975907
0.024991318962184227,0.007132046853271831,0.012702480629130555,-0.026772139204777112
-0.01931598806307183,-0.024278518738487995,-0.03453195097195934,-0.013759129407540663
0.012470027922856917,0.018023017920557716,-0.03413451536592064,-0.02423269708830729
-0.012824889178047312,0.009827354578195571,0.032128236837386234,0.0029689989082874804
0.01402259668757417,0.013045687652059879,-0.020508518790537476,-0.01592463725881705
-0.032187869477072174,-0.003184752024385333,0.029791964731461007,-0.02791526670330624
-0.028716094047706784,-0.03318210100465577,-0.022449455238441378,0.012989500327560244
-0.0018457281169873482,0.023344737881903707,0.015479751182869934,-0.025911742679165864
0.004107572293978304,0.02009682281787816,0.018336725431591976,0.02785996017457626
-0.026153726003293035,0.0242832029509657,-0.021287268551256764,0.026269299399522626
-0.013120474715989355,-0.0020459127604362873,0.02525760676217645,0.0275646578042945
-0.005310866091347146,-0.006543917582884591,0.03237034538990975,0.015867109770077104
-0.005733750735696801,0.018974827085029983,0.030366078966601526,0.009784627438880047
0.02916249822561938,0.003164814889843541,-0.013454304264758164,0.008329787911653251
0.008153879350086109,0.018061921879286867,0.005745869694199809,-0.007488862919696651
0.008494592619141268,5.758938698645702E-4,-0.011687846159839935,-0.012211867965854044
-2.832696577604807E-4,0.0026076615951514184,3.6615799800117366E-4,0.008852132701090934
0.002776671491536188,0.01493776351923086,-0.0030629142671744075,0.024170367252900296
0.011755828594333953,-0.013242355215447778,-0.03047484588779441,-0.020399928476907817
0.034248187240721734,0.010335227431712286,-0.016994689399002075,6.839119186051942E-4
-0.028649370255129075,0.03189616096649381,-0.012556278310737395,-0.01579827705371223
0.009558763660192753,0.020611578554615054,0.026817915018285635,0.011760303554831368
0.001874738578979393,0.023110565016953986,-0.03262764376493258,0.012659488744217677
-0.019327533577829528,-0.03436228645525537,-0.0031580221404065717,0.029959858748412088
-0.025695983754073476,-0.017046128371779497,-0.03438542865954131,0.01308684063509695
-0.008486098567532754,-0.006425673214506711,-0.004660964249295588,0.023294993653522895
-0.029515555301627684,0.02250899614749318,-0.005238171990793381,-0.03087421067092918
-0.013244144466115573,0.0179592537056133,0.009637605345105126,0.031445987287234786
0.02399265054649353,-0.027057383767202275,0.029952112824468954,-0.0326181271166453
0.006400779294718044,0.03505848782024992,-0.024814368813012338,-0.019362722571570692
-0.034927509518697886,0.03302538990672761,-0.00948000251876083,-0.016990864382107174
0.024920695080944882,-0.006746794852544216,-0.002411225840932854,-0.02419154968180643
0.0273606475468762,0.035530319138854724,-0.007918141713860308,-0.02484318852056374
-0.01771494119178071,0.016406823443169988,0.004719385604040997,0.03408886054823808
-0.016344652126526645,-0.0191068405548135,0.002427213440094292,0.004563874126331809
0.009326927340009172,0.008369689141554601,-0.005798111757023352,0.03318516021288301
0.03147040941108929,0.015812893831108843,-0.017439885134707556,0.004159405537360952
-0.01059863679839445,-0.019081408849470547,-0.008636599290048484,-0.010340313148427649
-0.025217973120603435,-0.019315935414131607,-0.030119736457075073,-9.907955922555667E-4
0.013099657421414765,0.02704808398797924,0.02258274080675029,0.023827709374378073
-0.014127780737111111,-0.0075023159446501245,-0.028233126841385004,-0.02865088872340405
-0.023792486204910233,0.008834159681584144,-0.022074498265283658,0.005925808906254146
-0.017688365901251193,0.012183100149195936,0.024535071967670963,-0.013869428197660506
0.027512657660081236,0.03406510065632047,0.005367199096063632,0.014985396080768223
0.006783655527224673,0.00880143519795664,-0.00873278913328502,0.01481334293726183
0.013511488131013938,0.02167328385074957,0.02012519690178407,-0.028181182116384474
0.008806927405732405,-0.012369901754763744,-0.03509222448235472,0.023795302059676005
0.014679791685606403,0.008536837318866883,0.02967299044359259,-0.020649858980129537
0.016457688241444807,-0.0012851348422986061,0.020638624319437936,-0.019823358552702022
-0.0010486736727545048,0.01695646270379398,-0.02789056012986124,0.0065331096768847935
0.021976563947167543,0.02563208893507661,0.010274561542634515,0.002398362718760927
0.006052301835929599,-0.01804782188133392,-3.2665772241922963E-4,-0.01904675319698799
-0.009158192825354017,-0.0044076003321917995,9.757127429317822E-4,0.011914203943382495
0.005572897682383983,0.0025377886652158815,-0.020407155219296556,0.005347374039510813
-0.033857696030609175,-0.0011663665745395221,0.01189241327535439,0.032987066034544876
0.020379037254140767,0.0066524054297543225,0.02375022233236585,-0.032955482149739125
0.02218301411743677,0.008250884382661326,0.012788592869314615,-0.023807000057744353
-0.025795868635662474,0.020349026344387074,-0.029557258681331227,-0.028238200763222872
-0.030380933931831822,-0.009914931811795195,-0.007346661737409381,0.02332525816646936
-0.033559444509243974,0.005816368833147879,0.005530626399659587,-0.027929625277087745
0.020403144455281866,-0.0068597277797393975,-0.027435556500335766,-0.008777426913850861
-0.030669086083169417,-0.0018531800137742901,0.013037712437615749,0.02953738838921499
-0.006034146555019333,0.022013975584453685,0.01721116038005483,0.013880506583047764
-0.03428742458507703,0.025839287357640815,-0.009247909476628718,0.030621739358708766
0.027575597102725946,-0.0014626175093617952,0.029678252477276443,-0.006635708441116914
-0.015452837342582872,-0.03138155575935933,-0.015369411938921312,-0.00873241317786309
7.102334767159005E-4,0.005352860749279445,-0.026883457354279168,0.0168921903204253
-0.033743425561924535,-0.020165524500707053,-0.008182344704511482,0.023716604933088477
0.030246260724818105,0.027874152670056163,0.009540138546737909,-0.02667114953737134
-0.03139166036735086,-0.009347771669890384,0.0116595503725202,0.010114050912703891
0.02313803199804519,0.02835760240277048,0.008288773537646975,0.016228416457234426
0.010405296958836317,0.006667471604994847,0.030209602809381703,-0.02861491807494131
0.025406253937804296,-0.0053186368160363755,0.023419382226883285,0.009161991078765995
0.03055157153767453,-0.021206420375695367,0.022755131834154056,-0.006044454217293785
-0.03400982725445546,0.03055869374507457,0.03439982524162692,0.015446611720095066
0.019473526433159145,-0.008815952724580474,0.006647343432722316,-0.00831577700898781
-0.027109864873662598,-0.0022173168145668692,0.022000535255886487,0.01605166389180169
-0.005562856465677762,-0.012526942773601144,0.03305745839674981,0.021769548801645305
0.0024131413226296597,-0.01423052168778496,-0.029108718740122615,0.024788027844998624
0.01070190202189783,-0.01975156141063537,-0.01912541389170506,-0.020023065366004542
8.302696054703282E-4,0.013879872342861262,0.015031431023056749,-0.009042501353224992
-0.0022540704456612062,0.01329533043631382,-0.020824048185870834,-0.001622943209265336
0.0012012351676744457,0.010417473089123289,-0.012690090021686109,0.010855161817677914
-0.025011117489004864,-0.02129363249969927,-0.019029746423987994,0.031236368412559196
-0.03435401224351161,0.0030764660712354064,0.015248355166537747,0.02046797313564285
0.025783149598596337,-0.02776263886180199,-0.030384776690962154,-0.03128622802450144
0.025937060491401952,-0.024867242060293376,0.005192201187768607,0.023523074236684524
-0.017191252218195403,0.013729726205714485,0.006351623974682995,0.016627763490517082
-2.1709932444153451E-4,-0.029601758310310387,-0.005411518688024624,0.00966313750668537
-0.02711329324300597,0.012125973554387978,-3.264954829385047E-5,-0.02188770888129228
0.035572690227902326,0.008937954403369044,0.0068088050852047055,-0.021232685138326244
-0.006190382195268875,0.026906268195118002,-0.016027332941382897,-0.006049937309783315
-0.021245684366513244,-0.01854230253830408,-0.008342260469118314,0.023931698517135107
0.007890236990321,0.018303849764783636,0.010470586651269383,-0.005430399061707385
0.003744957270411964,0.004844386167888827,0.005990791022658315,-0.034237656561908976
-0.014168648309291328,0.011052754071592133,0.03310912029991489,0.008706777658295146
0.02929107006689191,0.017639454215202237,-0.0012573225437807131,-0.0011705845730047224
-0.0026751795444626483,-0.004909393885161817,-0.03325302843240638,-0.0062486547221282905
0.006334496608612884,-0.0011505857635765032,-0.035396443881132576,0.0031957771242038455
0.03416107871913519,-0.032264565361769644,0.0033472736332326863,-0.020208879584563022
0.006063988964548177,0.03312264268516757,-0.02382648784250283,-0.029923322120957312
-0.0210700203166906,0.012904044271787436,-0.012785741877455594,-0.002881877571625932
-0.031048654260042035,-0.021657351961831193,0.005590107772218564,-0.022348027647007614
0.02434875636083946,0.012791687801727777,0.0010665614701637002,-0.009818733011310404
0.03454696677399795,-0.011871553891546753,0.03456669402034933,-0.01341882354497367
-0.008360817434784926,-0.014898486873420443,0.024532967866612312,0.01160500054737642
0.007854824513987925,0.001659083452877963,-0.03160898356075399,0.029637394194314978
0.0019800081663446795,0.006622545246110577,-0.018405179837985133,-0.034173774747681025
0.023583868519480918,0.013399970154856194,0.02780408243582888,-0.005572088161864806
-0.0036940011109239876,0.008718930543569474,0.01691524225860041,-0.034070392378399005
-0.01143532097210857,-0.008173525409887916,0.02395333652974166,-0.033815538898603795
0.035544082099607285,0.015355042186844643,-0.03570002453573541,-0.017818499539186333
-0.001279870070797308,0.0037188349458758332,-0.02678056576315669,0.032363447873844695
-0.014584213710683976,0.0039958278878247724,-0.017031565517678846,0.009161774034624745
0.008606790255783411,-0.014030038144537325,-0.0037123858124340978,-0.02262818495210734
0.009241323580651425,-0.020237940567628843,0.007979271238988568,0.019941635865672422
-0.023549167663743136,-0.03497116200335468,-0.005550123302658565,-0.01664123499917167
0.01617548559387865,-0.028943011385367652,0.026901216202571535,-0.025134701996200687
-0.02876723963473734,0.03278148977553354,0.0036956658830891095,0.001545594408072351
-0.008471081473423268,0.029038564917217388,0.011977621869886323,-0.0031569171201921015
0.01884799366609092,0.01002870510177508,0.03493046575542737,0.030527222794522843
-0.027187508318460347,-0.020229800540559235,-0.022786574302907963,-0.022592631643690828
-0.019921720205485438,-0.03312764793661909,-0.0018091559804725918,0.02169010800754477
0.027327948118732293,-0.013833702623515423,-0.009615570813356074,-0.025002220724875828
0.019636085946128687,-0.013403787820972346,-0.033740814729299594,0.020609086801142054
0.013563250521323282,0.019284609263361667,0.02955565082533966,-0.02529929319321258
0.0047661173228693565,0.010043649538158526,-0.029318776471278164,-0.0040466366588973735
0.01211443264857777,-0.027088612006127964,-9.724536760181771E-4,-0.02403126043093958
0.00853934302184843,0.02171635823209539,-0.007656573544667311,-0.032504266422902696
0.02106098026406216,0.031147362829025305,-0.00837949386408596,0.01731917383524844
0.03022776675593103,-0.02160419295343341,-0.021632913956456445,-0.02295922336853109
-0.0026353412113201483,0.03286256350772315,0.015819017838775894,-0.005522467874763879
-0.02368223308839421,-0.004016404191602818,-0.016695797785466593,0.008470441621007872
-0.017843215885073465,-0.0032116282218513925,0.023110591411158364,0.0178760688087349
5.030743105075494E-4,-0.022307161281870474,6.211287405583424E-4,-0.018123473962804327
-0.029738785357262786,-0.004141014944523236,-0.0020776278455855585,-0.03223092840005731
0.00995009223608035,-0.010773763555659899,0.024634071254559152,0.02469749251580297
-2.3892234952694463E-4,0.027262853832598938,0.02973584294773994,-0.02499894050642119
-0.024078174459135862,-0.029144939565737736,-0.030901678938253057,-0.0027613496333334098
-0.035699018428356884,0.01987412095248537,-0.035157308723513185,0.0342436859763495
-0.026087998187169448,-0.005304435865517439,0.011251639871478633,-0.023495887145640902
-0.0020190537282882073,0.011602296658465586,-0.004659550187007859,0.03458564216798668
0.006082388516141256,0.024261091038751563,0.017156458596921283,0.023585666341611078
-0.02517751488202742,-0.0089705569551502,0.014385986869847399,-0.024246387702722687
0.014252464218486048,8.797014948390622E-4,-0.03492286606357199,0.0218674779907274
-0.017406616724589468,0.028398772036701936,0.018545702063935354,0.005812023863696211
-0.0075225196056103935,0.0025228229246093,-0.005246398577901736,-0.02379063901267553
0.01726827260731311,-0.01634674311685525,0.013399937791970067,0.012581210784073253
0.015139077922697544,0.030649916912511427,-0.02997884627667287,0.011677541102719062
-0.018097812097665644,0.004548548920682453,-0.015484873092934937,-0.0209919145789867
0.005573253984674793,0.002995920041975235,0.008445219242431752,0.02817489843446172
0.014546741977246647,0.014595198559456284,0.024036116877076137,-0.005705956375342904
0.0303705002863425,3.7165095693304784E-4,-0.02516536515552975,0.013299749971499096
0.018436744671501464,-0.018512095999267158,-0.018698729553131573,-0.006707465775305923
0.029562712872811717,-0.03399771581485163,-0.025938724485201774,-0.016638525054768705
0.02196096994426737,-0.026039302381884344,-0.0022128428181594773,-0.03275778161720977
-0.028415104486150356,5.875848920620097E-4,0.023916632157454418,0.030352603916314003
-0.011893258443253434,0.026956178242631634,0.02294832108899167,0.005251946741573303
0.008477331068570328,-0.029601563281651054,-0.016003169326671562,0.026134092171633358
0.006417255591304391,-0.018747454248589344,0.034457695779159234,-0.013665778752099067
0.004436116202389581,0.018960283772182084,-0.010021020853854305,-0.016985431651483352
0.023569202648426116,-0.014547092248329951,8.96434603161883E-5,-0.011780952074623659
0.03321363040846381,0.01776714396364902,0.019834677081923706,-0.014338869982255364
-0.03353575816589799,0.014567397478931661,0.0034289549856169124,0.026738343346306495
-0.004772839059837799,-0.011871095263646388,-0.017296781937285722,0.03189171478973499
-0.033326353946812215,0.010676420623804875,-0.012016145151628792,0.030578693203259844
0.010763924858295928,4.812441124471892E-4,-0.02778453936005732,0.025938266774283472
-0.018776855092703777,-0.02770219239905236,-0.02101443121695438,-0.0014317759500646968
-0.027413476064966025,-0.010256667507308352,0.03332772650483001,0.029871627080636273
0.014049744259417185,0.006772168365927922,-0.013391667752566998,0.01286706609511118
0.010214765871246055,0.007201113656772749,0.009039272271215808,-0.0040113556932091995
-1.814663631510699E-4,-0.0036949888362297276,-0.0250534917032368,-0.028056304097014324
-0.006305322905981285,0.03052562431178027,0.013933962959536438,0.013199910784502215
-0.03243294411384421,-0.015815749803007286,0.0179751131240345,-0.023901736123081455
0.010332525472248541,-0.018902199195410783,-0.03469586724396393,-0.022868069572934857
-0.025727550701638742,-0.009180054469437926,-0.02028106564821844,0.008715103184607574
-8.436881811035996E-4,0.03477697647184315,-0.02445194426807789,0.01635168566445175
-0.015603900516212424,0.0025756284576226446,0.01020424154921424,-0.007125193409621047
0.0072314991191921515,0.013752679282268719,-0.012273001344752534,0.028331416376222315
0.011845346144671642,-0.0016795730305494763,0.023262252906671582,0.028873344614749705
-0.004580316413849952,-0.009988236785347857,0.03290964824803283,-0.03014605429368284
0.020561660898820625,0.034390509004848455,-0.0037073247044400043,-0.032680246698748944
0.027288985429611987,-0.023387768787512624,-0.014650958704477968,0.03206019727656975
-0.03300541301957886,0.007014431233034683,-9.214097562165596E-4,-0.03119821337044395
0.023241928558105765,0.022510611664340305,-0.005421992149162749,-0.03150924360895896
-0.03355948323475423,-0.008441948462126876,0.011558779878493353,0.00829407113941772
-0.0037874903508310215,-0.010841225864790065,-0.022907748281364555,-0.006213555947335643
0.03233342802255326,-0.03359343135924856,0.028063382080890334,-0.003674621439968384
0.029652778985799752,6.992089930581563E-4,0.030705520663487945,0.031703925024762575
-0.0048669396183269285,0.03004330350533882,-0.009218411659967778,0.029097290931574024
-0.006906284590763145,0.02708430997095107,-0.007200036176889215,-0.001176290524543884
-0.024234998368642624,-0.030255259058317607,-0.03114830737693869,0.016061078949510116
-0.03301966871999205,0.025734803571197506,-0.010869054196445474,0.0031205413293617368
-0.03472072304040372,0.003854101928108547,-0.028031601113781245,0.013049870558529866
0.016225059315767093,0.01375372784145551,-0.01986465675979976,0.03453473293988202
-0.02866485415253918,-0.028106632304177957,0.0021578249425402915,0.030915355593922722
0.025459748276228752,-9.942777371035813E-4,0.020106715701266327,0.018381277916024556
-0.029092579351058974,0.014541079237809625,0.029125944788240765,-0.03432882308717878
-0.009395012796676126,0.021851385270487966,-0.011983201005895974,-0.032135215283083
-0.031042331525508303,0.03544765076556872,0.010521291312283992,-0.008988428297255411
-0.03054983454835884,0.013854344071871548,0.004298239606981023,-0.015085125965532575
0.02743090174907349,-0.02166557380640618,0.01852795268603391,-0.027487587959060332
0.0029665259108028544,-7.801288885157451E-4,-0.031227214849648178,0.003632223908111118
-0.03129998097304137,0.02958796771084707,-0.01592101394183158,-0.016767692879061047
-0.025302216939037787,-0.0323141984243446,0.022855492326469266,-0.031056272181388622
0.012439763344274726,-0.010732701819315023,-6.117023711434272E-4,0.028767623358624372
0.009316697018678849,-0.031348038165366916,-0.023011814502107573,-0.005404389789689917
0.01746520465778969,-0.015821870735062978,0.004257201379764139,-0.02574006717378377
0.0034508368518312155,-0.002574519458772663,0.01911939491034524,-0.013749240547821218
-0.013512748676767106,-0.0140370020900707,0.023712625422695588,-0.01400069763583351
-0.016283159054334282,-0.03426979806825317,-0.0010883643112938393,-0.03358904634590677
0.004770865358077518,0.02670648490614931,-0.02915431920133938,0.021457395359720265
-0.0024204099992797892,-9.025106342636785E-4,0.01801618606351984,-7.653947579459655E-4
-0.024734051989239746,-4.1941263700700365E-4,-0.020249392320898656,-0.028105149639929525
-0.018483445292978223,-0.015328454256102002,0.03515195823665518,-0.0014403934993456671
-0.027013478081242714,-0.00993696222618086,-0.013010187540099836,0.022872986911780968
0.00760429242435607,-0.032207616078318894,-0.011913223202169951,-0.032122419981713585
-0.026627248477474233,0.03082767117320946,-0.013543199557331836,0.01746249139461671
-0.019616649243778164,-0.01864623923377285,0.014228410554765931,-0.007657101584204587
0.018738752708267886,-0.025835780128709122,0.03459297117974157,-0.004900665238280238
0.019227671811217137,0.02567226703712929,-0.024523160836752496,-0.006609830033826172
-0.02732620354130718,0.01896812086972842,0.004112751887849535,-0.021791713704668574
-0.01640196403152071,0.01146284869203991,-0.035104910664308944,0.01194605992374003
0.0031530337765638336,0.032802712364929695,0.00763775895930098,0.017808590530749367
0.01659635593087294,0.005948663538150142,-0.008993319749318988,0.02975307701240673
-0.026150362492621385,0.024419008079559004,0.011997619402630999,-0.020997629967961666
-0.015475922728978114,0.004899561171814414,-0.026366433505456248,-0.010843426851837788
0.020415302237044013,-0.02330172114340591,0.012043175570420964,0.02649207103410596
-0.007360710891665241,0.010411133718601799,0.007318438281369077,-0.021268259038460507
-0.033019818231884795,-0.012585399797993953,-0.03204980575149636,0.009223302167991575
0.02900196629313767,-0.03272015701510614,-0.03109694065412455,-0.028783815722825686
-0.02213968578361985,-0.010509269249891429,-0.03331698170157551,0.0195764785281866
-0.030723157795385012,0.020474409409960495,0.013564909040635238,-0.03230261609725036
0.017725709346415874,0.008545322113937555,0.0019409525023598648,0.03342846919338416
0.006540129595707551,-0.019404959159514314,0.006156646305705171,0.030911625485305225
0.029265776035952804,-0.005495734011418823,0.027769136008508763,-0.007178785925265076
0.03561743631990753,-0.0324639506695554,-0.027658890129980206,-0.034365718702807496
0.029065075111098376,0.012915007759516803,0.012201099292447275,0.004678954120445167
-0.03396293024526747,0.00942545782743797,0.02869463402784206,-0.00758734410122262
0.03413305836758135,0.026732853720181762,-0.0011918430759200738,-0.023592245331731463
0.007042731032618328,-0.02792619503117505,0.0024947414621660086,-0.0072278602113789205
0.0062970503935338915,0.016536665816378145,0.018216225465927834,-0.029420904836478433
0.028759569013963246,-0.02329935492666672,0.011814696448100417,-0.022609923443155138
0.004874089322284662,-0.02482307265699741,-0.007048173999514788,-0.03429940066203558
0.015581140332656965,-4.3235319577809156E-4,-0.021679943281133207,0.0125026312283169
0.03177514558066402,-0.02755139350724433,-0.01388521668343944,-0.016274536939157747
-0.004416230637526698,-6.960939493468668E-4,-0.015339108268999653,-0.03229345761602521
0.011652076865865828,-0.03059420900742038,-0.009471962752130317,-0.019056986713389328
-0.011168254404951172,-0.022079404731931873,-0.02364970098390763,0.007182745596693754
0.019463582182368898,0.026297153351919303,0.023634832314114923,0.027422893958364614
0.01580478377225608,-0.030782072873776177,-0.011933308420623606,0.03286581510188202
-0.029591121362155436,-0.0037764914306579953,0.030871949330498694,-0.0074848774798666785
0.0026083961883112197,-0.01893113099948452,0.027792682742191405,0.01130157820617797
-0.0015670483902820095,0.016042880983934533,-0.033823255377358946,0.018307740768961203
0.008077454465912008,-0.008570985403693235,-0.02595832727072493,0.013613411434149444
-2.4876830926145316E-4,-0.0332934589422349,0.005071596495515737,-0.01445139816820485
0.030194457892240234,0.019524353442292544,0.030831630711304694,9.513344760672254E-4
-0.027841863822498352,0.023717229982175375,-0.021633993089535335,-0.006635835552066982
-0.0344702889494277,0.021045809636492357,0.0020336203886388224,0.026433239989659484
0.03499575089563334,0.03482445214688541,1.8845763706953206E-4,0.023053117168255706
0.015746795251080095,0.02631600021598502,0.00394989427196072,-0.03187890349894635
-0.014639043910223717,0.01915417849819251,-0.028868749390263657,0.010953650304363231
0.015101441814705546,-0.031898864978345244,-0.01132308945156232,-0.0161155374901745
0.021754884464766193,0.019852654308292958,0.026582603024010838,0.029420578575787767
-0.02592432583943694,-0.03368044918889498,-0.008453658142168856,0.006156191191730935
-0.006513719993878245,-0.0038866296562874436,0.006987928552476985,-0.03041737106144643
0.03003165200697823,-0.010704009727552866,-0.03332371405937745,0.014556113558891824
0.0296265313362212,0.016819578662135945,0.01318496245479163,0.004778040029853228
-0.005231548401204114,-0.00469724458381501,0.02749946281085866,-0.008293455853081413
0.01623849570115747,-0.024090004454883254,0.018534379512564383,-0.017759673505483367
-0.018199626959340923,-0.01838925515004336,-0.02415790352429507,0.002872068593078328
-0.01332260041116707,-0.022842123663118146,-0.0037205732216881587,0.024204670901815314
-0.03368875985580845,-0.0070978471685952775,-0.0022819206510700032,-0.004715214169387916
-0.026348678206456515,0.009834805657125016,0.006189865753927,0.005909664728969102
-0.015180059145573955,0.008885985970427841,0.026637194094732752,0.0013526809713068008
-8.161333148626326E-4,-0.025136441849142155,0.01314888235431265,0.01583436973966102
0.0024813500401922733,-0.025663229870733766,-0.008047655055090388,0.02669361395567183
0.03213217587502773,-0.034343700280511716,7.130598196320379E-4,0.007936572018939617
0.02790297142045972,-0.03091254944408282,-0.014419335546518086,0.006524139645796644
-0.03408031237480992,-0.0013457811037894535,0.03513394306515588,-0.01519778388126734
0.006355778146371907,0.0015666354852386308,-0.02839482113680668,0.01623305928059659
-0.010497867428179302,0.03404066361993062,0.03052574622540727,0.006046666657757667
-0.03505111449110886,-0.014638602986357774,0.02885263825921952,0.02259381016487571
0.023445256064106523,0.003923903830205758,-0.02020623469884248,0.012504702756028163
-0.034343721713564736,-0.017800404509002443,0.030884079011809756,-0.008842754260379147
-0.02965104907746393,-0.033610339547839284,-0.01961950544900199,0.007493419414085871
0.029168055179744842,-0.013313336813804786,-0.024214027123459957,0.004111705286228409
-0.015774406984349548,-0.005392897222241146,0.018950879234400128,0.02129046580042194
0.014466904726902617,0.024735603687808305,-0.027259307862744067,-0.027676490303203488
-0.0032630117051236293,0.023284314232637757,0.0202285638632312,0.0021297838627384463
-0.034353870986775774,-0.0017285580054539756,-0.02969215368083249,0.009525691716223736
0.01611251198317276,-0.010611339322374878,-0.023028461776038598,0.011470003745531927
-0.029334951023848237,0.03138758912086326,-0.031025294945813756,0.023007991951387467
0.0216978478375136,0.032910645306451644,0.024425274672471804,-0.024425703215093082
0.03312516807904846,-0.00817961309220739,-0.026101913970152685,0.019959284592699904
0.010144803050895393,0.016195141872852495,0.025645295495669025,-0.03368134204444576
-0.012152363373017443,0.002242393477316855,-0.010899602469039728,-0.012977405741429391
-0.03074195017481325,-0.022497371257754653,-0.028364279675851978,0.031764001867280206
0.03512347157030496,-0.025763448729230615,-0.0293103329253942,0.025611020013772752
0.0056921339859031875,0.020426451948876878,-0.015115216170875547,0.009907567924343517
0.006453839296514982,0.03358096494014906,0.03172079792231468,0.0197234723154973
-0.006175946921025934,-0.030465023858124995,6.780619189961853E-4,0.006460050724427388
0.010938525839591165,-0.022336494618564493,0.0022269360944362285,-0.015358690619788902
0.027183216085299194,-0.010602194484250798,0.0024359051314701494,0.010715497301792186
-0.01705792136586724,0.02666590762842746,0.02790918183611764,-0.005214800478186201
-0.03103529437577333,0.0021434243961128835,0.0023182103388627515,-0.02450025619922408
0.02597895954788155,0.010518561924490813,-0.004827653182485261,-0.007347922414899375
-0.001794893798708716,-0.005388621315255311,-0.011386723794430485,0.017965713224143795
-0.003193998273333158,0.01763051589798411,0.015193316322527337,-0.03259692936183224
-0.012028075168750579,7.058043713985343E-4,-0.007189769599244174,0.009816961901243162
0.010975938896893744,0.011319004811863063,-0.008025887226046198,-0.023773019763510792
0.01952385572357703,0.015258826462189304,0.027054383330162995,0.0021934466173436293
0.002231114436105998,-0.017149445884990098,0.007929124833566503,0.027106442641190706
0.026691961452993733,0.006262248469678357,0.028029941169984113,-0.02555989682543682
0.00580483705101327,-0.030368687868041176,0.022103062471398545,-0.01662149840031258
0.004865750188541983,0.028283276699141657,0.014880827096498787,0.001819681951182088
-0.02891958068801823,0.0032268077400127854,-0.002273637936422171,0.017429939113121636
0.021667923135496307,0.011058326136699041,-0.030513571550608187,0.005093659889382207
-0.009670748128480615,0.019590927996121957,-0.029298416432406032,-0.011273010735186544
-0.03559193220173207,0.01930099099933224,0.026424098810441936,-0.016920031574709813
0.0351432265231945,-0.010714598188261853,-0.029907048758499134,-0.01814098005760727
0.008196610226995249,0.006238650986010209,0.012035208010616888,0.020812168610453874
-0.031130819642239696,-0.0264126000987413,-0.021960172059776493,-0.03009574647707871
-0.016696756498247183,0.03163284939416017,0.02220524947666746,0.01996294393378225
-0.009926630404509265,-0.009857605362017113,0.012514005061475028,0.019555649045106545
-0.013127254084376032,-0.03243777959038217,0.0329633870162829,-0.032918878695735045
0.015043467187610932,0.01945976465623695,-0.028893144755713605,-0.010562455498707022
0.016206902436822275,0.015900480352971834,-0.029665645694450536,0.004868682713497628
-0.020886274543572232,0.029321967078409894,-0.027066017283236217,-0.007004834220763017
-0.0022054273524469772,-0.007501945436257998,0.0017279514011060218,0.022498653374027594
0.01844536895662175,0.03336712231561387,-0.025063062519307216,0.03370467321561438
-0.004875934224742709,-0.015944705324628928,-0.01862230166908342,-0.006060042237856483
-0.032208468486227236,0.016489432684541352,-0.02835742900629301,0.0056657514445300206
0.018276372335378238,0.009915581204593397,-0.001339613109244256,-0.02739518561357701
-0.015261821207753528,0.02737333791894414,-0.02010130655611391,-0.002470444073473417
0.015303963934328535,-0.011536761518088315,-0.02700161380599103,0.009178667587722553
0.009776711963521714,0.024792182111274347,-0.026898539972069486,0.01561773382854996
-0.0013273677161167036,-0.027603809252739933,0.02877541441731246,0.002043656851000386
0.030251509463941006,0.005949327025969356,0.02942443424716841,-0.01955727603068051
-0.025428334259360107,-0.028006610454158976,0.02605286095137927,0.024284716878762366
-0.035505611218744196,-0.02432828921640108,-0.015270539278754276,-0.01930744420541991
0.01015062936165291,0.006542641877216725,0.013008469820640148,-0.003607801311781386
-0.01631286142613494,-0.024370460912206675,3.6938953527634183E-4,-0.013366196954378684
-0.028116336779464922,-0.020371160595293075,-0.007054135852563939,0.02502935549334092
-0.03319031911451872,0.02705086854554084,0.014330662481878191,0.014821467960610173
0.03295945089652591,0.02017257055472515,0.007743074871930551,-0.022252258689449585
-0.02362445869674569,0.006262555238404299,0.00890389270893386,-0.03061354847900056
-0.01820804765278598,-0.02670681100507638,-0.0151414234942998,-0.008516174880594567
0.0037759939057140993,0.007719825417365975,0.018566986191398537,0.00954503861068267
-0.010397589225306005,-0.014021403028213728,-0.014013394408920805,-0.019921391698270792
0.030430544942524868,-0.012479292856087159,9.273908990221139E-4,-0.029747850473710757
0.0067499818433690364,-0.019528970330501674,-0.020655016339948578,0.033487177105332167
0.02049412839915931,0.030646015337799523,-0.014731185315246666,0.02841008281743486
-0.008618445535040358,0.018244442172154374,0.019657950231903684,-0.015494236788902594
0.005518464794926244,-0.021743744747117662,0.0025664221267705928,-0.030283707351677867
0.026631222886809143,0.031273778126684415,-0.018074716664007173,-0.008605603438934635
0.024433408387064537,-0.018931350498888912,0.003414293117197688,0.017573099189934847
-0.00595639799008665,0.0028657500377958778,-0.027754076397473806,0.015174873804515536
-0.029281532029044065,0.0036212483449357125,-0.03044142870978645,0.034503907788922566
0.016115099093649554,0.028728940350119955,0.03243779982470349,-0.029339793083100845
-0.007769759318626262,-0.029407492221456142,-0.014807449965681983,0.006107874898392554
0.024172112136820363,0.02215740692489989,0.011607668561328638,0.03467357392901675
0.031319071151752184,0.014350316420871832,0.034869121640167214,-0.007664143693878245
-0.021337837535643816,-0.018613028180692832,0.03056901014328539,0.034137179338894666
-0.03345494298158707,0.031538322083797615,-0.018807360993043427,0.016402995130728376
-0.017380355861645404,-0.003437339405519338,0.03320894399504176,-0.006693778246649143
0.02370678197578925,-0.017676724482972653,-0.018987805005965253,-0.001244542739743934
0.0062031394421486405,-0.03433324817290619,0.02921281234875127,0.019899290247936248
0.023955759346047198,0.030224707305899087,-0.0031955476046531886,0.02367018140065788
0.03214961214260398,-0.009720212538819852,0.014964376903174863,-0.015865977045806102
0.02852021914840877,0.01959200435153153,-0.015560216553211981,0.023243861331255222
0.029784338160688692,-0.0328354760375437,-0.016237453544656395,0.01107961095013995
-0.02310014243637682,0.032995216720862475,0.007147106064244832,0.01876586309955007
0.00569112157344448,0.0030996519653063714,-0.024409048265440023,-0.028133135143501145
-5.029552166434872E-4,-0.01980331863771973,0.02652924878683912,0.03246461641376511
-0.004036309269963227,0.006012516842302751,-0.007998306412960097,0.025023340697035712
-0.02682587380371959,-0.018773275361883047,-0.018366036105946938,-0.0328143671122815
0.00800926734374744,-0.029882771831824362,-0.006552732467975966,-0.03444414511653677
-0.03553370831538089,-0.010066096185787243,0.01029007535972725,0.02328411084849906
0.00606795911262762,0.0025433221715925117,-0.013763940234966066,-0.004838174491548133
0.026715823065223236,0.024623986968927716,0.02250544836417901,-0.02759711145803647
0.029215211476463943,-0.029286241009034722,0.006809305327136049,0.013376009084878064
-0.018927426427794394,-0.02902745121922507,0.005115805886407275,-0.0029333437734352166
-0.008827818658720017,0.022602253068207415,0.035448863460973284,-0.0341131234876745
0.002681356207827376,-0.009497318888197714,-0.030453914654163843,0.004487279764040383
0.009159739486291202,-0.014195970080878011,-0.014833495729223989,0.0017797713994025174
-0.009457385373181842,-0.006531837100841556,-0.015873041245931727,-0.008857203919325665
-0.03446159537856444,-0.0032922713485303984,-0.025602317855461153,0.02904674015207212
0.007627319520472589,0.005259220187877424,0.013462365342061383,0.025355738929265452
0.024392596082130534,-0.004058152219208952,-6.650979917611072E-4,-0.019651292907501075
-0.002827471430230717,-0.0109543938380415,0.035432721893578156,0.019549290712081564
0.022637096588093972,0.03562734586783105,0.023117714417966756,-0.011624126176726837
-0.011207076913215722,-0.008466868345552023,0.013762062882074225,-0.011719031694999198
-0.016845100169549845,-0.006379893328040596,-0.009953573224304773,-0.007600256435937185
-0.02293170029229974,-0.02761423996288692,-0.022994517704038073,-0.016253143875087233
4.132254911647301E-4,0.02023406504250551,0.015018085182833762,-0.011239435093595422
-0.007252609874574108,-9.197967998276699E-4,-0.0049858945814778635,-0.012988192623143633
0.015011505210622882,0.021729922178954156,0.030436872921140765,0.0034784888133562245
-0.0347067411103574,0.01033795620615613,0.03528514164217915,-0.022101558034237703
0.02858305053784163,-0.026435529391687272,0.02100549267564343,-0.012057537782747887
0.031640368434141475,-0.008633535729014857,-0.018591081664526974,0.024852086983626592
0.02856522572667801,0.010987327916228369,-0.011679456924268243,0.002875119371664521
-0.02446745533775888,0.023464622425686893,-0.019617214053164547,0.02633441082420191
-0.0026075191827599833,-0.017357232762734938,0.02722212568142235,0.009197769930140619
0.023756684657832892,-0.0014513618647626833,0.023818107554894705,0.021467340589802437
0.018197750053685582,-0.028773855261913162,4.4997698872884656E-4,-0.010516571295978439
-0.030493762734586195,0.003299573800380144,0.020216825593351626,-0.032783529807539506
0.023781065891560087,-0.014013247863100788,0.006545506891979545,0.009338558761686176
-0.004458847244065381,-0.034548017132833134,0.006404232862628749,0.02264907782000221
-0.003179216043665875,0.005328621037148297,-0.0011527296567975173,-0.014301706920051005
4.4421493957890607E-4,0.012456403905119248,0.013463298759476244,0.0161799636716349
0.019407489364823192,0.010757952067025234,-0.015208347447343784,-0.03255688819407865
0.014857580616356024,0.019422485133371768,-0.022246176720476234,0.019752009891455695
-0.022623231434208562,-0.010516255695937764,-0.018999584257617535,0.0019010947237415796
0.015642965365961964,0.03353603426895267,-0.032925959850615145,0.018211826557192605
0.009775628492037336,0.03555282638642321,0.021287421081342912,0.01813855441550466
-0.0025139018528159,0.027085606152413316,0.03564073503879607,0.02730975139138346
0.0161624826890955,0.028846355559066658,-0.00501848837983903,-0.011129538629803846
-0.02097142219215351,0.002860384657047514,-0.027128902183070076,0.0297205428661185
0.0082291026392433,0.021691688204190332,0.005066296402725282,3.931936404216532E-4
-0.03037691398837843,0.0057548033248778635,-0.01239445402645973,-0.005158401349877186
-0.015596419514339946,0.009149839254583375,-0.02417386721889086,0.027843200447138367
0.033748195630783406,0.03141367634896462,0.03394828018236844,-2.9713995720286046E-4
0.03476551937888782,0.02905800294601693,-0.005047282235898159,0.033777592370920026
0.012248366580682998,-0.020823792115425968,0.002408315902463952,0.0034714882915899206
0.02103829727554913,-0.03139038525811241,-0.005144977548087095,-0.002248051995963493
-0.033111549467363104,-0.0033807954040069865,-0.014648215784179026,-0.014104018821656808
-0.0045908860308479515,-0.0023684951443376165,0.034892798254665666,0.023383837263333568
0.02968567453126074,0.030366512580023597,0.02350541798796539,0.004827073909924116
-0.028854146363042343,8.512070582887624E-4,-0.02446038814390295,0.029401475737193303
0.01576447271051041,0.00215902238610767,-0.012422737948729126,-0.009689873783462977
0.01915361465860222,0.027001926801041132,-0.02007752648483045,0.019944844491144434
0.015114101565585736,-0.027650106240060666,0.033706433271655664,-0.03509741268469224
-0.01310121545629776,-0.021852831151967643,0.005713402807251466,-0.017146193888708763
0.020133002974578443,-9.570116556091232E-4,-0.0034191280283555267,0.02392275449042707
-0.03362111751097544,0.032387817267745006,0.010559333892399533,-0.027609467212680622
-0.018196962281137787,0.00826971839158231,0.02893190592312067,0.02863219258459762
-0.010908482637716321,-0.021741290382552545,0.03323444180119445,0.005811113570883042
0.009957021335837278,-0.033450348492912,-0.008601059035470322,-0.005514504167423249
0.027328259940067712,-0.023969536825505185,-0.026087882878645757,0.028322542683191967
0.0135576210178383,-0.021233265201577485,0.005912713808669069,0.017338687064776988
0.0026581731106265355,0.031757165295482226,0.008212728292796907,-0.025172321277583704
-0.03079999114200935,-4.389284124624235E-4,-0.025765489180689098,-0.013554485017340901
0.019668370732586586,9.344416928025387E-4,0.014787568762867513,0.019850041933474456
0.03082169791947703,-0.03004263241753896,-0.018030051567869156,0.03417711052650346
-0.03225210452362165,-0.027540309035650426,-0.03536263282455563,-0.019781573801100277
0.02692792708628916,-0.022237288505487784,0.0262200154904684,-0.03289683054043265
-0.026854566727671097,0.031129950940712137,-0.016670634585755875,0.021275337755684624
-0.013545219590321105,0.025402887794722155,-0.012790767508460126,-0.01349439676943556
0.02758008992902221,-0.03239961722249566,0.008866273613663982,-0.004952758861717737
-0.03349086470823316,0.007543571632110328,-0.0018792068231232584,-0.012639766717236503
-0.012333221988638024,-0.01672666161963493,0.03328881861943912,0.013499326162318054
-0.004096547047256857,-0.017462009704386088,-0.0018480770908102725,-0.018345309047361914
0.02251711437836467,0.015821204988757796,-0.024834698825557958,0.020764874197319677
0.015837178394487214,0.020094762031154317,0.02904467218790177,-0.01100060658832585
-0.0091919598351515,-0.01495823964412939,-9.739170430748748E-4,-0.01958688321979414
-0.009108963037169474,-0.003694028551360244,0.005952912922147287,-0.007356857566099433
-0.0019352843761239538,0.0017383588820760673,-0.03216977091054558,-0.013551652599037955
-0.006207049897354537,0.012396990204449405,0.012290357380554576,0.028984382019094007
-0.0057812006417613665,-0.035229213494394375,0.02647159406835569,-0.0022789089989518688
-0.018649198317758298,-0.02592545551790039,0.01990862951609334,0.032975317254519895
-0.0014399494052790979,-0.01580900478103039,-0.02159911312091916,-0.01846444012627725
0.03195856150965451,-0.02082401035896689,-0.03368995136143438,-0.01907528484839387
0.002258448421652702,0.009357489618494523,-0.005329098143575666,0.02357263100789605
0.03177108928426707,-0.020303338282815164,0.02174014337699058,-0.010032584319071731
0.02199068542863733,0.01706993747000049,0.010525052600478216,0.018347752021039485
-0.013645746653055336,-0.028326034616391736,-0.002621614834988746,0.005396757420452113
-0.01644530605636503,-0.005161238179493155,-0.027801270223329254,-0.033286673267278556
-0.026016645250094266,0.0021290851509046735,-0.01852889228941868,-0.008942505743146027
-0.0342256225677974,0.012685854766835161,-0.02653701417866445,0.005597346421508005
-0.0071810205992717015,0.013052398991497342,-0.018146835705776933,-0.008058497189910235
-0.03181319872623919,-0.010131440675392987,0.004027374309768628,-0.028576485653381854
-0.030371862400887673,-0.026427625141028404,-0.03398583526738049,-0.031799750447528405
0.02681036775034655,-0.004982220288379493,0.0074823762071971125,0.010507229951398217
-0.01618261428829151,0.025629919778936375,0.028788551555326197,-0.0024668808640279233
0.03325517021669577,0.018961038885755253,0.02968288582243636,0.014535560237525419
0.005064670967101545,0.03512171790876116,0.02858901618965823,0.018379872155474215
-0.0035501581518238776,0.00818971350362286,0.025109308830167064,0.018964628341390725
-0.004432355139349878,-0.009957997910075338,-0.024630677903971734,0.03179180745633302
0.01858391195630299,-0.02052243620549493,0.03411551151927904,0.017698104190318434
-0.03194252110967532,0.031453638031795655,0.004406374084888469,-0.02164383205290437
0.029643737216675903,0.0016315492523619676,-0.029328444531272962,0.02132489914622243
0.020341887288353865,0.026036437106953816,-0.023089882449001668,-0.02477015042236748
0.03226600947994637,-0.027185944412127183,0.013763197087421838,-0.003636835494001185
-0.010543641402757178,-0.028458520525061915,7.485342932374364E-4,-0.020444767410544303
-0.017624159049405442,-0.018945486032569594,-0.014757306383371662,-0.014885182610860994
-0.027127103838724693,-0.002856324006449522,-0.011728972560308963,-0.018222262160099756
-0.005966296538956202,0.016340871690094315,0.024922364715710375,0.035433329149587384
0.017073926432101087,0.021887671883042498,-0.003205414430034262,-0.024299165162191952
0.03312100742019035,0.009499912063829836,-0.019743698873559826,0.023908662318340344
0.002558339504788114,-0.01766854934875937,0.015198487775971208,0.007225842909995658
0.0244064150363148,-0.030549005068274078,-4.0606153558404856E-4,-0.006111353644324365
0.02858014045492932,-0.011090140970239661,-0.021636911126684276,-0.020970973338511188
-0.033370070386174046,0.022607714914484878,-0.0010939219192506525,0.0029474611509038226
0.018822819538653564,-0.013593128952661893,0.026842581003043653,-0.011132496166708312
0.023508895793856864,-0.01987133288451315,0.005275123990036108,0.005434478791791375
0.019660151588599004,-8.046768126384954E-4,-0.02435088788418984,0.01765558543316345
-0.010877924719890155,-0.016069616237392018,-0.010076824796584147,-0.03327606750833439
0.014017105677756617,-0.008434505644470038,-0.008728275697175738,0.015528188246745095
-0.02830913344107164,-0.03131376934169486,-0.006240937760806902,-0.016239740163388115
0.02698782386083945,-0.021788711301900486,0.026501571469884973,0.03163566914986948
-0.010242443178649044,-0.033598045141050685,-0.032981963904074436,0.029590680175786657
0.03363343814283484,0.018145544911003175,0.006570102413338767,-0.02085609430496977
-0.02399295854877799,0.005613968956657875,-0.0025302544576842265,0.023227323254130815
-0.028673733800731047,-0.015448738829215054,-0.01927574769116688,0.027129398744544578
0.029159305952331127,0.032035591202580246,0.007601207554881376,-0.012147263549492842
0.034911778622225303,0.0026974038677857123,0.020834369863139274,-0.01395632449935406
-0.01502348295716829,0.018575138332992465,0.0013662854616978276,0.010100525773043954
0.002487074959326041,0.02395266784614135,-0.02434817813962222,-0.00842852563875755
-0.028492917913851577,-0.012893948668731097,-0.03240653891994343,-0.018901796849908305
-0.02470648558234679,3.0744439875494967E-4,0.026442156665406488,-0.02534511895032661
0.03125182072320991,0.012430841124194583,0.013401575190852381,-0.02149950293892621
0.02620592598089285,0.031002689178982662,0.018022352555842724,0.03513275047071747
-0.002176695051040199,-0.007079133042576489,-0.007901890705291695,-6.209568088570983E-4
-0.010522570842196204,0.017140411391213528,-0.031287965121281305,0.00782093823605895
-0.034598853626728376,0.029396135466288734,-0.01294768545499134,-0.009313479183320643
-0.019863980704348073,-0.021208922005716883,-0.030608170134677218,-0.020208983668816658
-0.03508881875100545,-0.0249305732762292,0.020910274147632683,0.005761030215794917
0.027745464219952026,-0.007811916164896127,-0.014411457145225227,0.015172197013334936
0.006456488675563157,0.03411582164307232,-0.002689456122101641,-0.03376223302411583
-0.0038507812006659675,0.006928504334556641,0.024978372868009587,-0.027597400600418757
7.706658976929653E-4,-0.026193794520755535,0.005065030105741948,0.0022569581526581325
-0.029478944479889545,-0.012084312465620854,0.0095175105497921,-0.0076489174327637605
0.021524440065784606,-0.014075960052719851,0.0321516051692259,-0.03475092567828281
-4.808332774537197E-4,0.01782111991764939,0.02847631535524134,0.024812184538826117
0.01077067095533478,0.02268683211797408,-0.015518992788496316,0.014447642355115059
-0.016744920532139874,-0.010752509821349177,0.021562104243498526,-0.01994970410017445
0.025632262753186162,-0.0013657238131091418,-0.03300565128869422,-0.011968010650231245
-0.020780246142293766,0.029937825615274805,0.023981505719480656,0.012504815534218457
-0.011176269811147919,0.025540896772767607,-0.03251515332713633,0.009302234965165308
-0.012109313647328146,-0.0066595095673097,-0.016249238254578642,-0.005075535618574274
0.023404858583574842,0.01780766956287056,-0.03325165297230029,-0.006547188691575161
0.01837043101818829,-0.004234756254057399,-0.02447154415768648,-0.016719213526989858
0.023730792531641252,-0.003014923964476189,0.020274518618632657,-0.02465510092109105
0.01746353780509443,0.012787903211172805,0.007570354545345236,-0.026081877760443094
-0.018606356852925617,-0.006523839101515865,-0.021615758367734772,0.019763490102531936
-0.01006977968479909,-0.01754153280150127,-0.006853204173490619,-0.0030645508896968363
0.0018558268254978832,0.0321484441935487,0.0019030640935303461,0.012254131397191455
-0.022443136150807556,0.023294359435075233,0.031236353138191633,0.029360729400549623
-0.030974038799483603,-0.020595409470413675,0.009789737382401784,-0.02747881799450768
0.0041141188783844,-0.02941210888125074,0.00949037328396201,-0.005604830424848606
0.0042331127838336965,-0.0046858788779523125,0.027780330286827443,-0.03412819463335768
-0.011321260075724742,0.03266395535853844,2.9670315580171414E-4,-0.009521498969390814
0.02911888319759695,-0.010502067829284048,-0.019555292674552582,0.02888819024438935
-0.015248734796275754,-0.016324931061434216,0.03085257242617788,0.03513771943138132
0.019961687149400616,0.019673139329979057,-0.029841986854983165,0.030405519641116208
-0.004432260440351839,0.012258504579755844,-0.01138844129341907,0.03490155866062725
-0.006856331045422048,-7.112601123674331E-4,0.018967993738764184,-0.015389288831225485
-0.028575993856931745,-0.004746736390919413,-0.010511441359187183,-0.015437758077508745
0.03362013600425118,-0.011834084193142785,0.0015024239788341415,-0.03003455202564746
0.02619830220051477,-0.009190731372079264,0.034859153580239305,0.033973377674129834
0.0016480966352193788,-5.074493718577391E-4,-0.03196628955311544,0.026977458329497092
-0.020645326262828854,-0.03347729040699964,0.011615964397051662,-0.033939583577008846
-0.031328490331507836,-0.016333711454605087,-0.034670826254481535,0.021460807769240933
0.013722271560705816,0.0023227602536676564,0.005094226053360448,-0.03118578500236875
-0.0094922449417115,0.014600243357546797,-0.03415778829695862,0.030321302505719377
0.018704796380266536,-0.012807107167347596,-0.006370803308977491,-0.002166441012309575
0.033820421635866696,-9.778032965456207E-4,-0.018716803902484216,-0.0017169138226282646
0.023605319593404436,-0.007189023066583214,0.028865897089695405,7.98008444597896E-4
0.02158401358994589,0.0248583211801316,-0.03354319938927167,3.161150477063307E-4
0.020882663564576305,-0.0014879228350661716,-0.012503255974128824,0.011469905123185575
-0.022044194867458716,-0.003530074075363876,0.009884971863134494,0.024770974556700256
-0.03213149447370051,0.008298061254216393,0.001898384166069314,-0.019685146115982235
0.0046210048834369605,0.025110011805559038,0.024293543122926545,0.004347496720807829
-0.014794391638307314,0.027543383167734442,0.02596449884451653,-0.011495504484125587
-0.03173196973384106,0.02676641303924234,-0.02987557447200576,0.009118759189452874
0.01912783082850035,0.022863830082928027,0.006108044907860717,0.02617252962190489
-0.007516550419094086,0.01429830453321626,-0.006206343822608873,-0.016995194493363997
-0.012330364567737489,0.00969883731840989,0.031335630536997436,0.009204173315083226
0.027511650575434365,0.0034493933002932645,0.026797628004736257,-0.014527523363303166
-0.025562924530284574,-0.014696935251047996,-0.026171957515033366,-0.00807342732602058
-0.0034118905100014515,-0.004176722061398033,0.029556232390449452,0.02788293831810343
-0.011765655738333651,0.008853810744009032,0.024300265139042272,0.011942929237272332
0.007998374799494015,0.025769472178862413,0.013620993904729213,-0.02902456232841542
0.012890845092310574,-0.03536096901133651,-0.01675896878505322,0.014249727188528578
-0.016242236625012386,0.03453526762602564,0.03199345292510014,0.033654462446301506
0.024389865557490176,0.01657734575730762,-0.012471107574518907,-0.025379782738462357
-0.007554425502769357,-0.027795540790738378,0.020713264855467026,-0.029575541985138277
0.03412896277313793,-0.033240701377099106,0.005737600774542516,0.030987182999607205
0.031489586439043496,-0.03368269860316439,0.02524822899289665,-0.011968254272528914
0.02662353390901425,0.03146742369853041,0.01624434683263988,-0.0031839029884265305
0.02584853417914492,-0.010261152435961152,-8.754428663369715E-4,-0.00882052993052809
-0.031762208467474976,3.674261936937387E-4,0.0268679059483853,-0.01866260242305542
-0.0063899100052308075,0.0277038780023858,0.028340096127956224,-0.02799577704805743
0.028544372979427524,0.028073217214480237,-0.014611340768415082,0.032717234504068535
0.024701236726770062,0.02749612511890183,-0.024477292335635628,-0.02676859873766783
-0.03275400521856617,0.00351714524662404,-0.007960766554102723,0.03229573866151407
-0.024613587213947685,0.01698915410522682,0.01009697604087452,-0.00852874211584264
-0.02309044090031673,-0.010095933283995866,0.002489517635113271,-0.032812973347920195
0.025483118056524888,-0.019252687520760994,0.021649865583649945,-0.03389866438488748
0.02384605348904819,0.002902467932320907,-0.014759135370665744,0.007292058128854008
-0.007194349213310247,0.02468571627326261,-0.00487176834613668,0.003556340338969406
0.02502208164470414,0.007355411555896203,-0.02846572492274933,-0.02136202215040626
0.009116524176452284,-0.009645620949865312,0.0028766684756028546,-0.0011187827265505684
0.012710083334598603,-0.014777610792900908,0.028525831679351465,-0.001468183388561188
0.019182021778036074,0.001942112634657503,-0.032117658924177894,0.001465887096714559
-0.013689985736345871,0.022438028570968896,0.006478120182992583,-0.0031989619747102085
-0.02349681368618248,-0.02850332397138052,-0.024626193381373555,-0.006129278113238632
-0.0040832272964006905,-0.020950637448897212,-0.032920206911756456,0.0054509351253907365
0.0023691607304313425,-0.01259344946721181,-0.026163913354865308,-0.024049567640027462
-0.018841559415486556,-0.03297181210126578,0.0040958921013592095,-0.0030353971363496976
-0.024644389786232106,0.017096289022922692,0.021319263718320422,-0.025937745882168413
-0.03310969737819925,0.0033902119759052704,-0.015679753634618668,0.034999793389637365
0.009026970763433166,-0.001205284814571557,-0.029206459128386018,-0.029363851547505496
-0.031302978273889,-0.025594500547280248,-0.03277821388168544,0.031172153401557295
0.020933727487103412,-0.03150660152460265,0.013154112301507495,0.012305151127158215
0.02619012789068738,0.03259066354506503,0.020793543467100724,0.007135759092266283
-0.002999139841792897,0.03262671621204047,-0.002249219977788354,0.0187369410681242
-0.03029398108170034,0.02486735323072147,-0.010501788326384091,-6.777689258939956E-4
0.011399205207751867,-0.0153837290982788,-0.014058338575917942,0.017500859569753252
-9.650055385993644E-4,0.01481412935295412,-7.697274342421886E-4,-0.0038054825004966153
-0.011425559935843075,-0.021898958131584337,-0.015443531848225445,-0.021693724498842874
0.019752111387118958,-0.017899021880239126,0.0032826816392109784,-0.022216853119444307
0.009929814817713704,0.009938700779280711,0.012981128916332074,0.01713203570866753
0.030483243958931983,0.02219651634431484,0.0069343200612595884,0.032142301074641666
0.019198895901035233,-0.024674450038389653,-0.027397836642004895,0.012446992241862395
-0.001964635389760938,-0.032373996970459014,0.03000882424184108,-0.01112333755298639
-0.021685129888091126,0.009702266626606698,0.007736825692009515,-0.019993397170886742
0.021836149318385845,0.005402271549974455,0.025594933864346074,0.03044499072343758
-0.0012681816582414407,0.03353683590493349,-0.02021530905645077,0.008268098759659219
-0.03223008560661387,-0.033449607932427274,-0.002880830622068113,-0.01814108495155772
-0.020700114170881665,0.03521195724516704,0.03391065757044655,-3.333187057249845E-4
-0.014077754541722245,0.03528572226594061,-0.00236896158926566,0.029111334170916423
-0.01639185478800834,-0.012914737888970598,0.02710323575830964,0.012811213007774054
0.0013593831117373126,0.008473579876840706,-0.034123930973706224,0.011091855443124923
-0.011222405940497893,-0.006388410842232302,0.03274448791292346,-0.0012886506576174697
-0.004409189762100821,0.013957169810674283,0.0178916491158376,-0.01935502500957443
0.005980781955816826,-0.0192096079095098,-0.017946132162824296,0.022687708607097533
-8.691529578822785E-4,-0.03242514381456244,0.031042568842838222,-0.03215083640130865
0.010227230432534193,-0.0012585339670148146,0.02787645877352596,0.002435714846163249
-0.010437972755717038,-0.02075779979670677,-0.00816750090829605,0.002644625404023937
-0.009271867656509582,-0.026045341430445595,-0.009721486980629825,0.002474673637405514
0.013986495713223086,0.014574683511486927,-0.004929691227521276,0.022470323668548065
-0.01172864609417252,0.01720247995949791,0.03490365317737998,-0.0131178782901143
0.018885907901851004,0.003887066884114887,0.03486609892947845,-8.447879155075791E-4
-0.010941590704965507,0.020971226896033666,0.022890356172928422,0.03542411044019944
-0.0057273460622758975,0.012011865843371106,-0.023713258821424783,0.008371149025188228
-0.020932534575101174,0.010329446169519092,-0.03386845854128138,-0.03338634468421372
-0.0016908281338384734,-0.023521159818706037,0.004888926118401672,0.02916909742543415
-0.008811675374581933,-0.025605563860220042,-0.002280501824613826,-0.024118148894195397
0.01993007535565295,-0.026510389576610532,0.005520598217497723,-0.029799350024177645
-0.03018701922654872,-0.033426575382821073,-0.0191459624618867,0.00978906519850406
0.028994276976860398,-0.023604925515969044,0.02822909895300596,-0.015997283297714795
0.030836075363291568,-4.647299047862152E-5,-0.023836065015483965,-0.002983286959270283
0.013378770900394528,0.02311153171683776,-0.010992898185358368,0.03438343744787506
-0.016020296377869725,-0.01000816714521172,0.03166904173813101,-0.010364106912435642
5.380247370060723E-4,0.02204872494216676,0.03245904616296978,-0.019759713953792557
0.00890412952755356,0.013126133023340883,0.022146578638887186,-0.008760000838689108
-9.378562495157908E-4,-0.0025791156484892483,-0.004154463395743532,-0.02038013297572612
-0.015243310510470207,-0.005276843484955621,0.010733709252879718,0.016544501537136956
0.024221471787967137,0.0031745875098592308,-0.001237109556955003,0.001503242903011258
-0.01135264182751812,0.03321706628174967,0.028186471655186576,0.016989413218637825
0.019149174855442944,0.02971159288158748,0.03220960492344349,-0.03500609488494273
-0.03252825797945628,-0.030185100382959296,0.023057283359026556,0.002333048831143235
0.025547116989838636,-0.01616934647725904,-0.018548564960884986,0.020245176878399614
0.034106383334297136,0.017951458220916476,-0.01844929701526904,-0.030235276006942678
-8.247810094527547E-4,0.015738137668776735,0.007708501770090033,0.014245459133842363
-0.004255713287508227,-0.015547003532161652,-0.02734343791051016,0.012879853194107851
0.0036680375676555396,-0.031072982902531788,-4.0937349075919477E-4,-0.010641485041593353
-0.017081916622218973,0.0056448461238755784,-0.03441737666129069,-0.024143830868196985
0.01549214716630009,-6.880329864480256E-5,-0.03186190730563241,0.014306067431766656
6.551835231731334E-4,0.025003205011912832,-0.030528244318479794,0.021659808071860978
0.03147486330947612,0.006514931023803759,0.03342715255823758,-0.02475762821980368
0.0318572769137422,0.005722422385072902,-0.02019744702771086,-0.031000108896603103
0.03483165222836514,0.01778476071797351,-0.03543532522752832,-0.027616587872585467
0.0217541952171579,-0.01993469006910848,-0.03436151079974033,-0.01673639474156359
0.007984882685906483,0.031219470800336102,-0.0349120122464698,0.02202926027568977
0.0032727980945603113,0.034117363390694544,-0.026658421503756143,0.0015631802495141497
-0.01601567023437121,-0.014292658396977756,-0.022436516825627147,-0.0168074332901114
0.020016966498641618,0.018112021485795375,-0.02974718712681294,-0.03159125161014496
0.016765378753566033,-0.009461810333491812,0.01948540970339989,0.014565049787925305
-0.006390799714082598,-0.024973849892628002,-0.0021870090301674625,-0.01676876319088988
0.002566077061467824,0.03295014659960166,0.019528294706245973,-0.012001275447490523
0.012909587363335015,0.01569163090111849,0.010448137007024308,-0.03485873482967408
-0.005909661265118073,-0.029704842647812747,0.028044850860071982,-0.0018414947545393953
-0.004223581457105462,0.02940546041570105,0.025324888471221045,0.02278624591484834
-0.013629748767054368,0.01709417014639887,0.007009016609392502,0.0058848198000627724
-0.012208358282250007,0.02452278466589268,-0.007804817244448512,-0.0010263002352593892
0.025536066474709844,0.03293005615209524,-0.02073997752843367,-0.022082311897963357
-0.026723727439735882,-0.00550714515019108,0.01764580097241393,0.012175818549561221
0.012261105097755652,-0.0011490893912173214,-0.029749935351104737,-0.02240756587934731
0.0025487257540738537,-0.01183389857600695,0.02050668772830473,0.028510794350008015
-0.02216589842828333,0.02424302716547895,-0.003000665461732291,-0.033436193516813574
-0.006495317712721587,0.0221065780469313,0.03081896223692822,-0.0016330744731721247
-0.013639487976062861,-0.02964548771791626,0.0024342681060152763,0.008409515326989268
0.009112814109871407,-0.008943926759652499,-0.031458707972446126,0.009525029705360961
0.035152149401565344,0.010086132545822912,-0.02970194793804888,0.025033230444761342
0.03304419376723733,0.025697443843976438,-0.014050362019799176,0.026471126191951452
-0.0058496992625999035,0.018861797690337183,0.021352656152448884,0.01114538836051842
-0.01357699215918385,0.018748360840381784,0.01912820333784794,0.0077626295408114235
-0.03261196742178271,-0.016366614931186938,0.0016450936246531697,-0.018481697536971264
-0.025479773095984464,-0.02374835279004356,-0.005691863026982158,0.0257734993003835
-0.01492990103248364,0.008025774812313091,0.008699895164791797,0.029207158272729072
-0.013957034690823083,-0.011658896652462138,-0.022653029318203177,-0.025740180698449598
0.017845573500443017,-0.02443242696006226,-0.030731202550725454,0.0239772316896475
0.0052371511962191405,-0.026969978543714322,-0.0168329635473154,0.0019860902924212567
0.008203800714143193,0.019098036200698602,-0.02665219905418305,0.02328158679797354
-0.010061232301049088,0.02432468594193546,0.00914646560490922,0.026977829817651636
-0.009219703762912548,0.021559950782651723,-0.01875563624792754,0.03509597543330595
0.009103601327043971,0.019937119450673002,0.022451545753580764,0.034184601413043775
-0.016031348818601313,0.014669755580312374,-0.003801519357130516,0.007960754396709971
-0.01379847116556229,0.01158807807900513,-0.0344384826646052,0.027007098781419325
0.03413160039810789,0.03208982353673444,-0.0032679196531399182,0.01947241894444992
-0.00982478687988924,-0.0028003146617220018,-0.02038615919288527,0.020673178585852547
0.023382608042248863,-0.018202975159235246,-0.0012689876992257876,0.022088609275373247
-0.027672642659433,-0.031606860645947914,0.030700754540082004,-0.01989794236063055
0.019485332919889783,-0.015566038437624132,0.008805772027833135,0.032937058054228696
0.0305595062398029,-0.02837147753718643,-0.014652350355615396,-0.005354184231814399
-0.026048313549797718,0.014848804247238945,-0.005717309216645063,-0.03446181315233034
0.01576444399501639,-0.031376153542370805,0.016464394613306406,-0.023390780133104326
-0.00690145581323268,0.008073585514521545,0.016756462392025467,0.021863428696546436
-0.001845067124794493,-0.027195013979453064,0.015725114582232247,0.00375338359328075
-0.013208726603981685,-0.03421813069747596,-0.012600860526341105,-0.012087573139580657
0.02640964782912099,-0.016192426813060948,0.0094425519344776,-0.0159260460631427
0.02774722041742478,0.016644252832344747,-8.286238850475011E-4,-0.013001580406971396
-0.008397403771852534,0.013625999636245952,-0.005513591185611812,0.007201207745776685
-0.028828205345773943,0.0010113402105569116,-0.018754871006608838,-0.009617482964596889
0.007457945947434853,-0.004245323638543144,0.031066072675663567,0.0061584850924388465
0.008372035040325257,0.013644916318206489,0.011097336920999873,-0.017390326707095734
0.01869269909240167,-0.0338251792630349,8.069595363075638E-5,-0.012870096881521034
-0.017606249461291523,-0.03222962513128307,3.057146318126494E-4,-0.018018698320707405
-0.010275462565489009,-0.021989718074799068,-0.01660103500065876,-0.028549199633012577
0.03268873919980371,0.023269461633167864,0.02003954427050085,0.029956336165052472
-0.012911161399146647,-0.023874910479651748,-0.022381591913699317,0.010381568344848963
-0.001025955215865057,0.020351457051732233,0.034717263977090254,-0.02587502308955994
-0.010511939531588781,0.02873105227734539,-0.026511342435661382,0.03146869844526827
-0.031970481814486584,0.01744266300522434,0.030843255795818647,-0.014947060382720992
0.021197839697504293,0.005064363064208044,0.002871722238546412,0.018609114262627346
0.026179277669659988,0.012070748989498573,0.031922710070740656,-0.026439241028200944
0.03252744324899205,-0.0030064351737470046,0.013102417981539882,-0.0033472481691672745
-0.03484224350848115,0.01794788057434088,-0.03135742368269741,-3.367437662736075E-4
-0.0015939914785043849,0.012749466112222045,0.018836782032595825,0.020501307295384567
0.01411243202033323,-0.009310427690418843,-0.004308724790445827,-0.01999928132072434
-0.003683936733790076,-0.016892592335933255,0.02015969534625628,-0.024825269616218122
-0.021666498600887395,-0.006657715447029915,-0.027586744283947105,0.03155817577633177
0.03188343887976024,0.012844030781505873,0.015191803584971561,-0.0334842370351171
0.0017644525203428102,-0.02223050139400197,-0.017765654426983284,0.0354229117807945
0.024325923297839634,0.002000132771953003,-0.013785346221113937,-0.005704311628112586
-0.01647178987144049,0.00770600830743786,-0.009260285777171171,0.02827778245737965
0.004356263530939285,-0.0021154190968252704,0.008384897747241583,0.006483747535333553
-0.01522314060770177,-0.02410982278882837,0.00835163209222868,-0.021680140931386576
0.003163819346711956,-0.01582268216003803,0.010721170444805347,-0.02974610854628769
-0.008632116584069077,0.009652400874630526,0.005408088255412162,0.005685006174446908
-0.030787463856132687,-0.019253801547603706,0.029219496129467767,-0.013744316011682214
0.015002626366418907,-0.006554754240857694,-0.024123473360712504,0.024286830519571666
0.004181781820920251,-0.0198071770230511,-0.03242638933767417,0.02696658444483227
0.024062089259082306,-0.03027002695623339,0.017171750954779075,-0.027753632278264634
-0.012703207909635035,-0.0027656179790467098,0.017263417392888857,-0.005318188799930734
-0.03338886593308801,0.011272389802113224,0.008535113412636804,-0.03439489987304073
-0.006304955338139524,0.03160830590862784,-0.030171679616501024,-0.010558172919820759
0.01628620373126493,-0.00689401558344626,-0.03351108127840985,0.006925819445685703
-0.1660571599305094,0.29721755630557467,-0.49683138970667307,0.37784963258003934,-0.49465162506959315,-0.3459185997326323,-0.37031644293872423,0.33655670960810047,-0.03890955529272211,0.2736224947710464
-0.44823712684688677,-0.34866504810002397,-0.06327962202026183,-0.18218786739212822,-0.3981530010602905,-0.06084599188201678,-0.4191556590183638,0.4767363447081737,0.457495164699794,-0.3806678599556099
-0.4257372319024336,-0.007248268920067025,-0.1445344605681963,-0.3607090238451812,-0.2114595181986456,0.05047982045514976,0.23872545149498536,-0.26348682531105116,0.08703950228368662,0.49209626209073287
0.43298457413284375,-0.07044539106273118,0.24211964886302673,0.44946130926232186,-0.10192550081675333,0.3496362248475873,0.460543557189091,-0.2995169236341765,-0.2612745936430678,-0.15835773351244908