784-16-10
0.034333811806030484,0.014284387556148546,0.030308331425104695,-6.239968631483322E-4,-0.0060101346981610675,-0.012597901995561558,0.010022480810345402,0.030055858712152883,-0.02705435858158814,0.020547724492874384,0.003988156303614675,-0.005772654076418984,-0.020055733463883625,0.009637380728371961,-0.007307270623061673,-0.02944887478905803
-0.004194885196441768,-0.031167090605369062,4.498100831725055E-4,0.004172356424223277,0.02248181548709339,0.02488017751009343,-0.00775168953340627,7.045612697239509E-4,-0.023382329109908333,0.0013734025639842787,-0.02033044360260145,0.01395426626752979,-0.01918217638929781,-0.01646407460029289,-0.03432850522518111,0.03539011430129184
0.018381767052018272,0.028996547801446726,-0.005121910618930532,0.019002280412272553,0.015153247545678782,-0.014156847127911612,-0.008388400147102442,0.004163549476507329,0.02101787463509127,-0.019165583610853656,-0.014902902274552716,0.004167006379125197,-0.004366729425698566,0.03266196795652024,-0.009715917278900983,-0.013355236619081903
-0.025607295564229374,0.013918990011470442,-0.024526919590166014,0.0025716219378736846,0.01624873195483347,-0.028919449870696865,-0.025161332813531605,-0.019640707198057192,0.030892587392175236,-0.02510954042534852,0.005143790165571711,0.009335966547381988,0.008618590132329802,-0.013732476341164677,0.03177828590110218,-0.029621126189221667
-0.0020066575895965402,-0.027516224500711124,-0.009235950331907439,-0.015794674656463066,0.013303429463675187,-0.0012252195815441874,0.016371071808053354,0.020481260580467557,-0.01707689372400315,-0.022918962073102653,-0.020461313131190532,-0.034673089370598056,0.007890946411288936,-0.02576719207187476,-0.0064127226060493835,0.0031879231266225133
0.02508423997822639,0.006382395324607708,-0.02157279394686324,0.02197493437753678,0.002395498690829126,-0.012747334329034504,-0.019867761140826373,0.027157363487887276,-0.026004165163137367,0.03328875736424214,-0.015008873245636718,-0.008375159976444231,0.004827457864543708,-0.015217640730752848,-0.02220107422993803,0.007445313877247402
0.03504928828610662,-0.014888699661241279,-0.024151680142657617,-0.0332766202092203,-0.02285804707324169,-0.012972789552349175,-0.029813688350730505,0.024058014298029083,-0.020438659072648333,0.027071017693638205,-0.008032781735604233,0.013870608091486963,0.031115042248772637,0.01052277825840358,0.016578333605391855,0.006561901342532726
0.0025376754737484256,-0.009805540244841877,7.696245712596889E-4,0.025090575943224884,-0.01597921147933792,0.007691736544861751,0.0013526395870241334,-0.004279842684586747,0.03361369783220179,-0.012537427098306908,0.014795874520255256,0.024187475593306314,0.011054705232169441,-0.02089162392250102,0.0019085851571357254,0.030570118937681856
0.03558340810161359,0.009317395629514454,0.003456575434648508,0.03353069826535332,-0.018874938966108652,0.018930469797847238,0.030324873838537617,0.027064325522578203,0.0012568368237412808,0.012496822765015805,-0.0027137928437323683,0.01190969761075144,-0.027418146660535728,0.0354193228552873,-0.012312822007985804,-0.010772794886754786
0.03409591893027075,0.0319219321171437,0.008154588396855664,-0.00738435693258082,6.862794428466254E-4,-0.003831259781668324,0.0016069602226916682,0.03298070089655239,0.01402871796775089,-0.024865023344150812,0.0065106605912150575,-0.03197293228753985,0.004632337646302533,0.017342946036976954,-0.026726354640477137,0.011124456962807047
0.020264841830187973,0.033459002106954946,0.00298382861260775,-2.3840852305569843E-4,0.004962656220858272,-0.0011606195672383482,-0.011743590439777223,-0.03139684098551927,0.003345197461496731,0.012141184349782105,0.007164285258452474,-0.015399118626180444,-0.017011793478928543,0.0036728826861932226,0.015310583390900884,-0.027733485746510855
-0.01732236673432419,0.022034560461335867,0.004457883447139412,-0.010037333293491275,0.025148161646179785,0.028142661325255364,-0.017108348559311006,0.012086244235660196,0.021606439332315534,-0.025745217553938896,-0.03220682927795655,0.012286594680369523,-0.008055173655997512,-0.02522349136368393,-0.010685035112414372,0.03539523313347519
-0.004463001189378424,0.01666236642587221,-0.028346907619641225,0.03278843717118057,0.002094198891008092,-0.01355997503572444,-0.027095627074193246,-0.014071812315972734,0.015197927297361705,0.02999090707160007,0.01946778045283356,0.009773810228804934,-0.02618198335135246,0.0348396488685338,-0.0046411678668196,-0.00362847972807355
1.9711545434375477E-4,0.027849136305129085,-0.0022450477564684643,-0.002750619583594606,0.02036174409090085,-0.018869702454247128,0.006783426027600695,0.007271289031383112,0.027372119463553016,0.028918705473362658,0.031598932485615835,-0.020621164161249872,0.029570865162922552,0.01523657451334326,0.002574809499165151,0.0012870675113651128
-0.027189330260073502,-0.012225175068987935,0.024131669010195006,0.017091230955177804,0.02276911382504826,-0.010008822271234737,0.02692382575815952,-0.027469558546183437,-0.020417075741739454,0.023773301925654758,-0.0036485349791913965,-0.008994511538865949,-0.01199100208499277,0.018979615461591264,0.007332498208043679,-0.006861547945787621
-0.0020011202620723798,-0.008925005326154152,-0.01968742943365049,-0.011310277791738169,-0.02933483419787998,0.02139083332874172,-0.02026065184179469,-0.03510374360667474,0.008136830699121543,0.00937849864702913,-0.021816387638162467,0.013789951652545034,0.002567523045050084,0.02952060915321797,-0.03223879110637032,-0.019135584880261108
0.033487921288950714,-0.021755897725104285,-0.014444807512557823,0.005262233537158746,-0.01986983457260193,-0.016866976419292887,-0.012624455463454691,-0.01585286439977456,0.004443214952429664,0.030909561314344886,-0.008469820188911473,0.007895400187368166,-0.014443535914953388,0.03284253075015557,0.0071694913084340076,0.005031675604419139
-0.035536511803425215,0.018613055103930243,-0.027184427436524453,-0.020707490359374817,-0.02240353567926845,0.026112127836966356,0.022833935399471095,-0.02858204667631098,-0.02726837624770235,0.023494204935049542,0.019737478876875263,0.026954111029826283,0.0336776779883151,0.0318744112402741,-0.014928378856329843,-0.03151602356556267
-0.02741683422629261,0.029907334108081426,0.013584430161113902,-0.018448191493014496,0.010785137537835277,0.0353043768313675,-0.030677813311030484,-0.004179356371863917,0.02577454979175072,-0.00655891631879504,-0.02999489096236251,-0.00817695205716324,-0.01779801741257456,0.00335177973931141,0.0040295323356525775,-0.009708411742526846
0.008826233807229224,0.030989919349716205,-0.007513498081404724,0.012465120795740595,0.03549955528949249,-0.02234506104854278,0.004815072957104864,0.02502641735767748,-0.010926668863196685,0.03549910026233974,-0.027516043544881214,-0.014684420548538458,0.01823887126770754,-0.02479417564809256,0.0034779782440167925,0.0027641241664269067
0.034824969221415134,0.00756794338406145,0.031626757893470026,0.0235242050406926,0.025148718784403175,-0.02260237772213075,-0.024523006095433834,0.02246040767805496,-0.011675867606411497,0.028649984777080917,-0.026820711443272176,-0.018178988500382274,-0.016029952320001276,0.021544040116885113,-0.013618355332124774,-0.011414740843169884
-0.033066168696570954,-0.018214286659693782,-0.01835619388219138,-0.02399802819645223,-0.02665797002204401,-0.030346011524294517,0.02328186953423096,-0.03551827722679152,0.01674749444918691,-0.003295894660532303,-0.012037328116351213,0.0011399298169778513,-0.02881833970797514,-0.007636316847073998,-0.03446316158030612,-0.033268992485162484
0.03429768575843592,-0.015193073199428031,0.024967823620222318,0.017731685391839135,-0.011346799699700188,0.022971660220989336,0.024579102137267023,-0.028708179642643182,-0.031003208142033667,0.0038700007592740657,-0.026613721689005203,0.03346434186983008,-0.01911273177276678,0.017436565890799553,0.03213621435264645,0.002606600678548447
0.012557292590757045,-0.021734095556042506,-0.028913060809868885,0.030003722806084238,0.0010859988381083305,-0.02341311593384336,-0.033546237591518785,-0.012453084058619945,-0.008121564637622949,-0.028571405091919598,0.001685973104226697,0.027905454989001682,0.027797199254733146,-0.017911724728794178,-0.00683754148384989,-0.008740739786858662
0.029186829252500546,-0.014396225379236152,0.010496360213807399,-0.016160125183143057,-0.003143420029627808,0.0312872243164178,0.020446219419549612,-0.015377031515727318,0.032805890368346885,-0.018624966963586096,0.028790944094288867,0.0173172336111935,0.021867954372839303,-0.0037722132831157287,0.019375990478143305,-0.02438698830691554
-0.013123447858370933,3.5225630230602267E-4,-0.03452747629036291,-0.03437513253639073,-0.0031550581489316123,-0.005511733515550579,-0.026933846735634773,-0.017407251741807905,0.03265249270889939,-0.00884727545283857,0.014925854465330783,0.03185804045255622,0.016714310220816257,-0.0015523451763928137,-0.024319986224704698,0.00757108514010095
-0.006397121214473649,0.03141322813994779,-0.02959180845300845,0.02811663375217552,-0.008700920500192093,-0.03550420063315854,0.020397673430349483,-0.03166056152214154,0.011168250880973916,0.01755068897319912,0.012242007206660903,-0.010434723222563058,0.013376223833994332,0.009756730788989948,-0.027530944464361867,-1.5733988826368422E-4
0.03070027503573257,0.026672692840468797,0.034345027953397306,0.008800078971582463,-0.023020937747150288,-0.03310250022215181,0.01601308262064248,-0.016628299230531496,-0.011910986686617053,0.03229326343380011,4.2253478408070533E-4,0.02300328357847843,0.009091189786457975,0.03537297023231582,-0.004151823019909642,0.03368745604708827
-0.03409977440537539,-0.019976532982095046,-0.0038656866892259334,-0.025030623152096365,0.03300730194432683,0.023929234350902814,0.009956552483980918,-0.023478466501194083,-0.02772142961056718,-0.02761025599050087,0.011391129833679119,0.009817428142276478,0.03053228701087779,0.015175617766132521,0.018782722585075864,-0.022650503344467086
0.02997468545871955,0.020777960652396246,0.022093475249868814,0.021299021564075878,0.03225917285495733,-0.029175374332849335,0.010762422060370078,0.03288819939227289,-0.021211084261808955,0.003134093488542232,-0.021441100083849828,-0.006275125812478879,0.009928673915286457,-0.023214576479225,0.022441455415964838,-0.012940190522973332
0.01158488079492239,-0.02902242178600202,-0.0066634046766634,0.028818815901248823,0.025216259978635885,-4.743634116372922E-4,0.02867347930980621,0.03480035331148501,-0.03277624929593768,0.031928986954783065,0.017466749461735792,-0.008756557518031727,0.018440243697228312,-0.0037132340620467316,-0.01207754668490725,0.03247363838286685
-0.023319283609880812,-0.00749532844324689,-0.01941984431414975,0.01680368588971075,4.261812063585668E-4,0.015777826531052794,-0.004484952329528606,0.0038662474439541267,-0.027608247873407946,-0.015340414262559634,-0.03193879180801058,-0.014422050267247178,0.0025437972359917058,-0.0017379029642761515,0.028803646627317964,0.027463333523994007
-0.03439783810337183,-0.021980942592388433,0.02080066261062758,-0.03330136683340404,-0.031032731657171797,-0.007160727427258911,0.023785936065234846,-0.013044766160850436,-0.010312213300875752,0.03556935135415433,0.03372806469826942,-0.03309580926900262,-0.02249321461274923,0.025037175850888722,-0.007091852235022393,0.0285649006766234
-0.02948776571081696,-0.03082223041979889,-0.01843635355260662,-0.017390021600312434,-0.026554810950574242,-0.00605238611923288,0.0016357067277508255,-0.02825598182091592,0.005058534967370909,0.024119331722373134,-0.02513379959551096,-0.006492961708165053,-0.01623418097515582,-0.017340516433563602,0.01274959406995247,0.02074398132437478
-0.02617601910026319,-0.016897672935734454,-0.014164190255345384,-0.02898937820399303,0.027816594121844188,-0.015274410331603306,-0.00744037033502009,-0.033502801464587846,0.033323119081580824,0.030570111791624638,-0.01874938769943442,0.03053350177837348,-0.013748989954345845,-0.013174844725102934,-0.02420040403088431,0.028098166774927366
0.011562543057719761,0.03473891176011548,-0.009376386381456825,-0.01758282688893156,0.01821429142940037,-0.013368420467320521,0.018235569427201892,0.025075774532602818,-0.03007088551189312,-0.016402391313394365,0.0022286028934921723,-0.01590612629489474,-0.025401815513758308,0.01404989334803159,0.025777428303775836,-0.007029870621863013
-0.008355765099541008,-0.018848204600125294,0.006610337697808652,8.17443147603035E-4,-0.02271429208578448,-0.006179603492968817,0.026430144450312013,-0.019272783748789515,0.011517192912151315,0.004794592320776066,0.004703621445432286,-0.016745416901348533,0.01721851950851421,-0.020584016589311565,0.008754612165745294,0.0131302610234518
0.03237935732421303,-0.029104794083026304,-0.016521022243486408,-0.01031827984122248,0.027223958435502266,0.009918305280636239,0.02556322748831108,-0.03221055937734229,0.024741017379525686,0.0353698330897476,0.02237396658008469,-0.025249073978510013,0.008458175590573658,0.009635967868255373,0.0029556731451610765,0.010057397112191113
0.003539489914937806,-0.024342464652455216,-0.019773637669747046,-0.03438454643503327,-0.026777780322137637,0.005874350214048654,0.005195542186158746,0.018004694017315317,0.023161828867827194,-0.005024087438934247,-0.006302425420004754,0.016956703921423746,-0.016053733301579474,0.017259958740150426,-0.0032933732727687473,0.016836895802624846
0.017695882569375557,0.006694836212235884,0.0074591078758173696,-0.020686273845756345,0.029125461410586112,0.016742120878814708,-0.005300118899389694,0.006457264029891531,0.00731200734582349,-0.0034823268186650116,0.026280058511164432,0.022841783153757886,-0.021819527874762448,-0.006133401032081567,-0.006625649122292725,0.031112081032055844
0.03426870784481166,-0.030561296808470813,-0.0020759949269231123,-0.001874822556010694,0.0032848001775685684,-0.006326596122909547,-0.00959469677799319,-0.018025913609752253,-0.011803287369171276,0.011202821146357296,-0.022748808664538663,0.01585690949928234,0.02887844686406324,-0.018465833960525747,0.025280752989989407,0.021430757192179573
-0.02079512504181633,0.006027454269656847,0.021337018385587207,0.025566894308082497,-0.0027299522164195497,0.025989679264601433,-0.007508912515225816,-0.015618864359957192,0.024397448236462164,-0.03068035677186793,0.03425942643259258,-0.027122971490796677,-0.0026227938735494533,-0.005759569554766832,0.01327084289374042,0.018982486442743828
0.032118058476971065,0.009028625687577167,0.005190346690324095,-0.0317803273361492,0.0319397981261456,0.03466986847005528,0.0292375132479014,0.001724790079914329,0.002578574440915714,0.01788675090965538,0.034274074446955946,-0.0045806927941919005,-0.012324155266802757,0.01966266463330983,-9.642945493777422E-4,-0.018763821442810618
0.0298764180095744,-0.031516531337166635,-0.034909910201109014,0.024996145495427655,0.02537929861018242,0.0024866263815779277,-0.008420818501759304,0.006299286464187447,-0.02994265459584936,0.026809045310243432,0.015527469815764423,-0.030467076466428947,-0.029877462102667552,-0.008839028340891657,0.008668673533638434,0.011675291463247632
-0.030957761641839433,-0.00705968023685484,-0.013932510830135372,0.02789011731594762,-0.0292050890636049,-0.009286103286612817,-0.03217051138852398,0.0017175166852156434,-0.03468663797525023,0.009035661809587037,-0.02896934542119049,0.0273618973244992,0.01188243998125231,-0.00866353380029284,-0.006534247193266261,-0.022039152328835708
-0.017781733997225078,-0.008064882310749935,-0.0036893420358943274,9.334204014205469E-4,-0.030496932244009217,-0.02765311823019038,0.03448665160177518,0.0055823160435250485,0.024071147832026532,-0.026296142972681513,0.03450699350466033,0.03265733654631152,0.02184008022580842,-0.026144506250181686,-0.013250403926039447,-0.013216623284125952
-0.03357386445904845,-0.02352180064533578,0.02203414592413397,-0.02620683374818828,-0.019664268641089,-0.009118990282188193,8.354310886553099E-4,0.009286600258943921,-0.0030261704054854524,0.019452640782961286,-0.02257321304617805,0.024504880494140534,-0.0016425490254557348,-0.028066646280112056,0.029199748511796353,0.024043219709528427
0.023048328733117934,-0.024861021673237296,0.0072542097643375075,0.0018493688508568543,-0.00972095550100556,0.014002365632247889,-0.017719974981912648,-0.032891198185437696,0.013796270247820035,0.0016558772452328965,0.0038642648867312362,-0.03411295337778162,-0.008978433686228485,-0.027129345711532853,-0.025352394083988577,0.01745956296198086
0.027235389175729013,-0.007714358274616726,0.02770016058629715,0.033782861996675045,-0.007423140322659529,-0.023481304880201597,-0.029744846253968005,-0.016266869319528712,0.020406495078364298,-0.0017454537092585418,-0.021569397013112022,-0.010891810024584773,0.003842220385893644,-0.03137758574182006,0.0011151939264279834,0.01998053397286209
0.008601982290298037,-0.014489874198684829,-0.03329291852649146,0.013695383845589854,-0.007015609448672258,-0.012456847845311116,-0.02837739069744312,-0.010575771869907848,-0.024398620653411307,-0.03553057987099885,0.0023759042619388923,-0.0144801143362428,0.033319215545911024,0.0014114065857554065,0.030633092782704194,0.008463688373360208
-0.014774067482186262,-0.016878534129868117,-0.008064399288658146,-0.015236929676422307,-0.005671723485260086,0.02087205304684587,-0.02511264194559039,0.0021196301850215163,0.021101602152000846,-0.031770804871363134,7.84536320656129E-4,-0.007638535256279579,0.027087191593538326,-0.009325650179703698,-0.02510000602751169,-0.02519872940194052
-0.022285808086019453,0.0040784185356570885,0.006442565555237985,-0.014426677454451878,-0.012910842094031975,0.030936599972515258,-0.032333902929132456,0.023808966593405,-7.974092951006442E-4,-0.027691281177398386,0.011832585320232403,-0.015038058662333795,-0.0054886901941456935,0.018420375957706514,-0.016876102563265907,-0.016507755188033615
-0.007192083605903437,-0.009054638384764682,-0.018395563525382717,0.0034821113613473023,-0.011742028912131448,0.0012507060491016991,-0.031079896482750946,0.009722379698155155,0.03553153057574415,-0.003013876058669117,-0.01521741741365596,0.02815239063237515,0.024219795610120796,0.0034336691476721803,-0.03547607600264009,-0.010799813857566714
-0.028805882654227056,-0.015000488897138904,-0.03198708863141699,-0.013628133471496478,-0.009873516229578216,-0.03255224831856332,0.029224595262224873,-0.03541952932111493,-0.012870142196099506,-0.023382845010334517,-0.0032406424583005036,0.020933562435523627,0.027247533683595115,0.0325345570911703,0.0353243035172298,0.030948856983878295
-0.01082941938240908,-0.027217475386023593,-0.01744075676901811,0.021965906950387235,-0.027610302884578074,0.01948360019355056,-0.01852824183064541,0.008820994687615033,-0.02231196471876221,-0.026863533098790214,-0.00666644171343082,-0.017745295594735935,0.02679827339607263,-0.02931882181646715,-0.00977002462149689,-0.0338740658104329
0.0042271080818965245,0.008853919895036484,-0.02634403240951127,-0.0013842764846775935,0.0019567521348454325,0.03273007087833947,-0.019356159844692165,0.01750185054636892,0.02781012124008772,0.0031736361374901448,-0.015272884900113016,0.023800820350532013,0.023910011947521723,-0.029532843631124746,-0.028596183312339183,-0.03204450297477571
-0.017019078200701778,-0.01024318535707289,-0.030015726221135026,0.03067502991292645,0.009148498164431425,-0.014792494490226134,-0.022416693835061577,-0.017059512330445493,0.005045144105055917,0.0220451965213996,-0.0072842070637415615,0.0016925471579672252,0.019850929747790597,-0.0013161704021090875,-0.0045864734489182955,-0.03387751517148452
-0.033232358462018344,0.021913790078893013,-0.014984407371824191,-0.013435492285167827,-0.014618423138030474,-0.019031907022228813,-0.006721374807075558,-0.02991987156568381,0.007521089897474055,-0.012511149309884267,0.02609319485470142,0.00900878781091776,-0.002824355479640779,-0.023786749433079155,0.00347550634184797,0.028426524634325268
0.013217941661556383,-0.032231791972372636,0.005499553031344258,-0.027717499715174093,-0.012001437416207239,-0.0216429321965461,-0.03121233398889335,-0.012349247450639953,-0.008490598447743428,0.029670473334732342,4.610131940592718E-4,-0.003073382744815119,-0.020211295498943,-0.03466456133841233,-0.009391481625414089,0.015242859692027322
0.002853941363119783,0.012365178687803867,-0.013733983853311229,0.013186252284410796,0.012238792642108268,0.02702697445905844,0.009565851908124978,-0.012241519036353024,0.013809553202661855,-0.02146251554911097,-0.024416082280912535,0.00345914076447007,-0.013187405721758725,0.034867337275276286,0.031172545294251064,0.00272953167585447
-0.014631301100119658,0.01603307062065587,-0.014215257508544115,0.031047159662666468,-0.013196924154893177,-0.008765985990866303,0.021420608609256153,-8.354004292665529E-4,-0.014085353451290042,0.012612942264245967,0.0213381551097842,-0.023733962944940623,-0.0017549559244697116,0.01959604938452225,-8.246460866547095E-4,-0.023259286958761276
-0.024490813795168313,-0.0015795680385702546,-0.02253665097108965,-5.351529469014363E-4,-0.02861106603025882,0.003961330672143444,0.02720477305683172,0.0019874617554447097,-0.023216500482038636,-0.014142261534135114,-0.010204684100087243,0.0026821017321516302,-0.03511396050798516,0.023749732242169905,0.014812954391372556,-0.027317730684436596
-0.009294125938074532,0.023829123432388855,0.02762111221897999,0.02370174130393759,0.03501428956287979,0.013467857982948243,-0.034708046700790335,-0.01177892766051604,0.0021679080349806465,0.013113524414551464,-0.014108931772322482,0.02589904227804498,-0.027470525343829114,0.03325382867508897,0.0010458687475751113,-0.021181380477934053
-0.014407024405203472,-0.016035162264667724,0.0264380409903679,0.019168139766491052,-0.023526888650234945,-0.03195320852062483,-0.01653729204941082,-0.00995692098637612,-0.015130770200152022,-0.030228164676444978,-0.007470225937852959,-0.004702808916607095,0.0035349949550419063,0.02627462482253968,-0.03331919805124467,0.028092917259545908
-0.026738642533410732,0.03002406286756759,0.02575872313960665,-0.00818990793606994,-0.001345265834477076,0.018571454735719868,0.009947596136243936,-0.022186148859153043,-0.0045930972692618185,-0.02581590356315333,0.01679381631759038,-0.01902199787943819,0.0033078538954427403,-0.0022514141955267686,0.031445334376816444,-0.02587495415956876
-0.015207923050099777,0.02366188943246133,-0.011919330372009578,0.025820648113678443,-0.007611546284232218,-0.007700531192571199,0.015029264334076246,0.019730314355583638,0.007131823908459033,-8.722110000706634E-4,-0.0014199945959032512,-0.021995726672539018,0.018232081923773784,0.001370616914947484,-0.01094041215033235,-0.01308608323619739
0.02004857869601967,-0.024352981346867784,0.011407865847088472,0.01779071895814284,0.021481171862499863,0.016125544249052062,-0.02030888382940291,0.01772738578535938,-0.034785290906500566,0.031447415935839426,0.03558324546398975,-0.024808464208694796,-0.03368515672388717,0.0056439070894852145,0.02649751745334772,0.022823689841122444
0.030424465830173095,-0.018651310614229446,-0.006386654535362538,0.012808489074978377,-0.010738463606072557,-0.007658047978681429,-0.005032927566704964,0.027055679836710908,-0.03087869563887007,0.012906899059685159,-0.033261578992666206,0.027143604437268112,5.9140238233487685E-5,-0.021657252215803335,-5.363280634824302E-5,0.0026260966884320627
0.028040042794952202,-0.019187932279389062,0.030165962521612702,-0.03305129091827855,-0.00586169965807291,0.01605155694009657,0.02568957032754904,0.014053152287225035,0.03437741810364521,0.013080890034448761,0.033629444187509905,0.03270199934399204,0.013069306944982928,0.004408795372532616,0.00791858337695863,-0.017181865756329153
0.017497232186587053,-0.035305320549263636,0.02552748894884138,0.017035020729172144,0.027732944467210877,-0.025264702974795675,0.005022756987145348,0.014553838507778652,0.005582538075409052,0.03140323615095532,0.004160861136323628,-0.01472191024174159,0.028619151426569123,0.022590089631819688,0.01365273966412995,0.01024223432633005
-0.006251694885031238,-0.005335492759313467,-0.017346740715895384,-0.01975848268083449,-0.03138880062261248,0.027395867520499148,0.03479290560639567,-0.03346000384725429,-0.0020630148383968677,0.0030791311499509325,-0.003387698892905966,0.003876353523480154,0.029491597281231546,-0.005071117201788249,0.01732446134520476,-0.004521562868785425
-0.021426800727864292,0.03243259709077381,0.027366757652168158,-0.015464856305761839,-0.011554637866349343,0.010826303733254154,0.016493929509621155,-0.017228394913642323,0.00929793519873899,0.03294559485475583,-1.7827035564473015E-4,0.004341478457341008,0.00955207183344313,-0.01763805703224526,0.01890503896710309,0.008848026632892303
-0.029429911803765037,0.009478421448602711,0.022337080384733705,-0.0022492687460902716,0.007549080382425903,-0.013648114244330312,-0.0071915713382599035,-8.954943015777386E-4,-0.02332128252443731,-0.0035844046887339095,-0.025449650386847527,0.03065658043117593,0.030903334853847067,0.02950622025171888,0.026393235905254005,0.03459362741408456
0.01985104720917999,0.016352987824658785,-0.010195246706188377,0.028323166376148,-0.018216669896550155,-0.009040203754404945,0.00411706642806315,0.014863234384288798,0.015130818606356969,-0.02961930972191979,-0.03331426389697508,0.004300656816923508,-3.731524534528047E-4,0.017960305752318627,-0.031505784008232174,-0.023271663807384466
0.017211029261466775,0.03484136874593145,-0.025467836951326324,0.013347353589073283,0.004317512752510001,0.0058393488545293235,-0.01030812634621197,0.01434253147861543,-0.025498426715421095,-0.019035289125077792,-0.018657885027154566,0.017533878766646492,-0.018506592405357528,0.02963852826622239,-0.009606006769352575,-0.008507308010297317
-0.02935846798619185,-0.0012612824752604723,0.023469042929611994,-2.0767550415608932E-4,-0.00280963375719772,0.026010230729876536,-0.017892393504657662,0.032174645090491186,0.013975854449403517,-0.00988117397030952,-0.03174943480646615,0.033127597409769005,0.014863992222915318,-0.006763642843545359,-0.012943469162678863,-0.01935823334142274
-0.0263651367890033,-0.020467959452017855,-0.008471041837344435,-0.033495585562288877,-5.544632922726139E-4,-0.02277906042196287,-0.03031530160434946,0.014387454484943149,0.013218543252886357,-0.01217113860534818,9.617473976957641E-5,0.0033873975498835557,-0.03455770808334755,-0.009206052096173215,-0.014228924704048098,0.004999852207917155
-0.0017154662151524572,-0.01923707023772337,0.02924203393976088,0.024031024081648256,-2.941531178185658E-4,0.013743632170280178,0.014024916453209677,0.010902906736088819,-0.017306945997356025,0.0023047323001339284,0.033950319516655225,-0.03466971298579504,0.03348632873330763,0.033663747933347685,-0.024512720833840984,-0.02000309701103047
-0.017372493834153624,0.01442559464122077,-0.03233117270938308,-0.003442311772561331,0.027895415523255168,-0.02412276226036961,-0.030377303357232335,-0.016089817330225163,-0.033428097886966414,0.01584324451182873,-0.015457634351055505,-0.009438985202134622,-0.021076613998249172,0.022881751158522555,-0.02429898242144464,0.019690279130159263
0.03495017631814962,-0.030837666964159252,0.010337138992803217,-0.009736607945058498,-2.20586573156413E-4,0.016311621816788024,0.009387541581583433,0.003472717797912632,0.009946408840881792,-0.023768336526247973,-0.02531568220525051,0.024878683335362306,-0.035557146500376495,-0.02752415015187925,0.02952200385733343,0.03287998418378468
-0.016843047821341297,0.0335189757754715,-0.02072318542899277,-0.032262041399762756,0.010229749745082409,0.009151074390656391,0.0191598682715945,-0.022420725430193307,0.025436488523538518,0.03249312981647315,-0.007392484669462407,0.02101256034414835,0.018088662014341124,0.022739873987715806,-0.006651146838953792,-0.016321174555115406
-0.02789452718542907,0.021172785979841888,0.018089024672758178,-0.0035548884692527954,0.020982559138771624,-0.032085043562632865,0.026430963361935678,-0.010039594688568923,-0.004765467316073111,-0.012624463144784728,-4.526845010978109E-4,-0.011243965231601108,0.018326652677081022,0.0018012083668993983,-0.03481568165404487,0.03452792941761912
0.0016090107209617219,0.030402910755351703,-0.033087223634624095,-0.0166760400004195,0.023671655435370774,0.01583009231004713,0.012188809874204773,-0.027171928377515225,-0.03287678442941607,-0.018414741341655803,-0.022464293892960546,0.031095328415563797,0.015642281545634892,0.017284824778098416,-0.030643025611355137,-0.01258825067684699
-0.0336414093244783,-0.03460466470062762,0.029027857783514438,0.030104251227328002,0.022395139175325,-0.030444093686465445,0.002383155584547693,-0.03422305096616437,0.02150117566867922,-0.015460320689873606,0.03034564629490495,-0.005719067706805216,0.01304624605328926,0.007996645437225232,0.006231097673232433,0.008746261167417786
-0.03507815964557021,-0.008742077052777797,-0.011842030112913935,-0.030225232899823817,0.021405071130653763,0.03092634258126091,-0.017212420579600863,0.026332397856367526,0.01614896537795217,0.004753361297763638,-0.03519411887589202,0.026543419592709436,-6.198059814885928E-4,0.03423680289925379,0.03113495040660917,-0.009254230548841263
0.006332248155074605,-0.023744867078193073,-0.029993625381437492,0.0015693020436291644,0.03205487365555171,-0.01717986309123563,-0.025542129026479538,0.028903407225362915,-0.002230381377388277,0.018756041996349344,-0.016517516017742387,-0.01844384951839296,-0.012345010582413527,0.0012318078510996783,0.004773486799480926,-0.01573055341069404
-0.01853796521066936,0.018640656095940053,-0.00484151839215417,-0.024011994853092054,0.03462258987792846,0.008435740801201727,0.025738366299403626,-0.022798861694942288,-0.018784971538659084,0.0334320343334418,-0.011756863926050434,0.005373834395727473,0.010237615725154865,0.03285890347928483,-0.011910631598639056,-0.029311231570163503
0.0029908140899450666,-0.010649592572240598,0.011752683453524246,0.01963585384318131,0.01980485685481205,-0.005375854615771589,0.019540363890840566,0.032045625176102766,-0.031703804027058406,0.004579580486021716,-0.006878723437762167,-0.009544942770067882,0.02544228235559083,-0.020792527795394367,-0.01554964540109649,-0.02646914530657543
-0.028359674534700768,-0.006882312520969904,0.010814217855948542,0.029451814294112283,-0.03384598324920318,0.02538147024329547,0.010020160155251243,0.01984447861964131,-0.01264218151451994,-0.0023316930568454894,0.01868443666894421,-0.03245576015224266,-0.03561643365053258,-0.029419939286648898,-0.03296169649153619,-2.1016866397706446E-4
0.024380125633822927,0.02223717180883998,-0.024875046996644595,0.014994113202936588,0.027947316496072128,-0.024248270659558733,-0.02700520963724921,-0.014790911602739477,-0.028051542137940682,0.010537556591859981,-0.022644729605640568,-0.002682912006399703,0.009343932607140878,-0.009990980633709672,-0.008575112505169093,0.019284859922771173
0.023646908514342667,0.0029801280889336437,-0.008002125682328727,-0.012631469558190327,-0.026377666610019418,0.018886536662097733,-0.0018680074891822135,-0.03443671983139181,-0.031330171652156895,0.0030637294723072778,-0.012020278159013392,0.03449447017878693,0.0010480670473952056,-0.023922373903588454,0.018027085661296287,-0.010536970897017675
-0.020540872425118664,-0.02868216634329999,-0.018136309904729815,-0.009508750892138713,-0.03548028295757935,-7.867936213834872E-4,-0.01609468206633719,-0.018392040264687572,4.7023462651275827E-4,0.034769824848166875,0.016215909291935796,0.015636319166716373,-0.01937725102467933,-0.03274026055508717,0.02770895439777915,0.017670798896707425
-0.032269507203001015,-0.008674550874187639,-0.029643407889207447,0.0182004941845332,-0.0010745518610488364,-0.02450968557701729,0.028147246411568558,0.006331168712836857,-0.019841501215105178,-0.011962638395867167,0.01264115681718269,0.007420944982656781,-0.006405399714525702,0.02162524310392728,0.025852982526062607,-0.013878686547342239
0.003512827622538968,-0.0017744805612765063,0.0327511155688474,0.010868937201426107,-0.022914308894828775,0.020568698878537156,-0.02801304887207733,-0.008685268671268207,0.004078054876856349,0.01899787584222492,-0.003393299976020711,-0.007619999719824959,-0.029238298654585358,0.031962244027622655,-0.028849854562822748,0.006079118326746076
-0.01763568988160326,-0.025217233157697715,0.019827029830462264,-0.022116658452064016,0.022807244806719244,-0.0014426586044241976,-0.03338858294686359,-0.03505272194198761,-0.02147929720823994,0.001460347512567968,0.024682064419236455,-0.014717734536100788,0.029524413247844897,0.011232831476530855,0.010784084431110938,-0.0012258746195288467
-0.02184035443696926,0.0046168204376554126,-0.02591299536015057,0.02884672494497273,-0.025466470774715276,-0.00282428208997422,-0.02961425113308745,-0.030426571585071623,0.0244238686325352,-0.024518501455783014,-0.00403533553613334,-0.013687819605062521,-0.007834933178505945,-0.017549482278484747,0.0046565594553825765,0.020539780880808614
-0.026566681941720516,0.02041392356078859,-0.007669778951323893,-0.013922368260047096,-0.015559763536453417,0.014031587888620488,0.03152296785234267,-0.027003176646711258,0.029201015659009788,0.01652974855456328,0.012191776315293786,-0.016467269997814605,0.02290066155037887,0.01903593811895983,-0.025266357468967587,-0.030893703147609496
-0.006664927790660729,0.013549005609162793,-0.02057077373528806,-0.013859614473524635,0.02075457985346465,-0.01675376691033045,-0.006560891807164553,-0.01313723789201535,-0.013288267757456156,-0.006226918663393255,0.02122530308505169,0.011453619177936289,0.010893362253335426,-0.0025061972696654236,-0.012861840485103748,0.02463087304541217
0.0023266527716044455,0.01906894551916273,0.01934473757069688,-0.001832832912621929,0.01124683632343116,0.015999279637141206,-0.027579836056771515,-0.009755964604318317,-0.031026648798227394,0.0031054267061156465,-0.020188759582434275,0.00551884680902609,0.008717382037685927,-0.021647304906839342,0.013606148693155684,-0.03464578824335272
0.02003436105369083,0.005668338735468015,-0.01441310462742178,0.02106200521935675,0.006241928563767249,0.014797158926900554,0.012862291149676804,-0.005424162161272797,-0.005864188146785885,0.0014796268471848478,0.009131043480998816,-0.009213661751388418,-0.0036448923134748193,0.0329028425901574,0.019948516388078756,-0.03364599340153358
0.012888837528092334,0.026438747927675803,0.028066735481357435,-0.00578207817103861,0.008520929187581253,0.008692775139595064,8.951804975800212E-4,-0.03346237308928681,0.0059488837258189625,0.009747338314865801,0.027717462321384903,0.023619246732163868,0.02409101778506051,0.014912570383227117,0.026929158518472107,-0.02455522314774537
0.017844001879305356,-0.03260258895291666,-0.031770929874399334,-0.025443914503369573,0.008144462737258877,-0.008272214430644638,-0.006932645306926229,0.03553185500681676,-0.011784274191936863,0.017983003866395446,-0.001042425169447303,-0.007314259757436683,0.0022245360626341262,-0.03251047371607894,-0.012881205211148543,-0.007377175452051219
4.810388893182818E-4,0.014576476379842745,0.016721432512465814,0.02253733397018043,0.02729621308336705,-0.0020218023674307556,-0.020303697080840826,-0.01613905598963085,0.02253922758959065,3.070691182422841E-4,2.496510493109269E-4,-0.013697934245736967,0.031711073449807156,0.022039370321974804,-0.00885194528106056,0.021452183429463166
-0.004668850785030598,-0.03461219844478409,-0.006665955335390241,-0.026186057699450774,0.027973389772872878,0.01850187645174972,0.0347497230937429,0.011055965178897668,0.022542521508884937,-0.01687369888461976,-0.003418443607540851,-0.030635259387575664,-0.028985258524561786,-0.009357922085205885,0.023887016440124573,-0.001552035475942723
0.03325802234936279,-0.001832507826107388,0.001963601165181336,-0.03175063831084056,-0.01113843906082065,-0.02071307687619172,0.023835934311557026,0.008316926162168073,0.00789218567876205,-0.02087918308372328,-0.02881016849432584,0.025497404507114137,0.004889650742828544,-0.009352642602371588,-0.006509818084378401,-0.020997668560057213
0.007285990764825438,0.030307757770296637,-0.011919878494691553,-0.035314496173267436,9.071237554071285E-4,0.0025210256003107556,-0.023878810321390047,-0.01316574846881877,0.008734227787741508,-0.030833626781607535,0.001559029091205151,0.017684241723715695,0.017325177025739387,-0.015940611086177208,0.030045151786879457,-0.006677163530045074
0.014401692031912064,-0.006174882299438467,-0.020936500554641913,0.006126023720863079,0.004087007968125299,-0.03309996837262692,-0.01580260840114428,-0.02072566017637878,0.0031403422178163803,0.03395139762765299,-0.032949423735730836,-0.03403105475200003,0.027540103010378597,0.015256051082558071,0.0061404163634432435,0.017876606152126183
-0.020472354450517434,0.01687496047445601,-0.020003558842023792,0.020056048834219395,-0.017640267987638392,0.003614353577690091,-0.01011642773951233,0.01876771187705075,-0.02387087744941791,0.014811725759991401,0.03169159765364693,0.008674344308785144,0.004145671772388046,0.03284557900110899,-0.032865809799898796,0.024573312295106287
-0.006617632446692199,-0.025415728457107704,0.034134061247615866,0.0057983271702225295,0.01410152143565388,0.010081309203081264,-0.034535443677458366,-0.009720327000741269,0.007625681420661154,-0.0016843407824802953,0.024512794863979934,0.0015600886898215899,0.018839368568115952,0.03248864461595445,0.014665570719414794,0.03138373044203878
0.016514557099419465,0.02183583537807584,-0.026292270007438355,0.01176537833511549,-0.004421341715498371,-0.013323169005559757,0.031282330889014706,-0.02333832951896904,-0.026177602350346052,-0.0015051796164905346,-8.02015798644716E-4,2.491181119494909E-4,0.007342781190372925,-0.0017770057506177328,-0.026450273684776496,-0.023954461559315125
-0.00782563369698814,-0.014678541680468376,0.008948830757593992,-0.016867318686566973,-0.005342228989418583,-0.011222187539972426,0.013661082542446565,0.024007853511365924,-0.01600663999092123,-0.02629570586082993,0.0030966384385562387,0.003310197914205844,0.013468186720378555,-0.015908962828435347,-0.007689752613369467,-0.031224770766416013
-0.03316243047587222,0.013991454217891205,0.017417212258239965,0.03105134626092461,-0.0046235507733615976,-0.006747550478701705,-0.011197242171270494,0.0013846238819193515,0.02909346132673346,-0.034167405505034575,0.0024171031070185783,-0.027989054071470135,-0.01843137044976027,0.004726341224182126,0.02798660301805711,-0.034826995614433136
0.01943167656173142,0.03215796129755341,0.004585861007751137,0.012111752679971853,-0.03515852175913265,0.004714911600817828,6.529785325927878E-4,0.03183968601506744,-0.015978980076543848,-0.013093735926257781,-0.008505552005457027,-0.018660733405987538,-0.004708720682967429,-0.02228828823303776,0.022614443795681574,-0.029815417638803028
-0.02094514902472525,0.020566596346999116,-0.007565923053508575,-0.008691034796256394,-0.004853828099548676,0.004341250360415341,0.018638093610868434,0.008114853719214832,0.007714455994151569,0.032980797366628595,-0.0025802843975813866,0.00421654698251258,0.00961245207079127,0.03079046961756403,0.007919393635528196,0.0019448604783029594
0.007044769456699081,-0.03356652201652458,0.015284880338823352,0.008362644324997205,0.02900419029054943,-0.013626814341069961,-0.01771548560164017,0.022424702173804385,-0.01859573806927198,0.02939614365225425,-0.009076668792931484,0.009182388700621033,0.01697665978092621,-0.018657017483021954,0.012484736683441106,-0.018379984264900617
-0.02252479238961778,0.005321101721075305,-0.032988423090329504,0.03237492107929088,-1.4289750021338754E-4,0.002712883927972802,0.017494854917228915,-0.023478785823498848,-2.2837212649277905E-4,-0.0061883121229157,-0.01756962985734889,0.010514178706230108,0.034643053496939996,0.02555070799840531,-0.011876069304790356,0.03342746460962932
0.002132728333776965,-0.0334608681064292,-0.009584101454342527,0.005830292983116624,0.011796919475178566,-0.029348636503625274,-0.010919765262030215,-0.02259362889935773,0.01194666296144345,-0.013113146118036371,-0.010782079728877902,0.0045092306917237715,-0.02244486509664579,-0.002612041789529375,-0.0256431865673582,-0.02078872615606667
0.01281464518549813,-0.028805829643459933,-0.019000647028836304,-0.022430391649933837,0.023248701648155033,0.002719434503081264,-0.005354781395400368,-0.01884029259115061,0.009208360943793806,0.002864225494888191,0.007215632466031276,0.002122232491050209,-0.029341488208177023,-0.010740911823401669,0.03152907154449325,0.0010427490003023718
0.012084219010726371,-0.013062834282070144,0.02574859384606326,0.035668250920211794,-0.013206721583716368,0.032306451867316274,-0.010248927002918105,-0.02491561562205639,-0.010362321368107545,-0.0024860872572231366,-0.022436286709332953,-0.029252164375209243,0.014405127738284063,-0.02531192121841616,0.005311375697822772,-0.02803839497682108
-0.02088783712248838,0.01530835947952408,-0.009232986417807492,-0.030235165111217002,0.01206335813619848,0.015337837907473173,-0.025189697328023036,0.015511706898934857,-0.020329467523559457,-0.02798464919710427,0.0018021415323507886,-0.034313410685252115,-0.014968124278507244,-0.028250376037748093,-0.02146322341846152,0.022355570086939176
-0.02093250601306195,0.03450729314171433,0.03513675636311514,-0.02070750317613218,-0.01724271097798007,0.0310476636737458,0.021431591822361477,0.024630165728331536,-0.022055401672036505,0.03088008489218738,-0.015206690766769202,-0.035331133287515436,-0.011026577020865465,-0.025295457644409283,-0.026284130087004892,0.029412459495047477
-0.013212344070859534,-0.017151499882764,0.006287410848148399,-0.03504982780285289,0.019199858805166885,-0.030501183013059683,0.013390784594742862,-0.031638441084290606,-7.997529862918268E-4,-0.02136835812386844,-0.014289509440472414,-0.006640916942112867,0.004180454270309837,0.02531546324224547,0.02392592142193079,0.03292574071273874
0.013273701188580865,-0.003055476027912049,0.012006511064464716,-0.013953421480252533,0.008478883419507068,-0.02692365534527947,0.005335616308545461,-0.00916824194119438,0.0300700073895578,-0.014131185284743688,-0.0021430189820435125,0.011529012529278002,-0.03236321160050714,0.008249620772690917,0.008659455874664101,0.017222254508344886
-0.023978262616723804,-0.013879573543925255,0.02642085405019013,0.035469820792856016,-0.008116218079599207,0.004556052304349301,-0.025975688542258728,0.021562270999752664,0.03173614357062292,0.005038723872434689,0.029089921307961328,0.015761725875328883,-0.025100701631940375,-0.004547954319256045,-0.03460383657158761,-0.025086342574097458
0.012932002548346588,-0.008910927389021765,-0.029151892026289768,-0.013890217000055119,-0.014473066651063436,0.024753765681234774,-0.0266124086529931,0.023350580359202337,-0.011675424641220233,-0.0046852070460934,-0.03220662533220332,-0.03452857612918726,-0.010483954696661562,-0.017916898340510617,0.03267126629598403,-0.02983192355298257
0.014021775675777295,0.011977137529796872,-0.018233939862559174,0.0017942535799690545,-0.030693460243576963,0.014427239069825973,0.008614594707785417,-0.003978505255150526,-0.012652410200001796,0.032241503011002565,0.028993541771850817,-0.011488222752920194,0.017775608015379904,-0.028453437122516204,0.002287908633645211,-0.026689877118152634
0.01637218484704444,0.02183357601632014,-0.021568877195687824,0.01660829231211579,-0.024702951695950808,-0.0308682289024864,0.032993420941013,0.003336124580912689,-0.001043631849048092,-0.01888415321914373,-0.010236253353522698,0.03162460742200267,-0.03140011040115406,0.022428193601805813,-0.011648066582900383,0.018070542501847725
0.031246641618868823,0.02680967376694053,0.009676305303813637,-0.02571956092295715,-0.03423841100791411,0.023588537452270866,-0.030831307913233026,-0.035446497149165264,-0.00949203367174908,-0.019252712366113745,0.03499867938394606,-0.029529965326205252,-0.017260561106684183,0.03222118727813415,0.03315569768117323,1.3656492378869706E-4
0.02053619486376454,-0.0028439720516275843,0.023484626291514626,-3.447562151708203E-4,0.02969244487795278,-0.025895421769323752,-0.029137192914298653,0.034303049956918824,0.025013682406274315,-0.024499290746548844,0.011951995120074117,0.023478308047002433,-0.013865493955059465,-0.0234607849509142,-0.005119078619166637,0.003213659229574735
0.014087868491143518,0.028630996994138513,0.028728703192396704,-0.031193575075370395,-0.022286859502231336,-0.008499062049949054,8.760326315348302E-4,-0.02580481874933329,0.02089881500575501,-0.00458293440487495,-0.029823332834867988,-0.019938189006167253,-0.033948128073160555,0.016536488546083042,-0.03515140728435112,0.030855289806667463
0.006002962157486032,-0.004282917527789046,-0.02951311052813462,-0.025792007088804268,-0.028954010152315378,0.0130911627664334,0.020151130075643085,-2.5550985038123863E-4,0.023125952013631004,0.032054008626376584,0.009355731170316454,-0.013676391421637693,0.016790704165181684,-0.02761282928646596,0.014347633812555279,-0.0034409649542230802
-0.019541247486593485,0.03469242899850267,0.021551320551209285,-0.01823167605750291,-0.024551577987726732,0.01318018002698692,0.016995219041064435,-0.006099421316452296,0.027984337886202054,-0.03157655773864129,0.029462845742345034,0.0029425204274426756,0.03364892301840586,0.02790186033699718,0.013240069247924473,0.024455238679459597
0.017659762597388322,-0.004499286879004319,-0.010242647921799797,-0.017843231089325576,0.009260647764633652,0.015112519406364738,-0.021893454893502744,-0.013021256516700323,0.03394015298714105,0.00791618780890719,-0.029767994956977715,0.005084807443009334,0.023883014990803274,-0.020183560360566392,-0.02964959314312252,-0.015069709724259597
0.019692281857882035,-0.016979514805115028,0.02151945436232488,-0.009988121195957631,-0.017347411943216696,0.004988890654177909,0.01426133628612971,-0.02214065236795837,0.027461337631602134,-0.009960912365778223,0.02912421423259942,-0.0013817444803562728,0.027381697433596253,0.026964335167675366,0.016523012066713597,-0.031283922255109425
-0.004224120843203172,0.007177665637111717,0.0017876944075937776,0.026564991001032996,8.887119844024002E-4,-0.020508319588913027,-0.0019399559471996036,0.020029428817541925,-0.02678890789740558,0.006910155251454289,0.00948406109983884,0.020792649838597597,0.022744525205616754,-0.009157124514957253,-0.020057686689273213,7.206790079854197E-5
-0.005582385448769583,-0.03557019697359884,0.016130244904629693,-0.02864491848024712,0.006617410055355467,0.008779173264761568,0.006310781305344036,-0.020232542068585966,0.015140465682668428,-0.029358965912894018,-0.001199478339554312,0.027799140831784946,0.014065958489014117,-0.028826854433567004,-0.028458744398232726,-0.0239522241682048
-0.008010891874034101,-0.020574169521605533,-0.00491082955877932,-0.017537246589126546,0.020466949629775695,-0.005115025392903632,-0.03314306895996862,0.017306109664399244,-0.030210701209904312,0.018565293871576447,0.01873399779794975,0.028095168274313048,0.022858757964381984,-0.01694259661590117,0.012063367465093636,-0.029860456946448944
0.012555287521509535,0.0204600914686967,-0.02516316992422108,0.02314507448499465,0.025181010271386382,-0.02920788182837079,-0.008341135614393574,-0.029204650379652076,-0.027712058276308786,-0.00416749533420608,-0.035675806550159055,0.002128242681160533,0.0050971968367288095,0.02147550458165872,0.024260120686265194,0.0171068799349606
-0.029337601752650797,0.023625650321283304,-0.004689068051387326,-0.009813686524573404,0.010838582531006308,0.002897734691502153,0.0010343889976780901,-0.010437003384273849,-0.029196194821550392,0.02588253033593934,-0.025687047078553942,-0.022989727474230177,0.01592395401391508,0.009910297031387079,-0.0051576961188735115,-0.018617288495973914
0.006825301315784224,0.033808529507494425,0.031268870026153514,0.006021666337781721,-0.013602146358359601,-0.010166659626939387,-0.03553230427757064,0.02374338215122445,-0.025763531906211896,0.0054579978855617065,-0.017067166819347546,-0.030009618156110893,0.007695357913235702,-0.002892033431306791,-0.03404996928034675,-0.02361746950777234
-0.03491540278563799,-0.025076467064323447,-0.03068957276430977,0.008279241642482206,7.846427775076506E-4,-0.0036852692525128974,-0.0222178696782168,0.033183189145096104,-0.023375638553010867,4.931976835158697E-4,-0.005463269334813274,0.03535062099364837,-0.008822782613166102,-0.022483125350005538,0.01378974867148159,0.008209424177923322
-0.030606623425229143,0.03189298717323977,0.009425543562144131,-0.020325214205166427,-0.03276909103952633,-0.0012322038871205448,-0.03415813610355651,-0.009155789463787638,0.024373918608339526,-0.02083134554815694,-0.0345291926158991,-0.01835187018760366,0.015438916703076011,-0.019026980931650783,0.008157293267347578,-0.026422805862806847
-0.005339201950443247,-0.013923508369972516,0.03244177257938774,0.0060804220386009855,-0.012184393226815273,0.0337276639321368,-0.021176570288662315,0.03451712853850866,-0.025206905678989443,-0.027004404140494383,0.02495704052371349,-0.0349328139998318,0.03271186347814442,-0.017525097076959085,7.882773778100441E-4,-0.03452912869442099
0.026511383451841272,0.020766724913836257,-0.029254608039337864,0.02774217390687611,-0.03151758267473943,0.020447172855494043,-0.029907180968927367,0.025980444548128374,-0.011589521008556345,-0.01887784170526811,-0.010617516959366437,0.03216438256476854,0.007869939165154716,0.012401985331350958,-0.014309025593801775,-0.015478868664799368
-0.035228088035556965,-0.004948709211404119,-0.00781280929816508,0.010556299632290593,-0.016840767860309882,0.02075344379026866,-0.016702791563520683,-0.031674930899058644,0.026611204452761425,0.014094047180907274,-0.028253144811428613,4.7869359147491297E-4,-0.009517329123269119,-0.008466855299613163,0.023587777636245977,0.003363063075305227
-0.029413561525882932,-0.019456264412377147,-0.025862638955429045,0.015606187000980529,-0.02874944462840526,-0.02351060362745409,-0.021856783522854757,-0.017045378503806313,-0.001206407259355391,-0.007500294302685888,0.019908681931647805,-0.008332843464019413,-0.03019291954275626,0.01798689638450341,-0.007693354447176368,0.005421080941634127
-0.03217199845638913,0.003843164381410691,0.003246164528092177,-0.02881206890645636,0.022228893941112784,-0.026146189841294847,0.028414544710599884,0.006823469101559211,-0.029827996650774163,-0.022881686075120842,-0.015400895796925329,-0.01421355947142406,0.017947605775368143,0.02268827912115247,-0.032331011824503965,-0.019502067177272882
-0.017672053009773914,0.03236267549815025,-0.01643646329757481,0.01800485997662806,0.021967682479323417,-0.020969297393821522,0.027380131293788856,-0.030470814116271987,0.020973762535382044,0.009706573930019745,-0.029000252716786308,0.02812679618974112,-0.023180719657295464,-0.032064576537727645,0.017238339802840397,-0.008672490724659768
0.011761636527314198,-0.012304459314388505,0.02325171034011877,-0.012679564491094735,-0.007793860055602682,-0.019227631871959652,-0.011378711591523871,0.00333170334488294,-0.028131887133395355,0.03171074529111417,0.012819074435470777,-0.02074801346159174,0.0096602273605998,-0.010155567931545009,0.01451574577542493,0.02608701441556388
-0.033858760211199906,-0.02475917379912719,0.005854176121363568,-0.0272877489195259,-0.028922606068553156,-0.02131766534820043,-0.01139746639769347,-0.01363520370802708,0.00889944295346111,0.029215989059198907,0.026083118777152463,0.034795335404471994,0.026428375016444246,-0.024528112095203954,0.007465569055402535,-0.01602980624320054
0.008850170899906973,0.029477026117273902,0.0012271276765421085,0.019282105487673944,-0.023675159772107022,0.029521375349971776,-0.009615448278328536,6.198427163737544E-4,-0.034547170251475016,0.005015496082399082,-0.011566201533944505,6.878248778490401E-4,-0.007496675253190373,-0.023743441762143862,0.014692167245731212,0.011210276038451386
0.020793632465997525,-0.012326897360704143,0.015175257302016923,0.017775723967299872,0.005395931122215002,-0.03232195404306063,0.03434726863972301,-0.014898073266614114,-0.014147506405282353,-0.03388764046962152,0.006514192391990602,0.014383244773455602,0.035553224650633805,0.02660946849089048,-0.016510552891943087,0.023162404455970162
0.023858807147674688,-0.025149311646282042,0.0033779411266356488,-0.006197670823885115,0.023707436321715666,-0.01931444741638819,0.03551355276018446,-0.013519375091776933,0.022009799017717893,-0.006845403544079649,-0.01618145976121314,-0.01646984170982539,-0.03280823604851731,0.012087278243016482,-0.011654974751986805,0.03347323128543127
-0.008481153782817337,-0.030355841874833745,0.01802047853328699,0.013325932991507292,0.023618710130902963,-0.004364448705613581,0.011652237018491655,7.74703540229224E-4,0.023072004793649348,-0.014434006883246465,0.020909396785693805,-0.02247476026328267,0.02272582555313591,-0.03502587267661912,0.0034888768310295526,-0.014359718713387353
0.024974452364498148,0.0039542051440064965,0.03175513369087456,0.016172587636121144,0.0043652999125326705,-0.013077611520987496,-0.0058829482184608595,0.03249643984931999,-0.006120698624646908,0.010043190505653672,-0.008039279182332913,-0.005612074295234953,-0.018540059854054363,-0.03395908965754732,0.023579999200044784,1.6313324621385766E-4
-0.02471884612949307,0.028407333401475096,0.008902296012008183,0.021187784171236235,0.02224804331218551,0.008647677315579097,0.0339884477377112,-0.013205029730702391,0.010124228318335107,0.022087037593308365,-0.004220820265623891,0.03484467614174769,0.003344683184649158,0.026814731013238197,-0.01146087172747377,-0.009613375450610306
0.033116974319509315,0.015765534527109354,-0.011852968163771072,0.0206241628663131,0.026395891310703135,0.027565085594612224,0.010836009880678635,-0.03014431266172425,-0.011411160240641705,-4.260799459215453E-4,-0.021421760502211694,-0.025620514502868313,-0.009616956727968012,0.009906042440426185,0.0061032712363013955,-0.0034856582993106414
0.005717822090933473,0.03443827455514409,-0.02721119699512184,-0.02334489044148334,-0.029188651049012214,-0.03111270659655615,5.420806206674136E-4,-0.011764322110324368,-0.02063536052182425,-0.004356495206865887,5.73574407170381E-4,-0.013807865588891091,-0.03151202304474233,0.03335282247540308,-0.01663549508955732,0.019706146522952377
-0.028340147455844414,0.01028003290613063,-0.013826796527265664,-0.026981428368237435,-0.003309738327027849,0.0024325933792979856,-0.00993032051279433,0.009569659842599887,-0.024815891766499842,-0.01751235608250715,-0.017133930074525364,-0.005781109440455425,-0.008169248736118042,0.012212378073551196,-0.005918368033094382,0.017713787403586978
0.03362108746638491,0.005438385578369627,0.0016581321168418622,-0.001112820090524956,-0.006551339089572228,-0.0178272539054242,-0.02947590682547523,0.03063415228154205,0.0023647296695812545,0.016858043216808942,0.031346301003175495,0.020384059739238652,0.003201380126450916,-0.01835088729383328,-0.02180511618595267,-0.030065571319226547
-0.03313879949263094,-2.9787974025784203E-4,-0.033121066524153815,-0.027259860566358023,0.013688562193651638,0.018748329671254088,0.00969653246382976,-0.01229278447845162,0.009695090781971026,0.03293905794492373,0.019486465567703302,-0.03468222437546022,-0.002228626438506638,-0.019485185261062996,-0.013724331248300772,-0.0290625316979076
0.03286156300349852,0.0033851496425198815,0.016758125197399283,-0.026480405169220074,-0.026071563089940734,-0.031623852487728095,-0.026314309252188806,0.03355566158351404,0.003695412897029203,0.03251828745745282,-0.01693846671900113,-0.018165406003347522,-0.02836787973620367,-0.025458637802697102,0.01125832033463249,-0.002388787004480898
0.022054258931189646,0.01716320473356519,0.017287304465495076,-0.0069717615364806515,-0.028787482272044394,-0.01711551691214711,-4.861923627231257E-4,-0.003760183429106091,-0.03534688187924381,-0.024184161582824493,0.01111067735522437,0.019090602212142586,-0.031034585056844675,0.017489899960691224,0.02785197406231696,-0.016325766933824273
0.01779819728315956,0.02406027944818017,-0.032399694523497696,0.029452221164956147,-0.008035454895202108,-0.027521241234625633,-0.035453688948709504,0.02049282489253141,0.03312515278509165,0.020242169395439623,0.002920387285989,-0.009137818255867229,-0.0055406969578989315,-0.03456891165145559,-0.012823344500688314,-0.023545255938441232
-0.014946655489514887,0.030315141178004504,-0.02913553907496311,0.028591678851183883,-0.026747706224073797,0.024341108650088934,-0.0347569895337864,-0.034450333645964705,-0.025366299456198227,-0.024014845984507496,0.011711086768933579,0.01142907010208602,-0.03237996787986731,0.03028484804730086,-0.00745097674593586,-0.009708675366372994
-0.0013433093011339242,0.01994422675564804,0.035643368300080816,0.03443159205223184,-0.011483860307770759,0.015656661680440886,0.012809021060349167,0.008067933482940763,0.004281505364528315,-0.02351033216931952,0.004770208373832588,-0.03501334672420147,0.013112216603848488,-0.0010844860144540933,-0.023531681361408423,0.020002116616102225
-0.02539363960910796,0.020535569989225406,-0.01910853582874281,0.03160918145328946,-0.03536507798432393,-0.025666745740893088,-0.032891983827742416,0.02919864108596565,-0.016981481018687263,-0.022320729415587326,0.029390711149073698,0.006108686814825702,0.032050005640775175,-0.003815286121003937,0.005218732206154042,-0.013300712958377259
-0.0028855467070941707,0.02498960465453942,-0.008619649537689344,-0.02611785612403667,0.01409909467575516,0.03139348275109176,0.028446067605395586,0.03463796050846053,0.009433072399588745,-0.01628925190765712,0.03216793491573332,-0.018722446288378703,-0.01764554226397688,0.012874279658541293,-0.02234748274126324,0.01913176565845503
0.009119688114695781,0.002680501609098905,-4.417506073254446E-5,0.02967565409507185,-0.005229079922419506,0.0035545027542352933,0.030744602825687098,0.02843970899180573,-0.022601317359556,0.015389035933363979,-0.027160170118754705,0.003118321275650718,-0.00878361996256554,-0.018789627981566057,0.002964337635596122,0.016005898640958666
-0.00858730816874723,-0.008978845094264228,-0.028492627568970086,0.0014008366572059172,-0.006861045363072606,-0.02821474223969689,0.014805822314145282,-0.015130350135223316,-0.007132632480137988,0.006155260703135712,0.025419827017561868,0.010471672378856461,-0.00914586476257874,0.015962292912138014,0.0013905526860836376,0.004244344993069936
-0.006554069888029375,0.02495342996207585,-0.008975761191513214,-0.004673740189382061,0.025505224345915428,-0.021642324456909872,-0.02237824702155823,0.026679615587014413,0.003192993154715232,-0.026717087481852503,-0.020550313978290324,0.025343389352063088,-0.002055506904054802,-0.009301180385598056,0.0060379706742091505,0.013449129938205559
0.0037702699564306705,-0.0027830533597502233,0.022916371720279674,0.010689172544835923,0.00875279273538572,0.01373545791484173,-0.016847426621619293,0.02068146725827249,0.0017131654710070693,-0.02983136655113061,-0.017972930342468853,-0.02513396814517045,-0.01653575023351159,-0.011951059855785064,0.0340168443843082,-0.0019836915274989986
0.011362229051958182,0.02433076376976659,8.032585505327455E-4,0.027008301019757514,0.008884381982529388,-0.009884077754586645,-0.020465597485297762,0.004977687423924959,-0.016002252866473134,0.016603699647060828,0.016179760023753986,-0.03268568871578007,-0.005396379419286199,0.03483312909157561,0.023640371539340857,-0.030650369899382395
-0.016554468244870547,-0.03311591899568106,-0.027606470758107182,-0.016940447203370932,-0.006896488777488472,-0.015615928834139828,0.029764659209398053,0.03311059418395815,7.708877744045523E-4,0.025907014669662325,-8.129874350093352E-4,-0.004375962936686531,-0.03476026991449859,0.012526658728130767,0.03293330305630743,-0.009842302961738061
0.004201842942358071,-0.0067126084995753725,0.001321761192641338,0.021429535453441333,0.02542556930366558,-0.017569965181290535,-0.026999963663291698,0.02590784931947864,0.0027424622014889447,-0.006168267063821873,-0.004125656805750708,0.027113122772588885,0.0020919186866743683,-0.030519737895530925,0.014049287369121748,0.024859341308913332
0.030715447892373557,0.024990404597154542,-0.02112256360001208,-0.02138987144735295,0.0020719022939872447,-0.028959139280413215,-0.021641657291380192,-0.011160465457009699,0.01957193397706769,0.02879443096930856,-0.027740516113812064,0.019354722712843234,0.02096973097392807,-0.031695309769325934,-0.017188313691600843,-0.005898421763246373
0.02832537417263767,-0.017217610269859525,-0.012036784779516974,-0.025292050393180505,-0.006165512990926308,0.0029128965329373244,0.011410057792849447,-0.02940602072368047,0.026704757463665622,-0.007301721197776619,0.011278768481476638,0.003357938022874478,-0.018586865075948596,0.018631760716741594,0.035596642099118184,0.03172987574691166
-0.028406458504111963,0.003436128556023002,-0.01408112368227957,0.03000426387588892,-0.0016295368678637193,-0.011307599942956284,-0.010678580279108205,0.017513922185362005,0.008153804059523019,-0.014698721398966597,-0.028810696210926197,0.019574646869165588,0.028044478025059424,0.002476757898301263,0.01689454409197727,0.007580489663863432
-0.02021377269602727,-0.010197572209159757,0.011326400658881325,0.009074018804517407,0.004893453156732619,0.023546667218578288,0.006963747791962592,0.03249608531164379,-0.02501298319318701,0.02713401610524413,0.0021758576842109134,0.017372914689898544,-0.007070349948313386,-0.03392061625433748,0.01337854799736634,0.031750501883761745
-0.0029848445307189414,3.7612073023375603E-4,-5.145424670883192E-4,0.019806697347750243,-0.020263832857129425,0.011907208493322177,-0.025903573743785047,0.03412023639595116,-0.01845775828019132,0.03327520148323482,-0.007380692831981443,-0.018565189214438973,-0.0230603544704285,-0.027062157447523265,-0.02110729924662034,0.034643965281791186
0.020342107657120266,-0.0016008882901063642,-0.026117154561225396,-6.468764429224463E-4,-0.006534101876131595,0.01195610532918956,0.031325075438745006,-0.029063699848122633,0.005347183869033989,0.030205955149668645,-0.018337614688361346,-6.35439039253935E-4,0.01639853334671937,0.03247123311692911,-0.002148441061941238,-0.01721842540876559
0.0016652304166870982,0.024864249471722173,-0.019764035800333153,0.009751398703011421,0.016179108662341304,-5.081330245614996E-4,-6.359045247527478E-4,0.03300688459162336,-0.013728491208145677,-0.0038943732677511472,0.020841806750015235,-0.03554020284346146,-0.009639245013470812,-0.0315959948921346,0.029069046165585144,-0.01801961394126921
0.024673110085550773,0.0351570355604517,0.023627513754295552,0.018640942379759336,0.022611972911959308,-0.011817467978597656,0.034051741697681326,0.017662444573174285,0.020437186985999986,-0.023264665371076375,-0.017176365053952838,0.0013546845382696043,0.00788674327542694,-0.03008555104809921,-0.03226459961842253,0.011197808854422196
-0.00994069438848956,0.029539054810197488,-0.0339284253159677,-0.024843238809248498,-0.03519005546306924,-0.023486715017747482,6.777400662476146E-4,0.02887347159808716,-0.0025739715888165246,0.03326622237550034,0.013994658816059206,-0.02008626575763082,0.014139551071996763,0.007822819145195517,0.022185932228182215,-0.022067922146691097
0.019340040824851586,-0.03506966414523638,0.027365096028469815,0.027362773098250248,0.02699548286127769,0.030137089952246177,-0.015297692798790292,0.012888205008520177,0.015355804421659583,0.02799765957256034,-0.010293011587412686,-0.00334127599633581,0.029540481394946028,-0.022651100810749177,0.006179014821221303,-0.018220962415744914
0.002919186530614702,-0.032794793468298104,-0.03270037605222564,0.01858801099946867,0.005389284071667826,0.03569138875523531,-0.004181705246588584,0.015239213565177052,-9.740342271246441E-4,-0.00754178731040114,0.0054684354763737605,9.782778691784302E-4,0.03196256707937799,-0.035181783570431883,-0.02277310449963832,-0.004571453209936332
-0.019682256748676175,0.008421742129457718,-0.028872380597902352,-0.007360862106232633,-0.013222589915524718,-0.0200274980349248,0.025175862408238936,-0.003949061760659005,0.03278625385612427,-0.021497132979788454,-0.019986689475795166,-0.02220176018566334,0.004659249569684457,5.243505152785696E-4,0.030362720436888452,0.03377060547068998
0.02348155705314737,-0.01585518031078144,-0.03150207692682188,0.019713793854325527,0.009234776979439599,-0.0012202507449800004,-0.0064471023049526635,-0.030994422404006648,-0.02124678251884559,0.026885250785452397,-0.009093602533901839,-0.009595230201811942,-3.2024746761322165E-4,-0.0044500317655163935,-0.006515004592267629,-0.02873366965268501
-4.382694134601045E-4,0.018726712357488212,-0.0019092675415704058,0.03139359716402987,-0.027179344252546547,-0.021006098093145187,0.019832314490291755,-0.020888660069043868,0.0315112469189571,-0.009755153280740454,0.031289043239339925,0.005319666278562667,-0.008282991864357,-0.029444403297117193,0.026842817905803992,0.02147922712205374
0.026956327125411933,0.028574343559250023,-0.008082100505249483,0.027337270455610754,-0.021207048842868108,-0.0017637253741665249,-0.009261863049690709,0.008583059030357547,-0.005771983468646616,-0.0031723070463727243,0.03549315326746208,0.015043158010486467,0.014191915828620665,0.014511324255086652,-0.0112252337839551,-0.00868612044546693
0.008499754135773592,-0.002720299159644335,-0.03050300170662915,-0.009440311397673706,-0.020085905368105512,-0.0225297355282078,0.018843434418015732,-0.010770921617878706,0.008965864895777276,-0.023808294288580674,0.007204236165913862,0.01716145867234071,-0.01706963711794529,-0.028767205126748685,-0.00801353667978381,0.0173946916798653
0.0015945479848384347,-0.02151000754291341,0.026527275060762648,-0.014412894674018118,-0.0038217544210143797,-0.016395227015753005,-0.019792282039098375,-0.01645817874640863,-0.0190697886044678,0.017450729003044604,-0.023672176036619766,0.03159913936656275,0.013603145776209108,0.015111647720231505,0.006532717828230332,-0.031276882893918986
0.020064716340782884,-0.018863650297764423,0.017857386503843352,-0.026108675350914837,0.010270217201739082,-0.013364573760247769,0.0031255743867797947,-0.0012147615516913055,0.020667475553303533,-0.0011580783555182744,0.02595340961122196,0.012530090394227415,0.00992579661809146,0.013809314429084223,0.025328829083193394,-0.02031912925640059
-0.006030139541281003,0.023211686710663565,0.009720196026392632,-0.015952449003439766,-0.026434016788879702,0.03423861997917883,-0.0030165211664483008,-0.0029754221159024666,-0.033402288650705096,0.007545756221353242,-0.032852458377971315,-0.021214357947577533,0.01980832776666605,-0.03148169022095368,-0.018855632754214882,0.008978273729111703
0.010178878295334724,-0.005801949653673224,-0.0061217329142779706,-0.013969043483146662,-0.02045420665165442,-0.01572349628390529,0.007440647807262522,0.007354563720987008,-0.017207186069194563,-0.005810925941191918,-0.010862157932754277,0.0023471796063501485,0.019076133318650795,0.021229959161209462,0.006345455093858733,0.017522932564506086
0.028107529061033573,-0.028237922224704105,-0.015559645475183115,0.014679638317921184,-0.010415153892667332,-0.029866469019083422,0.01562808540311511,-0.004397566593321536,0.029347033806266826,-0.0015485619866411407,-0.013468861776637427,0.002630044523224559,-0.008967770647399523,-0.034937519371713945,-0.01680575945851012,-0.031038748199291873
0.0039585166333646685,-0.009712798337907329,-0.03424934850840299,-0.032269667837706566,0.009209652690276626,0.0021784775971820172,0.035043761959086026,-0.009437894794690618,0.00796037466367109,0.013814386447888696,-0.007584643169420764,-0.03520094433373328,-0.004017911032424527,0.03566550849352422,0.030746781762300085,0.026454287518052746
0.002952058951909628,-0.021219134166897156,0.012254393772720293,0.015199906840130353,0.023868474651488003,0.03391470578357167,0.008721503590311486,0.0051256588984254225,-5.8634697574014294E-5,-0.010419116136432403,-0.021574851253105556,0.017815682536389495,0.0352236610612056,0.0019857222494690865,-0.02360968392878097,-0.002792808549915003
-0.033416424823440684,0.02767467590577463,-0.027674561155348047,0.02044926439813121,-0.02398917421029241,0.013334536031822115,0.020670910814986836,0.028928947841529745,0.020778555565115923,0.006565332028470781,-0.008114736192891325,-0.004079803081980464,4.475283046823583E-4,0.005861977501810764,-0.00610346667442075,0.01886996204593344
-1.6806652167293545E-4,0.010026408147509054,0.014012384500393708,0.00946578270368463,-0.011594764581234929,-0.018903692365767753,0.01833830713264052,0.03219783278821407,0.015909843722180003,0.026504979095124552,0.032008599159331935,-0.00937240739088693,0.017331585976339353,-0.03511077661295336,-0.01980953749014859,-0.02487336505851575
0.028098585644493676,0.015744275283477036,-0.023994732788401734,-0.025438872588356136,0.005569735002545109,0.010472142975848302,-0.009466913824788883,-0.023209302382912092,0.03516269975698669,-0.03325837495384784,-0.030013946254745134,-0.03567306964382586,0.017090303120751597,-0.02553335256013424,-0.009482963170623058,-0.034527729003730814
-8.262968285669622E-4,-0.00871029163027947,-0.023926796539233366,-0.013800326014642109,0.02569833104650518,0.02628677843247313,-0.011214053330622118,-0.018396930250248227,-0.012256385300535202,-8.734473981418106E-4,0.0035798598173727783,0.020264646072160192,-0.012315501921476093,0.03196484423180976,0.0019325883152080461,0.014157756043299663
0.017867291217250635,0.001609421921071677,0.03207677832974935,-0.01856760175408223,-0.03569217061771925,-0.02578826501353055,-0.012205758880939038,0.0016567196564013578,-0.010940173702948506,-0.028132854456642375,-0.003794190192434453,-8.862657642083396E-4,-0.03462756510875505,-0.0043375240122994554,0.0011409609393727496,0.008820131863250757
0.01591752223924528,0.032278693966734676,0.012892612919967093,-0.0018188330284329979,-0.020979842128391886,-0.011395964467143464,0.025370795943081295,0.013083958721859537,-0.015569152426693305,0.007375581520588613,-0.017750553705307204,-0.011647824457491678,0.03055805076158201,-0.02765122104191172,0.009078940183513282,-0.01457748143516793
-0.00873956839424565,-0.016578598594556824,0.017201877594629704,0.01411065399814964,-0.014885787858766819,0.015055876768498483,0.016728828478359985,-0.012329861413658081,0.0026341029994793805,-0.007660453485835619,-0.03384349883785522,-0.024261729556642686,-0.004050905530413554,-0.010381268190354325,-0.017726186975990075,0.0015763377162566067
0.009094030288744566,0.003942051258840687,-0.006031214466246517,-0.02540894446570114,-0.00441497741819593,0.014350194776952992,-2.422587542112234E-4,-0.01069650514707076,-0.003901325897087901,0.02158479822646782,0.025641742030380908,0.013281142569873991,-0.010013211291836813,0.028405544427407198,-0.028102771170515684,0.011913928294652598
-0.027154106458679717,-0.02297446892058725,0.0030500559355693263,0.002318977168736712,-0.029449678423477302,-0.009027139483400795,0.018593930590350742,0.01673174272247875,-0.023057714425239777,-0.021787446152535632,0.019735797036390883,0.006302580058178499,-0.03002152983652158,0.026298608200927123,0.0031961244665237865,-0.014698117518508563
-0.01089719089357764,0.032082844897862964,-0.017287723502164166,-0.009694703936527192,-0.017560367291670993,-0.006908693435227646,0.033767889537654416,-0.032656961294960166,1.2276437767209936E-5,0.02482989793846682,0.009018745988418994,0.009699188371028698,0.00395136608544331,0.01461044222958479,0.03347344967046838,-0.0137095323260817
0.0032298570734699134,0.028962026546543604,-0.02118989302992382,0.028478953782993033,0.006927376641506049,-0.029205995728585628,-0.031673667089987326,-0.003987809124716135,-0.010082452221397944,-0.034295446949601155,-0.02681415673849317,-0.026689486503406468,-0.01726072183982747,-0.018283076432590344,-0.01693044074930054,-0.024704844912704055
6.134214146044092E-4,-0.02130645413402521,0.011278227406656377,-0.012661390285979235,-0.0028821817847654654,0.005251009768377168,-0.02087420895864715,-0.02859624132877685,-0.02140271906363741,0.006735114157786874,-0.02838504714216936,0.004995581506222493,0.011517863106773024,0.001512228253955375,0.005275019078264213,0.02969815145463492
0.023083936079934433,0.015497564346051665,-0.02455511717102065,-0.009185319045568532,0.010248594975560993,0.0043583199747198945,-0.009866865230380478,0.01701343971014619,0.00291791113652546,-0.014964818551397346,-0.027285826156150467,0.014155808265850889,-0.028410597889565226,0.029716011130017095,-0.002963341685375466,-0.0303805329926244
-0.01800965073467259,-0.01802809894684723,-0.004897935446322166,-0.00857301312967669,8.454555118940429E-4,0.002034619990121382,-0.01855778837789172,-0.00547477155621711,0.015321781773341037,0.03190827671447394,0.021530089095064375,-0.031177544674411257,0.02855405848567598,-0.004577426683214474,0.01373158818678065,0.021696839094655404
0.017023648509136673,-0.0019298093833064467,0.03183132010389669,-0.03064163046842578,-0.008183176521590167,-0.03280029873370114,-0.019849162586051253,0.019550011082305162,0.010035413759729633,0.0015164241072171333,-0.018965835251160388,-0.027595450114588096,0.021426453209860155,0.002355294080067516,-0.02899530805503331,0.012218829431908704
0.03145476546980616,0.0348663338608758,0.025187842828191982,-0.01583289783617441,-0.02134838919372585,-0.004810529837015513,0.01436865809989437,0.030781451430010598,-0.028326077589797,-0.02191591730338288,0.023145075790926166,0.009449675747795372,-0.012927336850360054,-0.007364181306707414,-0.01299922156547418,-0.03525785408956
0.03059030612628516,0.02943717024338341,-0.013778189853100711,0.011550571260034413,-0.011849998741245354,-0.03252487012981588,-0.0244260113997617,0.029494506956475097,-0.02072904972291017,0.03136092398183668,0.022664372007980556,0.03542646028734192,0.017876384146496525,-0.03458343923684022,0.02457430893806674,-0.031245134960630392
-0.02146417230421182,0.01194869568418265,0.019571509899246026,-7.02550386539845E-4,-0.012411817972035506,-0.029809377476862693,0.009193712733063297,0.0159907695024672,-0.030355280331849886,-0.011367112171296958,-0.00402325622777748,0.030044124851501583,-0.011795588023214898,0.009865228958571198,0.013723087011055402,-0.0024827745220585284
-0.029335358351809764,0.014718143812743556,0.03222001934070409,-0.017723755743502958,-0.016090216466498695,-0.02660621848236827,-0.021080340068910026,0.005706463295225651,0.02858551242448061,0.0330059158850009,-0.02386715935208379,-0.024712395739064995,0.02394206696549571,-0.005987693477728238,-0.03183308269373672,0.004833373189054094
-0.008238316675100228,0.019347500755227384,-0.003527483890605858,0.018820041575346086,-0.01722723107396918,-0.003819840302356582,-0.017167325027777045,-0.009739168105777025,-0.035288207155284225,-0.03267469546838623,-0.02556057071381184,0.022843469108004014,-0.01359161706652148,0.027785400531521884,0.02811887379236455,0.0342140313737245
-0.03140234232444205,-0.020886523364319096,-0.02635190213045009,0.015472531764211636,0.029822038449397445,-0.017699409710064496,-0.0047316080947207295,-0.03139059925921117,-0.011375445141904719,-0.005952439647441687,-0.017583667953811395,-0.020404603310920644,0.032670287838990716,-0.0034748205953282207,-0.02714150567799279,-0.017033339150211893
0.0037000294416989973,0.003812098294684471,-0.02284719755222384,-0.0340435535515029,-0.016245956449703548,-0.007185559829857191,0.015440899679003417,-0.03334449371536618,0.008923566359382969,0.013441401730081709,0.024914164430544006,-0.018674882834204074,-0.028976737815188135,0.013345779079764163,0.02137682634081388,-0.013525608852642715
-0.007898264498337113,-0.01585533758934194,-0.027365863569261746,-0.019876365889245618,-0.0097477322346495,-0.031297160694868896,0.0329194402106516,0.013979068263060418,0.027189538578396066,-0.01609637946347165,-0.0054659543468445065,-0.026300582028757218,-0.02011035517227636,0.03360612286286152,-0.03075001762416986,0.03324036492795078
0.016471910196989348,0.0218732799988094,-0.0012916649751115311,0.02083873999993556,-0.026170450799557637,-0.013772588165147006,-0.026310683325922263,-0.006776074357592452,0.008642382874934525,0.02406018338065663,2.0442980978933878E-4,-0.00374933715000135,-0.03305948544999043,-0.024861329502388212,0.02412694600799839,0.017950057730765454
0.020250443197463504,0.03331334827774175,-0.008649477047825347,0.014132872841156045,7.379620697770331E-4,0.030325783615330587,0.015839047857665066,-0.003082502606067558,0.031123860179232687,0.0244950021843476,-0.011535407937105866,0.01748025479833023,4.992579015681772E-4,-0.030222225275711712,-0.003383100553679297,-0.004450394694055407
-0.021613885809029468,0.006797029133288189,0.013905815064957548,-0.009388956895967939,-0.023488562166206005,0.004178906796594328,0.03453755693539211,0.028946860068463073,-0.001683231014539474,0.015393333056186558,-0.017937504373037174,-0.007667266350571411,0.02151922999649592,0.03137817206176345,0.004789515671821405,0.007575032268190854
-0.010189819684202166,0.0012846472626398472,-0.008523554839466825,-0.0013392068523779624,-0.03561880711003503,-8.169314433636582E-4,-0.010483778402957857,0.013313669419980863,0.01519757202454941,0.023960992903489034,0.02777568878871342,-0.027653635810516164,-0.02386789991165219,-0.014394526853314684,-0.03473542945411352,-0.033873819967070805
0.008757107862678026,-0.01164564170196241,0.00115446345194984,-0.02011423694547137,-0.025428059558523744,0.025516087489547257,-0.007839587797590846,-0.005953770330702046,0.018311257811694022,-0.018690802905878434,-0.022449123382542395,-0.028968441512759662,-0.02317725397157076,-0.029266331501968022,0.010888537879937335,-0.03218602107991809
-0.034769981371853935,-0.01103913891126716,0.010849361621619952,-0.001637698938159897,-0.029091977405799257,0.03542147612216326,-0.016161628141096847,-0.03402664635880421,-0.03514347111271427,0.006197093992754803,-0.022073717244445845,-0.023433903979606603,0.0010857509200165733,-0.010243731893190364,-0.02039102585172748,0.007851742375079664
0.00843557432314073,-0.019491132877497586,0.029855242732211157,0.030079767565101848,0.02222245422454011,0.023686462746257908,0.01551345489399919,-0.03505398610154994,0.003978276292037931,-0.022035435091638363,-0.009197088531989719,0.005187754203665351,0.03535258152119625,-0.011278641878177911,0.012364898312315527,-0.009446103646402373
-0.0063051230353010634,-0.01513432985045804,0.012887066239330454,0.012709521134995391,-2.87287201435428E-4,-0.008740427235124002,0.0316482989989403,-0.008369127806475633,-0.02434525318952553,-0.026160591695198597,-0.006294582484006106,-0.017280461472890203,-0.019514661149833325,-0.021713673979753687,-0.021785199849965194,-0.019682820795974283
-0.03527295123251023,-0.029976757100941893,-0.004654327439266897,0.026277096823924206,0.022096310310718813,0.024168563210013698,0.01344163904385761,-0.012172782669511398,-0.014694358060613515,-0.03327792884580802,0.004729451759835315,0.02829337827066994,0.003906438904410621,-0.005222524647504785,0.01627739798396058,0.014814368519279086
-0.035627622285166506,0.005384601433432383,0.022017547719859858,-0.015059584923685792,-3.465281560734307E-4,-0.009923518077711635,-0.009369422566226686,-0.023552640526344575,0.028398621907999008,0.007801475685554268,-0.016383674417762364,0.015093647478837423,0.013246707592718017,0.004216616552520966,-0.020033999678582572,-0.03058603114452661
-0.029526257083521166,0.003526628771144298,0.017702552825344713,-0.01738782054735975,0.009417067997135625,0.0014671258837110832,0.01772983686305373,0.03463091367786296,0.025549344319372336,0.013337005959006505,-0.032785432453457455,-0.0029633448850458002,0.014785436987456012,0.02425478906892252,0.030006542480144838,-0.03297307524306798
0.01177300586629862,-0.020985163416613335,0.028400969282087685,-0.027721107149660494,0.002013565174714939,0.006793724503181463,-0.023473627770132992,0.028785210348394,-1.66153911729236E-4,0.02543688887270483,0.004546256230933243,0.026002113156583018,-0.011580060971903988,0.022809068505845576,0.024134243206778885,-0.02166903040388472
-0.002321123430047041,3.8264322819783064E-4,-0.006861999445256783,-9.671855970448187E-4,-0.020948629763105804,0.034941446213001354,-0.02351624562083806,0.031146736388458024,-0.029837466490296987,-0.0066663032395533756,-0.030299796320523088,-0.031187268197374485,-0.011399871212619865,0.016662561081880432,-0.011272035164824334,0.01058359356713464
0.011824099972021072,-0.02437705905648674,0.01678022779425694,-0.021822719444108983,0.030222843234238822,0.0141619505440954,-0.03231611715821638,0.01141060989490586,-0.013431751729163968,-0.0023319855575120937,-0.02409853405898835,-0.014054999139819644,0.0010161680089214656,-0.02342529887292938,0.016092959195600914,0.030943916168789082
-0.03223028314039417,-0.03496571418628277,0.005826427258761792,0.026820393154798533,0.033645238014404305,0.01495205796092109,0.008272099332932499,-0.03475655399157532,0.020206932188906783,-0.018463893965869456,-0.005156546113667806,-0.005762734416021549,-0.023433246664567052,-0.023397222332769283,0.030472727182270537,0.0012690764937191151
-0.028056213146527276,-0.029177577373040997,-0.01608126514696925,0.010326417361136125,-0.005940453205241485,0.030769645487326802,-9.944424741427302E-4,-0.007314408774160501,-0.034241023027474775,-0.023860322795697813,0.02561436389907394,0.020074309241654258,0.016837966978246348,-0.01588862726421536,0.013465867579587523,-0.03356433127446815
0.03230542912361255,-0.02672329335092863,0.030763048013320582,0.024812712398312328,-0.02101491273318206,0.020488718952752935,0.014204896952247817,-0.02025058048959443,-0.023544926670712694,0.016733326652947855,-4.707611015918184E-4,0.0057832869374311105,0.007223923200577763,0.03160060382926698,-0.007972747284565762,0.0314774726212461
0.006505070902110742,-0.02611994337415413,0.010552900130340069,-0.0014478095610595057,0.03115679127023406,0.020416593017383654,0.007141563465311036,-0.011593234597291328,-0.02161977253819488,0.02861026079327958,-0.01027109287037669,-0.012001658901925609,0.022482187174016677,-0.017429593387409893,9.414078171288212E-4,-0.024143889702382047
-0.031808247233043103,-0.014060327650598819,0.01741177570134711,0.03173305115120198,-0.029393550378754296,-0.026224712171949077,-0.029560286407156258,0.02980332387179413,-0.02046727199906043,-0.0014775128109289146,0.022714819368339266,-0.006658278314582149,-0.0342101054238286,-0.018222602483015642,-0.013689201493048711,-0.015570547909796464
-0.030151233129724696,-0.02687709304438625,-9.155004757898239E-4,-0.009607690093211798,-0.01575659343457889,-0.023404336800009955,0.015670964763742586,0.015279481499755193,-0.007149659985771731,-0.0049413536978247,-0.003630666312882398,0.014302101883001066,-0.021816525134660654,0.026633561024379963,-0.03202928024860357,-0.018865184583860557
0.0019925947120946197,0.006613538333019628,0.029091531040799312,0.035547008814374476,-0.032813343555626644,-0.0028996787495696452,0.024473368142317202,-0.0011481834978834815,0.014063147995836425,0.016607737345000005,-0.006261301093315422,0.0251478134248855,0.029118303708443163,0.007365774835224818,0.020411048915731686,0.024727081623138733
-0.005383494106398171,-0.006253299104988175,-7.750835242524706E-4,-0.0011066319289070939,0.03499976474953424,0.012357767244219227,0.027278983691107594,-0.016261955356097882,0.020850636133253456,-0.005664448312992256,-0.0020944898962325167,-0.008623147429166169,-0.0054383993959718005,0.013923180412318173,0.017015584758037883,-0.020049949598105545
0.00993758862151338,0.031917107566390976,2.70768563438252E-4,0.025824613949846816,0.029171911659637034,0.00392306748839414,0.03408589155673544,-0.019935957341790645,-0.02238854631425217,-0.010090633730511722,-0.004705018328237585,-0.02026815838066968,0.022717523361964927,-0.008691463661840901,-0.011166645607705392,-0.01528757749356489
0.008418575939824105,-0.03125500880600714,-0.026962173439548945,0.03454852333814162,0.014699329030494132,0.028414759393940447,0.006934844020526,0.007597180510300082,0.030943817854238637,-0.022358277262469077,-0.011025537691505542,0.023399261388822645,-0.009988823886138712,0.002510129105517067,-0.006388656537016851,0.017255227267951964
-0.002789951564017734,-0.02908093605417489,-0.021041825893341935,-0.00533498633782193,-0.021296485507647032,0.007749213559436072,-0.03012710049647982,0.035134596390961545,-0.021813728982031114,-0.002585471466148348,0.03431165927623647,0.006705467429130897,-0.02664882250638683,0.024887550825164972,0.004417848749897001,0.02618339210681591
-0.0037125469461208455,0.02493253593302585,0.032486482269224556,-0.022442669067855914,-0.023620372528518917,0.02474340486587806,9.910846599465173E-4,-8.385583192503793E-4,-0.028781071253691948,-0.033476087528368906,0.009416701080744112,0.0035693511565938058,0.033077781807221304,-0.0032483551006365005,-0.027060785442989364,-0.00851645974050879
0.016667475272434312,-0.011610443917511155,0.0037034153138215467,0.0027507593055090054,-0.010702276978851191,-0.0037332318291497593,-0.021709350811713594,0.028229639769143,0.004504143191273305,-0.03331195630398385,-0.007575274004212047,0.006335830762860276,0.014831771255901856,0.005586738262878567,0.032355316789831445,-0.0063036806369110715
-0.004715496258407621,0.028923228314549937,-0.030366721938156815,-0.024871958872106026,0.026910593675663827,-0.027044421345552166,0.004111840296012588,-0.021965007490552912,0.023007339508689884,0.02400758518545637,-0.03447860009233059,-0.015031099302062367,-0.02759315654246281,0.007789477620410067,-0.009689850049383244,0.033340613147152115
0.011015547214926168,-0.0277041585991848,0.0339308709575267,-0.0029202804058358067,0.007727588988981869,-0.004315558534385436,0.002846956003238324,0.029471714612288105,-0.008790250981683463,-0.018916724746573164,0.0030912753876424434,-0.01630500853485092,-0.00214092448077996,0.004930531100914605,0.029804577213917785,0.03190001476298543
-0.009820188315409983,0.013390376887832137,-0.03557625122511194,-0.029391228589723695,-6.398114989557419E-4,0.029993018418349532,-0.013708954581675266,-0.004652558704130241,0.010088714179410124,-0.0015362759635194068,0.00529381862388404,0.013162206037796893,0.029578179966596077,0.011617724889841884,0.018767280791596855,-0.0025705434236068594
-0.01483662118343465,-0.024022447442287136,0.02156261015549906,-0.013400061173635854,-0.015860789102031907,-0.021233721408035294,-0.01672814612657379,-0.01835939840543153,-0.025113745406580568,0.024440864457302175,-0.019799008107210705,0.027552536835693656,-0.002040370348802424,-0.0267910805762537,-0.03479115824174109,0.019057917667031486
-0.029341528121408014,-0.02452091797525275,0.0011793171044620562,0.009603265143493266,-0.003490187023496946,0.019880164678510087,-0.033348975229490034,-0.004558940225784822,0.013498056560133885,-0.032442268699488214,0.031115280437812864,-0.015949937129241015,-0.018971152680432615,0.011158853034465302,-0.015053319456937473,-0.02543246783874588
-0.013924653879724445,-1.0501314191281585E-4,-0.019323343138309468,0.01867900045063476,-0.022032438636501655,-0.020738524932038125,-0.026798307101339097,0.006270762282856272,0.017577690926706933,-0.025675226427732026,0.028513500645630005,-0.01910752482492245,-0.01698976734252376,0.032118292991866804,0.0230717825152124,0.014101153123857672
0.01777904254943513,0.011743001031409558,0.013894078732782193,0.011381958424172105,-0.029838558241354188,0.00549014563333744,0.01268814040688921,0.009114016969640808,-0.032005990953860496,-0.034326835284718034,0.00717068726516773,-0.019073730137713137,-0.019254477502782575,0.03518477914000183,-0.031007644445063858,0.029222726809339933
0.006109936540460145,-0.03112266388573341,0.002530745647599038,-0.03307974742427952,-0.016398657410781028,-0.02987464078362939,-0.010193972520051879,0.010270442732458945,0.02967151970329486,-0.025065319542940022,0.0016361925244135003,0.014625375170730842,-0.02623495504930784,-0.013809065131473126,0.019885493042052955,0.021331282856702383
-0.01667207829707167,-3.204543485260808E-4,0.02886021026663188,-0.024728539971476376,-0.0013925843216294961,0.034209726328100154,0.023295197422887465,0.017187666543951326,-0.002115221230473481,0.01854019879776718,0.018827016487672453,-0.031141845239680555,-0.007310354106746977,-0.007033804264208701,0.015195499091418825,0.031127268849307832
-0.029887555157629395,-0.031850507405907474,-0.005311171662503604,-0.03038560957932417,-0.023879371923262352,-0.0027264373462682207,0.021037211590646157,0.02932212705015337,0.032680980459535075,0.032756337300296284,0.030463174161229095,-0.015299483720661658,0.02999889061575653,-0.017332971503703068,0.024480630889804074,0.014704631180652974
-0.005598784771027956,-0.03143148323526193,0.017149418972990382,0.006451314445175847,-0.016499322570294184,-0.0046978156992077726,0.029126745929071524,0.001518793432242864,0.0017630646948676235,-0.016882173394542344,-0.013432871737033707,-0.008142044476752104,-0.030607895277870698,0.012723036640785078,-0.01291517406452225,5.148274070059661E-5
0.031184480070052784,-0.019353290028886756,0.004851259825824246,-0.024318751337414353,0.004640150735052848,-0.013113546607324403,-0.012794019507328717,-0.0217740065667984,-0.02038016338505592,0.005462532488237325,0.01669331545327806,0.025781842163102163,0.01698628447283229,0.02194300670503463,-0.007579089791663923,0.0074869376174527685
0.015708504573607868,-0.0076004496612164,-0.01128158127845456,-0.019696856361747086,0.01162542875534854,-0.0057418736069293555,-0.018154564689025345,-0.02834014374988081,-0.013897037057069857,0.026442260728309595,0.013674967398995694,0.012285956340465719,0.021708800976177695,-0.0018350842078664817,-0.022555550632822195,0.003919552174800535
0.01932858952003677,0.029938036576140775,-0.017319123277862985,-0.0013797681223168615,0.01792721640488487,-0.02074506299054254,-0.0071794386049065274,0.027428521922485127,0.011736565434703722,-0.021460252071118006,-0.020052896186990066,-0.0016229385489792067,-0.024060874602318254,0.027448933158222832,-0.032286497439231295,-0.001547476562479319
0.02031378313471565,-0.016541110084073923,-0.020054210879061753,-0.0014814890308834441,-0.031007963807506145,-0.02791678443662049,-0.00753352639633512,0.013809423186770274,-0.011029566440363396,0.00835597360436667,-0.008581135611087025,-0.031824442925139446,-0.014093272878345567,-0.017998440020493365,0.010967213710497685,-0.03380633194948042
0.027872474542727663,0.0127447578179525,-0.0023466108559779264,0.019337098817011497,-0.01649663003372498,0.02595012373360696,0.03508234416783962,0.024241700263093233,0.004583186485324353,-0.021422975048511744,-0.015380361703532266,-0.012285289421785875,0.033632977024660324,-0.005191147562277985,0.0145634116589188,0.0346705734757768
0.03325816848944148,0.014505734977796343,0.02123095213088802,0.012120119112923114,0.026677365909655554,-0.020791913545884833,-0.0013590508734270604,-0.03390563746723041,0.034399964320385126,-0.004313572405321382,0.009063515512277798,0.023704064779108365,-0.017207543151937888,-0.022059022121762955,-0.03306737789080901,-0.018115950661316643
-0.025196611617745404,-0.005976888178769606,-0.030578524817907782,0.015938300332672017,-0.0012194033890160078,0.01783397191119314,0.028632663841230768,0.0020680462406428846,-0.025238644889665644,-0.029477780226963495,-2.794828961003512E-4,-0.003701202779743326,0.033515622231928804,0.029015004777056888,-0.020905184419066414,-0.02027791575501455
-0.021316268344310916,0.027818935729583813,-0.03028285705604659,0.013871252980606284,-0.002551141660513158,-0.035130540530833546,0.00938524123709028,-0.008277546975655643,-0.01654738202062937,0.03416904072892053,-0.035006318715794814,-0.03090506472749158,0.017631839854582665,-0.01658238557896161,0.024363409738069747,0.021343592085037083
0.02283152178722836,-0.01096595975805972,-0.027344115989592535,0.03153529859014556,-0.01584569908200133,-0.01464375561102238,0.004638113362106171,-0.00928876480806248,-0.01596545904461937,-0.0209581038515212,0.005595575695614828,0.024568349943787537,-0.01835228537645409,-0.03525634492205007,-0.03380737279285648,0.008417762406303313
0.0043940238059748254,-0.02530602427861333,0.03557266728286031,-0.020121057062738833,-0.03331923782004323,-0.007405830232831447,0.034297016069978606,0.02991352441672815,-0.022086002411447488,-0.016228022316860276,0.029956026029714408,-0.03423173287064257,-0.019351463989377118,-0.0035853768334814726,0.004642565764209225,-0.004727449587393722
0.008661519498385298,0.016007645046796512,0.028918574642801412,0.029324974809154067,-0.03412274274293376,0.01930454123637408,-0.014482458999268855,5.220397645974706E-4,0.034059665281060775,-0.004236002108332505,0.0136322467901982,-0.02325636015275354,0.01445620380310847,-0.0050336640329383744,-0.018423667677231033,0.0209053645328212
0.012863615648698964,0.024178054850845024,-0.021168861279552045,-0.007567843542079636,-0.01186911406232162,0.030437208347269512,-0.027210871380036597,0.00542956235664676,0.007793482974202223,-0.033487405152354446,-0.01799752062873543,0.004325199037120413,0.03033120087843791,0.02180906886168344,-0.018713800597687204,-0.015663088615672068
-0.0026425639212387317,0.031169259660360438,0.035666599457691656,0.014012254793438837,-0.0256879027953498,-0.01426356908844548,0.028978341574341926,-0.022213712945524853,-0.025442975293519614,0.028170601628763253,-0.01903481221934621,-0.031992544676153194,-0.02042074209554637,0.02394574354703939,0.032234557405364045,-0.03117247999120058
0.024704613346192117,-0.026484172088524577,-0.020020777959929393,0.03301668119664117,-0.005655934641864726,-0.012851865422730344,-0.032602242800158235,0.012902665445833635,-0.03518790176367747,0.025543514383037896,0.013475568041014359,0.020323167577919465,0.010984783950784498,-0.012694367035582584,0.026200500263609372,-0.026461208384000026
0.01930324694870899,-0.009888812391067116,-0.007400958097252788,-0.023011523372011344,0.03351709590297075,-0.005338902444725433,-0.004309362137053831,0.03497073490619869,-0.0021233356894012623,-0.020170844638878867,2.897343752459314E-4,-0.02116339974696292,0.021093494148199388,0.0259616689618897,-0.013667649128063293,0.019196694522697927
0.01527394083233305,-0.022474795117200033,0.0348378555672611,0.031221751448801086,0.034766088377371884,0.01969175572993908,0.022878483543424942,-0.0129795421328932,0.03356774207269267,0.027369605222383242,0.028300955436785555,-0.009895309357102058,0.0037350810614067836,-5.841383269006087E-4,0.0072814929256384345,-0.016376059801662193
-0.0018620227737246933,0.017227514542810296,-0.03259907095421913,0.003430353554168368,-4.963511351658914E-4,0.014444270187194547,0.014164239460858055,-0.005867366970219643,0.03143791907008128,-8.007288484914929E-4,-0.004588538580003385,0.009466291623492343,-0.009449861377844766,-0.023776037691530576,-0.0016169792593729304,0.015730708938178614
0.005427207930077775,0.019294580847676955,0.035025809935912894,0.024703844620866187,-0.018179123482174278,-0.005057920683595396,-0.005104620283819153,0.03345996702972151,0.005707756846804697,0.01196988496603376,0.03361695693835587,0.016937840336085336,0.027382159099479608,-0.001310744723763621,-0.005324288668632684,-0.031084722053208967
-0.025423864563445822,0.004030689963448811,-0.035203065269161345,0.024355010613905922,-0.016263772383593427,0.016323976165029556,0.026461813513552535,-0.001885890897690104,-0.020294254916580132,0.00568397631203197,0.02210506046603685,0.020099685436315247,-0.021463252815718696,0.006783172649363643,0.024334384217940368,2.658564430492727E-4
0.025140288081781835,-0.015471001847368038,0.023638206768906773,-0.02017516960899729,-0.009228683529296882,0.03181073197573944,0.023015256589023744,0.0051783676085786,0.03382006082230567,-0.03358131247640569,0.008574188818982864,-0.012365942080848416,0.026468934409188974,-0.008690249654945754,0.0028111621497172237,0.03412139323665811
-0.00946693236628933,-0.005209812809936907,0.007308366030796987,-0.005276747382280962,-0.015837854530776,-0.026443246336366646,0.023614993032278438,-0.028816493037238853,-0.0030935822932801546,-0.026503702904760965,-0.034143560958305536,-0.03506472219297609,-0.030307964491136406,-0.0107609849936974,-0.019939509002078262,-0.028998849209216058
-0.02664710257180898,0.012386128476296283,0.03269550986779017,0.014426505917521953,-0.031816044726449194,-0.014860993827208013,-0.0032732896300335726,0.027100711561756002,-0.009262587564477929,0.017831975844300296,0.01742032992055361,-0.007159693449613234,-0.003028119750388636,0.0012103134454341177,0.027397136383670626,0.0030455541899392577
-0.010446776835338505,-0.03411271461852891,0.003487147148371235,-4.466430282161968E-4,0.0013253566746244325,0.01599392854083554,0.011095363466554507,-0.009203935675826287,-0.020627657837944638,0.02599700114379222,0.021355879346327655,0.003361889220434802,2.9185760556674212E-5,-0.0012661414481726155,-0.013404128205126185,0.021133908843880278
0.028561403056104426,0.029705848938398158,-0.008425802493632045,5.60224759769988E-4,0.008189273792155054,0.026593162290148367,-0.019990872252135528,0.020653504918555783,0.01522475611440121,0.013899874897733755,0.014123404834726905,0.023870799502943095,-0.025905459233241508,-0.010308514370687034,-0.0013377029075323857,-0.005814730726130604
0.019004996100749197,0.02764514468198062,0.030384854784044762,0.030988492297161052,-0.028657338957278216,0.024844849643643682,-0.014173501450066062,0.01253805869051941,-0.022369457556354215,0.021591815444649574,0.031720048001127404,-0.02935731097962122,0.013353659023586803,-0.011453453000597587,-0.005615951876300922,0.02805631734532317
0.007680387277006748,0.015024325763675024,0.022380747405781068,-0.02066360197732695,0.022872061602679093,-0.02729510597829657,-0.023175083802270013,-0.008034043681427763,-4.860504400027166E-4,-0.009425700739734404,0.0031304501504013996,-0.013793664064783853,-0.015229836428690975,-0.0029720301405816024,-0.03395854375908438,-0.03238100524917656
-0.02975285291937733,0.020489279434458316,-0.013447724274360036,0.012628937902396484,0.021406237305545292,0.02032483945832994,-0.014016478631001805,0.03406043424278424,0.03495112963188045,-0.013324286105880243,0.019433109321108782,0.0025242112014715254,-0.013673223489677613,0.0013577692524232507,0.01251437306434635,-0.010579802149822053
0.003776705157603609,-0.004654041327713257,0.02872978273932622,-0.02197512748205567,0.01513651336035337,-0.009337974555961675,0.00814800445070095,-0.01608820813178762,0.023959479548743716,0.03386125895561551,-0.020380244453955015,-0.02819784064520637,0.008086172880834804,-0.006442741323932369,-0.015612093180411901,0.01607695782088789
-0.029217769027875918,-0.007312429765825523,0.003623972831860646,-0.02979819998610021,-0.03510960946823077,0.01095460616603991,-0.015592506907165283,-0.028124663419676177,-0.02783748817565011,-0.00478400629612441,-0.0308635977144295,-0.004055089891133158,-0.014937389746884203,-0.028415250254146103,0.033456823387516044,0.002049136119622076
-0.03523335025666238,-0.023324767627724022,0.02638741635128812,0.0029832528969576874,0.02284922783787114,-0.029145595207454505,-0.01465291360024799,0.033319808595353745,-0.018580326610920808,0.011265285378808672,-0.029265039811202636,0.012900335348984,-0.019368345443828507,-0.034456035838912075,-0.030617810178524583,0.02176753214199076
-0.016597300448029196,0.03159555361140236,0.013648068410767981,-0.010800563642615304,0.016465215920304636,-0.03152997511372409,-0.006475746862381036,0.031155665205814684,-0.003246509773356908,-0.011040393001694085,0.0011706702488035667,-0.026681799485548052,-0.029885627004074353,-0.011596798973804445,0.006923633231649344,3.2594504421722126E-4
0.007719869510944687,-0.018364502795710207,-0.010661013907570831,9.823286926422467E-4,-0.011680591382684957,-0.02637155032845697,0.0353721108550312,-0.030482321546503804,-0.004856586572270789,-0.033104411423742826,0.022107172973546904,-0.0033322833623312675,-0.022021930649946744,0.031831708011045165,-0.006713404901643936,0.017262495132304045
0.028317791635329367,0.023963333916238137,-0.002876502012152553,0.008592280357702084,0.03313229987454823,0.005816457031498683,0.004853039648883277,-0.035201717164896784,-0.02440489584136416,0.014892590017218016,-0.033452957550987324,-0.022411359496742576,-0.027884464846855937,-0.03181119565727847,0.019365519417877633,0.011070355641840071
-0.035188062697267784,0.024423127799919724,0.02473351339584419,-0.015385252876488831,0.03208609374302582,0.029035082602886828,0.03439222678136396,-4.108266622888032E-4,0.0014017528702564147,0.02950728305257598,0.007416337889870055,0.005188086595641836,0.014608470773480209,0.020336898265926627,-0.028747826695894763,0.025533967384010862
