784-4-10
0.019260073962546913,-0.031873700136901384,0.02615323204851204,0.014589603355081249
0.02470639057330721,0.014092053404559574,-0.032378260893032,0.031148676055380603
7.930164191679093E-4,-0.005765368892640541,0.024474741376252954,-0.03224944868202346
0.022701193495460764,0.018955755159499675,-0.01674686561139644,-0.029005443309401975
0.006734036306503134,-0.0158690946665893,-0.01691966087023997,0.0071845363465109086
-0.008929514834033418,0.009291752177958565,0.022949970359602168,0.0318823504890553
0.0030606665474383135,-0.006958311165809035,-0.009581317487525672,-0.023707349583436253
0.02318042588309665,0.0330048190037289,-0.008047762182246135,-0.018794781875090965
0.025418115981867627,-0.015763055018941454,0.01608516509109252,0.023600611073654035
0.001685706154043072,-0.0021878825022731835,-0.01730080435428104,0.024848827073709216
-0.007067695203397728,0.018324256239651157,0.03205679342284733,-0.03052744331394207
-0.003739456831157506,0.030955979174769763,0.031018526846931876,-0.01692182788833896
-0.033150127379851894,3.6550133713851856E-4,0.018532684030555285,-0.027593292399282744
0.034079607352267026,-0.037840899773442,-0.024321993914625896,0.020737736547484984
0.033926783280344715,0.01661861666387077,0.009204232121595693,0.0019515561520592405
0.009960343794146044,-0.02395145463985583,-0.01848585046833156,-0.0027343815959106617
0.014718988952635237,-0.019011821896300674,0.012628415458695225,0.021327692499490312
0.007940282779231547,-0.011944585035064379,0.01865661982783206,-0.03244615179829431
-0.016106282636113276,-0.00982564126617844,0.01631272985455587,-0.0026965740114391276
-0.03228019302744342,-0.022352576949355225,0.013899861243612928,-0.02910587601072307
-0.0031224116384471826,0.01593669959185781,-0.026261452033751402,0.013414531545222944
-0.03224636465007514,-0.028322062188710837,-0.033548075008416625,-0.01055491817714993
-0.023008314525386406,-0.030107479773722443,-0.01531067318173911,0.030117990350161356
-0.004994105292636147,0.026845568866475544,-0.00952789043134664,-0.0330152009986123
0.03250350287325948,0.01265657741015936,0.009588952799283582,0.01885457755532001
0.03317275150065707,0.015817105479465132,-0.02297275357442544,-0.031667767425015314
-0.014978191793008577,-0.033017173077117025,-0.012351978095776588,-0.005180886467295063
-0.022077781301309433,0.0252568295881059,-0.006054039413988712,-0.013545415478516221
0.002282031727606257,0.02816043826561325,0.03522295100793778,0.007369951545275054
-0.032766457052480186,-0.0028959855132732956,0.005785153435832711,-0.012862565495757435
0.0163137023930566,8.476385427238706E-4,-0.01794883619914466,0.029842761526409606
0.01176423373861217,-0.02007180052815757,0.030427152524919454,0.02136581188690661
-0.004916296160296212,0.006313236831766902,0.00909751481607628,0.0068886954650654725
-0.023001531325516633,0.003648420920680776,-0.017340483572001627,0.03152259177669477
0.03194024383010941,-0.03445680647355612,-0.002031327752569338,-0.009884822121357736
0.003487491438511358,0.02167518084049343,0.048352814965672,0.016260948486892055
-0.024205846239111824,-0.021836633997222753,0.021918933843606127,0.03866654147666002
0.03130246260677944,0.020868505994478478,0.015062860782462727,-0.01881040031870687
0.015610988977424746,-0.03393979842615631,0.05998813137124275,0.022724961586031083
0.028956722107997077,0.014952117160414068,0.106293232395836,-0.03192701792305077
0.021526872987805732,0.008213838425336569,0.057750685534054255,0.03152832568555145
-0.03068571760336741,-0.035616266180619575,0.10426349783294175,0.01804629507826929
0.026231888356007694,0.014957957374540783,0.028490409725653847,-0.008058984689494824
2.5707011235357103E-4,0.008239402485683113,-9.200658810869327E-4,-0.03872757478065448
-0.011218482282938699,-0.001619482992347602,-0.02000164560051882,-0.019788872853553376
-0.017820183027399805,-0.0378032257945295,-0.004344346173040348,-0.010295878695242363
0.02387158232733844,0.02056123557186009,0.02309414324656613,0.020333741358160094
-0.019121560921974742,0.026632539913712314,-0.004014308461637751,-0.01988760234440037
-0.006070286345649171,-0.033065909775798284,0.043719469914235344,0.03020010338568684
-0.014286959365305796,0.010098564479201983,0.008808295755590431,0.01569858482844666
-0.02656186864388253,-0.0132134558625944,-0.026964321387690067,-0.013892223412149888
-0.028260307064189128,0.022229769365067875,0.030883218320390576,0.026404174798974358
0.009615904048585075,-0.01788559367167201,-0.028442787468059227,0.01139684708041458
0.014048407431925154,-0.015110779960877053,0.035374359530583765,0.0016149084839803887
0.02436589857067277,-0.026686473604657035,0.025506683047127637,0.027873760641255005
-0.009100207557079996,-0.003941897061924361,0.015522668919781539,0.03401008749549381
0.007634528066774053,-0.020615027366867815,-0.02628926697444118,-0.01706722735368494
-0.00411486147697053,-0.0018789603329976076,-0.012742520102900248,-0.02404356988918399
0.035692142325394915,-0.017125842790666215,-0.0268218810406584,-9.81442920796966E-4
-0.00553500376922255,-0.012454262666130039,0.015456564951689934,-0.005173783693930604
-0.011968640658319462,0.014368565305223152,-0.003859808880454456,-0.012966990970587022
-0.026537402050626473,-0.03043807911221294,-7.500292190460103E-4,0.022289253113474863
0.025437490896818016,-0.0228111131417735,0.03266842385717196,0.014956483118083614
-0.019152677141359715,0.01669835786663182,0.059132225392091245,0.02185169342355754
-0.028412814082362823,-0.02182524497455612,0.11459696396966154,-0.013406120520237052
-0.023837985842474464,0.018762053483524832,0.10161095911368102,-0.028601357380581175
-0.03426131274842559,-0.03312533204291317,0.2367032926075377,0.013908245451197064
-0.03712989850321004,-0.038459539371170984,0.37911256882221067,0.028128478997518136
0.0056633399467046295,-0.004057942336517043,0.4801771172364293,0.03579725668333979
0.038859304240087114,0.05404880072355067,0.47067744034726944,0.02343479921518819
0.003251475807870922,0.04865095605592553,0.4021058468531073,-0.01460002999808955
0.029333743813081365,0.03848140882190626,0.26774970948111054,-0.026670145107552997
0.020521980529569436,0.1330328745065043,0.310552386990495,-0.08729059788657258
-0.03077412120069102,0.10094987976671818,0.24986106888158435,-0.07801944433068748
-0.025983789002320987,0.09235321967262093,0.2524553422917179,-0.10104882869301485
0.0012947810442458367,0.0767417304362185,0.16861547057839296,-0.03979386343185905
-0.004683503225097646,0.05282046667387179,0.142893991786936,-0.08548233575337832
-0.04218817853290866,0.04859774077703261,0.09722185923748426,-0.040533041963521366
0.018639796165113905,0.011975347973091612,0.07717840631126241,-0.028390512319787675
-0.014013356690977368,0.017302473074602587,0.04907126124575725,0.024684908228245005
-0.02692053587375974,-0.030344224440391043,0.03920329460111354,-0.020821213052673444
-0.00466920919447514,0.015577693371979883,-0.02905147276948304,-0.009176186547800627
0.02203558028014184,0.002681357777307304,0.008916666536842144,-0.035384884679531665
-0.005408465004994947,0.018912221171786862,0.020222479610411855,-0.024536582710925285
-0.017235776528164135,0.019283373570665015,0.01642464830911343,-0.027626185061609146
-0.02689375290556558,-0.004052933410965999,0.004035346913925451,0.025384944692354264
0.024117473741428055,-0.02016228997016478,0.005178344842763198,-0.021516218614865062
-0.024908694608019307,0.026710079948778935,-0.014962871546199415,0.008169105553775544
9.775741271441233E-4,-0.02170666988833493,0.016935883428372277,0.03320474180257201
-0.016295361115017205,0.0037397456705379893,0.00567796160630653,0.027308251162133996
-0.028746393161442983,0.008150970153435685,0.03488265535710468,-0.03754558768798659
-0.005008179839384508,-0.0503334712231954,0.07169281384412317,0.016992859115643338
-0.03432955352509077,-0.07422524069723242,0.08196593978167674,-0.013967571990201398
-0.0924496081041821,-0.02218050025230094,0.02192685101843731,0.03129862722117495
-0.02983068468182634,-0.045267670902478005,0.06377952099622505,0.03464824529874833
-6.683819634940051E-5,-0.0958938718439518,0.14794728812685146,0.06322371395367969
0.09721416764979818,-0.10740431912325123,0.05897322122892562,0.18192270495500895
0.1680459277421149,-0.12149026446206863,0.049364070831539014,0.1582503886896294
0.18108564625716275,-0.08239042827434542,0.12610123149113903,0.04008150220222705
0.1679336663689082,0.10374076385254022,0.07994117181917147,-0.08390623186195989
0.10694110105240054,0.1551174838939264,0.20219495697572407,-0.08807594469032085
0.0484331026775582,0.2404541863414654,0.3263019921728039,-0.2043594598248153
-3.6259538031404453E-4,0.33661846258195016,0.2739483942783101,-0.1991135343340091
-0.05131270247604892,0.27781880468620845,0.3405870147767328,-0.1875423785832994
-0.04593033001207672,0.29713874940460516,0.20808507573881063,-0.1137693704549451
-0.05851819499963114,0.18698517191636593,0.13321877167020638,-0.07054813595891034
-0.04468008920104634,0.08151112907439767,0.10817179628352465,-0.046815876422655646
-0.0038329261305554314,0.04440827470193558,0.07368920778249151,-0.03069175113734155
-0.01399747218502968,0.02583707260483118,0.002816064216004473,-0.04204656500608705
0.01777436206762345,-0.01829729306065549,0.01942443929256809,0.026399345640643595
-0.017298984543972388,-0.027028052604240058,0.017925035312211953,-0.02512245676792331
2.952421034216404E-4,0.024455517899294482,-0.03077739891244502,0.013294837436830798
0.0034035796332716403,-0.020884948888648273,-0.027285864721685003,-0.0032466074279848822
0.014214993352345561,0.01319291786804611,0.028496649105357687,-0.015096524039959144
0.0011143248183643633,-0.029187818520336393,-0.020206093786029552,0.03190989621816319
-0.003132135210484789,0.006611616350282294,0.03175106921214576,-0.01348029633908304
-0.0024722321312631683,0.0021508709003438117,-0.012304844969111594,0.01369353625182469
0.029146338612964368,-0.004187276177221029,-0.014606550235940988,0.023283043131150552
0.07844468978432628,-0.028042141408496903,-0.04881833559356934,0.04736592270689384
0.08811715791256113,-0.058840260176656375,-0.11528147755789496,0.043659693042864336
0.05439636649760411,-0.05724943500543618,-0.1065417357324699,0.07775431347514519
-0.009726347342047548,-0.06226659983996646,-0.28320935349829873,0.09324915859840799
0.08079387512012198,-0.16676820592712516,-0.2271741854157221,0.11187281248871825
0.07698239976888405,-0.17060492252192672,-0.2551111454368567,0.1313045745433767
0.053046235503588196,-0.26448339768314577,-0.1768734121459438,0.1266738256729141
0.064104160307143,-0.23364146062785648,-0.13122043728434388,0.17283067743191238
0.03187327234456418,-0.160974940754723,-0.17775101600131998,0.09062560046772852
0.06829860879032255,-0.11879148915474025,-0.15229284964762302,0.04847976300867724
0.08879270153984518,-0.05067000110836067,-0.1676291909062996,-0.0015973950184923382
0.18947634832345542,0.06195665455239552,-0.07964166657345935,-0.13707280476439349
0.2655000609809837,0.14898265670132657,-0.029165460835899677,-0.16007050000953013
0.3181656512404404,0.24305418442514157,-0.006576623899374168,-0.3520380608944805
0.2215645101137112,0.2886032017630728,0.00100992267244007,-0.4264435220131367
0.07189219080561168,0.21515007314873413,-0.02458653303601472,-0.3110945217751275
-0.028737363401950714,0.17323209227894396,-0.15179551145764936,-0.11656623878366879
-0.08392611073198807,0.1039080753567507,-0.11024202890022208,-0.06386680069034167
0.01635517011594663,0.008290780013130385,-0.105478331404727,4.54221007704179E-4
-0.005020817830426401,0.00916958477180704,-0.044833357421182114,0.001785966854792405
0.0025441161733776884,-0.02386812592725236,-0.041840444807192644,-0.01563631909358826
-0.021075163669879677,-0.006207171572423627,-0.01113264020351068,0.015120790130920953
0.00963435591382629,-0.035462393989201535,-0.004806316968875117,-0.009060298508916462
-0.026548749430440943,0.015614451165477057,0.03298344049879402,-0.013168689642314102
0.013937807227076441,-0.001693295718181409,0.02767335660499093,0.014896623079999095
-0.023935343037040112,0.006965548593073099,-9.893714574921225E-4,0.02518045942505494
0.03811039399910358,0.023490027611930402,-0.029424377789797652,-7.272078336184869E-4
0.10758503864965195,0.015069232368821964,-0.09778384844916248,0.04803395449034519
0.133022335930319,-0.038098936302495216,-0.14654307483484935,0.09776466447991718
0.1271286652858527,-0.0582182121558629,-0.23183706769783688,0.11861341505589491
0.1093556186849742,-0.08329171213462798,-0.2071445119249346,0.09659438813469046
0.08154908213340697,-0.09807229099173384,-0.2947593862013761,0.1507575935265654
0.08074250244088313,-0.21567131605479953,-0.2075444077570445,0.20512531349317145
0.08611860010512848,-0.29778688773497985,-0.13917221594152168,0.23278247813683786
0.14957226166971468,-0.34342046362882855,-0.07788235891748112,0.27895698063494434
0.0580675010389545,-0.1720295640031881,-0.025107749244993188,0.35011036608522605
0.04962952578360613,-0.16618360074397157,-0.020331990901525956,0.1944926805217519
0.03024564429244917,-0.16716282082200845,-0.08334191054156237,0.24539431890331814
-0.002888251637249705,-0.17813491810254942,-0.06605182689421406,0.27297627655837314
-0.06258272195116901,-0.11369544518613298,0.0033700902273211845,0.22339435775516303
0.0015404000351885436,0.0012961931746054358,-0.020288959475345567,0.06723270742928465
0.05620439633388921,0.06697334818336148,0.0564374609292419,-0.12667405782949717
0.11489344438938331,0.12450419814097932,-0.06098594300198066,-0.2877611339456102
-0.014387574864439845,0.1529939322126302,-0.17793506972887196,-0.2691024509241281
-0.1481713326030307,0.16800385651593278,-0.3191731048835996,-0.03062769751789448
-0.21898707089934527,0.1787253589534409,-0.31661384462050485,0.002887657473303451
-0.09249172955562548,0.024730162988362465,-0.23672460806621134,-0.024828758693731138
-0.042504138972154853,-0.03718610568700187,-0.10908166986357014,0.040262071179202004
-0.02136616368000294,-0.04084067763418336,-0.017868850824114733,-0.01458593922535313
-0.032143346850014916,0.03251937437335596,-0.03170247789697414,2.5998571084578923E-5
0.0068430467898005845,-0.02401675572330681,0.015535581124707716,-0.0052204121900820515
-0.005678238492346242,-0.009471076263786947,0.01680906659634553,0.023296666348945807
-0.006874317811287739,0.002909234213792939,-0.025870450652915548,-6.185842105811107E-4
0.05223392401096752,-0.0034664139527251212,-0.030531181300100983,-0.022337858470429996
0.13350529034447167,0.007838611071790952,-0.0663394202131576,-0.01054245584332131
0.15707650616508947,0.002927389131404672,-0.11743302365750644,-0.0035653392129550657
0.16606344017174768,-0.008263450222258266,-0.24360091920780558,-0.00584333104595508
0.06984017716849747,-0.0010325425847229736,-0.1520792698154632,0.019491888406581413
0.1279058140270744,0.006237198757915075,-0.08457965613632364,0.04109842153931625
0.12290509249029073,0.029920873080563456,-0.2128352725685775,0.056545808165620104
0.06075777183972037,-0.066502076664353,-0.2080746340576474,0.10788804558050215
0.09640908009696109,-0.14770380927631127,-0.1101427978236386,0.16869163157954442
0.11788810471867027,-0.22010753810455877,0.029745702401137084,0.23590173409973914
0.15973343568557036,-0.18291297292486602,-0.03571012149091864,0.3474779600015967
0.09121077482586802,-0.25382085173198277,0.03663671916740261,0.3341398913376585
0.07858764762187952,-0.30413925177739176,-0.0560257511313947,0.3471866378196058
0.05065090293373659,-0.2614891375249981,-0.10187335273085145,0.25810553274544557
0.011283387036288763,-0.20392332799185225,-0.03624872285463282,0.28118679877789055
0.04818044513503259,-0.15401874872751034,-0.0575868821352973,0.20334320570075307
-0.05119993634215204,-0.15338408089078995,-0.07927714226129043,0.11331159203939897
-0.0570232863754153,-0.17720941423566428,-0.15125211028121668,-0.0038132331285004304
-0.15610531742832023,-0.10502679920297857,-0.09931627927687729,0.06380832689116477
-0.31095224028345064,0.056959563565489986,-0.18616159870336135,0.10294953223590388
-0.3391932806843928,0.08636230822674724,-0.29785221685942204,0.08117377079749584
-0.14485109005669902,-0.013997365257828643,-0.35617039634514747,0.08371614945800769
-0.03960289200268791,-0.0423140083892266,-0.15004364384450858,0.010399037771355606
0.01151759233534008,-0.04284482166104891,-0.07511056202146653,0.0064223371555974925
-0.027263453510035878,-0.007114078482034059,0.020402646517553958,0.02543314349348318
0.02720006172092337,-0.014738370152797284,-0.033669266645277425,-0.003020299138044287
0.016690575917200218,0.018870232886379987,0.025927144322402017,-0.005550312886845921
0.01612587137646234,0.03833119987864499,-0.03131765430499284,-0.0026389982442296435
0.10511934840405836,-0.03836756316919187,-0.028705785822592755,-0.05775785938966089
0.11765721908261877,-0.057583268594155114,-0.06131659103149578,-0.049883962672839656
0.19505130491987724,-0.02327399730618746,-0.1689789871585177,-0.03616784912660712
0.1181165247483884,-0.01810363427486455,-0.22904822493345386,0.021737126295530478
0.016299684508716893,0.01605843688448657,-0.09710463742897377,-0.038879993416897456
0.05024942021789185,0.07211638005001224,-0.1393904736527483,-0.01859986660649679
0.038822888401635405,0.03080040493366692,-0.02345455820709724,-0.09029954093402287
0.019457893546885447,0.06108187651224747,-0.19011427785861865,0.04162520198864386
-0.05250896926822301,-0.023096834786757694,-0.08630618173299423,0.03620543366707399
0.0235200320943119,-0.09598643477596172,0.013101650054569612,0.06114936620840056
0.006886600076356127,-0.13050072076248947,-0.025579397094293153,0.0497407122371573
-0.051969251208791305,-0.18010622455102912,-0.057658125080272814,0.1691426079145281
-0.0911016510841307,-0.17582439027273838,-0.02173320432229117,0.14565736928602152
-0.05213776735273187,-0.09847940534193933,-0.050338896933685616,0.08196009532586694
0.05386136071256841,-0.0933213427678418,0.04727190704939151,0.04989142119242666
0.07335727664868177,-0.12719755559464194,0.005712468430702004,0.11111529489822242
0.08358081653519549,-0.0693571307689157,-0.1459753944667661,0.08453316023048453
0.06956660902936115,-0.1532279634833724,-0.09603652424395266,0.1465641496335101
-0.04193709645893707,-0.16690426646095508,-0.1682741541214218,0.2338397720239444
-0.07572587548512172,-0.11141702783256474,-0.10955636619582244,0.15334225116299052
-0.2747747808522234,-0.13611261483201637,-0.23269228044605067,0.1507647719504584
-0.28702974258993597,-0.10447656769337706,-0.38012856465101363,0.13423591639475457
-0.1284429420301377,-0.11053498783655177,-0.2717457025496888,0.11014088996477327
-0.026782074284607865,-0.0450157013747343,-0.05208552032251112,0.0321366928082633
0.03136142284779083,-0.028556496206916082,-2.895386191196543E-4,0.005177748525045824
0.03300657856243696,0.013387632594153978,0.002206856545191655,0.03272926084214075
0.0025279976400624593,0.014546810487070046,0.007834566795645384,0.022186266971303697
0.07179777533143597,-0.005325492426735832,-0.04081174577996295,-0.09455035592199593
0.10488558171806402,0.022074195006094637,-0.03821162471800876,-0.09592690028972112
0.19453147051931677,-0.00642421787295467,-0.16833055053354282,-0.11649077854895125
0.1271215615347877,0.02203432226661185,-0.22902360542012587,-0.039503573323625696
0.13697918332961764,-0.00643421079885192,-0.15940397178492946,0.012829187579005074
0.06298472561302941,-0.00234245826927502,-0.07707217187937412,-0.035229303002016855
-0.015436294582106921,0.06590996883578905,-0.019501977946775037,-0.028995951844836276
0.03662793661624289,0.10789146141470932,-0.04991628574771303,-0.04213056290131013
0.02756505464567047,0.11944545399239402,-0.12738459931401702,-0.023716663422717915
0.07142478056685056,0.007224754800426134,-0.1508527018539255,-0.008182000844408894
0.08621592863875786,-0.15077957365948608,-0.05582643206306026,0.021852969874592478
-0.03746995220673655,-0.09421329281943189,0.008349403910174477,0.04101971095376819
0.07423776948624725,-0.09567700844789932,-0.03777362285005463,0.10069902978995968
0.09661217548544819,-0.09636418598863838,0.06614140065267107,0.10535850181807213
0.09912307751743264,-0.12331378294985651,0.06592274508779934,0.06790170051951938
0.1559702166903339,-0.12692355258276222,-0.013212955459664064,-0.04967989567360974
0.18926688013114293,-0.14529377009206293,-0.09052623208902487,0.05109982416104497
0.10184913846107636,-0.12310269862790867,-0.022800657970418046,0.14867957485386438
0.08668891898032702,-0.14906198284876346,-0.09259854651112155,0.27068855867416375
0.03214695973702314,-0.08299163707947536,-0.17379880422414845,0.2896997815515992
-0.022155433951546434,-0.228943423794261,-0.12057738832775769,0.22650011144404267
-0.32174059919629355,-0.22902370620572055,-0.11510597059928092,0.2727180366575011
-0.3142858172074506,-0.260440880154649,-0.4001987846014504,0.2388756378494944
-0.12517295817814514,-0.1274118584699931,-0.30534920448772035,0.148385056398818
-2.4228007149473493E-4,-0.013683334681087674,-0.08956581646110172,0.01511133654820236
0.03119469982012347,-0.017840626787032094,-7.70629561719485E-4,0.00398095245402299
0.02329299762236945,-0.02905860281220161,-0.004735161119202076,1.9265175221561527E-4
0.0027319675572254607,-0.005454404986906871,0.0020758012068721747,-0.01859470011166741
0.07561057457021968,0.009296262146414954,-0.0523121827852314,-0.09068672885656781
0.12277184557274924,0.025851868918352113,-0.11262437289199398,-0.04337419455472393
0.21464374873249262,0.09565876651769445,-0.17624170017671845,-0.07750508488995816
0.1694270007689963,0.09712870015640764,-0.20780357354941165,-0.03544297951723628
0.0764019627024773,0.06335994453908217,-0.12547504528468115,-0.029179189856323794
0.045544935866410126,0.04217767553662341,-0.022560763400892216,-0.09371746600773263
-0.03291810593302405,0.08307091986968132,-0.01022166284989632,-0.11704304573848034
-0.040148588500946616,0.09452122253362966,0.005958096706309699,-0.15980943089201896
-0.07665063622824984,0.14106817354047818,-0.0021455266224024053,-0.0023474965339853704
-0.011414726115702137,-0.014359280608401607,-0.17709085378556774,0.049446811661619385
0.008565058917922736,0.05632274348322159,-0.0725730791806862,-0.053666400026414804
0.16834195255541326,0.02953686962782768,0.09671009312980115,-0.05427440595372405
0.32942571283378475,0.08231083666737155,0.16592051533973318,-0.07430297271994464
0.2938220723570807,0.061516593390472336,0.016708203998350244,-0.05508321195949441
0.348764900349433,-0.06813444820158035,-0.09021765364552195,0.019624305422350302
0.18820125617608127,-0.05072884518719126,-0.06269352456655444,0.0689355259177114
0.1767496987278034,-0.09638490440884868,0.02447746114505053,0.08706472354826035
0.04257041764772295,-0.11880990115545677,-0.050783836091556414,0.17431698838818194
0.08050973066819797,-0.12075633704336006,-0.16022267834199727,0.2991127396201239
0.10588356305858976,-0.14404997816371864,-0.06448466190272407,0.2583021068115134
0.06756641328131897,-0.2840779692924921,-0.17608769706885521,0.2990870421437653
-0.18325705698401695,-0.317547514109803,-0.1267918988165525,0.34532538661133066
-0.21205339460166683,-0.240476086304781,-0.36813842824618015,0.3185447810004441
-0.11644736229765007,-0.14548571233647886,-0.3317123161707536,0.15621298623206098
-0.009543082986308495,-0.0588058877935672,-0.08876814113015034,0.06705224353668247
-0.003739630095930344,0.031049598802283206,-0.012656050461742101,-0.004499073924063416
-0.013525941945190538,-0.02658865890730957,0.034956881415057546,0.03552149219990489
-0.009105605997481832,0.03739861569523482,-0.013512862584171994,0.030412577889075403
0.08778402621710871,0.0668151176888615,-0.012340945893436435,-0.07346903246791253
0.14079609724595846,0.08344368171543526,-0.09792632436737005,-0.09583349360469388
0.13858118953844653,0.11835381909161703,-0.26100192639786046,-0.0684091924452878
0.08947229257921499,0.10859184965327219,-0.1650348570571497,-0.10085644438969985
0.03599986974110261,0.024163293070818524,-0.0634244819074075,-0.09691784270141715
0.011634827496028666,0.024780011985976458,-0.01030620287472741,-0.08918659806585433
-0.11160525213773076,-0.029595361118542034,-0.07965849468934612,-0.06562528638752625
-0.19870173763887505,-0.043162640434701735,-0.032190646547471585,-0.08072295327812942
-0.19996836884422894,-0.015460757996983897,-0.08354762872522395,-0.08690257018946544
-0.31004735267581407,-0.018110376751490815,-0.06817076251869116,-0.029943670683306608
-0.3709661637529983,0.06742684581789975,0.0019870297749370563,-0.21215123878428335
0.10039093471427142,0.06998115549617898,0.07201380719579757,-0.02894418603224339
0.45000288268181815,0.06146314727397656,0.10625331157345402,-0.06802715682688053
0.3459197866105682,0.10008343021983289,0.06222076755157022,-0.10703555178882951
0.393242304587084,-0.07275811075293852,-0.23845475670969987,-0.016454595584264806
0.26739679246426207,0.045468911874529845,-0.1640446782877889,-0.07222131057664376
0.19296741979537765,-0.036900577524719244,0.047764569106937715,0.03505475238609715
0.26710531231982715,-0.05796089304593695,-0.1151463449629934,0.14646970213205635
0.24335250853000603,-0.09113240764170236,0.05006351137468449,0.11152507464820366
0.2092753892836731,-0.15084023345441114,0.029610222343047207,0.08220759750795952
0.1201202734455829,-0.2248139446310877,-0.031842183408662905,0.21855512238271566
-0.04697799350337298,-0.25486330268880864,-0.09583661165472983,0.31803857119412393
-0.06596314100276299,-0.1766793422605906,-0.344619772347294,0.3203692220026635
-0.013935928425510804,-0.04234016487588498,-0.3084200016793011,0.1167603844550938
-0.02717676633138226,0.012844457163025931,-0.08759614913222016,0.03890678089187701
0.0036684762664711953,0.024128269342128302,-0.0016288304018620974,0.010544979730488731
-0.011455422390129802,0.014512585284789131,-0.03395657705135676,-0.026206958061368326
0.01817253830459272,-0.0024065792393362707,0.02003753052939067,-0.03839706811542993
0.05209965061680662,0.026797886866071045,-0.07805440709071418,-0.02489327360344348
0.15233929523222042,0.06437755225402657,-0.0967382124342205,-0.10006194240162575
0.0670904724125918,0.11509169672174129,-0.2254397009504244,-0.13360045893314573
0.02711771833406873,0.10101606427773409,-0.1491760763827336,-0.09609058957709248
-0.07233941426664478,0.04245170111679804,-0.0389069498279484,-0.13808773435362243
-0.16286477474516203,0.028593702985120845,0.04318015199299546,-0.11926990461214473
-0.3332757077367715,0.07205351214163107,-0.059415552633046716,-0.04939992324274559
-0.22187088184710513,-0.07359133278559196,-0.021132047517354258,-0.05534844548101927
-0.26794784072409344,-0.05631617849204502,0.08401503249703535,-0.057437749582920875
-0.3989181941993613,0.06768892930900096,-0.13079996212661846,-0.0511401039350181
-0.2831317943147277,-0.017227148288105062,-0.1260140578534209,-0.09239059068288
0.048474267990322915,-0.11463720067034708,0.028741384577036424,0.07369710149926711
0.37296953840964664,-0.024346324133167223,0.06164292859167092,-0.03249846771940145
0.2867840124795617,0.04290576235027483,-0.10666091838300731,-0.06579990274920111
0.0960568953177806,0.19423933641275276,-0.34987938976192856,-0.05843579751294047
0.16036619437761399,0.15405097941692733,-0.2624021454962399,-0.16142536682609415
0.16071136416598472,0.11485136946191551,-0.12001849644380087,-0.09489514245439358
0.12539118308727287,0.06004825445087445,0.00924987119173757,-0.020146415607213513
0.12645653428486336,0.017871869914217964,0.10509855238456191,-0.0370915217768495
0.06212124431951357,0.016922323781591062,0.07004440106870877,-0.07052493878457813
0.020587728204651087,-0.0572301306760309,0.08385664594689105,0.047018950552428704
-0.09172867031135983,-0.13453205516708064,0.12631789409205696,0.17363584927646944
-0.028265986568081915,-0.05762439421708613,-0.1441855232128388,0.17139709977465067
-0.031006706340985617,0.04550237850376127,-0.22236041784939703,0.12222918478992147
0.009141636640223301,0.03211479127050558,-0.07214295137404134,0.04174191286041835
-0.0040744041327452326,-0.005771425048525757,0.006317411680365242,0.017688071692532874
-0.016776930716341034,0.020481550203175214,0.013066384332643285,0.007541719749613095
0.003976142010506957,0.020968153784446737,-0.021898601133903968,-0.014723401416093322
0.10103459759798454,0.016989986620991267,-0.06774837607217271,-0.03330347317223114
0.10727797850895059,0.0743186307800234,-0.0828590642007315,-0.10622228253184951
0.11598400699906199,0.1307896900460933,-0.2283794507688038,-0.12873624176479345
0.011764322112091228,0.07098167407925933,-0.05093486574452185,-0.16719120260634204
-0.1201562851492354,0.018604016906311232,0.09325280582518618,-0.11971498755184926
-0.1342155334743564,0.020327116160001338,0.06016044804736701,-0.16418400520136198
-0.11836479784009918,0.007878504320101077,-0.029367440620841286,-0.10309045767451161
-0.13701239693981263,0.017150440536328294,-0.07494733299804548,-0.12836324719678982
-0.1871794161538403,0.09376429889467223,-0.009478549136295804,-0.10425941886652013
-0.2769142600632796,0.11653838589984691,-0.018128198604550172,-0.07147854754524442
-0.15251216294929867,-0.10512748418154434,-0.05526510390439993,0.03390839264021156
-0.1493204454738954,0.01498714171416429,-0.09854335601510646,0.11894050366862265
0.23868890360692094,-0.05314776092981847,0.11723701038635784,-0.08135508764419365
-0.014898975165391844,0.04878735153448395,-0.08650415477207084,-0.06869280318744984
0.02180364301129186,0.15058304310436035,-0.233883456066118,-0.1540817630230269
-0.06903227036098335,0.10765339928315189,-0.33673008105259095,-0.15854600990910514
-0.04261540724083081,0.18341899135762288,-0.10557261610268787,-0.12517002845379865
-0.13506146137264988,0.14229526849919588,0.11122296550280993,-0.1573066852880931
-0.1965282390700382,0.18724918096903045,0.035620536491650145,-0.09375007714735792
-0.20310990546794802,0.15931769333785256,-0.0045827619135679854,-0.07790148953719876
-0.3582236790705599,0.09767971786690322,0.2720051812285014,-0.061026024323529805
-0.33259492957795483,0.024273391366486704,0.4050860642021491,0.10572226600826122
-0.07177402546897522,0.0787209991900088,0.12136281791946493,0.02705732729791894
0.023432528120475058,0.02684038731323209,-0.16579324740084256,0.04405809093828061
0.033920709130715855,0.0017432760908141917,-0.03799831733610775,0.005526002997751785
0.001247609351951123,0.008499925652810783,0.026755172229130677,-0.006917484854077718
0.033792656557849375,0.020005849611531186,-0.010716788624005756,0.002141744368404597
0.03535297317155648,-0.034888619347544024,0.024684402841874325,-0.014806874607544747
0.06261521424385506,4.1328826505382296E-4,-0.01725159427399486,-0.04857313167798764
0.0942702251669996,0.0040071587038927525,-0.11767729107120072,-0.10277538709405881
0.0444283444022815,0.07924026698098884,-0.14773564985149606,-0.11374808836142643
-0.04089240652201804,-0.026053992256653988,0.056796415004305885,-0.06419660022901191
-0.1160114955409436,0.08519341307467959,0.10710040135662802,-0.14046067253373012
-0.14107539322975918,0.0736909185703788,0.05422596756824195,-0.23479324426703072
-0.056662422504290634,0.1393785940275564,-0.02204587793151428,-0.23708731638111025
-0.20618871607425235,0.16829869850915805,0.02727330564148403,-0.2695202719145314
-0.14274016434748318,0.23318467595578737,0.096994377542274,-0.30294649789205214
-0.3230860261407979,0.15700545162935614,0.07241157347085646,-0.11572507649846059
-0.13291298009740782,-0.027230812172438345,-0.25280690077980805,-0.0072131780015424335
-0.010316340132936056,0.0761939423386649,-0.167533185354788,-0.054809214789938256
0.2370065116070761,-0.09753599955597227,0.10426983421767608,-0.26001245082627583
-0.1385239971676437,0.13255770249256008,-0.010589002361193192,-0.18192786962822563
-0.09484675263340675,0.06018280667160924,-0.1279040774869415,-0.10724740135632832
-0.03632138204607556,0.16269221724572203,-0.4985614315786134,-0.14728605131066158
-0.06594445121660515,0.10104013751242502,-0.10744196937336102,-0.1631308096300619
-0.11131831948458284,0.1691294276225122,0.0785677841283466,-0.26520208243624327
-0.10267217222192482,0.16912185406722247,0.02350724496438575,-0.13913311569241216
-0.3087962017470681,0.11846862775381012,0.19321627503586078,-0.06998023769737392
-0.4195286239133824,0.16474734321719703,0.336739776616722,0.001349416912605017
-0.3064608579182174,0.09840512167032654,0.5143736570096843,-0.015301073909526793
-0.024495912583538126,0.07063998957138762,0.14382505157871034,-0.0788072413919899
-0.02882585628876317,0.048699948503634224,-0.1732495661229278,0.02728884305454204
-0.02615203966987077,0.005201097285328326,-0.07678623744691099,-0.006826130488684015
-0.008356353001908973,0.02042792464860836,0.012288041819759737,0.01822175568292396
-0.021147741335569206,-0.03141040878908271,0.01940727888269787,0.03445193515878668
0.013870272291536066,-0.014468532205774313,-0.033373898242470605,-0.013726653196222014
0.03104676148324532,0.013343839913973227,0.007198903075476178,1.2414368238938735E-4
0.04014096256940428,0.034333156093714616,-0.07806905647709302,-0.0554443463122489
0.0649278154421702,0.11526716695982707,-0.15279166399359978,-0.08038368203819612
-0.09260080760531147,-0.0025293889434990636,0.0714654922216996,-0.01280990469078927
-0.1436134338370145,0.17489754004409794,0.0634641599092679,-0.1677325980554141
-0.1111434700151284,0.1838177741624517,0.10272804666832348,-0.3181168188832308
-0.0670590140374305,0.176141689615032,0.16571820505802698,-0.27585196874064516
-0.09748458961183204,0.23097018693717458,0.07016177953549456,-0.24875470527859278
-0.2920730576592309,0.20909796434508623,0.21547998467157958,-0.18032715925654022
-0.4109897126839414,0.02431434228178317,-0.04831836529780338,-0.024037720597989063
-0.22759502214665686,0.07483592058328048,-0.4139646674059235,-0.19214804951413153
-0.14673062269215692,-0.03823111888458839,0.01175682191910917,-0.034704720912632256
0.09590730812433221,0.004461119093533448,0.08292405392763605,-0.16170879443002442
0.05597051000082374,0.06675041106018402,0.0847355432244367,-0.11549770373171278
-0.1882267185049013,0.002071024175573112,-0.1322281474804876,-0.03372845227351163
0.036929067914802584,0.18337529469438435,-0.5093664776615939,-0.18064608098703502
0.1831859515399902,0.1939553673835063,-0.07724527973173104,-0.3107627093716915
0.15037890818003732,0.1642480838026773,0.02167123616997367,-0.3769783261544972
0.09664070946498227,0.11264047231057676,-0.013464900088581316,-0.1943900081890711
-0.04724826044602533,0.14623289867530437,0.12044708151485028,-0.07831175862319803
-0.2282135198950394,0.2216284126487405,0.27014736627441294,-0.06416355617566903
-0.1316279455111255,0.0994474842929506,0.355914753164685,-0.09310094476701888
-0.027774559498329517,0.015755722621758596,0.17292999500233086,-0.05028188114559109
-0.010026847685480702,0.038943129491247036,-0.10056286848756495,-0.02557341730064983
-8.47075497547996E-4,0.014266930387258465,-0.07253737632471813,0.033310165713690956
0.017943872491653072,-0.008715313047362278,-0.020182664094683913,0.03052981596865001
-0.03138576702455962,0.026494229358055198,-0.026441196474983178,0.011796572809025983
0.003526586590496473,0.01901607342200363,-0.02882926883044883,-0.0013615328107310103
0.021203167072075625,-0.009321531803047345,0.02706015845926811,0.01800540239468568
0.05998262480746041,0.009100246749984777,-0.0681355697710463,-0.015804522253295025
-0.020365173966264596,0.059936755849516826,-0.07923422363795808,-0.008392248710880441
-0.1306817653576327,-0.020340556426585985,-0.036324397757201816,0.02355517319086167
-0.06803227722300018,0.15920586096957445,0.03394366280877118,-0.15862392633881664
-0.09881668676043943,0.23676117912791922,0.030463972329961873,-0.23950672269178078
-0.176869191704501,0.10509163849863927,0.1317135979141046,-0.162474281828344
-0.160806553520316,0.17967171632990825,0.13644812932799089,-0.20352773525402046
-0.1665704109555465,0.08666538752496282,0.2343894846863159,-0.07221314336966249
-0.19416441417193295,0.03284027196601739,-0.1825162970479526,-0.141334993816113
-0.23266830562907978,0.029182179169799982,-0.33852127687135164,-0.2227667531276109
-0.22316407329579363,-0.06704909897864586,0.0671783636245188,0.06803515711645304
0.16975140956578527,0.16728762939637107,0.16313776789835346,-0.1597284786852604
0.07776381230999034,0.06794219574453635,0.09923950300715535,-0.04794795005657992
-0.2538221040135229,0.18136664365343758,-0.22420044698641098,-0.18557630592698984
0.14262521813871382,0.2937577049755401,-0.42069293109256684,-0.38842655693164235
0.18261501904163993,0.1836945399598277,0.03589738716134377,-0.24803343792969593
0.23545321054612156,0.20350896232864069,0.041931106508113804,-0.21281431994562877
0.2616377558908585,0.09123010100367912,0.1450169378637147,-0.06217541455619253
0.19561584708267163,0.10756507019324396,0.16382526207354234,-0.08616881645463266
0.05310860259561531,0.22567336942915905,0.07643711473043152,-0.1098097862180925
-0.04818032836886461,0.13828784934189767,0.17404387832175197,-0.09789187828552258
0.013954817604355896,7.132584909205874E-4,0.05422572142010487,-0.048864314273214186
-0.02765602394757113,0.005808861690515553,-0.09410065985982212,-0.0019338016203575216
-0.008689271062558367,0.04022665543664071,-0.0589146379878863,0.0028320565841996473
-0.01764941111143024,-0.024290762774705744,-0.03422950330547563,-0.009598024088864635
0.007105451304390635,-0.02249130381233436,-0.03377000542664044,0.00507182148707234
-0.019862890972587314,0.02261695568105323,-0.01956410607723519,0.029507756946930273
0.0210855696410404,-0.03644844175434836,-0.040065340308443165,-0.020591714104405558
0.08238895702715304,0.035174354591881764,-0.12372559662177877,0.034216769806949626
-0.055495199953560934,-0.0152791210596561,-0.102008234839932,0.09094150625698719
-0.19923132141578162,-0.05527503241989333,-0.007951266647516126,0.09201475888094471
-0.21550444416325504,0.08076783630407164,0.07032870304429785,-0.09119193930155217
-0.15727775072823852,0.15975030906544238,0.04145608253649298,-0.16386770018918687
-0.10694143691408599,0.09961942266220476,0.006488500224636128,-0.1249079608597453
-0.1857282656663643,0.06912466399674662,0.11195246642120253,-0.09492001439104325
-0.24777387574035697,0.02855360290967143,0.057931868813641436,-0.0904527927062518
-0.2074206476260506,0.012796849314842656,-0.1771198703768512,-0.2625804179243732
-0.24075135802094125,-0.09243528860024465,-0.49660065689973615,-0.045955947201802946
-0.08463433078816239,0.04763068934824303,-0.11028953646694051,-0.09572892110832401
-0.0013501735209420552,0.14776594365994833,0.1472235168057321,-0.26033054575140485
-0.1432478560302306,0.16974684519415095,-0.1418189759704277,-0.30481618793138887
-0.109408830984488,0.22130819634282786,-0.4559234302032992,-0.3359336863370641
0.14720824573928468,0.17048809974694532,-0.30731342321482696,-0.24929698105738166
0.18183408486413108,0.10699668805527078,0.07946235974093165,-0.13042474114956942
0.21876104280913364,0.05436900385684733,0.07753679682184672,0.0038686244663121198
0.13215452165707492,0.08615557023339065,0.13419640125245183,0.06368880939593868
0.3102445534477887,0.04089552990729954,0.06426208754531108,-0.0022786202782676813
0.15070766273973144,0.15543397139321458,0.16493034626253805,-0.09273799253749365
-0.06510819690908329,0.10034578530281965,0.16811304031675714,0.015799293306649427
-0.10885830353035282,-5.608728751982611E-4,-0.029872520350822152,0.06153213097978929
-0.08781934547420128,0.003220455555185694,-0.13961583531950042,0.03700444182898621
0.008510747649219776,-0.008296284694761943,-0.07089187275588107,0.04220028615385614
0.02165417824123744,0.022803981515012648,-0.01799456966179382,0.02102688245370625
-0.012310420332129382,-0.019328372641648384,-0.03102013296136464,0.003186972420813061
-0.01982744710567159,0.009307071927492677,-0.020560767590901842,0.022820632959122577
0.024459013672779563,0.025656433286035125,-0.009256671853227654,0.010707706572234391
0.15051511271442167,-0.007754764486007942,-0.15765711466648338,0.059952127999289326
-0.002320257456125634,-0.09341299171130628,-0.09364328558567678,0.141736951292781
-0.24980097979597896,-0.12269334997689552,-0.014769708382065788,0.14985594449653347
-0.3657656807088557,0.06163985920287883,0.029886757733193485,0.026439596243757663
-0.2620046793741191,0.10895020238107928,0.02741378289685201,-0.06024802695091452
-0.26893196858006285,0.08967299259054444,0.10863638388369225,-3.104902528581918E-4
-0.3318634634023101,0.06889274356013889,0.012757857903941698,0.06572101473276142
-0.2364386104604175,0.06777296613255913,0.09995461651955687,-0.16707000582072937
-0.28746798828904835,-0.04186913841363961,0.00598960831683267,-0.08538232169322282
-0.2603675249008368,-0.062912445682354,-0.2090400579889068,-0.09417647294737114
-0.10226571216911001,0.14915899571499092,-0.1009262624856944,-0.35261309026010307
-0.11673487256899395,0.14645879228491002,-0.11992370755336564,-0.3814099144576323
-0.18782117495700096,0.2818595445425865,-0.2267333072741414,-0.413097165558989
-0.031764322511542535,0.05826196878546321,-0.2629079272992123,-0.12990545285363286
0.10982971531113721,0.003485324097461507,-0.13103020741879734,0.01484225535303483
0.028386094893808902,-0.017687964063509018,0.1503239235177349,0.15245898053863985
0.14677294309897962,-0.18288919945165125,0.17214517542657334,0.26106343200445914
0.0770017870018179,0.019308019313255795,0.07185964390452647,0.17647891508739355
0.19393889599627634,0.036217253630058975,0.15559127648183688,0.05673538399997845
0.1354970756117876,-0.023908387709352084,0.17072333219365476,0.1227664104255544
-0.13122261231331925,-0.03958575637976533,0.1065450313987146,0.12911041084274602
-0.2094443378290448,-0.08654179968991071,-0.0752107267244413,0.12849389025959557
-0.06514352720809778,-0.06384221880654387,-0.17582146106318375,0.0669593049478923
0.005294364358166367,0.02836585876069354,-0.09705206373750498,0.035684352497698954
0.019041622482775397,-0.015030594912746536,-0.010800385160713221,-0.008552575222146306
-0.020035733198663027,0.008328973471303156,-0.011319068765578475,0.03321371039920257
0.03582384486929312,-0.010003496886239726,0.02051839648032652,-0.030834832477264092
0.05925922549485224,-0.010279443793605944,-0.019435261060280165,-0.014793256069404594
0.24622851545683613,-0.06363804637716103,-0.2271076643070445,0.03786033166844812
-9.990407358371704E-4,-0.14391408864259425,-0.04586798400219166,0.10706608464319982
-0.18737802162664663,-0.18718860408127294,0.06491701775976554,0.2698050229459881
-0.27454433685225627,-0.19000561387382883,-0.07515469272492965,0.20062938257621846
-0.2732074799854272,-0.11995047842858836,0.1110501899649566,0.14498171887271924
-0.44036642486234284,-0.03968779700715861,0.20881112106017624,0.21598901271487417
-0.47397707453657983,-0.0017632643247122034,0.05004858940630426,0.17226672617160488
-0.45746952332937363,0.03089895591391996,0.14454648318997826,-0.032755655415271784
-0.472546654849589,-0.10140829628232843,0.3401906518218105,0.04569801896559488
-0.3364948508057429,0.033313580342191076,0.11980547837677433,-0.08457920925293044
-0.08160017933735783,0.06476949370079028,-0.06602517394587096,-0.1793748140592163
-0.19739096893679625,0.10848164036327981,-0.17107238296786378,-0.24395669884085838
-0.12583200884153872,0.039231607764280675,-0.17777757045383,-0.11172551548622131
-0.19692050242810719,-0.1609237157644875,0.021145054380339104,0.19641908034564287
-0.07954657786093892,-0.14149757358167298,0.046818838758046266,0.19066015391243726
0.027731398251946572,-0.192065235426239,0.07152585309305108,0.2426930041126884
0.04859805121617871,-0.09040771321218162,0.027528430645463123,0.19096605125807825
0.01164516558032755,-0.09545016177327899,0.020345337919091096,0.09549065261754715
0.08591529936804619,-0.09788794528532727,0.04017486525085604,0.16930868607756788
0.01497890804130943,-0.18872677962658765,0.042567029071339656,0.24826909248229212
-0.21096653271413285,-0.16218907000426322,0.01730856962389351,0.18833084962778923
-0.2944704881339915,-0.1374283632775938,-0.16527921802859702,0.1968783039805804
-0.10808596048199993,-0.06271541115414786,-0.18114341161796163,0.04723678570875802
-0.0235184701067046,0.017292116216631598,-0.08463484412670816,0.007763832356324218
-0.02568587236919232,-0.02697473346620512,0.017875702314113163,-0.012142173801112972
0.0265734748960292,0.01169160317130227,-0.011859973188159307,0.007111820317807004
0.007293195685395935,-0.026368422666360098,-0.007928669047535676,-0.022097943238718377
0.048138570899552036,-0.02134472623469208,-0.014809514986456681,0.02432762246518717
0.34236370174083547,-0.06779798324077925,-0.24328607145822861,0.08317988850531775
0.1285724997620058,-0.17416101802082068,-0.13273462988831952,0.11286429975798928
-0.07383751690869311,-0.24356346978888502,0.05193121409897157,0.2675034053626108
-0.10502641499024408,-0.2997648753160187,-0.046625470403692984,0.33755344474501037
-0.06640039288858746,-0.32127973658657505,-0.005987826932606871,0.3469884642519086
-0.26519288016699694,-0.2109254927396033,0.03089374114880663,0.3574262573890565
-0.22441671261784552,-0.26893110114706126,0.05901779100596445,0.19135211449413927
-0.4167322342663116,-0.09495633132541627,0.05488897501467101,0.17558901078578734
-0.41157932093425337,-0.06083703167595242,0.46904920222796487,0.06474399848594715
-0.25401719664091565,0.010949580499567029,0.4143307851129048,0.01764063810792064
-0.0669414403975564,-0.009434286783497682,0.1953200561910583,-0.032388079175793456
-0.07573131796193401,-0.005610127338957089,0.029612868307032955,-0.03486839376164867
-0.1258142177817951,-0.11151957449322304,-0.06853314604176368,0.14191292505679706
-0.20666830885050508,-0.185718221176817,0.07622232902898975,0.197437254363016
-0.14260858012430944,-0.06150205458380186,-0.030747446176979526,0.10379282249107293
-0.05801361099845939,-0.15021680598250797,-0.0636288556990227,0.16389990280178565
-0.054640358041261335,-0.13164614752714107,-0.03363939681595978,0.08599280700252908
0.008408303414294983,-0.1632547500608887,0.007421034495949112,0.12380771870828337
0.04381149193653463,-0.1963862200969588,-0.017658997817523333,0.18682946607365936
-0.1960422261817514,-0.24042552386664506,-0.07327801372033618,0.22487931454067664
-0.2501238790806443,-0.24002167676938058,-0.12092260419335003,0.23242219087194205
-0.20145124976068546,-0.13062097590895497,-0.20493927682153537,0.09971202054565677
-0.04720231860165971,-0.024007000980013102,-0.13468700186847207,0.023714335232327792
0.026156030750126208,-0.019134674547010334,-0.052510434890322935,0.014668269422134471
0.0026953475933600827,-0.002742672363722917,0.005602149162711998,-0.030957569783734894
0.0014199981778173498,-0.01974324652520383,-0.007710321889608653,8.138943240164134E-4
-0.009166444422015165,0.00896796528506569,-0.021825502238925504,0.0038531180030576726
0.029875706920321272,-0.004171647963774465,-0.0022781019063859193,0.05174242404612219
0.30690191691495194,-0.07306805221207836,-0.18610784725194826,0.1040560116391345
0.21234901918154012,-0.19387216343114042,-0.08189971722201793,0.14958509672727327
0.032606057651721955,-0.22576933180816075,0.03229001233713111,0.2761742216333973
-0.002862357658151936,-0.3567200461093838,-0.11628443475332964,0.41075712873559117
-0.15062054491831892,-0.34616370370894645,-0.18842154204637004,0.44347085321754076
-0.10726450254985095,-0.3262924772976932,-0.14110559489752583,0.2928201242396853
-0.07065998850888273,-0.24720901898691,0.009313062280533715,0.18218458607649643
-0.01659528359788682,-0.09820228686254324,0.08632325021505648,0.054688799694029254
0.044840776006609254,0.009505561693187434,0.1807295335965796,-0.09859685897486856
0.002929049711737223,0.12493050938347651,0.32167211892961556,-0.0737204024825181
-0.01704614131828586,0.12211993979572905,0.34143148786614586,-0.08513128981557534
-0.012965933233970958,0.10027166105940093,0.17283538688851002,-0.03141237520650855
-0.16101466988735247,-0.04235769795212333,0.08161473826031548,0.0028997979351502263
-0.17047906036940053,0.004907208444984219,0.0061134045206714185,-0.005659403744943512
-0.1866068278329777,0.05704962891098408,-0.15479789954029116,-0.02057751722175776
-0.12786906618694352,-0.0952123959532839,-0.09836071170041,0.10150355283358535
-0.16730476608904013,-0.10450469462806898,-0.07356529300738263,0.1405281518298337
0.007580372043152866,-0.16787006724328754,-0.12608573090620798,0.2083077396959585
-0.1548810389400967,-0.2345867254462153,-0.06757538335866682,0.23357489427322395
-0.2581887934369059,-0.19285832653094315,-0.12144718326537515,0.22304968805183364
-0.2584406855938132,-0.14910024550452244,-0.16323091523163658,0.1258659946031022
-0.18657997769097437,-0.05557434200231823,-0.13692520634741417,0.07346683052091774
-0.027661035632709555,-0.05010206241580623,-0.10239612566530752,-0.011136633013802695
-0.035919771501367395,-0.021594087460554575,-0.010633888491152422,-0.0022809560578942803
0.01776820260196922,-0.009992496230481662,0.00523401037455691,-0.027660455499615634
0.02954705163137611,-0.03470592614012888,-0.024477500464842927,0.03214191384755601
0.02536986765140501,-0.03389555414094972,0.026725615647843093,0.004382070939410813
0.02072839068738259,0.007872793877035511,-0.01607705870832585,0.05351377398187563
0.17641737604468583,-0.09411036657567537,-0.12514495945475365,0.075381721137563
0.15066683056367391,-0.09481477865500412,-0.08503789893954045,0.14588226841151508
0.04117966287958537,-0.16070585247392297,-0.0016174144728527606,0.2952458445007775
-0.08217737816681245,-0.3055587639751093,-0.08826301466155059,0.4503935724358879
-0.22515141447093717,-0.28430791053805865,-0.13269587309144748,0.3583663342105674
-0.09528464884649411,-0.3025446208070664,-0.03939513734531272,0.18500939139690226
-0.06620987740753605,-0.1466538066074325,0.12286096405989762,0.11815756633909154
0.06363294711529725,-0.05430901693216263,0.19661453495566966,0.0068626626068986
0.005084128101226889,0.14185492445586712,0.1518619252215,-0.1421201605960482
0.053927699598583824,0.1849465000609453,0.1568683012743034,-0.25748509988595397
0.04477433283519326,0.20756675827912427,0.20684859744588677,-0.26598622173288283
0.08822363600569376,0.13084447683684367,0.2658145964855289,-0.20300942523630322
-0.01368783498075267,0.1049502754523576,0.2978852864065475,-0.15926923236340246
-0.017090780250178638,0.05472493836928296,0.12403028441662148,-0.14972460372370927
-0.15009905106592705,0.02388976845447189,0.05201532844317165,-0.06892472207963424
-0.16901405894504665,-0.09499916349556771,-0.10877069725075744,0.21559905240047475
-0.1940547335769927,-0.17967787983892536,-0.12941465309871414,0.30322406790568174
-0.19735130239510434,-0.20243492193201434,-0.0725044335863653,0.2590587062969755
-0.3329313218044525,-0.18819924382427183,-0.08715511649582737,0.20012076906904036
-0.3426481862652952,-0.1512336178414502,-0.1040781430801164,0.1600881291238744
-0.3052766967192167,-0.08625299811389188,-0.15919324252768602,0.06552493964869831
-0.10043252625342068,-0.03531222544450578,-0.07738439765944748,-0.020232734774102392
-0.04462251822900306,-0.006570611503199545,-0.04162214181233204,-0.008931316006054383
0.005845359178876302,2.908976200762435E-5,0.04155632312779765,-0.015002358104056434
-0.017704896206640026,-0.017209255671868255,0.009769142223926936,-0.03370452642142023
-0.005199633212144185,0.014732120230990655,0.028782043300235607,-0.014964102041925161
0.028249855531847924,0.006202270460973376,-0.014457568214487045,0.02457905765507609
0.055251493259015454,-0.03141556401284839,-0.025121084693766768,0.023220635959432506
0.07089293303988271,-0.013542138310112537,-0.08462476916702301,0.030608289283433846
0.14997081257916228,-0.08329167558870053,-0.15226405605691648,0.10632025222230747
-0.006524752234284372,-0.13926986724353294,-0.03168380637386334,0.24217564418679843
-0.147918812420318,-0.1917402927189822,-0.05747903360361595,0.2946465653180229
-0.03371432000949987,-0.20635607572644057,0.019514234612219745,0.20573112045510758
-0.03649676823638289,-0.19743999844570528,0.06729748901771954,0.16949053985121057
0.05723235021928566,-0.20763579310716532,0.10888300904807544,0.1916117870113384
0.10628954046274013,-0.21465876237815043,-0.0031587426086286587,0.21871734847410176
0.04060697103867721,-0.22630225704757428,-0.06309092237360917,0.2294664976266107
-0.07213607729788064,-0.12349013383353757,0.005513445398862127,0.2076505154777902
-0.04787601423597696,-0.13130209323832223,0.01546061186785995,0.1773716905242884
0.0872939300780445,-0.023019445773785004,0.1011444745347339,0.03632486872198827
0.2293145374096632,0.0019684872222349432,0.1151003587297033,0.010004753020663918
-0.007145013249965154,-0.01550599409105525,0.14923947950748032,0.02481426313728081
-0.04801084740770615,-0.038385976103147236,0.09194970422025964,0.05739207443163235
-0.15167103110991814,-0.161646292223301,-0.007958299507787288,0.272371300808269
-0.1367979028365865,-0.14793583721873735,-0.06185680345095464,0.27814213696851464
-0.2568870047452601,-0.10159622956583451,-0.11327540452318793,0.220540333726391
-0.4177654225862068,-0.04870920366918962,-0.11153953600804482,0.1718268230586631
-0.3438658368577379,-0.06445266140457087,-0.14793536904602836,0.10737240037784386
-0.2116725867304982,-0.04658629536121786,-0.06220902570677377,0.02688491375915218
-0.06773017652935852,-0.031015619070373715,-0.060214016424670315,-0.004765496826872983
-0.011108650497475768,-0.0075369662392999566,-0.026072546714797137,0.0288409675517798
0.03162472219786357,-0.027722956502334275,0.017243450458541712,-0.03390829536971544
2.0078523363334757E-4,0.027054814975523218,0.011418711384885212,0.03176032780040537
-0.0023419037342723922,0.029760447485223912,0.028270100825501174,0.005911264738292392
-0.011784790262442207,0.00497434995164403,0.010796685676529486,-0.017271631356542336
0.01717449991371604,-0.010610077067935162,-0.039445359734837024,0.0294087833017077
0.06637855711599049,-0.04818502756240645,-0.026530189784501508,-0.008803808002587505
0.13085881794126705,-0.04950783538897229,-0.1107324715915064,0.09433024360432073
0.16628373092749935,-0.0353466035291727,-0.0594860885638988,0.15563027648435523
0.04868415007678155,-0.029630158885041707,-0.006409824630651616,0.17626614585795314
0.1858075961905298,0.013240496311993423,0.23851249233275737,-0.0774413281072075
0.10000957763774414,0.011575696587750295,0.3123610141737211,-0.09862466298280495
0.1680940844556628,-0.11011503425622172,0.34534153159481007,0.08269649960920918
0.05010477765208048,-0.17045356697166958,0.24693374117916755,0.26441103193369064
0.1018580557396381,-0.28416139595838824,0.19414798010401477,0.42025581173535725
0.05416303258611858,-0.3485950906288423,0.2047182672770122,0.4663661798889459
0.023780460532592886,-0.28824467006380544,0.1405074851085737,0.4539387470600252
0.005686048166506434,-0.17216686579202417,0.22157507323728218,0.3864383949512206
0.10321748072174361,-0.1946476954011477,0.1884532222890501,0.3588441716498761
0.018425631051545557,-0.10680836898987583,0.2934600184463739,0.24308336984408643
0.12510452855208107,-0.10936644183258054,0.17909419940062574,0.11515156554835465
0.004608636299066408,-0.045397863806442666,-0.0718923527084376,0.14515894560149953
-0.1801133241311595,0.018401281415426234,-0.10575205605432837,0.11544573957633283
-0.3668586133884125,0.02876169201035125,-0.10174623334279032,0.0456964398128158
-0.33229234866358953,0.03034748818332428,-0.13150159752912743,0.09608292907258346
-0.1867529992914607,7.161251555819179E-4,-0.0983398578957986,-0.0025708008164105666
-0.06553695791709525,0.03192574363561946,-0.07767413667538758,0.04720804028764438
2.3006858558172368E-4,0.023200925302727448,-0.02027095467454342,0.016537971360760188
0.009187862600320144,0.029577151682596493,-0.0026273237628273564,0.008042303699598902
0.004728469979427173,-0.0028677466429633904,-0.005982754844196673,0.02465182170121491
0.023414934426419336,0.031841095582081244,-0.009811691059718679,-0.00225158056191882
-0.005968411099392626,0.005499126457683967,0.02756011204914051,0.010357231780256222
0.009228960893999903,-0.007653777301272185,-0.034025064160175235,0.009360561120269617
-0.00409183169227991,-0.020406102948312976,-0.026617446983772566,0.03272015539786516
0.047998156231377084,-0.0136316246238017,0.007709450589710646,-0.027682100607826804
0.07989232377087334,-0.026120656419549478,-0.005077259694090596,0.008224095896796483
0.18232139952654094,0.027739520377399095,-0.113133094118868,0.023270549298509944
0.24885277810510645,0.07861685552420722,-0.13228219866944438,0.02853467585748358
0.280419988462487,0.17798786032818262,-0.14401088675660892,-0.022388485547227673
0.22011632736766093,0.17666055505227504,-0.15802267075057913,-0.07555852668339286
0.14282179527126415,0.11831048473249853,-0.05921018208622086,-0.08775522339966448
0.07387530742721328,0.08638959996765964,-0.08575174789741864,-0.021175019710740813
0.07338223266736925,-0.026217342379262147,-0.13828032746609764,0.005923895385669947
0.03349234069686337,-0.1016464069159488,-0.08477001034676838,0.039272844427478054
0.0015672570351497376,-0.1210973006555428,-0.04284847171816957,0.1516036329462593
-0.04966555610905399,-0.10826861877261984,-0.0994384394223513,0.19361517889509253
0.04536576213136137,-0.09174982242228569,-0.0793365870900934,0.19432875859005885
-0.0650125302017427,-0.019712776292240566,-0.12757535308593945,0.11956847781939016
-0.08411646802896451,-0.008436987230088828,-0.160122274292455,0.026976039189297876
-0.11101024950291778,-0.023739503724410846,-0.13944142212716085,0.019168134829814266
-0.17107121286707563,-0.023078320014658434,-0.12266840291198985,-0.026446012794590773
-0.21765072026275645,-0.005629964267792876,-0.06674020383951454,0.015182331347216233
-0.1815562832379868,0.019182749461863526,-0.08387964477198895,0.050988669147493365
-0.10635193838997782,0.037516255812919244,-0.07435468760916691,-0.0024267685012283047
-0.04628588576947476,0.00453471342241812,-0.06021026561582112,-0.0210476529620741
-0.022742255755566782,-0.03586237673739304,0.013035774147297766,0.004266916905267723
0.025435562506193058,0.013541485835887851,-0.013358559132449642,0.004954551625507397
-0.009671963247505223,0.011769963863171602,-0.009588767837945714,0.02099672362880401
-0.02353414015836447,0.013764162770041347,-0.014379034877161401,0.032436192929721774
-0.0205431083581663,-0.02212547113618353,0.009341342916596933,-0.03564256109296116
0.014820910225890785,0.02210061479258136,-0.005562852478708351,0.0010468119780996585
0.03395816646638457,0.015893467981662947,-0.02816860942662241,-0.022509514403291932
-0.012760582900660893,-0.009989087947686943,-0.0150299855203657,0.008215731385863716
-0.008127856091488372,0.03558431806114788,-0.008609918780009728,-0.055136358771988414
0.0784351400515677,0.03749866029972942,-0.08708676753110264,-0.056407047697058496
0.16756239606511816,0.1630437920603322,-0.1516228616155543,-0.12638884423170274
0.2506732158872283,0.2655369504471631,-0.2602048854106258,-0.15589982269765784
0.37527824125390974,0.29799238933655914,-0.4327435179964257,-0.20637266145075533
0.34526305675170943,0.22802674574235582,-0.46792987628015964,-0.19876574294939092
0.2552936684360232,0.22579109976274642,-0.6021186988818718,-0.16043741542197396
0.29286184761427264,0.20105755486818241,-0.5278302355884084,-0.21743813148281152
0.2604891291811761,0.1748912420689954,-0.5460308910688869,-0.22139745127514254
0.23102627959690664,0.08357980698270907,-0.540046050498388,-0.1699596841243396
0.25133550209633365,0.09664893416516973,-0.5515633544450224,-0.15008254202911378
0.15091764105452277,0.0630229376416205,-0.5162868440160938,-0.12164208963654213
0.09198096937871442,0.02819126692144796,-0.35812200156027796,-0.12491931397794526
0.056359302338639575,-0.06281689753809257,-0.2576577067524759,-0.11072921038206542
0.15985925335901194,-0.14143926361095105,-0.1629766786394472,-0.08665433152636885
0.029897748383695855,-0.07929905173153251,-0.04985604379701137,-0.06962810702254021
-0.061239493244914824,-0.07723734396025933,-0.045398576743734535,-0.05395240189456686
-0.048703391107157906,0.007881098638036715,-0.062088453413790726,-0.02441080598425217
-0.05042472790870467,0.025223118095860125,-0.024606596745223544,-0.03085950899337978
-0.028072474841031675,0.023230669086077474,-0.02646696911001631,0.03364550772843861
0.024382478708805385,-0.025613726690742737,0.017758579575617075,-0.031132084206519306
0.012987503324947617,0.0237677030899835,0.00810202952936977,0.019042764832408077
0.03443146067586352,0.023830362013528554,-0.00627796534465976,0.018820065298403767
-0.03412766417481484,0.023922314912539433,0.01891729670962978,0.016096721532614974
-0.0031256894225100487,-0.019442632774367665,-0.03129312737819252,0.010171517819357517
0.03131392372439708,0.0064105325285648065,-0.01251205039342334,0.014379242947069541
0.012082960031572783,0.002642044184288976,0.004328106813237552,-0.013500686321431966
0.010066273242538008,0.0194923689583337,0.023527842575401324,-0.014352192517384978
0.015870951326421894,-0.03385155628104497,0.015040892355867384,-0.004695712425219447
0.06701073353497732,0.01568684842800668,-0.04176079565973919,-0.004735200114682213
0.1228825240668797,0.053420588463736395,-0.021068915849944584,-0.07892747306718059
0.1817680408988455,0.09006054143514997,-0.12178058167676335,-0.12075322333912131
0.22212339884082408,0.057567801393242406,-0.12983622311556986,-0.17534881634885127
0.20775948686729087,0.10506781359169472,-0.15329641191126467,-0.20671296538667788
0.2159861497261833,0.11111628082620484,-0.13192410393540388,-0.21017313803553295
0.21019352751099768,0.19722087036244088,-0.15263469673329272,-0.25230834580605255
0.22357716052886797,0.24175363034612454,-0.17620837542399304,-0.27121406542962306
0.3159977218023588,0.21091770611923455,-0.17192504891178223,-0.2242639254985424
0.22249496948932004,0.20592430928871902,-0.2180250006581152,-0.22977621259590617
0.24159730108303945,0.12742059318196447,-0.18641069697323573,-0.22017967282305298
0.2554972866419372,0.08893562503070142,-0.1284581333864417,-0.16917549259095646
0.15775550690268084,0.01655109398503543,-0.10994196889468852,-0.07460830164655259
0.16129362005242515,-0.005910133900936981,-0.018593961673303863,-0.09084875356801372
0.0707512090896917,-0.04025663423969839,-0.004628163190311899,-0.06271135686166812
-3.40222292894961E-4,-0.03636144670306684,1.0813121423553402E-4,-0.011711784561804316
-0.012293446739768848,-0.042553429323074966,0.01705963347455363,0.026995662492234698
0.008459998278552597,0.016969393693493214,0.02733414773122116,0.005775291157101007
0.03400091748786744,0.0316774966952975,-0.029634403972418216,0.02816064156199728
0.030688531703614012,0.019673851576111224,-0.023711790603229223,-0.009003067401908165
-0.011465482865087483,0.03158724058043478,0.022198594236866535,0.011616589235861953
0.00492337862242951,0.01915881468058741,0.021461892285656224,-0.0026041673254963427
-0.01609066836708326,0.005569303344734967,0.032836524988315616,-0.02275580080384467
0.0034076772850571563,0.027807196307898727,-0.016984639543615215,-0.01109025111444139
-0.01924454905396748,-0.001179823148549232,-0.024146113004436896,0.013909369285060917
-0.012238577862085018,-0.014935473214053727,0.02167061770873005,-0.019767387996511128
0.034308969209837864,0.03374760594671168,-0.015841933475862824,-0.01707172847451406
0.03250095178565904,0.022073175021820674,0.0020223644119998683,-0.02782535976695655
0.024583970348052216,-0.027658841247523894,0.020706029505598245,-0.011002937095101386
-0.0202566080603391,0.03353272306779682,-0.019468221850791865,0.012105823507434355
-0.03028258367628204,-0.02761238399439138,-0.013099332680701245,-0.029165131212749645
-0.006737323548750743,0.00947294292857397,0.020367497720976395,-0.007017538361805673
0.04033164621925946,0.035262777676543615,0.008909817520185529,-0.04515964631024164
0.05855299414433004,0.019213649482800688,-0.045149283451378766,-0.03625127760667691
0.0010814983743975598,-0.007513359761073283,0.005188082320207536,-0.009285040847536596
0.07088671769048178,0.04244970121029171,-0.06878795301052422,-0.043792943990353196
0.1318714445136507,0.0046973273178774096,-0.056865478968344325,-0.0499248221622976
0.1354496909294068,0.009041774044909148,-0.0670747962078966,-0.0418621897349885
0.11298505956803459,0.013158520912853803,-0.06421538622362123,-0.0114820700295116
0.06486139904299794,0.02054227728192781,-0.018004690165559174,-0.0356321678554128
0.08761969158514253,0.045320303843518046,-0.0070678636240508515,-0.029312274777303554
0.08175420816473528,-0.013933108135286783,0.009060486815770865,-0.025241554916828102
0.056067192637243295,-0.03235396720606963,-0.02589830571599739,-0.03662303341465036
-0.027720547276984846,-0.004812411470999688,-5.818506033776255E-4,0.012392090717133602
-0.016084511269208835,-0.030835101050326927,-0.02227598920888999,-0.03521381688352703
-0.035595384160189016,-0.008660338365485323,-0.001600699415641032,-0.012409054795674368
0.03102414268930608,-0.011304663409670068,0.023157958502237622,-0.01856978657793977
0.027742004092350878,0.011013186228878986,0.005983400503500436,0.00815549390679178
0.031152814568740556,0.018324310281190435,0.011512623231874422,-0.003159542160046526
0.010293865911220342,-0.01076233694885968,0.011772881033240541,0.018217421038663147
0.02178401291989844,0.017332125614538063,-0.004275724681272387,0.03248230908582292
-5.617445970987826,6.526287433422562,-3.0477646925697357,6.369211003495569,-11.91279762500767,-1.5147108728183007,-8.991186756593285,7.500707418192041,-3.2637052413727536,-1.479328150255677
-14.560823721616833,-10.662392550513923,-4.180310067069335,-13.911390833498134,1.4884905707273048,-3.5265176156542757,-3.0764123866584,-3.600849305675438,-3.483907018316158,0.004322922384610493
7.0848528004594735,6.828408747689566,-2.54954096454011,-6.498040388784523,-4.444093009135821,-1.3924652520800045,7.776497626443247,-9.82219399408893,-2.850955590032435,-7.891267777138309
-3.650133435366418,-10.616452447830163,-0.07870200424517504,-2.4364259624123807,-7.551488423997823,-1.1096358048982893,-10.377315506837125,-9.805023200772556,-0.328860806314809,-3.385882932621419