784-16-10
0.012978451001185429,7.205790794266656E-4,-0.02260222625491754,0.005477753380636698,0.006717581641867934,-0.0064226146397624514,-0.0018062501156410685,0.01815261901189015,-0.014458038684086332,0.034065175606440415,-0.02809733576995536,-0.006093801741754071,0.013342031318990394,-0.029672871656538265,-0.03333539942768169,0.00761424038807762
-0.01152304344626548,-0.003216454640241402,-0.008238585038065398,0.02268453053044516,-0.00861337750807141,0.03472153336684515,0.0350323300108009,0.013009093467037408,0.016566251995497813,-0.008359696607839188,0.02872581597263546,-0.014715577480000304,0.007694460145372929,0.02150454289690564,0.029013734475203876,-0.004133898524270936
0.004045538444319187,-0.018810142297987918,-0.019638341423281507,0.03313791514672365,0.0028530191504977723,-0.005469624906569652,0.018548440276723047,0.013774973447001806,0.03139241888997883,0.015846453847565917,-0.00982655546137079,0.008799067244191786,0.028672741628893772,-0.03201314705818849,-0.018282849565066015,-0.004858664675351412
0.01993741745694049,0.02601808520217875,-0.0318961094968253,0.015187635874563017,-0.007655464047453216,0.008058847163233664,-0.021824651783751575,0.03164174865689899,0.022362332332751,0.019245252015857653,0.002210199369616306,0.028241553540809122,0.03379863749855816,-0.0255664318630419,-0.007638016106308702,-0.01096287264044881
-0.02307398719525279,0.004689537491832728,-0.03504419718820855,0.030331412820841813,-0.035425216962351284,0.022120953451772056,0.009256848430440077,-0.01594370117648201,-0.004389629962407424,0.02403537184233412,0.024642976815014823,-0.009278934937611925,-0.014349692059284148,-0.02130296322202431,-0.011108978676889234,0.014952944255367494
0.024003944913434445,0.016087089190955854,0.0282362590340461,-0.034453747814433784,-0.02161731280593944,-0.013021254814283106,-6.573534764612449E-5,0.03202644206880287,0.029403208758185403,-0.03433791870416336,-0.01433489586983494,0.03169903406692408,-0.016613681957206018,-0.010951439535226076,-0.0041429542360486085,0.0012113086303035397
0.027350227617227704,0.018792752867477808,-0.022598620510156153,-0.013210207480677843,0.0161901393290578,0.00573512437761909,-0.0034019779140510575,-0.015967458941189203,-0.013334405900902593,-0.008338572943552485,-0.019836871507859715,-0.005349131378962844,-0.00779928788797089,-0.013958424530952997,-0.012628537148129702,0.015106479662762726
0.003160485415559307,0.004561204591113664,-0.03297693753626583,6.041251368406053E-4,0.022527697196833216,-0.011437586214735125,0.015899379922199426,-0.02004286756526548,-0.03473630134939471,-0.004962831394332259,-0.017051802913117045,-0.031064680026139633,-0.02471820060375706,-0.007596078421032326,-0.020772443689620217,-0.02764533336368566
0.008384959604239968,-0.019459457373949097,-0.014560808029780443,-0.021426476327530766,0.02644757149467592,0.028082363152803866,0.012060834295324237,0.011193906884984534,0.032018728876522726,-0.026307682568838253,-0.02428096288442006,0.03396129117835543,0.01897879556393555,-0.018917678557361824,0.017454297283436677,0.025067188255076353
-0.029165777159282,-0.032448502692074215,-0.026104751367458018,-0.010351973910802819,0.008298803859959007,7.170116073795668E-4,-0.01427860233841063,0.01605127227086514,0.004128466755494886,0.01904974473833964,-0.004402742788862865,-0.03349734436483181,-0.006490547664114221,0.005221133007345079,0.027382618525276625,-0.019542795942824834
-0.03190917659007615,-0.01527002198956964,-6.528913278629062E-4,-0.023852948862512553,-6.665347223386506E-4,-0.013679361043433456,0.032939672759480315,0.026152203309742925,-9.51280066978151E-4,0.019651405156588996,0.019224003857735504,-0.02718720078501574,0.004160391833512078,0.00884275254374782,-0.0010111822566314446,0.01893996708792075
9.013093822335255E-4,0.0345253235023094,0.03415499864438715,3.4415091300775413E-4,-0.026213755128548018,1.836613964446704E-4,0.028475970881691598,-0.030734304589412165,-0.03515588615722848,0.019077929025289757,0.0324166468118076,0.0018504742172722397,-0.02124346856621682,0.02651447307024358,0.021772554842970318,-0.008036052329653147
-0.03150398847412789,0.031048850642769094,0.008813239113584146,-0.014681620469631116,0.002672661208087644,0.012343586356763863,0.026827662509877465,-0.032273910907265814,-0.019777205900773153,-0.021162447284268953,0.02329437264123279,0.0038835373773096174,-0.031347778710799,0.022276390819048468,0.03297862101781276,5.541449413109099E-4
-0.027226065443506284,0.01853387131877015,0.02533810003407182,-0.015024596185433293,-0.01789667533282242,0.0026482008964897772,0.014526631397959565,-0.027805306039880007,0.033951194325770755,0.016436842918018866,-0.02253398359866968,0.01948817820269299,-0.004773669331484975,-0.0012788898881694983,-0.011147635088986639,0.010871860395037644
0.011498083871095416,-0.03375186711376325,0.034632047665921546,-0.023478038310756982,-0.022629665833658004,-0.011083359665148656,0.003874685314073051,0.004480887141649513,-0.01290958091229058,-0.015438970393292865,-0.01059772496982606,0.026819144096883792,-0.024928884031123012,-0.027308627472458793,0.012372127274079691,-0.009506420780245632
-0.03363008026002301,0.00912514842573798,-0.003924641715029269,0.0205705283533582,0.0025177478827934857,0.03235226641919397,0.014507137414685569,-0.03407731248463273,0.007622914747927571,0.013483218454835251,0.023376862998050342,-0.011459780085076629,-0.0126406262349333,-0.024101687048093415,0.010410891869644601,-0.028284861053551706
0.02294543645295305,0.005685706145126354,-0.014615263024023866,0.008310385492619289,0.008704856275600865,-0.0025132599360431357,0.0345229514166604,-3.142877812741321E-4,0.03095507619559605,0.02125795650170753,-0.024977251981533735,-0.00831541190032116,0.012001222109390433,0.03190965999773626,-0.013266364631334602,-0.011996226900168952
0.005643588816573446,0.014341656783955242,0.014183055865434488,-0.016859306589994738,0.028548271218554175,0.013035715622560826,-0.03133779887593825,0.035255948462407705,-0.01746460300803025,0.00971138524608988,0.02037792124796642,-0.027350704531652857,-0.0026119251927746237,0.0040601258098918805,-0.02008649790112912,-0.005967982971845476
0.014057762431491233,-0.018276228361538305,0.010360502040022541,-0.03465550366831854,0.03296129705173595,1.033291364591557E-4,-0.03563029271468649,-0.03080390003521692,0.02251087657219074,0.008513447508724244,0.02373727066788825,0.005405954196530241,-0.016521256604490622,0.010270994886050662,0.03261572361227308,-0.011424666635158578
-0.005382539828094484,-0.03537490570027718,0.02609462422544328,-0.02014297429396668,-0.020513987020980434,4.2202931677253613E-4,-0.02993283219994262,0.028041813425765005,-0.023672354242276657,-0.006769677550459034,-0.0014615667935560447,-0.006101571287238872,-0.02952127169389993,0.0021316356040904025,-0.026794745235790944,0.00995867426089831
0.018689402768004244,-0.013643425841090295,-0.0351052901141387,0.004012536548700742,0.03448044344364082,0.006495424768270773,1.5174893746707635E-4,0.026904566334745167,-0.0035189350288036617,-0.007631738125561234,0.016198262626820156,0.02989787447113962,0.0071247352767328034,0.020525173292419915,0.0032323743189901985,0.015879446901451794
0.023969646404909437,0.005202725753788759,-0.028812450880923633,-0.0027578424645279195,0.03458600362707227,-0.0012799449363693136,-0.023145478003221608,-0.0020567576544478425,0.0017653212793974915,0.02822900190723078,-0.02822670780469922,-0.028006476355646195,-0.004705944892557996,-0.019439805680350464,0.028995358041670527,0.022574803298731065
-0.018099814928442995,0.02403630978402172,-0.02480011519237435,0.006839617599870854,-0.019732809533803398,8.075819935695824E-4,0.005463890382187128,0.01479732335550836,-0.0017365456211347191,0.014459910334168949,-0.03019628396055326,-0.024962416344291367,-0.02133859019056813,-0.03313017975589671,-7.608428756625193E-4,-0.02966486562318077
0.006414605767951449,0.009329448544826528,-0.02590700219956118,0.028943051131980743,-0.027607321713881056,0.022236822921094412,-0.008636555938696586,0.023518805037318506,-0.002844757308604999,0.01329375381965818,-0.008973143589313684,-0.004698806893761516,-0.0010867370304294272,0.006533534109685865,0.026590228031930105,0.014832061563364793
-0.026786441411515552,-0.02117805288444942,-0.0053377104627402305,0.026660895534184333,-0.009829270155395118,0.02588375806533621,-0.001018211722488685,-0.009030482989715885,-0.016081827232184955,0.001542790739388615,0.004826184030135169,5.763541501596775E-4,-0.02678179531925639,0.02622708128209244,1.8093153122399758E-4,-0.034257568392793036
-0.0022871021978177683,-0.021968340141740587,-0.012207636370733164,-0.020915759114878994,0.012238216700908737,-0.0339434526618703,-0.018979745701018624,-5.138917287753689E-4,-0.012898685227323538,-0.003619258012852254,0.017222599824124614,0.0010426632241654632,-0.01663194063329132,0.026298432916224315,5.87090781514546E-4,-0.025551774720678273
-0.022853898110349165,-0.0281378309596636,-0.03262169349565667,0.02880560663332929,-0.009313458436091,0.027843527404888893,0.02376399552846413,0.03503133819154225,0.014950898725649961,0.015327190140948431,0.027916870323519388,0.02746219443822988,0.015332364953778495,-0.024490105323644047,-0.02578545982706683,-0.014049591944196978
0.019830601374629435,-0.03094746420733133,-0.01430576742476167,0.023679563910985364,0.00528017998742851,0.029510840085206158,0.004524649177796068,0.025568739908248997,0.0322803627086192,-0.006205424216051452,-0.005218248570556829,0.01277574639651654,-0.009848533009630647,0.007426062416579338,0.01906987060048266,-0.016159701495335917
-0.01955228008860882,0.018538620810334715,-0.035540611277301605,0.0026820242208824494,-0.0068333644446138785,0.03150768238097795,-0.02122101470035128,-0.027850238481028328,-0.03203682185851127,0.014767464373905664,-0.01682060797098327,-0.025013123503689554,-0.007363227488781519,-0.011299016621497706,0.031294727852088186,0.02773481225361213
-0.018102552558094887,0.021221804260458693,0.023735012386775278,-0.03297529986596384,-0.01304323840119815,0.0060164159921458,0.006047464757596217,-0.012660530723632973,-0.006429879953190658,-0.01762905508488968,-0.02488369365307495,0.012419102959987119,0.0026019156300994897,0.0013652255473556238,0.013901974476725934,0.00418136755061272
0.028615438019064354,0.03548945670261587,0.030575547992392177,0.01377651249551215,-0.015955644629355115,0.005752798820633967,0.018997224770532534,0.008318245082892348,0.014352215883529529,-0.027050726637243033,0.030212524854561967,-0.00394222728204064,-0.023202308088121404,0.025004346545776553,0.007667443915021874,0.005899328075893155
-9.920867215249887E-4,-0.010133788110017201,-0.006870734498318969,-0.012017768860785087,0.030344153507194854,0.00911789007398222,-0.030759755974615156,0.02735125801531163,0.01821522048712905,0.024366583610091315,0.02439621063480147,-0.008987271214789743,0.03403372680639877,0.03521246157775958,0.006768574567319233,0.014984737937196312
-0.03386804270345923,0.02848565804821562,-0.022938661147937914,0.03524005962373151,-0.018341755217991428,-0.027660824314563334,-0.004479931270947876,0.015590500827816062,-0.012334146557990663,-0.008342330144166526,0.030738795261530283,-0.0025302850601630527,-0.0036221702655747376,-0.035170727362923156,0.019649862745349463,0.03193756032713549
-0.0056437467088878085,0.02364058029240002,0.015287937200232837,-0.03439513440007346,0.030686217699767173,-7.084639863263231E-4,0.034297037997514664,0.009560078228100495,-0.03493227880701671,0.012986590756632652,-0.0012656572703077349,0.014006069492622154,-5.176429363400139E-4,0.002038181611451097,-0.028551521114692002,-0.018977704793377986
0.01438810975817269,-0.015550155039674196,-0.02599068094268718,-0.005954174918681419,-0.02519208896085,-0.03264312946858367,-0.01505193982713736,-0.02550643793785,0.021900715122347984,-0.004930121161585963,-0.020183416652063225,0.03514827325644459,0.027835115955040523,0.009804836887160063,0.021502327645940827,0.025162758493317082
-0.002562622240074969,0.022957616687485038,0.018216991226581,0.011521972366543402,0.016829386357132034,0.015583653055594017,-0.02075789236501153,-0.0084096451210825,-0.007925889126271141,-0.027545022750626525,-0.009832061518855035,-0.005888484790696658,0.029121784372802537,-0.01212207974213306,0.032117444040315565,0.0052525567023468745
-0.01941153925010916,-0.01393096098187307,-0.016013597531798474,-0.017425522679108678,-0.009134654677802861,-0.02644678437679157,0.010323099736096564,-0.009551508980947244,-0.004320719040348757,0.03249484603053729,0.015852487334814373,-0.030980239602622365,0.03585248233230241,0.030840338473983927,0.0051463010223858074,0.00398391168384526
-0.0319980075516858,0.0270032166484541,-0.006893089553999971,-0.03353402273838396,0.006196447680378564,0.029782755047366456,-0.014919337478859415,-0.032022431359113895,0.001340796105935159,0.008110910061303924,0.019240451374681628,-0.005433322862891776,0.03846641309161857,0.027106152554790007,0.023725749358089115,0.0025259545591057716
0.01431794830626209,-0.01677969829133268,-0.03713013894261648,-0.021337643759163347,0.021713159424598814,0.006551693930454824,0.0032347717983317275,-0.03521237985970721,0.029886555585583528,-0.0024531438260244212,-0.005266551865271679,7.548244171864263E-4,-0.012319484177754757,-0.0027794681461324475,0.004321522028720165,-0.01042460925309562
0.019625430421850564,0.022905010099387953,-0.02107842517967825,-0.004224349207576234,-0.018143086946288522,-0.016637965776453732,-0.020939248595274004,-0.006448726900005741,0.002376045313829004,0.0010616189862031793,0.030288086937401683,-0.02536299150038622,-0.02357079017685194,-0.02226016703591975,0.00965919291560269,0.01975953067357536
-0.05423201902267734,0.024337859258367834,0.020420132464928818,-0.04254894300168314,0.007908088436299724,-0.01028077484939942,0.03046268998834519,-0.01830860031661171,-0.011475859082668415,0.037773583411155734,-0.009135954887054125,0.02031015501302959,-0.005807025850302435,0.028700325621527058,0.034517101736327244,-0.024715284663123095
-0.011845328726660952,-0.015033577506258911,-0.019113280829138258,-7.162464337388688E-4,0.0022639377976001137,-0.025462510280133382,-0.015375807596941715,-0.019089051172608663,-0.020607207942998185,-0.012752259983464832,-0.03599828226860851,-0.01815448449260304,0.004119993203468522,-0.009875777716917672,0.005490999609731385,0.026297972292508964
-0.018824247898581475,0.01365588275637555,-0.0033833266002006655,-0.013755852177524912,-0.03581277723996671,0.0022267682604769357,-0.030241696281569745,0.020827570829647393,-0.028232148215607156,-0.010808722432020931,0.03016460690668698,-0.0016444937890462356,0.03434437304892903,-0.0194987156240912,0.025674223130354164,0.02888440145951941
0.02805115069726877,-0.024788088376177873,-0.010749481639844533,-0.026215372975551855,-7.846296583383355E-5,-0.014389683787394974,0.024245990971576006,0.005542197447592124,0.03364369661757661,-0.008304497666874952,0.021211113868246145,-0.011695401177121808,0.012394838665854235,-0.016605978939222492,-3.22671043171287E-4,-0.040100376062864304
-0.023835523968314124,0.0045298935388047015,-0.02517727739097991,0.031626880556507336,6.060527584059349E-4,0.007635497368180284,0.03774124786864168,-0.00825463710617826,-0.006663835509843807,0.021629462716080034,-0.026424358586993595,0.023882342169276326,0.024208721112859637,0.014858321104087635,-0.004517520947028795,-0.010743063037452327
0.00804324523174491,-0.01059018553781051,0.019487568451549947,-0.01743823162523768,0.010380621136511566,-0.017364647042977948,-0.02604276906814093,-0.008610981435344271,-0.024509140962343415,-0.017652003515127232,-0.020295809849324567,0.012888502932934849,0.01221564256911882,0.010915780639417269,0.0335476148299469,0.027332555671025216
-0.010641929873622797,0.012737358047599921,-0.005026846636618762,0.021737917396832212,-0.01603878386557609,0.03294032799187959,-0.03588441699714865,-0.02681068196261257,0.009650210196014922,-0.016461688608754556,0.02409665320284714,0.03647778411450754,-0.026491277002718448,0.043784916243361546,-0.011897768052764752,-0.01483111942186757
0.01690802419559936,0.021300331996601116,0.02583302440236751,-0.0030154483723530976,5.309949948928863E-4,0.004857151783568486,0.009115376564709501,-0.014305058000789836,-0.0012819604230492902,0.04070948367285359,-0.024744903798792982,0.03234432883056298,0.03795641189496679,0.007413993915268988,0.009624443315122562,-0.017070818674809113
-0.022356340766415236,-0.015602621900900088,-0.026637059030338684,-0.027949991416406184,0.004102774476964959,0.031923932485472144,0.029431687831008593,-0.025309338471847243,-0.004719251979725174,-0.020254992464320623,-0.03356192356156474,-0.016586684401917597,0.0185474090092148,0.020761094797154937,-0.02242762731954013,-0.004244039544438342
0.009204519007977136,-0.0012907067009466468,0.00830469123848184,-0.037909411560476926,0.016514299110760647,0.007276875389758599,0.01459361953870481,0.018706325561015303,-0.004212018221579763,-0.016437536377457925,-0.013143136018608505,-0.02702653329702184,0.025828397953515766,-0.010199925095226206,0.023852423996458455,0.009440930948233872
-0.018168345734812946,-0.011034643631474966,-0.001787726525797131,0.02568905557557974,-0.014422205110716563,-0.01428340389817717,0.027880051946860704,0.008281385197747081,-0.01758108655990236,0.027197207690475955,-0.031203138994410073,0.011805178081960518,-0.0325349716522063,-0.013450304029167776,0.0047253269358996835,-0.014145317405659037
-0.030934062053599422,-0.027865397402146573,0.02582461808650534,-0.00972150931604713,-0.03342945395166566,-0.0025481931376591096,0.0230682598339232,-0.02893924481945547,-0.033004001460188344,-0.022146828762729692,-0.021044247884634316,-0.013209118957768265,0.004227573651280012,0.00722635523138719,-0.00826011632285658,-0.021336154180784998
0.0018496356507263292,0.024742815881021077,-3.7261560949058276E-4,-0.022978339683773497,0.003667798071031826,0.020145802245064223,0.013478083478521558,0.03198812971399784,0.033979180819896024,-0.003477788850630624,0.027695769055630842,-0.007798690967987781,-0.006810795029810857,0.031032070835001813,-0.014352413017566457,0.015706644447893964
0.026849351055607845,-0.029682474489665805,0.03333773654221531,0.01749924105102952,-0.005800122625895292,-0.02389381068898027,-0.020694378573264526,0.033313437075070285,0.03090875645528067,0.0026480047181363583,-0.01614781775819266,0.010268179977986645,-0.011280409636346269,0.01443166909156541,0.011098575359004235,0.014056890549291795
-0.027602896764972122,-0.00867719479812087,0.006142284719389421,-0.023417372325708445,0.0030239930556874572,0.009508505631505529,-0.011959213481051112,0.00544611289601625,0.015278086711786092,0.013475974371214734,0.009285808560369105,-0.011944695935305165,-0.026523155987658108,-2.4727787833659504E-4,-0.030323092710740494,0.03485071913068298
-0.002783721718207746,0.007756314578961143,-0.011355166634328586,-0.00614548636640367,0.009286226699629765,-0.022485341176295224,-0.017068355932645954,-0.021999246229574908,0.019276262846595463,0.024998639467403723,-0.02349075841819992,0.0031369538435834163,-0.013198240578319316,0.004971701103405356,0.0028208188583389027,-0.02026762027000297
-0.03399122147967613,0.01859449384886977,0.019918228721318716,-0.0133329865627414,-0.030757110709397746,0.012221457069049105,0.026895354251301226,0.03499366766948056,-0.0036571138287952026,0.02701425919091284,0.013320105790548424,0.03513229670109698,0.006757309137180936,0.010555530712654741,0.011974530533676926,0.0010677555259109711
0.004486694625063917,0.027430796601619234,-0.01479690380849773,0.015570797537240694,-2.8269234186084624E-5,-0.025357052937637053,0.012531615861815108,-0.01832447044595266,-0.007802017733508741,9.135790621610171E-4,0.005279824606328094,-0.03471541695663145,-0.016075840280168816,-0.007202673288915995,0.012196545813916326,-0.0032698211201564326
-0.0019524012036253211,-0.01599566226190705,0.024466966150631698,0.013135304180578546,0.0126488973956587,-0.009817280740166447,-0.026674218115883185,-0.0024234435469121865,0.002576450279347599,-0.00944835355310518,-0.03106918855635786,0.004049410198185817,-0.008586554888404315,-0.0037607568732517097,0.0022019957736843314,-0.032887515198490966
0.024722662649054646,0.006236566949149326,0.009970033391927697,0.00234303073923767,0.03339700934358425,-0.012585264769117704,-0.021463278123127403,-0.004366794313687016,-0.033061664051378205,-0.011796530382512533,0.025645412768490267,-0.009167705553116235,-0.022968507967031353,-0.007686696599906093,0.008394440748150378,0.00589987606874866
-0.008378615051386765,0.007019514634234787,-0.022465075779329904,0.024286608139274662,0.00795691026383162,-0.003579308461711332,-0.01815041723924083,-0.02176178620744608,0.013418046364233837,0.0030975009620767798,0.030977086701763776,-0.026875295974828912,-0.026456001974500702,-0.008993943850691516,-0.03520708011895789,-0.022588102204614022
-0.012324469699080355,4.3070000660663007E-4,-0.024808416868824,-0.03096429644649473,0.024730357639518676,-0.028304010924367594,-0.03289496527315552,-0.02975507388702995,0.024312732489173913,-0.023454037749494637,0.03481062633586597,-0.025533838329238792,0.027066418778354615,-0.019693699217786322,0.02066557051779488,-0.017660394975903486
0.011929266835194938,-0.012201128055723034,-0.007145107626302794,0.031667179251827604,0.018588185760404215,-0.017163300853989472,0.020118413175442565,0.019687079815396004,-0.014435076706597355,0.037764924757500526,-0.0060307284107496565,0.028243308612854855,0.022753059161493745,-0.008149667618063426,0.02636289892977604,0.005396363319958382
0.004265110273239958,-0.01708784313168814,-0.004438967357042761,-0.01629830127212547,0.007154668006443115,0.035552309427352394,-0.008427055654684056,0.033875692956255775,-0.0349437753359855,0.030348115942308154,-0.007092849728780314,0.0193518339406567,0.02559652120451538,0.018717933302479065,0.01669724780344101,0.01648440341358765
-0.007365322267091706,0.025582475611896194,0.018598889071406572,-0.018069846683032482,-0.03829923447339456,0.029369916928775035,0.0034947717360691083,-0.0210819356817091,-0.0021611519132393705,4.615899612610164E-4,-0.02969606752397799,0.014595906410517655,0.018650566030367976,-0.018162625759140846,-0.012885381991405227,0.019257389902566306
-4.6231866479545336E-4,0.05200720717340716,0.005405998454094844,0.015151421556572791,-0.044010472868524525,0.0024007247897304216,0.005514729841253537,-9.897399562509796E-4,-0.02145288789879196,0.027251416517840348,-0.012251115208321601,0.02000728257070889,0.04424012451901757,-0.007481656625460719,-0.00627652003933233,-0.0016744430973798527
-0.05942395834490842,0.06197106018476326,0.008048026111112933,0.02270822352391581,-0.06330277684134361,-0.01820109631392961,0.052247384151995695,-0.007496297538762067,0.010374777651346808,2.742443085857476E-4,0.00524992140327398,0.034514067230299886,0.02421836614079496,0.0033458331834299655,0.043743526351431215,-0.007214468317324308
-0.04688609931567083,0.035578960128209464,-0.04058665006175146,0.035876365252350134,-0.07880357075882363,-0.016728965544951728,-2.3618555002673182E-4,-0.03182095122391056,-0.039554076388224994,0.02782617032762484,0.02141458692496848,-0.026231446929726437,0.03518278795883659,-0.007421305036859274,0.02720889516460338,0.006008359115635906
-0.040497110794452555,0.04342062832706879,-0.06189021080179312,0.018308956166226957,-0.044886510119406905,4.235329461207385E-4,0.06806465809411318,-0.030620212008731166,-0.0013313514282015304,0.043482285595848505,-0.02190532321957818,0.0161197788496227,0.06286283066421433,0.025967538787281735,0.02767129767383146,-0.0029335124732152705
-0.06969137934886176,0.07931967932788381,-0.03131572005787241,0.01663765633214291,-0.08852465179787497,-0.029078046736147473,0.04816753772522839,-0.006015104067394952,0.02628376270858106,0.019954316092586064,0.004638524770905733,0.004720993851367007,0.0640400563716709,0.048711667214102874,0.021724073606725652,-0.04691956539685294
-0.07900621971665371,0.07680923998758475,-0.03410505390682975,0.03986606685532447,-0.0845316237364548,0.007973769553028023,0.027291517332551616,0.017108424317741847,0.0024124503430623264,0.041679477218372805,0.018106708794163356,-0.011830738126686018,0.049927090281203984,0.013736290432532218,0.03632898399592363,-0.05676589646928665
-0.06672888369928981,0.057378619163595,-0.015379216501396406,0.040917298370795975,-0.05252353300663383,0.0015336699886166556,6.20187212522393E-4,0.0137838018302027,7.433336400151221E-4,0.027009547010747675,-0.029679284942752394,-0.014323314384837527,0.08072270792626407,0.04597500632878986,-0.0032613933777921127,-0.027179052513999203
-0.05345144258969291,0.06423509094799527,-0.007411271421955403,-0.0020385133012943897,-0.07739203469655227,0.009135701781550725,-0.0016927665491732328,-0.03091341109216843,0.005251614936037756,0.03617147365288109,-0.054455689119768835,0.052949118312933134,0.04630982667575313,0.04805871596095927,0.025747721397252708,-0.007029878771705392
-0.030231124648409286,0.025838675890762625,-0.021974236340529356,0.01079896889454143,-0.017701184799681375,-0.010918015934355258,0.036152171332757124,0.0034545519283275916,-0.02504767026230733,0.049923923957866524,-0.004859070273873252,0.04869384215381994,0.0534362580207591,0.050740572768970336,0.05200913963072125,-0.05600481533032992
-0.04713883530183557,0.06599825859608331,0.0019334834751770008,-0.033606436067165846,0.01540750856673178,-0.02455949774494971,0.04859006319842303,0.01921073850417156,-0.006601273500186781,0.0019364606466896073,-0.002989083469853142,0.005788218456644306,0.05714003884573541,0.08872020252732918,0.01820125941428473,-0.015360162851936282
-0.06282789825022177,0.06236206838144432,-0.011229374091888279,-0.036709499009750395,-6.014177050126976E-4,-0.034810978794366565,0.006814758198706287,-0.007114756286588716,-0.006667055095438875,0.06342360321079252,-0.03640464949086048,0.048935328181671435,0.002815208855214066,0.051151150031485175,0.01620691283251349,-0.026725989614820814
0.005009400815900414,-0.006271128775612434,0.003786882513282229,-0.040310547101914215,0.008767727907840325,6.252864105042833E-4,-0.019666627752916,0.0337837710202511,-0.005531446344975407,0.025881981176387386,-0.03153012032293471,0.03542311351455889,0.004267993960142494,0.0028218816559018958,0.038364649984983554,-0.04733571420319905
-0.04176420805008654,0.0028403231066325718,-0.034006479518131516,-0.0449767033407938,-0.0059832818985159,0.014350157180081178,-0.0020426071522959767,-0.03567840233872948,-0.03201657278921639,-0.006812950927071501,-0.040342391126212476,0.022763584791931323,-0.0023481450982234956,0.012850160909647627,-0.006008875845400568,0.008820314653642844
-0.01194169750285957,0.015167613952816983,0.0014199911363312818,-0.012964581210489356,-0.031075314801321113,-0.017725970355710306,0.002807789627953675,0.014954744004703164,0.025226267482832337,0.004759197692088481,-0.023333840221728498,-0.006805563597184947,-0.011701110276478677,0.025501738657437753,0.02813018470678528,0.013303281326404539
-0.038204248254753236,-0.019998153709371535,0.024024652995575588,0.009661986293717175,0.004724153301063943,0.02134019802154526,0.028117481057815013,-0.02849774302974442,-0.024581569445510463,0.03268028836076248,0.007229160988912058,-0.023317309008399678,0.018218909949691026,-0.001993176522987343,-0.001112018092291443,0.023679701996522882
-0.03612295447979886,0.01668863236121349,-0.00940652387332805,-7.877805757297331E-4,-0.011027074128802154,-0.030783176972461464,0.013213510254896917,-0.005273575937159619,-0.024228118288489635,0.016556264603254094,-0.0030626566617328213,-0.008969562916951081,0.0023610307527977196,0.0036558229363085047,0.007054595528665253,-0.032990052084479075
0.0064676613777611336,0.03088059071211567,0.017881842866229004,-0.007931933233655,-0.005809681102839456,0.013006859231234486,-0.032355894742875174,0.016499965543915262,0.015594607491268163,-0.028052012344008448,-0.014606224915566688,-0.015343727735651654,0.020700469545271417,0.003227327085695112,-0.010885849747519775,0.01671740212752992
0.02517631892290105,-0.01186618036459431,-0.015681769273635165,0.01966014347060057,0.025298304233507957,-0.008025774621849897,-0.008457437920165616,0.018441903594495823,0.013085090027004524,0.013472585334909595,0.01553492645757068,-0.03537529712705243,0.004492562257544172,0.03456615776185723,-0.013360193679097156,0.001481276836046784
-0.011189272939061998,0.01197222735834115,-0.014740512472066869,-0.014188219845816974,-0.02320428548030646,-0.006045355882214023,0.0322098099580129,0.009847702828010355,0.022798825367541145,-4.595517846871233E-5,0.02770561765442034,0.0031146302313760504,-0.005814827151281985,0.027009406207010617,-0.031083806332936392,-0.021123493864207404
-0.004225021850880029,-1.6372164047594867E-4,0.03258490787940731,0.0049570315238193635,0.021868340584251265,0.03504085360602553,-0.011400661993107488,-0.0338056730150817,-0.0054332693493122156,0.023392613931217575,-0.01860803689830669,-0.021753275192616446,-0.015185797056104518,0.0022946442944237755,-0.005995038936842365,0.0097895585579841
0.0060615471743388286,-0.005408585918100735,6.418194664734173E-4,0.0031973516173718283,0.010006632922042125,0.034516069336065575,-0.016648505631025202,-0.0011189341417000703,0.004063050877453914,-0.011593702131372174,0.014457895583763002,0.01554554793613061,-0.007665286575699513,-0.015994604250769776,0.006899309255113263,-1.1830983786526722E-4
0.005062881729961264,-0.025614907374078868,-0.005796392523573823,0.028008855007686077,0.02662971770376143,-0.019904771182513666,-0.015521722707334951,0.00327067486043192,-0.020928301125930714,0.018762267990666544,-0.01816407579442636,-0.03411461987611737,0.002866977813259124,-0.03266164383274497,0.028900783323443504,0.004664830697705167
0.017928213018203642,-0.015006362298334044,0.028911610898856004,0.024219729229575677,-0.002544765511753927,-0.01007545552307804,-0.026294818707839656,0.007692109249967859,-0.03580497329931378,-0.03509840426772715,0.003951934386722967,3.878569667357482E-4,0.010502121989258734,-0.02217952377523324,0.02246711374907484,-0.004476114231085066
0.02877559524649239,0.02364566969309346,0.022239735514244758,0.0038846677657295636,0.013769467135175063,0.016572113768701227,-0.008611884913059737,-0.023523633674556184,0.02334396672178545,-0.013560244958042046,0.01630912175394227,0.010513476040358877,0.023823044036495388,0.031242611415066863,-0.022033867296995177,-0.006902468947557949
0.014110143222756368,0.009199461845868433,-0.027000314222614948,-0.014654134473845419,0.023176729546339724,0.010189506751314468,-0.001029569963741454,0.03144761683271286,-0.016435155863336926,-0.011425792848768006,-0.008872898802307417,-9.474288506509112E-4,0.010946287145122158,8.773347940153491E-4,-0.021185718447431355,-0.01695886348035257
-0.0167244905889178,-0.024996390665166054,0.0024286056242492863,0.003582248599963075,0.02385249366905297,-0.00663470444038573,-0.013773831147414196,0.018322750933018165,-0.01121256398610829,0.03878193588982647,-0.021093139931518103,-0.042321555675420064,-0.027510770738831253,0.011158124183678337,-0.007053508453325485,0.0265917111990655
-0.004823780675007735,0.0117073400448512,-0.020340893251205673,0.008382347490070954,-0.03098267215364283,-0.02361322575603671,0.04545444827275345,0.008326500407126002,0.010631760954455647,0.026940632496131336,0.0018879224931613388,-0.03325696586541614,0.03052753210264887,-0.03429116370039473,0.011191956170220806,0.007570780525586811
-0.03779043642509258,0.006746399463863292,-0.0015720665090274398,0.02898998448910519,-0.06732782534826806,-0.03317583220331935,0.043926238341214265,-0.012535332751998505,-0.005296774541904407,9.452979119151996E-4,0.025226519317499717,-0.013759993987971243,-0.015031155122080331,-0.03494507957406922,-0.0016486927473902343,-0.05252080043317438
-0.0913702517529392,-0.004328486243008443,-0.01903235493845413,0.091174604238574,-0.037980693663042596,-0.007219791791082998,0.032762315787664274,-0.021506960655766242,-0.009186101606786578,0.02361021835027364,0.05719081987778093,0.012809442629433085,0.025012297844912088,-0.02878644068615704,0.04859629673860271,-0.04088368319872071
-0.06065999370555449,-0.00389139670657356,-0.061710070043430695,0.04970539490848165,-0.07509458774669561,-0.027191858328755716,0.08831918555936065,-0.059151728080815945,-0.006510716166787775,-0.007378592640417149,0.10401491225988019,-0.02730757465980914,0.01654813127215573,-0.048713616043847593,-0.010113588918138362,-0.08537907552357973
-0.11537975384938885,0.022383111781479257,-0.08255131245373742,0.08327558746394322,-0.09575836247521079,-0.04861722164054934,0.09584400452523374,-0.04940292741395507,0.06458665660334616,0.0019215603664226725,0.13894017127560204,-0.012590273983608721,0.05879702301258478,-0.01643084968614085,-0.005016323823097397,-0.06449123074342855
-0.15487198066267535,0.06393647014309728,-0.07719949273897783,0.10894479559726222,-0.1443103552356748,-0.02370725993580221,0.12123328417332586,-0.016581626511574125,0.09390808555335557,0.004691038627755844,0.14183839843766996,-0.057805428626286716,0.11331373389696221,-0.021267008575628403,-0.04459047682510444,-0.060716110801344064
-0.13587458653997575,0.08372986013602106,-0.07811517203044452,0.12152161286923872,-0.18041659763994972,-0.0671930612991871,0.12810260680304614,-0.003870648087115168,0.09493814587741232,0.019547963614305643,0.12772295075024453,-0.01955824901033068,0.11320967324712256,2.986678845133763E-4,-0.053504216049966406,-0.11791313647531873
-0.12912006210243285,0.11234191144005759,-0.026338548648263314,0.07219897623243082,-0.13470880010358868,-0.04066434332997312,0.09754087273372175,0.049077134666285605,0.1019370881338852,0.05074300363567953,0.13389231361960977,0.003630801192254176,0.12822121380048923,0.0536104868548964,-0.04410636691204908,-0.09236672695002367
-0.18093238412438192,0.07749111406093542,-0.06828820460565202,0.08479564900969877,-0.13929246548845545,-0.05178002502554046,0.060487045896837455,0.028428672476521966,0.0466518256059204,0.030954367968718876,0.05423233346117072,0.017697242919930127,0.14008951368858993,0.07838332964205824,-0.06806142433833574,-0.052656703938651184
-0.13170514202595043,0.08623085839305458,-0.05685891703014162,0.01600411255155279,-0.15249036265811902,-0.07099847203117474,0.05125921246089697,0.008386377100594778,0.06546117552181054,0.030095848547558847,0.06714911231511153,0.07550930563702851,0.08562121389639961,0.06737459970020451,-0.09067130549922128,-0.06375761089588275
-0.11316050402265297,0.13950411642060354,0.029801084212666366,0.002763025175504681,-0.12014411410961857,-0.12853289295934517,0.07594029871548329,-0.014320950120831209,0.04154982551318588,0.030501868262310067,0.021816353878249414,0.08278487264106901,0.10690381979677054,0.15010230454009646,-0.04809747367222338,-0.07788750608871789
-0.10611272847052607,0.1870659696575343,0.022573026623951876,-0.08778597254468759,-0.0552866759880539,-0.09193797454598146,0.07057716199443938,-0.009389868774398997,-0.02808507852543429,0.004489042788328339,0.03450198915617602,0.05174854883731797,0.03443343935991939,0.13199713468652555,-0.00257244815551424,-0.0652357512699992
-0.09584535229407613,0.17434515890605495,-0.0064796339821919765,-0.09368524652443319,-0.07959600172744677,-0.09848885268627221,0.06891851463674087,-0.03851542696548241,0.005100146496270175,0.033318250216283624,-0.04592874115696125,0.07756740987702126,0.0575215178355149,0.12945610885528439,0.03346347238706537,-0.06298167592569126
-0.08574750496296422,0.12819865037760936,0.027976315489823867,-0.05782221988032664,-0.07387269925178223,-0.06687561438168471,0.07319399082698379,-0.03778481243864547,0.02490329304034507,0.06245079579791374,-0.05232669615758013,0.03796210376160969,0.05972995972859294,0.07542080701131962,0.03417822457100594,-0.017312945674314004
-0.10492562284105983,0.10012617387486678,-0.024675681676974,-0.0711177962654074,0.011133143612613831,-0.033545268149241636,0.04946102323924171,-0.04317361192557268,-0.011705028109617974,0.04591493228564245,-0.07470152011444614,0.007941664740896894,0.027791952574238797,0.03808771703519285,0.03440643600225766,-0.06567090691275858
-0.06584605637891401,0.025205539823602425,0.00795781666680751,-0.016314245475519337,-0.05051405698699062,-0.03371556654508789,0.039426201756902826,-0.05413838576945723,-0.015855499380513335,0.06330151321414354,0.007716592572000694,0.027037057297953217,0.03230448866753227,0.05705328222947108,0.0025910142264287212,-0.05878783529799011
-0.07297491774866499,0.036577029829082355,-0.045537539423088386,-0.014316827560174985,-0.047884703766948894,-0.03853003296736146,0.037410067320642636,-0.032507384106949866,0.0060105924987123045,0.028814733087744182,9.163723377040964E-4,0.038132557384235266,-0.01942024647936962,0.053957403403941374,-0.015079124863318433,-0.009230321524833239
-0.011098551490946153,0.03078443184828762,-0.05348003361681954,-0.009875992936999336,-0.02572273085626695,-0.0032914698162360687,0.02308979243898143,0.009379811475280697,0.014085331884367346,0.022981431488032736,0.00733646360412997,0.0316646161149865,0.011472713320478995,0.03271137949753528,-0.017469679778537948,0.009197556530020313
-4.3173343348156836E-4,0.030283377632493915,0.024809320956808593,-0.006096578844087021,-0.016550664568922648,-0.007843376447011878,-0.027307973917201234,0.006803208230166951,-0.0052790238064258956,0.03070588093728633,0.018072860976760436,-0.021542658633368378,-0.022055442842786915,-0.028045568116822014,0.024779210875133607,0.01923627994200025
-0.030178459675205997,0.0034688302127995913,0.021265881221449158,-0.021517361980341963,0.015193476634486745,0.028916989222512998,0.02034810545575426,-0.01118208007892015,-0.033108395058145945,-0.012733644157937755,0.013796150798744527,-0.008647215104238513,-0.008390676431171048,0.018817094386563354,0.005384832759623814,-0.029906441509968296
0.001738637644368761,0.01388764378660702,-0.007904863753623006,0.024046497207232148,-0.011534571854245484,-0.031444340106406274,-0.019249516820779713,0.024793703592495345,-0.0031679757103876827,0.024903959835915784,-0.01548641824567859,-0.023054690614901577,0.006568249087556599,-0.029064075118898174,0.011412246848840832,-0.02603059501335428
0.028303416530444048,-0.01601095887298479,-0.010424301730062726,0.011571020663740404,-0.005634248981120731,-0.020144047963712018,0.010264551335845494,0.021773724097673794,-0.005169293497681398,-0.020818753880373495,-0.0014793237773855078,-0.017370428534728935,0.016865831294549265,0.009377323114947697,0.009930561189685397,0.022179657473549858
0.00795965561525963,-0.010800590992888146,0.024092929788838882,0.008830043166472581,0.001717625165006712,0.029289017855215992,0.027445283601152996,0.026752824956633278,0.019667379800781242,-0.03065679968952559,-0.004160482887459538,0.03561154949727695,-0.022089353593075005,-0.028939998023385604,0.02464159500278161,-0.018274417792835014
0.008182613339697954,-0.016927801405054812,-0.009484082931253777,0.032532963433064555,-0.0243876420120211,0.004000258652486609,0.01640820929320201,-0.029564536737079577,-0.005464769496053504,0.03533382708047734,0.004369563514371433,0.031221172256603976,-0.005351023347952206,-0.0045938449508902725,1.6998114788922564E-5,-0.015190998069798442
0.00945765497485649,-0.022731268912699235,0.016563985144184706,0.033450670567239965,0.016152892084842635,-0.031732742234875745,-0.010065807438707738,0.014093784865067233,0.023239426071866465,0.005741716055437161,0.004465974924452731,-0.024970676039990095,0.03120407865602596,0.01951115091389494,-0.02824516575021011,0.006612150411352896
0.023933345783532477,-3.565819263750412E-5,0.023533768968940817,0.0016060306989906562,-0.033367741076918846,-0.0030487595807481625,0.006139081906836545,0.030677238341297368,0.022851039589111187,-0.02562904460310067,-0.011554578098316485,-5.199116228564606E-4,0.029481929585255157,0.032411970644736575,0.026246638957606087,-0.014181306399010907
0.018827679011467414,-0.030858283633565037,0.01729843328336353,-0.002286285657637602,0.006411735723064122,0.015115583302862409,0.0360801818679152,-0.02697576207069415,-0.02245899859739632,-0.018985470470911512,0.03827482016935945,0.007997120710680856,-0.011154669817808903,0.010296859419146662,0.011214701204227597,-0.006427211468663735
-0.013726511685685255,0.01060197752023702,-0.02222932583497686,-0.018523230287894515,-0.0552309344284856,3.29331495983024E-5,0.034501939588392594,-0.022212589663359122,2.709229220163814E-4,-0.04948530024715328,0.04672857291157964,-0.057918738826665414,-0.011290728129851758,0.044986307466821196,-0.0438544921314798,0.024060372539092992
-0.019212106124039507,0.010478085970724865,0.013573810335893827,1.7916013453767613E-5,-0.06758572747216944,-0.039467844245894904,0.05295244850951234,0.01874627327253279,0.03826212073987222,0.006361453711168305,0.03891028715325117,-0.04465146514083046,0.012890980488528351,0.056144517679752586,-0.03046275558212724,0.019462802072802404
-0.07521514332337999,0.011366570266711578,-0.006083296669825635,0.07173855510609378,-0.09532978018614004,-0.032377107753280496,0.08931798419298684,-0.017962306858868415,0.05581924081956489,-0.02599035143938099,0.13744107394990215,-0.14933498936987138,0.006821434298972719,0.006416941876141794,-0.01416029892560229,-0.03522254475385613
-0.09129867513810208,-0.02511456628746349,-0.02164599199633482,0.1524429277858459,-0.06783290549221282,-0.03496001112249662,0.07227445204355935,-0.09193911495777542,0.03931858118806107,-0.03333235464452171,0.2143346094691871,-0.11341105717142233,0.016250201229664887,-0.02696601543327351,-0.03154459460367675,-0.08364560900275896
-0.13927102173922082,-0.027874634313990548,-0.00422249810680684,0.10382170920612421,-0.15400317916970568,-0.052096989241071805,0.11459364679602539,-0.10216001905862324,0.052059974141404515,-0.0272825573591829,0.22261083838768744,-0.11948371130537631,0.015336120012801812,-0.07105162647667845,-0.04914350979270596,-0.04026612550201081
-0.16964891510063554,-0.007875952075546063,-0.010541583870391339,0.0964032552841416,-0.11250863256109532,-0.03600574397439414,0.10588475933485869,-0.03585354905116874,0.11210293296451689,-0.02350609320128644,0.2057636578831958,-0.10778411837628563,0.06881823300215041,-0.022684334585263546,-0.049256846357189986,-0.03703977712817916
-0.197737230357336,-0.01878484370741965,0.08532433608177861,0.10940285901006436,-0.125707960005768,-0.04585029395120005,0.10391231967549751,-0.04677006763462147,0.08699312158597022,-0.029594633401373343,0.1669890532161103,-0.026415508056944766,0.09297151862868953,-0.0088861558496853,-0.09954214295496235,-0.08153371247800241
-0.23588784437085997,-0.02051776617432874,0.031060651726167333,0.1360160718572336,-0.11590373594614974,-0.07971734605549666,0.05253639729954069,-0.026780049189293532,0.055565450605444135,-0.003920852338899614,0.16499065634061752,-0.054806123940741164,0.0665644222227387,-0.03043677461596418,-0.11020691347260894,-0.08333547351929446
-0.24433326448486517,-0.07664718588428873,0.06312110264391634,0.13488213380500713,-0.16045520197689694,-0.02457618330184051,0.020423835992828255,0.03175240929865807,0.0024755424667814254,-0.056312223204997194,0.12559666699430988,-0.011378750011595433,0.0929411224010979,-0.051825007591520506,-0.11703569875372449,-0.09186472428065053
-0.16484954922464784,-0.0592420611617467,0.0700946278622463,0.1190990002040897,-0.1255024197936438,-0.008495397844013448,0.002192313639099493,0.04974816015657509,0.0019486546596503885,-0.01445098843613571,0.04337305071628763,0.08349654350625452,0.0719987815667463,0.037726722037634976,-0.15058793364476253,-0.10312852273176001
-0.2060342870138737,0.006364577281730394,0.03834483145114178,0.14458901642870567,-0.07674184455802299,-0.041468323596079465,-0.0132566229649563,-0.029240889084533126,0.02387858843204118,-0.08893572990909361,0.04203223851724802,0.0977170344834992,0.0707352619888847,-0.013642207290520625,-0.09781014776707285,-0.01860235009319583
-0.15114766219463832,0.07072115907002174,0.05499564157364498,0.060588040536233644,-0.12622823883297624,-0.07849103189622433,0.03790276646292735,0.017296874858149097,0.05752875566277934,-0.08921250342707204,-0.01194342333965706,0.08287486737672103,0.07540489448460622,0.05400869047430282,-0.06190391124462028,-0.02833930086680696
-0.14240606732388794,0.05621474259599905,0.08183580452372191,0.015311610544160094,-0.1392245856471667,-0.1000589937828219,0.04461288488510813,-0.005460775798726849,0.04357170214979618,-0.041573563819495264,-0.029456867975850558,0.03978901337175753,0.03537600604520317,0.11897022800195164,-0.11075166343558639,-0.017399992770143164
-0.13362863415672308,0.11472106794540603,0.04297154212016832,-0.06268212716250758,-0.12824259892603765,-0.059780703107761304,0.015821264014084176,-0.03470472905607607,0.04281171430632522,0.04747746208188213,-0.03766757754792981,0.018425940482467165,0.06343344144490423,0.09478628468689376,-0.06906902277972471,0.038583367885186855
-0.11381179993471245,0.06340164990748091,0.03342251736453911,-0.07704651798874676,-0.1016456973782289,0.007152736824002016,0.0036868884846183135,-0.014015123815677993,0.008888107326004934,0.06871024823281462,-0.05971256610637146,0.009409177422697226,0.017970443465220504,0.1275324040963426,0.0485718481609845,-0.005385750506120453
-0.08588939460428394,-0.015851640103108834,0.018604687111040786,-0.12026755721436173,-0.07521686328449963,0.004520735116110696,-0.029900185198700874,-0.0220907527151828,-0.036143905411406975,0.13257197976693116,-0.06600933196519945,0.04515216978532963,0.04983859072989617,0.10258269388964916,0.042346606967305814,-0.00395072108202494
-0.08674429997682218,-0.045223147362536784,0.007697638875072877,-0.10089136472663796,-0.026925630776350795,0.013677172118655505,0.041105409781181275,0.010032320236644422,0.02272999379147556,0.09913576648752802,-0.056385339928935095,0.06458003637175698,0.029675068446672743,0.10333318223231963,0.010180730120993998,0.006815245545552946
-0.0363700201819765,-0.004839943521454714,-0.031081124799319914,-0.0787249444350573,-0.024374495875774855,0.022004586921611707,0.01693828170616927,0.004452693268711817,-0.019508863331043062,0.07134602608939486,-0.036677005006256216,0.044906845757003634,-0.020187236126989586,0.04524720387133383,0.04665501120982117,-0.023668582467185555
-0.047543885860630415,0.003509128331834276,0.05903956139914411,-0.037215284299684286,-0.0010319879388952522,0.024032351381302695,0.001229379062642992,-0.03736080240001743,-0.02158772179257682,-0.008839090675260104,0.02647501431392656,0.024264150824334377,-0.02991001580958713,-0.02729611058728196,-0.020016324211357194,-0.02360069895491698
0.019832550674050077,-0.010992856824486873,-0.008792785617399433,-0.009464667351378374,0.012705590794396223,-0.010154155700427795,0.02772866169679186,0.015847210823832825,-0.009631516631687867,0.017490217994963253,0.012200363940556876,0.025975388749821963,-0.03677237163680869,0.03521679897389439,0.0024977331025348676,-0.023594923748321547
-0.014864574503795205,0.025855626621313924,0.011970455644277447,0.0034024127191949216,-0.005900805367870477,-0.022498725237624587,0.03261846294116916,-0.009758516125513506,0.017581300168784973,-0.005338889913680703,0.004407798218602791,-0.011582458795710043,-0.022264747987105038,0.01050413939216419,0.023466854116762928,-0.026647052674311368
0.015539668301232738,-0.029783276651753416,0.010053733199755999,-0.011791314233635294,-0.004767665290558094,-0.0265870677630599,5.229814590981018E-4,0.022491641624188673,0.01995850409761641,0.03336144548207035,-0.03508217695255957,-0.030764170141467317,-0.030018826016368735,0.01903140013660199,0.026640571371665034,-0.0024181337658030063
0.02002163725366038,-0.02973524812817431,0.00606003643625648,0.0014105362906496888,-0.02621462295019806,0.0047535795704933895,-0.0028430149509318173,-0.008013258058023387,0.01906061609824216,-0.029209340480289257,0.03502780088259713,0.01634509617372777,-0.018556476213766906,-0.016732979846558416,-0.018003207966432747,-0.018951369951630815
-0.01492059001910032,-0.03076345271616117,-0.00945340422766882,0.03223940626136637,-0.02634456579571072,-0.010832626291067078,-0.032839488227573994,0.029181729395750255,0.014019501665982273,0.012213656029264663,-0.018828176526341507,0.01770546497810293,0.006877591093326689,-0.019539569998576794,0.03063511405432126,0.0028715755383105362
0.03353092158452208,0.01971494254214493,0.014596086545128903,0.014980927358154827,-0.010736943450620193,-0.018785456801759512,0.0016140865174937846,0.02372725064076884,-0.017773435391922537,0.004833715734624649,-0.009424190971329972,0.019876173436596808,0.030127172119288743,-0.00399448980938986,0.03153386837017781,0.021704224832566548
0.012720334620508953,-0.027143481250165483,-0.019699640697596128,-0.015824395662326164,-0.0057722594726294565,-0.021620249480743856,0.013441095151239545,0.022649940135200976,0.03139643463719403,-0.024216331896376623,-0.0010242001607220798,-0.021819198984645266,0.021011867724223785,-0.009939286377276379,-0.021579230529798973,-0.012407862155380077
-0.029696580566259387,0.008902046469094567,-0.02476821794373348,-0.020303301434263076,-0.04727835705151248,-0.008528678447098663,0.04457524411495026,0.02047495747734782,0.007535545479333302,-0.019286652632698364,-0.013519071930824765,-0.02837183647069371,0.0062679921334900515,-0.012062431517111508,-0.0065063982853424095,0.010698335116016058
-0.032004371767053647,0.0046745530539722266,0.02752610828697629,-0.002632889283194511,-0.04169463476990986,-0.008936509531122768,0.04495218787175085,0.0028075769946078266,-0.015040612029150082,-0.01892311461184943,0.0652444275527159,-0.069341582152905,-0.01518911904924182,0.0011130673314132143,0.004381523406311076,0.030372432124866976
-0.03987251596143383,-0.020108305011026385,0.004518480266246223,0.03158681505416311,-0.08330175165783084,-0.022092894543458676,0.04919623769279655,-0.04952849319993857,0.06023152358101601,-0.01023620801966276,0.08589935096287168,-0.15291717387971268,0.0052593688728967865,0.0072073424477874515,-0.05278540406142506,0.033143594985821645
-0.0667041344396792,-0.030156835383728868,0.014378094842500981,0.03469134645829604,-0.07805014903458919,-0.025821915612420317,0.04972020389631998,-0.09355231287578622,0.04776515504262822,-0.032783653796906856,0.18335671636032816,-0.13236060914669345,0.020787714675568784,0.01842513275913924,0.0032565656787170516,0.03237726237301233
-0.0982859275156331,-0.028057677678630936,8.396911557620457E-5,0.09148665093894585,-0.06176836818465466,-0.07512485122681473,0.09778893610564382,-0.09464679821097115,0.08175919465713408,-0.11454060824183293,0.27427569547143504,-0.14670921040751292,-0.02052202620554259,0.023078039891015045,0.048376472574863015,-0.0027329935384715056
-0.08180704210010484,-0.07127899729279083,0.03163931823859521,0.08834219724630582,-0.046528223751899536,-0.1605923105889827,0.09930579060066744,-0.10402299139304294,0.06543471642399792,-0.11858506646208326,0.32695030931112495,-0.09336129685013049,0.007620629000136099,-0.008245624861473864,0.026032110614215374,0.03828058474945916
-0.1364518327674576,-0.037688962271882856,0.0472921745010263,0.06302531541681639,0.007343229727471793,-0.07741756792325744,0.1682440201278957,-0.11859268665935264,0.11176802104229608,-0.06121797555584011,0.2718694569746408,0.016712220856113003,-0.004711614498751089,-0.0739906533915303,-0.024069367073649633,-0.02579736400340915
-0.15260623357129413,-0.13449425783767613,0.07866048863628382,0.09834593289401905,0.009455024962311275,-0.09205224463906933,0.08609330677735873,0.01665329021932276,0.08875376957706435,-0.06797239854923477,0.12503832924751795,-0.001899514696088315,-0.06165553710043857,-0.10252628451572852,0.03547343823486144,0.004022942800264317
-0.211267702667846,-0.12879389440542763,0.03581199924988271,0.08009847062294653,-0.0366004583879455,-0.07157590169400845,0.02760900208544402,0.06248900748356416,0.04677404860233734,-0.062382077560826456,0.1158611038546258,0.03602805911217065,-0.049343476443906346,-0.05902287307439695,0.07142205554136971,-0.06026370802187715
-0.2041538981866759,-0.1527327126055979,-0.046398190201791936,0.13143416826128956,-0.1212013724759467,-0.05248707460513073,0.0101880633055025,0.09208942166270177,0.03561888191090054,-0.05620668537020601,0.10047575251238923,0.008652680740947867,-0.040003004934882416,-0.07313394339276175,0.07542861712372903,-0.08742542697937537
-0.19338105062942768,-0.19620061429120852,-0.07117795304247648,0.058459283086621606,-0.05778491134235515,-0.023776125752796407,-0.01384408479472542,0.04670860010600717,-0.011149403284198034,-0.022408622700928707,0.07806941373718622,0.02007909265302996,-4.1514225275908386E-4,-0.038924184319564126,0.08202858332068878,-0.14179272099745657
-0.19880283817495442,-0.23979671048995527,-0.10584593529273272,0.07668973446535715,-0.13357417710181763,-0.11514444666898625,0.05236382184797092,0.08046967622258723,0.04296437798836673,0.009713925671459157,0.07564165613766345,0.02618747908451847,-0.010611226671664293,-0.04920025273122045,0.1519537886615462,-0.08742968742946786
-0.18349773311397802,-0.2209372390215829,-0.017878789174715908,0.05754272565790927,-0.08447556177346248,-0.2065228209723532,0.09992315311435122,0.029152554763749956,0.013603223363255701,-0.12207945690734945,0.10138315618992373,0.042953220935887784,-0.06394285629285346,-0.04106988891674696,0.24550139797578524,5.141577529671901E-4
-0.1880077179927089,-0.15958224373753307,-0.07367010841362558,0.061204149757060546,-0.04630803196450525,-0.14786199644164158,0.0706462341397392,-0.011549509525427382,9.547550393716214E-4,-0.17633911819839634,3.007930419414306E-4,0.07587169322478016,-0.10211384847977352,0.06856189547469184,0.3332337467148814,-0.08508655313452806
-0.19010708794721146,-0.15281680535445663,-0.08053519760984276,0.05759594297152187,-0.06964565797183994,-0.05331110900975165,0.06765502100207468,0.04695150124138745,0.025169013844872405,-0.07952721308110954,-0.03192302840995237,0.09832771556761957,-0.018319250919646292,0.11147512232047871,0.22511809431862795,-0.02658906625168038
-0.17375122759531422,-0.1408919187238399,0.005295214989307046,-0.0896819985700163,-0.05078964201926214,-0.03820301843012733,0.06251293607341919,0.019712735254612732,0.04750418092033479,0.014536235634026132,-0.04214729772395797,0.09666436946502685,-0.028279049733654454,0.20866131754903755,0.11952561449411638,-0.010807133249132019
-0.133779320081441,-0.1084559749036742,0.03574995306214152,-0.08219096196433512,-0.030624705296049166,0.019283139916202167,0.01967120571912179,0.052787483052132086,-0.022244694014166507,0.05113681526926222,-0.040974129931288704,0.11242741591235789,-0.018058011676517258,0.12892793941359956,0.11530587173442082,-0.033872061403460836
-0.019232557422595595,-0.15869479165369427,0.04829977843337779,-0.06653466010885536,-0.015484513652969736,0.05776090707713684,-0.031390090080558784,0.06183592334802811,-0.017279420595671904,0.15200634252102038,-0.046879271752324675,0.17299487739102007,-0.0348633201818144,0.0876269095842261,0.06775653802157841,0.006380040222264569
0.011822008010260808,-0.09635938214603992,0.06920291729110489,-0.15031284115762958,0.06563951918504585,0.017357126336723764,-0.0048644795453911,-0.006483138734883897,-0.00867713082349764,0.15342929941087985,-0.05239070277164561,0.18614479715317886,-0.06339434581908793,0.045467923289433484,0.10030920685607853,0.06888200355344182
0.049871802237919184,-0.10464748463363373,0.05746811572855302,-0.16339911224541773,0.11593088323456849,-0.024282624016289354,0.005921832430726293,0.03382117417382458,0.0037728794507916885,0.10837569246288861,-0.04028771089216736,0.15095908500829075,-0.010082297853102506,0.008318462321519367,0.05124711967730691,0.023022780297880296
0.03328356856757446,-0.022555279731082997,0.059743154166621154,-0.05670449654838554,0.058899437112235165,-0.03899933523135669,0.04825885748865174,-0.02015801056573826,0.03578724056877909,0.05307504756944749,0.028692659488316355,0.08340717407837285,-0.002055643746995507,-0.008280920911829012,-0.01709044840077647,0.00572178531309547
-0.023283867373851897,-0.05177433369689581,0.04641547774993131,0.0038340576484549877,0.018198053678013464,-0.047515858506656815,0.05074246294415249,-0.010468465273230447,0.003732541833360528,-0.04018107699932215,0.004257873730761896,0.008195815304172972,-0.030188571912720792,-0.017039384464505713,-0.002670860129845477,-0.018741539817347413
0.019223206056798982,-0.03821593407191418,-0.005224269449283413,0.005011069520224715,0.02969042136555643,0.011544590963341829,-0.021552569251668627,-0.01889601395750988,1.5738693474538087E-4,0.026332825551477437,-0.029642269101317658,0.010340572700714892,-0.028477553518862404,0.006817627746837539,-0.016317566833274205,-0.03285667738796085
0.029829300230345305,-0.012881916559935168,-0.011928445625395651,-0.0036765414646215905,-0.030263496487607212,0.02906589278977597,-0.018900803912851084,0.034240883175093675,-0.026005031069221196,0.016182366712262728,0.02364885829140539,-8.040647379412817E-4,0.015475116754680412,0.013394336721620763,0.02375980860232426,-0.026809108875506752
0.007913264054431123,-0.02891370370325108,-0.024417707501766354,-0.03300734373435043,-8.372746018769778E-4,-0.0013686983727679986,0.028157756034220688,-0.00488390895544891,-0.01160087802637685,0.032152015943899756,0.003629595818780619,0.007793500395022114,-0.0026562639026041987,0.010112511320003077,0.0057798866290101406,0.01840043532738772
-0.0069491823500268815,0.02542682853536737,-0.0037851102572637723,0.01004637002502235,-0.029587062451716693,0.0063375279487297665,-0.0334743062694334,0.012489709408490956,0.020858157003144705,0.024057179438480968,-0.03036866857802795,0.03288244924773589,-0.01514816166710204,0.007322378110076931,-0.01751757743132545,-0.0019620027541442575
0.03600974660298924,0.023242536399619852,0.005003260580998044,-0.013166814617847182,-0.03290620712122652,-0.0042103252385259655,-0.0014417207649610616,-0.030209907456772028,-0.027544222244946383,0.02302971548701105,0.0288302630461782,-0.028779012942464068,-0.027944641588619097,0.006109586652387963,-0.00995545586213037,0.016560460713938407
0.00553111933096124,-0.036434384188600295,-0.017162726249665673,-0.018130436960499506,-4.5638033599993343E-4,-0.004287343673262207,0.01737936372216488,0.03007729217894063,-0.0069696831468615056,0.014737648498743556,0.045161492796607555,-0.0395163041457591,-0.019866997507180423,0.02908316345359295,0.0024377093152568724,0.014647290109211617
-0.017120574907523233,-0.027242306119046104,0.018031834133323047,-0.03337586847939736,-0.04177929587786172,8.684391986171256E-4,-0.00971728641605387,0.0038105092150219496,0.005004606603584992,0.01365581402001051,0.029956798639957864,-0.0648533575902675,0.0414801811595735,-0.008511433257761273,-0.013963047267283672,0.01899043818662934
-0.01008983009696176,-0.02348906680154936,0.0320446221584793,0.01711272761491962,-0.061554949511639374,-0.029765198971102132,0.0276818415193956,-0.048384008723585406,0.03975898354576002,-0.0419089848227252,0.11404713254370946,-0.08946583325556813,-0.003117335741200767,0.027847681108770783,-0.07183111633559044,0.02597316163800378
-0.001374300546762347,-0.025808056360812175,0.0037332577186796625,0.04432102692320362,-0.0813049649342243,-0.055755040665272294,-0.0038981775927979297,-0.04317052361695345,0.03362640444487192,-0.0950834907319914,0.1411378353331522,-0.1315992698973113,0.03729587929052411,-0.0211380109905555,-0.04838361784445439,0.048416718032232894
-0.04789165755348574,-0.05915119511924141,0.043700400187032785,0.03169466328394682,-0.09047701410578504,-0.0875536613389968,0.008733258195052326,-0.09514102487482452,0.04786874804192171,-0.12136228873938579,0.22971476911573002,-0.0903531382688453,0.029735208106066387,0.025572849193374155,0.06459912711352896,0.033606934541019484
-0.06621721799057306,-0.030606283398192866,0.08554582265775997,0.04425893368695549,-0.02736873872870403,-0.15388006291180406,0.025154526279883734,-0.15149973943137965,0.11064787912513974,-0.12880167612874796,0.3445217307131981,-0.0520443539870611,0.07409614455823932,0.024583372990620987,0.05786688414803087,0.04764877933184645
-0.12698347989539271,-0.03691456599749657,0.09608158366940543,0.054742306065356475,0.011274990374126725,-0.14420559992171259,0.09976190669145132,-0.1105870896066876,0.14722071389511152,-0.2262366388691549,0.37198259008928797,-0.0018739621912281582,0.05223261390722081,-0.03656967516830624,0.033548037459486216,0.0235556492845293
-0.05692439479569164,-0.09306779339676978,0.12836902403291023,0.050356445109787706,-0.018096626669083925,-0.0934747516462543,-0.006743842015348484,-0.04740878900810226,0.2022971357200971,-0.18284809834963775,0.27114213460508035,0.03865596650457749,0.004555910860714983,-0.03237667229341892,-0.039268680918225,-0.0173500047316995
-0.12406635344019142,-0.014557079060784853,0.09629948894964913,0.11734105348045487,-0.05021220166450446,0.022387949412824276,0.03547498798818911,0.00655928099077534,0.09509160066251329,-0.12301317355484298,0.05327552539611353,0.044389888048070425,-0.004623308466936045,-0.05633842512572896,-0.14307126266716122,-0.007408221559068539
-0.13126998508507057,-0.025746275721783417,0.010657365335447587,0.16983504873428376,-0.08970128517206692,0.09752247694412391,0.04352599159207669,0.044016668264053906,0.06366959097207467,-0.16168549039764854,0.030619257133394938,0.042160014637744034,-0.08076694061464085,-0.01716707097783417,-0.09138246409459803,-0.021302366861941372
-0.05709928351017659,-0.04078074012023559,-0.0764847587742272,0.27183212988560207,-0.10428635416587065,0.09094283503342566,0.08446270614853661,0.08134698682024546,0.042004248247669886,-0.14966203474356465,0.024907541171446498,0.03616418262814913,-0.06476001693655797,-0.02324312179749593,-0.13947456134351552,-0.03523749997771245
-0.011765157332495923,0.024908459763087365,-0.06723900337130567,0.2277831300822443,-0.08444715199809687,0.111292592592431,0.07302858171524142,0.11112596631104865,-0.008487424639978938,-0.11460847617618679,-0.05224560113831123,0.010356097983032274,-0.07314510785683626,0.017936487766601263,-0.2223728345764956,-0.13407420162784728
-0.08333438374845331,0.05570420082303377,-0.04671094891448461,0.27102842488260287,-0.16648902456945927,0.12309285472154334,0.06329712177823871,0.10169721807285238,6.754084947400854E-4,-0.1425439745591947,-0.026782452113466224,0.04511810003707595,-0.0897080414750016,0.0756163833878136,-0.06915007693824506,-0.14152639021774802
-0.11012156900419176,0.007706491686210067,-0.1076445915705931,0.2788722628132991,-0.1282946760936845,0.10596926732510233,0.08225476780418607,0.06068008722650452,0.0421498704853082,-0.1373413093541278,0.03830132492261739,0.0521600138020826,-0.04816562028657695,0.07829787380594368,-0.11793748071847275,0.004808141744950479
-0.12163441058280709,0.014890850713648702,-0.09342419657324616,0.2093061755982149,-0.05072944427839153,0.1104307468537766,0.05228939466324899,0.039486101912074564,0.10482921796138003,-0.17453232368202917,-0.035823813062357775,0.11932544966126611,-0.09218550806428844,0.13150776664275143,-0.044119460199930335,0.043234352206348255
-0.09860769721463913,-0.09980962807082848,-0.14999061411845618,0.1748109681691251,-0.025403936221637696,0.054141332961255145,0.11776406248376724,0.06812873129661479,0.11541873343801991,-0.12183491981805235,-0.002850870774512907,0.16062624495023897,-0.06895285186284693,0.06564391063893991,-0.0969349023263089,0.05778009538489618
-0.11212044459622976,-0.2065180339366238,-0.10796757616879499,0.0706089395887688,0.05302835894375461,0.1171071706326229,0.02088245251773444,0.05667852370027879,0.08132697272207365,-0.1169234288976775,-0.040502822650587716,0.20293577962441506,-0.04033382145249889,0.10752808626925664,-0.010297817172938142,0.01499057272521633
-0.08837579280509046,-0.25752053439669514,-0.011183709565759517,0.05185308842630296,0.051256252983282215,0.0751303998144347,0.07520815141219987,0.13780135376262392,0.1013004173572051,-0.06561435279478312,-0.012341957468793968,0.14739791871631205,-0.045236348228162436,0.0665873738703264,-0.02251256280955422,0.036292621038482874
-0.0032198150352695477,-0.1683966809909665,-0.011621061167873101,-0.03724820413368766,0.030107355959463525,0.05377685951522624,-0.04134177547406754,0.09730551555064544,0.07007825516242226,-0.009298366675304284,0.04993772539137096,0.16881502614965685,-0.012076313978745316,0.012994952543270743,-0.0062536161859571,0.040234990028471675
0.05902446467615914,-0.20142584169536715,0.09087474429561423,-0.11509493507393509,0.1548407182139737,-0.09250116741502783,-0.02622102768460568,0.06527647872022586,0.08343961103935693,0.025516287261438102,0.025369033269981144,0.191598583564008,-0.07157925061037226,-0.04667749273593844,0.11977358346893147,0.06391526043072049
0.09402077234394714,-0.20677240753207088,0.16373510215696602,-0.17252988125906027,0.2566652019595993,-0.0810183739546302,-0.0382745379093407,0.04109133436654532,0.002086429560119337,0.04025716190318561,-0.003187163851136768,0.12102527305063032,-0.04929479467010253,0.024145423897372863,0.10056075707857826,0.03187447521069438
0.030275553028195255,-0.0974117129915855,0.23655544493431083,-0.14589929960273298,0.17121941615684383,-0.05782198091218126,0.05379996514759383,0.0783681604091922,0.09113472221682385,-0.021970355948371958,0.04243135622736112,0.11553356689452374,-0.06145308290405066,-0.04079495120490472,0.039324505747068896,-0.06281895955283806
1.2399612699580524E-5,-0.049697786838232026,0.16015949754944236,-0.03813745972491458,0.08330195605259992,-0.001177869577044173,0.009668584789658747,0.022735027200629594,0.05412744422228511,-0.03306765340650187,0.010020999908312527,0.04458035331424405,-0.027163339699312512,0.017553486953386505,0.010859648922844104,-0.03899169100840365
-0.026551229100123332,-0.036768407237646565,0.02934131744744641,-0.012279321594978817,0.046924992807622724,0.027061435285221057,0.04078288249631629,0.01740986958060559,0.004031078003427643,-0.00592785733250625,0.004434752876189858,0.03586216543752827,-0.01036075906728777,-0.03843582585028659,0.007882198204158983,-0.023617113666986468
0.02971111869710722,0.03334503901072707,0.016196730074854268,-0.007900571324416211,-0.0030053930691192796,0.02341884696242239,0.027382408004771337,-0.023985670652915483,-0.015456955120610828,7.123952337720075E-4,0.020520539159948427,0.007121443428666189,0.02898995577146067,0.007980667420657193,0.0018799279709308513,0.024625204998337463
0.011007711588007554,-0.032432286909528964,0.004119209242417697,0.018807295254015137,-0.02255673114734157,-0.008489123459401835,-0.014756262979023651,0.022617283099840464,0.02329674863607365,0.011589749436678093,0.002208436953383693,0.011838911996477446,-0.011430316455865399,-0.016369840320830133,0.012071533382124957,0.001733973014500377
-0.03408137656208888,-0.01877011306553192,0.024381811335645865,0.005448388363276408,0.01725106010460297,-0.010742681765810828,0.017207786390984598,0.022561708942296515,0.01749745925793406,-0.0041417809633227595,-0.009119681749433266,-0.03161923765104688,-0.02315160314716274,-0.0020365732518597157,0.006134710991884855,0.019883011964366943
-0.028734600701590535,-0.022091625558963362,-0.002639812430302666,0.037992721091171,0.010703147353027069,0.023336376453870704,0.004665949431323616,-0.007701407644213074,0.0011468133738274484,-0.03629092457204542,0.02663155002019031,0.027317638998715317,0.022870469426326846,-0.017427908883582567,-0.03077950506691987,0.004276986873897294
0.013488878101597518,-0.027855981298527177,-0.025655922434609842,0.020412067660398447,-0.052629895411086446,-0.006297505150073439,-0.0064642454404170106,-0.03398984166828415,0.03469158880736412,-0.00171968004507096,0.05663231571742761,-0.036786717187765966,-0.0021268515570039,-0.00736430283388189,-0.05171797158586554,-0.013866365003595312
-0.024491971654162635,7.542465592306808E-4,-0.02008178538797133,-0.05369809608487744,-0.12099975815854827,-0.03799654666217575,0.05432353865129682,0.012424866043647061,0.07891923058862906,-0.057788650369191376,0.08382313555763773,-0.1222888420199549,0.010798386901875625,0.011442002554938921,-0.07901939585374047,0.0631515123456583
0.009455692041091122,-0.03474146813558762,0.05838485396198513,-0.06216253439076136,-0.08481223093723379,-0.04730867484560205,0.031578535384061135,-0.008784601272704924,0.059181230970951154,-0.08592545748036892,0.10464594876735063,-0.11962289616994513,0.034444587485999247,0.005706599636020316,-0.07284741157378073,0.08832508964696323
-0.005494277120794279,-0.06835573200208968,0.011102919935192943,0.003665216023562212,-0.11146118491851108,-0.02281526954600543,0.0288447299579928,-0.04920005249871807,0.12139875091063214,-0.08898665403658644,0.21426041894294112,-0.10149345962141011,0.10400218146372558,0.003527854727430161,0.021595954277641546,0.06279171099266129
-0.08394830369701736,-0.04729320228699964,0.048083640917479034,-0.00982255460667697,0.01160225083305006,-0.05950039675537155,-0.03760977037954409,-0.1559192991242687,0.1269497000655751,-0.11853956525520057,0.23897241940206693,-0.02744657067550279,0.048813729187638245,0.02142350867176619,0.056195172721667234,0.05973227492983422
-0.11350396456219151,-0.0843937988759631,0.10302365515993915,0.03394749929141029,0.08627602577503132,-0.01955446500059208,7.458402350934269E-4,-0.10339473289051954,0.1798663534993138,-0.20776472991942277,0.28890251206330686,0.07974818961416423,0.05171275802745583,-0.044899166507111704,0.033817624605079755,0.013882742057580163
-0.016091687888645987,0.00999371006925217,0.09634341907693855,0.1248407269093606,0.05648170933912826,-0.06515542651812373,0.006162475891600461,-0.05873738271425285,0.16603975580521185,-0.24454983276891287,0.26125782253463126,0.06980352692708507,0.044318968283593135,-0.04982689057065651,-0.022731171982048076,0.028738602639171138
0.019838563042627468,0.036876073419870974,0.09792406005718955,0.14912026347557256,0.06570369374322031,0.043462508781316016,-0.06247852920227028,-0.012984716390141699,0.1993994284056818,-0.17905841819327864,0.08385542781370035,0.11698577061555251,0.0400694498699524,-0.09304832870112327,-0.08831789344612392,-0.0012122720801000175
-0.02346759060548101,0.035317368446089924,0.09151458271911746,0.2235719284867694,-0.08847550479269282,0.18021381536818515,-0.0019590507911682207,-0.022232185721846372,0.18660799180469026,-0.14251739274800324,-0.05238148933568368,0.18097542222602256,0.0293292750234568,-0.05842313127234787,-0.11328841104047413,0.01036792058054683
0.042939745549237976,0.09044481489515882,0.010642966920038362,0.3067192458566704,-0.201873089441791,0.25208840383734954,0.018584523587313318,0.04464040316769922,0.20670433496517693,-0.18759920511831527,-0.033374056439784396,0.10053650451294026,0.05325825806082939,-0.042399710254575396,-0.22657331209475942,-0.008135521237134579
0.07266409802773725,0.09264872592475847,0.006144754122250325,0.39122171546134094,-0.1555199264363171,0.20207276884260372,0.0028043742648883323,0.09405151739207614,0.13685871268391736,-0.15977725377459795,0.018744158062921262,0.01822779987805518,-0.006956387077639664,-0.02259166535618429,-0.23579783506908641,-0.04255300303887474
0.09934257342864761,0.1637692109452811,-0.003231628511918479,0.36196492913872,-0.0654891776041313,0.20266488124410667,0.14201039360742562,0.14401613953208536,0.1672390007452857,-0.08677755778677172,-0.020246671079162046,0.036944351162026,-0.038767802919203086,0.006979556625622837,-0.3168518071124856,-0.14827051204093197
0.05853036872544234,0.17262195492543522,-0.03410728919432933,0.4377547195695502,0.04282887805864582,0.2483016434019871,0.14137043342971328,0.1606368614528303,0.07150090409010153,-0.15255100152833656,-0.05695805864303523,0.011467326801018793,-0.06055254068766813,0.11223078215234468,-0.26823384976148557,-0.20549033003767886
0.07110442679627763,0.12667077836439025,-0.06084852265670844,0.4257096943409377,0.03569568489531548,0.30511073571684183,0.06341881062798553,0.14035987573210798,0.18484650941523167,-0.1990903469281385,-0.04217292029742467,0.12061887123748803,-0.015523822255949605,0.09253044995451924,-0.27373550619728193,-0.08639082690662342
0.012706777857058814,-0.007748196256719408,-0.08935223623705553,0.28852847976161894,0.011632373512884086,0.22434578549294196,0.01864250253031219,0.11016835223916288,0.2298329697637969,-0.17405224804753974,0.03259147689836114,0.13721810171811086,-0.0035268418676883072,0.08268043398217116,-0.25240762365978925,0.03364449556617692
0.003627599503859465,-0.11281117035678241,-0.13495780467960528,0.24634132721130075,0.09388219877805218,0.18496895315101508,-0.028473124195108467,0.13159964765724827,0.2268798255166047,-0.1783104274779813,0.0019434967009417357,0.1672455695526476,0.02844079296403186,0.03613811454474128,-0.22624251766349837,0.06879372896039358
0.03091305414999218,-0.21481716012380084,-0.06556634150980227,0.20497999470607328,0.11239850528105284,0.18727168174747055,-0.02776930937562741,0.0725142705108207,0.21298502793010224,-0.15663126966501195,0.03252777578345246,0.16164856548109202,-0.02442709992408933,-0.07971069997372116,-0.19982991098954284,0.1359106621207189
0.026870273447998142,-0.16967130323932997,0.002608668512737273,0.16398156126876523,0.10461575981080681,0.10985897316257572,-0.006842596102763164,0.07591244498369067,0.18968705814236042,-0.09168631715372044,0.020524888333997016,0.08005606055114953,0.007486894907853537,-0.04734023044338853,-0.17667399054047406,0.08670558220076163
0.07565649629198329,-0.13117345940338968,0.05782478378413223,0.10240065656100783,0.11834023641338189,0.08228876856442445,-0.055988330787584875,0.06668469076902946,0.0932057037811992,-0.09166745673070002,0.021563118211086762,0.04015566527261561,-0.03323916250416874,-0.0901800338005986,-0.08627923681886024,0.011941271076240066
0.13591490888590652,-0.17824933275895716,0.04395125809098508,-0.003519041081964636,0.1562953982199357,-0.024818565183562718,-0.0998078943411026,0.07071809761036073,0.06755481029791433,-0.0635115188927807,0.11467446035831111,0.10755427130849021,0.014064038327540017,-0.08803768430075913,0.007251399439281977,-0.00474796623820116
0.051472205335401304,-0.21501568659109724,0.2197038111091832,-0.1520803203022293,0.2829105941767885,-0.0600477969087856,-0.10869738785076669,0.13568049816276087,0.07426732460263531,-0.024820875509806127,0.12829102432101355,0.09479301759172992,-0.03793259454326884,-0.02844578117576156,0.09872171095060601,-0.07466222466531153
0.025435473176150004,-0.12249616168717564,0.28115660892016603,-0.15957689085675145,0.19900181734398534,-0.014879524445816736,0.004862249099591345,0.10940952500776849,0.043338210792858975,-0.05924332520108197,0.016882524810129283,0.11631787642411281,-0.10620364131933235,-0.0023065214405934833,0.037241147885667764,-0.16413711462481329
0.005377456363686903,-0.09546472138235812,0.16405328520453252,-0.09741934192027307,0.11214424490644441,-0.0028707539858883638,0.022015248389201197,0.11248810347133868,0.03195164092145518,-0.021485533016059932,0.01966816385590692,0.01840688560589413,-0.06801254795119138,-0.0513595085704942,0.016983062762832252,-0.052449416000427795
0.005692557984038871,-0.04612734015194762,0.06122113502241105,-0.019480019040461975,0.00529172097890451,-0.02929630680864323,-0.0059250863393486295,0.04856980397865964,-0.0017409435900135244,0.03050965061772479,-0.024418853832221997,0.014382346967229884,-0.0342217382645065,0.012413764629704725,-0.005354945097701806,-0.02698713442830021
-0.0018676777044827784,0.024846503343349063,-0.021588193780411002,0.00114150151752029,-0.0035840817699031935,-0.002886524765742814,-0.014206767007824864,0.013457753381328342,-0.021737423341952937,0.002768385462853682,4.0539308205068194E-4,0.022743953167696503,0.01715624989129296,-0.017710054730423697,-0.016007286045741243,0.012367778639898469
-0.025097499757923313,-0.00795427142763754,0.0180075043217712,0.03537754246998161,8.7115471040916E-4,0.017154359167922177,0.0032770850453173734,0.010035708700207703,0.02048914134793258,-0.027891890878061033,-0.00587788464542506,0.009051018222539134,0.015451184357431817,0.002611270778237799,0.011320403102374643,-0.004939440777585159
0.03308295429330394,0.030608517963998435,0.03412786096423311,-0.029134944019469988,0.007062736250423282,-0.019802132016105374,-0.008724437860471284,-0.0026154986902737413,-0.011961431155443398,-0.024119576952582544,0.02408470591694183,-0.02029065047658599,-0.005092546141215321,0.00168108980835169,0.022273477628860013,-0.0213213695434516
-0.014227601458363638,-0.027352923696085298,-0.023436814443035,-0.0022465755520937173,-0.02146277671744344,0.03148425507797621,-0.032635448645351145,0.001661841868678527,0.011995947978237595,-0.014732192612016647,0.003624225991132977,0.02256644699769626,0.024474657746423857,-0.023084269420326656,0.006010056131211647,0.004350712051353656
0.014919106284978919,0.008779230278649568,-0.013152583265017167,-0.002093801380505276,-0.02442468617376002,0.008898309279453398,-0.019217558024196703,0.012922416307758462,0.07817036938875968,-0.00726263498702862,0.061409556055821456,-0.04115504941056269,0.04173562162039576,0.02681864887263532,-0.008460619249421363,0.005999758654101415
-0.061108353742003026,-0.010271134626271772,-0.003923471910718061,-0.011426767893079203,-0.08653264438637917,-0.006036086706674935,0.0233855704947423,0.0053294206160172585,0.06598679364057128,-0.05215825532179559,0.10354552486167003,-0.1268369596716592,0.08289867291001644,-0.023663484055452922,-0.1195651244864718,0.01803205735665107
-0.08069710175946992,-0.06564189974958375,0.04061749294346419,-0.008966010450579253,-0.10457281334895766,-0.026510223995860133,-0.009739512002661033,-0.06437913520885265,0.09552534633788408,-0.08238168889375812,0.13673785096816096,-0.08898050665641391,0.06042299109716429,0.016570663400702478,-0.10231710169155434,0.042516750679698796
-0.022300369869620053,-0.03899153710693843,0.002027260602425957,0.019270618289511907,-0.06277271461774854,0.036387850619003334,-0.016526613937980994,-0.10491382844617483,0.09213889320897545,-0.12224200007342786,0.22850162654522252,-0.05243479432465354,0.08912254018237388,0.03410145280738644,-0.003884503643175107,0.02050923575550311
-0.06785106586463956,-0.10085461006247459,0.06406246267193184,-0.0037766582232812928,0.011551421408476559,-0.027901763544413746,-0.05708087660687527,-0.13402421491754135,0.17319214180365744,-0.1836985619258594,0.26251685410099296,-0.021648192788906926,0.16878867363095068,-0.010758049726734232,-0.05616182328903979,0.022549682213897155
-0.04546868749150955,0.004750794032749134,0.09345181042615028,0.06930688107690142,0.07811939164294486,0.01874253077271541,-0.04812240658146717,-0.059182693276380684,0.16652055842204302,-0.1722799498427114,0.2543590371383825,0.056478326329509144,0.16026635469979045,-0.09162506751679904,-0.05982089252963315,-0.07025297290975059
-0.04913992131495483,-0.035706781670616174,0.07924730404340455,0.13843509377670477,0.11106668222943501,0.04232513615217341,-0.05206224633434321,-0.013846717989322486,0.07870737730769133,-0.22088461206256058,0.16775669109524505,0.13147389866593295,0.07228431965844692,-0.09236737258749352,-0.037114871750394726,-0.010080544793499293
-0.05470681627952632,0.014317416744471758,0.055957073273176006,0.18134776063700922,0.012661028765220184,0.11370275127652586,0.014325919878597854,0.009295491512076969,0.09317012287442107,-0.23246742155943595,0.060396542834914344,0.16761455901931768,0.1090067922960638,-0.12619686865871665,-0.015012743526128018,-0.03628511927405723
-0.062018030593486664,-0.051616393323510174,0.05348402921318024,0.2134617181738756,-0.12655742052024477,0.17447981087527797,-0.017465738464695527,-0.023810655813611522,0.17979995655790296,-0.19628338018747957,0.038717390216392075,0.2641949363884722,0.11551366652893882,-0.11625531517013417,-9.862593440261793E-4,-0.03657607185628932
-0.07920931651872523,-0.019672837085689968,0.09341361042355187,0.2688916460789939,-0.2071734933632837,0.188747671243128,-0.018576749822067074,0.0017449104331637665,0.22938310203106088,-0.1470581670154246,0.06265986348301633,0.09027733041167818,0.06921970929686874,-0.0768215840928946,-0.08068172882891594,-0.0882811288790245
0.041065545830067794,0.07122785078450103,0.07955200444644216,0.2918650534799242,-0.13552368260397674,0.21632187771218034,-9.369129923288798E-4,0.0774969579318799,0.21251458811110938,-0.13753218293833586,0.07480469718193858,-0.04511618671293699,0.0357269402978388,-0.0816637857353087,-0.08763973563588803,-0.14308728751012828
0.03993069535972865,0.17275890405144195,0.029828973653022416,0.3830024611173272,-0.06997256653030132,0.2630712737958346,0.11192521786352562,0.10789174112701239,0.26107947051222186,-0.1365804886783558,0.04982491304469746,-0.16306570240312518,0.12047537187489836,-0.14169525548100492,-0.25675290503495435,-0.22679931279673687
0.02665680467611376,0.0706618521572745,-0.10635153924379082,0.38955554176924834,0.011625817977224784,0.2241709706618257,0.08421829724370372,0.18745378409641206,0.2665433963297987,-0.07636234218025181,0.028562239246437058,-0.18886189291628788,0.1038579811913359,-0.0811714196006583,-0.25180779914226614,-0.2069502025421785
0.0927041136794153,-0.022266116323343646,-0.16747644763293912,0.329074231589617,0.07008357327430731,0.22718132472774755,-0.08514690129225738,0.1466220184449601,0.27179139355527776,-0.21030715543436457,-0.008893685874640537,-0.06699418114421868,0.048759976373042066,-0.0015524100197613475,-0.14103656307117288,-0.08532262758005903
0.09855822647918495,-0.18523939026193442,-0.12171839139426019,0.25583785413422505,0.03184818460720751,0.1757326444837415,-0.09471437022315189,0.0752825825759627,0.23596846218086256,-0.15442782561345858,0.018663556413638302,-0.028654165714040118,0.06960306259992571,-0.05971832260525909,-0.15817120241271215,0.12595669073224552
0.12287197623406323,-0.2023987199854889,-0.008297431624425148,0.20877199168414978,0.08040406173674361,0.17389446045505746,-0.12960999500570686,0.08744761629393268,0.2615821888463613,-0.24089588739257303,0.043035028506181315,-0.08921526443840729,0.05197487419137703,-0.07871888008792896,-0.09780777651211062,0.10412153324501937
0.12997576319920495,-0.2483751328494898,0.05041230710825517,0.21299661592179656,0.0893194577248931,0.10732748556557481,-0.16805984213003033,0.04977837881780615,0.16699096138809222,-0.19895424108510712,0.0584469083940214,-0.10312993754783292,-0.026536126420707414,-0.09963497970416858,-0.0631611815866937,0.11605340661990209
0.06240052638214606,-0.1798133472148115,0.08857988502486994,0.12297473043928889,0.1058329302661723,0.01869420296484012,-0.09335124756900498,0.05864594166297269,0.17048718132101248,-0.13229747007138573,0.05703378410560457,-0.13329563649743378,-2.699310480933091E-4,-0.075316472885991,-0.09513792233241096,0.028160605559224977
0.08832404819574388,-0.10903417013780745,0.10231408119673595,0.10278742727204614,0.1402132303138648,-0.04941245803122832,-0.13206505388416967,0.11048796850750782,0.1191419738216097,-0.1142467182653972,0.05695869091819124,-0.12314830442242228,-0.060945880114977584,-0.09224840339521075,-0.08537726678322091,-0.04761341245698857
0.06099740296448639,-0.12911223479105255,0.11053705118334523,0.04840866649493982,0.10317872845670988,-0.10842301395450175,-0.1157443726164016,0.1507033445227383,0.09873705740686256,-0.15024223303309012,0.08776019912151067,-0.014807450261641333,0.02115460152884716,-0.07175220674679483,-0.06973093092831616,-0.11129604542353914
0.09056011146817243,-0.1903209687726397,0.18619873203089204,-0.06913064644350944,0.16405182609573382,-0.07215772566265269,-0.10406607228250428,0.17320113888141578,0.08980771824892027,-0.09877306665239333,0.04178969244605233,0.02933196018658126,-0.043890781338626145,-0.10519847016500457,0.095504871474305,-0.22171038711847119
0.06751676452440104,-0.1820562539751927,0.306439003284076,-0.10888976029927709,0.19983269122278843,-0.042863223379211474,-0.026817545483135672,0.2251188352084194,0.026212867012063306,-0.1086013135723617,-0.08789281156185318,0.06865131630490354,-0.07411811093929649,-0.05084411737703916,0.038715116444084895,-0.1841787899975305
0.08141726920647714,-0.136943645070067,0.27946625328689606,-0.10347411709421243,0.09899066090561724,-0.0040322057648811685,0.0439111355685631,0.13692998999602973,0.010128356056427975,-0.06511660411959556,-0.12195067457077173,0.0576652013323078,-0.10231521186898486,-0.04705328608826788,0.009833372442419072,-0.08906336909291432
-0.008132655506621364,-0.024888689630591248,0.05122002150938956,0.017086445750499026,0.043861005094948516,0.013112601223729948,0.002314737844838915,0.04011273985889314,-0.02481772354149413,-0.008906185475376218,0.004279193751731314,0.03816558202371984,-0.011247725844512047,-0.03752943969400616,0.014911567583696717,-0.017251272909760407
0.03234992126431755,0.003660784576459262,0.022150429843377176,0.034857756902811766,-0.022161979501956194,0.018683489081030177,0.008281159248241939,-0.015282907663825132,0.026955428964026865,-0.004340392816555164,-0.026505234055023866,0.0030671132391781883,-0.012113126193519614,-0.020189948162749077,0.036885598049009635,0.016093239382854018
0.01852305927242425,-0.014254497574192854,-0.014663469005115915,0.03297933876958656,0.004158556273230184,0.003036431112856157,1.3397068308446858E-5,0.013887620664017965,-0.008739451760925008,-0.03357681295861507,0.01677501599625768,0.021857855676632437,-0.009463065724226958,0.01434942555856029,-0.017372017710653637,-0.025450534923567976
0.027698376540851923,-0.03307743158652134,-0.006016002725678178,8.278518090175743E-4,0.01909861588898424,-0.012580118194300355,0.027327964154652894,0.015850610953221128,-2.9972890552473454E-5,0.0351771361480899,-0.0191477515194404,0.012202089003266433,-0.02260537330776995,-0.013720998276571483,0.02132572691374638,0.02548352006544458
0.024847247608952135,0.03335540214031538,-0.028480423818136747,-0.027029073656470424,-0.039022503720692735,0.02277263504722441,0.008251929237285346,-0.0131466477222199,0.060483074507759894,-0.0075781556270264165,0.0376131350226162,-0.031259804333566316,0.04717660146436942,0.00624822652280849,-0.022827159616295913,0.03796550595672966
-0.03347103530237591,-0.009142073392756411,0.01986433314737996,-0.004412057688119471,-0.08471803658688092,0.0027838414430414616,0.012677264896619645,-0.05442641569347628,0.04276478541784201,-0.0048309658564750085,0.030391657880305633,-0.053620827464776914,0.10211954882402642,0.009485729729780408,-0.0791771004061172,-0.011544783956619249
-0.05328482947387325,-0.021532741543315352,0.015517595401504696,-0.00563339906364066,-0.12454039992294033,0.016614601969680266,0.028425772939928554,-0.06405399141389705,0.06512094187662881,-0.026934826923172908,0.09453510130228529,-0.06699656105780406,0.12095642165232706,-0.02590074553346841,-0.040899494146203794,0.04097766435502066
-0.04436121813243177,-0.09949178523884879,-0.0029182187299548372,-0.0032952577575441205,-0.009816768342397681,0.037620617862508234,0.02959921369662058,-0.08957262367220215,0.03959951897808337,-0.12284837596440312,0.17617825728937186,-0.06758456557016908,0.1105250073265229,-0.022768326437317417,-0.03133470493709622,-0.013169927788567059
-0.10866603244021421,-0.06457721013378176,0.0354119131083894,-0.003081672417737281,0.009232790160696235,0.09777497784873075,0.028303889941746155,-0.06319564801502249,0.0291520270965202,-0.09009227849672864,0.23183152063633372,-0.05592741270501326,0.11021612642478236,0.017233713892239624,-0.07555360478544441,-0.025664167413267852
-0.1476095850422806,-0.050565128335401034,0.10455030966807954,-0.021991938639871568,0.06811768511967677,0.03733712986219979,-0.012524822701179432,-0.02865251102347108,0.027190318264317465,-0.11238512716896894,0.25840368743473524,0.023116097842164604,0.08837870208300244,-0.016706849556065054,-0.04263148810358717,-0.020887531993234724
-0.10872645195163802,-0.014041169090233677,0.07814184369810229,-0.021296713409745132,0.10577688441498923,0.09850510111074824,-0.02387923795565129,0.030615527794842036,0.03349232378167871,-0.13259137658717982,0.16943168493098912,0.09927585051799818,0.04308522686041205,-0.003364857240170475,-0.04355750388752116,-0.06788627413483227
-0.04114825555957271,-0.0045593996538297096,0.08633432395949266,0.053762045269973344,0.12925910930128076,0.07221401052987536,0.005208721106645172,0.02365282726457127,0.043057003491753044,-0.21087450410516,0.04891854427276997,0.1581308215198211,0.03712832627208594,-0.04781367894930772,0.010646125741166561,-0.06374956972844557
0.018169140685986646,0.03613100321695469,-0.008598147627246245,0.09060420063409808,0.01920151421096159,0.18626686312624238,-0.0569748106901289,0.032644393682958364,0.050814183492948195,-0.19361232341746376,0.053084568431925896,0.19150002991486703,0.033183350780668426,-0.024059978947542526,0.015080171998642625,-0.1420519095076778
0.03399222621163949,0.019694316473496853,0.15580080530932197,0.011942244498017526,0.023734511041534668,0.255139392784065,-0.09569812435318456,-0.07093996891126889,0.0807130444230026,-0.12601306555541664,-0.0793997855174745,0.29707052478178647,0.07665505629817133,3.589114557116155E-4,0.0787795850465955,-0.12614371608996922
0.08241166758932326,0.053794626124361436,0.0883565750511011,-0.0038726404891053635,-0.17352867333356542,0.25061253747382933,-0.14233763994563076,-0.06767037143387121,0.13956365760817596,-0.09749187638844736,-0.03278684446173481,0.12341139511755532,0.12341607818656615,-0.06788048675837893,0.11471990863506427,-0.1734320535966724
0.09541128464740764,0.0556141151175684,0.09267585138150779,0.004670129511176281,-0.1721918608110224,0.3155901356798055,-0.1443278229869992,-0.006359366930809387,0.20901806903620998,-0.09253706175009382,-0.04520277449803037,-0.19418473695413238,0.1372200751601445,-0.15954739534019236,-0.03312750965713811,-0.24752622469755817
0.0682769728911578,0.2103873853143627,0.003001888958155788,0.22228423288387403,-0.2233218202280508,0.33091113174395903,-0.04707611713244059,0.1135792670263259,0.2502665596938963,0.0350135161789304,-0.0015187696511516644,-0.4432467157570885,0.2988272653161017,-0.21575320669042483,-0.3586675680477256,-0.3847868412058746
0.1073777037946159,0.10039192894159812,-0.14516553028096263,0.21122001858995618,-0.09633546235714611,0.2079919690122462,-0.01517760585624176,0.12804806218969153,0.20332813679439388,0.005163304674625025,0.0659856259661814,-0.4644481469941601,0.28509335567806693,-0.16856594906161998,-0.35251754658128526,-0.07423531191089655
0.17300168770763028,-0.17477755150102034,-0.16977832363342774,0.08986592384478738,-0.05778959367652217,0.07771617275604,-0.18426081507816233,0.00621170948199475,0.19795156433192754,-0.08361118650942465,0.06548527089438391,-0.38001444274371465,0.16571669250903712,-0.11232476512511007,-0.11276043042400635,0.18204921397058804
0.22272296881333042,-0.21859920148560344,-0.018470318857821227,0.17424520147440678,-0.07760718449105147,0.10520466674351565,-0.26373270112070124,0.02100462496863119,0.14192637633950397,-0.17137996574857026,0.05849193829352846,-0.35600685980220553,0.16775346495530058,-0.14433112139529783,-0.08960410787480769,0.10439724126682094
0.20289824584405525,-0.240592683002197,-0.03719228913761567,0.09229473850437225,-0.024936369582348888,0.09806154591556414,-0.2679410816830522,0.03352353287845745,0.10707850676566766,-0.1733708010884415,0.039979958346091284,-0.32368309544305296,0.054027725679590174,-0.17145223694332515,-0.09215762468447837,0.09829533226782446
0.1705037224347544,-0.15063526226918392,0.05746982568560899,0.07503867446354683,-0.012964609216517414,-0.028040290103908665,-0.24939012224005463,0.05424256890355732,0.0723390857383565,-0.21045602705014746,0.034925594087007066,-0.33259154941959085,0.08408764036642916,-0.1474422655200233,-0.03002546792689007,0.027325301064239478
0.08609001652864609,-0.07120655229045736,0.12326217956120311,0.11761978216555362,0.03067256631830127,-0.036162546515419315,-0.16837230412598964,0.029191085922136092,0.10984915875634332,-0.18056739915263897,0.0024094496329808246,-0.2514749791805617,-0.019033755258369606,-0.05027766825715468,-0.058929342321616854,0.023960924890607662
0.08979534712789228,-0.1477701979262321,0.1951221305509218,0.012073710297390162,0.07207752493666233,-0.09077190156106432,-0.1433693040723897,0.06352918775348936,0.09049957823185954,-0.1284730769226667,-0.026622808543367054,-0.2465215466627853,0.02211726957991574,-0.07375579432797465,-0.0745632868010599,-0.08352434159788417
0.06382158365127961,-0.16558160141664244,0.1780592310636595,0.05674296048493247,0.07028963260957558,-0.06946112451300815,-0.20513907143810844,0.14917157760909258,0.10746121632010935,-0.21496381960727903,-0.05672521889411001,-0.14470195328516236,0.023423824448632984,-0.1142669297734578,-0.013179464577882037,-0.1685784775099354
0.08739390301416045,-0.19318981022018725,0.15394045702039214,-0.030800849841994493,0.08770837890787757,-0.08243744876296911,-0.17270914088754658,0.19727646189661888,0.07460293089163672,-0.18914566339202218,-0.1324771829708314,-0.05953648378613653,0.020043135269042132,-0.06740404449838992,0.0515826121340117,-0.26784448102688385
0.08893377299249726,-0.20452228414975662,0.32527413178043674,-0.09106642594006331,0.14470798061401297,0.007938488679544858,-0.05578765487508358,0.254688097758029,0.05133198712878856,-0.0806240999473845,-0.25101162411677636,0.006508914553772436,-0.051537639818237474,-0.1206040922625628,-0.031050445200047416,-0.16444741229338924
0.10652324825590526,-0.1211175518675702,0.24538336865821803,-0.08176934246353222,0.09371449746083964,-0.04130784336584948,-0.004157841963538824,0.12445335064674373,0.04336025786600959,-0.02834487202937724,-0.20689642878975822,0.05256462453116793,-0.01989619002877398,-0.11752097511435469,-0.05758598114284708,-0.11583906809205619
0.03627924450659989,-0.04910320392847702,0.07682714877375298,0.029880775954776524,0.04389530769319966,0.027863065204900662,-0.01893642235968038,0.048326277938895205,-0.015388160206945927,-0.054477611699957997,-0.017162767317529918,0.003966391047114118,0.003356345134137389,0.01397529323849016,0.006504135329721208,0.010694162472016867
-6.508102472247056E-4,-0.006712715428835636,-0.0015514454666919835,0.02419176108379806,0.021759729148291235,0.014535061263000746,0.03128107591182829,0.015275898130651203,-0.022666516640388646,0.01971698948625053,-0.00916727266367363,0.00618644418906295,-0.021330197860624324,-0.030370307496880262,-0.0280369444947091,0.007893401772133862
-0.011390423142361952,-0.02879810588059015,-0.02650093314128902,-0.030187757423426807,-0.028883771783644343,0.014689725557269504,-0.019772782535942505,-0.01562129667249146,-0.01271166106864897,0.013707177689770521,-0.002299711566456909,-0.006676378276134653,-6.388248272920945E-5,-0.023301788903085024,-0.004491530833753515,-0.004614513975135073
-0.008820353192054535,0.018219992101300323,0.018321134419958585,-0.026164940491979358,-0.006792956243433325,-0.013494682685757415,-0.0325583515695438,0.022238699820228223,-0.02123086524505711,0.027976543384340843,0.028683494437586138,-0.010607929275527315,-0.02191253910657848,0.03346412966111536,-0.03149231334172838,-0.030815148506553616
-0.009104815502101923,0.019720962829255725,-0.021728948274114427,0.006765139849546537,0.004628991637081135,0.005790195005799214,0.008277293585559706,0.011911933844652528,0.014319649133565778,-0.0047560565939910576,0.007238725308964622,0.01205695165006673,0.02144332670184778,-0.03834952799915663,-0.031391257439101,0.01918358952100111
-0.017403077755854535,-0.01023061707138915,0.008641585606475249,0.0012975183760783864,-0.08940325160143632,0.003525404254598001,-0.019073492947088145,-0.033119818159810105,0.039623594266334355,-0.03332800658133229,0.03201159614812913,0.022403028448954768,0.07926740325648964,0.04642060438780411,-0.06255800674619931,0.04515382386132482
-0.05206979132957305,-0.029453132012209223,0.06783849901968587,-0.01885277028147013,-0.055203250326927564,0.056934740159801864,0.021122574371671185,-0.09928381096680275,0.0808113019950403,-0.03733831900870135,0.06979959042403404,-0.013016883647466036,0.11107111663531424,0.006508831577919019,-0.07905688095823044,0.02699574188606791
-0.05921949766547454,-0.054313179949907794,0.015918908265963646,-0.047521385402237167,0.006236478274971858,0.041528480480763186,0.022028321591949368,-0.07136437578448127,0.0417183311962518,-0.0863720029872984,0.1737765533869549,-0.004430448536247095,0.13354501113201497,0.028598750035203305,-0.048251552284324345,-0.022574857263429084
-0.055676732553747076,-0.06957141919342585,0.012883896572916395,0.00601810666318516,0.02440049478817274,0.1644610038408749,0.017282745846443147,-0.0922230441413822,-0.02010106606272889,-0.1005307152624055,0.23096808621001477,0.03566943318492745,0.05481042996502758,0.08055437804794874,-0.06022272843807423,-0.1252104214864891
-0.06262442860462272,-0.05739887897072604,0.08886505090099732,-0.05186286290779143,0.1454634509188992,0.14621074679302115,-0.06120497883813562,0.0043913574044778,-0.08975601195096043,0.004098029225646303,0.19540281308087232,0.06548649199979935,0.08181174947315314,0.11880524435173327,0.008033429168981537,-0.1166234820751738
0.03571690942668633,0.051584811403138094,0.08877736903634986,-0.06684634884543265,0.18346426835098562,0.16027120264877628,-0.09486561742743164,-0.006586031078736186,-0.06610029484126366,-0.034629076305559656,0.058955036406640904,0.1676170068228622,-0.056907861113776916,0.08069504611805058,0.026170684128961383,-0.1718529690239792
0.05037036214975811,0.05881964266951395,0.09121357722753286,-0.14526967994883253,0.22928827808322033,0.07335013458202093,-0.1437679215154554,-0.00346606237760671,-0.07937140209026622,-0.10766553149865908,-0.0025845835549067452,0.23663110142958457,-0.03598126272817824,0.040553664492907655,0.061137995994889706,-0.1467482657640493
0.07485740284206481,0.05921257331335712,0.11469309937768397,-0.20426928102961092,0.22596192901883314,0.17953785366122466,-0.2185083851610399,-0.06391113681346554,-0.10991081949714022,-0.06809360561664472,-0.05322200296368765,0.16561584854945652,0.0069411892111396764,0.03591916348146834,0.06645093563530559,-0.23611040775175007
0.19160436414628146,0.10739495986736569,0.11305083401659041,-0.2228842355038389,0.14408001898781533,0.271099782144246,-0.283911306057307,-0.027480012152796066,-0.014631233096479393,-0.12111086595578077,-0.1709986093037435,0.22512938146871583,-0.049028852921038715,0.08612396179356106,0.13722065069542538,-0.29776332123613897
0.272392220329013,0.06387346989681002,0.14547680325589823,-0.27813418360116043,-0.00655996904649346,0.23416696938428702,-0.28248427681343113,-0.025899143413749902,-0.011752416745514733,-0.08402447659672062,-0.13119352307269078,0.11794401403966918,0.0035749463574392295,0.04299673007543363,0.1416800771439248,-0.27298048560867144
0.18384644295318645,0.10529020722764992,0.19516035763747624,-0.32753414268180187,-0.20302185436194928,0.28541936639290544,-0.2454814113465433,0.10338666398845749,0.11155295357037345,0.012599743913684071,-0.14420430738925183,-0.22009522047396246,0.30440664792647654,0.013854083694025654,-0.08672883491185877,-0.4107299838505983
0.06163510364315688,0.08834541757178033,0.16921912908472306,-0.054456920750305844,-0.29425648790132447,0.27846801812593663,-0.11832244484570852,0.2481798152575772,0.04819866825051334,0.14901647742408117,-0.1773943192840713,-0.42456192613096333,0.4356476089808047,-0.12139694917943208,-0.3481750600563939,-0.3239540546976882
0.16276519656261282,-0.04470611190691642,0.08876130372583087,0.010113576072564207,-0.1527132128551234,0.06766375111617604,-0.06719608948501055,0.10426541920877405,0.021695268905958912,0.16212610049318477,0.026942315292493964,-0.38649905812399266,0.38797891061037126,-0.1690629375449141,-0.3017742488575692,0.13997776237958273
0.27982267532370697,-0.15968335785955934,0.054982591478757475,-0.00805156311054837,-0.11494162624396971,-0.013188643360388186,-0.14949444508115226,-0.07975482492740597,0.025417171709042688,-0.00922006406068133,0.03627488646401024,-0.33349668120740084,0.2291742707371807,-0.13049495503191158,-0.1480679798993569,0.24863245963926142
0.25314861853885706,-0.1631293691181996,0.0025199558484293233,0.053941409932471374,-0.2090829032464434,0.031301996429873004,-0.184238996877858,-0.007791833816297388,0.06676050674581459,-0.13307632751730453,0.08058837270558356,-0.3280460606838697,0.11324528243843274,-0.10883655972595553,-0.1358552561528102,0.11378974862486722
