784-4-10
-0.017618338042124305,0.010485229843904341,-0.027623389196804054,-0.011912235489851153
0.006066314326042224,-0.00551029538918614,-0.028467594579241987,-0.028695031326836904
-0.004055882481571189,0.006156714790301963,-0.017054451941962725,-0.03195921565114708
-0.03172242489237764,0.00725241814491407,-0.03118349494511007,0.012853682316356682
-0.016995012972546884,-0.03058002839202846,0.012729177526234273,-0.02448346260049139
-0.031225297464166205,-2.64553012745819E-4,-0.019864874200909946,0.013135048722979721
0.015828504625440984,-0.0025698198815412646,-0.012812545105644516,-0.006714093697927984
-0.01794525873361821,-0.018222156995155787,0.014918558668945599,-0.009887526101127433
-0.007806677403681222,0.0010965995435259016,0.021077847612896092,0.01973871474928634
-0.020929962218356933,0.025491610193799003,0.021654734874464572,-0.023361854424741084
-0.025648979069157495,0.014732203659135662,0.011502077695940326,-0.013078481024978598
0.03324887455627973,-0.03090165043596027,-0.013815102240306583,0.03498765856333588
0.03492009922987831,0.012991109065718057,-0.02230769962613071,-0.02207675842023996
-0.011318639316098469,-0.03016218506567081,-0.032011682498855394,-0.01495812769983386
-0.01328827051440673,0.035611753765986354,0.02943259605334872,-0.03442519054490049
0.019758481311177967,-0.007519839265346447,-0.02456153566996218,-0.01367034690208849
-0.02173615849179441,-0.021223747018688763,-0.019052994739417562,-0.035476978260667334
0.010362466611321001,0.027437057907673798,-0.004393543729989215,0.028869347455253713
0.01958744139205265,0.010669364534835184,0.0031176327833132914,-0.02515261634937184
-0.024226262215377506,0.031898100073973965,-0.009911293938443224,0.00309917266353104
0.03068020442906487,-0.033682196648587605,0.015204908815998862,-0.013553103263907487
0.004111811628312659,-0.008196232120810703,0.030936188643113594,-0.007372256779659539
0.005375634068480087,-0.02813868866294595,0.01657764822492213,0.01309575408577196
7.936637470306943E-4,-0.019250679560976623,0.017597002608384545,-0.020476686929306112
-0.02426887110732192,-0.03524844408196005,-0.025791171656999172,0.009175483603783285
0.0029935513029201027,0.03170976453346738,-0.026535126942116315,-0.03387337836390865
0.006334689866200671,0.003695188548883066,-0.012061844144810978,-0.022436571522018396
0.02113128010825671,0.015220404292966845,0.02802255315555756,0.02749476545774404
-0.01688906654846701,-0.01936583864703123,0.014923306731057115,-0.002679263288562349
0.030034337553855733,-0.007247362613232413,0.016232911921747466,0.008846930031433116
0.03217914899390539,-0.012930635230756691,0.01744408310722844,-0.004946080820777354
-0.0059965771254470585,-0.03378696488711579,0.0355295772885829,-0.010981880229708568
-0.004080980853659696,-0.016868891615701525,0.004895175472504676,-0.020629594491237746
0.013604764415175892,0.01441266269165449,0.012567763938562099,0.018067079774792945
-0.002551276966227825,-0.010917947963060757,0.018449652581572794,0.02083574664779516
-0.00974174581256753,-0.00471736305788957,-0.016246578151472037,-0.013609696839698655
-0.024241365556385078,0.0014660241999181409,0.023431104861211388,0.016248550804681294
-0.0291986577061066,0.007227488024527717,-0.02847927182648935,0.021996504318043703
0.009504736584433453,-0.0010670864854841408,0.031819691816731416,0.034544066975165086
-0.018116386638962548,-0.03061679264242626,0.02347068889392427,0.02149254754291236
-0.02315389071980352,-0.01185735112526786,0.02745515097836132,0.011710222965874303
0.019758014603316054,3.6603567011044696E-4,0.017357332797530683,-0.0037354172002968325
-0.027928713151252758,0.02342499005751681,-0.00871717691404117,0.034683798731283355
0.01980705226344006,-0.002825964561076956,0.02334665374499445,0.02180313642867559
0.026927703259358948,0.026373988787178997,0.012988855337093777,0.011430853614538113
0.0026098799077158147,0.03205793400721152,0.008585215046812464,-0.01739258075230186
0.007121807370465569,-0.013291313954389077,-0.022830439998359278,-0.005516926825676418
-0.0143491349363024,0.02903712563071721,0.03455629974534637,0.007054416473149909
0.034956361177456374,0.022168986939898133,-0.025662699722406875,-0.009032243713890102
-0.004517973097118225,-0.01644081566371082,0.006085649024890581,-0.007466847234516707
-0.007666417095588678,0.013436199976086853,0.01394713513307333,0.019235537029730014
0.0031739555065864247,-0.00817272185823277,-0.03408890263714266,-0.009449607015702202
-0.01955016977341978,0.003531267883347851,-0.00253293555542123,0.018666520267756323
0.006648206254440306,0.028751998552803845,0.002085020409576102,-0.03485410053354535
0.023815867013851966,0.024855096463759746,-0.007359472372962639,0.03414150765544964
0.02395067541069603,0.02843447133273394,0.01505279647131888,0.03096429274171633
-0.030018701700289703,0.004916420727993857,-0.006867232826571874,-0.014775066561794715
0.02188907915687465,-0.032648484313990145,0.02348864872579811,-0.03010971855380511
0.009482353184191841,0.002593003251215205,-0.0022035694200496017,-0.020055314686910106
0.008583574064500374,-0.01955066411772419,7.417083894438181E-4,-0.026076862431783254
0.010882237440994695,0.0020479408800009244,0.011874945980904938,6.802517009020861E-4
0.009712726186067666,-0.03419766997939538,0.02584320392758166,-0.028493872413927326
-0.01707073779358504,-0.03294079378560821,-0.006860647294727882,0.024058193393258404
-0.012809086920263904,0.024581682553052223,-0.014071498476502471,0.027620119243090407
0.006211152979928483,-0.03383610166994997,-0.008366905334829706,0.0019017084695352113
-0.03173871634300496,0.027176235388023925,-0.02243683651089351,-0.003936765951970143
0.002263105242165178,0.02418862994641781,0.018846964316256216,-0.018070527096057432
0.02833807925062387,0.002437121862738041,0.024695710245423948,-0.007337161758429966
0.025419932375851433,-0.02211950686959887,-0.026268845475868496,-0.024337287878124468
-0.010880379384855712,-0.030107082546674466,0.006892168143373123,0.003332001484924421
0.012924469046358564,0.014139366335905533,0.03536932137035974,0.0022194993949168837
0.030056374160840213,-0.014696162214284356,-0.026402751260423518,-0.012123646675429572
0.028224964970568672,0.028646388918496496,0.021446040583171774,0.02129688149311089
-0.0027473317331583175,0.03088478681546758,-0.01605718066680191,-0.013759071380773036
0.012916004822255293,-0.02503126509360281,0.0068272616380928505,-0.012082866935777585
-0.011843286598846321,-0.02697576849306948,0.007616225859943052,-0.02073070400478523
0.027280480640774984,-0.009916302577771936,-0.005286574232421348,0.02802724590267354
-0.010808296105019193,0.02633246245176548,-0.03331315169753436,-0.004088274322487942
0.010928887507598926,-0.0036488564404992957,-0.0016492829012179008,0.012973098870403293
0.030777293698174765,-0.009598055210234904,0.025091520089040475,-0.03388603560039839
-0.005091719318937156,0.005479924556677528,-0.03262546638990412,0.019241887124615782
0.029050983261180094,-0.014856196289302497,0.029790804617654418,0.019208333308526622
0.0026599051668996787,0.007781529647598054,-0.026322965267100956,0.02408495739816325
-0.0066137210989646,-0.008904424919328975,0.023234581105826074,0.03328980377279406
-7.7828166751049E-4,0.012977781801822734,-0.02506051016339344,0.010491727945751886
-0.005229121195350999,0.017892564906912052,-0.011777887248585955,0.03331212041614366
9.789963134014187E-4,-0.010766150383735573,0.012239848202719124,-0.027384705075370178
0.005489561865558247,0.03254079539356823,0.03344876055875183,-0.024207998681207772
0.03162798248455198,-0.010785033884600653,-0.005403932159671512,0.016906891743037833
-0.03559573516756453,-0.02765651359547891,0.020567236667514498,0.008626347645029328
-0.02746753060688916,0.00659902638003064,-0.032611892222646544,-0.014489831988115019
-0.03024748547183565,0.004627796902441049,-0.021658449492047538,-0.03212867617182455
-0.015470309721110423,-0.007273586486622328,0.0030733508441292204,0.03312134055345388
0.03153781356638037,0.009169038680475132,-0.017883709570654185,-0.012590248714925548
-0.0017620511386926344,-0.004883404320504641,-0.013007690655418552,-0.022517874877867106
0.016882925322918622,0.03190326914860392,-0.010951734663533916,0.00946377689173939
-0.02350465730925594,-0.003946566565086955,0.020320984769502143,-0.01884456755483681
-0.03554489835965207,-0.029181121073807468,-0.030739618298017735,0.00951168695621342
-0.024927315922078475,7.97536171092586E-4,0.01908984503818069,-0.004473664303938592
0.03229633850356056,0.025593087436157978,-0.03346380486556528,0.002916209436850857
0.004624853457243339,0.01467794185474773,-0.032126204303725474,0.02423582733290343
0.021992791977746347,-0.014063947218932393,-0.016335791591473563,0.008917462939479273
-0.010296230050833181,-0.003217503381564013,0.019722552133404347,-0.03541267402817844
-0.023531050224337317,0.016372277648600983,-0.0040741288557812685,0.03324326697345251
0.011185488050592801,-0.02222115249996609,0.025363919167657137,-0.034797632965712616
-0.027704038127260883,-0.0344376595762695,0.03181538870245908,0.027833043452617903
-0.013983013854961358,-0.0316877883354365,-0.008884190346920038,-0.017587481526911544
0.001485792041470528,0.030409880128986558,0.02225333060192275,-0.023385061786697192
-0.012462489192936948,-5.637325480480834E-4,0.027435976655420802,0.01601974827424043
0.030825105185161225,0.014463104498811233,0.031004932580275618,0.012367151928736747
0.02246669575338517,-0.033494721688464624,0.032163458589506144,0.032710790220061584
0.023899167228310862,-0.004636891345393579,-0.0016434851161062566,0.015577920505045022
-0.027706557845664614,0.02405031568606463,0.014896495362891657,0.014513846915709137
0.01765017234769683,-0.020159798241709152,-0.02823714339347485,3.553019538402799E-4
0.0024373077185498512,-0.006850792021486765,-0.019766333040860243,0.014223811591703064
-0.00391555535382393,0.031184447988238134,0.007888407815556518,-0.01421619472328792
0.009883450611158202,0.021249501473218566,-0.01512929935912833,0.023675890395621346
-0.004662997435046223,-0.010774307740955637,0.022307873987971752,0.015049178477607637
0.02588526123430962,0.002900848879317443,-0.029518679550492935,0.01980028363851266
0.006462585201151359,0.028106285986957844,-0.021183028825453712,0.013763809750264207
0.011361385386625414,0.015336554844564636,0.016670192552665046,-0.020297588431454128
-0.00928956691182891,0.01595803329603763,0.012649003376235944,0.008360363627725388
0.020761430686024672,0.02337886716082798,8.58612381149787E-5,0.027313990755388262
0.024312958059251093,-0.014723302148467992,-0.019610064330490038,0.015662244423400903
0.030700141499841488,-0.023897579796213826,0.005226696844366038,0.022604879622756646
-0.015484076135443194,0.02910719316039466,0.009866029080518146,-0.02448939078142751
0.027304576987597848,-0.03428628563104568,-0.031090059851025698,-0.005842853394715297
-0.003615300926394248,0.025962225335667048,0.013853607791524246,0.021847145333022497
-0.00789678798134396,-0.02334203871702501,-0.022479416673477144,0.02448621002756428
-0.020390658801435153,-0.02880221529658824,0.03153618149651362,-0.027827617174297548
-0.01797522077324898,-0.011274101880377245,0.0040850867944661196,0.006035491108683656
0.025918130465344878,0.028214990324144623,-0.011282574430942612,0.031234015824333855
-0.018765848721791958,0.021099104433276977,-0.02065244460859648,-0.020149284453569845
6.539054938341296E-4,-0.01722110514056098,0.010564965448722603,0.0287456069639042
-0.02309569964026236,0.014342364477382213,0.020483439276422474,0.004971353300871763
-0.014188157642213348,0.027497637891503612,-0.031437849353079236,0.020677558687694372
-0.017593931985637117,-0.015749126044939554,0.022749899678500725,-0.011254698944813228
0.005214045578800404,-0.0028341843193388574,0.011963507393457029,0.0037836580488869592
0.006867501529162358,-0.021992041008038976,0.002332794075223646,0.019368858304247297
0.022415953800727494,0.022966122984983642,0.03406897160840572,-0.015203814357601809
-4.435540430214255E-4,0.013302354160783125,-0.0077826520775581345,0.008858259324109698
0.02877310840805554,0.021474271835881194,-0.03244973796824346,0.013271129222211527
0.024734881094910906,0.03296858459458879,0.024702640695336835,0.016244606462495204
-0.02987332407110739,-0.025258793147070246,-0.01882274886497203,-0.004479294705615668
0.011499326155885288,0.028695785402705093,0.005288529510467557,-0.0022023641106775696
0.02858069186183078,-0.01568575993184022,-0.03125413172429488,8.552539000450457E-4
-0.009328440664347175,0.03428757415863552,0.0029417672953802806,-0.005505808224071689
-0.012873015556809388,0.02336260603460196,-0.03181880117012806,0.02784903731735837
-0.01237497921265529,0.014968787332172225,-0.02334347745407813,0.01438838439269171
-0.026743551637141226,-0.0019246897782281627,0.027965080397595557,0.012401221099013884
0.005131134882843218,-0.0034457845307349425,0.013552944136280859,-0.029373177133550102
0.018651298734730107,0.018074801161566727,-0.028794205574011814,0.02722921232229114
0.007534157143619269,-0.007832764455414816,0.028177858451683233,-0.020376276983633278
0.020495497615657957,0.007981797976818875,-0.00648986221477954,0.014385009101614506
0.03390104068363546,-0.0203202432225887,-0.01784770898792782,-0.02197301644655715
-0.02921413248248373,-0.007794633612741058,0.024266732698617753,0.020935896452455333
0.003896239161280131,-0.023808257750392667,-0.007612818882322181,0.021775000107138107
-0.027276376684009007,0.021953058910204576,-0.02474353061853411,-0.03254883423845689
-0.002687305625541328,5.273304632446574E-4,0.022588717296883568,-0.01545775638051147
0.023581243291939773,0.006282515835108124,0.02022535519062859,-0.0011938886456392336
0.016137868013351195,0.012137990097810525,-0.023941206914865627,6.288117137719582E-4
0.007989317027970101,0.020631712394850718,0.003907227803794135,-0.015287063865555329
0.024516813966923512,0.027392734843591088,0.002304099323042111,-0.011377774496757833
-0.02142175136906333,-0.0166670379912578,0.004760097336082757,-0.01248014883383573
-0.019567574606154325,-0.015872206445172746,0.03172237717834919,0.011213266135619862
0.011373904831718906,-0.030095204192621714,0.020797204230568404,0.034044024282476784
0.003780811521197809,0.03185136732417995,0.010015438724611442,0.026476040867506385
-0.027016448741635495,0.0018536698334204876,0.028478686408077783,0.013371877265772457
0.031896345594786546,-0.028853146065731153,-0.001531361885507669,0.005586584670334474
-0.0034298444108937926,-0.032422294382496275,0.011093490079402288,-0.006753723983173261
0.014495768624550369,0.033409271758677916,-0.02195164045608134,-0.03050350505172391
-0.015365884081597645,0.03550641767246049,-0.002237456717511903,-0.021861366163546732
0.008511360662428816,0.023430193270045273,0.001373449498426868,-0.010246343140374186
-0.032376133291292124,0.010502735358676844,0.005562117533726062,6.562138652398963E-4
0.02862488333187757,-0.0021135660623591984,0.024056430953853243,-0.011764800356756373
0.022454046559263696,0.027323689644898994,0.0029887952126696066,-0.011988285784702957
0.02830491329875319,-0.009354268724098756,0.005082731382439816,0.0032008210807606963
-0.025406894918215565,-0.0019086020735524858,0.008938202941146459,1.720263291360019E-4
-0.006383837043901004,0.014545359423940196,-0.030442446778477555,0.002923406072844588
-0.018921861094734743,-0.009670717032167667,-0.024410680714840545,-0.010559308763614685
0.008982469640587007,-0.029164071804961934,0.03375244857326358,-0.01734738508812539
-0.021855963331827766,0.0237857371434909,-0.014382559889641836,-0.01857350196394306
0.02689486292858094,0.007892503879235159,-0.005722584654848952,-0.02771881518472394
-0.017549596912927203,-0.020984963837336983,-0.005347493148372271,0.016211110496848216
-0.028301765541358093,0.03559516131399586,0.032839761413915036,-0.006126432032009646
0.007789382852335228,0.023241518753178356,-0.031435966209561066,0.02780021294928929
-0.017458618220304423,-0.011147179289956424,-0.001725300134390484,0.024060300315085922
-0.009194992530261053,-0.013777329672219483,0.02920276947820233,-0.028384767573759784
0.024008671825824,0.003567970999006402,0.034598820617956466,-0.01811472766166247
0.03185894011423754,-0.03312649882569392,0.014536011149342443,0.03371975842900589
0.008543552216706114,0.011720327000990134,-0.01920585793669722,0.003570874542734241
-0.020056040950816256,-0.007317553828548158,0.033508262375673045,0.01865200139906331
4.94471607380767E-4,0.03374455423542516,-0.009684040287489822,0.019222694866078353
0.014520346847922742,0.030700582768860618,0.033209020622889995,-0.01609405880490186
-0.03315539853879718,0.03238635163378557,0.007833375115869741,0.018433898458386985
-0.027864849805698158,0.003163791560109659,0.029452617834688666,0.017989334553699776
-0.02151191440878221,-0.021601761282006367,-0.030928695248964487,-0.0029368547951693427
-0.008309310511317614,-0.0017998318173683137,-0.02121000509800006,-0.005811438549252708
0.03212446475741687,-8.167746818681237E-4,0.022510980605811422,-0.020274831203355284
-0.001468111634897032,-0.0035288559600554145,-0.01196825350643415,0.0230096133345863
0.01347283066987319,0.0022517545048242257,-0.03244124556133918,0.03437450337498424
-0.02753953960377789,-0.02651521407481846,-0.002756464334371149,-0.03074120738494406
-0.013706611647265419,0.02386605708875586,8.753553820044918E-4,0.024630860830956162
-0.014208658323952135,-0.023119715608597807,0.0025689718048659133,-0.009071170723613034
0.03405565526818946,0.024351304572860444,0.01766751804139019,0.026028387716974397
-0.02775284619276273,0.0015971274909488478,0.003605697180439356,0.009646897436142568
0.01613443071108516,0.02635903682250037,0.019855158808581894,0.014886331275919644
-0.029656500373557056,0.018560986175315833,-0.01670395643210919,-0.0038221897134686697
-0.028153800611275655,-0.01210250114336572,0.009898309200301096,0.004854439483156024
0.01934701136026805,0.024451774033130085,0.027790836883981415,0.030013337921863947
0.015542500729636782,0.03136429578518839,-0.023791696689366752,0.0037305611116521947
0.01245201151794411,-0.021346531138363205,0.034051475011514565,0.03492746654762774
-0.0038243972054877867,-0.022655759265479858,-0.0019393246297625052,0.03466500402298865
0.0010255845060684887,0.00649256160273208,0.008415130219005265,0.03139230773422666
0.023986251348750223,-0.0013520403111898505,-0.004142820427327595,0.024511078187637786
0.023601364065959682,-0.01019571277224399,0.023317227711193426,0.0016152293185188252
-0.02220350582445891,-0.017284694782037105,0.023479203333744418,0.002034287012992138
-0.019095895220045685,0.021391819057976158,-0.0024183307571634532,0.028995957495548827
0.013854563819056448,0.015808123214792434,0.0013847441414741452,0.009069410032591416
-0.0058815770706057285,-0.03150873773122278,-0.03368457422226275,-0.020698948828232103
0.03307698651588148,0.017620517278174208,0.03343559202088203,0.03471910967834077
0.033215353214007426,0.016269363335253022,-0.026528305739034155,-0.028021037972280036
-0.03192982382222398,0.004618908663609755,-0.006321768123335996,-0.006102511080457389
0.010064361481579964,0.015920581447368645,-0.02149648094044171,0.014497696221252292
-0.03286180531032748,0.02069304211405469,0.008753264632979395,0.013096520718724178
-0.029445042104605856,0.008395525991570854,-0.010683051408578836,0.003278057379936715
-0.030132190381536406,0.0016447563295668988,0.027578279678396878,0.012418001233060985
-0.033982904557984896,-0.027601381087058546,-0.023862959125914025,0.0211648487371828
-0.011731540999729964,0.0023109576838965043,0.02391512419742848,-0.029033360158691773
-0.026261675579403197,0.020221967408337475,-0.0038391794336697788,0.015975187982598546
0.010591843377944173,0.00414047326622502,0.012706807952584775,-7.343981122135274E-4
-0.01938636619751216,0.02198219901318485,-0.028544578346305693,0.013150367110131442
0.030217704732632134,-0.007667900212062064,0.0016526542422860765,-0.02797573069753847
-0.005837991019165798,-0.034949872739161864,0.008987590143938642,-0.017339329833107955
-0.02536787789171948,0.03553174582987484,0.008118349457228113,0.025762230063735764
0.03340046961609597,-0.02055837375220454,0.01471226752843556,0.035682895910590234
3.5581301764606166E-6,0.01578021334622204,0.025428589129946326,0.0062142981600058
0.002655352482320579,0.012637739979153094,-0.01443278709880522,-0.028544244083836337
0.005714335480066127,0.0036786729583240182,0.011323859221564168,0.025608811806552903
-0.03530913036550656,-0.02739933057376371,-0.017078487526201978,-0.028878238459881474
0.025331320941739142,0.015566288977034853,-0.002478738007624069,0.03330736786828145
-0.01583917505338033,0.03470924256773851,-0.03121506475472048,0.02510121217805364
-0.03125087038307655,-0.031973794739520334,0.028411660867651845,0.029254298137872448
-0.021073752152188117,0.015238151368223644,0.014037922634959364,0.014973277301860564
-0.0036099002150490264,-0.029479702822488983,-0.025388207580407274,0.023938061424742703
-0.020065458742730993,0.011823877499856326,0.029760621066339032,0.0037467808109944364
-0.021393023841321523,0.009451717633750786,0.022291569397911652,0.007229780857586486
0.028198046640608224,0.020564345296929784,0.0341864697153646,0.007126922525474706
-0.021857568997365406,0.012892233145004435,0.015234787195692177,-0.012324701101101398
-0.0031062321087278535,-0.03156225314434287,-0.025239292230071167,0.020510674094779573
0.033006154533864726,-0.021425349340587894,0.015752841173056635,-0.007335127598189099
-0.016679814809200357,0.003854125729082669,-0.024121253845804068,0.01718825307924758
-0.01720444585285303,-0.033545178840504224,0.013477380420081328,0.00551253324833214
-0.01969430293386193,-0.020592314878472018,0.01172820320563079,0.035326819437336884
0.033687727382674226,-0.003561593344353589,0.026553662870558346,0.024112097171327514
0.012266474175833174,-0.026195495923057366,0.026640325790673464,-0.014904037356982914
-0.013298849659498155,-0.021814596436978757,0.011789337957061156,-0.014536032862246407
-0.009211310287704728,0.0047455115288676936,-0.018023597905060283,-0.004313217027256087
0.014855119894698302,0.0026485671782430775,-0.007441656595732284,-0.02266238680983792
0.0258320920074787,-0.004270637126723639,-0.0014152158369635168,-0.0013613880938048786
-0.019869712825201145,0.0038037580126000017,0.025173062593144765,-0.002493930198023464
-0.03133276888420266,0.002353769346998817,-0.010018344349815005,0.025059773812874393
-0.013742556866532165,0.006894143796546355,-0.024804564784981525,0.007216037169790308
-0.03179231059456696,0.008725707500151836,0.013865509240219613,-0.01615062724776509
0.02969751854348701,-0.011093050858822784,-0.024501370084080834,-0.02722046560544502
-0.005928763804929207,0.0013805291100870906,-0.02833819531031265,-0.02198825852935593
0.02856356393083595,-9.558026468018746E-4,0.029895989532998518,-0.03399789508513174
-0.006568459214576241,-0.001552403552576305,0.016024599705461544,0.03508044869897864
0.010016165674078654,-0.035033601023354316,0.013388615251306774,0.023041770989070884
-0.0015623753595676443,-1.4505178607825825E-4,0.024151139736776184,0.022335130239958707
0.028730150819658407,0.03160103071601625,0.02077477412951219,-0.007803202097850379
-0.035438399866885135,-0.03288390983204525,0.022191592817445663,-0.019134757985509152
-0.008757324140318466,0.004016707886606304,-0.015979825349007427,-0.0034550067419388056
0.027228845965765733,-0.015886280833339237,0.023048287425370746,-0.010069262043046843
-0.02696502567335992,0.020289131994802596,0.02914861614604977,-0.017790538579927
0.017088546033180968,-0.012696953274049752,0.03155512668062982,0.02806380772284134
0.00510052673210519,0.013875224238511993,-0.023177586223568754,0.008068731054075053
-0.035543983966855215,-0.017080518776567116,0.02579874299006106,-0.0017470466896061174
-0.028868318756549848,0.002893012476953581,0.033722023431756426,-0.02022814394210548
-0.007188818113224454,-0.02171286594016094,-0.01631198626677974,1.0551245039291945E-5
3.590439974495291E-4,0.009570979872758033,2.0806332410127498E-4,0.02944969536559991
0.01702427036105629,-0.020967859122242725,-0.021116546420290087,0.025327913953649153
-0.011182650038377207,-0.016676413518332867,0.03545633946443602,0.03133344983884144
-0.03369469888673571,0.0018376256765700802,0.0321261316797838,0.027662967343588182
-0.007803365636858215,0.026240727662812685,0.016680667936006276,0.03555421158240854
-0.01716411520457712,0.014583110197575959,-0.007779366873445905,-0.01775603423016426
0.005021731858760349,-0.029455743580763916,0.00762575968687608,0.013740584099489153
-0.003647526637458501,0.02989374782814408,0.02148522681911557,0.032625280538561716
-0.029527263060141043,-0.017307358101059114,-0.026666899029520588,-0.020624073806755176
0.016175665229875007,-0.020706113784043044,-0.027896754966642106,0.0034251346045851977
-0.030938404837981038,0.030294231459902468,-0.007879415572402276,-0.004577811882594492
0.003820391710685933,0.029511957827012714,-0.02607394300461873,-0.02259720673257191
-0.02900896304966565,1.740577911513233E-4,0.014722590344949008,-0.025887939677577076
-0.013207660538220405,0.020642854790225346,0.012381238403195709,-0.034950586779565376
-0.007224965996923547,0.009914787538490788,0.012956052203069016,0.03328689038867372
0.008123659957344584,-0.029676765924729898,0.013927766836768794,-0.0011901545917376438
0.033122108589720575,0.03422645331941586,0.027785386726731018,-0.0018602630748214763
-0.005905240465876618,0.005552686074398121,0.0018766332367875366,-0.013148804983942344
-0.011327806638867382,-0.014329912145317994,-0.012028412013642409,0.002630943349413682
-0.02521857977181275,0.03328984940115445,-0.02550982170361272,-0.012592995153046991
0.022960810007161964,-0.013916944807096432,0.03273096663428465,0.005230958224344974
0.002640332036827467,-0.02263694205202689,0.0034080899136784346,-0.028354013278190315
0.02238279539420618,0.014434735283484781,0.023784262596813516,0.017979387766971902
-0.019841535354364184,-0.015145317695848766,-0.03545920460110376,-0.019313656387006255
-0.005439261305692104,0.03251379517396594,-0.019102430802693516,-0.002831010882206886
-3.92818547894927E-4,-0.02770173428937684,0.024909838466908148,0.006566961954028172
-0.01722485169451179,-0.027372527452052098,0.0021997973417581113,-0.02497939448738516
-0.03246860178539485,-0.02578168582665185,-0.02232728261118919,0.017599994617342365
0.028906430710027464,0.02218517985074698,-0.020719087275091235,-0.011024345936080933
-0.02889678262754002,-0.018304897981555084,0.0016780153974781872,0.012744712901301601
-0.019079721125531014,0.02267907121694257,-0.001669969325342989,-0.0011877563963040225
-0.02246582945545894,-0.03406500938994871,0.02719252972253737,-0.025793444817678812
-0.024546789167267456,-0.007597990725627293,0.029584081867536305,-0.016253745578684285
0.03352105905800845,0.027434430392452275,-0.014348179099336871,0.004381089886896228
0.024340935623577642,0.008781729640336362,0.030458755674043478,-0.021262538660814137
0.01748576019462527,-0.03557551662084829,-0.028465919582250823,0.00757351480374318
0.021038189273621354,0.01810834552036282,-0.028537371359320485,-0.035403417738455505
0.004109392899891429,-0.0325398808061704,0.02491540761566262,0.01944264173808679
-0.0206797053541171,-0.028143813683491423,0.008886364219306477,2.673548575688467E-4
-0.03214358343670112,0.02601331214070049,-0.007727957124617282,-0.026763411859161673
-0.01980328598308035,-0.0028335963867433048,0.008560650104414237,0.017632291577275125
-1.7999579230561918E-4,-0.0025098900537347743,0.026923741016582473,-0.021585342586908356
-0.018018865667746978,-0.0016515825034575174,-0.02769061823213355,-0.026811788993884936
0.009260955013761452,-0.011244604332550454,0.02882606942188469,-0.03099680356174549
0.0242988610537972,0.02175278227788871,0.03180845448656924,-0.022161747045763243
0.020988383294889827,-0.03005146411820001,0.02512554035785136,-0.01304692273857306
-0.025670102374764962,0.029006036443797456,0.004008705287474969,-0.01936219772553952
0.01345501328033577,-0.013445845092029465,0.015927502189994634,-0.006334324289690933
-0.010336183997556918,0.009634642750288212,0.03367359574171645,-0.035251687988601316
-0.0327345075949014,0.01409179305672461,-0.020377530960393568,-0.030965251915921633
0.002652916497282491,-0.0239902928735,0.01758003032711543,-0.010064190482875403
-0.0026472521421442297,-0.013619618833966712,-0.02169725789779254,0.021668833902075385
-0.017220622554487353,-0.011104906428695174,-0.012096063152426648,-0.016195059739937092
-0.026279316503707323,-0.01053309408122997,-0.02479943699610332,-0.022819879965655675
0.030883099974804845,-0.03029004335032455,-0.0013298137135017013,-0.00910048162913564
0.017806365220846103,-0.03570263952902944,-0.01781341580103442,0.013909158367839729
0.01119195665915907,-0.016005910863974404,-0.013131646978700513,-0.003936432878940785
0.02333368854712678,0.018457388871859166,-0.014598655573928244,-0.0235709279725202
-0.010601644796405716,0.020329092796739175,0.022545422889914617,-0.024305881654604067
0.03317186021813495,9.337109296809198E-4,-0.02237388351859198,0.020354719547686473
-4.7984227298056986E-4,0.006480999023177149,-0.01537602318707169,-0.021058819240954634
-0.012939451112360459,0.006836697841821379,0.019813569907798603,-0.01576811764929721
-0.008646510740800972,0.011283009916250183,0.031006968595121157,0.009296046527737044
-0.005238932099119187,-0.035643410325210755,0.006354426077066384,0.02392309134711202
-0.002682835762840133,0.03217968749479225,0.009108385621420509,-0.018922129015499063
-0.0212801319922869,-0.024291033333657737,-0.0033071218375242475,0.031042066280744587
-0.0211125878475149,-0.01483194564538571,-6.189645582470316E-5,0.0073470798968188825
-0.0011150548736096194,0.002685770740038458,-0.018232453510495333,-0.026316806695161295
0.033488769689384884,-0.025287986881528404,-0.001878147893496121,0.02665330835800067
-6.322169625118737E-4,-0.0033963585978134953,0.014349265655617574,-0.026459531568209307
-0.008399776661336709,-0.024268256802464416,-0.015022178378022156,-0.012567125112088556
-0.023606013415298055,0.00807624226784441,-0.028113730431751836,-0.016930020782488422
-0.029336813748736628,-9.126836825548573E-4,-0.03149670624490597,-0.012582639914181317
0.007497081131619059,-0.028696024860226675,0.016703518178426156,0.011771473478726167
-0.028565431266894543,0.015673254860279165,-0.021314009210860557,0.0279197607326149
0.02091034563626884,0.01710877335626544,-0.003794430242468186,-0.017414647614997527
0.02429903030140658,-0.029694478544276853,0.008035924424510628,0.01012032693029788
0.018369655503911612,-0.029535851633494734,-0.009340315654246905,-0.007002919567968429
0.011897298767501674,0.0020531061938325185,0.03251053333182173,-0.0021041031180168007
-0.011024127714019387,0.03192479750108862,0.02169538446915665,0.0011491093088817697
0.01809129194130877,0.011237939741062263,-0.024521798622109063,-0.03267727818283507
-0.033636163756792965,0.027371299348937117,-0.03254065965247013,-0.018413661189246058
0.015101007515640238,-0.02680738549434103,-0.005478608404772094,-0.02971908206365091
-0.01094664360743726,-0.011878253381323652,-0.016745674740045447,0.013928843911062104
0.022728899965850057,-0.029714498602388173,0.0036553607632083887,0.016068677241457226
0.03537129628389901,0.019530158541802338,0.01716195498294168,0.01954598308574841
-0.029455844651592074,0.016152915775546686,-0.03259003000433918,0.02589545054817207
-0.008193654777811452,-0.005306033749686721,0.010015145995632975,-0.023076344450748368
-0.03037795012289549,0.030663258395110346,0.011165513285450901,0.01744391317367254
0.01527952253184063,0.03565897315418154,-0.002587836319572649,0.02801791401188375
-0.009427187928729746,-0.005661356235615582,-0.019154690928306666,-0.033101600186614864
-0.015608980767313738,-0.016319099624391216,-0.025503338081749448,0.014538637531184284
-0.0029221322424409155,0.019030882546281824,-0.015583769214231886,0.0020087027923538364
0.028292992560406405,-0.017379703057192487,-0.005564210649547881,0.03327229359583338
0.019051155603123857,-0.021952066537896837,0.010704274242157523,-0.013793527509977959
-0.022391887451042612,-0.027130105656036206,-0.016089139609367125,0.018743806603896684
0.021956575259724664,-0.00321095631917296,0.018162150581356215,-0.015969236961296707
-0.023454305133976894,0.0044316275652320075,-0.0028280279401171823,0.027054068657456867
0.03308906574719854,0.002435596782591469,0.0031795433740079565,-0.012528148922619577
-0.030466252028135164,0.002830691496088826,0.019549993841262506,0.013481903125432501
-9.215947847934294E-4,0.004639208496508236,0.02261766190843692,0.023406426050859616
-0.021009060509172544,-0.033238591746721904,0.00788652286848869,0.020969495930779708
0.023081557170230763,0.003629806494815334,-0.026823647948336287,0.009749689972674676
0.0018643442685794195,0.005962440214122733,0.017700745134846284,0.006089504279308204
0.017429726584076308,-0.0315620886081297,-0.03321740005810458,0.018595753116658502
0.020263492081275446,-0.028573914090744626,-0.01671006270437342,-0.01959496137610044
-0.0299683161045421,0.010610907496045166,0.001006103298544829,0.015150457284426225
-0.02391340417273865,-0.01799997891240096,0.008520676429206842,-0.007270848170821433
0.025240216509868525,-0.005610224541137979,-0.026605230818254916,-0.014361178013827674
-0.014304520841507375,-0.014569329237193087,-0.019467540346035497,0.007489849258468663
-0.011714504926672357,0.024886328585002844,-0.00904338340713047,0.032354157526351
-0.02991437368619097,5.7040858848207E-4,-0.012555580016996859,-0.01525871210471173
0.008168198279306649,0.025239695125615975,0.005771421441008506,-0.00698228548478488
-0.01527351884195427,0.018186904446010385,-0.007789732568611121,-0.03478801284289523
-0.03056854159892684,-0.013102770377465638,-0.008268473268361689,0.020364739491760812
0.016666326095743332,0.017582762464043784,-1.6479683969388564E-4,-0.016369552838355308
5.382740894030943E-4,-0.015526253194174434,-0.01997541183785199,0.009029098730657353
-0.015995589283894416,0.018591382438968768,-0.015415709845927897,0.026343475331240866
0.007003545220616254,0.023728732352259425,0.03399961963737655,0.01372531806969722
-0.031097555326634406,0.024996275454630422,-0.03196754694684411,-0.028701358223050435
0.034055759888320145,0.003881073614770955,0.005414519302393131,0.0018123751433656646
0.03000411165806198,0.0069635668918616375,0.01954003736490057,-0.025310333093789144
0.00750773174396574,0.0037449082190876837,-3.7433424605089194E-4,0.00799643541866419
0.009264731907161802,0.01317444323560809,-0.011441367041688837,-0.012957348841886682
3.4501240822505663E-4,0.005739638928255297,-0.010184965306550591,-0.03350572795019494
0.006141686699981053,0.019806250458477045,0.0054182957944194365,-0.029917299914346485
0.023497075428417523,-0.021569728224115466,0.014692415188643303,0.017073484794063697
-0.001630631350648462,-0.025041635475227246,-0.02352935269217877,-0.010680798390523542
-0.016580958426450614,-0.012180890654508517,-0.01660404764042657,-0.012273022383398786
0.022903863499181595,0.025856117803226122,-0.03255245787827091,-0.02147757721754512
0.0159584060458138,-0.007066258378278414,7.115513697207726E-4,-0.02762184021477959
7.328338328227782E-4,0.009990265759854365,-0.025852629374585948,0.009345107985645591
0.029459407202711993,-0.008721569208362819,0.0037273784978030383,0.002771188710675325
-0.016165109570651766,0.027373225493236036,0.03333688846787386,-0.010024563323105529
0.008631971301725945,-0.009587467194681856,0.01784260347223144,-0.03035902133916809
0.02166743476347937,0.013788325860350968,0.030237954456046795,0.035698898244409305
-0.013171291454980305,-0.024966472392142586,0.003555948495151083,0.03344688325475757
0.011635190911601534,-3.021971660175371E-4,-0.034543577407132986,0.032821485018965854
0.015647204682390246,0.0291687477557679,-0.008332111096109856,0.009845702413583207
4.8017658595848195E-4,2.7353515598694395E-4,0.00463155524073855,-0.03488681850310887
-0.018202100171050364,-0.003964198284514629,0.023458131874611994,0.009846228007098196
0.0012065895728270506,0.019512658216467277,-0.033155548014208586,-0.029057797940688468
-0.0012006210966502562,-0.006974588640054718,0.031587075461425224,0.02826604301748062
-0.01775447597066097,-0.03451111517413252,0.03479382246872387,-0.010523434920577342
-0.02319007390475914,0.018829867631250892,0.011097430796628963,0.0057714532864650975
-0.002523573768163166,-0.017486272898683153,-0.030736428947290093,-0.021354877996903696
-0.007758177829273499,0.01895536142453958,-0.0230690007911869,-0.025433425017258822
0.005038718857047923,-0.008384297937196188,0.024479120240967454,0.030855470650040268
0.030096098442373473,0.03549081481309145,-0.0034315053059586487,0.022353478766697694
-0.01857066063493952,-0.007131604996878895,0.011485585785820485,0.023519088628857703
0.022800672887025107,-0.031436649316825487,-0.009149801417397088,-0.020083628624026486
-0.0238301749596892,0.002699416466618247,-0.021277690692349985,-0.011319307315442458
0.03267579654542051,0.03438714250907851,-0.008763738055397596,0.005244142802824404
-0.01057776872449024,-0.024543582120773233,0.032350057081002276,-0.01705065873887268
-0.029428866719007175,5.513888108629045E-5,-0.008201262184496419,-0.033500541624112645
-0.030907674783695476,0.006853215789316233,-0.03026459021514056,0.005141388096976909
-0.00263884120832443,-0.022928718768904614,-0.03135511380767437,-0.022324670601281536
0.006530308108291687,0.03185385666841081,0.035629076959557526,0.004124461240221526
0.019294716545986662,0.006085625616594086,-0.026352544765857727,0.008864449330793403
0.017592471130948202,0.009209275149423664,0.034635811109672676,-0.015602821256601482
-0.006513751566430994,0.002216486075108534,0.027148066774328267,0.016404099385278717
0.03090443006398033,0.017399819584760466,0.006973800521075282,-0.009156292137874111
0.004605992705038746,-0.01984161758413467,0.016402814734159818,0.00975441270241164
6.998858830618571E-4,-0.01727879071405396,-0.035417445100645734,0.003999440067641212
-0.010457750108228518,0.022810253300334253,-0.021046601976060238,0.006799871517807872
0.007986951563310259,0.01260921328924551,0.023421235605432272,-0.030532075283396132
0.024290977706907108,0.018738876965164367,-0.02073027057501668,0.014261779646866216
0.030883380704959412,0.008763574096160479,-0.011653878578260612,-0.002635577708030072
-0.002160371598898765,-0.019201976119797095,-0.010309570720135275,-0.03165718715228431
0.01896900659465743,-0.028116259535462436,-0.01058637743588619,0.02568467174334342
-0.005713177922172692,0.029301764060127494,0.002725491218262051,0.0321643591106157
-0.007129393726384301,0.01536736450263184,0.012671565210210817,-0.023269294734407118
0.013557275850797516,-0.03279148350425586,-0.0016080964977320464,-0.03354247248390658
0.0010966575429926587,0.0014253566128282977,0.020056301446422856,-0.003928926005160392
-4.59749617098236E-4,0.014492215777590675,-0.018258779744597376,0.02511116781121636
0.029483832760365286,-0.007787533705282172,0.03515499143399574,0.002380184054551482
-0.030892982940695247,-0.020692474452754833,0.01648849165263712,-0.03380208671747193
0.020365513530423505,-0.009203715896854696,-0.005569149902239754,-0.021953354207414476
0.02132581593544198,-0.02676663099852315,-0.024622799123846316,0.029800183770762934
0.004890804168967915,0.017918109248808323,-0.010977974852891117,-0.014205976098331286
-0.011058350007114422,-0.0031709268727939457,-0.035319193170578585,0.029716497346469736
0.008672037603142432,-0.02300739705055737,-0.017115346574027284,-0.02748590977139826
-0.014361033868243039,0.03349433753428108,0.0174547479988795,-0.004458500798529844
-0.02500201722674253,0.017056659077118806,0.010773555576704397,-0.01424358050029088
0.01740628256080986,0.019628340335431732,0.010880248576339555,0.005273836826062105
-0.0115994177988392,0.031175109766972214,0.021047621856225274,-0.010310284210767438
0.02608546089103466,-0.033882072645599136,0.004382684427181642,-0.013745350463262116
-0.02841756610319158,0.011640532568898632,-0.004317688785335443,0.030371495958127798
0.011415740213334094,-0.0066838204637045505,-0.024207269675739305,-0.01640609526322008
-0.013761929875960817,0.007096171274929827,-0.016419144691841223,0.028500046223057005
0.015582863086530611,-0.02064732899475885,-2.1591864335625266E-4,0.019358475647098028
-0.020443632712386244,0.01441708060893062,-0.014193912577651964,0.0033096748279527397
0.019225853560004898,0.02328413864778245,0.002272567043507291,0.012420571251853911
-0.001226085417557178,0.003744185516120817,-0.02636125647240578,0.032783017943453646
0.021672392581685698,-8.040044706001254E-4,0.005603624280684352,-0.024502901907416226
-0.012039358693162305,0.021982069598917693,0.025517464187617772,0.03227339518871866
0.0012671122160352807,-0.03532044473967776,-0.027788868400592047,0.004106910577547182
0.019200042345738806,-0.019681478857363273,0.003897263918538778,-0.004880346415693109
0.02322104417877608,-0.01911637600196207,-0.01773089299169547,0.02067358941361764
0.028919435427687365,-0.018112006856447434,-0.01139362256068454,-0.027332661009714064
-0.009826938327012827,-0.02256456432851412,0.0299759773404695,0.016001581242517063
-0.0032946158445206833,0.0030580576237974957,-0.005486506342491045,-0.006958689849484081
-0.00754363237067502,-0.01009824780271034,-0.029345023227165763,0.012796131604167288
0.007971759158243615,-0.016438866281059894,0.021310877750780687,-0.009290444236811055
0.030469646692654617,0.0032562819851373118,-0.016288107039576807,-0.005470740463072537
0.032445194157834464,-0.020102627187768323,-0.018945296413857733,-0.032925211141470914
0.021313918771470083,-6.009300951088162E-4,-0.009767832387805944,-0.033228301798632814
-0.028970687643099322,0.010259887489779518,0.009152408580113923,-0.02292236563183801
-0.017162250271428543,-0.031985928014465106,6.286571589075723E-4,0.0016983188314658101
0.017297905388044404,0.015609861282295676,-0.03533476008009245,-0.03065838084637386
0.010300347065146834,0.0014189745338721374,0.02431111168062313,-0.030437493014627233
0.004461688535354405,-0.002261327228297458,0.006349858858379354,-0.012465221393075057
0.028859253069660723,0.0297394767563985,-0.012677673207041655,-0.02891740895488571
0.013631128215127845,-0.005482228351058518,-0.006183562178300111,0.013249846210390388
-0.02497520104868941,-0.009078603172772162,-0.02833940377053462,0.018311496526116293
-0.03358836059909881,-0.013985240024889361,-0.002799476258680482,0.03434503592489385
-0.014943614895252231,-0.01609510990449743,0.015443602161158185,-0.028410332512106052
0.032536560016865404,-0.008645558185801865,-0.03516919419715206,-0.006364240448688732
0.023206590849478896,-0.020391977901777006,0.010817658304455413,-0.033613221742972516
0.034605398217597394,-0.003775265898855011,-0.011142823000831373,0.025442247571479004
0.02644814559374125,-0.026658434560378412,0.021015292368124015,4.2996013961740104E-4
0.015139574192759922,-0.02725106105631379,0.026339608335886437,-0.01064115858495843
0.033049472978600974,0.03361213421413145,0.028847125700407136,-0.025750037335156288
-0.001401591764594666,-0.028881163384936195,-0.03120541365049291,0.025757681550624162
-0.012571982543345454,-0.022896390538867287,-0.009609285650889095,-0.03380216121090686
-0.010885401225352389,0.029466961039567183,-0.03339511297074539,-0.0278938651960625
-0.03464525870357929,0.03030166783226941,0.026028315344354534,-0.02685478847099499
-0.013968561691947726,-0.03474836519103794,-0.029705808893368758,0.016173856554580257
-0.017217278311336594,0.025432649982856402,0.023618113660954246,-0.0022028272613460118
0.027477078832690918,0.0056805596443943035,0.012575585905151059,0.014271703628621998
-0.03188119842192012,-0.029372621106556616,-0.030532021884013334,0.008273975573375947
0.003504721614879046,0.007624884412374668,0.0127358272533429,-0.006954219795543757
-0.03536967065355818,0.018354012580977366,-0.023131774873241633,0.03517759071801338
0.017074444983137767,-0.02798543520558514,-0.007131756701849616,0.00654916137094274
0.00328460018824641,-0.007026313554659783,0.0230314705231935,0.030671423896276112
-0.02229668390399706,0.02758761585279565,0.029380401913353102,-0.02160588552578835
0.016656278426817057,-0.024339241934344533,-0.014059032920474637,0.015384120014685386
-0.027641735606551254,-0.017376036681016067,-0.02426273560228646,0.012081693776074438
0.02538393390178896,-0.0017875263773754688,0.0035515198744472815,-0.01059428211522526
-0.02116746609501547,-0.012920374162133635,-0.012979539561180031,0.008815268905171439
0.004293964256504745,0.00827907928266075,-0.033090784641838955,0.004799998936011865
-0.03289674293180059,0.020243246792184984,0.03348333461677544,-0.004785371523896551
0.006586612493379017,0.0033563349778268706,0.03505237638126174,0.019960264139642032
0.003488030542570672,-0.02928706457426923,0.010046734409572593,0.024353883361405836
0.027878842654877223,-0.03034005972121656,-0.005934697290867676,0.0171463761342166
-0.024659354903001272,0.005950630708562728,0.012126285453783608,0.03501780500332649
-0.00628415904735196,-0.0034464407709966643,-0.012418987230916514,-0.01752757948107846
0.015841319324462533,-0.026972821057818397,0.021805063865816002,0.01203844075811878
-0.01846235050168819,0.0016903221781808184,-0.00896365938128918,0.015032572244186686
0.01861567951637965,-0.014495195480023093,8.878280742998165E-4,0.015384244434692107
-0.01182720814274477,0.00475824948867791,-0.029906384300760962,-0.023845558880682974
-0.03309647553393319,-0.01698905527097776,-0.02664494950383186,0.01929499606572571
-0.016382906167099285,0.006470877170778551,0.033497227702175336,-0.010696670982701433
-0.029643850732141167,0.010663995265603965,-0.030094420535681024,-0.03472211179065455
1.7428405310550288E-4,0.0074741978062372386,0.02494804963904409,0.026493537291132685
0.014507097414318992,-0.009434174059756398,0.034771617255740475,0.011106868371141762
0.0080622901145916,-0.029156871804273746,0.033620262749504665,0.02066591436175942
-0.01074041946829905,-0.0074034999797890876,0.014559182272592217,-0.0086607070091307
-0.007460135453144785,0.01737041609811784,-0.009454276310569037,0.0322290753320236
0.020060080948685576,0.013018612905897148,0.018001935758593296,0.012876257332777336
-0.015544446696641321,0.0014107260412342879,0.006568501364970891,-0.03272207247927868
-0.019410910297013362,-0.006547336523680756,0.005104662768528001,-0.03462902146201069
-0.005075267776753663,-0.024193618904716954,-0.017733348376363707,-0.027263996303263066
0.01778398901193297,-0.02075607071775518,0.03148925575084281,-0.03097992179975969
-0.028405505908191242,-0.021934360885707063,-0.02070368664055361,-0.011829937579988594
-0.014874144660511724,0.012264409154924001,0.01458468885659027,-0.02159243961914216
0.00955457805920927,0.024557907469850287,-0.03374504318046594,0.028344874972935807
-0.011932379203129014,-0.03202008831532634,-0.026523343440366942,0.0271455698263781
0.026848928331021205,-0.024113283722938503,-0.01142331122282678,-0.010688842172479278
0.027318080643553774,0.02373134135746556,-0.03331676377516533,-0.007319770354530828
-0.02121028850563809,-0.03368048781447406,0.03346499427302271,0.0012096480165507545
0.028067864735064688,0.005994724712471748,-0.012174521323579449,0.004421848633624846
0.02659461352731176,-0.024267178251839508,-0.008212266332998795,0.032902051354472495
-0.03044310263761879,-0.01677115969739899,-0.029666180324249034,-0.00778961487088373
0.0033125010213043635,-0.013390033586199335,0.032477593384282064,0.030884284960523575
-0.006745723217927966,-0.01787500897534633,-0.02625231212856896,0.026244320645037747
0.03570429137225259,-0.02781987853247344,0.021570977159460047,0.007928206724809768
-9.766692060538748E-4,-0.017004844844895513,-0.03285779374990674,0.014073524744788207
-0.022645306693069203,-0.004184907604954678,-0.006970952138325753,-0.025020684144521604
0.002266193924901072,-0.01076157919169958,-0.01784937503985136,-0.031485691772751095
0.034724812033623265,-0.006072393401055587,0.006026268003919026,-0.007997253082188509
-0.02084443725030144,0.01653746371271518,-0.02596050655096105,-0.005498759748361472
0.010384124831198112,0.02314867374979135,-0.007677967634928,-0.0023664138041878877
-0.010947824614822646,-0.01683112987351354,-0.009615006192355884,0.027145220942654508
-0.00763855336224754,0.018276196938832874,-0.011251945010743718,0.0212448505030337
0.014211965533373123,-0.03129747189148503,0.003860476740558408,-0.024864025299706875
0.013856271606836675,-0.014369433678234723,-0.029913191307229768,-0.003540294719279302
0.0174395709968062,0.004944607635777677,6.172649924129428E-4,0.032131016171319554
0.033779987012410695,0.020034428940951275,0.01371712589282334,0.03445195378893014
-0.029120845899642755,0.035555690458249856,0.004341405447709501,0.005995827456141176
0.004821982803313994,0.02117779243217876,-0.015876430772526935,-0.007689529696486452
0.01700495943378176,-0.007194384651117238,3.3762652034297763E-4,0.013100746868359672
-0.005709753127984336,0.03421891528503221,-0.025535835294506787,0.014498051553993724
0.010982587128126574,0.034174701604387264,0.01349374993203361,-0.01463410500403738
-0.0239451160305017,-0.030181674012807785,0.013207672953924457,-0.010873087499602425
-0.010117237422097698,0.032320758021187154,0.01797354281553403,-0.006876117209051909
-4.0165504360713256E-4,-0.013578153168954957,-0.026387042776183034,-0.030093803715957282
-5.594589860300897E-4,-0.010912299025688306,0.02511144581411956,0.008047393654704964
-0.028431737535793634,0.018332020754809726,0.030347936242108534,-0.009332550738837968
0.01776752111034234,0.024607200243066826,-0.01402063618008972,-0.010967814542964121
-0.0027297756239542253,0.026618787883296698,0.012827346971273704,0.0017040324346107236
-0.03217785542940913,0.007275754245010806,-0.01648127313852436,0.00514853399340013
0.010913362819083713,-0.003805732574201505,-0.013715788781359817,0.0012907105121710144
-0.002869953914425717,-0.016729842774222268,0.016865069273755834,0.020185814131470442
0.006029270050241967,-0.015021613029534277,0.019921994243048864,-0.02704532473375853
0.019588377048057035,0.019105726029664996,-0.03162839018214807,-0.008864524835405133
0.02932152814717745,0.019907401513442842,-0.014420103860286613,-0.00523078107161247
0.03512270485692212,-0.029767836156482097,-0.02791615604120039,-0.00459357396315593
0.028835663807943446,-0.01148709523403569,4.283620357665163E-4,-0.0036440532168675183
-0.015998793587008366,0.024302682775122056,-0.01846117743428638,-0.0018280301393729936
-0.011555331369476254,-0.028126098898191818,-0.029853993968934754,-0.010454463762109074
0.023947939223347495,-0.014899264192505136,0.019259706845272312,-0.014391766927220224
-0.018845658095331484,-0.014280274949335758,-0.00742304373821262,0.014720660888406428
0.021616328546039856,0.02731485127778209,0.01946542067627622,0.007364517894790548
-0.03165461827650688,-0.02805862852300865,-0.02771931283847711,0.02276267574565173
0.029443899071492544,-0.0036588921333660027,-0.02764214251101821,0.013344477935054
-0.030615386040798363,-0.01716331137850409,0.02466982070370171,0.0017355462642895877
0.028815590152274626,-0.029674593563140568,-0.020591447601464488,0.03372532852297061
-0.019383044308226394,-0.03213231221869125,-0.008604257570859919,-0.012397266681215682
-0.00196912114106549,-0.013313982481163403,0.012584488842896445,0.015566200459995343
-0.03277391779720869,0.01500343233325134,-0.027181302532501797,-0.01219542293043482
0.005577056512327275,-0.005214569955152602,0.029708672895149682,-0.024547176515509264
-0.004824421725714227,-0.01849850949933452,-0.015210825959439424,-0.029734918030845197
-0.00943741349015094,-0.02690670865576189,-5.369104729764512E-4,0.030942867072911065
-0.029495809505399657,-0.005684593500586397,0.025316989604793887,0.030486739144430675
-0.014222690611646636,-0.004678943416603274,-0.004875382985887338,2.1298179812036938E-4
-0.028622870489887604,-0.012176749188510756,0.02461036601278528,0.025135895738806466
-0.020232258093538527,0.021233350580729025,0.013244008291148072,0.019065855560743417
-0.025155728269552508,-0.015784639968583845,-0.028054606681141687,0.025226768727603772
0.035473288039710754,0.02144461283139739,0.01487555423537873,0.013413466283213146
-0.03310034779698601,0.022424109075301894,0.009083681269507163,-0.005532497692963014
-0.013228173778155786,0.008504081593686992,1.0303781157440517E-5,0.02345997627685841
-0.01004191525958565,-0.002792097323227223,-0.012116207767631997,0.03554182203308348
0.011906432467388504,-0.034770785802590985,-0.0225632317276565,0.005801963593594507
0.001050073404903755,-0.03413270738787864,-0.01718397113899496,0.023588616294924897
-0.01635317565683736,-0.03206772642523983,-0.005863958067650381,-0.017617591727569333
-0.028181841621938302,0.030326173269652396,-0.030930557020821543,0.030254326394322517
-0.03549408096934271,0.021698381107494544,0.02792523082033349,-0.028718387843598148
-0.026296023615899576,-0.009414347451576315,-0.011989679633320718,0.008099841231876535
0.010022831594704032,-0.03410947285315537,0.02302751361003816,0.03192428661045231
-0.005175336522601642,0.005955591755497758,0.006420029985961487,-0.0315819093764152
0.022811556750406803,-0.023364181610729354,0.003407694192165786,0.030671615053395038
0.0033589459496835214,-0.019168354262852332,-0.027632497585570293,0.020107627050877735
0.026166470421710095,-0.003108800488768604,8.004497650879808E-4,-0.011218701229525601
0.0029373335385856625,-0.03169531214140327,0.017410201041357647,-0.02688027220412445
0.017512828291406816,0.014911080044430786,0.029497132240778046,0.026809871515417652
0.003655548293031552,-0.028272646155897148,-0.011822642935681527,0.03341685166171025
0.0045684102455492565,0.005774432957481493,-0.03316622361944327,0.009956337980055865
-0.03103528975798524,-0.03360606463352848,0.031762959191920986,-0.0032016255145660977
0.011278006485765046,0.004517572349190091,0.014667359725313855,-0.01061936507302767
-0.03507493928647356,-0.022328719135764306,0.009170343880792617,0.03381909959249366
-0.005023070327441131,0.032729018902603935,0.033924600808831404,-0.013821491407244344
-0.019450054313172933,0.006065734698413802,0.031161300380891557,-0.010391540871395575
0.03293893444959213,0.010448683354294885,0.01361976237904735,0.004659395878960457
0.012779402524779403,-0.025695582019944468,-0.008285093827664649,0.029847313482096446
-0.033817713586811106,0.02566792393853925,-0.0270034083107651,-0.025450622131469106
-0.032414348801898925,-0.023578659046080204,0.025307893430369877,-0.02922975830548023
0.013243939970288804,0.020726746184409617,-0.013836642443184641,-0.01413828932979903
0.02030238115800432,0.02488124315904726,0.03162862689067607,0.004178082459492527
-0.03253788330843518,9.90370724564489E-4,0.03325503689532451,0.016095335025923155
-0.01626834942180977,-0.013542215932328776,-0.01896346504413171,-0.011114665378232684
-0.010900308378328075,0.0018921487024570194,-0.034725552772259555,-0.02855307624098858
-0.030266978626338408,-7.426230178807156E-4,-0.026982332543273202,-0.0021775036944812753
0.02160216522192697,-0.026870034688292598,0.030067931632051,-0.0027441071240536866
0.01083149933237787,0.034984017858693844,0.011964811539015456,-0.010202639040843491
0.01202477846143652,-0.03377057735372288,0.023832945024652302,0.010930356741979112
-0.005241609433420398,-0.03415705575889488,0.03352347621902585,0.030490636952192618
-0.02304888498068846,-0.021978699481439386,-0.02596964448773098,0.013220163925054783
-0.02676397071839233,0.009946152711710163,0.0022543113298738107,-0.031974128487612496
0.03507736192403929,-0.004624255949373712,-0.03224024741432065,-0.022432831701665067
-0.015615504632219026,-0.01155669925407643,0.0011133908401715006,0.03177227760140408
0.033421817701838316,0.002021348943724695,0.011486445209079196,-0.01982518471066806
0.01942746658473806,-0.016892399071276033,-0.008648508980692075,-0.028972843037819614
-0.028206454772390532,-0.015855403078622113,-0.03053825995554823,0.013779471981425012
-0.0043099766488284355,-0.0051307261051105925,0.011273014681019641,-0.034541017203664294
-0.006088919739959293,-0.031237903728032937,0.02971331159871228,0.023597959295858326
0.007879705362553821,0.03545003609923307,0.009926101897000432,2.367390659252927E-4
0.020296085741661633,-0.03359281925669886,0.004661031156881899,0.001763437416172152
-0.012780999202527208,0.005237264258253285,0.03547548477502459,0.019369997091184157
0.008069016668003512,0.01881397836612444,-0.009620706270357271,0.03114577570854786
-0.02174920065908366,-0.012968770746401861,0.02463289929973756,0.003644173571276839
-0.01968572462335922,0.03428945774516941,-0.03536536497028716,0.03174128470625097
-0.0018827897300740595,-0.017084885641914516,-0.028282426285793437,-0.03453501634795732
0.030746116297790213,-0.009150062131432355,0.013274505456407702,-0.022262561995998652
0.024389917353358173,-0.02699800012707406,0.029779994293089473,-0.016237627838486018
-0.026482329854988655,0.014347458563767998,0.006431005371201261,-0.0015182961900681163
0.03312941178354881,0.012947711821411315,-0.008957656792776103,0.02433879061643273
-0.017086614024590843,0.026111092465643207,0.022864580794031912,0.029859456670165485
0.00700346832055182,-0.030293705957637838,-0.005540272315533952,0.008491528615165327
-0.009999698051060126,0.01167965191037651,6.799704934772194E-4,0.006207170170360647
0.010430373364756731,-0.002198384595211711,2.453319410078078E-4,0.0331802408750943
-1.2205068323218465E-4,-0.005432812138224146,0.02077484522221184,-0.02758436377528309
-0.010727327061106788,0.028837749309590682,0.022212230529090563,-0.03304597788634218
-0.025270190073158266,-0.021325678180807026,-0.029439680473013007,0.0228499402679724
-0.011481948693469517,0.03376287720666356,-0.013655640373255513,-0.03127568304978989
0.017499503493049115,-0.03432526934527885,-0.01573823297302797,-0.026370522402870494
0.023205756198231828,-0.02044301835794352,0.012307947389601843,-0.011425865356666936
0.029812601473553968,0.0338697010165481,-0.013161664113579559,0.008855885469479609
-0.02742829530293879,0.01651439698789347,-0.011282233031842018,0.0032620904627740296
-0.020409551305463552,0.003779785395623479,0.03511830325399942,0.02131988334987884
-0.018050266455924373,0.020061441113473126,-0.005427199735279935,0.007283659972371251
-0.0060724063390371445,0.006109928539171208,0.03364719732201493,-0.013442242172742883
-0.016379048076690137,0.021336292814744744,-0.031029222178913327,0.03001068291150108
-0.02691887679366984,0.004620714411625204,-0.027164860183797806,0.0168192920931287
-0.027587387887228292,-0.02545895967191029,-5.680119482183582E-4,-0.001709927068678875
0.024291195144495285,0.009522758246756198,0.012792613780677337,-0.011405429387217884
0.006741400341134532,0.0198219033761962,-0.007806147794512521,0.012646683127371647
0.01777173456268555,-0.005046915012196833,0.013664285064741148,0.0025399135701773753
-0.03332690075832995,8.129938326992409E-4,-0.03152541043129613,-0.0236086237439456
0.014617091457392803,-0.003137285136227727,0.025385094619708233,-0.0013449186056131435
0.03279382726313948,0.034321131038586444,0.030684802410191156,-0.008222913457679518
0.021203451331333008,0.005000886691113801,-0.02492446749191135,0.010502748547445276
0.024591891530360135,0.03346598706892688,-0.01756049909693799,0.010338847316326345
-0.030512972849966576,-0.0071752446961343905,0.03140915933751437,-0.012756422070167386
-0.013949020217964243,-0.013588069662654943,-0.012316009293720922,-0.03390660185241491
0.014125354316310637,0.02032224888613162,0.005323626237704063,-0.02866300603476809
-0.007043607639648779,-0.018655721723334222,0.032457209269231,-0.0017420388029331726
0.0068390555948670065,-2.611022530479637E-4,-0.014130340093012908,-0.007758945986894583
0.0158171944556977,-0.017818661218736542,0.026324288226798394,-0.030425073971584043
0.03437757656170162,0.007030169230887569,0.0034503604279010475,0.027982466518124444
-0.011802038243057231,-0.030444831079025132,0.03340956812733824,-0.03326543765699092
-0.02083480339729917,-0.02487553889663293,0.007090419269794923,-0.01783422580785986
0.00982395638219543,-0.018573174154098194,-0.03299974043237609,-0.035239354969612675
-0.029340834135700503,0.03356590073237517,-8.762187047153466E-4,0.012676143478861854
-0.002002698122430417,0.006004847601538188,-0.03092904918659363,-0.029522192125548224
-0.023034864952114834,0.028998800053098156,-0.028534033394509162,0.0035138547875881027
0.020886540659954676,0.03493256708435172,-0.030070226382632726,-0.015679769122628386
-0.015514335519014408,0.02798619462801935,-0.02095509526994798,-0.028463936502309804
0.012867955299902166,0.015109351121816952,0.018772498336865832,-0.013973584896365677
-0.014248551599689841,0.01161351560160475,-0.0027899196566347276,-0.032485401789181315
0.03010690826597756,-0.006568481301714366,-0.010723882417104542,-0.032409795333688554
-0.008977589140839189,0.0278636747628037,0.02050694252407078,0.019214630545960475
0.03248272067762148,0.010817335366570716,-0.010185902945052616,0.03550706844660037
-0.011549075299956482,0.01607262586115739,-0.002572534837720679,-0.00784190488037875
-0.002246964715179635,0.009198496217756168,0.03006244401339493,0.014485360645122118
0.027763209537001482,-0.014829435124999624,-0.001631941854360268,0.02290667278862924
0.026111649809395676,-0.02944662554500612,-0.03413670573460754,-0.01666356712307813
0.018357185015912707,0.02741519314345814,0.017371766529911403,-0.026332389097726654
-0.033549542265280584,0.02208740145912113,-0.015002501160166135,-0.029090588976839485
0.01640373652272021,-0.010086785820557546,0.012569384107753552,-0.02471292469075105
0.018032951967713512,-0.013428018116510294,-0.0022795972115992255,-7.356974194323365E-4
-0.01376595480990998,0.015542871729442256,0.021357845093884942,-0.021726573941648335
0.03250635674691674,-0.03363274898214449,-0.020440008056185753,0.03242106712830095
0.026040438526726183,0.014025983243217792,-0.009445814998150375,-0.006943549015738935
0.015510001095999752,0.02063620016679763,-0.02566206589385453,0.015809679450568187
-4.770040382527513E-4,0.026890976734226496,-0.0070769788807238075,0.021629078004370104
-0.03077740491724344,-0.010131918851643058,0.02342989206736379,-0.016533028892448134
0.02882982547993783,0.010142558620565942,0.012704211794053177,-0.013737394960802975
0.032961082276868656,0.015376120982852577,-0.03530478735199111,-0.0041016079414884846
0.01481734231930551,-0.00321406146460209,-0.022524224929465746,0.03240063731214947
0.018126441684838228,0.03530546537540202,-0.020923393785071225,-0.03341240717777816
-0.016403042701335222,-0.02473775891132087,-0.001722865899303004,0.01485298967312361
-0.025781351511122867,-0.0166324834083164,0.03507368760424523,0.013766078585669743
0.01658144399458497,0.014381182393101502,0.03497738067718656,0.0019232184909495145
-0.00773901542197121,-0.006940818508946338,0.02559120133492606,0.007977638876484262
0.013067042753947787,0.031533234813167055,0.03380736383234159,-0.001077498451055016
0.02501724226634905,0.004822062802986582,-0.024580068984986464,0.03301824571223848
0.022220511262476886,0.025962518878557002,0.008413229299987009,0.008496805638315376
-8.02429677976349E-5,-0.014975493845773069,0.006018523339812502,-0.0183286007706592
-0.01263597565677959,0.02840370459006529,0.030957817798917125,-0.03109272120320996
-0.027723786522098504,-0.03517098079108501,-0.021823865172130218,-0.004575778887343545
0.027507082984360165,0.018750774202334036,-0.03220241100797284,0.022477446718354138
-0.03262077115249867,0.009232004859544965,0.018996179011899587,0.030341813627422748
0.019931070958918183,0.0330233727289464,-0.017013761993413715,-0.023395094750607533
0.023566777246850572,0.029510013983325492,-0.004830591133100096,0.028144348377941525
0.018754300936800035,-0.004503154245596861,0.019458466846323352,-0.0038210274743614644
-0.03512395999691036,-0.02840588222036374,0.01137023413562152,0.010567515447371278
0.031128585444378853,0.030825805513089555,0.029107019915820098,-0.02525158915890973
0.027212965434923672,0.004280037638001374,0.02881785372244955,-0.026197501412790224
-0.01488307493591792,0.015015717300635195,-0.012782538562205608,-0.019583853960955633
0.033638644166160137,-0.023860165263380955,-0.019927114881318254,0.010391681438659178
-0.004287420371713868,0.02651353085349653,7.385021703697828E-4,0.016465291229781673
0.03371159673445262,0.014540583734268558,-0.0059748075702827745,-0.005016391602767019
-0.024637672240912838,-0.035518003132428866,0.028088646330968803,0.013140425069091653
0.016146737222499263,-0.0232419100687671,-0.018293191704241474,0.028038487172862114
-0.016299339201118375,0.0013182501108729566,-0.010203760948448777,0.02678871087550147
-0.013709447041455394,-0.0036956872328426787,0.004094100691640887,0.02838615016055017
0.0268319588143634,0.01832509670366486,-0.016352931099287496,-0.0038725595935522536
-0.005691946533633266,0.034490634905828085,-0.027721643534964174,0.03398572233151015
0.001250419786166912,0.015233621412703964,-0.027500338087913183,0.021728693726859656
0.03338198947319512,-0.007369251747530052,0.013162419712228923,-0.010776130617621067
0.012743897346233934,0.031838540742922056,0.004170700032945285,0.017921934220250908
0.011299530492195016,0.011606631219959057,-0.030814345095096618,-0.016653834277408137
-0.013977947299103628,-0.027250093887770013,-0.016074389970506666,0.009143344726228977
-0.02786864198525052,-0.03238933714066919,-0.008655450435957422,-0.020102847078395714
0.03550541316796743,-0.004037491239524772,-0.006005452342494309,-0.026208379855365276
-0.012247454868263126,-0.03243608624609579,0.020728345146938283,0.0013743272802069842
0.01950742156215226,0.015517834499331654,0.005064787232589962,0.024231839345526217
-0.004285079388145048,0.03489464567426025,0.016822504689342738,-0.03146230823539985
-0.02167906021023526,0.03051861338862391,-0.02464031806571182,-0.00789409889407261
-0.031517134534296894,0.028081998614918252,0.018280701659042067,0.028576369772124174
-0.0035331443481707026,-0.018075089042270294,0.01660692269003343,0.011637666424293217
-2.1501183158502413E-4,0.017789604653766687,0.034646531661368274,0.0048734876210124525
0.0012695890011832148,0.02022810272590836,-0.030849993990353642,-0.02522760023710708
0.03347797345767588,-0.020064231081414474,0.0028150736450667097,-0.028935961427372123
-0.0024724864944478814,0.014381058919872083,-0.01655967993164673,0.004710822876463613
0.03176431354432044,-1.335035901176007E-4,-0.01832821882261296,-0.026263309894800864
-0.02145103018390694,0.007798152909396179,-0.02843477357545136,-0.025258052540525194
-0.02063861037623116,0.005407354546259922,-0.014750200992787201,-0.02293356153249755
0.03220093219268885,0.011991882607671825,-0.03424605854098398,0.031087137681235916
-0.02946341398528105,0.03154735511244858,0.024167891375235777,0.03253555604317156
0.03183645692620435,0.03231597294364852,-0.02877286532248927,0.024713378833174544
0.012990255184842002,-0.025573107430304047,0.028112367907971253,-0.018453753569965394
0.035519061089094583,-0.03477151375616178,0.018393327033489164,-0.011521451119778005
0.41618208568884507,0.0616020428046139,-0.09599184829869822,-0.014191895217062211,0.4361237171932536,0.052678433474187325,0.4067212255357504,0.053991918681439266,-0.31023089351533384,-0.4322567451685202
-0.3341267312262284,-0.11297786064063142,-0.3813074670365044,-0.454346173024867,0.10301565795161371,-0.025010245106660833,-0.04648591383970491,0.09843645017347846,0.08095045132259115,-0.022255703315359532
-0.47786563864840803,-0.2733710614332987,-0.0812362491359685,0.1946524613174332,0.10656598979194365,0.38953492079984453,0.07068164372677921,0.10647974372126945,0.17270814241185628,-0.26930522263432244
-0.32792766684181585,-0.25084034880670514,-0.24466644251719238,0.1218198742093437,-0.05578523561218074,0.2137674607865394,0.3143222433516243,0.05299651391187521,-0.00316311885553644,0.3683153807122579