784-16-10
0.008370741856555466,0.023496062435557567,-0.018089812470465417,-4.841171442476061E-5,0.015445125083573638,5.783064063582324E-4,0.024563439041640697,-0.023241749741698108,0.03537344986758385,0.02278559979783061,0.030808094433409594,-0.013244421928172934,0.018734163213665264,0.02547881377340519,-0.012976245591699423,0.02051312912502045
-0.032918729378656364,-0.019545854393351172,-0.005203482163427767,0.028738957250409092,0.012608172771773278,0.02082185990887868,0.0042903506537955785,-0.012311439824772768,-0.016332751899510816,-0.024274354773672784,-0.03417013890925536,-0.01073195574539874,-0.0021527460333615675,0.032101583117648574,-0.01641564047571423,0.01711202376752425
0.03217037291447658,-0.03251417064174867,-0.012639677021774185,-0.0037826722951408917,0.032176331670275254,-0.016887544758558873,-0.020288807600112757,0.034106704677142136,-0.02738045364882881,0.0033121360542123016,0.013754670314443385,0.033900452190305075,-0.01999032577530849,-0.009881661559788393,0.03424828989159304,0.03182775434693068
-0.007823001315665115,-0.033393036848956364,8.986768129602418E-4,0.032183438192038935,0.019427801188563104,-0.016693706260948165,2.540392582792636E-4,-5.258283676979475E-4,0.01194915447371031,-0.01754516518660373,-0.01592824330337045,0.007672399348781729,-0.03324211614427646,0.009775007620713455,-0.006376489376573084,0.002350396741515305
0.01582791646542398,0.011095641421075796,-0.012035866301351204,-4.756004052256027E-4,-0.020565425101252564,0.029011986480444993,-0.005778277844373188,0.00953446983433811,0.01930672813587088,1.6737096315471572E-4,-0.003536246239458911,0.03237394095367298,-0.0055042883798273184,0.02966240718226959,-0.029347196709150702,-0.007157105458723192
-0.007403152933446035,-0.004097755509684171,0.030952779333864505,0.02204652161025876,0.032105921322914774,-0.011284340907617589,0.013116118563232478,-0.02649010310069408,-0.03239571681449061,-0.035666198397706274,-0.03428710927906725,0.03486389711307035,-0.007908317263942557,-0.033204629252175245,0.01881370940687105,0.03342038279034651
0.0070629393815273,-0.01462601461896574,-0.02115739744697509,0.02687884632914847,0.015506888426531376,0.031707114420845284,-0.01339370534186951,-0.013366283972787756,0.01615612708756805,-0.03016797735639338,-0.006502188791230601,-3.3978417923755805E-4,-0.014816687840715659,0.014839988472024612,-0.005269980925936422,0.011320543363377553
-0.03079016370631217,-0.010165207045054706,-0.019084583049018864,-0.01271987488044082,0.007055381431201435,0.03345904631179167,0.013754188543286548,-0.034153491210024554,0.019775553016271652,-0.0015644106173162142,-0.015467331814008656,-0.012776835245341425,0.017272531933720317,0.009242015335956408,-0.022612725627992727,-0.010124979619398344
-0.011197869042948339,0.03216829392483611,0.030608731337625622,-0.0297967713872856,0.03435871556450247,-0.005693367419014175,0.027656714003085545,-0.006117422287736183,-0.033269388243222536,0.00417232911853687,-0.023171393158649738,-0.01707873911391077,0.012358296616733495,-0.024474256399748477,-0.006339203569349208,0.0293972417157293
-0.027501378877418808,-0.017274864045612293,0.027093979971209006,9.068707038072249E-4,-0.017660966960532765,0.0021271709513026385,-0.021691200800162354,-0.005915849141910925,-0.006363684638462843,-0.03111678180051347,-0.002504016766047626,-0.007371399500670735,-4.688930841255587E-4,-0.025987750569916424,-0.002546312414302601,0.03375219516427104
-0.011189706939488033,-0.02593423520394008,0.02574957245047435,-0.025657329741381546,0.02608751545321894,0.004761604760461939,0.014634711533479713,-0.016416045130060033,-0.019349346584808136,0.03014040497356532,-0.019878976736569947,-0.008898362374224804,0.0057342080542141655,0.033076802782335046,-0.01015340771844839,-4.575708542313081E-4
-0.013927438708542697,0.021239659436319565,-0.007256215372043524,0.025529215217856678,0.022586606858826512,0.028452056961152203,-0.017759209612982226,-0.024804821040767276,0.00989396857358664,-0.03557517708411729,-0.0029684335737706694,-0.034085919212200666,-0.003676647528151382,0.028330763351280264,0.0021708332116719825,0.011305968089592777
0.017117073623756987,-0.002496993528993033,-0.014260337755335622,0.00915593468178661,-0.03125456194576925,0.030980234965842984,-0.035027848104054085,0.0052489985195116745,0.010505492286655975,0.015674176925154104,-0.013894739769767659,0.030092127027174398,-0.014860959071361264,0.029683054805139553,-0.026732333027002952,0.0019333306588083174
2.218388359797735E-4,0.0036090585378810228,-0.010278049316130869,-0.01867473387813527,8.182957901965854E-4,-0.008152125426696459,0.02270561832406591,-0.02505661213811794,0.011242955292929804,-0.008635174166100885,0.001263723050163791,0.020315703676613547,0.03052598939596321,-0.015675807990606836,0.0045496111828367755,-0.014394101497144752
0.03285568270848581,-0.0015726527131857543,-0.02880480542568377,-0.004682859859938555,0.012563163070367943,0.012449302480070812,-0.018050936063695667,0.03230727415614393,-0.017556440946068588,0.0052484963309046215,0.0012047675968649071,0.02143673155922421,-0.0014462888186402706,0.02945517821305338,-0.012893181037745942,-0.03490943950017503
0.028443903899142878,-0.020265470784185856,-0.001751428689069169,-0.01654573555545076,0.021682324211912823,3.057676900277487E-4,0.017530230980320936,0.03458023941887668,0.017771995340713123,-0.010288886032634375,-0.0023311115190763135,-0.022568215364501296,0.02146466082619311,-0.0123787463239978,0.008950470349647154,0.00310347658196692
0.010786483159185761,-0.003171027728498317,-0.0060331214009794465,0.00531785991666691,-0.03208671535292401,0.008558144660667663,0.005797640882055512,-0.021483834277686464,0.016304685462784643,0.00979976110024676,0.0228779649105273,-0.017928323346317124,-0.03143114398836367,-0.03482561525512189,-0.0022149804178844407,0.009727833377866618
0.018407786980678825,-0.003977972555124644,0.0035159566742925877,0.024320162894153743,4.401283939713119E-5,0.0074606507897592295,0.0157675998353779,0.02279573261223855,0.035112782142018656,-0.034796014054232875,0.017542555723502246,0.021946779794287795,-0.01928016083815265,-0.007589768060879052,0.025919264608161824,0.028043587538374687
0.006029851770903927,0.023645370201353072,-0.0036866898630301057,-8.746140034167835E-4,-0.01974691671757053,0.015470375780769756,0.019933901882306003,-0.030774026450859714,0.013360677690608856,0.014261356397816692,0.010020696345526568,-0.005540946996435883,-0.0028459774042615057,-9.234450140275241E-4,-0.0018926729098960454,-0.006293590291930891
-0.007669553545640893,0.0014198025153757052,0.010171672297957832,0.012109079697379226,-0.02410065891781111,0.01980384847527432,0.025975121546490558,0.027057704882690645,0.013415477064733956,0.02390020951029178,-0.0032551371785434213,-0.030023833615380045,7.382307334752106E-4,0.00929261157349405,0.006060607214304528,-0.006576450465529633
-0.03368759030869814,0.012294887883923869,0.017913081513872955,-0.0015627698748123461,-0.02754325328608112,-0.02058526535426341,-0.006909348341483212,0.02994757498081295,-0.015135181629615236,0.022226896297683214,-0.021576930698224472,0.013759524557761083,0.006296412688750384,0.01213718120892162,0.013607908082608977,-0.008467177311253238
-0.029155467420386143,-0.03266255675720018,-0.020222029706310367,0.008463455345760762,0.006171383368148972,0.0035492323194057443,0.005927856002072518,-0.0022355426217830973,-0.0082564307336204,0.0014087611485498544,0.03031115130704226,0.03213500478760592,-0.033240435825183184,-0.03283191211042319,-0.004919803772840164,-0.03364524530966434
0.020174567978967876,-0.0051690167229528905,-0.016237459890157433,0.033342806560009264,-0.003465455397953239,-0.006840893007369231,-0.023774686533077752,0.019367092849019947,-0.02687741098978646,0.023762864716199324,0.02398277439300383,0.015025198011397414,0.017074712653535655,-0.02237313626969694,-0.019429694555767627,0.024278327503182824
-0.023065355037770296,0.014707055135224925,-0.004030539025572877,-0.009174124206597616,0.032628355933676814,0.01020540046451332,0.035196693975707724,0.035619261326742965,0.031204365271695844,-0.0012714380327370142,0.027067575032011668,0.020327286300023853,0.013605474138351913,-0.007501215740926437,0.020056928339231513,0.03172797493506123
0.00646667881671887,0.022078387940802788,-0.021468658090972502,0.021573861504150964,-0.017364076470857095,-0.027385570603420173,0.018258836118964436,-9.061228528895598E-4,-0.0072395803283163244,0.02603892671351052,-0.004750966638609935,-0.033251397230460285,0.025594997074495272,0.015576066434930785,0.01122621885913195,0.0340194987975269
-0.02316799168162772,0.0164410380966203,-0.017570206165438806,0.033166593823042184,-0.017385633771494158,0.003073222838351479,-0.027190485379255905,0.005790138078022637,0.02149286529356957,-0.028530386400555652,0.009577320612266446,0.01226525758149876,-0.005450760036862099,0.021347994588867172,-0.002731814127064837,0.03252117432848502
-0.005938173352797924,0.011488798180917886,0.0030493088259491152,0.00342412169412154,0.023409320558573705,-0.028497655224141983,-0.005912185915375432,3.5123871848548316E-4,0.019332004015937793,-0.007882926547388314,-0.028994656033174637,-0.01017065182898089,-0.002847053859720221,0.017961699171921183,-0.016058962909727064,0.024120249013098234
-0.02774725932004755,0.00802103223475615,-0.028590437465482555,0.0030428482051379838,0.012282468386839503,-0.018182113182669355,-0.015774863426944508,0.017547856826902963,-0.023046191104323224,0.013695270581182459,-0.013378993848871368,0.009935158451034695,0.004956187844533701,-0.02925257840180146,-7.193015605546499E-5,0.024951091793015516
0.030409093310021548,0.013984896238090426,-0.007098022688252936,-0.0011680258651682665,-0.03540051307540639,-0.031700917050048946,0.024687140088085154,0.021858690025289833,0.02915734724798874,0.020325461648124418,-0.01469661543273475,-0.010370878381941409,-1.3723285437734073E-4,0.004201178890799295,-0.007200739177445195,0.013840380836868345
0.014300547152591929,0.00531354500471809,0.02303886426133101,0.006089774468867028,0.017173237665341082,0.008339794978406354,-0.02940084373592593,0.027239816932610197,-0.033968997905958115,0.004991049067376567,-0.030170493763990714,0.02185282870332282,-0.02973245324668107,0.010424697876355415,-0.03118882131981937,0.014560054487493222
0.020871057892910966,4.1362611058207155E-5,0.026407881260016114,0.015242978088756395,-0.00271993807288555,-0.002141407420726757,-0.032693836727065974,-0.03478895865633783,0.0106033215853681,-0.009728058629830092,-0.019822998621400148,0.014802694599711251,-0.024466016566066527,0.006075701093755936,0.002084053400459973,-0.0024126337879893517
-0.004310278519944109,-0.014535509360289443,-0.01975979633324583,0.022526791712749572,-0.004599646785682723,-0.02361506360379663,0.021417265612663994,0.026824606032103418,0.006142611863852447,0.01434240785675707,-0.009627731852835417,-0.0010085333333393273,0.01484940570999238,0.033524366008344464,0.022468884111724263,-0.030566723015092254
0.020616183829726617,-0.029770391553481775,-0.02800353273503568,0.03476498332490674,-0.01330190763353839,0.03285616168180737,0.020751933851425125,0.027280862439712006,0.03152222213936236,0.001782814794506822,0.024936848414019996,0.0063304215314269885,-0.01781755130196034,0.016121740680817218,-0.0320102322393561,0.02599767833948076
-0.033668237649879564,0.02704089670819916,0.028530048947354614,-0.024261914110888343,-0.030013162043633402,0.01590522868901148,-0.03238832828642333,0.03505442325771832,0.0013848904252150365,-0.007409610526824546,0.033072325613878406,0.02170558360821298,0.013261080364072309,0.009937928058732719,-0.00900145188472087,0.015096824317724883
-0.024763850706556772,-0.014029700829707867,0.028900118976484618,0.004015573513260921,-0.033712571813197506,0.017152482695715426,-0.032591866429286534,0.018760879353689225,0.018061925829934294,-0.010436815461793671,0.02808412077487503,-0.03179168220717493,-0.008673992766663616,0.021459112876050034,0.005537978918009445,0.013502953505528208
-0.008656603319077614,0.001483462353340237,0.0041843970441297965,0.03546212086440223,0.015640804213467925,-0.033348042430134645,-0.035421758663236345,-0.01847649246793781,-0.010586224135453695,0.029662507635743962,-0.017930897964168104,-0.026889852142993192,-0.022620123177292305,-0.03313502080238008,-0.01152284190133709,-0.01465980466966357
-0.01991910515532073,-0.007427571230192356,-0.035440883028212404,-0.029186031565525888,0.02477587120495711,0.009511405512440778,0.032164848533572904,-0.02227304866934741,-0.02585194567745251,0.02261775531927567,-0.014841651285896158,-0.011679635168162339,-0.024702653025159067,0.007495344572025879,-0.012066465727862179,-0.033214300332363694
-0.0051111369388395535,-0.026148493082492057,-0.01487458620059462,-0.014378821748428985,0.006062238907339666,-0.002450553163613471,0.011471073053764165,0.013424798307128713,-0.03235685738594374,-0.00335407909479684,-0.01957210573942556,-0.012504009562291245,-0.020751420553793126,-0.015411182507668104,-0.020866384865877878,-0.004026768601521506
-0.0055357299027133065,0.022781673281558765,0.018102649187029363,0.00900786101201452,0.03375702392086194,-0.015798826047283412,-0.03492891730919139,-0.006097355622635629,0.03320767964971566,0.02428789701097058,0.021211272030129874,-0.01369134947612664,0.024199971945114827,-0.02536871355027316,0.00883535794824298,-0.021573919540824032
-0.02545747344785442,-0.02474182538416888,0.00733601094324994,0.030384373979917043,0.019585211593797155,-0.011928657671059599,0.027368876172994133,0.027850572366682064,0.016798287513358073,0.005774860426801268,-0.020385120484110508,-0.0021491649965029794,4.577407211810297E-4,-0.030761169884458005,-0.021334093021105678,0.007785089265011744
0.022151550847808205,-0.02938492953463771,-0.014738682570841422,0.001445631980210374,-0.012449192352150196,-0.0036877516578171163,0.001047769744383413,0.02567364830223006,0.02486654757343417,0.031903194390785525,-0.026517894775728135,0.015344370073433096,-0.014133062430800598,-0.017806709669952823,-0.008388357772734858,0.012640280314704044
-0.009305834501967994,-0.00861791673621706,-0.026460225771303553,-0.022366303547312907,0.005763665533538256,0.0011520398245442667,-0.022726410901003018,-0.034144448225858326,-0.004976583714091876,-0.008612247550130157,0.02260932824756623,-0.006054358069315827,0.03422953706871505,0.02633522667707828,-0.026147919746805373,0.01719270283678325
0.02201717837398824,0.002138850945657113,-0.009167627866873578,0.01332480906403627,0.0010860414434691393,-0.007188525780634312,0.01299711406643244,-0.026046593197551964,0.009681902791169733,-0.02490899405991632,-0.02059273655661993,-0.004082494480841227,-2.567952762309797E-4,0.02823415389368382,0.005055440128788835,-0.02436947782724151
0.032487393931771816,0.029493849033473185,4.0579241197030713E-4,0.01786582289873291,-0.03207841316520073,-0.017730786844348517,-0.028268021679433618,-0.012959356419190451,0.015314524373543581,-0.0172879859078265,-0.006975787210899136,-0.0041002057607387385,0.01622491655893183,-0.02710102110197378,0.0070068759138396455,0.006466793321523098
-0.015912985718735864,-0.02164930388382273,0.001437091966483603,-0.012949784854292948,0.011572200196017172,0.03529661382285927,0.034745562046292866,-0.013206583337866767,0.002851915682123639,-0.010385528033772382,-0.016210327985270896,-0.019009304351281887,-0.010335244156362031,-0.03329093021815166,0.008655119084271953,0.016504055990820436
-0.027509376033089575,-0.03569778320765224,-0.02208172859632349,0.014247383380500675,0.02661397528394531,-0.011134144346330935,0.03561301985509803,0.009506525380402808,-0.003381026843575906,-0.01928576242967335,-0.03283048405419143,-0.007789760627303091,0.008360124947521905,-0.00258092125414644,-0.018952420499381402,-0.01939601811024639
-0.014611578739544755,-0.01961389500744276,0.026113927810724163,-0.012249226056744333,0.023047727817843033,-0.016069649337920544,0.033695419093710696,0.034385222428253384,0.006422020311167183,-0.019405291345008797,0.035274378224748604,0.003029705100889367,0.026708496506352396,0.020964139020252903,-0.006884297158376098,0.03149676790100324
0.0012394731818815216,0.007837128726180413,-0.005020458161689327,-0.014050538000032507,0.02467975382876056,-0.025775804181848952,0.03462076505622001,0.00474774254759127,-0.015434411405175992,0.0036891188521932933,0.020865793260899906,0.030545559267007374,0.0018890350395931524,-0.022306788146936533,0.0043004559875788745,-0.02543278895280595
-0.010017061229961051,-0.01832366138444384,-0.009228971847847052,0.004583024922752588,0.018057761986479577,-0.008601679905005512,0.02331824776053732,-0.02766247352796948,-0.017224659611037425,0.01553361969596423,0.011614357065746761,0.02710667731891389,0.018374692913538312,0.023688533169773027,-0.029913993056244537,-0.0109449548894942
0.0012872696868448594,-0.009444206310538841,-0.022464424997915004,-0.0013859608370707863,0.015073236305620595,-0.006540513571687858,-0.010949350702437632,-0.023486228468514357,-0.009953097418359352,-0.024734074038731867,-0.006653318807560482,0.023509052842732255,-0.021136663816528366,0.018350240549798433,0.0029456467336475625,0.01925636885016896
-0.033735105338334376,-0.008423878400640777,0.008100362257704836,-0.025200874572156633,0.016970300469988674,-0.02697469945706648,-0.03278117524656924,0.019033068006039072,0.02819607179398098,-0.019653815545328444,-0.006400777537379412,-0.00549359472831823,-0.023536033335654277,0.0230834707163438,0.02007528912433889,-0.0034059266144631298
-0.02108062785070291,-0.01972505156013651,-0.01580573990304157,0.010967864822222492,-0.002862749051580127,0.014216510608486159,-0.02748746687374925,-4.4396608326468384E-4,-0.029060655390704036,-0.027982659701152227,0.015179705837764693,-0.008470436320443062,0.029173148975450078,-0.03252908695674757,0.015665213294630935,-0.02985109139851148
0.01986348792512388,-0.018425944644867145,-0.031136691831167827,-0.027235431391190328,0.0022830847759955225,0.011791360639627553,-0.023711950986280823,0.02264787630529562,-0.024661692611667806,0.018111815585180255,0.03304653125140336,-0.023933656497588194,0.00615600255396459,-0.017339105585148378,-0.015744384892899088,0.014894455842195758
0.017681606670432184,0.0020244077477932776,0.01919169046184821,0.012157075441888071,0.010769178970091497,-1.0485514127218931E-4,0.029577430578325598,-0.029459776501188962,0.02835564123984366,-7.079207417722208E-4,-0.014214580554959055,0.01967014723879896,0.017770059036119078,0.01958133027575059,-0.0336959506200059,0.02628467092091618
-0.03225844296214565,-0.0014445909430376158,-0.020702581322212255,-0.005357724715275854,-0.013516904452092738,-0.02911920977697267,0.03249313921881494,0.005772130859153575,0.009212492167730693,0.029827277678896258,0.016358700633509915,-0.03191099893947674,0.03394142616961569,-0.009936434290430562,-0.005524885274154661,-0.02792509898457414
-0.03275860058616553,0.034752206684503656,-0.01585073215638243,-0.03133204103909534,0.016971561914779595,0.020394222601507535,0.011786732892677038,-0.026754556536630995,-0.0303492497544836,-0.026570791931357536,-0.01443535198341549,0.028033112788551015,0.01680823631808734,-0.01895670386678892,-0.029091156862071713,-0.008757613339098889
0.0179573211709448,-0.03198418243698671,-0.02672411025297962,-0.012665469422851627,0.019917717925604643,0.0029324098574119786,-0.006200307069080049,-0.004654229551201903,0.0038767470804077706,-0.023134374180673496,0.005686598989555244,0.024732096825444326,0.00965688007474276,-0.0277195232407143,-3.9310340536685695E-4,0.022725933526438508
0.014953531733283065,0.008325149871832034,-0.007248317262356616,0.024892250201974414,0.01814144253140445,0.010864468273262755,3.2891697477993587E-4,0.0031911879613208335,-0.005021413004204285,-0.015650878174292813,-0.007125510414448446,0.031125334199432253,0.033196131978841914,0.017635002788915458,-0.0032965165568393795,-0.03237566447165401
0.03201724068251767,0.026523999554089676,0.00586822433717777,0.029438585396822037,0.01774738702733686,-0.02759176575628025,0.00740309498917778,0.027658146865641442,-0.022258936843056885,-0.0344601155176398,-0.01827748012021382,0.034335161774200915,-0.013420322726991625,-0.025227330714633463,-0.009565376339778768,0.027219838637925764
0.019940002275985275,0.008860946135839376,0.027591801838007732,0.0038735708922853496,-0.016981201317865544,-0.029607926397537905,0.01819839650851446,-0.009896182205078055,0.017937482752247776,-0.008676031576810603,-0.014509343869693474,-0.01159198868283496,-0.03034469828370626,0.0019769940224702506,0.005035884321117734,0.010947794321120662
-0.015220189934141672,0.02531753128194221,0.024117924258383737,-0.0021702680218116735,0.008377208586468468,-0.004470978866365334,0.011891449741576986,0.026987858800200965,-0.009011065550601438,0.02114244643084727,-0.002819800442079752,-0.03480751279445438,-0.021510262642039066,0.011113704871648922,-0.021205713327680818,-0.022929220448307662
0.026342352540514764,-0.03405259563769051,-0.02482366407434533,0.028370067419620046,0.02372051035407327,0.004232371535836617,0.018378977872295997,0.0232958780882781,-0.013618773637102621,0.007296674878653854,0.024963108274121175,-0.018082496928231533,0.0071707037408472105,0.021598812219455532,0.028831091856498278,0.023893405291363565
0.024253338766286256,0.006610636888771539,0.034003654119697246,0.03272503934350064,-0.008387937389927817,-0.013322382400472493,-0.012888328769027617,-0.004252829992548966,4.803908021062814E-4,-0.02914317652890751,0.010589436738545906,0.023990520056127812,-0.015802008960810496,-0.012125701238056823,-0.02162948753842133,0.028707258799918686
-0.011970841779630155,0.01601972496373133,0.032216420821148034,-0.0032201504528711275,0.010669954886917098,5.423378539981885E-4,-0.03108529704957679,0.03187637498772361,0.019287421182044726,0.012497728385916812,-0.019775246573530494,0.008579709640952692,-0.030872307701630526,0.019855620522055327,-0.012858455200306998,0.026774485857380126
0.024483011922480556,0.004294500198904337,-0.028212619870401624,0.019704627490666038,-0.032781697184374625,0.010658535034367637,0.013898556807842813,0.028194587516587655,-0.012721032052799588,-0.020999423212129713,0.017041358454015283,8.844832815780232E-4,-0.00767298662296885,-0.013686265328514309,-0.015479828117050096,-0.03443705318346091
0.020771661417606023,0.0015642980369167808,0.002546969816466224,-0.010835220006321658,-8.717702643048428E-4,0.028976251747249424,-0.007169110104057692,0.003230856161066664,0.010464416852887543,-0.03543266831420873,-0.018230430009805856,0.02080082803095424,0.01247220439555713,0.03354228172107043,-0.01493003429086474,0.015765987737358385
0.014684027466614916,-0.023175485605332884,0.02896229973556254,0.02933423181519193,0.021791470914129626,-0.008313516281784852,0.023165691573155185,-0.0042346759045543275,0.022884754229779057,0.028084129839192604,-0.03245176922755174,0.035565307675325133,0.016987589450699142,-0.005816784970661966,0.01955494499720286,-0.013998229588843027
0.027872537722843066,-0.009516608584619675,0.03213299308192116,-0.019944684296452724,-0.011316469540668742,0.019825649633138806,4.3031567084315936E-4,0.013813376042915874,-0.023559664462207974,-0.02763045550461487,-0.027203350649969787,-0.008464358338631715,-0.014021294870414272,-0.032454115928784326,0.029647031026110132,-0.030326448419148975
-0.02858187902320098,-0.02750519603395781,0.0030913387828348377,0.030221535458459098,-0.021693501488764737,0.02394170138260457,-0.03502163403085016,-0.010536800319252651,0.005722612479823017,-0.014613060022545508,0.0239037862803977,-0.006176382011163963,0.004381481849827798,0.03099799928936836,-0.012251245792899941,0.019630781303539346
0.02035735121380551,-0.012047346490491946,0.0344850285694987,0.019610485243238163,-0.008615237556835624,0.0046311736757369895,0.014840303484672197,-0.00640878440965539,0.034303164134663125,0.016605401954015747,0.022126896864179783,-0.020534460543268705,-0.026200523575241344,0.0011046166118479847,-0.0014414917703942723,-0.030687235401436568
0.027920923665206113,0.00590511405615133,0.016819055153818492,-0.009827523784936246,-0.01803508800821989,-0.013097929296656739,0.006527379699622249,0.033330363500527066,-0.012125173813339083,-0.015148874199917204,0.02397993196486365,0.015103418350132923,0.016114409056563028,-0.02009211107491758,-0.022482695919789845,-0.0246827130386935
-0.025491888637493312,-0.033583234990945954,-0.01925026712321146,-0.02438564949439448,0.020044064572181684,-0.019832181091160837,0.012540251215597,0.021993178158795722,0.0027472645483447994,0.02470397322495084,-0.02352278519832372,0.010812061795981903,0.022788931399103513,-0.016921568887412173,-0.014718027650719057,-0.019073921297827017
0.022792444345559403,0.023817416910753966,-0.007079860009741184,-0.0018141987857037897,0.0013037456217180818,0.032831578250580015,0.013437891499550492,-0.014607956503740312,0.004637064318150648,0.026446393749189466,0.010111746185919049,-0.029805091381537474,-0.03275835273588815,-0.02303954723217558,0.029249415548726496,-0.022392882459244652
-0.01557516050762733,-0.0010985929323610241,-0.026116502129869823,0.035435199835066364,-0.03198113566822094,-0.027834570688738007,0.013709055889985985,-0.015597860731609473,-0.021278916277183035,-0.009448638304095362,-0.005206478508529868,-0.003992323779987546,0.0210489885601923,-0.029129718620685505,0.0027008578373664133,-0.02705244300091582
-0.009525201246551422,0.03159517166291968,0.01537763347642778,0.03479902139864348,0.022380290764253116,-0.024180771487970137,0.01591777701154161,0.015263799060652603,-0.0260240101171232,-0.012119966689069086,-0.00379707264014785,0.01084768095774459,8.359254634643168E-4,-0.019910632479147063,0.02014380740589891,-0.01909466138970345
-0.029528479623364887,-0.03374482858445222,-0.006252709647296382,-0.02844553846638208,-0.029528456564590178,-0.0064729963222302095,-0.03045040133145602,-0.009719111681623562,0.01653579729856733,0.03365002860038227,0.0257058319316074,-0.01244333084103666,-0.02206221443801526,-0.033665517583122216,0.028914542088868955,-0.006656243373398492
0.011806553977481996,0.0033295374888829207,0.00872609712282233,-0.03461768197539039,-0.02888086281631127,-0.02652406774225552,0.033163202938277334,0.007127709584797762,0.011108055937106252,0.029293445770685878,0.02113280810099554,-0.01312011371913693,-0.01655214402165554,0.008764748218401078,-0.024282068449859986,0.019915435284588348
-0.035527050376366914,0.015101390288482092,0.01050017419494955,-0.01011111359072123,0.00678203076745975,0.0017786172913488926,-0.03211233612969167,0.012596132373188927,-0.01686715806667733,-0.01601744581988375,0.0014621813324956073,-0.01401933543843922,0.024138698719812723,0.015043191899796922,-0.01813159207787356,-0.01535873115383116
-0.02388136401876621,-0.02860289690025653,-0.024836094958302482,-0.02130347516431036,0.03121381113982684,0.03529414025007063,0.03081024396330699,-0.005739520309679034,0.023643661360186523,0.009524490087546293,-0.030134957967465004,0.026237745070193094,0.03298121891121561,0.006729238492204685,0.034086202997457765,0.01326310683348865
0.029150847446199918,0.010107157491698895,-0.03200852684082678,-0.015632026233287855,-0.024978747006003575,-0.004733248907905767,0.024904356435844932,0.029684352490826668,0.004018917622234185,0.034649416749326825,0.005644150213319786,-0.02506193780879194,-1.5909667241680026E-4,-0.012493450471814153,-0.02150414301473952,-0.002228084392710432
0.012285873910909947,-0.00802218367456349,0.005192262356448728,0.0022350356485743086,-0.003845013934174704,-0.027793939048905352,0.03486817982471041,-0.008449639608389618,0.0158475489626903,0.022239487385643873,0.015397885059163757,0.03496707752537927,0.00409332760308289,0.03042722271964049,0.0191727890064168,-0.015939793753451708
0.02971789139297276,0.0024251120586140443,0.026135472919429366,-0.02466826870828756,-0.027120903141959113,0.0037012104550343122,0.0038564903380542623,-0.005974992279275091,-0.0024867414015192837,0.028919009708866683,0.025486298662790896,-0.033965308858723675,0.025316510359130122,0.03483112607402458,0.010407784037597644,-0.02948462309387261
-0.021226543697762865,-0.013156776767131409,0.0043480477984623594,-0.03538692102191385,0.02532430348270808,-0.015314094362118707,0.011760831048823792,-0.013208891792962061,0.019584383268285807,0.023860029483179494,0.01417782385561344,-0.016859160910453592,0.026692725016109982,0.001965410641115266,-0.015109810755029516,0.010318374236785777
-0.031626167833845135,-0.031383018369635605,0.01625329592884367,-0.007051711923285686,-0.0349013166461502,-0.02381690991111549,-0.0019963374572517373,-0.012770513814892612,-0.03396739689375544,-0.01777771984125075,0.02700535348938876,0.004132846600176605,0.01035773310711429,-0.01916219211182182,-0.02846708335503907,0.013694345340334257
-0.0030871226182129716,0.017293602446513116,0.025683304622801377,-0.008653590065452958,-0.024134399700516354,0.021305491493475714,-0.014659260015460186,-0.009306144022304643,-0.013446078698466875,-0.007192547506182652,0.03256341326776348,0.011649139010066888,-0.013129929126487052,-0.025120439065530097,-0.03440071111438997,-0.008255788595306283
0.03225396190888946,-0.02629367842615512,0.02232671255455125,0.012225211690744753,-0.020441687590209152,-0.018186900331617167,-0.005940140688875082,0.02985655179134565,-0.01961381755015197,-0.0215453023936039,0.005083881649169529,0.01008491669998221,0.009741241086653668,-0.03343731018594266,0.021670163803836316,-0.025222290259286677
-0.023470770661673555,-0.023017084504705725,0.021262166935297318,-0.020771212513826347,0.028339257843697424,-0.028675325716083895,-0.006015391305618796,-0.030835066522173143,-0.02870828384519507,0.012865567165809985,0.0352089480131863,0.005102836779317117,0.02309515243748174,-0.02914343323540826,-0.03322226295530061,-0.005515858373533886
3.889078880610769E-4,-0.0010277036245440047,0.002750807437172924,-0.020795135711099127,0.021831100952184372,-0.021026800552980562,0.027634200826775368,-0.020204532099253665,0.005059930033755718,0.03077959687023278,-0.021197729384145957,-0.0016438769755229357,0.029842297943022567,0.0029496285836261155,-0.01845388944075679,0.0049374728034940404
-0.02312298873033699,-7.187611357804477E-4,0.0012992349361619845,-0.010974686604805994,0.0021696941676871764,-0.022497595681336444,-0.021704752297790113,0.023562223243823913,0.00842005102822755,0.027145454078581127,-0.026928526642915396,0.0033856533189278795,0.0019241889538765683,0.005177180430964608,0.008558517183576163,0.015502250022196698
-0.016504347177834555,-0.014614336347249613,0.007464046941185042,0.011166968294438633,-0.025942382542504035,-0.018239183204320487,-0.0038099205326688687,-0.024153011973300324,-0.0016958881258592948,0.008577290535189484,-0.014695100577324292,9.636995263673925E-5,-0.008058462491786052,-0.011175583062867048,0.03565300179565069,-0.02481312198844598
0.017041411637073442,-0.0072239014947580275,0.024508955021540282,0.01413642623093999,0.0089235988871873,0.014916008786560186,-0.01745441342826988,-0.016335623983383212,-0.005641815958079936,0.02091055976695362,-0.013361881514354627,-0.0314477094649604,0.03343804027935206,-0.00771469456107278,-0.02128103134676352,0.016575082428647532
-0.02405436455000986,-0.009062557926006989,0.0322885526977463,-0.017648413078366683,0.009633758290542721,0.014683612612120998,0.024951306353487655,0.029725317367245152,0.033075106927333786,-0.008354393603976225,-0.030507197934984298,-0.03518326189483132,0.024700366328522294,-0.03288245442123195,0.009710494177596195,0.02682090687031885
-0.01725918073527397,-0.028712176427278135,-0.032668896391278346,0.0246806519487328,0.009675681223152433,-0.03395549402938012,-0.017521803634469486,-0.009656895724589592,0.022597953294474726,0.015274611201758735,0.030003936938946957,-0.0037573385792995864,0.020746100197553963,-0.019330015025165237,-0.006496488845975257,-0.03018768839896615
-0.0022763948651854937,0.025294069434687323,0.03314192894894928,0.0015336942739166415,0.0310207921563736,-0.031157561808023346,0.03382664753152023,0.0018425794490971661,0.02290216242692271,0.01058476494612108,-0.021864935920329946,0.01491348134166394,-0.010222208948091376,-0.021269226735710876,-0.015120699180061828,-0.007871072809988847
-0.025118845199332034,-0.022152159000045905,0.02403375883076027,-0.0032367769785186656,-0.017605086997134502,-0.032614572049116636,0.017029466158960685,0.010627884078157984,0.01840421221208878,0.021629637598000677,-0.006185461205348963,0.02723524483712768,0.010383075553604307,-0.023749032159599066,-0.02524642817609235,0.033476838713732124
0.0037464799432811446,-0.030671139445400245,0.004244682604698194,0.014028230063471522,0.026223443010034528,-0.027199514873476507,0.027495742044345406,-0.030898115751902423,0.03233086712796761,-0.026751498760649757,-0.012508451097658895,-0.027610256657893538,0.0069698138826576606,-0.02515345468591853,-0.01090723439985938,-0.0067459725621950885
0.014125825919995769,-0.0022625489059524898,0.019086833656868904,-0.0044392688076787395,-0.00925150216412943,-0.009183875365340266,-0.003871433898052959,0.022843850219392996,0.027796623397812706,0.02996508787485347,0.029321940683548667,0.03372466672315988,0.014966763353097434,0.0332703356184097,-0.02685081766341014,-0.02571087646508985
-0.017306710569075377,-0.03143163327300601,0.0247956821457661,0.02786723860865474,-0.03468732339498796,0.03202911748131897,-0.012696834921486815,0.030770132312752524,-0.027732012585909863,-0.022106463234681382,-0.02039858926858044,0.030228511061835855,-0.033330296132018954,-0.0331963031695434,0.02093966084886137,0.010719370317223281
0.012135078803671769,-0.01537786232116942,-0.03120967074197137,-0.01560036654902125,0.03454887589974388,-0.014313516394589124,-0.008328237318448475,0.020191311007991125,-0.0019486358245324256,-0.010186648172754251,-0.015604162564296562,-0.026580215365268854,0.023769940892951445,0.002172377949078798,0.035461509072843206,-0.02429304370969261
0.018653273899570277,0.018279854314735305,0.035631382952603985,-0.0011613847113990938,0.02182879688148233,0.020633530674599006,-0.020181748298766462,0.014970110748107224,0.0018281062204829474,-0.008500961256501714,0.014581147870693804,-0.015141687702995423,-0.0093844057642129,0.01888155744193825,0.0265972433220893,0.019152054132932264
0.0026680305621925096,0.016096169839748813,-0.015466723952270865,0.003359709546515245,-0.0026479448992472315,0.01326070222359628,0.01971859330788691,-0.03136803315568586,-0.018879057383423506,0.02864473338544464,-0.010256355878662485,-0.025482288262181595,0.007238263061858062,0.034637969148420836,-0.02066280593997503,-0.00642004507456978
-0.027731865454400116,0.0142871214022623,0.0023790748647871743,0.021490119062925646,-0.022254169684843138,0.01878325389636379,0.0026045733946127095,0.034280061213820406,0.019472784463996216,0.008908183006452484,-0.029346720873048324,3.3790776975115705E-4,0.016242087893815593,0.029350494283237466,0.014755058803684183,-0.023518366605361177
-0.005889267043059778,7.32260172148877E-4,0.030715847870574076,-0.02903013579534733,3.793804463700298E-4,0.007884042630545977,-0.031843108526628715,-0.011331778358084132,-0.032989380585402066,-0.02912365935698826,0.01729999878948684,-0.02267031474875923,-0.028245195457530712,0.029507132486199225,-0.008067027785888636,8.355042154872955E-4
0.015103813278381367,0.0019999233247871492,0.015548400188736454,6.554418090786232E-4,-0.029693351338245615,0.034644711230815056,0.02004588655945371,0.034087029720851814,-0.014147782960460667,0.018549409078399165,-0.03474252716375177,0.004902788092522432,-0.00906723762684666,0.009659672358156443,-0.007392395829908742,-0.024133482890650863
0.002299595591568046,0.0056228511989922444,0.03393678172381327,-0.018589560654080302,0.031127232488463857,-0.029053737911230337,-0.007716869838720934,0.013866175202868689,-0.007133351624962956,0.009148755498599087,0.02925025026548439,6.267469371585913E-4,-0.029382157115360803,0.03112611101323562,0.015308079796845661,-0.026077794989719016
-0.006415234498312224,7.9583830747431E-4,-0.03531202872728519,0.032100191055088725,0.012210077606860444,0.0012687933966197204,-0.019849625827084518,0.015540475597063015,-0.02481775109530151,-9.565637724986767E-4,0.024507621770441024,-0.011119195867426917,0.002995074051665457,-1.334715477499665E-4,-5.963679844884148E-4,-0.017103044193640154
-0.030694022897043947,0.00994877671866129,-0.018965949367275445,0.020713793076055087,0.015299278467127447,-0.0287853962626559,0.032814739568259935,-0.01774814412300201,0.013386312081780559,0.01389061064360348,-0.0038958243600125467,-0.023238486004527166,-0.008114736546243433,-0.0028629178700166832,0.009668433792501714,-0.033889966581540504
-0.006186462342218257,0.027404440176806197,0.004508707531440274,-0.0022841067616157368,0.028575842597621387,-0.0057143639392626365,0.010846720123171033,-0.03537265932522291,0.03388267247594691,-0.016686425679879893,0.03528443344486458,-0.011835842162526325,-0.008228225630335095,0.019603643357228598,0.009156070376727526,0.017292673716119117
-0.005399572494705032,-0.014795994778891697,-0.03466988662436378,0.03377904932105018,-0.016430357059650093,0.02135905659069534,-0.009215206139520964,-0.022550799314732105,0.02118908115414589,0.016715352081269792,-0.002596096938355545,-0.01175718925185346,-0.03499898925501106,-0.011460039497364221,0.016411003323706208,-0.003022632837473671
0.01120573319119849,0.013274463558470354,-0.020585833514192645,-5.765632328432815E-4,-0.009204646437825974,0.003238754888659101,0.010040298612630769,-0.00232008538952877,-0.02738001836725458,-0.006733467092539389,0.03515121252426892,-0.027947186434996257,-0.00875459894987185,0.004178291824187351,0.015845452925305564,-0.007389883248662212
0.011560268116407112,0.003431146443972667,-0.02374369853770581,0.029670580104693742,-0.018777149734539533,0.012968894244613408,0.025137558942648068,0.02673225294721588,-0.02674587989345502,0.025353679419604917,-0.0057385409741699325,-0.020943756621410275,0.003697369248661049,0.01574765063464599,-0.021941153831531675,0.016110475878865563
0.034064160522907144,-0.016226430073187803,0.028223397455949192,-0.007810658131174111,0.003624378303886157,-0.03061296284718286,0.02456649267101506,-0.011713114745779067,-0.03184173893175647,0.008718729023204412,-0.0027946642735353147,0.03301338327701686,0.014843515093645475,0.015788795362254048,-0.003077112494827297,-0.022922242881519186
-0.005663205520572971,-0.022170861629628596,0.03207304297402773,0.008700646873128541,0.0087255194449503,0.03231080573293095,-0.03515309206649844,0.006531334915215362,0.021304077192255397,0.007249221119335132,0.010544801373170917,0.0024096191393377167,-0.0028951292631087186,-0.011299124123713613,0.011425848345022513,-0.03502670809355163
-0.009649297304204298,-7.43804996106677E-4,-0.016994706881080113,0.017886177200296574,-0.016351330312828805,-0.00844261859436472,-0.015039137482689494,0.018549428571173865,0.02730722383683859,-0.017107117775201963,-0.014103104111668461,0.010423243317610548,0.0015131833396535635,0.013253471905261001,0.0023792150232431544,-0.028054277741788425
-0.00607466332644899,0.011505932818152653,-0.029594118255099815,0.03404073815449535,0.0013909900935754685,0.003855513765158268,0.004014155846081266,0.005327201702801418,0.03287350783866204,-0.028758108569196195,-0.03071514883259251,0.010048230905258755,0.003993067748640722,-0.019515570793995254,0.01256990746709686,0.017383604711819337
-0.02578869653518571,0.025140133057176058,-0.018229120613660728,0.02942841356210843,-0.02914018410306506,0.007551560549080648,-0.028207794658454098,-0.015246469058697015,-0.03245089566473917,0.027189105833504618,-0.01224319326902129,-0.010145862874368652,0.021648249900793767,0.004243444877388931,0.02717530560271926,0.02522342332306892
-0.006038934980555886,-0.0027420771158507135,-0.008257282906345635,-0.029717204567462262,-0.022480349082401357,0.014254596903778068,-0.023150626159857683,-0.017980033174688395,0.02620242587346768,0.001709925588056646,-0.0017829700786837974,0.02404243436452297,-0.02879569558305421,0.019689926244301784,0.015329414671491168,-5.063634537126466E-4
0.023983049005812135,0.009132473945677518,-0.02561591077426295,-0.02396370675982899,-0.030340710130986333,-0.032004359129286404,0.002548613109813948,-0.009233194355760015,0.0062125942569334555,-0.034681710512601736,0.019681979320388114,0.020537019163877193,-0.0011758927504562644,-0.02481291047185303,-0.0033340661138613753,-0.006366576142399993
0.024701240613844398,0.03304001815984128,-0.022111209023953797,0.011085722163761365,-0.030063779012136804,7.253565855454905E-4,-0.0028024819096326287,0.0326905517976117,2.525453619502821E-4,-0.010309920358406815,0.030982363006576197,-0.020270267744977373,0.03141646539558576,0.02485295985706787,0.023668273436305926,-0.018802156694538885
-0.029741666692478026,-0.0011820641810968494,0.029350251112006204,0.03012754657781247,-0.035371801137542104,-0.025623557018905507,0.015107921113038353,0.015432549234253821,0.035382813910531205,0.02887789106825464,0.02081922873107793,0.033061500798622856,0.025134446324781567,-0.012971558157957926,-0.014301510620420833,-0.03003013913422354
-0.004117602003299754,-0.030479489292483206,-0.021999429957406183,0.005637427231769944,0.031905016174608225,-0.03171577129859566,0.012482373504837219,0.03448402614036922,0.005381550164805689,0.007460251769612257,0.026488881338155294,-5.294796730337045E-4,-0.009554351769869733,0.009766284112619143,-0.031796740277827695,-0.010115898405655601
-0.026314281578017018,-0.014818772081793077,0.02028599655438805,0.025920463238440737,-0.02682248133601481,-0.00235081962322118,-0.01848900303396306,-0.0030429050065681543,7.794474403555046E-4,-0.030214851231192108,-0.01961542498400283,0.02867479099199291,-0.009072550436672305,0.03540574599850682,0.01885749434666905,-0.0031550279058629865
0.01703864354288253,0.013956312380314223,0.001279067629696748,0.010138269110426007,0.0034254951037139617,0.009165365742384052,-2.5502688589701394E-4,0.007895491107286497,0.03567248172585158,0.007954812005564728,0.018832539471934903,0.020303411318251002,0.021621476298750414,9.655022531541851E-4,-9.912426979982666E-4,0.009110941234654495
-0.0291912718333422,0.02615656011061815,-0.007804889479722712,0.0051280107839846364,0.030785074347011276,-0.028517164152228696,-0.019444120754844228,0.02799008353137389,0.03256298941253376,0.0012716737470960249,-0.02646255938525848,0.005289651481218169,0.022954458377950238,0.02770564893311296,-0.01815071967861164,-0.010100770520634142
-0.003588299008916142,0.013038303358747415,-0.012609679905684994,-0.0039029439224967516,-0.021441119086102127,0.015262291098340361,0.020052495406689325,0.026718557817037407,0.0313804286190931,-0.016500423304039103,0.026485102904115702,-0.03420118703266133,-0.004535039284194273,0.02149003638039109,0.0039024003487033374,-0.01721500834429407
-0.035177656658902746,0.005666476752455844,0.02813019813278339,-0.03140454159787266,0.018247364371319456,-0.03321659744913399,0.033536061802207126,9.764655582415599E-4,-0.026637606513654637,-0.02716864824426089,-0.021086943455349304,-0.01570179664334961,-0.027636068670023856,0.02248244245842368,7.081985280593048E-4,0.006693342824269734
0.016950221254865783,-0.028372794303221736,0.006508416789221719,-0.00821069009031379,0.0019012296761961103,-0.034910767923032285,0.003474510151446661,0.017181826687570095,-0.03258458027028291,0.03091499003204211,-0.013550106121990407,0.02503097571388252,-0.018456400026040796,-0.03400966293497584,0.02975354146786363,-0.03497778414749047
0.0221042472838249,0.004860465326818705,-0.02864385130956759,-0.03312011360267567,0.0301452281663422,0.019202485415519395,-0.008784460378656194,0.029370718563961368,-0.0018386887856332232,0.02340043619551012,-0.02048809756093321,0.008551997841291646,0.015068411012287085,0.025548568740836552,0.03215402075988802,-0.010681345934666471
-0.010947813238048283,-0.0025998045390814295,0.0053926085291222045,-0.018498676259137804,-0.03117139673593612,0.005315866663922066,-0.02377434473476219,-0.022413664098965516,0.011357218299660979,0.03487173218366593,-0.006606034844569866,0.01683414526032892,0.016111603075271715,0.02990156222398814,-0.0025501806274294894,-0.007324833288961368
-0.002168652636698132,0.012331817855874741,-0.005819609699103501,0.024608683890283548,0.013089184291570098,-0.008228094790013678,0.006521513982450926,0.03283293744011945,0.002863874710866611,-0.003030663182298332,-0.001031738642063608,-0.0317337425388279,0.010682865658926843,0.022618537847749982,0.021042844710168,-0.0027107089823894606
0.00604189000271186,6.118028938193673E-4,0.02803019046857351,0.03354008182405277,0.03278561803463137,0.021399042668049144,-0.019751942370785622,-0.033204204772493556,0.015783316504718863,-0.02004803140367353,0.020054879690059972,-0.0182831480939605,-0.009167721589952271,-0.0020361957764452737,-0.006870465454095989,-0.03467630441853098
-0.00889986647139077,-0.004228121332528291,-0.021467854039600907,0.014795619961664702,0.03194456588386822,-0.0345075056237776,-0.008531554514477544,-0.00580418547466522,0.021722869569562014,0.024072725159372685,-0.02780000400627986,-0.002118306424458781,-0.0014259052424928226,0.025529866698001613,-0.0024364970447206327,0.015515424990483292
-0.03367919702217747,0.01393730927831921,0.015650662816301217,-0.019967784773475755,0.0261873475519821,0.03225441630644041,-0.006736792478154712,-0.03254949662758529,-0.023798365780693623,-0.008353348839449468,0.009023268359019516,-0.00216799269283046,-0.0329897480369202,0.02963718682479481,-0.026975899350253713,-0.00322702036445615
0.028643290250647158,-0.03175821449773449,-0.03164832648398769,0.00893157028276071,-0.029640269769469364,-0.006959423946719619,-0.03284060688677928,-0.028864009468626287,-0.012653602952635519,-0.018456394792452827,0.024430168302907562,0.0345274464589629,-0.007332444702608503,0.015842958137908564,-0.0329514862545871,-0.03373173732385905
0.03445858552431538,-0.01790913618646021,-0.015402630618845881,-0.008037199040280954,0.023290480711097253,-0.02032180090158656,4.436100963322101E-4,0.03482562383503478,0.025122941223057867,0.03103357819736996,-0.03335883611807138,0.02912508644062603,-0.018894744687944023,0.011331853813542896,-0.033035883680032574,0.028655313188788126
0.008515537972329165,0.026327169389636765,-0.003502343312729257,0.0034313373074745246,-0.004128786824355635,0.015505783775563435,-0.005819283151134842,-0.028153434829495876,-0.03570456454185398,-0.005080803286175797,-0.002136683232706986,0.030679612243129428,-0.005959500287878949,-0.01462158221638566,0.004806329870129536,-0.03433273693807522
-0.017625401410414854,0.023426413609627522,-0.004392298833601795,0.00230031015797396,0.018756252307431824,0.0028050774731528186,-0.03395454724242681,0.016363269365437264,0.007180852193256759,0.03319830009765652,0.03258908970573869,-0.03214653844654547,0.0026653357101239644,-0.02267056914746927,0.03186849387757401,0.007338819632730552
-0.02478352352413582,0.0019104130870243666,0.010029772704219578,0.02265913741724332,0.007978595626362169,0.025632957771489898,0.00576846649374254,-0.016497340276024015,-0.0048796369430227915,9.14356306262111E-4,-0.014558296298908067,-0.019659457111552883,0.0320758729426312,-0.02779271800626592,-0.012501526466360324,0.029768330980274482
0.011821416734787503,-0.00819210509920262,0.03262181736744879,0.035198103787781834,-0.013535227077088319,0.011036490873068856,-0.019883100382509813,-0.0279072113598136,-0.033467473104541116,0.004796708091077614,-0.003270064019604668,-0.0031571052292501053,0.024957213851998866,-0.020067530085766384,0.018894421902304684,0.0038678916678570596
-0.024568945993666352,-0.00660771316846788,-0.006333729893113798,0.02961031569626492,0.021001323478725124,-0.029662443813121074,-0.03170842881760685,0.02522950679077282,0.004934434007908807,0.03439097318657605,-0.0307651114366596,-0.012113523079766066,-0.02216102106208576,0.0014348609133573095,-0.022800190942448166,-0.020456522846867574
0.0026830819713962867,0.028506981152512822,-0.023835410824583885,0.024591015935923166,2.5017949833248954E-4,6.223497487006721E-4,-0.029379662673113316,0.011169946570292973,-0.03472701010851142,0.031030798734002926,-0.028358669340055587,-0.009069380089974925,-0.006711745622063996,-0.02406384617881043,-0.02013332914209785,0.02673577979979297
0.01573682798465944,0.002724086637163267,-0.019105489655385024,0.03309365352213106,0.031985045551996244,0.005648735477344839,-0.022168899709159806,0.02751583794209242,0.002175909834091126,0.018918476041993613,0.006526868779456685,-0.02078733873423745,0.021030534463376042,-0.03508838844242791,-0.022940881807247737,0.007990250310419188
0.0018136799021137781,0.012973888071656121,0.027767613858808007,-0.03424708446991203,0.011147782013542912,-0.011345868875298037,0.011422082886123168,0.01633853432214559,-0.02585762929826954,-0.012202141536794529,0.03418423885112171,0.03043560329407917,0.03172853720519696,-0.02790259391427383,0.008953328579004292,-0.01568967383519612
-0.020261215144126814,-0.002354807072771657,0.010053586598893736,0.015791349593947672,-0.011290154567589375,0.0018358798013601643,0.025442011555337624,-0.009196828135497784,0.02994663510435154,-0.00340622451847572,0.01743712004459587,-0.027783088844231356,-0.029294020595175153,0.03163847699487449,-0.0011662332546511084,-0.007416452254110115
-0.023578116077762952,0.009410624114953033,-0.0049589250906424895,0.004819520869565323,0.005164488524345298,5.316635044069762E-4,-0.013246067774394615,-0.032755323146690954,-0.0320315133019205,-0.027525866093850625,-0.006378388467820288,0.03512545680077003,0.030774042964193754,-0.0257839035893509,0.02052702543537825,-0.0223904408576256
0.02816457181251153,-0.03273980883871613,0.008505614294804953,0.007035674696085792,-0.012920518107522441,0.0037071062918327888,-0.03277118614801148,0.021408242752085423,0.01937677307475872,-0.0068292737286217015,0.02758640107979911,0.004308573711361487,0.013248040823605638,0.03499111331846062,0.033748565331953834,0.029760201458112562
0.005780975591960627,0.030583429291181838,0.022258854216809648,-0.014625768699375642,0.009959153434052355,0.03294356406550425,-0.03254893711018925,0.012203806672645381,0.025415203610510806,-0.011379146562002205,-0.01332359264080285,-0.015579916137704018,0.007865465012082587,-0.03127278448026071,-0.006438192999686121,-0.032878775564100605
-0.016264894446791568,0.025968624435036336,-0.012062587295190812,0.023028786734655977,-1.0959176719452929E-4,-0.00436280305768405,0.003678245471520243,-0.03503451245053293,-0.003411358414220071,0.010058537913364814,-0.01643775319328368,0.007923441803942492,0.002020113185948254,-0.009317016195412031,0.02977607678151059,-0.0057463346503323215
0.0159944805546652,0.031541726995858624,-0.02493724056318572,0.019843051197374964,0.02109783893318498,0.03533382083649704,-0.03295812763746426,0.024901906719875883,0.02643828090429455,0.01705621414735769,-0.03562554371854371,0.03415225988219675,0.03236177802963275,-0.03011472544002861,0.03382454462670992,0.004536000688673644
0.019632132136353904,-0.02756026453436638,0.027664869378725906,-0.02074805916559882,0.019853179868254266,0.03200463349053556,-0.02812124502273181,-0.007764389079298398,-0.024433695108649605,-0.032256626092269806,-0.027593116967812775,-0.020433221879635165,0.011004047830064388,-0.02345077643592178,-0.021624001394901005,-0.035330043268971635
0.027584348289954624,0.0336380444593565,-0.0131084603114263,0.002184543101656909,0.01728579780650212,-0.0033865764589361413,-0.021038614501947453,-0.016424100831442412,0.0348296904734238,-0.010644034953609754,0.023242663426314,-0.02082250346043129,-0.011074187493069956,0.010373424720199496,-0.005915619226035014,0.026132485413494395
-0.007262187541858325,0.0034203340480293346,0.03161401979176663,-0.008962066774996749,0.015626563630998055,0.030844808612317184,-2.710617359112169E-4,0.006378954008482464,0.022173787767759995,-0.005540548767346838,0.0012031600347971946,-0.025406779516048084,6.841673543625526E-4,-0.028672494035271445,0.021747311607900464,-0.029188230790499346
0.023874647519722222,-0.023386901329352987,0.02721492995203556,-0.0019306678582903386,0.023380807069470322,-0.00836357401499243,0.02007438716496692,-0.006136247341229209,-0.02997322858952374,0.013793409714590796,-0.01749590267863966,-0.019321203857200438,0.019076004785297772,-0.006135676505342889,0.012192948099522705,0.029938021314818056
0.0075315606341585725,-0.0015399061529225919,-0.012429729263757208,0.01654008408521311,0.03561270990103116,0.0016545179108866798,0.004112000175163957,0.024991059150638498,0.016655919433052342,0.02113639372608951,-0.028013838608750397,-0.008855434717205648,0.010873813436815538,0.006403454966679614,4.892894818324597E-4,-0.01224199211300912
-0.0282168843344507,-0.03274608998995377,0.016613973706347457,-0.023268720407112402,-0.015473598519095758,0.009185055849528057,-0.0069553075035298645,0.011403430462700481,-0.012507317314176519,-0.0016957477925254386,0.03440975771280845,0.026341861116080216,0.007522201731847124,-0.029951039421294803,0.00391324001195642,-0.031844595817476964
-0.01855725486136639,0.005787011136405569,0.016906445515386802,-0.03307890686372566,0.033146441228853255,-0.020045226926208477,0.01961911347066505,0.029619362079199532,0.03363097857001204,0.009257902665212092,0.02337240280731158,0.023391922233470516,-0.01963900673207822,0.004980711361569114,-0.005652273687358354,0.01922560940202142
0.016425302168769293,-0.028368250366973234,0.019555309189118672,-0.004859110402118363,-0.01779990041850851,0.020876780222397556,5.694465359819961E-5,0.01814306453633842,0.006651872076737446,0.03260486062683196,-0.030877132556168585,-0.025912728755271213,-0.006689889710311918,-0.028870536752684407,0.019849054021225103,0.011318143605294581
-0.028925885313542253,-0.026668768787413,0.035556077195076294,-0.004408820531937474,-0.033816851121803417,0.008784989025728066,-0.01592484644514317,0.016767918294219253,0.031001920399228736,-0.007094159577100325,-0.002886240704212187,-0.01794303576111288,0.010228911666191817,-0.004644756455509554,4.078792065662015E-4,-0.020318189281431316
-0.025264182545625576,-0.027180192286355098,0.033148642280006954,1.815304392113054E-4,-0.0248012834273668,-0.014519818999282143,-0.012002558127555123,-0.018957928367235064,0.010880109250048363,-0.001692777734445934,0.0012965836058721272,0.03216528490886224,-0.011490898800028997,-0.034689522346694736,-0.02096629631124871,-0.03379531135601134
0.011973426406851638,-4.549745572542327E-4,-0.03312577292944716,7.155012315826909E-4,0.002543195739234186,0.0022253252242437835,-0.019023561618653918,-0.004115602628943511,0.013671731839324124,-0.006294655800362741,-0.006231302769435565,-0.007996743156449358,-0.026760373646093627,0.010982501167473555,0.02043554186998088,-0.019973917803963466
-0.026202416265676445,-0.01028013764862807,0.011131484097915041,0.02827890423963285,-0.004628690825253905,0.018023948138368294,0.005733202060592593,0.03153994127883057,0.02494044362936044,0.03394967312134006,-0.029507657236850837,-3.0955406862557405E-4,-0.0012450230506901097,-0.0026693789443017688,0.014128375182922967,0.012028052841536095
0.014445033549582889,-0.03448636743895203,0.02149750224187695,-0.010930349770949643,0.007333315518617357,-0.0326510928119563,0.007532728535368495,0.02413007023934681,0.025060131957846274,-0.011577182198717284,0.004654442334640234,-0.01992828782428255,0.0022730585551959948,0.0012206719996196713,-0.020848488260640778,-0.014424247124484788
-0.011375979890591453,0.00912367391841927,0.007380273706276842,-0.008765198090557352,-0.03314243548362422,-0.033864321029138555,0.021674565989331554,-0.019951473973560174,0.008437265257016942,0.021084337345845472,-0.01601297263187018,-0.007390316307927611,-0.006510882015816184,0.016839791507146873,0.03291488688430444,-0.030448456150560424
0.02320326786567741,-3.3017548107078937E-4,0.005383903240524138,0.030930466112792765,0.030203786352188372,-0.0031284359551998556,0.009213010978024454,0.02471061469658356,0.0288551403602363,-0.02805619522275875,0.015350696994222701,0.014840189809794471,-0.018706501540962695,-0.020736679255808275,0.015067628194662383,0.0031619320933822456
-0.026509963667977414,-0.03496427919183261,-0.022602279925756204,0.019633753771678003,0.03379541911469511,0.012136519759248565,-0.005703960846694261,-0.005710659530444608,0.016292228736076407,0.012739851967332953,0.018208136357999123,0.03046867294880022,-0.011757957941446556,0.031277479938497624,0.022178153369905973,0.004109348770239878
0.012662826467635273,-0.03516527956936367,0.01206417679896149,-0.034624219230105203,0.020055733343803187,0.012249085181549421,-0.021914707852087798,0.02340278218412218,0.007033784277350109,0.007524675283077167,-0.03346695290801989,-2.6340251141133975E-4,0.021712674255231115,-0.012796590189181493,0.01590568411900349,-0.024996128009282886
0.03185500168358826,-0.029706575544982794,0.001641214773130388,0.030860870608725638,-0.006107772565597469,-0.017442139181450773,0.01426771840328566,-0.009267477036036666,-0.012438249949832406,-0.020977920349413457,-9.411324133861559E-4,0.027019769476780198,-0.014136501475182892,0.026493496834962132,-0.02753684087223081,-0.0214815233048096
0.02236494391206048,0.03455227938211494,0.027465956837469274,0.019133503003123373,-0.033638558396282686,-0.025204977672607508,-0.03161866397279635,0.03496905553295937,-0.010541401489668763,0.0025206287732771337,0.019967673831844897,-0.021122318564841314,0.011784249822649868,0.02997311277064167,0.0104912356867485,-0.022919712346428842
-0.02551846255465752,-0.021989899997880653,-0.019974672675785263,-0.013953372190944398,-0.03463914940044586,-0.021664339330406845,-0.02280400453879997,-0.02468844818462968,0.021350514190093366,0.00921416929939746,0.02876515244473088,0.005718482398881418,-0.028033041375774215,0.020372037701563754,0.006813050376386187,-0.029474590803778223
-0.031653052763900486,0.030465518486231358,-0.03195763559978094,-0.027503777710506556,0.023231655960872198,0.011396055164113537,-0.017639080925622552,-0.001612343990359158,0.022255236966001055,0.03402407974564592,-0.012923896742233536,-0.007092535328382339,0.0224704570456343,-0.017807588241613468,-0.007957217849257441,-0.015589077978145016
0.01764217906114629,0.019492948279272247,-0.027521379009239087,0.019203161525026234,-0.008184160895871134,0.03141636954824428,0.03549285598873815,-0.012950871071179457,0.03256273102349895,-0.013238877210000093,0.03079279865686417,-0.014640016859407839,0.034527534994601025,0.018593028166897493,-0.028486241253734768,0.030751659852898128
0.022723486028100273,-0.026743412209411753,-0.03450367985926217,-0.03517691107349692,0.03490978595914833,-0.02760660869345169,-0.028880794957075007,0.0037492360449556186,-0.015177262857823486,-0.035111859742680065,0.023690680435351996,-0.014894779585299483,-0.025046492838016986,-0.014191267056704385,-0.02680841757809139,0.03177144694627247
0.029642984473500972,-0.020426859887599784,0.03508632137018601,-0.019037794143070504,0.03389269627779837,0.009526766635454834,0.01241903627810706,-0.022116006376230218,0.026029979868344606,0.003346187405514532,0.009787132133092229,-0.029502223581061318,0.0036715744820642326,-0.00613593402387028,-0.014674067716372426,0.006775087150106711
-0.002518567921255134,-0.014656963328776584,0.0039167208218018265,0.01920313077662123,0.010508354568917473,-6.133650851818592E-4,-0.030675326108526735,0.012558970300372063,-0.03434146688500525,0.003404589889029322,-8.213569335346893E-4,0.018617339000101443,-0.032228276447962584,0.0022604405003634545,0.029530138090309743,-0.026036332257558352
-0.014143658539553041,0.0035647279630063936,-0.03280242581381742,-0.017748054910440934,-0.009410649301829103,-0.0022181756859157506,-0.02919494992336153,-0.014544995726028256,0.03128201861381957,0.004091793229988282,0.004946624000319151,-0.01532802560279915,0.008654118451613214,-0.008286440161606075,0.02062529875621172,0.02253967674448773
0.029357024321805092,0.009954518743078386,-0.02635572943532522,0.009456551254709018,-0.021419010221510142,-0.022767913633606106,-0.009415653270405316,-0.034962653026647146,0.009233350642524896,0.02447906821784552,0.01189310808183626,-0.027213946614301848,0.0052507816603435745,-0.022298114945622265,-0.02168941077075601,-0.020588098323789755
-0.014815777021714945,0.033188463826848355,-0.022459413840690633,0.029706695952621695,-0.012642637335089215,-0.016278074866668227,-0.03295026498982214,-0.009081406270532316,0.008382508096396547,0.010441716583313408,-0.027644574872820633,0.007228926833707135,0.03167698630501896,3.400459667085784E-4,0.01618805662747424,-0.009206349780427028
-0.0132894308762221,0.01710217987114334,0.021063134386324178,0.014130998419558546,0.023596744275432797,6.061306392008414E-4,-0.03127384861522826,-0.025293898901938998,0.001687449187271657,0.01987714073399644,-0.015619002326739944,-0.006063710200690169,-0.01064621586629302,-0.004536678615185141,-0.0203086999230974,-0.011555372434881393
-0.006503731039499978,-8.441426011569844E-4,-0.01364705373020161,-0.0011844577549813898,-0.016798314329612832,0.018801871437767757,-0.0322966082846332,-0.02145522499926339,-0.0030279492191465987,0.01010267539657985,-0.004495490823572621,-0.0017208232623348377,0.0218378253527063,-0.02046077466514895,-0.024641675223774265,0.01767233025564864
-0.012197866759556777,-0.012789826804568336,-0.031174316720249427,0.0015729715717877624,0.0018019065362529924,0.026158109157011722,0.030988290996975212,0.0050642829018711505,0.0011488509719791637,-0.02481492884755228,-0.027675667106259332,0.018125995879038875,0.027627308675167217,-0.001979045440028783,-0.021769982633170933,-0.027584912775245544
0.014788555295650943,0.006609267445740218,0.029230209931496637,0.022223122950886104,0.033780390934563156,-0.027148366799073467,0.004933636391762197,-0.03289194815021265,0.012147514089157617,0.03271302934966523,-0.016070880810775123,0.013261875604440525,-0.003973703282243071,0.017837049428404188,-0.008285823016712428,-0.004280226640464992
0.0024281594448054764,-0.01062342370223315,-0.03334396391387534,-0.011941578032931166,0.02695072102125523,-1.8912305771789928E-4,0.03384749709742925,0.017069845123768856,-0.01295552379063922,-0.027804252096715852,-0.03323432515004862,-0.02183663992632748,0.025051577962993683,0.030191188589910767,-0.015547924937582041,0.022335793656814776
-0.022908935932379075,0.025067532644762136,0.009954897692677253,0.028624378700714784,-0.02427984325035997,0.004863062839015955,-0.03256705732010003,-0.01735834204517626,0.017237356113077355,0.03318064320186881,-0.022987400817018753,-0.0066261834853886085,8.088205549694402E-4,0.018359496958777033,-0.02251181972326418,0.03420760187899442
-0.012967536684113181,0.03268613761448108,-0.024649218538679102,0.005213647084962907,0.026595125957397568,0.03464686635394114,-0.010361877050742953,0.0038607616696434283,-0.034400711636450025,0.022099987213096216,-0.021740261611909673,-6.930235277793836E-4,-0.0016810046619078964,-0.012679938423290293,-0.009658907330071385,-0.017165293121142747
0.0018211520142001475,0.03238473601782746,0.01086823773915302,-0.03423211003065662,5.810478406577668E-4,-0.008874466490105253,0.03286807974796295,0.00821702236291244,0.005790092020475868,0.027333737541155978,-0.003392217840859156,-0.023988808076401143,-0.006226239646152019,0.002900614874791589,0.025855471459460613,-0.03160481639883714
0.02109923157379942,-0.02224868788177534,-0.033117872196543406,-0.023989313127151128,0.034413611422192014,0.0056947214418398215,-0.03060865128527724,-3.509664319092942E-4,-0.022353718404300733,0.03411052447748929,-0.03110655741408744,-0.006376710219472406,0.01980110909715546,0.0024794816450979806,0.010112162130060123,-0.011474411278723513
-0.019631864932078944,0.029765812626273647,0.028287839588382338,0.010523297879877401,0.015143567874185887,0.019753456267508206,0.017910756010305888,-3.388125856588625E-4,-0.01593682050378539,0.012983453320402419,0.02370219301740236,-0.025163291227276847,0.025693011159470446,-0.0035798426503206443,-0.02948937300324676,-0.022238427760174966
0.01661956716897895,0.021276275548109888,0.017680172633446414,0.020382493053293954,-0.013065580978884994,-0.014549012281579368,-0.02416238467059611,-0.01305460079625026,0.007701079241017969,0.008770502815644309,0.027982193968724783,-0.0071698293790771125,-0.029297808230244866,0.006602001678238836,0.029476404497047803,0.009599896326777768
-0.02953496272782697,-0.032400254872450525,-0.0038784814441406995,0.032687914721513195,0.005497451261981555,0.019358600971525093,-0.004647019998682538,0.007896019090054128,-0.011877648879942596,-0.016447446467949243,-0.022178079976210817,0.01112788927042177,0.021015662137524364,-0.009827785669144915,0.01247424015874423,0.02683058899152775
0.020241238689418316,0.030209795925025346,-0.027391456830212962,0.010000117721194565,-0.007930658965250057,-0.020009350999504048,0.017193300369433465,0.021282751420608752,-0.033527620015208384,-0.014341001299468113,-0.022803362102159046,-0.029422809794911596,-0.02570208526397111,-0.01947255148340259,-0.02497018303343627,-0.01620673342142667
-0.030529932831988703,0.005917907231092777,0.03532963929945042,0.030953745035520286,-0.019622070644258565,-0.022110517014823965,-0.03489847924476284,-0.03336085664775596,0.030359321104325265,-0.02867481565525175,-0.02074867236186241,-0.023325987395095074,0.014419101081023636,0.034334253346647886,0.022965603340492545,0.017730699933883987
0.03032739694117867,-0.029461354023840557,0.00866659239318407,-0.018568575003512444,0.025965684414955767,-0.004938079148377954,1.5447495286530222E-4,0.021098254129278973,-0.007328916438989322,0.01835971914939452,-0.004297221702033567,0.031415395222122375,0.002734020196058687,-0.011737242614041847,-0.033756119794973026,-0.02542745135771359
-0.001051967003748877,0.024682040340710462,-0.03555945355809816,-0.031710079829860655,-0.033379460889015236,-0.012025784073966754,-0.003422921822914156,-0.017148583521321804,0.02788060361443162,-0.015661765105589143,0.006456761679772882,0.009098902436131012,-0.004687739799166264,-0.0343993905055155,0.029613777465222313,0.0024492677114695063
0.007499402842127197,0.03570689235505631,0.02052500920140203,7.557710330439102E-4,-0.02192209133572271,-0.014796104192114912,0.02433744904447406,-0.02555531788935366,0.027672725263893777,-0.0242768570073267,0.03147789267057238,0.0342169439254838,-0.029162520027007515,-0.024470330661477777,0.025234631609653183,0.02660320236510521
-0.03181979404192604,-0.009710910723560808,0.02905434481741763,-0.028659098639583356,0.03409018318293067,-0.0160301199618227,0.022491907842794492,-0.03459109222708349,-0.03171814512049439,-0.003980235993241689,-0.013308531796931072,0.003807379858697925,0.026476740119479092,-0.028494589598803473,0.013699099195017182,-0.027249234076873012
0.01594377295328618,0.012341984342588305,-0.0173240540301792,0.021514162694490316,0.019283911331385933,-0.019803643479537305,0.02592612438175383,-0.018507823186954857,0.03107371739346096,-0.005806685627277024,-0.033347210999989677,-0.0027854665755355987,0.01899487914660794,-0.030123665654726055,-0.014088766896438794,-0.026507906610326003
0.02950254655910728,-0.012451639844279154,0.017070363170320624,-0.018621344936127073,0.01798773106102898,0.031526264716736904,-0.00783295654757991,-0.01949683864816988,0.012996165862547558,0.014947103584339642,0.005979359237297872,-0.031080318795484528,-0.026490119810761475,-0.028534297088222423,0.018479197261687688,0.021308495493086964
-0.007415556855637613,0.00781520538500452,0.02591920062540344,-0.030771374376385503,0.01165740777300979,0.014152906533533668,-0.020946240307545327,-0.022526954335777505,0.01856350237470488,-0.02817360421043008,-0.01742845850157622,-0.01867270920883403,-0.01631722089631041,-0.011060347550584874,-0.002485734653563658,-0.016162672373718868
-0.022841615776315875,-0.028793045803604166,-0.00358944274658448,-0.03258197967559002,-2.88500596557259E-4,-0.021883757937278075,0.0067456054897833476,-0.02455493078586372,0.029292077809969036,-0.020036437001641046,-0.03440563407595008,-0.016831826131463657,0.030727722140900096,0.00194239558110898,-0.019588314621675935,0.01754526142126734
0.024551182333593734,-0.02065923283477928,-0.025543639582566856,0.01388412172432131,0.024312001147955592,0.00645159640956923,-0.017029219264240336,0.01871274858824718,0.03296755731538367,-0.006908339551598721,-0.012257310864480491,0.011272155998497055,-0.027957448284764062,0.001641728293454034,0.017357950963018842,-0.024508615091777007
-0.02491882768653279,0.01208303800024959,0.02959649110983517,0.03464930216561213,-0.0257281800979594,-0.012259721071142426,-0.015273674475661182,-0.018567201079089966,-0.03039976935099307,0.027413159298235734,0.014030306940508067,0.010429075903386223,-0.01608278588996654,0.02285410369419566,-0.012274132927950685,0.004788600777170436
-0.011698375047115763,0.020705463326949274,0.02758265928747343,-0.03568951456854506,0.01794262608181476,0.02141787211951071,0.03430761775258448,0.024394281227815354,-0.017657841036542894,0.009915072419456203,0.03460427929163444,0.023232914147867108,-0.01162065650421907,-0.03431432393152215,0.0012781653545307983,-0.010100832497527825
-0.028492576533598345,0.0046774500128585125,-0.02531879150420171,-0.01813869683229214,0.004705100158771791,0.014650764043374537,0.03240862122079635,0.017478171905544952,0.03210911895195781,0.011785370611168786,-0.025848434602550784,-0.006737405488598365,0.0018884347691793257,0.016992711025747113,-0.024579883366527437,0.01616604816650491
-0.026617182890501506,0.03067037642423169,0.008304356323427894,-0.00704647358546821,0.022028550470067396,0.013647358185690232,0.0213618220641182,-0.002695828097334034,-0.008437165437749004,0.02602349352857703,-8.52264709631248E-4,0.002665580875532314,-0.02153966995415431,0.027717405472796622,-0.007915221185101969,-0.018066105783205236
0.032437648206301725,-0.007122597170022862,-0.006990213431666559,-4.115332660288712E-4,-0.022944939729546636,0.032054467721966004,0.019819317272698048,-0.02065991720714138,0.020319461956167968,0.016569339786891443,0.031120925190086357,-0.03380437682513407,-0.030187688805262885,0.020193350272513066,0.030094057181601214,-0.02575138793107326
0.026804466697378057,0.03412600662517093,-8.3403094379704E-4,-0.01961209363075919,0.027698962576513483,0.015587096247861518,0.022707605724336916,-0.03401031262683856,-0.0029046594160783215,-0.004639272913427084,0.025941058244910165,-1.9272246610083782E-4,-0.009683376794848833,0.003540157255344137,-0.010896457707575795,-0.02869349557532492
0.029809520187747615,0.018330100636587868,0.02718299506541552,0.034420465759227914,-0.03465075232470813,-0.012544578889136695,-0.0032434612882377284,-0.00683315961727355,-0.0027083666464374975,1.4394273649601802E-4,0.00932145245409257,-0.020253848396636243,-0.009759417185906203,0.0014139704102186235,0.014032598530779004,-0.010999855466889988
-0.03488575945528358,-0.024902003077255618,0.025385588529178514,-0.0011832557675007377,0.01998808165137579,-0.01862650589979898,-0.007985324694650322,0.009182693888292695,-0.018670450912031962,-0.003418619480306348,-0.017421143768612604,-0.001052154312750346,0.0038805544596811417,0.013164276388183967,-0.012813992846541958,-0.03021852140354545
0.023857473709472568,0.0013959749007508779,-0.023743925595523272,0.030271347958925568,-0.014235880752636272,-0.007403860924425614,-0.02119430132972379,-0.012991970605649574,0.012665452348200226,0.02436960964835612,-0.030416004245347808,-0.03363538651969198,-0.005396955608666081,-0.016766737024789202,-0.010438447856704627,-0.009394222153142465
-0.023384567635464537,-0.0062742389680098196,-0.005929349109668008,0.016387742032729607,0.0037322632804449654,-0.03219013029993425,0.004374917250103104,0.025997265759550622,0.004072365018956074,-0.016072348585244787,-0.01749677960363957,-0.03445328385291824,-0.03185578468437348,0.013335755512614733,-8.583199001891487E-4,0.01360149386024797
0.03510447722042813,-0.03444931530619545,0.0049920746129950636,-0.023198395111292108,0.01070687902967657,-0.009374991243013418,0.003834862205559335,-0.002089701947614035,-0.02268400369463415,-0.019057205498460062,-0.02795382728691416,0.03320053751002827,-0.015212387898283844,0.004883535758865638,-0.029981925094685263,-0.02402636006702135
0.01632287772255077,0.01760330632535491,-0.01971870179558353,-0.01960748054649895,-0.03082988948071231,-0.0332718761455248,0.008139609323336426,-0.0024642070700089252,0.01056406606208564,-4.941097809076783E-5,0.017166220060167707,0.03386895364837526,-0.013189671505830884,0.02709603169453985,-0.013697217510912851,0.03410959351570783
0.031632726391772364,-0.02043151135332682,0.025500082225988957,0.019957154930813126,-0.008836402131482155,-0.005057081610833798,0.034197461438194285,0.007315812683548972,-0.02914041109095721,-0.013893291126457333,-0.019507222272806837,0.011538286441912085,-0.01995994876428865,0.03407905171774871,0.009156755730717496,0.02992151813846003
-0.029867331884780784,0.01134841161354469,-0.006002225727025325,-0.00713133062518518,-0.032985913221355016,0.027722406090419136,0.029276783633580633,-0.013940718472290312,0.012465988576713709,0.010118197095562102,-0.01564017162223131,-0.0013216885293758085,0.010036363552852527,0.020000086180464248,0.008070171944398317,-0.02272698918453226
-0.03330826054302246,0.01277219828589439,-0.011837660151836307,0.030711555307081362,-0.0011204976052498483,0.012431881133627469,-0.019228302125321988,-0.019219058948336674,0.014557874025384165,0.018600771138768096,0.01550066274764747,3.465816576043723E-4,-0.0348780515656686,-0.02354030982230232,0.02306982991442464,0.014506241599098135
-0.03179192829904667,0.0013318719925411657,-0.03538690466443864,0.005992175964039191,-0.018857925471738708,-0.019386389275211927,0.034375923002072956,0.01648241728322846,-0.003571575391008164,-0.0016875287506720321,-0.015123998507773555,0.026054943222732926,-0.020163283345525085,-0.01930826306402952,0.024853227304643115,-0.02020000491227114
-0.005413020574493936,0.004841676057396778,-0.028046338638605117,0.008322426026407967,0.03391037321528852,0.02846356733487959,0.02994750489427493,0.018818161405346985,0.03253878844207704,-0.014700920609691897,-0.002845853564452841,0.030274868880531325,0.0046319617177598,-0.01055766998558463,0.02384416470398467,0.0043513532524840845
0.02072906034770701,-9.925305262813988E-4,0.0114212614422773,-0.009763610015284481,-0.024085016760374722,-0.01505674115491696,-0.015777541280116315,-0.0036327016456585218,0.013915921477102265,0.03386737039193438,-0.018266380856876492,-0.03550458966289412,0.02785501150333705,-0.010662550019467865,7.730841272512515E-4,-0.018813478364656133
-0.02068081550725015,0.030993505227712173,-0.01585798144676136,0.03308564689165895,-0.011923401413839643,-0.0074744513488752135,-0.0027920388097087898,-0.0156900213284476,0.01204268282439415,0.003687276148266569,-0.006724778569751226,-0.016676261931826284,-0.011132807557908624,-0.018534897233264014,0.01599685197737711,-0.008203416013134322
0.03122926658099391,0.003709329887808109,-0.006130373679590809,-0.0064666023298047964,0.023711370434052408,-0.0051664878540830725,0.020359185703171523,-0.00810892000892572,-0.007442568748822962,-0.013894199875760793,-0.008608363128190633,-0.008022803687119256,0.009894582888751453,-0.00544078122137593,-0.004572793166607563,-0.01163199425235513
0.024463852857581334,0.029564542039899153,-0.0018552700191702756,-0.009041369903698564,-0.0207057835689144,-0.004891259931354024,-0.007465925076367848,0.011219707268132345,0.0029013544369091773,0.017999336574935063,-0.0332872241776247,0.01692335777983013,0.019854351913651716,-0.02837122278512795,-0.028416992590676537,-0.019511018675196928
-0.012276950614039508,-0.023347630619518348,0.035602145491854906,-0.010080195730282786,-0.027898939754820454,-4.238389405460813E-5,-0.030468472875616562,0.015273818812753887,0.0042456410686132345,0.009485348640478584,-0.01734465620870901,0.02269022173318773,-0.004932626057907397,-0.0014349934141976647,-0.0038067652242384023,0.008272038808575688
0.0326178748265339,0.007285786841747445,0.008229603218747751,-0.006702016880661257,-0.028061579156433668,-0.019205311652158972,-0.024310822350499195,-0.015084856406001306,-0.019691219371180003,0.018439890724072747,0.018002414072118382,-0.006447638166946601,-0.026580465161835258,0.03409366453026738,0.019846635737237592,0.031112006671574197
0.02583948790828073,0.007003187849589913,0.019304648665701737,-0.016680247837244658,-0.03208755906806904,0.00528606634196941,0.0276307199627967,-0.00999286339499315,0.00961126424209853,-0.0033629206265376674,0.011933315129164623,-0.010485825934820184,0.004981241204419222,-0.03246092821299001,0.03388102507941004,-0.018705243569214713
-0.005106740281629916,0.002609324985185381,0.015432896566330762,0.016993371545017677,-0.021236126070751996,-0.008400838582879558,-0.005098581007255146,-0.008917754476364972,-0.011787273327724373,-0.03125217305959566,0.027339604449003005,0.01872904064025506,-0.02614909587031921,-6.192761112535153E-4,-0.008506128463065483,0.029000255966599414
0.010925311126992979,-0.035646554372039674,0.024505917835215787,-0.006519483310639625,-0.03280997379216136,0.019140704144463165,-0.028187710644869246,-0.0032099889559830327,-0.009125464270745724,-0.003030039116226922,0.034845314361859975,-0.015594148345598705,-0.034194903283765794,0.016358413361014637,-0.03358184153995114,-0.00974973222731448
0.025509160150584527,0.03446318241013076,0.023887008092971354,-0.02937856582097684,-0.03235166464193979,-0.02716994009208841,0.018045434480949918,0.004630923232186619,0.030159608889653036,0.014539864500365776,0.026444618641226353,-0.01423616365887834,-0.03118144131498322,0.03168735363317683,-0.011649959032263204,0.009172985422924128
0.01257472862858812,0.022506247059290066,-0.028246116710025946,0.006082023131547577,0.02808599642583004,-0.02495883031160203,0.01599654626047288,-0.007981440707963632,-0.014767336339364303,0.00668284884139924,0.007907019116841434,-0.010227080097827905,-0.0175015602229135,0.026941682683142162,-0.0050343979804155885,-4.312748903985211E-4
-0.03424335771475018,-0.016861608829231718,0.013588062422732167,-0.00229704324322539,-0.008814420811593813,0.012650061399294768,0.029986524627011873,-0.0053809638402179255,-0.02031347954520128,-0.004565514040333309,0.022830581530397707,7.164656066556072E-4,0.022366977410264957,-0.025674357311303964,-0.0253963878584455,-0.006676534897041484
-0.017522798486186517,0.013051457128784333,-0.005953027113627749,0.027698953953372074,-0.03225570398572433,-0.02860145677913287,0.0020777061442186495,0.0061634499642167564,-0.012138657388565066,0.004810306580101106,0.03255592011770657,0.005103535668921064,-0.016660601624332978,-0.030150636371600915,0.03496451989438397,0.017188250076640592
0.028953403548590634,8.322642237031178E-4,-0.017525587839478256,-0.025692886865892828,0.013433645440868572,-0.027988257777086672,0.008282770072647404,-0.013357778939803493,-0.0012631690623441244,-0.020984735111127695,0.021853659224566377,0.005379322613988866,0.009738241032764591,-0.023279019950447025,0.03147965646898429,0.02639044676675023
-0.0170356504042271,0.03185669620435429,-0.030829281205632907,0.0027557155420961724,-0.017563453411911924,-0.005103100639213876,-0.02970702142651456,-0.004554152887361187,0.021355728637590075,0.03301580459765112,0.031518392107276125,-0.031357656239300896,-0.032935902022714826,-0.017688644846610282,0.033471206876035,0.03275688562850368
-0.0057130044032677255,-0.008832353969046962,0.027452518466631992,-0.029888825727841992,0.012071858532124412,-0.009795810224611005,0.03481491841181983,-0.034252574585730736,-8.315265123274851E-4,-0.011379612569869357,-0.004737721345170927,-0.009747568805958253,-0.022109295912627287,0.018707462727567195,-0.03248468135166676,-0.024286723764164686
-0.015612553544667809,-0.010652583639985176,0.016854004063940248,-6.28867223454746E-4,-0.026592327457376774,-0.017388505599267735,0.011409390791393942,0.012336217431707514,0.008505363837058522,0.017258521001828606,0.03218690360756031,0.03545880911578993,-0.009201858578470952,-0.02857289601873345,0.023937236461671937,0.03503464331889737
-0.011374983886586903,0.029611789479571493,0.020095322008931132,0.0012425553184016308,0.008460699534313568,0.010976355182341677,0.02171879515695206,-0.014427440238119007,-0.0027149021688240432,0.01985476495152482,-0.015081910712610804,0.01173193686621362,0.0036650552737129347,-0.02434755597204697,-0.017694168858226746,0.00269905657193472
-0.029847567198521566,-0.003369584099680842,-0.03448706793780682,0.005273066988383014,-0.007896977869346906,-0.023538400244316644,0.012485132325368797,-0.035319161986493784,-0.0354096951662808,-0.003982762946729071,-0.031249861504877834,0.0226400793059836,-0.011847356935621303,0.031415619248308255,-0.011281843269667205,0.00986610928985393
0.020900301434359614,0.031813151816754454,0.02460643245612751,0.012948240072050803,-0.007672092517987776,0.01785218192831481,-0.0165063235478141,0.016545336312041428,-0.003525093191183215,0.014263211591270905,0.003906998993423193,0.0021268192195743954,0.0025110002660916828,0.0017285731056698311,0.008452049315280555,-0.034537636719336975
0.004172101902462935,-0.004515621774076398,0.03265317216107283,-0.009199225784665959,-0.018856906109780358,-0.03254984273762516,-0.014116926346215704,-0.021777658061543397,-0.008788366281437927,0.004950915855509816,4.165920835356024E-4,0.0324299294082903,0.025754267550137565,-0.00909295424990195,0.003163993811393699,-0.0343834186429616
-0.01835413961523599,0.00817251908285082,-0.024870015805362848,0.032826347121841404,0.02830400667809578,-0.017025180771822943,-0.00488639975606419,0.027822374028608945,-0.0041813234308961805,0.025507149795790163,0.024271640051777794,-0.02643851902822501,-0.019468166145098664,0.035666738927172925,-0.006000293376935733,0.03540848592203627
0.013339276577996481,0.0016739058125610634,-0.019898462915015725,9.860615492183339E-4,-0.009553688997645263,0.03282243876871853,0.0028990384924721876,-0.022172880029898104,-0.023461539394353897,0.018144784396864982,-0.0039808520608137846,-0.03253783665321949,-0.0028122864271821757,0.014413931534781432,0.019387075198515687,0.029711180279639787
0.020852491550812827,-0.021703989972159124,-0.002720322075480168,0.0019587600468517277,0.0038105700662329003,0.032457660099578345,0.005539207698463625,0.03135814849445999,-0.03538182133179448,-0.021288760166237382,0.03184020537513499,0.02698241574798596,0.027601326273474155,0.01562680485733821,-0.03391524929101796,-0.00494983230005637
0.005951476972364589,-0.007154054537891998,-0.016845497864770107,0.0024394554632416465,0.0162559668271091,0.0021932301619527056,-0.03252915121972553,-0.025716916486529517,-0.002512445776672853,-0.03200761486730566,-0.0010152676515929882,-0.010100170514034001,0.001366058505237397,3.9958708416901884E-4,-0.01074161832870155,0.031246823025897374
-0.003489806204549674,-0.020548690096497693,0.021331684742549983,0.01319932311254892,-0.013093270998599058,-0.03173206410640402,0.02644556061153413,-0.030059248236007717,0.035281070320719476,0.03420259585564808,-0.00227775317605846,-0.030333839705335666,-0.032574282371665576,0.006984614402357904,0.02058955206468077,0.026135314937954277
0.02062707249871034,-0.0075685410374461,-0.02746321535605964,-0.015770304820999097,-0.005411760655718016,-0.03127273860602594,0.022859452589409975,0.0159906871785237,-0.0022592128126645433,0.0014637350136233879,0.031107664237436536,-0.02533907926297572,-0.005320650485818455,0.0025218358637194363,0.028907169546721928,-0.01704432635557104
-0.003397194648559518,0.014298130573930742,0.027040234045242847,-3.000255613995681E-4,-0.030256240583241046,-0.021089299122558157,-0.0302545868257883,0.02760874076413153,0.011647157336485359,-0.03022506806970822,0.013911892113689747,-0.00886744251457116,-0.002313509952258444,-0.01879009820828872,-0.016273558937044335,0.014729780663418283
0.03443417329012001,0.03189332384768298,0.022311070443351365,0.032676323956887354,-0.006223521128258216,-0.017944094936941133,0.004246477020180155,-0.004134145198942674,-0.03168509840203756,-0.03557606501784671,-0.022577847938429128,0.033195074060650226,0.010540746875331485,-0.014306135912852139,-0.02276625720030994,-0.0078056009055179135
0.02698738235501795,-0.028115281428970428,-0.01758381912708271,-0.014062608123326579,3.072201822857043E-4,-0.033542617494741335,0.019963629325188324,0.0049420833409525855,0.03169797517229697,-0.0018945953590338432,0.018163990329430273,0.01311646866824473,-0.022612308859160324,0.035545980212963346,-0.010435871046879572,-0.025525518054599683
-0.03333173932555217,0.01824095618579038,-0.013942066766562764,0.007863019348115965,0.014939523440666055,-0.02343177462000998,-0.031116538798952043,0.027480333514982608,-0.025283432195911375,0.01697309907103029,0.010254503924102258,0.023060453117210417,0.007664476326980731,0.0037854757414240367,0.030182060516835862,-0.033626564759449945
-0.001589172053826124,0.01570559513378355,0.004881438433323233,-0.010683172383054811,-0.031598630773363334,0.023361348841635654,0.009323677836342546,0.016242734845743394,0.006048751616501959,0.02853792865290071,0.030964821397686193,-0.002101188734158925,-9.501228543791901E-4,0.01860231790235882,-0.0025565365601202122,-0.014646090674004082
-0.023286517149376833,0.034962240444784146,-0.02871498477130083,-0.02000158913779564,-0.01728026909801104,0.020818629520399798,0.012273213745447029,0.03259983762151328,-0.0329090980598025,0.023950234986185343,-0.0268501494913403,-0.030722113342175773,-0.030923387352886997,-0.020396035543880482,0.02631084837868352,-0.03296438952615916
-0.011733462705699131,0.02998094344834218,0.013146030255501068,-0.0014421347792482123,-0.01708480157337709,-0.014346114071027649,0.022362381508253336,-0.0019371537047979809,0.013565407232409343,0.01613756261679633,0.018384052231998224,0.014961877442748538,-0.011837702470239742,-0.002608875477266716,-0.00873636939384367,0.013411428229944344
-0.01137823088815209,-0.027786285149968858,0.02953268415907398,0.0064316348263746895,0.02628922818182794,0.011915607598508862,0.03053900023883084,0.006893886207274998,0.0016084020615041508,-0.007072118151531755,0.028841409399693527,-0.01408851534167238,0.009679570856296976,0.015586212285348296,-0.0067849690707358044,-0.0014656674387171845
-0.030669845935349205,-0.01645156810591385,0.003386454371141427,-0.017158603144431413,0.011736783199884818,0.01540764347142047,-0.009556186660382753,0.005598416405464782,0.019917025827517698,-0.006249166158213422,-0.005584109922065809,0.026546129097211005,0.033607758928566114,0.019632433620188516,0.024885160253132796,-0.03186952330680639
-0.016936549570943815,-0.01541510999776436,0.0037387571138250628,-0.035692637347771235,0.021600022837723443,-0.023129255164281513,-0.02150341481832538,0.024177992810980563,0.0016860418367255353,0.005064626392346665,-0.01809022644828729,-0.0013749613093410468,0.020203346955840917,-0.035665130813279496,1.0577731138166485E-4,-0.010335018151273925
-0.008454484010210497,-0.018016877299604453,0.01342289903354537,-0.026539393815758143,0.029796112280315784,-0.0024400200734409835,0.0058650755022135875,0.017738414427155222,-0.022394141633498364,-0.029703067882891055,-0.01841917110353135,0.029958493092061167,0.012853665611057337,0.019692248348373076,-0.013984490824475431,0.03161199078545526
0.02506833693964993,0.007651784925651821,0.031778608076087275,0.02818230688028041,-0.0272046503399833,-0.004668913240913834,0.026584773305473153,0.015570666806586059,0.033352614341485814,-0.03518019937840379,0.0061996521278585015,-0.025130299610200506,0.031173995582097214,-0.02771007530863362,-0.004865561192976653,0.002069156245600265
0.01046859647556908,0.010323996197008183,0.008105957848869937,0.0029659927906446545,0.019718350673227802,0.018357526429703605,0.01826820107197826,0.02921642420427109,0.0035232829844411076,-0.03181061734314319,0.0346113709541679,-0.0341080026060293,0.005229537891385867,0.013238136505888447,-0.02468084926931105,-0.015126206288181208
0.030565860369761694,-0.016033580484814625,-0.01315372822768486,0.013519888395172507,0.02989805404229759,0.008159904326374687,-0.003024166683591241,-0.010102533278525259,0.03225306383582864,0.01650404252107534,0.005094019045450447,0.022323024118884496,0.012418711100024807,0.02212358911839961,0.008834378083245532,-0.02500345148886967
-0.03175963859746819,-0.024547365770178162,0.027622752957917898,0.002844403830403394,0.0011406188106253892,0.01862781498172613,0.006085810923040211,-5.167970012330894E-4,0.005508521404344227,0.00991042221706609,-0.020906181350516327,0.017597764973934164,-0.035045574622368375,-0.03198292169938651,0.034038857172432685,0.023007716027747885
0.007290064675605841,0.01384346994316539,-0.030062805254921,0.0081178967908214,0.012991534992685856,-0.013524896060233039,0.030972668952479965,-7.885621223477496E-4,0.03457993978292251,0.012503583334825735,0.020618672275859368,0.0021533815856573657,-0.004740328897907167,-0.005425992957869934,0.008547722163178208,-0.016930178609982874
0.023704482826475387,-0.01445909215374637,0.02043015957536031,-7.704185153838763E-4,0.02249482472319761,0.004605963169439974,-9.407281859606167E-4,0.026403230319922442,-0.035012718519657565,-0.016894937230481657,-0.020121885461876952,-0.03554547919802869,-0.007627750241102706,-0.032406218285487974,-6.841967193632614E-5,0.01831523964324798
0.02979054069926948,-0.001521081109351001,-0.02010596136854063,0.016527255073236553,2.0955308383637655E-4,0.034374295273272876,-0.022114939295881857,0.02645914927167748,0.013172828534502933,0.023733274326097037,0.011106547304285792,0.02836434048033641,-0.012354034310075653,-4.0070465186088644E-4,0.010863800749587954,-0.0077686787562306625
0.022177528705406534,0.024723079725677777,0.019169201108531334,8.126756823922249E-5,-0.003967347298463701,-0.001991430967739481,0.028314872602007116,-0.0034349237927669557,-0.011344386018617068,-0.01173295857921658,0.02448101173397642,0.020770071330591562,0.026309933068311878,-0.029637142311990626,-0.00883907847213208,-0.009009850365708012
0.007900584498010739,-0.031124622753220903,0.03375687700653443,-0.00771321895507638,0.0063795039486268384,0.006333104410939545,0.00100092226130203,-0.008498969370000942,0.01225046938518972,-0.02240711209519016,0.023477604319890273,-0.006305626618659219,-0.0052303711643140495,5.556580479546894E-4,0.007166017669762527,0.014185500481092746
0.012221018060268013,-0.005064677943013154,-0.02627042333644338,-0.026083913409734483,-0.01331390469640377,0.03097952767212983,-0.009598611059468933,-0.02779022490370854,-0.023837979441366546,-0.011977634632345493,0.02135363090789634,-8.385409339666666E-4,0.0058762786596131406,-0.032629310318268503,0.024628460350936805,-0.0030631512435746813
0.02333385645361448,0.01719687799121951,-0.01502078583846013,0.0036167998994181966,-0.012481319257673953,0.0257810202049312,0.026800255672885104,0.018988723366099546,-0.031189561146013765,-0.001596488669434605,0.014443713127758773,-0.005806999865375653,0.015165346320911419,-0.029245918337681902,0.02143647422549288,0.0237926047002322
0.02261916466352147,0.003279163289315934,-0.03222694656453795,-0.027974677667306887,0.029868658079300475,0.005937354859578213,-0.021038600767638638,-0.010117912387949426,-0.005788074080766037,0.008396421839973342,0.026216633170390406,-0.028852417067365355,0.023224474098694922,-0.0238487202945628,0.010712200057784865,0.014074378581711608
0.021454351455322034,0.023810908660693034,-0.026332866287149377,-0.011245723261582574,0.007938938457156548,0.028517240040680708,-0.017764447103589123,0.0019357939894884685,-0.0031750777008177564,0.020909189021711926,-0.011137703285624481,0.02674903274566791,6.511924994874393E-4,0.01636745990916718,0.02239986683773016,-0.00906726704039688
-0.003055444094062436,-0.005076557057757582,0.0012438439752400637,-0.002446565140744851,0.031014221917637794,0.004037625339883721,-0.029864502113586378,0.03488256689583978,-0.032680870936026056,-0.033626845181498284,-0.03304954927735796,-0.015486948035752797,0.018386919434755858,0.023690979275944164,0.03342256767232504,-0.028652122477647264
-8.191237547272093E-4,-0.016816391145830896,0.02737222214393338,0.0028584934338797482,-0.020991386301953692,-0.008950822025227758,-0.023785727104827663,0.03153073169722198,0.01051342225839836,0.012812398265041013,0.022372041666129334,0.015895275540180435,-0.008934267903866581,-0.0012579004651599793,0.011039000263757842,-0.005529837567141309
0.029613432981295013,0.008802379170073392,-0.034899139123775305,0.031055322557612078,-0.025713983721770955,0.027702689522060953,0.01145887962535986,0.011696288804850949,5.956471920789477E-4,0.020524285825341708,-0.014964317729724872,-0.0020635588920029577,0.030588579455787038,-0.023082335947594082,-0.024338195840939228,-0.008085438224716461
0.007863772037975884,0.019614099802726513,-0.02321332745189023,-0.020793729832533324,0.019178381453594143,0.0036269340548739024,-0.020474648403910632,3.4995641331640043E-4,-0.005171669642915464,0.018987665054432598,0.01263942069041403,-0.011605719949196854,0.010487016665067482,-0.018371995636503147,-0.020391958899936898,0.02480341874699553
-0.010471680781006645,-0.012067963514038698,-0.0254164920475716,-3.2241785980063886E-4,0.009316936605335752,-0.0328729439492435,-0.032303834886298836,-0.008061672189922795,-0.020658124554920575,0.025103139915444626,0.005237878773710798,-0.008966828211519354,0.024906064518191065,-0.01263032906267406,-0.01212489309025884,-0.01667529881448514
-0.014078931476840653,-0.02829656305176409,-0.009619278119436019,-0.030848132411740746,0.03268970495240481,0.0029778645641080764,-0.03302700032322379,0.035252277547397196,0.028343787989420013,0.014834271310127316,-0.010411344984874702,-0.021519515980107776,-0.008320240532682315,-0.0029125104239641902,0.02704158986849242,0.014389390265713925
0.010799194524043612,0.031796415457952545,0.03333569326465595,-0.021272034166140597,-0.02265130056243319,0.0065578581104141845,0.00681810272955586,0.02336705186691817,0.02993100227297807,-0.030655179937751232,8.12079435478022E-4,0.008552369921700095,-0.01782471062159444,0.01417124434400209,-0.0035355880932324557,0.03426897133401145
-0.0012921866541495963,-0.0028405376028289367,-0.026384680958867295,-0.011442013823069544,0.013850378152682849,-0.03380992691676937,0.023145314202978245,-0.007446153180675381,0.020883416880183844,-0.030279341029965934,-0.004849586347034331,0.006680194699083042,-0.006659705946910715,-0.01731343206871478,-0.03147798161457396,0.02093127141471473
-0.022295362473779556,0.014694033924752152,-0.011757400184150422,-0.034302582121338944,-0.013097836456620864,0.03125198821912921,-0.02168271219920873,0.013064269649991266,0.021216136955989923,-0.007812354305658478,-0.021835107173322814,0.021684655306871872,0.008971301953271296,-0.020628138100962985,0.004832186266734227,-0.0021613369728040177
0.028800188932770185,-0.009963503803105948,-0.01835284598571213,-0.022191492892573716,0.029004027033321597,0.009337632545378012,-0.029658639748378495,-5.469372052670993E-4,0.020655332386655963,0.022540171494978473,-0.03157483663610406,-0.006615904584445664,-0.005896287494997612,0.013661941408468319,0.011309142691619443,-0.019895418382521162
-0.030531581765960165,0.013937373576394858,0.015070663678987135,-0.022689222261636104,-0.02426102868686961,0.005522205104445663,0.03479934497235947,0.0313790362031795,0.021262372084367598,2.7169426574562283E-4,-0.014015538407713007,-0.023678350493400162,0.027302072191790594,-0.034818152495302214,0.022468634240779016,0.004671724853758809
-0.006822226159858329,-0.005504239991300588,-0.021627498152058784,-0.013553106008905691,0.031243826681750117,0.011816709990724789,-0.007708431121180009,0.019422364869392604,0.0035799006172810496,-0.01598802709356785,-0.035352284565315646,-0.008592134247524554,-0.02473512803255557,-0.019983873608626204,0.01937422578466596,0.0025965793501088394
-0.017915954642423737,0.023592919284617708,0.006085501460557849,-0.028270486307793455,-0.007046656094053971,0.011632903602491473,-0.006956083306367877,-0.009833703844497714,0.0174385753204849,0.024468780748499064,0.0039423746320513126,-0.008988595336223211,-0.008096987890976317,0.029398179706227004,-0.008732973850539068,-0.0281168640221232
-0.029560294523792954,-0.03168684454724018,-0.0025113055740584866,0.03516420505115478,-0.02937324747671983,-0.02810875388261196,-0.013324453738510877,-0.025776662967223758,0.031640584810603056,0.0016729314846758367,0.0017502881000634532,-0.017354214433288613,-0.020647012638465245,-0.017044862321321692,-0.02217225413481003,-0.011071177318791346
0.0065304329289818455,-0.019516799924461908,0.03347373259717748,-0.010070608115474038,-0.029711775742879625,-0.012585462229422646,0.006544154781262648,0.017443553771541935,-0.011301437315412548,-0.011750975302677324,0.014377922313985186,0.01160915703064281,-0.02291650329005812,0.03420746675629202,0.026819443965020257,-0.027029911347627437
-0.003019630596536989,0.025607009791135164,0.02997426107275271,0.0196126748328462,-0.016831646810646732,0.03353619655263983,0.03385264272605605,-0.02307439339285537,0.013723789953478678,-0.03195294273843749,-0.01150025799106889,0.007162566425490964,0.008858591464268387,0.01046441194588249,0.022427715972316235,-0.01716179844625414
0.03507866811269614,-0.007859953364536716,0.01850994291348254,0.011351509340580615,0.004112264038048215,-0.02207144415558136,-0.0349904097467627,0.030986493715328772,0.026387135092285643,0.033732485243354676,-0.0029900789122564303,0.01844943815898327,0.006961320433582122,0.022193336839262473,0.02813592702026084,-0.021404297555361787
0.0024598276073631922,-0.02199010626205713,0.034707362607013056,0.005768793337154389,0.01624519490784921,0.027086890097483635,-0.012896963957052174,0.020648085058449756,0.001611093122206024,-0.006177436635405969,-0.010359739923684077,0.03128854377192104,-0.0062166071811991346,0.012199953668201494,0.011080494247754057,-0.013059490434235939
0.015158000473465646,-0.03203116744377641,0.017837170014539445,-8.818957886801843E-4,-0.030479801282201756,0.032323837942400596,-0.01962713177652043,-0.011815466932590692,-0.0030058409058039137,-0.002818777633932991,-0.02588913147448342,0.006072029323765847,0.011173565263266988,0.030200465860308653,5.490806062085074E-4,0.019985456073360046
-0.02956183694502582,-0.02933668675215889,-0.011177029542612953,-0.035040906078801295,0.0059069575430714324,0.03265788646506726,-0.013704343471397706,-0.03150694438402227,0.007470614818628367,-0.03144203924001242,-0.023230556129926035,-0.0034035012035289955,0.035194828815168486,-0.008078233226460112,-0.03495132664059025,-0.02851986950247539
-0.029775532661406288,0.012048106838970056,6.938169003316286E-5,-0.033793574684243856,0.015385718962570544,0.021826513412462896,-0.012694755185144988,0.015606574779860757,0.0069639354693870545,-0.034010811067448646,0.03311758289667936,-0.004584308843975569,0.027202190625972997,-0.01156051116407742,0.02920241038438287,7.640297507545066E-4
0.0212879568575262,0.014973001637154176,0.01577135033318868,-0.022658338338208593,0.004737132640714993,-0.02657310399791709,0.02943130752391064,-0.005026161314937907,-0.03329332543263833,0.035164542571223076,-0.0276006770689345,-0.007266811971085332,-0.003567803923317188,-0.018171459316062247,-0.033073473838488424,0.020048769490281303
-0.026151189277604417,-0.028593387942152094,0.030467771743954083,-0.004916067772838768,-0.03171545121582625,-0.015624396276047368,-0.015849094265710795,-0.03181529995649224,0.03303692825870563,-0.00672636986151133,0.024203705607088136,-0.011296784004137774,-0.02447406560523309,0.03235098951631918,0.03475157714782312,-0.029356209755856795
-2.594431353954499E-4,-0.018874514481908078,-0.03235672258924008,-0.016715769905006648,0.023620257684465754,0.019793859020738658,-0.021096281002616575,-0.03516991849162754,-0.009088603626276337,0.024333746612257567,0.006782722190294688,-0.030040295368691128,-0.0161744827172737,0.017700152212094443,-0.02794765800950478,-0.025146794980552938
-0.0064644327040220655,0.024257049533222795,0.020292512972623418,-0.008782376362476283,0.024917705448014207,-0.0281266895459517,0.015457115636243975,-0.00996002954609208,-0.032695173104791746,0.028759282381916607,0.03300870411813274,-0.03361034403225363,0.012797980715222652,0.023443173975860473,3.2056954000853066E-4,0.03558228394155119
