784-69-10
0.022458841954948877,-0.058155418697324636,0.05879558044366892,0.09492295815638185,-0.0985115884135791,0.08628151258075104,0.08990254031523598,0.03021078609553718,0.05311298380816332,-9.839670575165077E-4,-0.08618249207164692,-0.023105344983211526,0.09830571905513724,-0.04417004531248519,0.09954670853660613,0.046851066540494396,0.03711802325038155,-0.09898596107611704,-0.014630396091706771,-0.07994692529938084,-0.07230139998612183,0.028068402677851545,0.0917351724206383,0.0469039273476419,-0.04971755145621162,0.04745800737738598,0.058011621179055894,-0.098554544573619,0.016981938155780238,-0.06632384944186172,-0.0347846208522951,-0.03028720702098968,-0.02325144027998527,-0.05696097216367209,0.01602390252422932,-0.021092376140421434,0.032282283209398466,-0.09733977372711561,-0.02175553792115678,0.08668232546446683,0.07620941197602255,0.07665807490246251,-0.0651207342160905,0.06989139011051312,0.08114460323295794,0.01230028848444295,-0.04624087579191465,-0.00811869109420331,-0.012823961033870096,-0.044672971743713236,0.028358507056630677,0.09244720395338321,0.09945926320220741,-0.029625933061013715,0.025874162582396693,-0.07826084481724326,0.03830785615809712,0.014942021272298489,-0.08690066386929325,0.030645488502592882,-0.028698084480128297,-0.07526576149133582,0.015940643878707528,0.016788819413514247,-0.023223400195227867,-0.0759565316115588,-0.039645324101975105,-0.09474670741731983,0.06678139742897712
0.01750810330256873,-0.08816100543561932,-0.04305717394250204,0.05307318733373531,-0.0492660246783627,-0.07493948504034348,0.01879456541181075,0.048892769515350404,-0.09735728601695115,0.05365771775227421,-0.06625369162256174,0.09041477425349598,-0.0542781020878457,-0.08903653023907993,-0.09397165712653709,-0.0600902792304556,-0.033739071617543845,-0.05543736726668041,-0.07974598620342269,-0.05704840012857191,0.0908546127291833,-0.020990506174452167,0.05980261135182685,0.036183389025335744,-0.048035567665003144,-0.0735528356690267,-0.021414694603530876,0.09438617545248604,0.027108027497142556,-0.02972298803067462,-0.07481594325249204,-0.06752274458774606,-0.05611552943452487,-0.08739691699697272,-0.007122513034012901,-0.03431109133677206,-0.09951357368213493,-0.03525763748401814,-0.07815112067611624,-0.09717052248867722,0.03507506726960735,-0.044037382626021526,0.08968299588313414,-0.08030091368485424,-0.022022254575942354,0.07138902357161034,-0.06443236848204406,0.05203402629290896,0.09637761611855122,0.004813364714162896,0.06815929148072239,-0.08276010240297592,0.06981466888950258,-0.001426089068666439,-0.026824983101519193,0.038673252880064235,0.045063352226329734,-0.009930635920973957,-0.031201899548096712,0.05748436254493061,-0.0068740914876173065,-0.05325828409293587,0.08754313701355723,-0.08090953635745111,0.0162317167585887,-0.08954352576353562,0.03753749761214281,-0.06611130976658691,0.0674589968384611
0.04860895020544079,-0.07860645507907585,0.06185093798603572,0.09591910413852617,-0.03891261403919191,0.07678062672445149,0.04980168140997354,-0.08544280745000568,-0.04821532303491394,-0.03688000074785401,-0.02655763639579116,-0.053959056817685605,0.08652635272499706,0.07116307136521594,-0.06069305562255163,-0.095147860700988,0.005911268785279672,0.02447126946342007,-0.06845346068647842,0.09936869779653543,-0.02489636858406223,0.03928070122118091,-0.016286939715104504,-0.05192095969133981,-0.06080189924413231,-0.03909970304572841,-0.0690027191049981,0.09324220982396167,0.05439216482550563,0.06821274468585167,-0.01624773792121481,0.00548028449177515,-0.08989156865388728,-0.08978653957764318,-0.005024295397249731,0.038222584286411204,0.05338133362708056,0.024187287770879126,0.020978196859198397,0.06298970535331691,-0.06603059577720774,0.025187722458215323,0.043904910827248844,-0.06892500726905981,0.02948966500413483,0.006360645853223754,-0.031065074840720366,0.0031720914435652697,0.00629566194259179,-0.0671607681132865,0.02848869451458294,0.09319877050215655,0.041062941572089534,-0.09336978474017349,0.052726906676233115,-0.09110790786910566,0.08025018707948306,-0.016682368677305687,0.05461144399576401,-0.06459810935732485,0.07240015180565074,-0.050737313775793894,-0.040697511161799316,-0.01509721967219517,0.04698714239728649,0.07411797368963674,0.005914800132285555,0.05989131266880138,-0.019668561691544323
0.032196886794114254,-0.014415045255954578,-0.07978901013143996,-0.09333574626996943,-0.09532464663095108,0.0804912250048177,0.0318538633376676,-0.06908218701810993,0.043927646317418884,-0.08509203358477474,-0.05241766029789446,0.03688112963369519,-0.04046092876359009,0.006570458598246676,-0.08853770076024797,-0.061643960380407384,-0.048937560088656774,-0.019939725932080904,0.03908789685575273,-0.030237836945015542,0.01456361883683295,0.023147803965682362,-0.022735069703623628,0.08046404959736558,-0.01962040926603996,-0.07183755117526665,-6.651498168403353E-4,-0.09989391880027142,0.023882369928656888,-0.014379909077280997,-0.06905103168473331,-0.03536440084355588,0.06358402231096866,-0.0404704439728048,0.0960462218721608,-0.02316175172260318,-0.00980359998336107,-0.05006797071345355,-0.03518731732001261,0.027536118642134733,0.06087749233777506,0.06933879970056095,0.01726320856741212,0.04054319840334464,0.01501666279291454,0.03596458964682153,-0.039400844934650084,0.087853243620166,0.06714509528981336,-0.06596721667695052,-0.03475126384868858,0.02665448132769524,0.04661812853034902,0.038047552581107646,-0.043789374622850624,-0.08282271106244143,0.03329918356532319,-0.028336875828278776,-0.09352372102676024,-0.024218237728028516,-0.06163538112907381,-0.0761699079044964,0.09759813675492202,-0.06673229471312958,0.06137004208112984,-0.038125229861596166,0.09737290184133426,-0.025093547131452176,-0.005207066232106469
0.06807426990430554,0.09587798414818524,-0.03253710600104556,-0.028555737512529045,-0.09837953036524374,0.06602460680457775,0.0840592824653334,0.023835897933153286,0.07856815131341632,-0.07906366878932734,0.03002992958359116,-0.021626829984466592,-0.07719421874612419,-0.07808272765888757,-0.031096292561840905,0.08827710983946269,-0.01755750103190387,-0.0046982643071527,0.07999205844563262,-0.018914580395407055,-0.07767017577974095,0.07340180154067213,0.06214683004101254,-0.09897018348478037,0.04339190589334749,0.02499230449271983,-0.04355880723577459,-0.05644381359186275,-0.09539205515381802,0.02393248668193053,0.04794673454846271,-0.054230023835913355,0.0660943209778993,0.06637706813649757,0.015661777102141936,-0.049547549957024886,0.07422962050139612,-0.04229770286277506,0.06196548628590756,0.08051992195661234,-0.09175263909796097,-0.07164856151202664,-0.03348792466132225,0.004819409138136763,0.00929209925713717,0.05794481019861067,-0.033915663066501206,0.00794593080739256,-0.05987829514502041,-0.04607655223688778,-0.07918933918709126,-0.04546184892988836,0.00894335454417175,-0.048728056405804736,0.013017598702918853,-0.08857100196845547,0.09956017815014773,-0.05268620773266633,0.09024303419377294,-0.0651645876695448,-0.05192964990382605,0.018331966016269824,0.012882042828908105,0.0904906696163198,-0.002711467494349404,0.03023885547615318,-0.08232623013201608,0.05896118997945565,0.07540481126111864
0.008719740370209103,-0.025874723592312174,-0.036873385096760844,-0.017707513805494665,-0.01164801044024863,-0.028795583370883657,0.08184580866270616,0.06037547159167825,0.03415277734875591,0.011438862763526791,-0.09273059742880663,-0.05642972314892441,0.0643624236771971,0.013414379456189646,0.04906746396654191,0.05056022394986781,-0.06023394625403749,-0.03716234932375717,0.08734463584735261,0.08307502177615844,0.017229527866161498,-0.03805795421786862,-0.032808653733602894,-0.09239161010560225,0.06181795978111462,-0.027207785033590545,0.07717779417453624,-0.08824107274679907,0.09681697886600169,-0.06641790308309,-0.022557769628117175,-0.002034579609654516,0.0733264827188144,0.060368079418451126,-0.0804431886783334,0.08907904731875613,0.0024413537245673994,-0.05417979373649067,-0.08093140874517396,0.02383311987324377,0.06291779999261135,-0.04352876239943853,0.012135130796628008,0.05615521003161736,-0.02638753527550375,0.06080262045544857,0.09865949312341163,-0.05645204696463564,0.041060460695534456,0.07204342230586999,-0.0891810504563929,0.027560563638125396,0.08895705443848845,-0.0819681989300867,-0.07389624746958703,0.03592996830539258,-0.014682358079264282,-0.034312351430491383,-0.04130311945575469,0.09069469264529109,0.059576346407794384,0.010861190957365235,0.036707747794900325,-0.07564052634512308,0.00537792002810375,0.06349375969479701,-0.08081110260608736,0.032178523427692785,0.013131067721487671
0.06138220807909331,-0.03776140211619261,-0.03688815673052974,-0.034466020943043546,-0.07520921267671646,-0.03965151831812992,0.026854414579638053,-0.042006496241483185,0.04172154301002645,-0.07889776746654092,0.0640212349614647,-0.013408779886446481,-0.016687969274118614,-0.048750011766355655,-0.06341211277190847,-0.02673746655629268,0.04621771015858958,0.0048818149754284584,0.07575327295399378,0.09344311609774503,0.09241495819663176,0.05104370087871035,-0.014919230260408783,0.06665457763718632,-0.04972139648740353,0.0389544869054225,0.015681450145559134,0.009547094933266706,8.655989829892408E-4,0.03833520925610462,0.08345084155323082,-0.025001536844161315,0.021075290937518837,0.020749872553139398,-0.0817734006531071,-0.02638502163120829,0.04671360881658887,0.03911577596386481,0.09128550433162769,-0.028921310179286147,-0.04034690116341795,0.08559950723057805,0.07670751328505807,0.08906138361688909,-0.06368398145423776,0.09206762992112957,-0.03029602312687618,0.011384796670925845,0.014277987502078399,0.0425514711104554,-0.08386169297069955,-0.09643712669868942,-0.07711709025638497,0.0990342077768609,0.048662486858818854,0.06456198950179443,0.04043156766257369,0.09730351496365586,0.014304249188465928,0.08528658429329758,-0.08693895828518582,-0.054415469012249654,-0.016254722642536162,0.018698530475049283,-0.0749106084718211,0.047221495628708865,0.013519674690885178,-0.08905040153997511,-0.024993730917410945
-0.051887001587924676,-0.09851611274317867,-0.03600916361075493,-0.04123591194623055,-0.0790460114146978,0.06569032451977369,0.06124952283022092,-0.09424817547409876,0.05393456188091025,0.03291991474565645,0.0785378681788591,0.044989214454611154,-0.06453838893390601,-0.0429828368258369,0.09644518611549113,0.07545205032581606,0.07203217482938892,-0.07586666970899952,0.08917697901545968,0.06155691966514243,0.027391895025856344,0.021952240491499547,-0.01934090843072249,0.009880381646658304,0.0406506948245082,0.024821027425659614,0.07889596255866788,0.06499207985792393,-0.06488728896389798,0.056553205562669934,0.0667835663484466,0.0027786971367436547,-0.0037763137386021828,0.08655302655338173,-0.028810462427967767,0.021267303318337344,0.06840403952256813,-0.019206740190676072,0.05201047788370142,4.1789277111792256E-4,-0.08435007464745953,-0.021411020142161702,0.03564762177339553,-0.09161174334709742,0.029396300353483923,-0.08194090587410104,0.09016794058359254,-0.055836532888509476,0.08099145565720106,-0.04181740002795762,0.06361769314226781,-0.09045753934234278,0.08505056624383964,-0.04921406934802528,-0.0976848236480185,-0.05250544881145991,-0.07192678387122847,0.07786506403134938,-0.06510558279280834,-0.023734763615048587,-0.019215317820585803,-0.018356425730746875,-0.07280378554872634,0.0446443528660892,0.0566420105312859,0.01722208172972292,0.09408672313381236,-0.045760034890174155,0.010191946660294632
-0.007505041147633312,0.02323375589706156,-0.05305747748873449,-0.07160484389454375,-0.06881073364607578,0.07899133257531127,0.08730528097302945,0.0992713609863056,-0.023520420423724556,-0.05883320004555481,0.04797041397966634,-0.08333158807708324,0.02361237842263686,0.09796829845986374,0.09275119520963032,-0.05691627985129042,-0.09942637078138752,-0.033870145931720774,-0.020754566214676556,-0.027710153761894188,-0.029961163769846075,0.019256591250040714,0.09704221733244386,0.004669246977579783,0.05683785371712219,-0.06563194017727592,-0.011483457792608842,0.07469380291611874,0.07960910488878373,-0.03393392143208794,-0.07181955667378469,0.09358775537344008,0.09059706811967339,0.06064258388415114,0.07614466491057126,0.048196784619263466,-0.08983759370280604,0.05820580589712057,0.07016525719714956,0.056413837443055004,-0.018761864715803503,-0.053767406164850456,-0.0061238341203291025,-0.015861607819205384,0.029505744008557266,-0.072383894769738,-0.06166878773596303,-0.09736010485040868,-0.03675802402431612,0.05034212024280424,0.07333633522230593,-0.013478690046636974,0.05943200015181868,0.05369095363795934,-0.018996869821814033,-0.07143360971117921,-0.00703390630759608,-0.07996413717086402,0.04261035816820907,0.01499232251018938,0.05929075535681591,-0.026727547897910306,0.051972431453489204,0.03084042397781156,-0.08987413713038749,0.03462601699772638,0.03697095436979822,0.04524717598233374,-0.07236697202866132
0.05506078202630421,-0.06641131415364039,0.014976500530136147,0.022005543115382983,-0.014593686760561303,0.08117445720910196,0.07164556560754573,0.04363656426236365,0.05532365392942526,0.08720989992879288,0.01027036324871744,0.031001291583156454,0.003967135259280205,0.01262551023812726,-0.04389872510427198,-0.061089027351267824,-0.045771724491452,0.05698770372794301,0.05942084551665769,0.013337351622886365,-0.06042825861205079,-0.09330872127138282,-0.07577934372810254,0.09314037699436009,0.09568321514655559,0.010400295445577079,-0.05014216864213068,-0.0625721068774275,-0.048375145768419905,0.06541615708516318,0.06676126847190023,0.009596166371295789,-0.018260273823377693,-0.09718351508506964,-0.03413411278449177,-0.012248372693975357,0.028766400198201536,-0.023546033396902977,0.0030452585998171494,0.03248269573764265,-0.07956525425987876,0.021836795160254135,-0.007112997667783422,-0.006135708443319163,0.05146188778939431,0.07860955919373686,-0.052740006462736404,-0.03282890323406318,0.003945734293039085,-0.02490480618024718,0.007434624982128241,-0.07423645161235558,0.0420401514679139,0.0782752974282481,0.051118569981948164,0.051005226505267454,0.052665224765259866,-0.0785968540717915,0.014985842224201365,-0.09340627327609428,-0.07403385675903057,-0.009002026368237478,-0.0930529299914314,-0.07269292356145643,-0.037121815988700055,0.03321452278621592,-0.009829287999789299,0.08827518189442457,-0.0514639273151482
-0.07993615720280758,0.01520869103860871,0.016530128770425548,-0.04392046661010993,0.03552180328552654,0.062380264507119754,-0.04437727316300264,0.057768017890920315,-0.09838574229475022,0.04040098725887439,0.051092879048023704,-0.07985439505942532,-0.049324145248146684,0.04776616038248904,0.002210456916624276,-0.07229317956171646,-0.04804492754607408,0.055457774329499415,-0.004755790336461743,0.0574214503017024,-0.08219067191856416,0.08659333920821202,-0.09561688791152417,-0.08086815770373224,-0.06671658375990516,-0.021451018153015353,0.09341490177737208,-0.056399152659213074,0.00822330665198015,-0.057839815937207995,-0.005530180447045785,-0.07292349836202038,-0.013219853173520216,0.05744525761064198,-0.001592627544032027,-0.07352847204941537,-0.06356172254898473,-0.05906020540475013,0.056452022537056196,-0.0764469108091384,0.08040683090351283,0.0017739668041641538,-2.7030437829260456E-4,-0.020847553586138323,0.05615329321756088,-0.05186992418315002,0.08715249683974183,-0.001657027991585333,0.056601822483775405,-0.022382386268576,0.023833373589337487,-0.03607674653729449,-0.02240928516836778,-0.06488775835041323,-0.07627756238975816,2.748792353505225E-4,0.09063245216689939,-0.004232441983131691,-0.008996194706770752,0.05349823575419543,0.07293175937164556,0.06884334838051603,-0.003546528936850063,-0.09047128059953757,0.09983700670596463,-0.03799483277784539,-0.047705870507034745,-0.05723272575679697,-0.018059301248020174
0.0553682923740276,-0.009419634918865064,-0.013512864571204847,0.0019728079500381385,-0.07270260172398668,0.09956897018951189,0.036235807614687976,0.043179287726557686,-0.01909580327781324,0.022031196565032385,-0.022854536747630452,0.0879911465200475,-0.04476860663590017,-0.06158215332160877,0.06422656115248626,-0.08169774562966144,-0.07570974137732661,-0.023323041168072295,-0.0013651560336353369,0.03773396965067949,0.0724732543607002,-0.07607009524114422,0.09582069136599328,-0.07403322549185093,0.08934641960474862,0.019740838294738577,-0.04721634772881476,0.05325102250112049,0.00928590807703969,-0.040599007017049264,0.04170944371163832,-0.021239382153844577,0.056302435201253026,0.016464781323831335,0.06656189497097698,0.08743533039377041,-0.04995994639453765,0.01761035343038768,-0.0857499388078935,0.020949513888184737,0.07286329321790813,-0.09908706564998647,-0.0724661528541557,0.011157968777890548,0.02825556734811771,-0.03699943983927004,0.03558982641364236,0.0370608625907938,0.025670173979292554,-0.003691020606176834,0.05569459538247157,0.04403554240949553,0.0698222572323321,0.08347023879726373,0.08936237520099075,-0.041763591802697335,-0.09177390909108683,0.04708417433826112,0.014998483834192083,-0.06835845674097307,0.09647655151180201,0.038102258903270986,-0.043948369894407625,0.03805386209874134,0.023279265355867412,-0.007859740516850927,0.07587402424861323,0.00640102793815063,0.02895911627291528
-0.053320166331058266,-0.03800627684625672,0.06468145688375475,0.07366773127375499,-0.07540919968016593,0.09182437252134701,-0.03337456339472957,-0.05962068567987247,0.06740825534899042,-0.04096829782372165,0.08900447312036791,-0.022080143094418823,0.009421735995665162,-0.09146095233524154,-0.0626016010286261,-0.05621938812259485,0.0867551310249111,-0.08934793479116822,0.0894122657340712,0.014160846659253039,0.006424113547123854,0.017805564376494713,0.06601900817733479,-0.017984758613120776,-0.061852611801187514,-0.02308605322251652,0.0964026178157629,-0.0324198001854111,0.004562994302353135,-6.838760068866808E-4,-0.06218803520332958,0.0045238887239648,-0.045921760686911374,-0.05001822866822735,-0.07854217791794689,0.026998376103363697,-0.06296530287790184,-0.0859192237008924,-0.009394864610635783,0.06917114872546226,-0.08171406122928093,-0.018791536259458706,0.06986093874805989,0.09729984163287364,-0.0835527596486649,0.0942013361829139,0.0899676073072152,0.053529296971267626,-0.08617186413168547,-0.041799639278693596,-0.08120668884726828,-0.002621415522876394,-0.09672096153555959,0.0397059832975883,-0.018576170295412964,0.04043362853750922,-0.03192511965826506,-0.006695563808885381,-0.03158547181253585,0.0674959833563335,-0.008871685419005222,0.035112453257236734,-0.05044261370667156,0.0030569176848811545,-0.09769768147768393,0.04411233227539365,-0.09823088957508312,0.032857893056795755,-0.08947997053419991
0.07700387443064256,-0.046264643351688776,-0.0013382594874077284,-0.04363856808162828,0.01576099256164299,-0.08106617956626186,-0.05361284406313186,0.04222748771792869,0.02791537780043554,-0.06846876849735503,0.004654859123386499,-0.09848040853910203,-0.07249155290090772,0.07207397113084504,-0.03533983462960523,-0.015394014770801701,0.04500276153921864,0.0906416060468161,-0.05470438108613267,-0.03239963688845846,0.09201483477230406,-0.027299876781525623,-0.051130897586631474,-0.05306843783263018,-0.030393580004997173,-0.13654953527929392,-0.005290749664974718,-0.05913346004113255,-0.09891628239471893,0.09209415169274454,-0.06642254190158962,-0.07295423794106048,-0.04750614629150383,-0.09807734790407747,0.01508039153055847,-0.05905708861846275,0.07566189051235558,0.009904954156921383,0.019925425027783755,0.09812861709553061,0.04211958345617616,0.100501027332908,-0.0627832601469605,0.035180872585111295,0.04641103893138765,-0.050642670490026964,-0.01602523134691114,0.029314003869608266,-0.047957965314983086,-0.020636572873296163,-0.017695031807314382,0.0580127179501537,-0.06232105004038815,0.036715126786819145,0.04124131183760635,0.03988145559238191,0.09243065163011424,-0.0258767414644063,-0.046011083224180405,-0.059034564226541,0.004525154902687852,-0.06407921344705762,0.025365124626830004,-0.005804595583849966,-0.09202223705887674,0.06837131959061725,-2.157603913483347E-4,-0.04396179649212337,-0.026496096372900933
-0.05259096284937578,-0.038171047368916765,-0.08845346738129561,0.08096266565302772,-0.013565948534578862,0.09540518971414562,-0.062036695768116275,0.06325333603013301,-0.0022563226664749367,-0.011135058677497395,0.015778400633358534,-0.057310602372053675,-0.044341503916062314,-0.01998340447859716,0.05654194101479569,-0.023391606517054242,-0.05250293472673041,-0.013462788159470416,-0.09648940541914593,0.08539256882066591,-0.06472712955065119,0.09363079276771971,-0.09294487464960798,-0.01448755023841708,-0.05716149535631967,0.06104371924759883,0.030637092611894564,-0.09712168816500862,-0.06638427112937824,-0.06820831099104124,0.07877223880233897,0.041376550246091236,0.09798320418709976,0.08882352137894163,-0.046120851464714105,-0.025678720880763457,0.04336334929452451,0.09877456017952448,-0.09747750347458416,0.09502885071899854,-0.06201655804546621,0.02784585110749887,-0.017735140567759135,0.06785839232527474,-0.08762840015554967,0.05073926939284918,-0.028545514327519776,0.09819511112557547,-0.008644033400604718,-0.05263045634402831,0.0013941686618292408,-0.07013220683974167,-0.06746548376434475,-0.05484041145209479,-0.046475406008306935,0.041385543899887335,-0.09768743240768459,0.07453981046276287,0.01652717745864344,0.0014884664274031317,0.04600798448992402,0.026860641822147993,-0.004533922222999621,0.025131659084996615,-0.0551847237709747,-0.0754756657093404,-0.016988720206033568,0.07751824320217285,0.023384668985208086
-0.02683916483507137,-0.010409170364343015,0.02866379750052431,-0.04747599504895074,0.08231882619112227,0.04988153751681694,0.08792028914444017,0.007221396356211958,-0.09623362882606908,0.01269096434680968,0.025552942177371005,-0.08214234735660039,0.01640458788462489,0.01653259057224911,-0.03305215496049282,-0.07276395696808699,0.0967139961978013,-0.034748577616088454,-0.037259931817445524,-0.015224944217129789,-0.05493529729155334,0.07778338522377751,-0.05931234574283452,0.028776121607270916,0.07941250069530738,-0.0621704870642036,0.034380750586004274,0.09828031489805046,-0.011740571056564805,-0.07586201414140366,0.05770086902457117,0.09542661613047632,-0.04564001229285356,-0.07167747339923435,-0.0030645266401377103,-0.0707370188577653,-0.01801835003513919,-0.04112853590866707,0.07264546104400652,0.08676742977704828,0.0796337883214414,0.08054827786207064,0.08466991451440242,-0.019059902037520324,0.006380682114449558,0.04540713605061869,-0.016084915064558555,0.09554700958104895,0.06658350913403376,0.001605253973125177,-0.09750639164688543,0.04887382490326614,0.09642662664194897,0.035664446838751064,0.031621375941553745,0.07264228891961501,-0.013243032043872852,0.0536083290737937,0.09231838235604461,0.052367163934044475,0.038363101485668065,-0.03091664183251691,0.0370890900517289,-0.0053056785664107875,-0.07313634022294954,0.009673836811296731,0.08615931029684112,-0.002374446418187695,0.012858859435204295
0.08282445361680313,0.044793349720395226,-0.045979359468897,0.06718023082557417,0.03413300809627151,0.04704100047421708,0.023538032952871157,0.009429444753610405,0.07918867075767907,-0.024672855530922647,-0.0820167508504275,-0.014513623738236572,-0.021653899779606828,0.03823950805840534,-0.03048118542038135,0.03463684986375115,0.05360954973813131,0.023041087363686083,0.017482231309313437,0.08752214474419526,-0.06395908023557498,0.013954423699367946,-0.009444103631435857,-0.06108460998128214,0.027705623993593276,0.06632634843087096,0.037440597143211574,0.06388592735864781,0.03575069780270285,0.09200249834652807,0.006666057216594412,0.04523237445569461,0.005444852519694204,-0.08780429082219371,-0.09340360180919781,0.08634412285113086,-0.0900217494195555,0.07469800268280044,0.022829298958759556,0.04621023970700261,0.07348499298843977,-0.06920693722028844,-0.07224826671447504,-0.07282464251527299,-0.05997190931838157,0.09316158862666257,-0.03247286363038611,-0.04941964690899092,-0.08591056125990733,0.0026332113026545506,-0.01674961213444677,0.022089576644561237,0.014880390149132977,-0.07890222205111733,0.014225920030524322,-4.5804470524320184E-4,0.0283032814920387,-0.08619904841658349,-0.025653920047890133,-0.03456482648719157,0.01705695503637754,-0.052648415991802526,0.028290397764666464,-0.04397187709327932,0.0636624670132375,0.041395606995143636,0.07714411622115855,0.0334004416182945,0.08174681025601974
0.04016306651943219,-0.029532091616472675,0.04724135587541439,-0.003557440342086493,-0.06525211881405438,-0.04756683229385983,-0.00824906293409336,0.03221532430963128,-0.03863735437133427,-0.0900767205374184,0.082773571666202,0.09972275279952053,0.09699888303704632,0.08208108390765245,0.030907528936208906,-0.010976937338932277,0.07421562102020846,0.05616323976254117,-0.06248641350715383,-0.052376246972859475,0.011205016739975579,-0.049597774294726185,-0.09024537717002959,-0.03631808323355494,-0.01909572293572634,0.015512528918190355,0.028902785674352643,0.06629799412741758,-0.026792620117162463,-0.05871590691138384,0.03476077675450456,-0.028468723913189095,-0.07010452670394048,-0.09500393413213218,0.04738271272039507,-0.046366764560683116,0.0696776408600043,-8.128303341305293E-4,0.03980477427194895,0.07437083451679413,0.09537703190948132,-0.03956856028246805,-0.0388902970632675,0.06602795956772275,0.04137436153005131,0.09668938914085548,-0.09055028892618422,-0.05662537603145834,-0.0054034652468373245,-0.04088124050514439,-0.02741283133863777,-0.06658642686544083,-0.015916194133899303,0.09211310319077001,-0.03474104696881153,-0.07188885982707811,0.01806680938220455,-0.06385785095330626,-0.03985942432687104,-0.09618274243807812,0.07417902134664978,0.04746767178998429,0.04290823887405809,-0.09827780622014436,-0.029130379625158673,0.04014336618742903,-0.0018134910940779125,0.007275782031437153,0.06356714288625928
-0.039323206494136745,-0.022309932678639094,0.09735371385225364,-0.008812240409538846,-0.04236400928831981,0.09318475684553182,-0.05982175777750587,0.0442158951400759,0.032493737470374595,0.08283797599468523,0.06996126160895408,-0.04695100479718495,0.08252037970745055,0.051117020651754996,0.016874037354799462,0.06342293208372302,-0.059752156947320306,0.034409576858306146,-0.04986872417058963,0.055123561329605913,-0.033434111962552596,-0.07977225377602203,0.04041032710782225,0.07461570858189656,0.03904832485243445,-0.005080525318397908,-0.07504747682485846,0.027667311999283295,-0.04179674306733938,-0.06818529262698075,-0.06422125616043395,0.009489343790900537,0.08158777383858629,1.2549863259672667E-5,-0.024048771945806832,0.062144785160965305,-0.06179560852156052,0.09847836493302844,-0.008209354460511409,0.0645036627527586,-0.026919751201059522,-0.0572019557526974,0.04965759961565305,0.03967910296667709,0.03396133794642736,0.017482084828704253,0.0938187330947847,-0.012951811383167547,0.07120288407004044,-0.03256690868090194,-0.07637122533535967,-0.06279280083703437,-0.08437110654182732,-0.07715256677121683,0.03432795004448666,0.033209857346076316,0.08855438158189435,-0.0017800679842581435,0.03579765815834096,-0.01795893789441627,0.025360154811090607,0.0997598122789238,0.04054887715035402,0.06673496667213394,0.09249681887977454,-0.08269382222767568,-0.015691451857304764,0.03513223307175867,-0.06334280811557463
-0.05905232100178464,0.025446191862301182,-0.010958059519839677,0.07207672439799492,-0.0623725893725221,-0.05291331410524683,-0.00298160789479103,-0.05133927398603182,-0.0097796415997784,-0.08121908966319216,0.07271073876591805,-0.015787687878877674,0.01848175264308327,0.02454418194076982,0.055815027778102294,-0.03247822496601241,-0.08595631300651135,-0.013877343233781009,-0.09966404437162993,-0.03857957563945511,0.016813411725900423,0.05086779011708997,0.07631423252047556,-0.0763457728269217,0.0421803920296151,0.09009822082986307,0.06742701080894153,0.023433573698369153,0.022502609592500986,0.004058513658845131,-0.0644138998222783,0.06931038179595725,0.03392412025274069,0.07268816026524039,0.03908493774421018,0.035058373438267065,0.09164538078618956,0.07234187248395527,-0.08651415130473444,0.00972700713244383,-0.021046524232624653,0.05439709700212211,0.0529587266386341,0.08200308170503731,0.04444324960147078,0.041706855499586665,0.021949237179214667,0.0890500595629233,0.0708797524725156,0.059823152669938984,-0.07869118342497017,0.04674808336514949,-0.08066189071530377,0.037288225590204116,-0.012728162348491237,-0.045847633773285316,0.06800825881499539,-0.016180759323834296,0.049828412330787025,0.08294710166937819,-0.09473472799428775,0.03521967128399606,0.031683181231821844,0.018996956712090007,0.06969476277213602,-0.08293667509828284,0.01012092011151608,0.05762647317023889,-0.00621002199527769
0.049276800276933985,-0.0865053754808755,-0.0866124016206916,0.016234233819107935,0.023199678404278806,-0.0084048036784337,-0.010061016274416953,-0.03425997945394248,-0.03932306681039743,-0.05303034148072166,-0.02717796302053202,-0.07741804011007598,-0.061517024404672174,0.08081463114370668,-0.025995802234814666,0.05651007262967253,-0.09670551793027782,0.032044074176086124,-0.05273944848653023,0.03456949421170791,-0.09552372298859285,-0.08607303331323764,0.030088838366031573,0.0281099869017713,0.0103422996857504,-0.06648429173104749,0.015601302126955069,0.0315166537454154,-0.09973580218186794,-0.09173877888121246,-0.005520261415594779,-0.08811520136634379,0.020149894057838513,0.03713566705414187,0.04137790583655676,0.025826737678357914,-0.05496345647654599,0.06229652297543187,0.03989732925420614,0.03460447647108977,0.020896784479617764,0.025756174898235645,-0.030785905652612508,0.00997538085972298,-0.06856777797747673,0.038637545109307225,0.0701089539609023,-0.0016124665471504984,0.05306782291687315,0.06480562633551254,0.027757252677162975,0.09291915706887918,-0.020829297799337468,-0.041056549149674826,-0.0453124273803375,-0.018896688922328098,0.012130064620449882,0.06679805012754397,0.050979889823605934,0.041391665825309676,-0.010205863623450842,0.015023292647926262,0.08561566762982145,0.01268545650834045,-0.03820817873555609,-0.01910054836062887,-0.09582127926317481,0.08658112327403511,-0.07542265782560031
0.028266499201595408,-0.057621417554808964,0.022531268777264787,-0.09331880326864812,0.06163022252891881,-0.02323627293250967,0.030723136726052896,0.09753614842809058,0.09867005017640759,-0.07845977697045084,-0.048409052555141587,-0.013608374530637013,0.06880995964364081,0.07735379686183505,0.0576723691541243,-0.04715900417407615,0.06117939474576625,0.023730531545649705,-0.08079953419791637,0.018673770618036586,0.012694478872504772,0.06035969341785277,0.07877915421050835,-0.02075766206512039,-0.021854744258236677,0.0378811355612558,0.018866610427123634,0.010388285315280868,-0.03638270680662302,-0.05762515971850671,-0.09599135826796096,-0.05626624213072562,0.02242178585070294,-0.04929643573834537,-0.09342668255182396,0.07217763997734966,0.01986412867397773,0.07448290959705403,-0.054193191663521684,0.08460022157558192,0.037419093786588475,0.08730802520286823,-0.08396943003597764,-0.03895627700880893,0.07348312782074148,0.08294288562578778,8.707241077725997E-4,0.07632421614591028,-0.05904085543780409,-0.07033929226802822,3.4433128742136776E-4,-0.05403649495807668,0.04494867611990244,0.05974947923189558,0.08754322454367222,0.07082769391548352,-0.05032478600918047,-0.01119108626003859,-0.07813449663640236,0.007827769532403356,0.0489851514809552,0.070317369513967,-1.2631278421770809E-4,-0.012289021040216189,0.09840612341088009,0.084867886100221,0.03819445512246922,0.0868780622112964,0.07124960453251175
0.019987212639900928,-0.025583817675226148,-0.017205252989426725,0.07324413276355216,0.04179464451121659,0.08500361627171746,-0.06755409990783204,-0.08889921415754024,-0.027923655858682492,0.018413780503624078,-0.00932811261625062,-0.077913331853868,0.03919201169014652,-0.08945609302200062,-0.02838344957416282,-0.022578890047797756,0.07331203499043612,0.08110970519713281,-0.06608860090091635,0.041418814789107194,0.06630539845102562,0.028088794446495008,0.09818992604868668,-0.032038543624611934,-0.0037689535870435442,-0.005408841914796153,-0.08221508635946805,-0.024678136490788136,-0.0512289548074659,0.09819869937689626,-0.00944749945475487,-0.014743811325543477,-0.00936742695333806,0.08448191551929973,-0.004500996294288531,-0.03287010186969104,0.047326694057695434,0.04239341057278151,-0.023710306639688677,0.03980700221512595,0.040682715199842095,-0.04237271765990341,-0.09361085971237632,0.08618820589069345,0.08462574628412164,-0.021859443441372403,0.022574997668097785,0.022108670840506522,0.08042661472900786,0.035051143500146736,0.08484941739274071,-0.09075342288499777,-0.09324286584098936,0.03085298982449647,-0.09184239607860406,0.09378097969771751,0.003807460529068246,-0.03560195667892285,0.01660222383870799,0.0010566694212890831,-0.07479147202324524,0.04421247888399363,0.09103153710266959,0.015410761686453903,-0.0636505654853764,-0.06591742562801936,0.05132743776347354,0.03394445771532145,0.049282574952809854
0.026986186325839434,0.012337414011859324,0.08285404923563214,0.05352535728355379,-0.030893222054653655,-0.03501362456861133,-0.06738874006161832,0.08790674003362806,0.01328144093823043,-0.0024834067470485693,-0.05910844003032281,-0.09916611592543803,-0.007612706179351253,0.09245153955758537,-0.0808415614946771,-0.02816202466434313,0.04880048662129394,-0.05834295440955917,-0.06780328043864754,0.07162612859366896,0.051789464556157294,-0.057727430493632784,-0.08184559922085065,0.031021298160913396,0.0905095803413298,-0.011072653880489086,0.03443545543487936,-0.06853249306927642,0.050725857849278605,-0.006988572569344376,-0.0014674043208245946,0.01293933729049239,0.023556750937575477,0.0201253664827767,-0.09318474035400404,-0.07876668472325009,-0.08590856203929301,0.08787979219506017,-0.007194477675793426,-0.010666063176213103,-0.04134746863142749,-0.04727091367407124,-0.08705823821145231,0.027230466467645487,0.09988831983087038,-0.0659615682572664,0.035107360411325284,-0.07370221796302466,0.07518436790181385,0.03224536965687272,-0.02569203400026543,-0.057276412665559676,0.08625669563030011,0.031056872522106593,-0.031729368387070966,-0.0821073923045619,0.07898664499053268,0.046782527031166504,0.043407897966656506,0.04412467223015376,0.011289734710284133,0.05117819975576307,0.08990904946729636,-0.02190685975022326,0.06661838189599709,0.006637927674277774,0.06708371348734912,-0.05354408863339555,-0.06716346159750426
-0.08564326525147248,0.03783287444538422,0.08740165799822561,-0.06377401890783232,-0.03677889789013876,0.07615708567547483,0.0045186232378747054,-0.036187421209247936,-0.06663693529138866,-0.030735826228598967,0.05152455879216736,-0.025096266614762122,0.06437041615382785,-0.05939623835014421,0.07676299448612592,-0.03260749077993541,0.04103804738888853,-0.09072130611116538,-0.0450632190400839,-0.014495093824483024,-0.009810296074687336,-0.013033283696109649,0.006051643036827786,-0.050803096231409245,0.02655332034710073,0.06805780135900236,0.003853305866163545,-0.08169946072378936,-0.04566665643006351,-3.5811859210116426E-5,-0.017780541568321942,0.0304894903037079,0.0668278202527004,0.03847060268451791,-0.07284820503009178,-0.06101182578258573,0.05428275177717101,0.054732392686090064,0.07148124073641324,-0.027491152950109995,0.052649484845629396,-0.012877086015406006,-0.03466103193568078,-0.06602281452050468,-0.04622129799529762,0.031555793004891114,-0.009100256107020227,0.015420980933770895,-0.007214462981862818,0.05858059521175826,0.08814112587993292,-0.018205922594340312,-0.062137328210066324,-0.07906096526969666,-0.02057694395924156,0.04107917938916275,-0.00911709617449559,0.016173872378995993,-0.08018362767615386,-0.03175817557330281,-0.0647486368802509,-0.0321277082597705,0.0714066928765286,0.07303939266196866,-0.08233774703171388,-0.03897357094271277,-0.04455381712527795,-0.02377769482817442,0.08371826765700088
-0.014225683164975814,-0.05727585570067187,0.00785455882453609,0.026041843573590795,-0.03915229694565623,-0.08116383671036863,-3.9051487634474136E-4,0.03910151989244656,0.08910577043858134,-0.07253553832022874,0.04779219222954531,0.07651766595740336,-0.05215130866764524,-0.09674150990705677,0.056554039083111934,-0.043259442820856454,-0.07171644951610422,-0.0845941192617718,-0.09679113008400322,-0.02541692108904252,-0.03466992124833934,-0.04952303566899015,-0.09373010855585487,0.07647982483258428,-0.027266322514270733,-0.07763213468149051,0.014188874810824426,0.03748436420872103,-0.055410355678769285,-0.07716889982082437,-0.019264477943312958,-0.07173801352597911,0.047053744599664216,-0.04215334304097023,0.0776754129951239,0.08569078915302064,0.0360555757468532,0.03972399924189812,-0.09857287600487095,-0.08823435451443094,0.025856604888485568,0.03964690918068281,0.001702990908940022,0.02379283040326921,0.009140716334864546,0.07751486693218695,0.05876367520205217,0.0267171217696881,0.037586654839047495,-0.07523644379558536,4.02122349863282E-4,0.026935393671577962,-0.025642119922376666,0.01627651816074205,-0.09503878781379078,-0.006602967920943281,-0.01210580940519057,-0.011467554137839259,0.07927239318630605,-0.07612908641711509,-0.011376663298874656,-0.061696270108234044,-0.012666762628932626,-0.08968630433278489,0.08128583323885216,0.06506085541263748,0.004359887161904233,0.04315800190701208,-0.02246811288825941
0.0010402772628863854,0.060718581950828215,0.0958902139865811,-0.0982638877815675,-0.0041572992563417566,0.041602436345925586,0.07128526211824729,0.06203044621715756,-0.08870770163595093,0.07658690762677708,0.07635898232703889,-0.08065707587911702,0.0420978035623473,-0.0347450747625605,0.06753347843871407,-0.0023893627648576415,0.014769851200310519,-0.03403219451568522,-9.145624614968206E-4,-0.07671212667079133,0.08531056825227043,0.014159539469881383,0.05700202513214894,-0.03125670403486973,-0.06514958336912274,0.06227548152731899,-0.08330625554108002,-0.00796551952932019,0.06287817173864968,0.009020906543192167,0.035304833799263746,0.00499148883112481,0.017172420949941716,0.008438883443422543,0.04240262619827756,-0.012788175335364582,-0.08893004057725928,0.003915685798147744,-0.05646144426557849,0.039285417135554,-0.0875596587029614,-0.015489360726692977,0.03640577650711116,-0.004896135218840386,0.022828851884141008,0.04804687955570228,-0.06437980151451098,0.09614059563983621,0.03341112240758118,-0.008745833838114586,0.059091535450677496,-0.032526270265891874,0.0020381325096301833,0.06231371111348333,-0.0740290274092934,-0.0774833560374658,-0.09424249534973149,-0.06600002023868493,0.095607465318469,0.033227531610954875,-0.05671851112865389,-0.07253893093834525,-0.06523127964910294,0.037852838193819155,0.06982024083591873,-0.06184884410819609,0.025716060607174185,-0.08781820103196894,0.006184086363910907
0.05316765340688609,0.017518864991814473,0.024582215748911534,0.020920848243225126,0.036715249650608045,-0.055860575653334334,0.09805468870609199,0.07347946300995531,0.08830157680934875,0.06182853853120451,-0.05322300074888325,0.014069516012750416,-0.0282669016557279,-0.08733081730092335,-0.04447727166947102,-0.013181397253365049,-0.06869798582755644,0.015456591137192291,-0.06405358746447294,0.0944010743146422,0.0210306193070251,0.0068249542782656825,-0.09788604661565588,0.03948085509599003,-0.027701770540187784,0.020447811124541,0.08857951117878188,0.027247685130004307,-0.03857944331637608,-0.03285912463602905,-0.01799478984332939,-0.08442910519009375,0.0708062976531488,-0.05890093517547384,-0.05309122372703241,-0.08975984230200003,0.01472567352103131,0.08267071931759207,0.01931535527844294,-0.08898067434574064,-0.007232014470709161,0.0935903148813475,-0.05204244018131443,-0.052833290935706524,-0.0641594849775345,0.023131091657373773,-0.08215055878590194,0.04866856232120312,-0.007480010011278709,-0.02798927427136029,-1.646620584513092E-4,-0.046274880041305956,-0.07411553215663087,-0.005905022273037866,-0.025135847659818397,0.07304264048387774,-0.09102500695478166,-0.06833320912741843,-0.09297540680939904,0.07477576577523401,0.010881351411061682,-0.006988680051225812,0.03189607899082664,0.08298469483743659,0.052412717861011704,-0.02420756295192654,-0.07268572998899091,0.04572917458547482,0.06879545293897676
-0.09029855728731369,-0.0845626577661311,-9.067382419217368E-4,-0.07529573142153304,-0.0751923419366447,-0.03187268203390391,-0.017750463374334308,0.038366487722731935,-0.07233108438901109,-0.0539067446743281,-0.047639791013912094,0.032379945588581205,-0.022755245555050374,-0.05568215312810024,0.02908507215941883,0.07785363087716277,0.022143307148100727,-0.012127423523998052,0.01007956594648314,-0.05081226328640054,0.02893544594104444,0.0928181706714643,0.06759751225109895,0.08999053888468922,-0.008283014316145268,-0.056876178141425565,-0.047443180371194354,-0.0028887331014670475,-0.015158924514136071,-0.020807968199897206,-0.040523071934015435,0.0217541678954474,-0.010860686453892598,-0.008854172733471291,-0.06369766468462418,0.0018423031582158467,0.053139474304656015,0.013849385881494508,0.09685974442766745,-0.027414253354946988,0.002527643477416519,0.04356693340800108,-0.024378680789589338,-0.004418447262432651,0.09150866207120043,-0.08868553990137128,-1.4056451176239215E-4,-0.07217256597950061,0.04335654250069007,0.05790106831641492,0.02624253180288008,-0.07879638114297943,-0.03285015025247916,-0.061279745425818245,0.028830778050325023,0.09482719757574581,-0.0766019128013526,0.08327165100932776,-0.08236428514809498,0.09292511069328155,0.06087586546448742,0.010212025225192975,0.07926063194237981,0.01051305679017911,0.09947036013477595,0.04802132921404617,-0.039098398584847094,-0.039883700147063994,0.016548575467015866
-0.05246064003893385,0.025156837746015737,-0.07819492314441229,0.08638615636715338,0.03554700570643582,0.04630094641717086,0.03140975168159987,0.01148279342168916,-0.0075137399454644205,0.05975920127314646,-0.021334990311782126,-0.05039581650762253,-0.026381966211978344,-8.674674604406823E-4,0.04951456783576702,-0.028514910471766422,0.08077378931473592,-0.021295896603863926,-0.06473673578902346,0.06383311029655553,-0.09370195478974251,0.06293088129993088,0.09002071957851518,0.08243588794396736,0.09787520893149468,-0.02071741553163882,0.012423923756035113,-0.09205200471372979,-0.06843145324023323,-0.07149546103255998,-0.01118184624913765,-0.028334192497231556,0.05640454223943614,0.0487668096231455,-0.09949444432125186,0.08200511147165332,0.08525097826707989,-0.03596192500602147,0.08112440084000833,-0.04379026541690354,0.09206241195570206,0.06790871349581637,-0.022557186562049705,0.024882845167461906,-0.0703563609010405,-0.061398545563968114,0.02464583583676236,0.04484692783865726,-0.0342922139146781,0.07640758648768453,-0.028857953246127457,0.02783524893146755,-0.06449857111301333,0.010799051732175838,-0.05831679297164714,-0.038109598194539074,-0.013020429993575597,-0.04916336150726071,0.014773393465617651,0.07391278425311174,-0.06366591025864704,-0.07922969155488685,0.09959277481238527,0.013274006451348172,0.03147687683463027,-0.019356054562080074,-0.08082780535879344,-0.09325940694708146,0.04376212582537908
-0.06498286580140575,-0.0664450972696074,0.02653950751717643,-0.05962634690450313,-0.05414882808746997,0.03571682228918699,-0.029503344981401794,0.059018590683978994,-0.07570301091937842,-0.07908261701145487,0.08535548381989563,-0.06611456802327534,0.03523609395281524,-0.01956818324158334,0.010825308514753981,-0.07444562679599694,0.028386914471380698,-0.08640959397324124,-0.09605724330064505,-0.004941628718015581,0.09834651839866382,0.0043732387679006335,0.07570468452305865,0.0756084225669767,0.08401213554269102,0.050386641771055896,-0.027643708548120247,-0.06653145330643136,-0.07804147775281495,-0.028532659803820276,0.02452044451389608,0.09570680142218696,0.04111856509367656,-0.05501060939467577,-0.07462154853943573,0.03362605746635844,-0.03053993006129517,0.06089914621346132,-0.042072250697208685,-0.016311057333143336,0.00854192339594613,-0.09828869079142431,-0.017843660703147954,-0.09373235432098465,0.0963716372133949,-0.0248381336322383,0.010951533346847439,0.0682733971812266,0.07360031838802053,0.029854555688287265,0.06913172933297604,-0.0422053043428404,-0.09325947973882001,-0.07469647129683071,0.031901738311356564,-0.02710471010227289,0.08005225237346777,-9.032677965134656E-4,-0.019845416212964137,0.0313127200041195,-0.05371559791749419,-0.03119704159798356,0.08233322194262077,0.027180709716929152,-0.07811488953446227,0.08079490450940496,0.06408633618450449,0.01928378986468242,-0.09155949106184154
-0.06451857412876279,0.025718363895929325,-0.004239042838758339,-0.08959615786990438,-0.09276382369428215,0.09716251274025861,-0.05736448391683675,-0.04986440836580524,0.07515228968981005,0.008325768768282199,0.0776827734262103,-0.058097953095607884,0.006376369715777666,0.0661049593147591,0.03373040318970391,-0.06427073005324033,0.0016857047447058349,0.08469085677236657,0.00974342573189868,0.023056265593596192,0.07752760840090567,-0.0784604580770709,0.050520571128353786,-0.03792020799682645,-0.062001849879582994,-0.08722255475785819,0.0983705320100415,0.09665247394756646,0.07110309513329444,-0.0243837272288977,0.022236221841919493,-0.011434341553071437,-0.0402341780510245,0.08643317800732891,-0.09144183473772267,-0.021336117710383323,0.09009909387530607,-0.03945264729613516,-0.04947093888813654,-0.03491532739921688,-0.07800509905299068,0.010960882314204362,0.0845282408626645,0.03155640454254524,-0.06521363147620501,0.015313505162659766,-0.03387856411680701,0.048382465949967396,-0.04731666771019776,0.049604782907356454,0.078081098138846,0.07970750581737568,-0.00668468061901617,-0.04754914697503679,-0.050332574160941015,0.0788389046654066,0.04059235808225717,-0.04395200121501826,0.0360395467544809,-0.04340023631713746,-0.0017541402859060085,-0.002098951954643824,-0.016846993072278882,0.06180339802394599,0.0752797829481639,-0.019666664066415818,-0.08340207663677264,-0.09058152560014184,0.07087900534413924
-0.06911958825196257,-0.03630403117238547,-0.0919674342440339,-0.024997644535177554,-0.07206028294788736,0.02951989403906041,0.08949812579823685,0.08954350607467657,-0.034625111424678674,-0.056041988183519645,-0.09124276564318193,0.014873234587617587,0.09174408370996008,0.037967885318401506,0.0904877321260305,0.09832851389570364,-0.09607380157793051,0.007259880446898324,0.027905023370006315,0.005097117481971031,-0.025831170604462633,0.0900310996347872,0.01836743858930199,-0.03779187253639055,0.03952506662313035,0.03423929609779514,0.041158810576253764,-0.05623235144536201,0.09097108191801698,-0.05352540515195323,-0.034453482426967004,0.09856563590184927,0.09165313343355312,-0.03391841144130308,-0.04067197190492444,0.007479456934301526,0.01729525448384947,-0.0492721261612093,-0.054515094769774106,0.026224584889200736,-0.028890525227176635,9.374279077985928E-4,-0.08537218707222548,-0.08526317097102426,-0.01205026111909836,0.003498811940405431,0.003158165477794989,0.06191387656954139,0.06646904316514167,0.0046407273657283615,-0.00791209323190562,0.06376674026072177,0.06858424023847576,0.010764599079547342,-0.016898466513448354,0.01424912333170935,-0.061221944500581264,-0.07193917851503984,-0.03357855844009933,-0.06411760038653559,5.318379480299396E-4,0.05823446134463334,-0.032961713826585366,0.024222432861614785,0.057513437066138845,0.04676048320898635,-0.08748642679461949,0.020014172927246277,-0.09709246004821681
-0.07275461192818393,0.07501862484558197,0.043097656056180864,-0.038295132085469266,0.039639242447373046,-0.013950115454769584,0.004841522239869393,0.04374757791221799,0.054875833339784616,-0.016746280240512952,0.09254524871695521,-0.09825514447933342,-0.03567928500976229,0.09754763839072647,-0.019251261378803782,0.022676106663296045,0.0459340260797948,-0.059830331671874744,-0.07131114922507546,-0.09132071098631904,0.013786389359058135,-0.07849889825664977,-0.09721010361140336,-0.061654846165562306,-0.05782729632056874,0.06508347531110639,0.019975002437869017,-0.007766647773524661,-0.058833467238806385,0.001743496610463151,-0.07054970503891093,-0.03863322882418157,0.05633481191937961,-0.02479037980454093,-0.003322003912612233,0.08167114982796478,-0.020652574637815415,0.012063110936267782,-0.03979265980873921,0.005742854295480408,-0.061962277658009816,-0.029488793832205422,-0.02974623780604011,-0.09530541488025919,0.048649363412483645,0.00784686404475105,0.047004339146592175,-0.07466114260361967,8.456237311199221E-4,-0.02154287121603099,-0.017207434936388117,-0.027940722184594997,-0.06162049656302676,0.016120906608318983,-0.06121896126893202,-0.06646855448617975,0.01402286427797722,0.04630702643577897,0.0979985918628247,-0.0747650461008636,-0.0013137046998034176,0.016762746897262665,-0.020829405844762013,-0.05376114928084222,-0.06534406331147848,0.0352870958393438,-0.049709190049386974,0.04324266636077948,0.0453224338214
0.05516992754838364,-0.06463786648868942,-0.011361235392460403,-0.03374933023640527,-0.08511797164524582,0.060220397523023966,0.05086830742301466,0.01373287019417817,0.017527342289783483,0.08907660144005941,0.009186289794855371,-0.06760475980175022,0.023830936690702208,0.08552636526744326,0.05398482079242514,0.09939000500945051,-0.018414866334153394,-0.004323783520350292,-0.02672379448181695,-0.002721856563129051,0.0548534276341407,-0.019546151216234816,0.01055819407876986,-0.016784239932290324,-0.07686723117916654,-0.02826215167201731,0.07146466786498035,-0.07230913739804157,-0.03502343932358637,0.0205645635040397,-0.03988245028723703,0.06545189295446542,0.045773162365025516,0.04428486677087643,0.04460350372995475,-0.07977653221500233,0.023471627772816365,0.0871281685237462,-0.030998976435696015,0.01121293625582631,0.0631779513540675,0.03535154781050553,0.10004387997026135,-0.07740360843849728,0.03748728763642842,0.0015842870252318448,-0.05491383068711071,-0.09963565103784522,0.10144097932547452,0.02572618723849411,-0.04447510370936978,0.09266451536697076,0.03292075855080467,-0.03787912715108114,0.08667448453146716,-0.02992161526126866,0.06753946183987178,0.028003673864619258,-0.0728946040875857,-0.048002988811656704,-0.07722907713002305,0.09301098550371632,0.007740352469630348,-0.06154424210814107,0.037538260474327685,-0.06722759286651417,-0.018885945646856354,-0.059158607804579,0.005153797513705569
0.03840995342483231,0.02524346145537092,-0.049967751231738786,-0.0985260328040814,-0.007290730820611761,0.001453430003921615,-0.08224989362675503,-0.07881793024692016,0.04395146062459337,0.09337184668019606,-0.06754012359542645,-0.08550787957296374,-0.0480966425096203,0.06086624937708067,-0.0869726164930103,0.07409882613405146,-0.027317131703725177,-0.03146774714203086,-0.024685513324074062,0.07680806607289815,-0.06194817605422415,-0.07056846896288738,-0.04507048979283319,-0.014724779047189216,0.07932364590829216,-0.03888944176900619,-0.029669268757618005,0.08884406717177994,0.0448207373258554,-0.03251090481330873,-0.053664882390009744,0.08573446705483181,-0.05277533391888605,-0.018064912262403893,-0.09780711668253118,0.0039973465185335014,0.04192406491223728,0.01088951209213771,0.011536019822622244,0.00772493449961986,-0.07865472026461545,0.03562100579236389,-0.027671323642795707,0.06933810423163753,0.04867171213815963,0.003059781670895204,0.02919008151194779,-0.09266522331923303,0.012544574906077315,-0.09660475079435318,0.057682033405352634,0.03160665506288731,-0.020348370853793162,-0.06963658398542576,0.001464844062934816,-0.06919753149299995,0.014707858340633827,0.025048677070264855,0.046375214277603896,0.03348744174413047,0.0939593135852902,-0.07718297671154938,0.10346018167487203,-0.03174670698492814,-0.06687347653911845,-0.07785859471341655,0.012581984503662302,-0.08718370589535306,-0.06446893722422822
-0.005931034189197536,-0.006027779200485612,-0.05888140437326318,-0.0749311945322615,0.015314951584468847,-0.015455914324944415,-0.09457035447682834,0.0060732388888382,0.021961620634510143,0.07094040002394773,-0.09926747159013567,-0.08790601795869248,-0.029145195787806413,-0.018383364648573933,-0.03871896826847768,-0.0889911294740555,0.05198591148182552,-0.010477739887185514,-0.07313032436178993,-0.10078783296867687,-0.028120691552551973,-0.002340733042279581,-0.008788113704221601,-0.05048938760030589,0.10676123648585413,-0.008268697788037207,-0.021105543384341147,-0.02525985199572416,-0.03795175456049668,0.002011602747749515,0.06766960426419956,-0.05576450978185414,-0.00930544959113251,8.391440418045372E-4,-0.07149091047028981,0.005229393999334605,0.11872980722066767,0.07952748278986983,0.029340322840737152,0.044517579993447805,0.06867460060972397,0.007154760424911091,0.08128910969544992,0.062020205006942115,-0.020903240080445046,0.057240979713742875,-0.010509837654304952,0.08062914041952399,0.1425886718026527,-0.027840057426022947,0.006556473623159799,-0.02604764604940657,-0.06094088594409963,-0.07418946287970966,-0.06845525536457386,0.08274455348294454,0.002596459032166416,-0.06400558565769168,0.0032744142752483,-0.028089063680527614,0.0772168985942589,0.04906174737994271,0.07607743033624301,-0.00682029029506258,0.012820332271614854,0.05001242157133957,0.02079476355014122,-0.038756163322050154,-0.045032184964320404
-0.03926268832686396,0.10149592399367952,0.06009683588795155,-0.03042727386676583,1.3255460769153683E-4,0.09178584023493067,-0.01919478560701997,-0.050414830891400676,0.028490752701634384,0.08733631735378043,0.06858315217556207,-0.04365253742193445,-0.006354585919447825,0.08036810749525002,0.08211153074724546,0.0379393123475705,-0.09670061025014698,0.013489878922544466,-0.0773087075087151,-0.10208658354664535,-0.011310900527977133,0.021135260831691923,0.014759772549392584,-0.05488050543120957,-0.05063752327934727,-0.13623398014622964,0.04261320911202442,-0.030763493741186868,-0.03758227379983729,-0.08311312471841936,0.006049956947726647,0.07395673124911367,-0.08673905887193484,0.029548461235013194,-0.03363744161772097,0.030466376217309177,0.03922869014741769,-0.07160641021801001,-0.08180432547037046,-0.033914472438300126,-0.07410642918352178,-0.027216656547539873,-4.8527454894624805E-4,-0.053166693950094955,0.04814529634222577,0.09925036061770331,0.10731410740436079,0.0615459708147331,0.11605106661690248,0.03794553828954471,-0.07648369859410184,-0.04493180652522701,0.08403131585045877,-0.019521261698028494,-0.07561115052255342,0.07881893967235805,0.0552172955380575,0.0018443000091996765,0.0671707782134943,0.014416053173041357,-0.10394811428444602,-0.03082253483714631,0.02506015552866042,-0.047860378724062284,0.05673471609326616,-0.09297569191645802,0.08918105452318117,0.07974192902843785,-0.07028628295114782
-0.09652044644875821,-0.01207060996421908,0.03335941692264009,-0.08370852188789084,0.07863237656751224,0.09750902005979595,-0.013513362620162747,-0.06619932595443924,-0.08582931121797277,-0.033087820210525545,-0.04321022482587926,0.11840555727293693,-0.045114198735715406,0.021936553348666305,0.0323796316886891,0.0818155584187204,0.04460112199833691,-0.08493445958047893,0.02207255560331072,0.06510041349768587,-0.03824260720129195,0.08143369367246674,0.07488114707413422,0.0825275501923915,0.06764807894175363,-0.031733647720978676,0.05268543769224925,0.02861910838544079,-0.04045910529249433,0.01139783561851586,-0.022038272287168374,0.07424193461422698,0.02017845291150521,0.07543160676420874,-0.07088442750251295,0.11145659578822897,0.09842367714309855,-0.06761445124030206,0.0626107724175562,0.019401826547496427,-0.07771241324014493,-0.05557803774035785,0.10890529145140086,0.0813131034102757,0.007684189494382989,-0.03470987543391028,0.0771344013712589,-0.004751969296093984,-0.07170156969226403,-0.0376646184564234,0.03541999309182483,0.05285363386503471,0.046904283874141736,-0.05332884972885087,-0.16106721722486209,-0.09375401829633957,-0.13696307042560465,-0.04538199037663084,-0.018538170306354195,-0.05834192072738058,0.01767745532103707,0.048553001899486636,0.12958428680180678,-0.09021659017226163,0.050174212721406035,0.03300288780039559,0.03480023417335012,-0.025335035480708177,-0.06115931105307673
-0.046463411276732244,0.007994787298828672,-0.08673617801186297,-0.038152699477995086,-0.09494224267042779,0.014536922926888926,0.069263030322512,0.02014277195692147,-0.04155272388393911,0.02947817788507023,-0.06090956501390435,-0.011877564724624687,-0.004262951367309352,0.04353168953130947,0.06815944618618112,0.07468128104599596,-0.037550719728103386,0.029780727947605556,-0.008192826986158348,-0.04676344211746302,0.04361075797610806,0.053168866997538235,0.08274196214472712,-0.07555105876809577,0.01277229130038156,0.007765605614972439,-0.04146207016080379,0.0593814994467629,-0.13860370352834783,-0.05884160226292145,-0.10193889160515986,0.04234087717380607,-0.02373220508192049,0.0014433672327631313,0.0508156037107306,-0.03966691623870093,0.20459115518461932,-0.007489774872457622,0.0800746364981186,0.07898987507704347,-0.02175497767655549,-0.007033654915084735,0.14371131651259136,-0.07603286323903735,-0.004225853615140417,-0.08926319675211845,-0.02503210114292839,-0.09184220964655454,-0.011953964608496175,-0.04189612331169967,0.07972569788929951,-0.030717638944664623,-0.09154895788498775,-0.09089207329022173,-0.02318858021321895,0.023810689005402567,-0.02115507691068567,0.09262119769067706,-0.0666105678445356,0.045155866409769325,0.018817218284410547,0.06036417238016649,0.06766514386358802,-0.05328753122479418,0.032279379953385846,0.040879903358673114,-0.08698899460135724,0.09550564942188745,-0.052774349012947794
0.052921898373268134,0.12674866643638408,-0.050093042331432705,-0.04382381636818856,-0.05069087840348515,-0.021444552429720952,0.0475795500075079,0.057615393384806604,0.006426518472732641,-0.05372305619030471,-0.009252610947425582,0.0029046798810743843,-0.03220810387719409,0.002677453792331486,-0.011056824055025902,-0.09531432211100255,0.09759880554786193,-0.027650555836225513,-0.007764308157396693,0.0920906818632834,-0.002426581780627409,-0.026786474905966907,-0.009424778281238154,-0.08097136646986043,-0.022091852253497198,-0.11182402299210224,-0.09036109425264473,-0.08431920823669688,-0.04569350882821097,0.099309159804927,0.04687713783552929,0.04818656463378675,-0.06699746811928664,0.010647972649648296,-0.01857509531831639,-0.03126121052002714,0.09514007562721552,-0.08597995195634114,-0.011137682832103419,0.057564177847848265,-0.08444699851270836,-0.055559301760769626,0.22155380418024853,0.06998243730575862,0.06751148869271942,0.030781605925025362,-0.0655259358156459,-0.023971500491852125,0.11383905859464115,0.040205230851376624,0.08735774582542653,6.829702869530735E-4,-0.006807251596679149,0.005740405971754378,-0.03422967624559808,-0.03830219362276836,-0.06259761083047341,-0.02228580078378628,0.0461708915424759,-0.08144511104615734,0.05842306554934788,0.07861700227462698,0.15291604179609508,-0.02130859369318716,-0.12019753709824559,-0.0998296334393772,-0.07230573502075233,-0.09941198381747433,0.001140297021078652
-0.04347199090696022,0.051987722945544594,-0.03633728989701626,0.026181644267797587,0.04709166445596546,-0.07102248069665153,-0.07475965825907403,0.06847802019925434,-0.07124599075064753,-0.08640611633765262,0.05387012350872239,-0.01942089038433993,-0.01933640261215309,0.04493318303255382,0.07579921237707661,0.056146760354032536,-0.057523195094296924,-0.03231614923366148,-0.05468025980946437,0.0189866640887728,0.024146898496284368,-0.08070943871942425,-0.074420290221932,0.04840404281941485,0.03351891922897003,-0.07414656384605531,0.016673292165790617,0.09146819955147419,-0.21843689776746655,-0.07839761529223616,0.08811236265534338,-0.02605178393962089,-0.1048312634487168,-0.045899811713332926,-0.08218298282001071,-0.04977202205523003,0.15398278044141606,0.0357658244823552,0.07938335394484453,-0.024675795118333434,-0.07763259463255671,-0.0501242060893993,0.06814716406528011,0.03564562766687121,-0.1155624461378273,-0.04934838007722158,0.04345896617874032,-0.09842113294913322,0.019646919317647542,-0.025942682863055365,-0.025499856159773404,-0.02931783659654167,-0.05638321239185818,-0.003249818383641605,-0.09628067069251312,-0.09344126480252916,-0.024023203863157837,-0.01945793807105236,-0.09468865688942868,-0.009723527056991104,0.0975977058372597,0.01823984099869687,0.1655975789130789,0.05634688646117055,-0.08387440942659287,0.07194653709715688,-0.05756198542959324,0.09092155775993818,0.04638151646077548
0.06155221492817877,-0.07625016844464187,-0.09414405756787117,-0.07305203302706215,-0.031782686804850836,0.04951536844473834,-0.04178231359811246,-0.07201589807405155,0.035466267289072075,-0.052885040047346656,0.057710610994241934,-0.02174138800825234,0.06284942989127221,-0.03756248909732454,-0.018697739727714303,0.030623289051789945,0.03457217880848691,0.08037020304349514,-0.0355742591520536,0.0657207090784043,0.0878039813393211,-0.05217554725597014,-0.12046111006574522,0.014992936891506312,0.05418355880645371,-0.10527990946418679,0.05474077879258881,-0.047260457493893834,-0.1691384044299259,0.07630057493919022,0.048277363374572155,0.008173334694718764,0.07895009500836175,-0.009272016004798744,-0.0474990765522133,-0.043255804117830685,0.03843611630429029,-0.009952223931708802,0.002160390489486219,0.05942102581579064,-0.04542385070248226,-0.05953612113989835,-0.048646758195199466,0.08208387703326146,0.07651083369048861,-0.05516369972224615,0.014373067433053891,-0.09581639291878355,-0.03200920125470847,0.03202369712260328,-0.0584223078180962,0.008931212250318309,0.048892943557339925,-0.0885322871107084,0.030687057244799455,0.04514143300958548,-0.028674680405102255,0.05258428796738438,0.005411380011265088,-0.031088582195544074,0.012039661901787303,0.010635686822661259,0.05442541260782824,0.0046479806619060746,-0.028780120687430116,0.10908212460597154,-0.03605946574287082,0.05474864013108843,0.13918740018261372
0.0589785956051964,-0.002643905044140401,-0.03980645690273906,0.002266379959225288,-0.010760251996343048,0.061007096630881864,0.08070198055168964,-0.1009654645745255,0.02218117559599947,0.016779048899237967,-0.0968668659766016,-0.018571393043304723,0.09561134597184033,0.08148222801593832,-0.007870542732570384,-0.09590555522867832,0.01302576000687654,0.056048175187591386,0.0831813114257874,-0.00462039336772195,0.020438735153977962,0.06300540383332154,-0.09331428924890502,0.03809336973412189,0.03485682513553921,0.060992420703997734,0.06715067813084712,0.014357507352096772,0.045772911051146864,-0.0016109187441552683,-0.062437987536877584,0.009466620328312352,0.10029352084969693,-0.03442045622487083,0.04107390492989594,0.05940283980011678,0.08758349623802175,-0.0064646967547210814,-0.07842898374298221,-0.01700850902766954,0.07634789073389489,0.02440030655011506,-0.04922070775896514,-0.020969984179039215,0.03577982315568896,0.07320461846734434,0.07752317288658489,-0.04655650278330719,-0.03830679076856899,-0.02841378580962333,0.03805923663449934,-0.11970650841079088,0.09125731237724097,-0.03867680740981746,-0.029697598365020717,0.05715659383337358,-0.04553374056051899,-0.061862584566773474,0.08834887692804307,-0.08105420975835459,0.10293137235607316,0.016592933584297663,0.12121598349288536,-0.01980692250292698,-0.030794132984191553,-0.02366456339876778,-0.11303586139878492,-0.05308048281803625,0.08255504542685023
-0.048321649624151,0.04235775105620966,-0.061608963638620416,0.08899434710146849,-0.056749970788180046,0.0759244924167483,-0.059229543355499056,-0.10355698138658641,0.019583720393445345,-0.07632588526989731,-0.005165813361761689,-0.11474585954892651,-0.08600194228827546,-0.017716321745167095,0.07065357526755932,-0.07596511414976298,0.04051554781727318,-0.041412714475749984,0.14508973384397947,-0.02514600658498963,0.09447699116725292,0.017150237745666423,0.1031400760382319,0.05446782755791269,0.05990463464873827,0.13416245694499712,0.057773389276236674,0.06753184289726596,-0.1001911003345965,0.08850931533941914,0.041672069072468294,-0.09571921093514,0.0784093914687248,0.09187810757812746,0.014631013491762544,0.09377075492587543,0.022199539841514123,0.05848846801124156,-0.07173471806384979,-0.06333656051253873,-0.0833657846066181,0.09530959605936587,-0.10152615722239812,0.08441077346646755,-0.09000129496997472,0.07410399482580113,0.08073989229654872,0.03750163894844136,-0.002496469926837853,-0.0041313488528796245,0.07853064417444465,-0.04639494669511861,-0.03168631890299941,0.06277487207027137,-0.11562063823887805,-0.0011157492470311174,0.032491191518809734,0.011175918684114687,0.050824853209262465,-0.09078152960405184,0.09828211678237689,-0.04185381152209228,0.042773322957027675,0.08244835490281763,-0.02180006746476454,-0.04160049373507114,0.06434318212718056,-0.06146431022490984,0.06765598402656012
0.06896770316032531,0.11327335711271307,-0.04231504703039326,0.03572469430982092,0.03031589517901618,0.09960573701027883,-0.002197890379238483,-0.03964997717741767,-0.09547622052768948,0.005701651547096089,-0.05552954873834196,0.029475884892712557,-0.03454811152024353,0.029870507209334433,0.02253723211568374,0.040235061774478914,0.018984391426604286,-0.024297621201486916,0.06948518042249549,-0.020757292130647875,0.09720829662969029,-0.07954450399015724,0.020187546364255054,0.09574433962265566,-0.06745907185520554,0.07203021829034359,0.0015524145571048926,-0.025591007269901822,-0.13168065450818717,-0.04807483335182453,-0.05686369361402248,0.059625999231115515,-0.03881408022800563,5.30043131332393E-4,0.05321359154544185,-0.013599785326370118,0.01873101065258122,0.09215803387948089,0.030373675028975367,0.09680203484839144,-0.05840850127324842,0.06538419868605785,0.03860790581802659,0.014098134580028492,0.010350245625360431,-0.02318717352745426,0.043439843887970425,0.02520607862209803,0.10526508484104403,-0.07000864060545699,-0.04004834256788613,0.0850559888858859,-0.08253553972678408,-0.05354547493543264,0.04391003114872793,0.05526951271516353,-0.041401807744623244,0.094267174290649,-0.07079270599762445,-0.024221395731182614,-0.08504827456746546,0.05215716197953959,-0.02277128899709325,0.003501437707771425,-0.07860212467784904,-0.041014695737283634,-2.7099363585769324E-4,0.005507492069543243,-0.026676078371257364
-0.07071632645848659,0.10478985718619943,0.05653359227615472,0.030501116901037132,0.010457267453206662,0.07232298006815423,-0.03461771894460275,0.06541184349071014,-0.09157139816346924,-0.07646450784973897,-0.08867880278627997,0.00447688379060433,0.10784703792287882,-0.03760112528075256,-0.06316242543176456,-0.08835196712098155,-0.09998145293627947,0.03229486717894567,-0.03058228965138067,-0.011447919904883192,0.059671267134109425,0.0915107213795124,-0.05664737411879241,0.0796124324922625,-0.03553743777263753,-0.013386749320615614,-0.06363664070163685,0.0907730527866075,0.027466754654053106,3.073089153369908E-4,-0.04280562216244223,0.06943762945452397,0.03586007457161386,-0.08523418089727143,0.07760911514724728,0.07254642320304283,0.006951991820123943,-0.0067118919745148085,-0.08999877245681868,0.014258100862048689,-0.007608448175193199,-0.07786810690885623,0.06202719994559635,0.07475740812487904,-0.026020481433726515,0.08336285409624195,0.07028932287421076,0.05804777605560599,0.10030690285364527,-0.07788978851136615,-0.018714967856165873,0.09192262296422336,-0.04305538171137776,0.04458672779182246,-0.03972798581689678,0.010861091428064254,-0.014251616308654416,-0.06587555129613772,0.008902276694660103,-0.05616784837193364,0.02612021221292445,-0.0018083298902442173,-0.014164322180855254,-0.013045723761625489,-0.04387109250365028,0.007437843676989186,-0.0551374576535631,0.04304295627216137,0.04276166971699807
0.02499966715360323,0.10282757730631543,-0.08222829263364573,0.01079624053781487,0.08226156559793137,0.08898038585772157,-0.09649260605204091,-0.061937075169060524,0.0549798177741707,0.04315942681312935,-0.0753964947087904,0.1096392277055656,-0.06270383559839733,0.047888447672470545,-0.0036387913561033666,-0.01805720246186837,-0.03213522553960266,0.10352445360180076,-0.05169289701977922,-0.0333546553334393,-0.05917556866455251,0.0407428889158231,0.04894066428822716,0.09106366436169908,-0.04875182756070709,0.028303366409225397,-0.024994147102526575,0.042223970884442234,0.06949600829930391,0.06242671533346658,0.08853819629268082,0.060354226421459864,0.032772962046855494,0.08458469178844549,0.02752364957024836,0.05371250679876897,0.08551516658816946,0.0391830407774985,-0.06854651348883052,-0.0564222074774705,-0.06595422585398537,0.0525707897018703,0.041467680987789295,-0.008962933348661878,0.060616477680568284,0.043667851093056716,0.0627156944857734,-0.024186431601832425,-0.08525464656001658,-0.029698912546442944,0.023303009188938354,-0.032585475939748684,0.09469791949883112,-0.037605168976383024,-0.03758126339288015,0.010365787199243144,-0.1054322830188522,0.05770088228417408,0.028589445995350404,-0.0996539537474405,-0.0912620836133492,-0.06406288774877829,0.11422569460505534,0.01614168175527548,-0.02838076075235539,0.06339422505008509,0.08608128066706972,0.06776767840981734,-0.004312274001533981
-0.003511924716270368,0.0653061045135942,0.0010297719277827316,-0.025251253019334084,-0.07897405636688687,-0.010055002819269644,-0.008588230604677302,-0.018600709104735963,0.06257430672575476,0.05873085265541005,0.00983439900153207,0.035706042380250456,-0.031276678739715506,0.07807290024980297,-0.0626004705862488,0.0254362917345059,0.015145229158216514,-0.07402607137692489,-0.011058581167408271,0.05901221251740882,-0.049732316825459116,-0.09743429687992962,0.0030588375504473422,0.08646906121340561,0.06337729263464656,-0.08562111008840925,0.016697160418467322,-0.08861744111023491,0.08075481639372117,0.0469494200235963,0.04098928698381026,0.013933935193225406,-0.031717231385322966,-0.0673059234866631,-0.05645836362315676,0.0383370539480793,-0.008825002007868303,0.12864456101101734,0.04343544671177887,0.10225298268024124,0.05983464626203463,-0.06778733986357757,0.044292734710771324,0.030056959042398853,0.03367464277617012,-0.046181785175852585,-0.11869630748352597,0.022817444488736262,-0.008199098555777095,-0.06631243901003905,-0.08901135838000657,0.014645957104632937,-0.05254031661623858,0.017633627959707132,0.00794602120857675,0.07750701091270973,0.040657967314783126,-0.006958582983244138,-0.0868595242274558,0.08009781749571783,-0.02796543507751829,-0.022363792378262148,0.03017525287808454,-0.03288890905178276,-0.10229388948400525,0.044983580527806946,-0.06799587753595941,0.05023137804907598,-0.09047650518361543
-0.09898358328069197,-0.08580022573346684,0.08175620184751135,-7.306463866072106E-5,-0.039811549026085816,0.010815300509259293,0.005557459150378145,0.08929814824079337,0.06871198504148053,0.011786976164450801,-0.0852383820072062,0.06488084457492732,0.07311653904585085,-0.07042123590050181,-0.056963768855021614,-0.08094998987813844,0.05489825847146436,0.06649423430424839,-0.0781183048125981,0.0420973002897505,0.06918408544246792,-0.0856017875772475,-0.08733368482185912,-0.07520667174989877,-0.030767479505521892,-0.10235406407237312,-0.09881582535320355,0.05194982491785751,0.04520570437560792,0.09853181252879492,-0.018245673153020343,0.08275419961708931,-0.017895255989867624,-0.03605165559672959,-0.04000972555255145,-0.08705008173600802,0.10560598885534513,-0.039878204922142155,0.08734680061452126,0.09143389379587283,-0.043924907277090766,0.0777824754429802,-0.05363598079124558,-0.03872779206738741,-3.355190480191749E-4,0.04024629403280179,-0.0015183429553052561,0.05126116354873834,0.04322471435803875,0.07651559593271985,-0.09349126592251282,-0.04538291954955524,-0.04812935056609283,0.04821195565232964,0.02018194155407749,0.06358847413119117,-0.11763966411371256,-0.023022120938632207,0.012272512011449523,-0.031712731709580916,0.036824921942962024,0.061793018070583634,-0.005114135948249985,-0.0454732707148414,-0.05199293954370977,-0.10432488643992177,0.0568699788913831,0.08553096767884857,-0.0668297913088736
0.023953229882954234,-0.037182070636374645,0.09349509158273697,0.007205943060423324,-0.0182746247107301,0.04617523034866597,-0.0761157058134163,0.011545344102284588,0.07352855150836646,-0.019057180618707356,0.07937646218751974,0.050404261986893774,0.020470557538201428,0.04274059991038558,-0.07299628643410493,-0.04537790538800269,-0.03495098592707076,0.036965841193616455,-0.03519683236952121,0.07551450209501272,-0.06881964318005875,0.07720425509590015,-0.014492497079514161,-0.06127159684956872,0.009171588733768525,-0.09947466438929817,0.005143858852640847,0.05378476641764029,0.016362457284814846,-0.03717715062567534,0.04030997530640011,0.06601025318065966,-0.03197943063379829,-0.0416240053853767,0.002811290087451802,-0.016958014082072308,0.06584827319161764,-0.05232297340328622,-0.08821027049089696,-0.059037054056531285,-0.0427035956149716,-0.10046003681153316,0.013843738440238392,0.09940805356268531,-0.030535587714806717,0.04874350978617151,-0.09051750577541579,-0.05729340688394814,0.05062609475999767,-0.06475047350880199,-0.005891398595423456,-0.022237143883570915,0.0864016106809521,-0.01951521004164667,-0.0778797890680187,0.01720732709258723,0.013629427726590619,-0.04770190524741554,-0.0554505234041763,0.05214001923276987,0.025967735560100652,-0.07841150543455079,0.02250891096701133,-0.08631340077149462,-0.005833393787347655,0.08304653821756935,-0.02269160457340804,0.02974734849162905,0.06089736962724807
-0.06323800612930346,-0.03778541141974879,0.023012934409772236,-0.032240431080203094,0.029686669779532326,0.06833653610472781,0.023970032688533028,-1.1565982631975017E-4,0.0284724492738035,-0.03616578586866523,0.058575076246702704,-0.026861372825106693,0.03984574494178669,-0.042457275391328576,0.060564138654649845,-0.08876908708663969,0.09466902665193853,-0.044495763640871,0.030396825209265083,-0.04904168461473278,-0.03031133763542319,-0.07447837228267243,-0.028489283594013818,-0.03951444521932251,-0.03422843517258314,-0.028133660964258053,-0.09806886374865616,0.0919546900116752,0.08314133514602357,0.06538173115590445,-0.03655930237115877,0.08126471729934819,0.027563065876645483,0.07696229148240584,-0.071858225164306,0.04962397890771433,-0.07356251883827523,0.10024073425183487,0.008899563359205971,-0.07231639803840899,0.09465677149561051,-0.02599775089626133,0.04318889373037528,0.08262532004853543,-0.07430253540729445,-0.03372875732130892,0.06916063722168507,0.032340091728979545,0.09578158768733264,-0.07359800781505521,0.07315205687354248,-0.053872731395792926,-0.07687216604665925,0.06326126584842709,-0.04072382367953781,-0.0012700500943121195,0.01817535721253165,0.06899635995596884,0.09817169320519088,-0.013366229180033003,0.07492355006738856,-0.08107815406130545,0.10146408707787472,-0.050362889119787944,-0.08231409051324973,-0.0239344809757,-0.026987697528050383,0.09671835069618291,0.04062927527285821
-0.07020892598773781,-0.007768208482898387,-0.0446865044795221,0.07598793606726373,-0.0998144610270775,-0.023493440991136705,-0.09188668947740718,0.045970337793832666,0.034206160617814785,0.0513918530126653,0.02924252207916425,0.08195042394256999,-0.004833526103572239,-0.055867329681053214,0.018599346521132,0.006761479982889479,-0.04208605166956887,-0.07839156474696521,-0.07813437700987405,-0.0474455757429291,-0.03830316472333098,0.07316159953652615,0.014625530715328947,-0.09806573564344112,0.009946686382144687,0.009958351054067144,-0.04796043083098389,0.06502004295530164,0.09646066289025473,-0.04045030743908706,0.028347329386910813,0.09653334169772873,0.04775991308772906,0.009499650555375744,-0.03695986262569287,0.06163701845999833,0.016283176034122854,-0.0735240953432297,-0.09085198485814956,-0.07892470683589695,0.09158955810029398,0.0816349668021758,0.008525419179640961,0.05033092935394254,-0.07527509947022881,0.06741101225910956,-0.03290534519641833,0.0383319122652353,-0.02347732312337307,-0.0525246515268496,0.0341581859485488,-0.04562095495672678,0.008157872667828636,-0.04781401644583978,-0.06065102206768467,0.014190645370114302,-0.04304003804814321,9.482453685060871E-4,-0.017154199730815195,0.057979066867041656,0.06391419209069446,0.02351502964185323,0.0548558606930008,0.011283000041307584,0.06110013735030023,0.02040933122557427,0.019294121400301553,0.05609953336339263,-0.010084468433105093
-7.184027481512284E-4,0.038685986456004184,-0.0817326827107181,0.002468588753488321,-0.003274290969508667,-0.06628161015275609,0.08023901288406635,-0.019479956894144765,0.09041370587175254,0.07611095537003593,0.03881695486972497,-0.023532297420045784,-0.03626110299131147,0.02202918824960294,-0.03981022723573662,0.07045029265910532,-0.05056484092443767,-0.0908454598722861,-0.09485173293076124,0.06349701319161527,0.07006452178738723,-0.021712596299068992,0.02644668876386541,-0.007488012308134409,0.08871137275509991,-0.002227709993697813,-0.03864508148300499,0.04565929356216475,0.054943626919848526,0.06796539199474269,0.025946117178838435,-0.06753459160223685,-0.06217616761350051,0.0168524984289197,-0.02040540916723202,0.03790410570354191,0.06299374524921275,-0.05633100991604115,0.08533601868724924,-0.07692386140994867,0.044873955476897376,0.003414893946537531,0.03589272780512426,0.08271048727996891,-7.066375522335883E-4,0.005539523001899346,-0.011225793148158608,-0.03250440698504507,-0.03251082472226367,0.04263028452099302,0.04568025893662786,0.04076356056465147,-0.045843461974712674,-0.04178911616892762,-0.04403120940927994,-0.0765187939395658,0.02846440871206371,-0.004274748911896276,0.0021714542894166744,0.0035655698327121954,0.012462293069324365,0.09285390220602682,0.04677689928917697,-0.06450365720877145,0.01642274054315332,0.005441461320725899,0.03444697851272316,0.060304900299877506,-0.061130784487742895
-0.09004341544006184,-0.03718655741269998,-0.055492903577845046,-0.006826778962166616,-0.006441376285906977,-0.06370607381686555,0.09425253401672182,0.07611470003950979,-0.019323094174644923,0.02876345005610076,-0.025990721357734323,-0.065894529857426,-0.029597991159148115,0.05205669879350919,-0.028014256858770056,-0.02302541420198416,-0.07546264942970254,-0.03581095003220876,-0.08072924363356329,-0.07105720544259433,0.087478561157001,0.011316437749254754,0.08281073447666476,-0.014942609141360835,-0.07568251133107656,-0.034712261411211934,0.05054645806078048,-0.05667256796259497,-0.03583487237614236,0.046587477247307274,0.005867741862067441,-0.036231080347061156,-0.046317825581497864,-0.057751808509335104,0.09604429916596177,-0.07293409253696703,0.0842369929270862,0.06121618994971831,0.08159041749796819,-0.02427272559564375,0.04935231147639896,0.09883080740722955,-0.026948383117457828,0.026522649934388798,0.06675088792728262,0.023308795908208516,0.007314379888715902,0.08736766873261223,0.0668064744562786,-0.05529456914757933,0.05365983045259973,-0.039921293228867664,0.031237673223720508,0.07404136138768427,-0.01782809644301568,0.016334252071227337,0.0034330783094796563,-0.08918398352876578,0.07961208902623479,-0.06046141848167755,0.09207694744121098,0.0024695115344488816,-0.09495016827152077,0.020705201628720277,-0.008238294183060574,-0.028205234905406315,-0.03334446937689861,0.06323810252066372,-0.08033797514300467
0.0030372647324945767,-0.08352615586202546,0.020553423939606727,-0.011756745399355298,0.0939827444328156,0.09030083569932318,0.09253249532076224,-0.040762040433965786,-0.020060023026004042,-0.08026266336419151,-0.08329137096128013,-0.0025711685076426904,0.0013565812383883602,-0.05970010736491152,-1.6274681069268493E-4,0.057894343842805035,0.017695478808799,0.07742911933915114,-0.01653985172717043,0.045655034841027564,-0.09517467891941589,0.03151552310727879,-0.08953527175053089,0.079407629592472,0.0976925536132516,-0.08131004285207287,0.04459638395877513,0.0648550573343222,-0.0028989630018756707,0.019139065259350052,-0.005502147730365017,0.011187297084952294,-0.007351798828473838,0.09195552874219651,-0.09234115859703051,0.0490211956581213,-0.060315229525125184,0.0636887975333183,0.03735003217669641,0.01597735128245739,0.017858833888197617,-0.07019913715428477,0.01509079830416478,0.0147155583501698,0.06152169729910975,-0.03672519399383736,0.0597128361081716,0.06865545562138006,-0.06997934408414773,0.010339427453098946,0.005208100655826137,-0.04962041193769567,0.06363763309365325,-0.036726336718253566,-0.009090012838603584,0.04253615543743594,0.07620988507827661,0.0543429187566887,0.017224727173613966,0.09168756594628466,-0.09834495317796864,-0.030626266832239415,0.05299824791332006,-0.06157958368419192,-0.092373460631616,-0.05879957194690027,-0.0374631405456602,0.062235481142796534,-0.025399912567503874
0.08090993202096003,0.05324248167610743,-0.00968245335921876,-0.08855590202673878,0.02676818789163493,-0.014764666646530464,0.012288489473926065,0.08499448089225342,-0.007385953027159636,0.05998356274834282,-0.02693362185794286,-0.03324008274633172,-0.058823243625988036,-0.022707245194153014,-0.07970542239249956,-0.0932903454379107,0.04140115935845751,0.033829194857888156,0.008327255080135904,0.07825711619245018,-0.09134967621205031,-0.05107085428163014,0.08492752807786796,0.0140113804139462,-0.04057563975406602,0.05381433876991901,0.01633484477405374,0.0524990263218042,0.09289530176705094,-0.08664681856714124,-0.07717976431023346,0.05899069059009057,0.09186044449529582,-0.04326508269599896,-0.037704774837977295,0.05746174151614697,-0.07345470945539563,0.010521898769909763,0.06875760758229629,0.040806044024635224,-0.023277764210924895,0.08260112982157142,0.008156419778211715,-0.007901684748240712,-0.054138723241148816,-0.0800137077875932,-0.06278021207060455,0.04130468659494266,0.03135201583212785,0.0131094156854141,0.07339995320305287,-0.09647708654895847,-0.006332048916898231,0.09776922604631744,0.06333307021603732,-0.009551767915222137,0.04350733725200037,-3.809644153447145E-4,-0.07620859911242164,-0.015009927687932037,-0.05315714503203022,-0.02426886624594371,-0.08503452275003515,0.09377740916580632,-0.03499027799344226,0.0033499262109436823,0.048047075922213134,-0.07587603947114444,-0.009577534386523645
0.03272803809478647,0.004232191808622152,-0.07294390847436164,-0.07609594644216128,-0.04151359304418703,0.061587923715023946,-0.04438300252342591,-0.0639318208392951,-0.06701932059280888,-0.061453465712597716,-0.040447286642376096,-0.05592656535207714,0.08396268342805982,0.08987043141711434,0.029615425490386982,0.06535687741231241,-0.042310128011419694,-0.09274861295940313,0.015002703859671507,0.05569546550575824,0.03856429612603687,0.023533888012332693,0.026525113868784006,-0.048186905797684365,0.0021414163777740552,0.07676166776596666,0.09657526764393351,0.02266763848848205,0.060552119414637284,-0.009285051095050317,0.0038392929769568013,0.07635547054275879,-0.008260556738947503,-0.04692640733007641,-0.05338130800895835,0.08815929714018483,-0.08536385309037958,-0.008315282122874176,0.013331241481071204,-0.013927309563638551,-0.043163135037182276,0.08966480868102752,0.05595956887429793,0.006996883838574081,-0.04010164861178174,-0.055919847890664134,-0.06733863750625688,-0.09488757518032785,0.09405582277213587,0.010571937925613131,-0.08655044301290658,-0.07277261003353593,0.07271952937184395,-0.09278832156148722,-0.02721019579891426,-0.06977976349252013,0.08259111221920945,0.09668017366074363,0.09657283887738469,-0.0376543067569594,-0.04529649009030634,-0.05295494951239772,0.017661166566644876,-0.04919451275241964,-0.059978627080507434,0.032436052185282255,0.0454046230585132,-0.0013580537756813504,0.033032652543156266
0.08535369335301099,0.019449135729539237,0.02066429136568453,0.05054317659159188,0.04698487064660689,-0.024392385001902547,0.09636205777049946,-0.06203041907083262,0.04385127067936706,-0.062421866863452226,-0.02823851032958382,0.012542348028257311,0.08617937564913103,-0.061168165539774305,0.060930749442901756,-0.041261948254139154,0.01974588251418157,0.02630138397265587,-0.0563023553246512,0.016190824676678206,0.08998788814958544,0.010963202318568595,-0.04336982671940571,-0.03496241989414106,0.05526083548527704,0.03041085798102328,-0.06700963761389414,0.0688280533593719,0.05410782774898454,-0.060746486257150935,-0.033368668528875794,0.0072472187733072235,0.01857190417969497,-0.08586482673035822,0.08866057250593143,0.07031207055581301,-0.03220395154491019,-0.08356970032772998,0.038994046320917075,-0.05525193905483183,0.08036575336358645,-0.05543424038215747,0.03987390057405665,-0.008071925051172458,0.045876123029838435,-0.02863819120127066,-0.0033521070098211187,-0.0952800287346199,-0.015220996257651416,-0.0261488883733078,-0.012292699220360026,-0.007712984473655684,0.007667978581370805,-0.099999945325664,-0.018176213961868196,-0.05472385419729794,-0.0668986540874131,0.028907224410295917,0.08396106755874125,-0.05320389670519961,-0.05478880276931168,-0.023371639881227757,-0.049844500174871874,-0.00274474959266454,0.02658340448373476,0.059475118515013664,-0.0860336856819319,-0.02900851565051924,-0.03743032618264749
0.09297780578462006,-0.003267060148108226,-0.09267360249045743,0.02834569129924977,-0.07846372463245439,-0.0254492750124271,0.05207367281583561,-0.03964770901675194,-0.03652304700016394,-0.006543309380180654,0.056168500310769864,0.007268725344661272,-0.043373408240065435,-0.003550888841058638,-0.024181829209340238,-0.03318835541408743,0.06588405784828405,-0.028230643631984857,0.0021719137466342715,-0.05600828702095847,-0.09830451207447628,0.031079727116433177,-0.05832665506890777,-0.012754905867302675,-0.04087123239088754,0.04833078153930343,-0.058426314447966816,-0.028363953519265156,-0.045725375625656636,-0.006481751867556618,-0.005252770065903109,0.0375163837791129,-0.03966790770156963,3.0873140367295647E-4,-0.06865817992059264,-0.08868537525470899,0.09715793904616202,0.07545752051083535,0.03874981655523685,0.07600757802425526,-0.04255244938613676,0.08288787186130253,0.05041924031723454,0.018175298887273598,0.06626000280685188,0.02117214891620501,-0.030074780624969443,0.09129076394101564,0.047773240604571034,-0.09156843136766732,-0.06225447207302202,0.037875347179037844,0.029655651618874714,-0.02422832526445296,-0.042876010756725876,0.04575599167426481,0.02498306160676516,0.030534498725605104,-0.024592602550976533,-0.061787287285045546,0.024972876061211475,-0.058540882093839765,-0.0987616708968969,-0.029856276437875213,0.014838691148121589,0.0234553363888986,0.03132211873679273,-0.009179643153046785,-0.04480026040925154
0.07282586048109903,0.02194795125690224,-0.0845928787354499,-0.06687739517713774,-0.007073539562343383,-0.047256526846713914,0.052967360185426915,0.002700456206316992,-0.055231824260631696,-0.008220746804097248,0.08742347821767729,0.06988551442381437,-0.058062650457442085,-0.0640632011393661,0.027730342645097397,0.08244869730745089,-0.06463022090325687,0.09051326992834391,0.009903388028688254,-0.024648533729918157,-0.0628524529919557,-0.032808335417771686,-0.034398608846688314,-0.04361597215403097,-0.06785950378598651,-0.044886547745436114,0.0891785400803639,0.08593599405216638,0.08613363366403787,-0.03543598153379944,0.056293419292117064,0.09363427992361363,0.009416243012611921,-0.09830605702436421,0.09293797300829743,0.023866984976366662,-0.011788187788772836,0.03252479597957443,-0.08136564961576191,-0.09608846505716476,-0.08488602992068237,-0.039113594727568514,-0.05382079203668802,0.05032725827234594,-0.03849779010744508,-0.04514457582361281,0.03580697797483691,-0.048640724733196326,-0.08602044853739466,-0.060351804327479955,-0.05344829635442512,-0.034450632199556755,-0.054405187293393824,-0.050492698454731096,0.04981720620896318,0.05595458500763252,0.002373699615576864,0.0915189864809497,-0.034732102557951415,-0.03693700033794395,0.021995740117465502,-0.001330514078253306,0.039726872658337964,-0.07011087792354735,0.08224845858356442,0.09110524363294209,0.00462378915530462,0.02042827146373884,0.00871344114463924
0.08858143409814744,0.04045096486695429,0.06028203782834741,-0.07625051792077722,0.07650261060088122,0.014596105623379567,0.07641192842118061,0.002238333957845944,-0.008918542534248057,0.08310587045396146,-0.04894451247515457,0.055898140375405796,-0.024994835265421025,-0.04629281425732731,-0.08954231472388673,0.01511125196979377,0.04188736266052513,-0.07047972499957098,0.02772783702739958,-0.03574553423304448,0.0871460983102507,-0.09845636321325295,0.07703955345646915,0.06584844262169412,-0.06071528357231637,-0.0014316991267150864,-0.07838187094629714,-0.09168180972346283,-0.028581715351486067,0.06456446438740479,0.020569166634208325,0.035996726558372466,-0.0945573085882971,0.05539503749712089,0.08548607194169117,0.08275255452730083,-0.0025390490594082594,-0.03691379375522333,-0.06466190023776268,-0.029707999867916023,0.035756486125261944,0.09819534513955487,-0.043586848564383954,-0.09625626945558458,0.01013688060999181,-0.06744747871157421,-0.02059907749329034,0.0746926628713076,-0.0805023555457684,0.053070033115937464,0.001661224278088007,0.03013063160325133,0.034707652294506994,-0.006685828626549707,0.028317284703273365,-0.045084822023899886,0.03564159009230084,0.02929878677875741,-0.0715856798011684,0.05351990251237263,0.030067006320492185,-0.06971093411062443,0.005106512971044751,0.004415000447400809,0.0069314938955610025,0.059151665027069894,-0.013191921149768108,0.008545656513492476,-0.0955358013494304
-0.07860317473684252,0.08343209247858402,-0.04499294330993567,-0.0981982855926517,-0.07489340403895142,0.021375835837206935,0.008560107606027354,0.08169318368817811,-0.028876064114740228,0.05578758856451806,-0.021370900823393366,-0.042863483472096786,-0.05874940151749051,-0.024817951571015594,-0.043202136563601355,0.05449317355433189,-0.018336743010663556,0.015500566964593333,-0.0609510678735408,0.02370925143795465,0.1003988301587622,-0.016711734889419006,0.03420787809715588,0.09919457066666922,0.07517911915101594,0.0016100523344272392,-0.03889778722017122,-0.08552805393010239,0.019985707246794753,0.062368577550295276,-0.05958662542207912,-0.044339801346477546,0.03592817193161432,-0.01600577774129177,0.0748851602621461,0.04120271001756394,0.03689460134104491,0.07238502535092384,0.06730373833800525,0.059466224436011655,-0.019484285847131334,-0.005656660175461913,-0.06356828558523514,-0.06977506171468098,-0.01438510534458271,0.012363133026018169,0.03525969755195458,0.04573164012257993,0.05899321622661178,-0.07916685637847357,-0.06390743545148406,-0.05254519267537078,0.05524736761852074,-0.10880404259000363,0.05264873159745112,-0.01783108034666543,-0.025537398148630455,-0.07089435639908452,-0.015636711327575912,0.07589500917729727,-0.08408181969177231,-0.02986539781670113,0.10419664621008805,0.02154341007546432,0.008986998847091534,0.03908446631019935,0.05463494260302635,-0.06763692647972112,0.10906642823003339
0.02809975495868408,0.0864682323173076,-0.25194321754188836,0.06737970511737462,-0.0234127920035946,-0.09985288141657891,0.09549971145791533,-0.023096296753702006,-0.10351220742050667,0.08475511416816542,-0.009723035336192988,0.0426165737798352,0.0911152678721187,0.046020786038972805,-0.029432416562025904,-0.06006579707529705,0.08632942358991287,-0.09470991337001045,-0.10323589989415527,-0.05581517351333303,0.059786718786145415,0.07533146188127006,-0.054232103961567184,-0.05088670109045829,0.049514664997237,-0.18938062076586332,0.0035101073922279976,-0.004855790404361907,-0.007568291436434268,-0.04124382816705136,0.007636472895683833,0.03209715062445972,-0.11652078999174201,0.004049023506535141,0.013355298665431253,-0.04291151148047837,0.0887006666328601,0.09764099112594234,0.030299905324281253,0.12498898584926853,-0.036555358176051836,0.09043786412399218,0.07788500685892288,-0.006780611649345836,-0.10737193289651847,0.09232044056103557,0.03507434239785121,-0.1259418814269597,0.11510689913718834,0.029241085854039037,-0.07153208456555042,0.0694275440731108,0.04627729659547759,-0.025896574505682238,-0.023245380009994036,0.0565568960303464,-0.1374979448276836,0.017739921537974792,-0.09100488501205069,-0.010803388776878673,0.022247174590477977,-0.04801812547739221,0.23051588033276935,-0.0021038354334768335,-0.02769049654653757,0.10652939380715645,-0.07767962590289033,0.07291432229593194,0.0010303374262365668
-0.011328259720873321,0.032688135516851936,-0.24598735602963953,-0.004685402739775141,0.06540536193640482,-0.05416670330066534,0.09223426378777565,-0.102797882989055,-0.08705509921432411,-0.0811429197079214,0.012610260427143527,-0.018122263241952496,0.0463635765592797,-0.0725934999856436,-0.01140880498880117,0.010657816735917132,-9.865783183628857E-5,-0.024622178097794066,-0.04040192419967313,-0.03968511002466567,-0.047295772391837486,0.05951507544209018,0.07369234391527597,0.010208972582049409,-0.06714111591009245,-0.2536055058842672,-0.08152617226497226,0.006744675450725607,-0.14219225728300677,0.08958828892268163,-0.0430867250747968,-0.02933792893631467,0.026964769302044257,0.07452021358669825,0.01933873579118051,0.05108025545663775,0.15222410610841294,0.004915363669390105,-0.10211111591014098,0.1247375847327213,0.03501703453697602,-0.0792035786915661,0.22105007632220913,-0.04154216284889534,0.019778679923361887,0.004949463447927765,-0.022731499800627664,0.03663269769059252,0.17837240573183277,-0.06619127749253913,-0.07512419656311833,0.08733492171833626,-0.12007118184711782,-0.1486315157554694,-0.12907203135582274,-0.02897352093988349,-0.11072661389655837,0.004115162306419435,-0.0637871071189366,-0.0916608023997026,0.03411127848621333,0.028166922341670526,0.28608408441426353,-0.01749531114994005,-0.10631629250346676,0.07936701886206438,0.1080827659468234,0.08174494053630103,0.12098869597070533
-0.09999929623415627,0.22606118703008635,-0.27760808169441775,0.017483082905840365,0.07081560128358237,-0.0959020538565285,0.04623614380505265,0.0082033117637289,0.022962272519688954,0.0982743766990673,-0.03157992608478742,-0.08092200919259926,0.1544564310599386,-0.07926794115958581,0.05419427998723136,0.008721639512908535,0.10494300313013474,0.026302007268469305,-0.022204724221515718,0.0813911080508369,0.10827452200067303,-0.10697474561491455,0.04971510350161506,-0.07726916135702389,0.15008757543426993,-0.09458838416172499,0.01266553795203461,-0.07009734059092788,-0.06062215853655165,-0.08132005750034185,5.113942399048091E-4,-0.0700345212778321,0.014907468189851936,0.04273017472522064,-0.11659303036035441,-0.02547359352860949,0.2990127344651641,0.11920379439508277,-0.02450816791760359,0.12808423427673155,-0.05110591097385584,0.0054205237200071,0.20044349992304372,0.008149049537391047,-1.5547808034525692E-5,-0.02870424905855712,0.15139432335657216,-0.04954319437864047,0.1846505352823453,0.03948285025323988,0.056586516098646795,0.005206879960874502,0.03141439842111736,-0.18801284122016246,-0.11596899833402008,0.054968674386068575,-0.1527810822170524,-0.09763321076224382,-0.1270466525380895,-0.12241587111135238,-0.0018243530283104134,-0.046213201037650885,0.4173964044122715,0.010653196095337459,-0.1620236882271429,-0.004581191364073552,0.046858815281593885,0.0777091225695068,0.0023801395361584105
0.07530044244506853,0.205901694048569,-0.26496093291703965,-0.026039334957116637,-0.06621503869278361,-0.04823489340734731,-0.017512496042365197,-0.05713337680740212,-0.10441624230364867,0.008844282468113272,-0.01153215377708315,0.1144530061036111,0.10270587830754947,0.042534601579668006,0.013919554896080228,0.15538962448502394,-0.11843589561717881,-0.014873401962014032,-0.040070158431584714,0.04811208718200891,0.058948019126570904,-0.05302217083453342,-0.0630042169360385,0.058041481863763275,0.013754785561379374,-0.28788493525403447,-0.002733919633462112,-0.027202037122759492,-0.33798546255765444,-0.10509929722671507,-0.03282153515658923,0.06882198954425914,0.07813026608228746,0.09342135588085294,-0.04875297705239385,0.08091730582008765,0.5717847811246243,0.3261579496717603,-0.09740271102794236,0.03969929213770845,-0.020186132229993863,0.03151467696261249,0.2806178104829716,-0.06753704724481209,-0.08617686837469443,0.041264600947414354,-0.058060406223299305,-0.24536951071739244,0.08404633330009015,-0.06267079433353023,0.030585824262557144,0.02760090356584208,-0.06920041515569088,-0.22261789099229254,-0.27139127667085916,-0.11829810542569232,-0.19538903204974717,-0.06526547433357921,-0.16568050373959536,-0.0810575949557011,-0.11973358061064919,-0.12087753188136512,0.435733466402385,0.11625452108186032,-0.053942193613856694,-0.10710806254297649,0.10669281753179986,0.10702319182699678,0.15261576710580646
-0.06704170918219232,0.1309855832540321,-0.24373311430006342,0.13307786017460932,0.08566402922726378,-0.12227470084317305,0.11830222673748399,-0.053871740982381754,-0.09182978102346276,0.005892287213502883,0.10914151436199518,0.16765777508394547,0.1056645481835514,-0.030816792178399027,0.15043426488413317,0.09562002322990044,0.10131058110241435,0.06918927108779754,0.05424988730971154,-0.0719835880065093,0.019110903034222,-0.031409263895329026,-0.004896114300869662,0.06859357924721994,-0.07816730623798267,-0.23689537902726363,0.09039291729611049,0.054233083931217826,-0.3104286489677383,-0.10538505963693676,-0.1636377030414863,0.02630188782256273,0.0726015060518502,-0.09655857678376026,-0.057183180706130946,0.09771083763034484,0.38328120744900507,0.19153812414882845,-0.12056688130998543,0.2357209560159933,0.11871987927563235,-0.0013560904085636067,0.3872719636541071,0.13407357884538718,0.08479926770327896,0.0653439929273078,-0.07559269000879115,-0.10096637736816932,0.07564822476484151,0.002590321124342526,-0.05307753838037491,0.010526213771367553,-0.09467406946015597,-0.2196041661369934,-0.3207332957413032,-9.051437044038203E-4,-0.3529230998405551,-0.1519920115925539,-0.2809694002869187,0.019054330760817,-0.12792787568951414,-0.07001829790644969,0.6265067779423559,0.08049490403018898,-0.14863389555706824,0.0015271092629804443,0.13495877192699002,0.006842319971097007,0.24536338737588562
-0.06973040910600704,0.2763406381392866,-0.2405996559017119,0.046629817419160835,-0.05399920395016679,0.059694104814657964,0.10887424895653032,-0.13393876339237307,0.05678563868334063,0.09126563755885715,-0.035180781556001475,0.1400414043073361,0.16323632602288604,0.047870420960956284,0.1720558926572387,-0.026808803961138945,-0.03733205975372125,0.020345183865134762,-0.10300289659689851,0.012687431369848234,-0.03464591749788588,-0.1522514999352435,-0.00316648911138936,0.012210771254968032,-0.1212166123908758,-0.3330309956060728,-0.0032598489888126777,-1.5425750735491173E-4,-0.3637995821673433,-0.07851937397897667,-0.10700545758253759,-0.017873738702720736,-0.0235668586859134,-0.03523192253385231,-0.09039540622248797,0.07369568951376959,0.7432961590498238,0.40247565022477627,-0.11610802943429423,0.16194744850333725,0.03072791699769603,-0.0292820477144353,0.54736535963997,-0.019734700842853926,-0.09163081548620207,0.08624880996196023,-0.2767435745005664,0.006137604711020226,0.08870321182689062,-0.1203113633306297,-4.967233111164966E-4,0.11013478074031492,0.03818910541645439,-0.16595939378310548,-0.3365904791846028,0.029525611908129298,-0.5457704584095725,-0.17936623797301432,-0.14444087424524368,0.037751352626960666,0.019354423768064326,-0.002296530231993494,0.8774032561977092,0.0573086290260152,-0.1803202238284106,-0.01208088854367047,0.12709371047551538,0.021414359317266818,0.2709444030214332
