784-16-16-16-10
0.0913166748063739,0.08137147542714826,-0.054670405565025386,0.04832335931930737,-0.053723541926779,-0.042793565298133274,0.03544393669997842,0.07581818191268261,0.07742540173604698,-0.061430363079900775,0.04749432662579084,0.08547524812770399,0.060270998055866665,0.08244875276484306,-0.09434034389645181,-0.004679728183934473
0.03759883951835158,0.07022568059928691,0.06463731840342027,-0.09508533411707987,0.00936219540604219,-0.0943082536954389,-0.05017934223355241,0.0836778245617473,-0.08354236262329243,0.0379151724132655,-0.04930279006842493,0.044632610375359566,0.054744897145047294,-0.06202845492588454,0.05730989419128435,0.015600828685444518
-0.06046153695843251,0.03686751112543732,-0.02846648649812336,-0.04196121776493256,0.018563741695492686,-0.09270229402369096,0.08909490993928046,-0.03183252364968302,-0.0146470662725324,-0.022798830408334414,0.048707319784642655,-0.06752150569060097,0.0069164924682343365,-0.09218386679529099,-0.08561745221122573,-0.033688865194255777
-0.035358387727462165,-0.08024190080258171,0.010125737616333313,0.058875189400274835,-0.08289127009304363,-0.03348244576162507,-0.03644929487454458,-0.010645283866837094,0.06215996223295997,-0.04531460976067952,0.01744715625810969,-0.06326433239315021,0.08652439267833376,-0.016692603600084815,0.06941590262828976,0.027337817727419556
-0.04267158450930395,0.048471733310819776,0.09132260803969425,-0.0770161487788133,0.04843824688884152,-0.03403999880636202,-0.07799747416245728,0.03845199969187277,-0.020420813831395268,0.05949367072631345,0.07326450989379596,0.07821315599057369,0.027585858522947038,0.026566180518535154,0.01899154295979673,-0.02657730578173119
0.06666886359769161,-0.03534703091761407,0.08554642964439585,-0.09917196847006055,-0.0923107087307546,-0.09850612267058388,0.030053709504691883,0.04543174977733089,-0.08606128811224492,-0.07663641110969628,0.09018804196414776,-0.07708634337774167,-0.03494527791123668,-0.03534459969197033,-0.035942316342714345,-0.019896679306276366
0.07613279577164528,-0.05799849093475804,-0.02661692390465685,-0.09775721479733755,0.07045743010458694,0.06469288400743986,-0.056360160958894207,0.04746730600160648,0.046605450002381976,-0.009066379676066452,-0.06616326011219667,0.019099260398296014,-0.06967446260525045,0.08748714714232714,0.09360691515083638,0.09055485789103537
-0.09633406452490517,0.06943351421584132,-0.06727722984606516,-0.09466071376081285,-0.05889368643450863,0.038627054744435674,0.050759541500485644,0.024917065751907663,0.09526938525682463,-0.009187679846272667,-0.04605441282042236,0.0379630540482126,0.0846128467602614,0.04688103250914874,-0.012732563996752752,-0.052161824715272025
0.08570726009563287,-0.0768920121365329,-0.06672290047650908,0.05216164729989842,0.0068348662805964855,0.04279153677929862,0.04997785588266532,0.0758943648375282,-0.06583289580843799,0.04640268930670993,-0.037086388338221865,-0.04642266025874973,-0.006721566961400874,-0.07163808515893642,-0.07951199674751688,-0.05444892740145895
-0.07905840469447448,-0.02213554052042717,-0.08601988924361521,0.014179632749013099,0.029314523128985998,0.002123860986476628,-0.06091994857348229,-0.049474711299166654,0.07812477890035943,-0.016402386482857037,-0.04575306153343331,0.012416675803518434,-0.03378125176834175,0.020602134832559307,0.09290129724520174,-0.08402728230081964
0.05161030311372594,-0.014360673686625053,-0.09813932086456637,-0.023328516231356497,0.07010987551215822,0.0870849956438968,-0.03324288776660818,0.05852890218365317,-8.10174198690089E-4,0.06132815812296105,-0.07111201393311102,-0.023294775008065496,-0.021884497395342678,-0.027833587530101553,-0.046881227856070455,0.03997731907791344
0.046805435720780525,-0.03411916192441625,-0.02300039350439191,0.0069182307824999095,-0.09913455883586182,-0.061093874850095944,-0.007795059475778965,0.08806525322518263,0.017181419727418004,0.09021683811688039,-0.08540193216884365,-0.03477656562218126,-0.0708496238043495,-0.056762170069211096,-0.07994692580145256,-0.016920687494158454
0.05938752535733491,0.06892022844075307,0.03815555688072125,0.08549717628620696,-0.08384104628903111,-0.045756563344233725,-0.08717641678389909,0.004853102533375855,0.002062351735071452,-0.005836719113037889,-0.04453185424857631,-0.08164708843705788,-0.08849134270651436,-0.02461907541103661,-0.0014987975864469705,-0.0509817706555942
0.07138625495963827,-0.010018228110773103,0.05864904125068274,-0.00453962363696922,-0.016071814144972676,0.014310674371782683,-0.014946538491892938,-0.08240397662652946,-0.05898227052973797,-0.09790570010552013,-0.04597815697874885,0.01795772280267742,0.00450101028321577,0.020340911002729833,5.768870789655545E-4,0.025115475259655046
-0.09695448257792681,0.08433233649979058,-0.038685432395475464,0.05633888329994638,-0.0541647667949829,0.07105817602425893,0.05295322583337722,-0.06749838865887599,-0.06162318058554919,0.033685649546721874,-0.01124119554171192,-0.06500428894662819,-0.07449975178995304,-0.04954747225931382,0.02091141111769297,0.029276546861852243
-0.07090772398601175,0.05929537267313226,-0.0646657933038058,0.0753249650346764,0.09244047301670502,-0.0858143711879573,0.011270942831446668,0.05313204642811331,-0.014991576253035044,-0.05349542185167753,-0.07836189891952992,0.0528371850246212,-0.003339739750127385,0.08407908480286169,0.04990064839465769,-0.0806032059808904
0.08330297428398697,-0.017814197643396618,0.06617480710957221,-0.08201373285705871,0.028719476928222826,0.0917020579704238,-0.0021422552638389047,0.043459566997127885,-0.0271128141303678,-0.027299449723879474,-0.07376562425670122,0.025702944863122856,-0.09411630613893814,0.0667622741270098,-0.031237103329891894,0.012776244020964111
-0.029651369667395386,-0.0984624410170671,0.08366698312286844,-0.027606358084610053,-0.006101623198733447,-0.08692712585755635,0.046884256594345336,-0.006592848379902039,0.0035158374155096483,0.015680006494725757,0.024443890840878696,-0.016626643372108285,0.018664881616483026,0.05256739653301848,-0.08065875954805693,0.08570556548604277
-0.04087367537300016,-4.1643913678024447E-4,0.014913507902703876,-0.05911292125092296,-0.06577864003147543,-0.034777448903140204,0.07819192592845542,-0.06095033254726743,0.06995085779011995,-0.049140062485481306,-0.01637684745907786,0.007318626651779431,0.06767862595560925,-0.008304855685685036,-0.01694528419615375,0.0681443741256631
0.04772208353500612,-0.013766433459397626,-0.06482187308644605,0.04725186822091226,-0.07773261068071378,-0.08600207354905649,-0.017216760964547523,-0.07625592621943983,-0.028073560431108313,0.02066557622554495,-0.01720003913931034,0.07758228280449364,0.08419216389574455,-0.02784949873397878,0.09697031093067282,0.06048168941685178
-0.030138886657570182,0.05961489834615599,-0.07202352792666177,0.018781285519894997,0.029489556234538084,0.061260997284717206,0.016881732907448058,-0.04902107176209141,-0.07753411482841098,0.07501008278351248,0.09087861570004027,0.06090822434564411,-0.07891904656875337,0.07856821678442402,-0.0035232126188602386,0.05428914403062515
-0.07731971139621492,-0.016322011766455535,-0.058239317829186545,-0.010461311771834222,0.07755825944718248,0.07145397474370604,0.039834243171067235,0.022838330794685738,-0.026206549048723535,0.03249117565547516,-0.018446289601503824,-0.006239503759824891,-0.05357729046661217,0.07655832555196337,0.0837044374631351,0.008226735398775317
-0.04363866586820162,0.07662898936741536,-0.013329719989100638,0.08941478400983016,0.03045945716858231,-0.005774958197474728,0.06223224032974048,0.024058495103824767,-0.07090976570916681,0.04774249528921459,0.07504956212264643,0.019606334472729664,0.030010043926880947,-0.06152279635935907,-0.05504611746313264,-0.08391500535524286
0.041958890564729207,0.002246633930333336,0.06893840538807491,-0.07716410476459981,0.01843829119332137,-0.0448846270293301,-0.03302194016489331,-0.09039190993311211,-0.047677603164184484,0.09370618851682075,-0.08521468860164261,-0.013120514972162087,0.05508618112070332,-0.022118748833416774,0.09568104689659823,0.09477713648382255
0.034001369993976016,0.01919744170028355,-0.07592495732825873,0.060650639304986376,0.04054222711792166,0.08027378962993867,-0.040641181335190235,0.053952002718252234,0.07350416153913461,-0.07499722280604798,-0.08343169747629345,-0.016120476599100986,-0.026318547795105035,-0.013426013607222217,0.03654115107308184,0.005788752651205015
-0.07346779238973747,-0.0010216861260930327,0.0022697586678499804,0.0015534141645501542,-0.018030824556102915,-0.0500791518772539,0.08197063035506896,0.09830380369973182,0.08914186534942004,0.0112539436088889,0.018280436460983457,-0.09752984683073512,-0.07258156329445992,-0.07537644087893879,-0.057097843258526716,-0.08277558078156931
-0.02867866472361756,-0.035284503842389084,-0.027933866102659674,0.05068686822658189,0.08122040644621004,-0.08369055063089391,0.00689460774346469,-0.03563367859022702,0.06968026211229589,0.0420400374527688,-0.09506032715232415,-0.02004691169440842,0.049673766911974754,0.07472749839407752,0.05947617589870419,0.09582448524383497
-0.0073367629446097204,0.004865159712377193,0.023841116317111943,0.06138199340751571,0.07442059625329533,0.0105487791390394,-0.070369625072068,-0.08539113546558318,-0.08971711079789271,-0.017040584492057184,-0.08685837164375006,0.00393870640907075,0.058615141296607554,0.041956510280133946,-0.04983038969983971,-0.08225181968274142
0.012721856099998805,0.08275468972075709,-0.015429490294787532,-0.060247258345385225,0.06518281179807292,-0.039879954576462234,0.052551097014433,-0.09497373824917499,0.09321255640438986,0.01262765491385738,-0.09818784599635255,-0.004340131625004545,0.08696915556421372,0.09501040165121535,-0.06262251109414946,-0.08972758942731095
0.09298930686683163,-0.04090086240299382,0.023604638564871577,0.07832455628101395,-0.06268379668483579,-0.015604038120574357,-0.03734927942035303,-0.023591076917394108,-0.0651421655347588,-0.022749232736389444,0.057557197927494225,0.0325126082548674,-0.08627830036523682,-0.02720232048610885,-0.08083729374705473,0.042852262002917724
0.06359802299904943,0.024784526648340938,0.04515573621605301,-0.01915812978260542,0.0688106617145001,0.008996489889821158,-0.046014794643497475,0.03382307737099438,0.0972768181379837,0.01579154114566475,-0.07767941730710498,0.08248095042991097,-0.0704307667229882,0.004551310808347517,0.05232187397594376,-0.07475005098976062
0.03182873000070799,0.09825000734818509,-0.023810464389261626,0.021901031929188824,0.012755036158233285,-0.013533945264089547,-0.051151435369716475,-0.03799152788767484,0.0025278235871373927,0.05129617495759217,-0.0019996758923560287,0.045366343755778804,0.0764975521566276,-0.014117922312197662,0.00398759713887864,-0.08456623590424797
-0.034199702828295084,0.04526404356388414,-0.046241838017061214,0.08603151986493149,0.08331953793752819,-0.08564066541681543,0.04063028114941214,-0.06352459646162004,0.008570973478936691,-0.02193068818565949,-0.07485698480330522,0.012637255371499068,-0.06718834123885338,-0.08765042707730708,-0.03547856522376834,-0.05610983053348742
-0.028884915793517138,-0.038648716952575574,-0.015479024807927483,-0.08361288336822699,0.07495134088640776,0.0688058454007015,-0.03135552988036337,0.0964181215668384,0.06769846074345096,0.04832470044378703,-0.012595345184688606,0.07307268582172083,0.0072032877979867765,0.07794251231933422,0.0700943292834463,0.09859265032029549
-0.034695308931204455,0.06171989452021054,0.0674887216409506,-0.06620663878799968,0.08386098775277895,-0.08905368692385036,-0.06688871264174276,-0.07856881354321375,0.06250481008256611,0.09091664091466461,-0.052968318839321626,0.057020902811319885,-0.0752642926346502,0.05043329140858005,0.01416458684620181,0.09880403515946262
-0.043216168679630344,0.07689581881610436,0.08079377623249503,0.023917879009523108,0.07094235353123257,-0.02111442693419152,-0.023876513269973865,-0.08417266422377995,-0.020444856593737223,0.01800081266916445,0.09453454750383747,0.031005555919060568,0.09944772232533369,-0.06707474338973543,-0.04640640034992299,-6.927545709168453E-4
-0.04565061432294962,-0.05872701186533254,-0.0281704073847434,-0.05856707875423857,0.03559926459281326,-0.030837731806508326,-0.015912346984469236,-0.0810208355942468,-0.037547884736004636,-0.007323074460657025,-0.0024792746770285756,-0.05100327623962393,-0.08211061932015032,-0.05402235605973247,0.08520700979001833,0.07821864557923186
0.06228214845848504,0.0895081663619712,-0.07717040058062903,0.0205370606475707,0.0047000411899648376,0.05341232478692723,0.07055548815824389,0.005836575658950266,-0.09641339051300249,0.05147035533222008,-0.024510765270794793,-0.06499460535593846,-3.0542806745553763E-6,0.08601323766634345,-0.05288820671718844,-0.014877912487860148
-0.020682813544787668,0.011334673923991456,-0.06372408688794101,-0.08522947884905102,0.04879179541890949,0.03289445942379016,0.05441303140724488,0.03260522155232168,-0.04540777410003216,0.011609169246890663,-0.022974567885881036,-0.029510446694005932,-0.04124701105004034,0.08925286947373737,-0.04431180813785607,0.02839197347959624
-0.07720327070894893,-0.023103893423034066,0.03205280917197323,-0.043936930454683346,0.04509679316678858,-0.06831746841831028,0.07100376275493664,0.019355033122385762,0.05172862062431935,0.08856044940821711,-0.09511883821514973,0.061401392587365794,0.07149252131411038,-0.023862986894471777,0.04954649022492921,0.01362950250748951
-0.043426699829563,0.08831556190873363,-0.07304869727893507,0.05348888905061197,-0.030449335596151303,-0.06942366370367428,-0.09382884710668832,-0.06336208434768925,0.006601699642112102,0.02470542492737364,0.039782916923527256,0.08420806656106825,-0.029097908436919395,0.07469234660994803,0.06506579316415378,0.022154133676044713
0.08806003804495494,0.056083544162080445,0.04859147292311236,-0.08866672857539988,-0.05039535111099376,0.09762820527456867,0.0927520491011678,-0.01008303595789746,-0.057294802163489436,-0.07205582266328506,0.07585346917515987,-0.01219439813071202,0.013738273772048254,0.032841679008205366,0.03346639403533713,0.09900641798917462
0.04209459638180332,0.01567661297850312,-0.00554602169595339,0.07103039133772604,-0.05850828730778279,-0.08073850789386694,0.06859558072980532,-0.011683848403342467,-0.0034324397946920715,0.030613940592022132,0.06339050053378467,-0.07621778481864672,0.05324104422683357,-0.03404820180267372,-0.02190309489172662,0.08873354707276362
-0.057333372464278255,-0.09039704210205582,-0.07485165183282,-0.09034466346648028,-0.06673748317853842,0.03761268932810119,0.0632669172128329,0.044523251971684885,0.06118077298060243,-0.07943451878020774,-0.08771381485289816,0.018711819446214875,-0.05653365013893002,0.023789366191972208,0.00167099248176808,-0.028391554199990537
-0.08919292473838264,0.027901112249624327,-0.0470330754709009,0.01188525974570323,0.005549297543202103,0.08939406389471158,-0.06458355450503098,-0.016371637249192814,0.05490860627036445,-0.054311613911994905,-0.03837196669053429,0.057255813154879626,0.01936777146198701,0.0348619388914157,-0.07237492535606059,0.09530316555702739
-0.0704659724009815,0.07362035997645908,0.08203018920983718,-0.0591983459403161,-0.06035642439131581,0.08527172912376055,-0.043093061193609034,-0.01643964506982931,0.02760178836830149,0.02536085570151414,-0.031942064366729556,0.0253594104124657,-9.669413947960698E-4,0.09927225169019907,-0.07717647468255628,0.0592541538863135
-0.09105607812880223,-0.00200587262283472,-0.0012208274683146864,0.07575313950236703,0.05572166935172071,0.09956370596181272,0.05463397415774868,-0.08585932355759188,0.018461800698192768,-0.011324890220739542,-0.09838936724192378,-0.033856340156752276,0.0436369145352668,0.05609850620161885,-0.015784245741646136,0.032866158028741765
-0.06032015752374087,0.028690365768599013,-0.033532270689666424,-0.00511515291332236,-0.09012420382220786,0.09322855763375648,0.08612944694334759,-0.06347440856031084,-0.05035250420482898,0.007484417634005466,-0.026174798559404563,0.08336615325963767,0.030841132497111123,-0.0061017367456865645,-0.023883342139362246,-0.042532983801818074
0.023872633257146864,0.03534762683566417,0.052719657454411595,-0.02807458649846184,-0.09810433742466099,0.019440933520596948,0.07946460436904187,0.09925616989676062,0.09716150620363773,-0.02285795325899534,0.06211392362210594,-0.07366460156906879,0.029847214348433015,0.08887433670489073,-0.050197726533693504,0.06113248492641296
-0.04611189230952924,0.05867491998665225,-0.048829048105357466,0.05352526738079272,-0.09599766355583975,0.0855367684240001,-0.09985573123758398,-0.07432884515354346,-0.08869808406860982,0.06162963011659836,-0.0643401614089216,-0.07140231776628624,-0.03148081536338024,-0.08928952895803935,-0.05636188871476233,-0.02436993612584222
-0.08654297367656796,0.023885818298031825,-0.0046531999694026105,-0.025300812827487154,-0.01659567273685529,-0.019007060876420817,0.016442194830363202,-0.002638981628934972,7.290688145018542E-4,-0.061022980444673004,-0.05207575275179879,-0.0989137206125633,-0.09709688390230689,0.012792143126471547,-0.05434957367825795,-0.013325184595033804
0.06467893103947639,-0.04719077132842928,0.03482374068772148,-0.021558924372643687,-0.07003550223800332,-0.00516349851377651,0.04706170202689994,0.0315742539872578,0.08303294273365716,-0.02550364807117421,0.03969796917827856,0.05832738414932612,-0.07664315343753947,0.029911802776300317,0.03676512889502728,0.09897143906442293
0.002933049702282073,0.01906632798796952,0.04671478985298588,0.01985210994180256,-0.09170190326514903,-0.07519822789981,0.05329236667944506,0.04175636369276564,0.056912179730417845,-0.00906701591696217,0.04103239504515627,0.004271431084613947,-0.0814108211666244,-0.08890855264249171,-0.04607407029985673,0.08672629390633846
0.025702301193844923,-0.059298294093284735,0.0722981459721537,-0.07418167725900777,0.01289166132055819,-0.037540620266297675,-0.03915375088968281,0.08731080000405186,0.0991596530103738,-0.07746234384538464,-0.07631695796346696,-0.0851615398467084,-0.08937017450167638,0.09137996533860984,0.06594834358630727,0.04124701373380513
-0.06255135755114874,0.04812529493761214,0.016332060411753127,-0.009400115415170163,-0.09439974544523227,0.08764094822025689,0.012696529543485144,-0.050974175852958915,0.03520228807908804,0.07280985350281297,0.06573250138882253,0.034678705334279164,-0.030032948605745152,0.03473006934515829,0.051492442058779314,0.08536468120260754
0.02935943187039633,0.05524175547881416,-0.06673197429199414,-0.044286663381164916,-0.007607688238754462,-0.048453874471374905,0.06166025215827217,0.09080106078112424,-0.05086970603013666,0.016422616007863877,-0.07678230875517633,0.051505338184416494,-0.023135050830065035,-0.06056097779128851,-0.06292199585055276,0.031670070495343594
0.04475379181799963,-0.07036966645862555,0.007551644279086875,-0.053433612946949996,0.01132420467678974,0.032866314244652556,-0.009106088756677025,0.04777825826036036,0.05570109252416269,0.08981093729701026,-0.09620116784119202,0.04747958853128559,-0.09188628277336058,0.06665217719307509,-0.014150586328051551,-0.0729192732327694
-0.02879894151540896,-0.031348049175371304,-0.06357860518059272,0.00863323338105948,0.057752743595543804,-0.04659348558097749,-0.038325755340468386,0.0558124312313199,-0.06194007958953978,-0.03472041846745935,0.05288104964048859,0.09098630767852653,-0.04129173527817161,0.09915687861992523,0.04414051986032835,0.008481343930510546
-0.014059217390314724,-0.049953108424708285,0.08773486088416621,0.018417244251994896,0.07957147130534445,-0.08957227536504467,0.03019004788099411,0.05374422241956531,-0.05858424902605011,-0.007833663138979749,-0.06689243280013152,-0.018182971555853827,0.028006222245495704,0.010889087353357252,0.014888571412844831,0.07039033752993623
-0.07657932457677873,0.056679754817821476,-0.01637818124993977,-0.04301912288745258,-0.02127417400208295,-0.05621134639189465,-0.08250778244379944,0.0666233443772973,-0.018881456091910415,0.08543608918648937,0.0013592922360840393,0.023473734114467876,-0.0896663780256989,0.07113381555343937,0.09032142204072768,0.006256253869517975
0.08555407702989518,-0.09201819604127526,-0.08232852101776383,0.047521939652280104,0.09043417555890074,-0.08137206729631843,0.002717412936873248,-0.03640724987842646,0.07478353425524126,0.0323090280078919,-0.028913975530441727,-0.04574719407073063,0.06716278335396536,-0.014127881434554596,-0.015165553785316477,0.07483942545754482
0.03395590616192379,0.040125953944544435,-0.0960242444567844,0.016796725275180655,0.08246197552511231,-0.06434001397870288,-0.09502056351528164,0.04133283034061769,0.05406743511682108,-0.0016115180155746034,0.013539356121922252,0.005218529769662222,0.07757588634896215,-0.07846919672696491,0.04056673866198249,-0.029353329532678954
0.09473470230940892,0.08889827963621597,0.037413994692280905,0.05941975422745199,-0.024948864869145007,0.06515601531948581,0.03356427405612103,0.0830826834419025,0.06075374916473664,0.027442007236952365,-0.09946130889624338,0.046207010632688617,0.0478407592262913,-0.04460091597582494,0.0357711147412024,-0.07810041898918185
0.05398006807372191,0.06854893510055574,0.02387512440963649,-0.0825789079738613,-0.08542477299391618,-0.039105950683153215,-0.055742763088909825,-0.07117600734449284,-0.03752240883921812,-0.002773080866089364,-0.05161693055539007,0.07393040061264225,-0.052174770490513445,-0.0033431371942937715,-0.02443299448205563,-0.0017130438874964904
0.06228203006074842,-0.025859136860088658,-0.06431667169074601,-0.0617367797060227,0.07694362739137658,0.06175138594847007,-0.09022082959843454,0.03667632359186884,0.06803901356030881,0.0827577518724639,0.03702511853659873,-0.0968576983109226,-0.08237588564642913,0.06747429697381074,-0.09279795524278314,-0.04123292082139332
0.09324499667885006,0.0676599138807866,-0.012393972142568682,-0.025424268557399474,0.0402965848640815,0.02595601085876556,0.0035110084757988547,-0.01011436343988123,0.08563046120540416,-0.06549622091679759,0.05720820145317515,-0.01791714557805897,-0.06137286102023623,-0.08169317381722452,0.01953012792463478,0.06705192958339248
-0.07840964139945775,0.09223353557093986,0.054747838943661115,-0.025607716764598193,-0.02701035144219477,0.0594199202431622,0.08273952266693943,0.019910544004416608,0.049663122947434524,0.0939082568291329,-0.038815668567080144,0.054072499436427834,0.07813939396566824,0.033211330660491756,-0.07174613618251668,-0.05639504015490189
0.005889669812690637,0.0909438348691341,0.014928225778384444,0.08039028600000706,0.016233687910142763,-0.045397454880412295,0.04100903555061258,-0.025937504100181724,0.0999992844835399,-0.05016547927184596,-0.039177910679536555,0.053885963076467064,0.03548214633822258,-0.0254042985433717,-0.08157936699598256,0.04394572101528721
-0.020835254853062743,-0.039757788099453475,-0.08606286197435163,0.09643459793151077,-0.05301970322673331,0.07127928750020027,-0.022319258036679085,0.01463705785990499,-0.02352432506403386,-0.011171803799164673,-0.06433716433608064,0.01590286589892817,0.09439664514616794,0.09884434422158125,-0.08558062989917561,0.02406070725652501
-0.08844764479455594,-0.08887378494307517,0.06184907522658101,-0.008404531135135174,0.055239954958051785,0.0856091870919061,-0.019965711828884652,0.09698707609782048,-0.09337989406831476,-0.06924422129138026,-0.03660156739557274,-0.0154930853236529,-0.00926769540341181,0.021121408614348816,0.035721594633040255,0.04167033149481997
-0.07072904439469907,0.0013839199301685784,-0.04658874138588529,-0.0701430136847176,0.015103744467960437,0.01216729377607599,0.07710163032432862,0.04244306757536312,0.04008162464570483,-0.039233976943902474,-0.045538111041958707,0.07022052181346669,-0.04154256735940194,-0.08100206384233871,-0.032823858273067705,-0.0070012582751884656
0.01000054418430403,0.04316012271427183,0.05377351750908507,0.04331888764507144,-0.09862203302017838,-0.051234140509839814,-0.030355769629609383,0.06823028394379332,0.038611242518184985,-0.05453827917125342,0.07499083097476078,0.09986329037818728,0.06370688530891314,-0.04778270197571344,0.0881810039816692,0.006013961035780821
0.004988383416415679,-0.01162517198719562,0.03963645172727168,-0.03399802481247112,-0.09876405204050108,-0.05104709540510786,-0.09255761171546438,-0.07961625842656078,0.059888924841431795,-0.08322469432895108,-0.07600287794014925,-0.05747751062391333,0.011664861462102327,0.029274749986629545,-0.09198323056836083,0.033905917124806895
-0.08206870604934163,-0.023677884231501495,-0.07079076186973193,0.0355503164903474,0.01634764993991615,-0.009083485540113179,3.29755106351734E-4,0.007438398657422601,-0.0845688314189861,-0.03314221103007341,0.04647043692636588,-0.03518508845825115,0.09482253950967964,-0.02111801933167909,0.07657562252271485,-0.014108533819115185
-0.05041782877886798,0.08524113743758541,0.053918918758365825,-0.04234911013073786,2.2980984444329056E-4,-0.08065443595871165,0.061206367669078915,-0.056288386481964395,-0.011775970154756649,-0.0413938630311943,-0.002534443045294349,0.05239766398659387,0.028401601533115717,-0.08488844316985528,-0.07543689634897043,0.05355366474452
-0.033687469463749786,0.08411951914454616,0.09144740475527502,-0.03563042417967992,0.03132255592877728,-0.07529858582828793,-0.04487166557888398,-0.04632221758098856,0.04601841353006608,-0.08726487439947213,-0.036552643677332575,0.04539994097545191,-0.05373560612302955,0.09157575945890326,-0.08320697307234733,0.034307681013082986
0.016226158272458727,0.019528963116651116,0.028136314341112995,-0.08923382841213463,0.044623689602326766,0.09123765086708921,0.014995748410598878,-0.030347317096941787,0.0701043460524167,0.04572231831947432,0.0101640778654348,0.09091228397766346,0.006745569642010854,0.04293874637670872,-0.014064970288828069,-0.06386971225749982
-0.030717804636021695,-0.09225016750854685,-0.011074001078170054,0.032161544066517944,0.03656665107906276,-0.08375677089078937,-0.09908895150872615,0.05242003211282856,0.06500870678095272,-0.054599302132432186,-0.05149614407131267,-0.005499880557573292,-0.0528751722411136,0.010791076637730712,0.0904426754470424,0.024555633304107705
0.038111881465041575,-0.06294262428576436,0.052128606125185856,-0.08108322671680157,-0.04122005815400953,-0.006515339171812268,0.09986615749856284,0.05912360507252745,0.06629873703725495,0.024935319168718897,-0.011605883302108572,0.029454047429850444,-0.08233911365136798,0.09386389602470754,-0.048409452013522404,-0.08166472736142605
-0.07808440558171544,-0.03439748317341314,0.02006101835967558,-0.07655482352392201,-0.022249790978096165,-0.06823561070712433,0.09527583227630407,0.08872867844477667,-0.09520416625375772,-0.030612877569180144,0.04564501109054625,-0.025856719067425413,-0.03987499886947772,0.0704300093932525,-0.021054292880060152,-0.0572258686448097
-0.004472984279807329,-0.033518528122630564,0.05152773899612964,-0.0346150660268775,0.07902326301395451,-0.05268282974507099,0.09044187681743232,-0.09520924945170464,-0.03360428918637137,-0.0845851878625953,-0.07972376345996245,-0.054175900001304816,-0.060775947794135844,-0.07875856101381432,0.022559933710770072,0.030432866153494997
-0.06061648829265061,0.07896090353264357,0.07866098702019358,0.09074311795833973,0.07389392585052071,-0.09679164781324266,-0.028903301374928234,-0.03704618152840726,0.0812044398156131,-0.07959292726129341,-0.026291024160103454,0.0066152699809600285,-0.08765930378640518,-0.03711523760352756,0.03605526504660175,0.07428111975166107
-0.01173223176407337,0.03895267566030827,0.004418201330151278,0.06767940318086019,-0.057189610077351974,-0.047873923965576506,0.008507882361415309,0.06885241595123368,0.07795307481503003,-0.019698436435631697,-0.031882306252753456,-0.08876122944294629,0.08032659475991785,0.05748515421501771,-0.07128423938555105,-0.03327721576868825
-0.07255692415787213,0.010743272683019583,-0.09016111797182996,-0.07779647395026493,-0.02425071723782564,0.08160643633351322,0.08675202152815514,0.04096266411568367,-0.03344290684420477,-0.05933650668520849,0.06888441324037564,0.007596596712527284,-0.07848628261557343,0.0875236718349846,0.06362331431367477,-0.05529713618217627
0.08450831857544919,-0.011112185564312788,-0.06495900221756623,-0.03879805006442341,0.07446493796290776,-0.062095728823642005,-0.09530613081270141,0.043868911218585716,0.027516272054298574,0.032971914639426336,-0.04287723755107562,0.08826605310999067,-0.010493164352564269,0.07164691563215783,0.0955984695431859,0.022325774491365524
0.042303529375792764,0.09815992332218068,0.07325341097782287,0.0851939419239938,-0.004857936026939763,-0.048625460680764745,-0.04238978869691459,-0.05447170604422624,-0.04919944421085623,-0.044569068190334266,0.024733822145983714,0.05231652543356374,-0.017156661431719206,-0.018160003924003562,-0.010047861754937243,0.016024232379678233
-0.09710102685451533,0.0024177229794507815,-0.024291807940440613,0.03973175942725213,-0.08496317203171402,0.08057969526651357,0.04353524286946864,0.03227926229374045,-0.03537654046574208,-0.08960149705852166,0.06099866041849131,-0.03279832892083408,-0.05589286616645137,-1.4298651053304412E-4,0.04890804297109852,0.012009963344605176
-0.08515237214457104,-0.058925341595359115,0.09547008517065891,0.069132501208125,0.08317285456375642,-0.06931769054975497,-0.05303338638562827,-0.006917438614488833,-0.02826730633919615,0.058032963356720035,0.009215333781070242,-0.09791167486698876,-0.09586851996385624,-0.08692241019842324,0.06941663869730885,-0.01173233445523994
0.02972107217100886,-0.05284812515845368,-0.07279130295420702,-0.038983028404447055,-0.06153192677845039,0.017603650705132895,0.06795551544190018,-0.013327181979870262,0.09457834171352247,-0.08956822376858767,0.04598752840466719,0.006328202538792405,0.08413310331855539,-0.052354786975329984,0.08259539641213379,-0.02017567621251759
0.09760773926624519,-0.019881120754145026,-0.060313286296327734,-0.0575009624044178,0.07685497293434848,-0.05443641421349719,0.08366955127265563,-0.09055216240181524,0.021117339121043813,-0.09597078411028773,-0.038761327509398584,-0.052657058150329686,-0.018776000445952665,-0.011438588170301495,0.03988484398422437,0.06588822361542257
0.07975525370263323,0.03569168572285447,0.0023510670999247196,-0.03689820660950434,-0.09473693263260403,-0.08166199938297705,6.51297851552296E-4,-0.0747894025818346,0.01678699044193102,-0.03584221119336288,-0.05345093607365317,0.02129793963993991,-0.09844312269009343,-0.05259236378586654,0.03632042154348378,-0.09679690508234279
-0.0650598829421893,-0.0682363073916592,0.09315898440994616,-0.05446049586471638,-0.0637587151000949,0.08346231440892157,-0.08346958362819115,0.011968912074594967,-0.060148264583806225,0.050623889367626934,0.046853504633522336,-0.06657368351089038,0.06707949575222955,0.04373641399463271,0.02707002992579835,0.05896948561730836
-0.07079868713426224,-0.030242658149894616,-0.06394019308521673,-0.028953083038428917,-0.09610173682535957,0.05932982026973807,-0.02112864208272236,0.032569586244406756,0.07644090338397222,0.04173880689487658,0.003992847953089407,0.07126909796786246,-0.08958713209038259,-0.0026953948484097906,-0.010102412985970213,-0.015612096885353144
-0.04095774443976823,0.06278462524995276,0.07056365323965733,-0.07938646005239408,0.07984649725029058,0.06086968345181007,-0.0899699202707268,0.04187547098839564,-0.05264926884800816,0.09739494907384197,-0.06369116872375921,-0.07635094932580073,-0.0908408356386714,-0.097290954266897,-0.05470614485126586,-0.09295785948689668
0.05943771133362205,-0.0023552631422025794,-0.01705958911115449,-0.07225800766813467,-0.08588913803015237,0.03432570101166782,0.06936702089851696,-0.03584431358096969,0.06961726148344757,0.023509027863565596,-0.07121596330350433,-0.0951106240921033,-0.01509946503948209,-0.09177617932290019,-0.010229353169143932,-0.06874059003436814
-0.07729577652522401,0.07165592380990118,-0.06628976561724181,0.044415629396150486,0.037579003820255086,-0.03552428904140392,-0.09838623099650026,0.045249237321675684,-0.07964754505803347,0.08059611035955969,-0.08132403725228808,-0.028551974575724337,0.02909921192101228,-0.019658762466078145,-0.056004462787318236,0.02960185435567722
0.03161067450742164,0.03988068968047426,0.050404223910208046,0.08921300797460907,0.0245495273940685,-0.014571424353063245,-0.09052786476430348,-0.05434490620622872,0.01758876856481728,-0.09677811505017897,-0.033637534697969776,0.05299257575123234,-0.06751120986629906,0.09856844300016296,0.09572333443694322,0.07689897414946706
-0.08940111632573572,-0.0769849446991584,-0.05568056656810714,-0.03348959485784331,-0.09148377049976952,0.01320996115677446,0.025210003076734128,0.04855176204286707,-0.04596195141318263,0.050589604672881455,0.05177121505127108,0.007611362182080611,-0.0889857455668962,-0.04597024169181681,0.001778534801818249,-0.016406463749797554
-0.06933006478776593,-0.018577353373235253,-0.049625147138603776,0.08968077002790997,0.012289899023334244,0.013775282436592165,0.08066643822026992,-0.07697111140472533,0.028351980115977032,0.05989612818873033,0.03408155679403463,0.06025515505089038,0.038822765618386795,0.07334941516354684,0.09875631373962201,0.09198537200137316
0.03904618521777625,-0.07055464025008736,0.040913662451055904,0.071206075207327,0.015564468707372894,0.055023748258621746,0.015619690560454716,0.06073311334270101,-0.09711008378307202,-0.048700334897133685,-0.03778995068962217,-0.08446729988601334,0.020617138888547853,-0.038012248310669364,-0.020837288555792005,-0.03589010298994459
-0.004668267972641277,0.08426266536809016,-0.018081820584811198,0.028872470856856708,0.009561059317546541,-0.08670704489047792,0.033577362519733034,-0.049919760465394016,-0.0863274345249454,-0.09283143104079604,0.05951329749095788,0.09569620188336436,-0.06430624002182542,0.059382643206878305,-0.08764540722723646,-0.05597154198307928
-0.03789497416634529,-0.027378749081223383,0.047739872777435854,0.06666066646435329,-0.036082683396163454,0.03300094427867886,-0.06220986132820399,-0.06655601077802736,-0.024289725484918617,0.06741478471365289,-0.09703545166104971,0.0360423930376676,0.01705037070471424,0.07337919550664612,-0.08226525481892577,0.09920691345486435
0.0679616040237484,-0.09040007858796689,-0.07183832907208765,-0.03761286905469466,-0.08200433985236073,0.011003198246541904,0.08623124483981745,0.051427903768191535,0.057518718534723484,0.03693602524991338,0.02884460441560588,-0.041570156654331794,0.01571068790900683,-0.00839689164428467,0.031862225696999646,0.059586996925281716
0.021146406900134876,0.04372008318874493,0.028213296578418923,0.04786632975365601,-0.0014443885192054334,-0.031960036359026917,0.029125135487527903,0.012753339003423764,0.013680532019027886,0.05174176244569323,-0.037877824696861184,-0.013894422377474666,0.046037314205894464,-0.08217890861576052,0.07518715122108555,0.007105231203796622
0.04851817829226296,-0.058242871463998896,0.04679801665422373,-0.09984565205636092,0.0858832065481909,0.08682926059415258,-0.025540200480251476,0.07824017461851371,-0.09437767256735813,-0.06575627970661524,-0.0056977063477892526,0.045121593949769695,0.03723164051498218,0.09778579616735122,0.0026159258262089535,-0.040259481109629985
0.02747239624924261,-0.00446197198137907,-0.016920459033633525,0.045053738436244106,-0.07531149222596517,0.006010498281767432,-0.006817370862935546,-0.013877668515373559,-0.05572125729711002,0.09552497203384044,-0.06331879045162342,-0.019924206619849796,-0.08080801020181459,0.04953903916597341,0.09068535562788169,0.05952475289009443
-0.03635084479663182,-0.0270308212180366,0.02328171231135419,-0.06901866036002002,0.07433160896749208,0.0935120004719201,-0.0987693750494547,-0.07658874287532864,0.040788846069202855,0.05272173399061025,0.09556216006649326,-0.05873375592193304,-0.011865072181564115,-0.04742090878289645,0.03991826216277872,-0.05792138306192862
-0.09400941640633748,0.07568154639148605,0.09672250874513269,-0.07735354872028151,0.0913098379117192,0.026784547131670833,-0.04792503281662293,-0.017664130870360867,-0.05717387149784257,-0.09127976928257027,0.018669301892611512,0.08409804092921255,0.08509077909854987,-0.07064174458565593,0.0839953849551611,0.0866449118692599
0.085732923678764,0.06365233612872487,-0.0385277570651501,-0.030048494257921443,-0.04885929051223181,-0.0772225885774529,-0.0031549221910394942,0.012824520427974592,-0.01357034652857489,0.06318375595842199,0.09855930061692633,0.06790010951065772,0.039330731543020386,0.07258854164340708,-0.022615699939476944,-0.04231297286856661
-0.08361406667145194,0.06515025135784344,-0.09037084736615252,-0.04756977227818165,-0.07681291033713587,-0.04480468774949534,-0.02421076322398001,-0.07773038237014679,0.03718178906754141,0.0654266188373974,0.08001378795609398,-0.07683211730273597,-0.06882786453089934,0.09953825911375078,0.04053131220221723,-0.03027657316418446
0.07585918482947124,-0.08849629460446143,-0.08908917386374007,-0.049680712792308505,-0.06312233325491773,0.031722665818663065,0.02291783990108169,-0.036124500225675524,-0.06501495654734171,-0.0030642606503749337,-0.05155509748253966,-0.03259929349615294,0.08088358647491267,-0.08341089716738832,-0.01246322717830417,-0.022217273860181422
0.022639734203468986,0.06602761384738412,-0.09311600438953545,-0.009155267357533692,0.09032780402960566,0.060765573268390244,-0.08467893007055301,-0.08696917818456246,-0.032991398916939946,-0.07668901886061508,-0.04633633362796757,0.004557460695319732,0.041818160702766616,0.005585870075842103,0.049522767785354194,-0.02094273693439186
0.05857118703258227,-0.03452224178358883,0.06862768689713114,0.08119144250386665,-0.02815142207492849,0.035830691902027034,-0.049820630713562734,-0.054354531214004576,0.09254982466153056,-0.052098373962574974,9.276114418543535E-4,-0.04397278836182688,-0.00939947640201122,-0.007684380805226126,-0.09075357476789664,-0.01661177137423149
-0.07650942897960654,-0.022383401706784586,0.08509414555177316,0.04437636493359387,-0.01131585196446909,-0.04452768511815719,0.01929745476216893,-0.0972511858685051,0.049796647405323524,-0.02583659806054213,-0.043599582280985,-0.04081861130846947,0.014297360460714642,0.07719152332061871,-0.045638608388858894,-0.0489422496826839
-0.0028119795652171015,0.07859679194956512,0.06260997996743667,-0.0019865162450920515,0.06334693790204918,0.022117977555473872,-0.04989459801577445,0.01113907008118939,0.02271714272138163,-0.05889498160108091,-0.06789564219293628,0.016990520917606486,-0.023335135747046376,-0.08708165737646255,-0.0794209256918018,0.08445954888030621
0.005937590822968519,-0.02495360137585123,-0.010572305479186084,-0.03455441707217036,0.02025100239316599,0.06586935788305204,0.07054089743312889,0.04533550004003084,-0.005109482172543298,0.027939398211623473,-0.05782367757170792,0.0018060349313137047,-0.06978674254764905,-0.07221064561915902,-0.029708549807881054,-0.026117915458656188
-0.002412885500067713,0.017668014159829798,-0.005681376512994191,0.015498954652361757,0.05031322567129773,0.050230092276356025,0.038141646156377024,-0.03425826507042083,0.07304983441676086,0.031940193948500756,-0.07135997763222929,0.015976627395431417,0.05742901137403028,0.023442052653191076,-0.003074633777718036,0.026312749505337657
0.03237095641269591,0.05519261120569738,0.0654814093883021,-0.08819391143844083,0.016966275881717535,0.09806024301212107,0.09113713178936417,-0.04199381781902714,-0.0037359982873045594,-0.0840564256176887,0.027109815411491656,-0.012633800064572709,0.0531865508237451,-0.02447116882274314,0.0359667908805788,-0.07861064861701117
0.061289184219710274,0.06316779877203671,-0.06693416025224891,-0.07125775395707253,0.07622135741479108,-0.09127094141238026,-0.0996288723916544,-0.0613831761370077,0.0896431346118198,-0.0840206371173581,0.03608302574420502,0.05931278822541752,-0.03208849179966081,0.09923138453274499,0.06307954114711609,-0.010833435090516375
-0.054091126512276766,-0.06405512143419242,0.0549213144794381,0.019940996043628978,0.0026147801534252,-0.016629259555049278,-0.021871919225150638,0.03929485554615647,0.09987738323399964,0.07150956382605633,-0.08356741921005613,0.05705274762053389,-0.03323271011072884,0.09271464045705294,0.035644968637505825,0.048806603866169085
0.0976481908013501,0.041107110469590535,-0.06716243442553801,-0.04340668462213226,0.01255805661618932,-0.04903362690371942,0.019616903466001687,-0.09045935193075326,-0.07663220849971414,0.0696344506332841,-0.06940384978990322,0.01226329375306838,-0.06333696334838676,0.013902602316138574,0.03654905172780129,0.08649443538452867
-0.027316285029095957,-0.07285575742433444,-0.01125486167972782,0.09298241576686905,0.05515155182276407,-0.015563343922282341,0.033413062717550956,-0.04472929184230186,-0.0934475374130239,0.05026718800549421,-0.03314871380604899,0.09373036799817286,0.030749992879936766,0.06664325689713282,-0.01566219269577196,0.08029660099031086
0.028787893468407655,-0.05849872752444192,-0.07805356260207215,0.0692721344399565,-0.06880921402857176,0.015663384447229187,0.013115497170226906,0.04031098234111394,0.01522890005439545,-0.003015705877533109,0.016547742021076853,0.026103918849668895,-0.09212469711337626,-0.027109502124578855,-0.03239514461671622,-0.07266403531892558
0.08235047469217327,-0.0037379995998318566,-0.08883105111667942,-0.05426938818686318,0.014770072985701543,-0.050221117421124145,-0.09877049691236091,0.01075361379295972,0.04225677802866751,-0.015411181909141078,-0.02179956608201039,-0.012375295960001503,-0.06216052092661082,-0.026379732299630754,-0.08655376636584411,-0.09891913354098947
0.06421348839109794,0.09436767010113298,-0.06362014693102398,0.0060356108861092245,0.03173622673507681,0.06476404725514898,0.024910246601257555,-0.023539314539690354,-0.053202185616981826,0.02353184385986329,-0.03500482492615249,0.07988020831510953,0.046729616882073416,0.056418195960209666,0.02525857931951106,0.009374240000102035
0.044540265135614876,0.02085396411363412,0.012167550008889111,-0.05728676812644387,0.019147498568123006,0.09162383607525271,0.034619773549091404,0.03837896003588198,0.041697149049874926,0.09698100809089474,-0.00798677964586847,0.05412752556402872,-0.047447179619279,-0.005013974424774317,0.017221860720931098,-0.06503237091528799
-0.05212077258301136,0.026308552644616123,-0.008885012912016002,-0.0454419570240932,-0.09356898292930278,0.04996984416371314,0.07328762266613284,0.08457990485942907,0.029624888264080246,-0.031239279696809577,-0.0033115938465560213,0.07939444794677195,0.03707534320596881,-0.055551014528615286,0.06523618008229282,-0.047706463958344596
-0.010988150399394603,0.033597603841696216,-0.09866221191867663,-0.006641037638729447,0.08939869612423418,-0.0727020206606939,-0.01051778479929226,0.0834424249807374,0.07035155685303421,0.05403667861738068,0.039994440881896326,-0.0679649336868497,0.04666926959443543,0.0787630320115226,0.04250179387072367,-0.002801108485099915
-0.06485977405047733,0.010419719503925062,0.01720431196330588,0.0990413583690666,0.015958634800587637,0.06958739914711318,-0.02936672124746431,-0.07225434054017432,-0.0792505892518287,0.034039181857812795,-0.07709312894926067,-0.09422893066372247,-0.06013803210003752,-0.029258437278677565,-0.05601572578080738,0.07764445135935191
-0.010306938703183,0.056446698272152845,0.009185762079051668,-0.05483334319432889,-0.07535459776233339,0.06135615288092766,-0.03716987804765619,0.06296532390794074,0.023993336689028075,-0.06007109350409692,0.05715295885563451,-0.04605093714639861,-0.098268507265945,0.04726953038954282,-0.08939776999588529,0.05093401672782136
-0.02206997010040486,0.08519204292094948,0.03218122620817154,-0.09330544319294881,-0.06806890598516308,-0.027666936177873372,-0.06435236158987574,-0.01596075026018695,0.07383124887217316,0.09283406527054497,-0.09262018973223912,-0.015490199198871887,0.03711976494470873,-0.0014223121288437363,-0.05173470535801348,-0.059907885337030446
0.009367575873639303,0.07663862143655858,0.07810590683196988,-0.09258828820636807,0.06182196389772637,-0.021287448761887012,0.08269067178443151,0.06817856539681236,0.015149713371411022,-0.08064765966484988,0.05590475992584021,0.08683665792773015,0.03150479424672267,0.06114484020262856,0.0025606256913019154,0.006939036266049747
0.0026314935575250387,-0.0898775028736269,0.0836675725316677,-0.08900836101492937,0.013984669180002893,0.0071064743692500765,0.05146767866089405,-0.0580343622889959,0.08521390572205273,0.06779368994537316,0.03241381603962812,0.04778966224339373,-0.011297053286608169,0.08642449544840444,0.09706380439226003,-0.04178431115264041
-0.004451221278044898,-0.013073760801548179,0.04575490164134138,0.06253763901765128,0.046523217708473674,0.09324199768470484,-0.07943277766164791,0.05330180999515907,0.010653077936775196,0.053415213678887186,0.04686740203588613,-0.09981032777773027,-0.08637395441608274,-0.051863146785373515,-0.03314259277592778,0.0035745265236770407
0.08848948430121598,-0.09795561239146629,0.09181049736628319,-0.04883508665014285,0.09933926113258248,-0.08925756774254878,0.020248022229029702,-0.0036739758072414086,0.07600259745933852,-0.02532435923503043,0.02219845895395109,-0.022882739461344698,-0.08999326099258975,-0.03397456553414405,0.001990599205537541,-0.0539301450851623
-0.014433885789230771,0.03551881139300203,0.07886861667913408,-0.05358237555923395,0.04361843245819072,0.09025692246354963,-0.02131570254302448,-0.0017515862798931775,-0.07020707531199477,-0.03355486600476702,0.0441213065500525,-0.015812441578020267,-0.09151063266601785,0.07054546048814933,0.09070256028552692,0.06594622275401815
0.05831390555619545,-0.07458903131320774,-0.032285913280612616,0.016496338638355826,-0.06081614297469698,0.0252641828341586,0.06468542523052828,0.07826526659404393,-0.0042866430285613405,0.044124878612148366,-0.023260138600850383,0.09181976936813815,0.028069791206447925,0.0016593506258416324,0.09347909955099426,0.07195126485793496
-0.024583034334257375,-0.09945644338812286,-0.06721992191383247,-0.09606284310495777,0.05170771037648289,0.020003590894631634,-0.09225861638177507,-0.07709699289833101,-0.0646295089233761,-0.09184389622978009,0.07626231728969426,-0.09581117843351301,0.013205716368169779,-0.09236462419102556,-0.04771867804005308,0.043959141318335615
0.01738149643850044,0.04367241055245813,0.028327110689890383,0.03699977719139008,-0.07118604877331887,0.05384607908103575,-0.025659238267541615,-0.02645761477703816,-0.0518418827126047,0.09883531095903092,-0.09215199338923773,-0.04014509913846651,0.05810634768320186,0.09580588505469914,0.09017770170107767,-0.05756521045791703
0.06347046456439781,-0.05443989709353079,0.07788655634857788,-0.05931141144596835,-0.044321619260959344,0.04307640409870703,0.09628947359591142,-0.057309240576027626,0.08168265270264347,0.0339036531535504,-0.025926649461509202,-0.0359197961953248,0.013011552438776677,0.018966064383699632,-0.04879509757482312,0.008352701768028714
0.08885264715401528,-0.026175168261637682,0.07756063791451523,-0.08466934096056543,0.020528943456576826,-0.09620794476307688,0.040515814896898844,0.002495388723659314,0.08916753254717705,-0.08015314096350437,0.09777163674377648,-0.02929647913481133,-0.04795811474140954,0.04428638292696302,-0.075728591299783,-0.030285599944465322
0.035243638847173936,0.053247232314933834,-0.08188268838549309,0.010257744064095811,0.06551655584004337,0.0401785138086784,-0.053264215370834506,-0.08114488974618644,-0.04863036539390045,0.04936485819909758,-0.07595994903803634,-0.06293280617072534,0.08104005457017022,0.06607993611628171,-0.03443099495965059,0.09471408042773502
-0.07524386825540184,0.001024831492433903,-0.01058632721501443,-0.04984603461680468,0.023611005978715904,0.02445424516654013,-0.09869988434571858,0.001383749708676385,-0.06959641346570722,0.08651856765609542,-0.010210272138727827,-0.02423121141126558,0.02290856974614537,0.023117329527951244,0.00941455563173424,0.0839002453559047
0.04806833008706793,-0.06559445105542068,0.09160575058320558,0.03464528993454352,-0.012099274971361124,-0.08308857512715606,-0.0803806525216674,-0.05358162847166013,-0.05859630064420096,-0.02893489102496352,-0.0767407084037381,0.06109682736474595,0.07939543588323258,-0.006419410747483464,0.029026672924357594,0.035792711737038074
-0.0559157576721687,0.03938635023044196,0.09904146752505785,-0.0646311440212834,0.012101344747752069,0.06304197276550907,0.08263014733454618,0.07955520799976512,-0.058155084879190126,-0.026433320415660266,-0.0625075943662908,-0.06582923732154436,-0.07260180679806826,0.035742930415604446,-0.018711879015659252,0.09162361317006298
0.0776912476215004,0.029287475815373776,0.02186211272137531,-0.07318212113633625,-0.03822701145014056,0.06835302925110151,-0.0844821090598642,-0.015008505916199955,0.05632844289989841,-0.01705539591726024,0.03250957000642665,0.030442302231165785,0.09851790641960079,0.05499897235934356,-0.0938032116155281,0.008607109505107902
0.05022333526094938,-0.013956512853977365,-0.0033215687352378814,-0.08985059542578414,-0.09966985294126313,-0.053967401211122604,-0.057478828804067184,0.036116356505535296,0.0430584046899147,0.017808018006357493,0.038526356571840614,0.03716589632610651,-0.06647693997988698,-0.008580054231250162,-0.09214373109511492,-0.0971219189408976
0.06647549706120037,0.05237251749139535,-0.08618702157789143,-0.018229551985259954,0.05006273484747342,0.03383078309965465,-0.07316817087656009,0.03933223444353945,0.08847401012800124,-0.09368455895510946,-0.07924336908477572,0.09994999029225016,0.06495936452198722,-0.03863577050836429,0.02038657788708262,-0.022380292249610828
0.0970721383530683,-0.06663677645278415,0.020031771865376233,-0.032906473777511325,0.051380159766965056,-0.06789498977423777,-0.06967864778729545,0.04712822596118199,-0.07486396751148552,-0.07400814906565226,0.05731294293814468,-0.07994195662336626,-0.05255647203440397,-0.017339304512636183,-0.09114601998559979,-0.09704787764956611
-0.05540070714942263,-0.08831607438908629,0.019624654927763524,0.01309483002817051,-0.07824964819625316,0.00848429447646197,0.03882550419670294,-0.015558592796347193,0.02500937333366432,-0.07906596512165727,0.09387747904747332,0.036065550896394044,0.09465701377879626,-0.09785871722698306,0.015719337291762586,-0.019794678655161713
0.021006425498282244,-0.027257067868269494,0.03706526636105806,0.05478632275072526,0.04486660054504912,-0.08317588449547438,-0.06506389638336083,-0.06348779295142515,0.036780329702674835,0.004271418360353094,-0.048256067805998164,0.05095458819710308,0.03685548736752006,-0.011729279505482929,0.06280098921951205,-0.04297168245871244
0.06778811497741985,0.018269806950868106,0.028941530144040717,0.0499551015904707,0.04130867648349287,-0.04087453305651992,0.028112272236839014,-0.05262107640445451,-0.030433954855443895,-0.019189028225208807,0.05348986496266658,0.05793444622911045,-0.0031942589713513103,-0.03190167506187831,0.0019493882940213314,-0.013904401047662288
0.0778772548028307,0.03075395021891264,0.02281613180426889,-0.06703638569405646,-0.03698973156680445,0.0401056583156337,-0.09171755592937764,0.02108494140447445,0.039541307333370246,-0.0954923743540014,0.03833398207612504,-0.0902944147145201,-0.003891736908292892,-0.03261256927273444,-0.07608184965486689,-0.08829547539483416
0.09607478220681667,0.09446337324616502,-0.07208691607968223,0.08405448599468765,-0.008912250584257417,0.06806947675023228,0.042498650824808915,-0.03131276656736108,-0.06060960207451063,-0.07064278020177733,-0.04154304502273829,0.08658430222193378,-0.011610463893515388,-0.08325277094500061,-0.06805402676256928,-0.09804432698803132
0.04601600050171012,-0.09426755780603127,-0.03854709324785488,-0.08355437962252038,0.044853118172914985,0.04552890850568647,-0.0527796390245952,-0.06096933402413936,-0.009478345575845412,-0.05307210477681645,-0.034966220250376726,0.03505245759504888,-0.07213429092189501,-0.0036934005156186167,-0.04794629267887605,0.0809672948517802
-0.08043371588519395,-0.023575417296106793,0.04438386660689775,0.0073362280273238795,0.04072946623979934,0.008157736079295125,-0.06492140627358828,0.04018429808965385,0.030885945340133975,0.012447300650216403,-0.037565228134289134,-0.06828724679128939,0.08280957229639219,-0.061610438916943844,0.08695403287920545,-0.07712909120750251
0.07911850870994355,-0.04654321466307936,-0.023966179698601306,0.040977766700469015,0.017814387058027223,-0.08844721525074624,-0.03509078791780529,-0.07995965062562004,0.08299788434871078,0.058654198820414644,0.07334937007010847,0.08199772862450772,0.09112718227704455,0.034479735565955794,0.00333461210524591,0.0677444247577613
-0.08509895151605712,-0.09918854375207707,0.09798751798881658,0.06657811961413546,-0.055693683441820734,-0.060502392958872636,0.08734451980237207,-0.08511544782150067,0.09550642521404695,0.06764237737601364,0.029424205155058225,-0.022815821588890145,-0.005116036034790494,-0.07274660960704221,0.07685993998080246,0.003185636109771073
-0.006967344231862627,-0.08908507503599941,-0.022857005447844442,0.025067136928248746,0.05236161290833882,0.0429710617016453,0.033603376797223805,-0.03196940773714643,0.06217377800321794,-0.03421396374996358,-0.05492916078681194,0.08335392062885424,-0.09724908816434577,-0.0752512630315662,0.05247877127177958,0.021335551670562072
-0.045822982435399534,0.05621780400628337,0.03587638286466757,0.07611710636479455,-0.009716663372556028,0.02946879576838446,0.00675539472691189,0.005213656051028706,-0.003842386990781682,0.03729126224844015,0.08557256984906447,0.09364983559994985,0.054276326095011235,0.0926813416558031,0.04329364684199816,-0.0905586966011591
-0.0941258484830549,-0.04978411321486829,-0.05250237996706084,0.022623679467066407,0.09477284875171985,0.07111012046324389,0.0866019300157441,-0.05132128398576481,0.03236883805916729,-0.0784909237305746,0.07254442958505905,0.02454093169328901,0.03863236337863643,0.05205194101188401,-0.09906202298574546,-0.0849917558121845
0.008726443555734778,-0.035985417950487084,-0.006074110601752142,-0.042358546518558554,0.013606661046881796,-0.02932237536129266,-0.04094493753376134,-0.0770569541088037,-0.04614193930265314,0.05886981538655428,0.019264256161904886,-0.051245035658689944,-0.09321878207441514,-0.06214149895784622,0.0738774554812647,0.06552188114370974
0.049075420312817336,0.0021596860793406114,0.0743603015229356,-0.008130653176618208,-0.03415815516710789,0.08426083066709042,0.03707280651243278,-0.08657781121941516,0.06126799536583458,0.042380763853336945,0.09136729562619905,-0.04767161744445983,-0.07722081189615311,-0.0987540256510408,-0.035543387999657436,0.061514429039864316
0.035090182693139516,-0.059892243859336294,-0.004597901603494797,-0.09298177690164824,-0.07349714282938867,-0.05903166697709177,0.0949501133913149,-0.012722273970013867,0.00228499839857961,-0.06026966517217239,-0.09529779590270437,-0.09657002996292768,-0.0020696437404406354,0.08842442729423514,-0.008277211684774605,0.025452585579533976
0.048056383673724945,0.005982100976691454,-0.08125292364452588,0.09511806902704745,-0.08046894628555673,-0.049481501873959416,0.04823962448333913,0.04574642427352618,-0.08763223881083118,-0.09265177079636217,0.08427494883699532,-0.08207354981032343,-0.07757164209237158,-0.023405808799737818,-0.033999602529850945,-0.04201903146249633
0.03347214469716703,0.07192031570492594,0.023334800253577995,-0.015163897002590715,-0.02947605354666341,0.08327351110877412,-0.017312555396731794,-0.07521988164954224,-0.06654787278795227,-0.04627066453891196,-0.03274880493534789,-0.041984524926766034,0.06230682937429091,0.08904014290304937,-0.09404386550465452,0.05363528976518808
0.046348551260277704,0.05986728694205004,0.028294825508094867,-0.04884873649393711,0.06539455344131853,0.04325049099208275,-0.0916790367359745,0.09873175022752309,-0.093861344145708,-0.09917687675217164,-0.05740135446285841,0.06114708150782394,-0.07260467390652459,-0.04993433896112301,0.06772057209474155,0.039691654925602005
-0.05148459706919766,0.08581369132869329,0.006716920716765176,-0.012731019197266907,0.013660482153542722,-0.014151873030461642,-0.06571398330853034,-0.03781932665049768,0.09000734822205961,0.030526219938523086,-0.027230863361297694,0.06603225863596363,-0.06807532570731363,-0.013487938949213435,0.05841085150165373,-0.07632759230199855
0.029285987527583213,-0.04839300797447066,0.022826423855441508,-0.06553060595617824,0.06845389894901208,0.04789226116966436,-0.05226678961667952,0.06439169412522436,-0.07006194843509135,0.04583423819836663,0.08425317934653548,0.058222754929445425,0.09406286621196427,-0.0429170067969042,0.05918393272604586,0.0030692787043787167
-0.012629845080724442,-0.00949665059888985,-0.052479296619584885,0.09528726648451527,-0.04576117531432289,0.07998916452696944,-0.019324761099508342,-0.020510762232556518,-0.027174349591102973,-0.09307763382209655,0.05568235909131189,-0.06338110176564,-0.06316877334574603,0.06499107667129586,0.07057184047601003,-0.01915585260966668
0.07449830641995625,-0.03609049572763534,-6.025985392899003E-4,0.018163673458867602,-0.03164637646526676,0.0804734148283281,-0.09734811602990504,0.08961771565766394,0.05407548929062575,-0.02256332618171561,-0.07975919485244348,-0.02459205852608133,-0.04660377316408011,0.03166366406613713,-0.03985006597008065,-0.00235339929377254
0.04190436006945547,-0.057500025616575925,-0.09494630794359722,0.054569119706241925,0.04325085504366935,-0.07408300633477477,0.0027728415942143148,0.05826522547559951,0.06188087658406741,-0.004682214239328769,0.06444777090809856,0.08890066598144464,0.012455257400271452,0.01520731307816095,-0.012928902407779039,0.04236597471552869
-0.06453677721148054,-0.050386070988236935,-0.02398332423893526,-0.03488599578720104,0.04499546115775399,0.032431466881221144,-0.054055260197474024,-0.07452996116061224,-0.057643310512188496,-0.07284700755446219,-0.07094085255119482,0.016815960381432293,0.06644237685065554,0.03199192340265361,-0.007817208181692112,0.08129027523489188
0.07135965267697972,-0.01730601539739711,0.06940575938851992,-0.06879630659816632,0.07132600161057484,0.02801792468487474,0.05538327797663875,0.05753039746853755,-0.09817831910997771,-0.06196002800294818,0.07498628050633155,0.060925912936784454,0.08653683470719817,-0.026779430489479603,-0.04245645008838415,0.017025944215909486
-0.04322356249075197,-0.04705536873967662,0.050057313784313245,-0.04283851041921354,-0.008215182848522379,0.021487331874522717,0.042779075369862724,-0.05609111551408459,-0.057774230309575604,-0.07118858758835525,-0.08787147229614296,0.049959155772361624,0.03339464543184098,-0.08950266944842339,-0.016161044230874014,0.02104913859376492
-0.06902715284858868,0.05725802976561431,0.09525818108780806,0.009797332250935445,0.004949296561009439,0.07641129687870371,-0.07665717087091084,-0.06746190246195966,0.09799517916544295,0.06345443224778902,0.03789946241198813,-0.018109271920912023,0.0010002132784983075,-0.028918858916403153,-0.061078737046988435,0.08868478505112487
0.015496476339306689,-0.056558220512337304,-0.011589520550745996,0.07072132456096755,-0.07125952603565139,-0.0013325588340225708,-0.07775855979994895,-0.09820034557056677,0.0240384845249825,0.05465498335903407,-0.09684558513458488,-0.048514959549183036,-0.02278556093692348,0.07584801651834547,0.04266400072423454,0.06857088446853357
0.09239272335190113,0.03406553828934414,-0.019226264866978676,-0.03125533798662217,-0.09794772065849806,0.05468223983178025,0.07974745928309654,-0.08127705758446618,-0.06575404317718539,-0.01901698148680782,0.0878399065908306,-0.03931816731526963,-0.013071117344477676,0.09137172614868191,0.03916755670393812,-0.020955072429915386
-0.008509414100384013,0.09661697655044965,0.05248956054610493,-0.055131428518834416,0.030651557571365895,0.011751419893262852,-0.0454423968360576,-0.015029149009296125,-0.005023391605283117,-0.04340052402294925,0.04756415098016331,0.028616410669775105,-0.04733064825347684,0.04433687703747613,-0.061338109534223695,-0.0929559606667275
-0.033878796648999884,0.05303917411741779,-0.015549204843878187,0.09330047045318196,-0.03028336395559386,0.008781530341171948,0.023997805552112172,-0.03482384818306593,0.07865528231752622,-0.07892372872657138,-0.06051891470644424,0.09032109422030371,-0.07194144896195959,-0.05928581396625579,-0.022298619939050288,0.0539847224054997
-0.0053449770000066205,-0.062025570824799314,0.09049105183830355,-0.08670543327531677,0.020730522235495805,-0.005587081028764845,0.050105098202007065,0.09526618341628207,-0.09485741466618634,-0.036890284006702787,-0.011036635998742467,0.07849089798135106,0.0795796715188348,0.07905931602048127,-0.014636726810240266,0.07911926035194508
0.02878429693330059,0.06238169281096256,0.014519429934139766,0.020801695195099112,-0.07476080081713649,-0.019043422176457422,0.058814642274025414,-0.014963785971771143,-0.0235577041943075,-0.017294946708243192,0.01853255847167834,0.09586570291119642,0.06319484645232806,0.05534706748579413,0.038298101174240345,-0.087995846029088
-0.04611117215497558,0.08754569900978806,0.03818177780948803,-0.039788827995087074,-0.09060602580914873,0.03416038649370362,-0.05991372892147931,0.02250056194322407,0.09332616586500361,-0.00429011113990016,-0.060237929583656306,-0.04415548129840888,0.07583411025170714,-0.01736335013314408,-0.008756241740145637,0.03451680032885596
0.005316366558804603,0.028709777541250925,-0.0268494999665132,-0.019477022318106413,-0.06030062442090296,-0.05112125339874625,-0.08100274243230017,-0.014281398844345011,-0.09576668005680924,0.06091065616131072,0.02566810574068079,0.021884017819142704,-0.005092026946488776,-0.032610900131806383,-0.03494414954887935,-0.02331204112348599
-0.04743453565579288,-0.086545511165468,0.0910465061533616,0.06626100852670358,0.07360997743054631,0.014091072043904695,-0.057562975623872054,0.0976084705027121,-0.07607579446109801,-0.02394637560631034,-0.052741331993170104,-0.011080976942083792,0.07414544030015588,0.03256737988862468,0.05938296415341959,0.005813448089873122
-0.028667281858343593,0.09669900641473647,0.02110449030541206,-0.05488718472887882,0.07247494835917165,0.03917891742717369,-0.061720424422443854,0.04112529334414766,-0.05205674153315936,0.054677006125781386,-0.02208432532164506,0.08548991253837462,0.0912999495714027,-0.02153249651984583,0.038494187766129756,-0.08139419353655948
0.07673312812791458,-0.04902305524587694,0.05366291651777541,-0.08510628794855012,0.07983022195162465,0.09814416939983303,0.00791106280296075,0.09212869722564473,-0.0358230681646651,-0.07148074261251275,0.09924695714320295,0.05150402128819628,-0.00956292833356795,0.09443969267481198,-0.08339186549158287,-0.04887335275756748
0.09667597546085802,0.030924334811889553,-0.09923184622833403,-0.011593337774583962,0.0922261495414751,0.09184670200352515,0.09589569256968342,0.08163983084114479,0.0836073141223391,-0.01756309267021257,-0.09834794094175817,0.049397995216876434,0.02814191042530939,-3.85104480783105E-4,0.020552687512205556,-0.04894786484254483
-0.08073437318622788,-0.006607382841524775,0.08883656804008636,-0.018599570111398456,0.023332396970379338,-0.017138625392218554,-0.09179785308170281,-0.06851928476007715,-0.05360583501561052,-0.008929515841639396,0.09141808796656234,-0.04208458453973112,-0.07612536727729398,-0.04443687007111277,0.025173089039219915,0.016057320619930412
-0.06282174371367535,-0.05068695564445085,-0.01152249254489808,-0.09071279786742888,0.050368613614607594,0.0569711356484649,-0.03303081870268816,-0.05273917046918702,-0.08741591700362901,0.08146406287984445,0.05292234407609339,0.04925722515213973,0.04687817266735267,0.05114160234392523,-0.056663605920274196,-0.07255371087577228
-0.0260742280597607,0.012352670588903963,0.04117214522080398,-0.062482388372853095,-0.029069750789405865,-0.056073518271361755,0.02200443745127971,-0.09214046416255378,0.029283150068272645,-0.07622296361060171,0.08316849148066957,-0.011508467759018856,-0.05595678399923035,-0.09764110474786543,-0.006207794744842204,-0.006852696465117464
0.09706890685883349,-0.07573811918611822,0.00439875450287619,-0.042002331756373114,-0.05412586275375484,-0.09355128142383495,-0.07590144664419457,-0.08629275847093215,-0.07988729462944524,0.07768902700243796,-0.09751090697596863,-0.018219074922809123,-0.06442595515424754,-0.08525052919160066,-0.028224237079361544,-0.06799323667259266
-0.06907580506733127,0.026402141986816063,0.056520029649847675,0.07183875159310513,0.043070981039991074,-5.147544825333944E-4,-0.013115106786514091,0.02977047372741745,-0.012219199268002592,0.031278579808850376,-0.037133549639680616,-0.06141054063999292,0.0904654744531653,-0.06310320512076734,-0.00854532679017006,0.04844270437975712
-0.03381041425400606,-0.042729566079131524,0.09172790920964913,-0.06571505571976954,-0.09154342154348215,0.09715865657827877,0.0897722825774617,-0.05911858454640939,-0.013503029724481835,0.028197744920516465,-0.06988964833857653,0.07192036731792156,0.05623800267589474,0.08103620173362541,0.0358168098769604,0.012421251895831278
-0.004889849279512526,-0.09560948121644992,-0.033037237915999995,-0.02572653859903387,0.03768034817113447,-0.026889069907963026,0.05532825141367906,0.036742845564805615,-0.049849194861435665,-0.020380510991103343,0.026732958662521483,0.08147040206661726,-0.01487962113224299,0.04097584906515406,-0.06838684310952567,-0.020666093556838655
0.031702466538784835,-0.0012062224762154905,0.023427213072756234,-0.06548802280558208,-0.010552238763128344,-0.05630746454536435,-0.06905200616273821,0.006575155522057827,0.02517074563249691,0.0484735819701721,0.06931024005498562,-0.025664868517399686,-0.05875238022623841,0.05076348803807526,0.018868418827532277,-0.022255307396503762
0.03441043851468875,0.07598268859097046,0.02337210115753212,-0.06038308667553021,0.04564746107574802,-0.043687262940215944,0.04617149142352481,0.05620992836062391,-0.06363414309009614,-0.06230591511579678,0.059103401514658455,0.02434655979558878,0.03521966703599019,-0.013656070885351104,-0.08579815489726106,-0.04298551392954784
0.06265109917168088,0.019188953080756715,0.01235107924534011,-0.07757279713945187,0.09549963975149331,-0.0485247678733372,-0.029501040867590853,0.026022159124706318,-0.018632009824023216,-0.010613635383483783,-0.09027946585795224,0.020749744042373994,-0.0934909845287765,0.09309043191648761,-0.03402782298584106,0.05864570791314677
-0.08129493882982373,2.273810827072148E-4,-0.07809618757549955,0.07983898747433091,0.05312156927152839,-0.004384871638557525,-0.023995621692524963,0.09807072464486152,-0.06373275187697225,-0.06657193466378086,-0.08589287444905432,0.015553479716098773,-0.04377599289506873,8.408388720580612E-4,0.032491630137668676,-0.0858692586913181
0.09397662701595919,-0.015439133373340866,0.09976808942205476,0.010875002882863402,-0.050969025833884456,-0.07414066391183212,0.058946146534254784,0.02586250084089453,-0.06114021164302561,-0.04272998632403291,0.08483176878063048,-0.014626221858175775,-0.09482711275810458,-0.04049990108240329,-0.052922742618637324,0.007171855978744743
-0.03679803979043961,0.042996615232930246,-0.023721269135285675,0.08854622794850858,-0.03729971043014062,0.05550466519111591,-0.015016104246450251,-0.01090752069661663,0.04057485825851789,0.01576627152890578,-0.028388083893582647,-0.0332342574486956,0.06821459070229743,-0.020675459319387676,-0.07003276658250011,-0.042409471157933476
-0.08695855849351566,-0.08775020492707418,-0.06019347007998752,0.09606814925947055,-0.07412198590973905,0.0816657831260279,-0.09909058159105309,-0.010599882695057822,-0.08189724200633915,0.06271843776194885,0.052367624445636696,0.056490945201406045,-0.0980933265148829,0.0670589245585215,-0.036767655556213974,0.07409717452196751
0.046268268406023744,0.02675766852446171,0.09467388769737137,0.007816608046163687,-0.022256718078295615,-0.032484830719687774,-0.07012367594761067,-0.09591520648012308,-0.037168197122547444,-0.08008559735977441,-0.09987245457411001,0.02751696884805055,0.0030097882013306043,0.09809786677479729,-0.05480885463375765,0.054177630101111235
-0.07775332940699578,-0.08565785680395371,-0.033680129722769014,-0.07590865148048152,0.03951087376742188,-0.08631826364299378,-0.009378323746301348,0.08361741916427076,-0.07810350517858478,-0.027055944374130378,-0.03783664368410305,0.04047694968772217,-0.06473866037556247,0.017670606515375914,-0.026650273815253422,0.08115351491017073
-0.02894464231772205,-0.07357206145816304,0.004783229934393132,-0.04108237158998425,0.03879267997453259,-0.030675779138859216,-0.01768191294044401,0.08512123927050744,0.01522306329986041,-0.07257798029844548,-0.014483078473744596,-0.01917338683248619,-0.04947977429748438,0.052815814478242074,0.08562666135654662,0.047007567414426465
-0.07449262685828717,0.09939316259863837,-0.08811069160490609,-0.016272448091388683,-0.044280371752067005,0.07348974676562026,0.08854869485755731,-0.07284338701759825,-0.05057654492609094,0.07244090928841768,0.004702848401456891,-0.05439889856991349,-0.007567570169502533,-0.020412528811816405,0.07964020454044177,0.04068433629855028
0.012561536365154627,0.022271741800598946,0.01250257235875854,-0.060494306805609036,-0.030469640001701742,0.03814846063331942,0.09889214996061321,0.04128340223835014,0.09603211647499726,0.02831510592565828,0.024730175273342536,0.04596642188819494,-0.01993936356168144,0.066993774853715,-0.011909676966748134,0.09431035578587119
0.012887389232240504,0.035158408579550826,0.09793954808319671,0.03372102080499059,0.03865186878445018,0.08438314530178262,-0.04434461052799976,-0.022484828594749623,-0.001994435705621189,-0.004945683468818435,0.05688959887788533,0.03699319307214324,-0.039930094612424964,-0.044657459003631585,0.06099294660949628,-0.08229392899677666
0.08812797885558246,0.03456943194906237,-0.06533064665640412,-0.0774135968594184,0.011079038982390557,-0.017434187913468138,-0.0146353279033766,0.0572928757196324,0.038125693461946164,0.08963545685826799,-0.019704908480421862,0.02573144225334295,-0.0228977932050205,0.09806336670355598,-0.0183169413974356,0.013487586803278398
-0.008989774995497316,-0.046667839968645874,0.0203233010837071,0.08761416702648639,0.05909854234347492,-0.04187509678198205,0.01867963016871177,-0.0236365335361048,0.06712925487658733,0.023364003370148018,-0.045010788661377116,-0.09583286632338311,0.013240304418067589,-0.05738104080250868,-0.015061250779413421,0.08811134552677446
-0.014323576032092597,0.05933885418113277,-0.021259453774196996,-0.07701299417839982,-0.0713918577837295,0.04063630178972727,0.0630811962762127,0.05521919365122882,-0.022643957543750523,0.006180158472785996,0.024007539994318663,-0.01240997790798018,-0.06405712087500037,0.09121615659947208,-0.06365930339871989,0.00932229352953895
-0.04099780657252941,0.019344866318494996,0.02755458969022434,-0.09213488429408104,-0.036098038940376706,0.03846179363654065,0.010595804567709477,0.09317324371934385,-0.06642241023281639,0.06832351844438786,0.01268145035144179,0.052187169379256576,-0.015699830791654268,0.09585113609361876,0.058463895014476325,-0.030756034555981124
0.08740652561842072,0.02023749920547953,0.02656390412820761,-0.09004056048062384,-0.08197956525290323,0.08481650721999973,0.03694713340356526,-0.08422751209608609,-0.016359062342579694,0.005631080412131367,0.01751910800823034,0.014654654339945478,-0.06877353662873487,0.032448392479591,-0.06241278458511659,-0.0678394926211296
0.08534680799010083,0.022189654663658923,0.09385277954830604,0.09142551122417505,0.07537582343131141,-0.05943956374811854,-0.04344924416526404,-0.07022172719263231,-0.020567523398193788,0.06634076317119292,0.037538438047343026,-0.04582239803600763,-0.08504747046128672,0.07493634932526125,-0.09692888569227404,-0.052352485172772
-0.09481639532400597,-0.015862527720519146,0.08675904500540296,0.06912933692567577,-0.05750662850249375,0.04565404146417451,-0.027966443967605545,-0.04588161632738992,0.08266845452582058,-0.07739393355608824,-0.016413626317898028,-0.030259886285582252,-0.07511023443914722,0.0016512380090964174,0.09433130980044385,-0.08651279473584282
-0.03166476053893408,-0.07113716047726702,0.0528303397062084,0.039950682490233896,0.08103032942700308,-0.054410674162996164,-0.01736267011332135,-0.014428962845982052,-0.03879990080036151,0.06901418256245276,0.03775150538110944,-0.01684190242252674,0.02030095735144022,2.379132078319246E-4,0.0813624932698778,-0.0892135252200817
0.06164745029340854,0.06491263250617477,0.06314117958410953,-0.001215560599537563,-0.09684238710656518,-0.034027949258486026,0.06086442969527456,-0.08216953365115859,0.06157328700202119,0.023299150815048603,0.027059785621191212,0.05328356486077615,-0.015312089524114753,0.09550449648219714,0.04603195593124748,0.01719680785210312
0.08568440966608429,-0.07545999375583745,-0.08375577255564735,0.09407027086051134,0.09352882966047946,0.08922375488611825,-0.08828023584063226,0.015912192129608954,-0.06478547307976479,0.06461547919121446,0.09029260772655032,-0.040053061255276995,0.09243941204797365,0.023928813285216982,-0.048402765121182426,0.05116436148062814
-0.0409981007419195,0.030990082300459243,-0.08721114526711032,-0.037037009446239555,0.005086764746386738,-0.022275232900753172,-0.04043771539710861,-0.03576999938762611,-0.007610451829115905,-0.005465811306559501,-0.007930336373006414,6.992185796076134E-4,0.04067177913577502,0.09390557632535745,-0.07637518119797203,-0.06848867454104075
0.03488558306698969,-0.0851574223370025,-0.009396824158225542,-0.014417358356516918,-0.037201697631053104,0.08299437117797512,-0.09759708189336397,-0.06146194929364029,0.07623825425502737,0.08104765913338374,0.026182749900284075,0.0748743669929347,-0.0947206380366968,-0.028425019486894423,-0.0016019898978032465,7.197495746270322E-4
-0.044575416267188354,-0.07297799500998864,0.032077251681076446,0.028464685024414432,0.07206188395289467,0.020205959761103134,0.09444460129715551,-0.01710187076867438,-0.033715604158022994,-0.05406198817991928,-0.09246465778948841,-0.03260216237761575,-0.07030888261923623,0.0974729482003743,0.08598774547315954,-0.0655162239739708
0.03284683096673141,-0.07204994945851784,0.016533685090431405,0.016592555343829613,-0.08528444238633004,-0.03699207105599259,0.08325064043699798,0.055592903231518415,-0.040309000785004684,-0.024144255074735693,0.03171987603446563,-0.08633616922219167,0.07408257096036416,-0.020594519292140318,-0.04439949901563596,0.057858533478320234
0.035289963480034936,0.01585187937980051,-0.05302003639207964,0.05523388905063428,0.06160218305959647,0.06940368013734949,0.02119891679736033,-0.07375179123788925,0.016416725487204326,0.003551136997423404,-0.08129700494722232,-0.034073224408389,-0.0636593740577111,0.08016052709300733,-0.06327757238810372,0.060452926075759666
0.05411904187191391,-0.043471343292006796,0.050807275922066464,0.07320568450104611,0.07576020488817067,0.06449003676561879,0.03721012025225612,-0.06374014200257545,-0.05137567157306031,-0.024259257935420345,-0.055967281342586064,-0.06978723823138809,-0.06973193142601064,0.05442852404052237,0.0265894691272322,-0.013676893873771204
0.09148486690824109,0.029770788111569912,0.030907870940699328,0.03053289300353243,-0.07206669876102534,-0.02763866738672964,0.02350351365519235,0.030969712054140175,-0.06117913552441434,0.012552756397665357,0.09842979623526724,0.01128528936423949,0.01207472655805393,-0.029636699826318183,0.0602081232212614,0.08179886409927306
0.04916748525129172,0.056302093468959064,-0.04200761738093191,-0.08352109560594803,-0.0636091110099154,0.03315874620496201,-0.007306309391616472,-0.042620574040947434,0.041408221300733516,-0.012937331559887078,-0.05023690722355061,-0.08684136327786891,0.0195272883366141,0.02513547239805558,-0.008896712574328183,0.09194359947379688
-0.03518504286598041,0.03713472770116316,0.0874509141041944,-0.09333952916310989,-0.07397612474345104,-0.02655400647402316,0.028147238571754413,0.032020444893066186,0.025599476287512413,-0.005564855070912908,-0.01494075796119572,0.02819038664031298,-0.03862720168911489,0.05969750732699716,-0.039971054213401525,0.0010918062352069657
-0.068074448449774,-0.0382767910206429,0.03345986943613438,0.09913345937410908,-0.03958263011782886,0.01721918230702628,-0.061640443268203865,0.08712879069310758,-0.01311009337852724,0.011799239185869295,-0.08807972474216151,-0.02256139456324957,0.004488750587469642,0.062169750046376815,0.04980735086854457,0.02617278922203059
-0.09430863191668637,0.02349451769347799,-0.042820327054411994,-0.03489932887616157,0.06670909098940989,-0.008030344147934534,-0.08933941737956491,-0.0078946921720469,0.016337445726112773,-0.04830019166511077,0.01163483173692155,-0.058192848863470405,-0.008144839476896232,-0.05946348700811919,0.081466718269873,-0.03521795771441982
0.02668447888024239,0.031023630207895198,-0.05617368801577771,-0.013294257350212085,0.07747832665452109,0.04250678271055433,-0.06179351077245892,0.01554660773531999,-0.09491915002823065,-0.07129957779200763,0.08591387032886252,0.021869211403401284,0.07834729980543623,-0.002847882914762165,-0.04162802853950041,0.03463848444196155
0.030770629703314345,-0.053725194128179644,-0.02846393809878582,-0.011209624493185369,-0.06238821505316394,0.07016017110205447,-0.017898126717259807,0.025693096668415155,0.08846883428203567,0.04664751712449497,-0.08936561769882839,-0.05709843382326632,-0.07289938336148423,0.09248637209212393,0.037234505318691685,0.049874134267376274
-0.02054674619070404,0.037398529352287074,0.0324731637030386,-0.06129329601761915,-0.02111902915832556,0.07562746310408311,0.045881870083225446,0.08453220217431376,-0.003966535114618933,0.033546045368214206,0.032706716764102306,0.09804842775813893,-0.05166413701819561,0.025823158293926674,0.09488813505706939,0.09529474520491338
-0.07301471098726248,-0.03698078268320751,-0.04851997928477647,0.03851930015652846,-0.03534490691481483,-0.07101441957583812,0.0045715976080962645,0.03782694459658467,0.04322475013669408,0.021440048042096427,-0.01873694952010256,-0.017467472368317805,0.031216924634447307,-0.05416435118349532,0.0580532201467053,0.04723232483964293
-0.02575086513138887,0.05855887191087633,0.0045329388927934505,0.068567037319061,0.05623544697891095,-7.575103359060698E-4,0.04958960930227668,-0.0556694046679721,0.06833308632570395,0.04281978947489842,0.0701873889768061,-0.06436312204148927,-0.07454742367072242,-0.09980133654549522,-0.07283496231877269,0.09805246014417371
-0.00975867258422873,-0.06009523831344892,-0.028955666362089266,0.04043994085222122,0.09668123071944046,-0.09084834083398426,0.06422804831358694,0.0812673811723211,-0.016464307801196648,0.01640168656944445,-0.03947156947872992,0.07585159487654239,0.07338997453210308,-0.0950912318293115,0.05793818308582069,-0.011144928841728824
0.06613182330551767,-0.09073454915480415,0.015113073113800612,0.0461144392174391,0.006282689014095094,-0.012832409187084573,0.030236349520952305,-0.04054414297097682,0.05318647579931321,0.020402057896026185,0.03564357667899559,-0.0375091395386586,-0.07885550580374245,0.05219738058151288,-0.0037270951628282506,0.05745198940359622
0.0669267147409715,0.03692845783401791,0.023601747326553818,0.08273114179874441,0.04276039530457926,0.008073422677870562,0.0059971700077130485,-0.002213929757849148,-0.06862473880654543,-0.08760872428075667,0.049997697859493706,-0.09773511756475702,0.07385432271850231,-0.03340032824410759,0.046274539822307836,0.037821320906444134
0.0435614711791773,0.030598368288217243,-0.07872820233775704,0.031123493367545524,0.03907562809771059,-0.08858366456943552,-0.027338833986983807,0.03646790133549907,-0.03772328782152961,-0.06040909218045161,-0.0157437966893907,-0.02335889391794599,-0.0029045420276637285,0.0252452147554324,-0.016145236075460076,0.025203404748934954
-0.024269997015714015,0.047566493503469004,0.09694536360818626,0.056916815354211336,0.06574150543971147,0.027977872195938364,-0.017420287832539974,0.06284537992323211,0.04306731948748349,-0.08345477581301469,-0.03874345160306301,0.06609532005264593,0.012140658509192187,0.07853000732609858,0.010665844043861838,0.08301933669417552
0.09456148230279682,0.060237669865671556,-0.0200061085540785,-0.018084365559091653,-0.0051811831464260855,0.09711491586767862,-0.09245396405136362,-0.0017291075577961779,-0.047691030833698946,-0.03765789899881984,-0.09668034273194637,-0.062435404265086404,0.013354258657682389,-0.0033244437807438826,0.06260065465637826,0.09885944064395455
0.0776052943789422,-0.06333469881044035,-0.0492549421113963,-0.06891322985957933,0.0781013544602398,-0.06553235541610059,0.07315703354961042,0.053902328289723384,-0.019201089629112045,-0.031079772592504787,0.016225828120849203,-0.04961662965407359,-0.04543180478634812,-0.005579563894448872,0.019998572864040984,0.005740426873281773
0.07885508178791434,-0.018151032608587664,-0.08892716618360688,-0.055500200003931216,0.09055882590183512,0.034593349270628126,8.334253745649056E-4,-0.03575898535728854,-0.015983768897543188,0.0027417849672301264,0.032861596434403006,0.02918164217860214,-0.008899527117418399,0.011153422336845548,-0.07088113741554561,-0.048819699405340214
-0.09075565244634974,-0.03709893901785953,0.07032188213167259,0.06242679891989461,0.003592149875532108,-0.06662042711240623,0.026532829375589234,0.08074696369707832,0.04638065651310799,-0.003817011293895889,-0.07026972202804915,-0.07500283497048837,0.03681183762962531,-0.06636937318715525,-0.08794085615984484,-0.0025702936530811876
0.025212354644457424,-0.022826519106431964,-0.051967693639965964,0.0348826628066401,0.03949076946851482,0.0726064054409431,0.059058410014042995,-0.050629838549837096,0.039834674223220734,-0.016046941758925473,0.015541396247054598,0.02174325141890343,-0.0049223154980805595,-0.09785825756346628,-0.09378067102278616,0.03460603182034905
0.08583038755444508,0.023076406903081353,-0.010822790141218078,0.04187910595166092,-0.07054344833015358,0.07098872072262127,-0.021007510753437958,-0.05592527083534913,-0.07816363248614736,0.05810942057783858,0.0676299869254687,0.030946935474904708,-0.08060259554780043,-0.013613516184888402,-0.0721844482640069,-0.04366437533250916
-0.07662491810114301,0.061442378526193164,0.0186302003460542,-0.08000063534142879,-0.04837627429982743,0.018643020170188568,-0.027090029285708625,-0.0700833329398599,-0.030536485593769355,-0.010006038449430849,0.028697837057022724,-0.0036936968451844188,0.03431487475869294,0.09752054392555365,-0.024619913321082043,-0.06482392463592315
-0.0999511583623241,0.06135846618052854,0.08490364932746805,0.024321892413767338,0.06433474449386575,0.0033906326442258578,0.0027064744279641506,-0.08089035940751033,0.011272592896645686,-0.005587677847810696,0.03038658161075153,0.07341011631932282,0.01982750362928805,-0.06351219739745502,-0.002146729081374879,-0.09574805787578602
-0.0958369220862137,0.037236537381247076,-0.09622109714564626,-0.07211374218467337,0.06041005975156216,-0.08893238419509507,-0.004820935075692728,-0.010780179125497294,-0.041698046346917234,0.06614531949656088,0.08619760903899462,0.050023698458512844,0.099725838843889,-0.04687810845084517,0.007856053457768034,0.08879751018265739
-0.00977434556002199,0.053912596432991816,0.018750649187847038,0.09617797512230361,-0.015064877686420397,-0.04885014565060604,0.05571241147384165,-0.07828807960385507,-0.07394966883901155,-0.028957780778263165,0.08121038655160645,-0.0567569414899902,0.06305289617016246,-0.04009280133156326,-0.019755067198327828,0.05308091972646256
-0.003097680979759404,-0.02551491358092317,0.08740011606113354,0.028015353979377905,0.04341592114315437,-0.04977162814503211,-0.03672938643317991,0.06346933981724553,0.06543852652653243,0.09170178840016904,-0.07034315867343224,-0.08096049466671776,0.08275973254979282,-0.05053616442615727,-0.09815303059994321,-0.02508484732630012
-0.02879652327871844,0.044407085619502795,0.027558005801968682,0.0412262450405064,0.05575446465571485,-0.056690530242567455,0.09050749244595052,-0.029121276093028836,-0.03471826408575511,0.09777709212198826,0.07090073655844473,0.058870692091644,-0.0016333192534583596,0.0816237882892194,-0.07969467818083474,-0.07662018886380398
-0.01639165829184197,0.09760040960244559,0.06768788838182235,0.08484619012042244,-6.799083799846617E-4,-0.08313434851239224,0.07364521519027586,-0.03921771107053669,-0.041002205250883675,0.04263558742950729,-0.005584159867537991,-0.0645387286825509,0.038778989830564214,-0.06069974634475368,-0.057203307773649174,0.08721409935515823
0.022631676548340085,-0.03473218062794432,0.05581318615506478,0.027942155333501528,0.026168993624195058,0.03227772945628271,-0.055998158079444485,-0.07448830220851987,0.08242389038601139,0.024694731886530014,-0.04420936754963119,-0.07148820508196044,-0.07670649424248864,0.032770489860169755,-0.0663160519152976,-0.05172747267523419
-0.02852655790516212,-0.0967389747344563,0.08706212495434926,0.06322623422420212,0.0653132067427753,0.005363831317726414,-0.05590529637667055,-0.058622485398882734,0.03795053250375857,-0.04685939299590883,-0.09403619902261667,0.04327059416086959,-0.05683801407030431,-0.06257206417452049,0.037809073086717465,0.023392371252498892
0.011934282784836284,-0.05412297040432395,-0.038280596620435814,-0.09553464724549941,0.04621256052458844,-0.030380186233322642,0.0606501444313412,-0.014348360384931147,0.04006214217169762,-0.016070616562552292,0.018365698909026867,-0.05134590716254728,-0.0432180695282105,0.03837848695338808,0.009590076349105206,-0.02659540828580169
-0.01728169554402678,0.07773109851357035,0.04259339718103816,0.09342369260109035,-0.0045168843129066855,0.06047899408099197,0.07047513944234046,0.08962400072280044,-0.04363416040218582,0.0807535221943407,0.09578604464854654,0.030371018070071698,0.04728753021381649,-0.05911127651122641,-0.007267213517226839,0.07500814386608509
0.00984089156673526,0.09454638021610592,-0.07791188215556533,-0.06948655907746522,-0.047896011323412216,-0.0832779512338502,0.03546004263020522,-0.09204685356553421,0.07185978014848304,0.07108055281656803,-0.07478951577859257,0.053834635757637445,0.0242078453231295,0.03479914907626827,-0.017481749816661132,-0.042418912375432716
0.03300742749667379,-0.023232414839554585,-0.061113000541452724,-0.003646968639399034,0.061941883253922775,0.07235733948227485,0.01489121187763627,0.09526069206508592,-0.03263390221715039,-0.04038561725891854,0.03416976294638707,-0.0551187781148865,0.034390199199751004,0.09721419161549708,-0.09792377493110571,0.04134107040796381
0.04817885893765367,-0.0346874321838959,0.01454816439678637,-0.0014307172024653758,-0.044043792876343725,0.02008454773906318,0.08910607810711876,-0.015137055775456584,0.05517072507983878,-0.06856052085494964,0.07314555038936815,0.09951480768979146,-0.09108501165738181,-0.045253714553574964,0.033936207799425466,0.02175445705067669
0.04977903940014611,0.061996335625311205,0.06842064679021059,0.0050792063839073115,0.043221952915594414,0.06358219083152286,0.05411073968099442,0.0423172410995627,-0.09545915581578897,0.04989319231567754,-0.042251186726608304,-0.07723506801089167,0.07490815648465274,0.015225875277089629,-0.06767910920037809,0.02418845231909368
-0.01399314671848459,0.04978579393208962,-0.09581708783914988,-0.018575696698570204,-0.014561642604527414,0.06596969484046375,0.08818545866016245,-0.02779512794599391,0.017179554872254574,0.012526898961576188,-0.09745991519298997,-0.09740997921691837,0.09532326651120479,-0.09657775207281444,0.06103365703761782,0.017396581522956006
0.03983843630728612,0.09398331061266524,-0.06516238653314277,0.004000556423330304,0.08981776679425965,-0.016355123197208637,0.01782688237693389,-0.05711809510668611,-0.07900361454262482,0.0471731070886075,-0.04615357246940002,-0.08460942940881096,-0.09688067860263927,0.043835433083969616,-0.010058868948213145,-0.01783521262872896
0.09551429023328556,-0.06548576777184259,-0.06764154531058389,-0.056981710995917846,0.030914642757498667,-0.08789477162329261,0.03655631080835642,0.007922637702231478,0.02517716550923102,0.06782924088834832,0.09852023620736669,0.011271966726851448,0.09621708948675037,-0.06220643228788761,0.06935385085119228,0.07142882722307531
-0.057542908989193654,0.07029118943118681,-0.07401095720917317,-0.08021776267547807,0.02634576102513167,-0.009500433187471624,-0.08884676492923674,0.08731941729815701,0.01746898085505015,0.07461858240516095,-0.04204357557614913,0.03329686758381753,-0.047664203040860414,-0.010409652446523115,0.023413096089825086,0.07755892968455869
0.04392745487692129,-0.06870235294147012,-0.025340593666301106,-0.09894516690532727,-0.007646975471271508,0.0703604220113006,-0.027990777981427115,0.027390663180019148,0.050135412407377566,0.024958316303267433,0.027149419569084704,-0.02710546505173453,-0.08393680127720522,-0.05483198062660804,0.05066452879235081,0.04108644463034242
0.018037349991107954,-0.08032610774269232,0.07382707230631849,0.020336689340152606,0.07526278020044738,-0.08983871782191928,-0.057686457808510186,0.08850752526376512,5.116982108085977E-5,0.009498679508699648,-0.0034946390008770145,0.06810839062966248,-0.0943935144775351,0.0703795124318349,0.0743919749189203,-0.07059330180330976
0.006595873255420576,-0.08946163192183675,-0.05494841815154137,-0.019858035108038713,0.005233024148495691,0.07236903255730895,-0.027624711584338837,-0.042141723017043886,-0.06225401596036249,-0.004584954378780412,0.09241460730023113,-0.016202099539553136,-0.008220727522245647,-0.017203562204243017,0.06575095648326809,-0.04158460929221888
-0.04277397318452674,0.02607786342496754,-0.06806923287797906,-0.04647889924626996,0.0784454045652554,-0.09540786572265209,-0.057110808201039066,-0.08343882250167296,-0.0970124627595789,0.05767759874187037,-0.07866529285066202,0.09828324978032116,0.03415924864546255,0.011847212140852645,0.0715848854141432,0.006905158318629784
-0.050044233401048646,0.079572875842082,0.07988855955773294,-0.06605402037728042,-0.04138441130860607,-0.02037980261489078,0.056446791795625145,-0.0875612552604993,0.0029545761435719325,0.0029145531057741536,-0.07461917903854734,0.03912968661490268,0.012728273152997072,-0.03569400548957767,-0.008958555903773702,0.023964086448180863
-0.00796982887394862,0.09234559248998259,0.0634321199085538,0.013634250453854177,0.03261286274503891,-0.011806731822202016,-0.012281341285547323,0.08882193929466425,-0.08991098725464608,0.06857683942273468,-0.066916619368447,-0.032491099985369254,0.060289052732025755,-0.018355756388460348,-0.03204883169522124,-0.05860428742718429
0.04688801976360585,0.002065142302761891,0.04549192085580939,0.09180923678815564,-0.012374179920955422,-0.09434838107861956,-0.026042992156387945,0.0019746462003658732,0.05960528697537182,-0.08251251964477385,-0.03276635138082666,-0.009925453761339506,0.09070651254977785,-0.03980660216411978,-0.0795854169477021,0.009567302323658794
0.030620197404030103,0.09712689568349167,-0.022871922845512677,0.07407405941641299,-0.08480092395736423,-0.041625900038283176,0.03594519836951285,-0.09416715976897592,0.008164981587841319,-0.018682810715360598,-0.09122297032742406,-0.03547659603461599,-0.06619632130684723,-0.02384108917565178,-0.056487456759717274,0.057808392910795287
-0.010872315521001916,-0.016557159721957412,-0.04043405112578755,0.03843482746666252,0.0363619543050393,0.0774703778563249,0.08396487332453165,-0.08975798480560825,0.011873996919701965,-0.012308199065030515,0.025299112983943578,0.030784157988016814,0.08083825343912662,0.0698113353262205,0.022431333784968893,-0.008140080048864545
-0.011210270762206015,0.050301182537649564,0.049003264925173484,-0.07311936742039711,0.012130411427308974,0.015910833138546826,-0.06352599383938891,0.08836394470679212,-0.0792707622918953,0.09172694395212741,0.032102950954621096,-0.05602154780224891,-0.06749644663514306,-0.06624369517377965,0.07241424519385395,0.011951603787284729
-0.06788754689442847,0.029952840517098955,0.07161309406644198,-0.07336054471840935,0.09948224204423581,0.01171375606183496,0.09917844541386633,-0.05206765591386436,-0.04754995078882134,0.032062273874744085,0.06929609728275915,-0.06827785893642965,-0.07772645092266339,-0.07590901730338012,0.03622518108399331,-0.014845881921731904
0.09050578378467466,0.04161091494659597,0.06966807386447105,0.05863381630950673,0.05390342983121957,-0.09829560903292078,-0.011885099022830165,-0.006848300723336823,0.053404503118265306,0.019967650182461244,0.008508168270114025,0.011759790008222401,-0.05491365245923188,0.06606110980531749,-0.07888966071295894,-0.060091670862413606
-0.04669002175387953,0.014447862329498351,-0.06759609476907222,-0.07249395832001304,0.05559076952386688,-0.012760727238148958,-0.07530219514065516,-0.0287518233566509,0.008303398178428137,-0.04478888784460995,0.07339484475808175,-0.018119546690781044,-0.001556778685164864,0.08929583211108896,-0.06116482570717752,-0.0618008913538582
-0.037558869436751574,0.044184269587916575,0.07723495089922297,0.022844118978020342,0.021495900067165175,0.02356826122525027,-0.018437733700969378,0.027284308439108562,0.03805344806901326,-0.06167840186264491,-0.02851794237816195,-0.07457396355506372,0.03998691812011115,-0.09080303464682914,-0.006722705271892476,0.017059363331783886
0.09203184528547961,-5.156578625714336E-4,0.026670688124294573,0.024791091262819115,0.049235262968759075,0.05222717808831881,-0.03697237165272074,-0.04471558884821774,-0.008304762466770255,-0.013030272186539266,-0.07508480149481694,0.04034454952062844,-0.019647978625818352,-0.05848919477083925,0.06340009347644265,0.010272505112756278
0.01735709807898518,-0.05246613480648748,-0.048742565629828996,-0.026482286752732828,-0.023443607401961608,0.002381752783147603,0.07761445799872238,0.07098542164220756,0.09360130587967017,0.02657215751220754,0.029932410204090598,-0.0481895858825667,0.04736721911369807,0.06401533461894302,-0.08029927032462446,-0.0936928889851759
-0.026742933564747995,0.09432380754447761,0.06186889350019237,-0.011490236786251537,-0.041528769983648274,-0.04215291363538998,-0.04963482271214503,0.006738262924055702,0.05876199460956846,-0.03355523715318323,0.012125160116351091,-0.01031378973870574,-0.027849505428674995,-0.04595146292465971,-0.04302150543419175,0.0033149552604823523
-0.025910960448562448,-0.08749571261759768,0.029901691824537918,-0.06483726276754871,0.06835710072463128,0.024936084568521838,0.056512899802001665,0.051984483845295276,0.03493628955917477,-0.08773692599636634,-0.09725816597540123,-0.07357702084449638,-0.005320969496865599,0.04266861968501948,-0.07411456775248759,-0.0757064636514559
-0.06257773374247158,-0.06894041461173728,0.08254003589379977,-0.061641187617485806,-0.050706997554917144,-0.0390241596890482,0.09647109547212673,-0.08710816548356626,-0.01171426677869225,-0.08634301311785993,-0.054562104919616376,0.022015564599127124,-0.06941338855408392,0.07487517807975197,0.038374917510926115,-0.01641596974584672
-0.07781696837479049,0.03411660128729993,-0.059489609506511144,0.08514968630811073,-0.034187280147528545,-0.07715984011388344,0.046320149836269586,-0.03868422936415521,0.029678294527199472,-0.057449989132098755,0.06264790598725312,0.014514333410514307,0.050605443696228436,-0.06191596071406143,0.0313250584762117,-0.09100317442411254
0.0029919411021380737,0.024990635688086058,-0.02302022004145214,0.08955648741933195,0.09145873880461727,-0.002289120783303983,-0.07646407587314318,0.05289110751272039,0.013305234069531408,-0.022132005920182163,-0.07636902222509884,0.0567232721448285,-0.03958800159365226,0.06140550242226492,0.03891909597184165,-0.04861059921578697
-0.08826970725712135,-0.08372501771692371,-0.043407097683154074,0.025136924913763542,0.05652659140975211,-0.05766302128019843,-0.008806518332810515,-0.07287504092090101,-0.04707771200654354,0.08500725268492357,-0.00610428807849886,-0.06254474423227102,0.08377851323070434,0.07265823821008197,-0.05314884696447202,-0.012840865017968078
-0.017944865063236587,0.09153176106927241,-0.04291652631648431,0.08678860268869545,-0.007012202673734855,0.08355031862775364,-0.08095769529943436,0.01550363228386556,0.06486132445803183,0.006245506203103976,-0.045136461113197426,-0.07476662419463505,-0.08412507076775644,-0.053921770196263874,0.012165401574746965,-0.08980187176837584
0.05279269838755235,0.08311948714304096,-0.04237637999994921,-0.03791852717040056,-0.02818397068928012,-0.005253558085761639,-0.05312016757548883,0.061254050026218115,-0.02149298428113422,0.08250542787805998,-0.05310063985892906,0.010102328874413008,-0.06890636693198762,-0.07457145500519076,0.06742507547712501,-0.06284521705014863
0.08087567188197417,-0.05986319634456512,-0.07134082545044179,0.010960832224459316,-0.08811195813550872,-0.01732285856960196,0.05144691771885335,0.0606195103322095,-0.02381849900197272,-0.0183311762475388,0.04221954316324339,0.09912581814307306,0.02889178454984051,-0.05489887360414034,0.007290135341231019,-0.008819233630009957
-0.013365570784971054,0.04661588739079775,-0.02633462758119265,-0.04726498643671184,-0.08157551442939281,-0.07644854105865091,-0.038106660320437837,0.03886543523271899,0.09203222826057611,0.0121224746365199,0.07874879336492746,0.06401861994915212,-0.053876692689772604,0.04830144329466787,-0.08023848040888903,0.0892019265748828
-0.001375445592748853,0.03723290651898842,-0.05250595570042114,-0.04618968291195613,-0.043368510323351185,-0.07751817229155551,0.05791624105147919,-0.08731146213649177,0.04180072794743164,-0.059838672351277045,-0.09561794239089133,0.0964721841177773,-0.03817398754099737,0.09629417998620732,0.025618717545876274,0.032298710265130814
0.09107432032454676,-0.025328577147230677,-0.08584139517323904,0.07861473625000079,0.021329572275256628,-0.07851402403161588,0.08329932137080334,0.051041547536807064,-0.034710929240986205,0.022693995455860885,-0.02065655257765779,-0.07713918534460046,-0.09607713954555493,-0.07128783250328555,-0.060886209931861446,0.047745725616948315
0.07305946620192055,-0.05919632100099675,0.033924393380705575,0.024865096311381313,-0.0731610588899066,-0.010978853506438568,-0.019071582759888364,-0.0639750145882297,0.07394058576111293,-0.017713465962310118,0.0414260899160023,0.08541609563897759,0.05982595006180155,-0.08066143477545525,-0.06423238635234192,0.03488007378985644
0.0499469958851648,-0.018037242556382796,0.08112253452791526,-0.06504063681990296,0.011521616756230424,-0.06769696996324706,-0.014503266604904794,0.05565043994105165,-0.048506355062502206,-0.08231964071087437,0.08573255563243684,-0.050920390739405574,0.07847127904028847,-0.013536278590781686,-0.08126207087429412,-0.08519400673200686
-0.04700642926927212,-0.05362869616872939,0.046974714672753604,-0.02614920770536598,0.04850280081714267,-0.04337521643003359,-0.08739240456978992,0.060631482620724264,-0.09918298706591866,-0.055372362366038486,0.09300512098849278,-0.03476151400251751,-0.05844120274831033,0.07117632206552674,0.09638380784643893,-0.041389134162489793
0.00483035018321476,0.07963699259351809,-0.003818082219772284,-0.04005798969738106,-0.039591215518859336,-0.04325639908839585,-0.03688012229247149,0.001418320066824963,-0.007843343890818713,0.07041684709631232,-0.013095741616708817,0.05507720285570511,-0.07121890667065359,-0.0807760605847556,0.06185880731432669,-0.010029319868047892
0.05202227546551491,-0.007901934663446755,0.020036575637989218,-0.053630273976837575,-0.04121167354654065,0.07428977499555411,-0.0017221489547077085,-0.03596222780775586,0.0694672684069221,0.08451985334009116,0.037230293461095715,0.0825386550441416,-0.06817533037190959,-0.04499732901262437,-0.028257520010611215,0.037777226884923104
-0.05943793797183932,0.07700103401616848,-0.030394595695759488,0.0599479126595332,0.051748622366330266,0.0859047922207559,0.04193662797787798,0.016002584810544507,-0.0290365305546582,-0.05675582830906061,-0.010015573003553421,0.02980379471952757,-0.050175509793488705,0.04280317465653283,-0.06996213009435846,0.056888424050202585
0.04326115052306928,0.010215643905773342,-0.04334936688274682,-0.02419491185905487,0.030402098431628027,-0.012755846643266053,-0.010468162605898917,0.09388317953338773,-0.0017302225217537825,0.08830316419852671,0.027973220297964035,0.0069277892415804815,-0.0030273951193955373,-0.026492833091817006,-0.006607707609042432,-0.07221482459966613
-0.0787638362702273,-0.021050288379828808,0.09601476938428374,0.019790333637863394,0.061289933178936634,-0.024044319704252762,0.09982273615796208,0.09916246434194184,-0.008858679001598715,0.0321098222689038,-0.0471814808448777,-0.05454468585326871,-0.01522862647910514,-0.06316815299565195,-0.02251950361365429,0.04572046393293425
